svm_type c_svc
kernel_type rbf
gamma 0.03125
nr_class 2
total_sv 1694
rho -3.81719
label 0 1
nr_sv 835 859
SV
512 1:0.346954 2:-0.334745 3:0.135231 4:-0.273708 5:-0.452117 6:0.574798 7:0.230232 8:0.0290753 9:0.692325 10:-0.334595 11:-0.644096 12:-0.548056 13:0.143356 14:-0.453635 15:-0.984081 
512 1:0.611757 2:-0.841465 3:-0.0740032 4:-0.563849 5:0.283806 6:-0.290111 7:0.0836517 8:0.580071 9:-0.796031 10:-0.160502 11:-0.408886 12:0.130664 13:-0.546009 14:-0.982596 15:0.32921 
359.3317624698216 1:0.520492 2:0.746983 3:0.0435415 4:-0.106373 5:0.25396 6:0.756479 7:0.375654 8:0.831543 9:0.77238 10:-0.925743 11:0.0318811 12:-0.615578 13:0.193455 14:0.852681 15:0.735141 
512 1:0.368892 2:0.0482166 3:-0.678426 4:-0.974397 5:-0.425388 6:-0.869325 7:-0.561267 8:-0.0220284 9:-0.095699 10:-0.234277 11:0.226964 12:0.645517 13:0.88572 14:0.491191 15:0.207896 
366.7770064196031 1:0.0537192 2:0.66552 3:0.252786 4:-0.708926 5:-0.83776 6:-0.923933 7:0.085283 8:-0.400172 9:-0.756488 10:0.918842 11:0.981481 12:-0.0657768 13:-0.858567 14:0.375521 15:-0.509584 
512 1:-0.173528 2:0.331547 3:-0.176325 4:-0.645567 5:-0.338577 6:-0.661637 7:0.844913 8:-0.501382 9:0.476394 10:-0.0151117 11:-0.566667 12:-0.570306 13:0.226165 14:-0.871292 15:-0.420135 
512 1:-0.396206 2:-0.577372 3:-0.246178 4:0.315362 5:0.805755 6:0.188876 7:-0.632614 8:0.501623 9:-0.515304 10:-0.271276 11:-0.136403 12:-0.750117 13:0.260923 14:0.134355 15:-0.187867 
512 1:0.725615 2:0.010643 3:0.67875 4:-0.297384 5:0.234235 6:0.269062 7:-0.760923 8:-0.30855 9:0.183725 10:-0.379184 11:0.781514 12:-0.240984 13:0.757521 14:0.743789 15:-0.867907 
512 1:0.889495 2:-0.0344828 3:0.0884341 4:0.489423 5:0.619997 6:0.212734 7:0.607033 8:-0.533583 9:0.0449025 10:-0.465442 11:0.803125 12:-0.810778 13:-0.540497 14:0.445251 15:0.361595 
211.3701572263178 1:-0.87691 2:0.00552248 3:0.388214 4:-0.882365 5:0.588736 6:0.621096 7:-0.79788 8:-0.970053 9:0.169134 10:0.397401 11:0.483711 12:0.406329 13:0.857048 14:0.24946 15:-0.740984 
354.8325812772561 1:0.274696 2:-0.47574 3:-0.34957 4:0.998762 5:0.226142 6:0.39204 7:-0.467082 8:-0.40952 9:-0.780626 10:-0.816123 11:0.914453 12:0.972975 13:-0.779498 14:0.682057 15:0.197941 
512 1:0.526416 2:-0.909387 3:-0.277583 4:0.131969 5:-0.541412 6:0.692503 7:-0.144198 8:0.704577 9:0.2468 10:0.277395 11:-0.230105 12:0.387985 13:-0.596628 14:0.188966 15:-0.515087 
512 1:-0.815281 2:0.277625 3:-0.424305 4:-0.921824 5:0.78433 6:0.987869 7:-0.676426 8:0.90347 9:0.394769 10:-0.841067 11:-0.41479 12:0.503583 13:-0.214592 14:-0.996271 15:0.578394 
391.685270429987 1:-0.888251 2:-0.411893 3:0.10466 4:0.402098 5:-0.660225 6:-0.0575107 7:-0.801191 8:-0.474105 9:0.785281 10:0.562754 11:-0.893237 12:-0.501528 13:0.422903 14:0.742215 15:-0.635063 
378.3880659481918 1:0.603637 2:0.113442 3:0.516882 4:0.899673 5:-0.616129 6:0.633843 7:0.301976 8:0.987966 9:0.7065 10:0.320313 11:0.285662 12:-0.686664 13:-0.994144 14:-0.462092 15:-0.981109 
506.4517357528562 1:-0.270964 2:-0.45336 3:-0.398547 4:0.982929 5:0.037632 6:-0.897947 7:-0.391293 8:0.0168155 9:-0.263223 10:0.668274 11:-0.296367 12:-0.577815 13:-0.542613 14:0.932843 15:0.881701 
56.04626162264115 1:-0.813843 2:-0.931058 3:0.203034 4:-0.462172 5:0.435513 6:-0.451827 7:-0.479734 8:0.985135 9:-0.494651 10:-0.709145 11:0.164372 12:0.689801 13:0.0646973 14:0.807454 15:-0.501639 
512 1:-0.960719 2:-0.377858 3:-0.0382304 4:-0.500496 5:0.30941 6:-0.144353 7:0.236494 8:-0.789424 9:0.355591 10:-0.209848 11:-0.543053 12:0.823696 13:0.596514 14:0.17324 15:0.243501 
90.10289874747814 1:-0.867788 2:-0.475004 3:0.765349 4:0.0586575 5:-0.0804287 6:-0.929043 7:-0.540241 8:-0.524166 9:0.293567 10:-0.0412203 11:0.499051 12:-0.726577 13:0.939661 14:-0.457019 15:-0.290803 
512 1:0.712226 2:-0.712476 3:-0.709689 4:0.093423 5:0.656974 6:0.098431 7:-0.440865 8:0.431678 9:-0.339781 10:-0.608386 11:-0.664152 12:-0.130626 13:-0.724743 14:0.532395 15:-0.52343 
512 1:0.84749 2:-0.934847 3:0.556101 4:-0.920874 5:-0.710313 6:0.0546775 7:0.217497 8:0.778823 9:0.99339 10:-0.259314 11:0.585482 12:-0.657518 13:0.705156 14:0.0140633 15:-0.271527 
512 1:0.664685 2:-0.991659 3:-0.921357 4:0.121853 5:0.450586 6:0.536034 7:0.917679 8:-0.26241 9:-0.222577 10:0.21882 11:-0.925135 12:-0.394308 13:0.433146 14:-0.783188 15:0.685609 
512 1:-0.543456 2:-0.309017 3:-0.156825 4:-0.764151 5:0.196627 6:-0.378149 7:0.00102651 8:0.432625 9:-0.868977 10:-0.080425 11:0.68838 12:0.122027 13:-0.432772 14:-0.283084 15:-0.0141347 
512 1:-0.608834 2:-0.414331 3:-0.00657415 4:0.364821 5:0.632017 6:0.239598 7:-0.738359 8:0.180065 9:0.589398 10:0.17443 11:-0.436773 12:-0.278651 13:-0.219469 14:-0.134263 15:-0.847774 
256.8351277754339 1:-0.186409 2:-0.756459 3:0.756764 4:-0.321469 5:0.814274 6:0.848718 7:-0.358884 8:0.0922233 9:0.55747 10:0.16111 11:-0.792911 12:0.880654 13:0.0601942 14:0.424223 15:0.247005 
512 1:-0.864924 2:-0.979321 3:-0.976799 4:-0.948906 5:-0.227752 6:-0.425469 7:-0.331349 8:0.668147 9:0.683423 10:0.964173 11:-0.226521 12:0.464187 13:0.565704 14:-0.53706 15:-0.253393 
512 1:0.261878 2:0.285191 3:-0.919412 4:-0.890684 5:-0.514521 6:0.564657 7:0.704571 8:0.869672 9:-0.318784 10:0.0434501 11:0.0369855 12:-0.124107 13:-0.596258 14:-0.2007 15:-0.260143 
512 1:0.453026 2:-0.815764 3:0.727652 4:-0.951188 5:0.495291 6:-0.248218 7:-0.898122 8:0.466282 9:0.541245 10:-0.144975 11:0.164026 12:0.175413 13:0.517676 14:-0.143048 15:0.037442 
512 1:-0.15717 2:-0.624609 3:0.423725 4:0.789195 5:-0.57888 6:-0.0696203 7:-0.0816791 8:0.695072 9:-0.0653505 10:0.327967 11:0.205825 12:-0.115915 13:-0.88468 14:0.873759 15:0.650541 
146.4174136399436 1:-0.822329 2:-0.482306 3:0.728848 4:-0.150008 5:0.627105 6:0.0783645 7:0.462402 8:0.573776 9:0.516615 10:0.370614 11:0.360063 12:-0.508484 13:-0.17011 14:-0.225026 15:-0.0848469 
512 1:0.6154 2:-0.33041 3:-0.895828 4:-0.473071 5:0.633243 6:0.24087 7:0.0357702 8:0.218131 9:0.891469 10:-0.852226 11:-0.676156 12:0.978251 13:0.210363 14:-0.755492 15:0.606279 
342.3751301678171 1:0.5573 2:-0.387748 3:-0.657211 4:0.0842721 5:-0.9069 6:0.669619 7:0.434922 8:-0.697074 9:0.199145 10:0.00589321 11:0.672798 12:-0.870637 13:-0.163023 14:0.29962 15:0.18192 
512 1:-0.262291 2:-0.649121 3:0.472673 4:0.494641 5:-0.248781 6:-0.589428 7:0.822417 8:0.748735 9:-0.410921 10:-0.115629 11:0.533167 12:-0.724082 13:-0.963864 14:0.683024 15:0.704328 
512 1:0.266789 2:-0.103627 3:-0.249522 4:0.735566 5:0.195488 6:-0.0203886 7:-0.33617 8:-0.668426 9:0.414775 10:-0.792916 11:0.8526 12:-0.725342 13:-0.145867 14:0.881019 15:-0.197171 
512 1:0.239269 2:0.129922 3:-0.873171 4:-0.177444 5:0.415053 6:0.828896 7:0.646601 8:-0.144592 9:-0.62445 10:0.461241 11:0.894873 12:0.385889 13:0.746761 14:0.971761 15:-0.515666 
512 1:0.986902 2:-0.983322 3:-0.89381 4:-0.953965 5:0.902885 6:-0.858694 7:0.501395 8:-0.594626 9:0.0688298 10:0.175168 11:-0.157991 12:-0.947148 13:-0.371302 14:0.159972 15:0.956456 
63.44252426782592 1:0.206194 2:-0.225901 3:-0.245751 4:0.794503 5:-0.20329 6:0.548998 7:-0.743975 8:0.867587 9:0.510425 10:-0.929274 11:0.240359 12:0.472483 13:0.234778 14:0.473474 15:0.360372 
16.90350665770963 1:-0.104768 2:0.956507 3:-0.462487 4:0.469975 5:0.765851 6:0.578449 7:0.790852 8:-0.879032 9:-0.307877 10:-0.430125 11:-0.382276 12:-0.384909 13:-0.802672 14:-0.878574 15:0.552731 
512 1:-0.437349 2:-0.347557 3:0.672618 4:-0.631216 5:-0.592074 6:0.377748 7:0.732149 8:0.91712 9:-0.953421 10:0.300032 11:0.737845 12:0.178604 13:-0.841694 14:-0.965176 15:-0.0891258 
93.06277581415331 1:-0.499351 2:0.832829 3:-0.61513 4:-0.832794 5:0.556327 6:-0.364379 7:0.624714 8:-0.187658 9:-0.749705 10:-0.911569 11:0.672226 12:-0.670241 13:-0.983732 14:-0.932887 15:0.727059 
344.224928162497 1:0.1785 2:-0.423839 3:0.356335 4:0.0743174 5:0.37876 6:0.0267846 7:0.11793 8:0.95818 9:0.143215 10:-0.573258 11:-0.644547 12:-0.583646 13:-0.261016 14:0.655727 15:-0.611778 
110.6972345661327 1:-0.47002 2:-0.647589 3:0.162177 4:0.414215 5:0.958166 6:-0.956374 7:-0.257684 8:-0.69804 9:0.94171 10:0.718866 11:-0.382159 12:0.0540535 13:-0.975946 14:0.728128 15:-0.480892 
512 1:-0.884637 2:-0.627732 3:0.72273 4:-0.534705 5:0.712128 6:-0.634416 7:0.075498 8:0.919844 9:0.412485 10:-0.857642 11:0.474957 12:0.471386 13:-0.526651 14:-0.703525 15:0.680726 
512 1:-0.918337 2:0.293265 3:-0.932885 4:-0.996864 5:-0.104449 6:-0.197743 7:-0.681622 8:0.415648 9:-0.0327262 10:0.401769 11:-0.202576 12:0.664481 13:-0.0668013 14:0.821222 15:-0.0796336 
512 1:-0.155496 2:-0.535185 3:0.729821 4:0.432177 5:-0.440232 6:0.936747 7:0.901751 8:-0.916172 9:-0.448483 10:0.915174 11:0.80197 12:0.683862 13:-0.639531 14:-0.158217 15:0.331982 
132.6393693679309 1:-0.909735 2:-0.115515 3:-0.946741 4:-0.881151 5:-0.239789 6:-0.918114 7:0.457937 8:-0.76151 9:-0.620269 10:0.978083 11:-0.498191 12:-0.170029 13:0.717144 14:0.763153 15:0.0820816 
113.4410121140716 1:-0.138227 2:-0.704908 3:-0.408226 4:0.606027 5:0.15038 6:0.853808 7:0.725939 8:0.364142 9:-0.692693 10:-0.0443528 11:-0.934068 12:0.785793 13:0.78764 14:-0.62015 15:-0.664054 
512 1:0.385495 2:0.139434 3:-0.0605535 4:-0.852883 5:-0.427884 6:0.612017 7:-0.447071 8:-0.818913 9:0.0913995 10:-0.806013 11:-0.840689 12:0.387627 13:0.0601088 14:0.477202 15:-0.489211 
512 1:-0.837323 2:-0.499195 3:-0.0448156 4:-0.224879 5:0.237539 6:0.751349 7:0.919679 8:-0.950814 9:-0.751675 10:0.95365 11:-0.138762 12:-0.463785 13:-0.921765 14:-0.141999 15:0.314874 
268.214090641544 1:0.731551 2:-0.266358 3:-0.951896 4:-0.858156 5:-0.39506 6:0.504263 7:0.0576124 8:-0.872836 9:0.926784 10:0.456829 11:0.0394064 12:0.207967 13:0.551062 14:0.970154 15:-0.0628487 
486.0814388578885 1:-0.867988 2:-0.281511 3:-0.159167 4:-0.717531 5:0.143083 6:0.40359 7:-0.247744 8:-0.217047 9:-0.924321 10:-0.300901 11:-0.328737 12:-0.727372 13:-0.769341 14:0.66075 15:-0.964254 
512 1:-0.908208 2:-0.53594 3:-0.0129613 4:-0.74857 5:0.721498 6:-0.473392 7:0.786203 8:0.183557 9:-0.580914 10:0.778095 11:0.358228 12:0.0613188 13:0.00219069 14:-0.541413 15:-0.670666 
512 1:0.143441 2:0.104758 3:-0.918417 4:-0.136327 5:0.55541 6:-0.380826 7:-0.919612 8:-0.760731 9:0.637308 10:0.317645 11:0.971624 12:0.352613 13:-0.233115 14:-0.46197 15:-0.135588 
512 1:-0.312294 2:-0.565177 3:-0.762948 4:0.742273 5:0.120642 6:-0.0587489 7:-0.413238 8:0.391263 9:-0.115966 10:-0.331571 11:-0.254202 12:-0.940555 13:-0.239673 14:-0.404594 15:-0.122205 
67.23440245423926 1:0.593546 2:-0.854349 3:-0.982034 4:-0.141459 5:0.0959946 6:0.0654788 7:-0.056308 8:-0.965721 9:-0.3308 10:-0.97524 11:-0.0368481 12:-0.867491 13:0.439475 14:-0.943769 15:-0.0537616 
512 1:-0.882255 2:-0.537397 3:-0.508749 4:0.447612 5:0.126221 6:-0.585909 7:0.264602 8:0.160006 9:0.328982 10:-0.0896986 11:0.646527 12:-0.84183 13:0.512847 14:0.752041 15:0.849196 
512 1:0.172746 2:-0.224644 3:-0.0664862 4:0.0058601 5:-0.460142 6:0.43342 7:-0.430547 8:-0.266637 9:0.187985 10:-0.134896 11:-0.155542 12:0.512572 13:-0.298551 14:-0.390563 15:-0.334875 
321.1422468409895 1:-0.801398 2:-0.940961 3:0.74667 4:-0.676307 5:0.0730706 6:-0.522413 7:-0.0210593 8:-0.701715 9:0.982629 10:0.720872 11:-0.922362 12:0.884717 13:0.673622 14:-0.478744 15:0.58171 
512 1:-0.313866 2:-0.829062 3:-0.13043 4:-0.596069 5:0.755244 6:0.362458 7:0.779236 8:0.0986283 9:-0.830883 10:-0.426419 11:0.394879 12:-0.451685 13:0.279389 14:0.838857 15:0.0909748 
512 1:0.545395 2:-0.930056 3:-0.933933 4:0.205069 5:-0.743936 6:-0.763616 7:0.520395 8:-0.673285 9:-0.60617 10:-0.654484 11:-0.118434 12:-0.681038 13:0.0716217 14:0.347298 15:0.453 
404.5685739208331 1:0.6711 2:0.260506 3:0.606143 4:-0.772869 5:-0.531722 6:-0.408296 7:-0.0470036 8:0.235993 9:-0.304821 10:-0.835008 11:0.960388 12:0.585561 13:-0.7408 14:0.35051 15:0.366491 
512 1:0.828809 2:0.390061 3:-0.470757 4:-0.902741 5:-0.615753 6:0.872529 7:-0.137926 8:0.349645 9:-0.92239 10:-0.00800577 11:0.886829 12:0.354022 13:0.557292 14:-0.41509 15:-0.263369 
228.6509219489448 1:-0.757337 2:-0.721588 3:0.65699 4:0.722197 5:-0.769446 6:-0.730986 7:0.398682 8:-0.355032 9:-0.444521 10:0.444901 11:-0.911532 12:0.925193 13:0.0517074 14:0.799956 15:-0.712433 
512 1:-0.0951828 2:-0.495479 3:-0.178739 4:-0.369376 5:0.432357 6:-0.175752 7:0.901508 8:-0.158199 9:-0.377648 10:-0.064244 11:-0.609231 12:0.821394 13:0.506858 14:0.526503 15:0.174612 
512 1:0.0698763 2:0.468543 3:-0.825394 4:-0.294567 5:0.779607 6:-0.267102 7:0.40483 8:-0.00186015 9:0.838961 10:-0.781007 11:0.400686 12:0.102455 13:0.093456 14:-0.0359579 15:-0.593774 
512 1:0.847985 2:0.651305 3:0.283658 4:-0.369405 5:-0.330781 6:-0.663524 7:-0.557684 8:-0.108001 9:0.482723 10:-0.902714 11:0.992291 12:0.459382 13:-0.728343 14:0.108525 15:-0.360158 
512 1:0.847459 2:-0.703754 3:0.311924 4:0.861864 5:0.440774 6:0.652196 7:0.153544 8:-0.25517 9:-0.553088 10:-0.213453 11:0.139465 12:0.409811 13:-0.534539 14:0.391886 15:0.712458 
257.4423634333455 1:-0.128548 2:-0.534425 3:0.724709 4:0.884485 5:-0.826899 6:-0.831207 7:-0.510496 8:0.106711 9:-0.182395 10:-0.685492 11:0.194648 12:0.690956 13:0.180411 14:-0.081218 15:-0.300081 
26.77656958085628 1:0.533527 2:-0.729351 3:0.904702 4:-0.380444 5:-0.665893 6:-0.043291 7:-0.415933 8:0.0401022 9:-0.652104 10:0.863883 11:0.958389 12:0.888264 13:0.861027 14:0.0778191 15:0.600174 
175.9568470556368 1:-0.715454 2:0.999375 3:-0.432827 4:-0.800845 5:-0.0117288 6:0.159372 7:-0.00122737 8:-0.837601 9:-0.411145 10:0.502963 11:0.568537 12:-0.690079 13:-0.679126 14:0.793998 15:0.335329 
344.907457765557 1:0.2934 2:0.259242 3:0.507283 4:-0.97216 5:-0.731204 6:0.182437 7:0.838696 8:0.400841 9:0.327059 10:-0.107983 11:0.389758 12:0.57179 13:-0.344769 14:-0.987625 15:0.733208 
512 1:0.230937 2:-0.324838 3:-0.895125 4:-0.863327 5:0.232431 6:0.0392314 7:-0.897311 8:0.0586671 9:-0.768558 10:-0.989248 11:0.164692 12:0.812891 13:-0.197605 14:0.689883 15:0.804032 
226.131010975293 1:-0.440479 2:-0.116411 3:-0.37696 4:-0.36402 5:-0.927241 6:-0.466829 7:-0.0557577 8:-0.720255 9:0.6274 10:-0.664486 11:0.996155 12:-0.376366 13:0.941203 14:-0.439403 15:-0.471258 
512 1:0.34664 2:-0.170923 3:-0.138658 4:0.302392 5:0.0393642 6:0.418401 7:0.430294 8:0.2084 9:0.946562 10:-0.344311 11:-0.404919 12:-0.132759 13:0.426712 14:0.297883 15:-0.330129 
512 1:-0.309134 2:0.00278505 3:-0.393653 4:-0.668438 5:0.0740507 6:0.686921 7:0.913354 8:-0.97929 9:0.625783 10:0.480871 11:-0.475425 12:-0.160761 13:-0.515219 14:-0.480833 15:0.692706 
486.8021972470672 1:-0.800432 2:-0.533516 3:0.254244 4:-0.624825 5:0.0241972 6:0.312905 7:0.680163 8:-0.202778 9:-0.672983 10:0.907087 11:-0.997501 12:-0.468309 13:0.0503272 14:-0.110564 15:0.120865 
409.6546557173876 1:-0.713556 2:0.238614 3:0.735159 4:0.435599 5:-0.964348 6:0.921102 7:0.896271 8:-0.185757 9:0.810255 10:-0.896432 11:-0.732631 12:0.334341 13:-0.597424 14:0.693612 15:0.0690749 
512 1:0.385199 2:0.32972 3:0.466024 4:-0.996127 5:0.388522 6:0.817008 7:0.432703 8:0.312817 9:0.225366 10:-0.194438 11:-0.152958 12:-0.220484 13:-0.671046 14:0.58058 15:-0.920605 
431.6628219803723 1:-0.237681 2:0.801557 3:0.711672 4:0.518505 5:-0.678616 6:-0.182154 7:0.508998 8:0.1272 9:0.831014 10:-0.826807 11:0.595674 12:0.424822 13:-0.469794 14:0.417749 15:-0.363395 
512 1:0.125758 2:-0.0232483 3:-0.271505 4:-0.465674 5:0.074655 6:-0.483681 7:-0.537364 8:-0.176006 9:-0.38084 10:-0.763468 11:-0.226525 12:0.573404 13:-0.781581 14:-0.673307 15:0.426826 
512 1:0.417614 2:-0.494487 3:0.887544 4:0.203729 5:0.645872 6:0.643672 7:0.743103 8:0.487312 9:0.825028 10:-0.947821 11:0.875021 12:0.418633 13:-0.775725 14:-0.209084 15:0.386034 
426.9095352273108 1:-0.282338 2:-0.166796 3:-0.243165 4:0.691398 5:-0.77562 6:-0.165901 7:0.223988 8:0.128114 9:0.839623 10:-0.980949 11:0.365953 12:-0.0606021 13:0.323427 14:-0.632225 15:0.909248 
110.3351032438115 1:-0.279274 2:-0.54457 3:-0.318592 4:-0.0645814 5:0.0942381 6:-0.579638 7:0.807158 8:0.557914 9:0.341163 10:0.95126 11:-0.125434 12:0.178433 13:0.265199 14:0.90512 15:-0.991133 
512 1:-0.214192 2:-0.626134 3:-0.674334 4:0.674815 5:0.527277 6:0.249742 7:0.978335 8:0.716889 9:0.495269 10:0.105694 11:-0.265342 12:0.56296 13:0.0333153 14:0.186311 15:0.191705 
312.8113689371758 1:0.835122 2:0.820414 3:-0.686829 4:0.990195 5:0.142737 6:0.595277 7:0.246596 8:0.670516 9:0.0987389 10:-0.87753 11:-0.294544 12:-0.0359906 13:-0.805221 14:0.306299 15:0.187413 
512 1:-0.787503 2:-0.509196 3:0.126294 4:-0.624814 5:-0.736176 6:-0.146016 7:-0.401354 8:-0.367251 9:-0.81404 10:0.368649 11:-0.762652 12:0.0902047 13:-0.633178 14:-0.502186 15:-0.393114 
202.0360307369248 1:-0.976744 2:-0.9589 3:0.617527 4:-0.87929 5:0.185099 6:0.310827 7:0.488289 8:-0.914514 9:-0.714127 10:-0.0933827 11:-0.796057 12:0.238191 13:-0.489286 14:0.00731898 15:0.0831318 
443.7496849717095 1:-0.141852 2:-0.00901923 3:0.151039 4:-0.334645 5:-0.968042 6:0.0284682 7:-0.717985 8:0.226273 9:0.134495 10:-0.440654 11:-0.0475708 12:-0.679729 13:-0.154021 14:0.178271 15:0.74681 
512 1:-0.71669 2:-0.189502 3:-0.409411 4:-0.310896 5:-0.801088 6:-0.242735 7:-0.243984 8:-0.867216 9:0.0319926 10:0.902771 11:-0.495765 12:0.407766 13:-0.167196 14:0.676984 15:-0.910839 
503.8363261606062 1:-0.0297751 2:-0.355575 3:-0.501292 4:0.62213 5:0.0615117 6:0.311538 7:-0.200384 8:-0.371582 9:-0.0271557 10:0.216092 11:0.838793 12:-0.756439 13:0.0735372 14:-0.0240918 15:-0.138412 
512 1:-0.421711 2:0.00432051 3:-0.0749795 4:-0.958647 5:-0.954781 6:-0.711576 7:-0.630623 8:-0.336357 9:0.419994 10:0.427068 11:0.532731 12:-0.534894 13:0.149236 14:-0.340015 15:-0.607338 
512 1:0.131525 2:-0.826972 3:0.286039 4:-0.96764 5:0.00133254 6:0.0519019 7:-0.360119 8:-0.940018 9:0.991391 10:0.44066 11:0.232346 12:-0.201035 13:0.548281 14:-0.426327 15:-0.334691 
512 1:-0.631225 2:0.645156 3:-0.0154107 4:-0.852248 5:-0.0594186 6:0.444187 7:-0.398019 8:-0.84227 9:0.505509 10:-0.497665 11:0.707814 12:-0.589689 13:-0.166265 14:-0.502073 15:0.171818 
512 1:0.483048 2:-0.949506 3:0.78301 4:-0.29065 5:-0.291561 6:-0.534599 7:-0.53181 8:-0.572691 9:-0.181541 10:-0.953942 11:-0.571802 12:-0.294076 13:0.242309 14:-0.202202 15:-0.28565 
512 1:0.262382 2:-0.735371 3:-0.718658 4:0.406795 5:-0.917701 6:0.589357 7:-0.844764 8:-0.644672 9:-0.174242 10:0.470304 11:0.116072 12:0.23558 13:-0.396044 14:0.195022 15:0.256744 
512 1:-0.339248 2:-0.48677 3:-0.891964 4:0.999254 5:-0.872965 6:-0.434177 7:0.277327 8:-0.585699 9:-0.416103 10:-0.192451 11:0.155986 12:0.880949 13:0.137909 14:0.57132 15:-0.707168 
512 1:-0.0388404 2:0.305882 3:-0.149226 4:0.159413 5:0.225603 6:0.19471 7:-0.315419 8:-0.963627 9:0.0483067 10:-0.346028 11:0.799704 12:0.314994 13:-0.385677 14:-0.843768 15:0.116447 
512 1:-0.839545 2:0.199991 3:-0.59684 4:0.249562 5:0.400107 6:0.908261 7:0.910394 8:0.306588 9:0.700017 10:0.652375 11:0.94303 12:0.195658 13:-0.666363 14:-0.853209 15:-0.0511014 
512 1:0.923042 2:-0.471436 3:-0.166649 4:-0.897373 5:0.743952 6:-0.877895 7:0.0311794 8:0.643927 9:-0.797459 10:0.428555 11:0.597262 12:-0.829837 13:0.385657 14:0.493256 15:0.867042 
512 1:-0.913246 2:-0.607665 3:-0.445948 4:0.473406 5:-0.660039 6:-0.820292 7:-0.221526 8:0.370195 9:0.583858 10:0.590206 11:0.535419 12:-0.573142 13:0.273783 14:0.974489 15:-0.50772 
512 1:-0.561019 2:0.163696 3:-0.186889 4:-0.16279 5:-0.73582 6:-0.165979 7:0.686596 8:-0.977942 9:-0.625525 10:-0.139719 11:-0.0364135 12:0.652185 13:-0.712624 14:-0.295905 15:-0.949118 
512 1:0.45985 2:-0.431826 3:-0.87719 4:0.293349 5:0.861843 6:-0.682899 7:0.598105 8:0.318843 9:-0.574869 10:0.486448 11:0.747311 12:0.342398 13:-0.598457 14:0.352444 15:-0.122057 
512 1:-0.761706 2:0.245144 3:-0.683749 4:0.406554 5:-0.0580529 6:-0.0179618 7:0.336266 8:-0.0829757 9:0.636378 10:-0.681571 11:0.528103 12:-0.566842 13:-0.071047 14:-0.116685 15:0.761058 
512 1:-0.0833219 2:-0.512429 3:0.974823 4:0.758621 5:-0.984472 6:-0.0436402 7:-0.29023 8:-0.432388 9:-0.156546 10:-0.410773 11:0.994115 12:0.457628 13:0.50151 14:-0.0046127 15:-0.771714 
512 1:0.812514 2:-0.64993 3:-0.417403 4:0.0345718 5:0.386495 6:0.492773 7:0.0723969 8:0.629712 9:-0.110875 10:-0.58475 11:-0.581032 12:0.648048 13:-0.559384 14:0.604116 15:0.573328 
512 1:-0.316249 2:-0.950526 3:-0.0680648 4:-0.940154 5:0.742283 6:-0.036331 7:0.422307 8:0.894263 9:-0.44198 10:-0.784044 11:0.297067 12:0.460409 13:-0.426509 14:0.146385 15:-0.726345 
64.92963003370087 1:-0.481131 2:-0.288549 3:-0.12475 4:-0.595462 5:0.312626 6:0.534629 7:-0.242 8:-0.451963 9:-0.903639 10:-0.839152 11:0.329603 12:-0.122122 13:-0.865284 14:0.0998714 15:0.637258 
512 1:0.130521 2:-0.490189 3:0.132892 4:0.537484 5:-0.384334 6:0.128873 7:-0.681224 8:0.125362 9:0.722253 10:-0.0655679 11:-0.0452936 12:0.395261 13:0.651469 14:0.623595 15:-0.0519059 
172.2448194886287 1:0.214674 2:0.0454583 3:0.775306 4:-0.0426317 5:-0.0506904 6:-0.988585 7:0.691989 8:-0.57467 9:-0.000187211 10:-0.822199 11:-0.565521 12:-0.348136 13:-0.688161 14:0.77243 15:-0.108195 
244.2742003434095 1:-0.945008 2:-0.612659 3:-0.354616 4:0.293757 5:0.214066 6:-0.122546 7:-0.0395183 8:0.891574 9:-0.554906 10:0.308156 11:0.015621 12:-0.560409 13:0.961969 14:0.706035 15:0.250406 
512 1:0.505497 2:-0.880025 3:-0.92476 4:-0.622948 5:0.522839 6:0.247826 7:0.418238 8:0.0241933 9:-0.0448414 10:-0.313936 11:-0.717811 12:-0.965869 13:-0.417078 14:-0.972492 15:0.524704 
512 1:-0.294691 2:-0.700577 3:-0.133186 4:0.592259 5:-0.864805 6:-0.0761598 7:0.0824198 8:-0.999072 9:-0.214068 10:-0.787082 11:-0.840614 12:-0.498011 13:0.500323 14:-0.205293 15:0.0370187 
352.6815512000321 1:0.185857 2:0.169428 3:-0.0580073 4:0.794339 5:0.52066 6:-0.677608 7:0.811476 8:-0.914977 9:0.133532 10:0.509219 11:0.948839 12:-0.0471733 13:-0.610844 14:0.0847601 15:-0.335437 
512 1:-0.661599 2:-0.337997 3:0.219876 4:-0.432522 5:-0.590994 6:-0.481965 7:-0.30745 8:-0.0296902 9:0.529643 10:0.0709062 11:0.0505401 12:-0.377512 13:0.124231 14:-0.463492 15:-0.603246 
414.8881818057098 1:0.215226 2:-0.609465 3:-0.368328 4:0.232348 5:0.889469 6:-0.300759 7:0.651771 8:-0.423075 9:0.737345 10:0.235495 11:-0.669804 12:0.241679 13:-0.265664 14:-0.548473 15:-0.00559894 
512 1:0.460537 2:0.0504607 3:-0.513745 4:-0.242068 5:0.164753 6:0.633402 7:0.161957 8:-0.59881 9:0.300823 10:-0.500561 11:0.944273 12:-0.766578 13:0.599042 14:-0.743557 15:0.83249 
499.3203170100878 1:-0.794848 2:-0.501165 3:-0.855926 4:0.473741 5:-0.00445551 6:0.810824 7:0.853651 8:-0.061431 9:0.290241 10:0.807165 11:0.236577 12:0.726951 13:-0.513149 14:-0.799475 15:0.294677 
512 1:-0.51173 2:0.047362 3:-0.722888 4:-0.505493 5:0.58836 6:0.94502 7:-0.683771 8:0.216641 9:0.201194 10:-0.294397 11:0.313469 12:-0.811495 13:-0.501666 14:0.782886 15:-0.730827 
391.0948127127182 1:0.293482 2:-0.697435 3:0.681868 4:-0.818388 5:-0.823988 6:0.123775 7:-0.0969195 8:0.811677 9:0.266248 10:0.200736 11:-0.984563 12:-0.746145 13:-0.962144 14:0.249624 15:0.339938 
512 1:-0.0426671 2:-0.197985 3:-0.984414 4:0.357585 5:0.503862 6:-0.0305832 7:0.134735 8:-0.704061 9:0.645739 10:-0.902324 11:-0.942651 12:0.896103 13:-0.850252 14:0.405932 15:0.588295 
41.58760459925716 1:-0.558928 2:-0.710118 3:0.721485 4:0.229034 5:-0.471549 6:-0.097716 7:-0.194215 8:0.438065 9:0.15395 10:-0.743832 11:0.460292 12:-0.0264759 13:0.926116 14:-0.895758 15:-0.20381 
512 1:0.495976 2:-0.37426 3:-0.924166 4:-0.667646 5:-0.326717 6:-0.963362 7:0.148709 8:0.423739 9:-0.0327338 10:-0.325828 11:0.0727604 12:0.89023 13:-0.456718 14:0.317461 15:0.992096 
512 1:-0.0250909 2:-0.0699652 3:0.541662 4:-0.200625 5:-0.163613 6:0.625492 7:-0.809436 8:0.11255 9:0.423283 10:0.367808 11:0.945744 12:0.223081 13:-0.278879 14:0.0543163 15:0.33593 
512 1:0.21103 2:-0.800795 3:0.488512 4:-0.653515 5:-0.633844 6:-0.323014 7:-0.920956 8:0.155912 9:-0.282609 10:0.534037 11:0.453126 12:0.469323 13:0.956649 14:0.802668 15:-0.751132 
182.2668206155193 1:0.248304 2:-0.915189 3:0.0645974 4:0.654645 5:0.709589 6:-0.504983 7:0.627093 8:0.385281 9:0.384984 10:0.906073 11:0.962444 12:0.498912 13:-0.0235101 14:0.951618 15:-0.354868 
512 1:-0.423725 2:-0.811506 3:0.642406 4:0.801316 5:0.144158 6:0.234593 7:0.351127 8:-0.12805 9:0.884401 10:0.852352 11:0.22537 12:-0.755051 13:0.56299 14:0.878643 15:0.260308 
512 1:-0.746571 2:-0.169228 3:-0.838427 4:0.252428 5:-0.960373 6:0.343953 7:-0.247782 8:-0.105574 9:0.869551 10:-0.665088 11:0.379884 12:0.506141 13:-0.127147 14:-0.129477 15:0.014729 
512 1:-0.833359 2:-0.735796 3:0.938911 4:0.417122 5:0.493895 6:0.164476 7:-0.434306 8:-0.908478 9:0.650655 10:0.761537 11:0.599773 12:-0.147424 13:0.154836 14:-0.653146 15:0.881287 
463.7642379284525 1:0.907431 2:-0.89769 3:-0.711043 4:-0.0312886 5:0.391471 6:0.288064 7:-0.626684 8:-0.981281 9:-0.589859 10:0.800625 11:0.600836 12:0.483149 13:-0.531054 14:-0.748653 15:0.78009 
512 1:-0.878152 2:-0.427089 3:-0.745049 4:-0.664801 5:0.211783 6:-0.789514 7:-0.546543 8:-0.244636 9:0.400606 10:-0.799519 11:0.525757 12:0.0666853 13:0.624005 14:0.644156 15:-0.93447 
411.2706000777821 1:-0.230556 2:0.91532 3:-0.29099 4:-0.0327164 5:-0.739858 6:0.305245 7:0.799779 8:-0.757063 9:-0.721171 10:-0.364158 11:0.843085 12:-0.50055 13:-0.593015 14:-0.842943 15:0.785933 
512 1:-0.646065 2:0.305597 3:-0.726182 4:-0.544727 5:0.606202 6:0.193994 7:0.280321 8:0.116702 9:0.798819 10:0.46179 11:0.298459 12:-0.284521 13:-0.756577 14:-0.225988 15:-0.0267181 
76.98327287648273 1:0.629245 2:0.574636 3:0.869448 4:0.164918 5:-0.374617 6:-0.87828 7:0.475195 8:0.633452 9:-0.527994 10:-0.0318779 11:0.313656 12:-0.48163 13:-0.788081 14:-0.979484 15:0.844787 
512 1:0.0179135 2:-0.517264 3:-0.149457 4:0.252524 5:-0.742081 6:0.0679801 7:-0.945067 8:-0.272011 9:-0.720188 10:-0.222955 11:0.816386 12:-0.724747 13:0.584175 14:0.375218 15:0.794449 
29.85925806306963 1:0.99828 2:-0.826927 3:0.997131 4:0.0322279 5:-0.0416426 6:-0.672528 7:-0.77331 8:-0.611818 9:0.901466 10:-0.253669 11:-0.965601 12:-0.409844 13:0.323002 14:0.610237 15:0.123178 
422.2027324047527 1:-0.944021 2:-0.737081 3:-0.181334 4:0.362377 5:0.0298263 6:0.434607 7:0.849366 8:0.933906 9:0.797571 10:0.618113 11:-0.03569 12:-0.516076 13:-0.850857 14:-0.998438 15:-0.597353 
512 1:-0.230417 2:0.215748 3:-0.716876 4:-0.054149 5:-0.763 6:0.591755 7:0.157776 8:0.533121 9:-0.407762 10:-0.653418 11:-0.278306 12:0.62489 13:-0.997419 14:-0.104139 15:-0.0623145 
512 1:0.00923766 2:-0.769343 3:-0.67651 4:-0.137603 5:0.60526 6:0.539396 7:-0.057899 8:-0.273529 9:0.782161 10:0.159303 11:-0.340981 12:-0.237779 13:-0.747606 14:0.999746 15:-0.116093 
512 1:-0.874937 2:0.0493004 3:0.0527299 4:-0.87001 5:-0.859592 6:-0.258241 7:0.567057 8:-0.283004 9:0.647802 10:-0.0248351 11:-0.013967 12:0.0858639 13:0.148466 14:-0.0137663 15:-0.241334 
76.07114738273347 1:-0.80553 2:0.317082 3:-0.341764 4:0.381904 5:-0.129175 6:-0.666827 7:0.287759 8:-0.721856 9:0.723132 10:0.809263 11:0.912486 12:0.169557 13:-0.509236 14:-0.520228 15:-0.835849 
227.4175630246858 1:-0.0570323 2:-0.896099 3:0.5076 4:-0.572185 5:-0.962944 6:0.853382 7:0.170237 8:0.633177 9:0.680532 10:0.626148 11:-0.12469 12:-0.0207637 13:0.381687 14:0.553062 15:0.713616 
0.1069268894729498 1:-0.355572 2:0.049092 3:-0.738794 4:0.274588 5:0.138207 6:-0.812723 7:-0.701929 8:0.50275 9:0.212811 10:-0.989397 11:-0.0817416 12:-0.602956 13:0.0612704 14:0.492052 15:0.992866 
512 1:-0.805108 2:-0.182915 3:-0.0168288 4:0.264023 5:-0.871319 6:0.0634372 7:-0.282362 8:0.584098 9:0.601458 10:-0.514254 11:-0.332675 12:0.90151 13:-0.528683 14:0.149253 15:0.428417 
512 1:-0.440613 2:-0.287174 3:-0.829377 4:0.636168 5:-0.511013 6:-0.799861 7:0.810091 8:-0.178529 9:-0.600486 10:-0.5086 11:0.890681 12:0.74784 13:-0.276691 14:-0.994468 15:-0.15454 
402.5242938056942 1:0.173625 2:0.957493 3:0.318335 4:0.735775 5:0.655645 6:0.988402 7:-0.497448 8:0.925761 9:0.541945 10:-0.395076 11:0.553787 12:0.920089 13:-0.62982 14:0.485225 15:0.678026 
184.1590949958959 1:0.331992 2:0.848962 3:-0.717298 4:-0.690719 5:-0.621714 6:0.698964 7:0.477441 8:0.198982 9:0.810624 10:0.144412 11:-0.981651 12:0.954978 13:-0.890077 14:0.638346 15:0.00435197 
512 1:0.292014 2:-0.663436 3:-0.260924 4:0.203688 5:0.242607 6:0.476117 7:-0.745833 8:-0.9683 9:-0.293187 10:0.549261 11:0.714423 12:-0.157173 13:-0.0998158 14:-0.482667 15:0.0587494 
512 1:-0.399359 2:-0.693676 3:-0.278539 4:-0.857105 5:-0.19891 6:0.0460855 7:0.146981 8:0.08318 9:-0.296256 10:-0.310023 11:-0.783231 12:0.917533 13:0.443566 14:-0.997546 15:-0.500243 
512 1:0.370257 2:-0.779966 3:0.589302 4:0.654573 5:-0.375856 6:-0.630343 7:-0.237634 8:-0.350737 9:0.695891 10:0.205564 11:0.776757 12:-0.014973 13:-0.290569 14:0.116802 15:-0.207796 
236.2231183284899 1:-0.743112 2:0.444282 3:-0.300647 4:0.46245 5:0.156631 6:-0.921825 7:-0.463222 8:0.193689 9:0.405774 10:-0.916475 11:0.861165 12:0.516117 13:-0.690481 14:0.792376 15:-0.548786 
267.6904608911137 1:-0.524219 2:0.781986 3:-0.994645 4:0.477409 5:-0.387399 6:0.243163 7:0.242654 8:-0.613987 9:-0.858206 10:0.502992 11:0.372922 12:0.536025 13:-0.701371 14:-0.667993 15:0.613081 
512 1:-0.70343 2:-0.0072128 3:-0.200462 4:0.947368 5:0.0535045 6:-0.75435 7:-0.0402459 8:-0.4017 9:0.469511 10:-0.80211 11:0.235233 12:0.50422 13:-0.5537 14:0.0498338 15:-0.195798 
512 1:-0.779672 2:0.675323 3:-0.48245 4:0.42108 5:-0.822548 6:0.00337374 7:0.26036 8:0.423067 9:-0.335802 10:-0.965961 11:0.746953 12:-0.753239 13:-0.756979 14:-0.981088 15:-0.215763 
512 1:0.348058 2:-0.881188 3:0.345167 4:-0.107666 5:-0.569106 6:-0.018982 7:0.762308 8:0.978763 9:-0.203323 10:-0.948709 11:0.351091 12:-0.423239 13:0.276351 14:-0.0315655 15:0.695924 
455.0531356118308 1:0.0724756 2:-0.574739 3:0.311313 4:0.981879 5:0.204876 6:-0.66326 7:-0.693333 8:-0.716122 9:-0.405839 10:0.793828 11:-0.313578 12:0.339317 13:0.570873 14:0.634412 15:0.934336 
512 1:0.625397 2:-0.529945 3:-0.891915 4:-0.713484 5:-0.275198 6:-0.733966 7:-0.196306 8:-0.882722 9:-0.0375822 10:-0.485172 11:0.245537 12:0.579425 13:0.416463 14:0.479874 15:-0.964043 
512 1:0.410167 2:-0.940196 3:0.168274 4:0.440363 5:-0.756189 6:-0.295242 7:-0.883107 8:0.0748576 9:-0.0992445 10:0.741167 11:0.113956 12:0.0300287 13:0.272282 14:0.766316 15:-0.595268 
145.721445526696 1:0.0148713 2:-0.0941643 3:-0.814122 4:-0.204385 5:0.954112 6:0.669892 7:0.605826 8:0.672227 9:-0.755413 10:0.670435 11:0.350343 12:-0.231719 13:0.91256 14:0.863015 15:-0.969519 
512 1:0.526608 2:-0.309733 3:0.182934 4:-0.909891 5:0.542025 6:0.349102 7:0.239686 8:0.410449 9:0.166196 10:-0.172489 11:-0.60569 12:0.0178802 13:0.0953835 14:-0.0990418 15:0.160776 
512 1:0.306686 2:-0.113278 3:0.455026 4:0.404531 5:-0.243616 6:0.844873 7:-0.850961 8:-0.0434304 9:0.810917 10:-0.37141 11:0.789833 12:-0.939375 13:0.867249 14:-0.902736 15:0.0534835 
512 1:-0.933444 2:-0.89016 3:0.26363 4:0.0185409 5:0.211261 6:-0.416703 7:0.893047 8:0.021679 9:-0.461505 10:-0.0761207 11:-0.929063 12:-0.225757 13:0.443682 14:0.32014 15:-0.493504 
489.9599268570095 1:-0.406772 2:0.0708455 3:-0.910426 4:-0.699904 5:0.470718 6:-0.605981 7:0.479536 8:0.919794 9:0.456931 10:0.425013 11:0.966766 12:-0.798656 13:-0.191155 14:0.705404 15:-0.432246 
512 1:-0.460245 2:-0.405897 3:0.0685409 4:0.634986 5:-0.408341 6:0.792664 7:0.86701 8:0.990755 9:0.557712 10:-0.112606 11:-0.376778 12:-0.310131 13:-0.089283 14:0.453233 15:0.0421471 
435.8904044994503 1:0.480548 2:0.0149506 3:0.206881 4:0.368406 5:0.891854 6:0.632351 7:0.582164 8:-0.400046 9:-0.297233 10:-0.349607 11:0.594029 12:0.338655 13:-0.419009 14:-0.49227 15:-0.144965 
512 1:0.606857 2:-0.866547 3:0.585846 4:0.529491 5:0.107692 6:-0.991302 7:0.63802 8:-0.457782 9:0.00720697 10:0.441305 11:-0.252109 12:-0.405916 13:0.693302 14:0.723474 15:-0.430275 
7.007097837803791 1:0.686343 2:-0.960056 3:-0.617253 4:-0.313083 5:0.00438602 6:-0.718834 7:-0.915442 8:0.98397 9:0.945314 10:0.550275 11:-0.4616 12:0.616452 13:-0.164357 14:0.842127 15:0.332836 
512 1:-0.10427 2:-0.232418 3:0.464407 4:-0.110965 5:-0.169745 6:-0.851794 7:-0.353018 8:-0.126912 9:0.438158 10:-0.278343 11:-0.908742 12:-0.0909715 13:-0.587236 14:0.484611 15:0.930997 
512 1:0.00462256 2:-0.504103 3:0.302972 4:0.300988 5:-0.381148 6:0.305346 7:0.286286 8:0.411935 9:-0.603612 10:0.0138721 11:0.608538 12:0.0586385 13:0.864818 14:0.724686 15:0.405149 
512 1:0.219326 2:0.249271 3:0.181869 4:0.0637445 5:0.53014 6:-0.900434 7:0.836804 8:-0.547355 9:0.673935 10:-0.289896 11:-0.135945 12:0.216158 13:-0.248621 14:-0.680384 15:0.297633 
307.0096269533507 1:-0.975879 2:-0.136122 3:0.678792 4:-0.515223 5:0.933075 6:-0.529476 7:0.769735 8:0.215441 9:0.964328 10:-0.888047 11:-0.321107 12:0.246145 13:0.0351377 14:-0.680964 15:0.72913 
490.1238889230219 1:-0.645048 2:0.951866 3:0.506517 4:-0.908008 5:-0.777369 6:-0.705365 7:-0.683582 8:0.682305 9:0.37102 10:-0.159095 11:0.43378 12:-0.91224 13:-0.610614 14:0.646098 15:0.773999 
427.7805045609697 1:-0.153569 2:-0.152088 3:-0.0320049 4:-0.903382 5:0.597437 6:-0.687448 7:-0.0442587 8:-0.406166 9:0.491974 10:0.583368 11:-0.322217 12:-0.925635 13:0.616522 14:0.345389 15:-0.139675 
512 1:-0.855882 2:-0.187445 3:0.13091 4:0.292015 5:0.36018 6:0.51948 7:0.69011 8:-0.37461 9:0.816062 10:0.23761 11:-0.309929 12:-0.756931 13:-0.584381 14:-0.000687374 15:0.476034 
512 1:-0.656681 2:-0.838876 3:0.274584 4:-0.750835 5:-0.311154 6:-0.597579 7:0.740609 8:-0.628844 9:0.394062 10:-0.822221 11:-0.181075 12:-0.325182 13:-0.107615 14:0.999967 15:-0.144492 
126.4786266147041 1:0.892126 2:-0.769379 3:-0.191493 4:0.362814 5:0.760247 6:0.345125 7:0.194742 8:0.626629 9:-0.415754 10:0.764288 11:0.643957 12:-0.524141 13:0.959999 14:0.00630282 15:-0.0376389 
512 1:0.983548 2:0.289576 3:-0.770251 4:-0.717014 5:0.0927981 6:0.644302 7:0.648877 8:-0.448074 9:0.0216731 10:0.116593 11:0.635459 12:-0.206725 13:-0.436334 14:0.95447 15:-0.237122 
512 1:0.568299 2:0.665506 3:-0.48359 4:-0.180232 5:-0.681108 6:-0.13701 7:-0.291322 8:-0.700917 9:0.707862 10:-0.737677 11:-0.871396 12:0.56214 13:-0.961297 14:-0.208956 15:0.572114 
512 1:0.432357 2:-0.909746 3:-0.25005 4:0.711973 5:-0.403271 6:0.254648 7:0.75947 8:-0.582509 9:0.672764 10:0.156004 11:-0.273795 12:-0.141294 13:-0.0596685 14:0.0952659 15:0.00787597 
512 1:-0.426941 2:-0.745351 3:0.374421 4:-0.783381 5:0.129066 6:0.984118 7:-0.107041 8:0.21516 9:-0.249 10:0.39281 11:-0.347518 12:0.317516 13:-0.867654 14:-0.532041 15:-0.809008 
512 1:-0.088259 2:-0.0774132 3:0.422606 4:0.743668 5:0.0694999 6:-0.442215 7:-0.507805 8:-0.471416 9:0.762039 10:0.228501 11:-0.0947194 12:0.147276 13:-0.740036 14:-0.789602 15:0.742079 
510.0085933170718 1:0.711464 2:-0.281963 3:0.554695 4:-0.406188 5:-0.317912 6:0.355589 7:0.721648 8:-0.279368 9:0.0231695 10:-0.990308 11:-0.686073 12:-0.842713 13:-0.507019 14:-0.695825 15:-0.477117 
512 1:0.137515 2:-0.835233 3:-0.0109086 4:-0.638625 5:-0.334862 6:0.545536 7:-0.963908 8:-0.763363 9:0.353783 10:-0.952463 11:0.798465 12:-0.34724 13:-0.398294 14:0.911037 15:0.018984 
512 1:0.511843 2:-0.190141 3:-0.691495 4:-0.623291 5:0.827911 6:0.48104 7:0.683873 8:-0.499235 9:-0.255704 10:-0.740514 11:-0.478782 12:0.601551 13:0.136127 14:-0.100435 15:0.829024 
512 1:0.915276 2:-0.469378 3:-0.827971 4:-0.639558 5:-0.450484 6:-0.464714 7:-0.445869 8:-0.305298 9:-0.150134 10:-0.00645277 11:-0.0964755 12:-0.671081 13:0.927929 14:0.871718 15:-0.6663 
512 1:0.452421 2:-0.831223 3:-0.917415 4:0.363159 5:0.794787 6:-0.613755 7:-0.0379602 8:0.933364 9:-0.224348 10:0.963995 11:0.10556 12:-0.388427 13:0.468744 14:-0.741879 15:-0.947484 
512 1:-0.830795 2:-0.580352 3:0.227122 4:-0.62147 5:-0.563316 6:-0.143027 7:0.51776 8:-0.501195 9:-0.437926 10:0.0862534 11:0.830305 12:-0.745635 13:0.157147 14:0.0655515 15:-0.79222 
352.4075703533942 1:-0.207108 2:0.787231 3:-0.904705 4:-0.276181 5:0.416754 6:0.307654 7:0.64916 8:-0.657836 9:-0.155659 10:-0.878097 11:0.209946 12:-0.879584 13:-0.659341 14:0.201577 15:-0.342685 
512 1:0.432206 2:-0.706379 3:0.362724 4:0.481483 5:-0.13806 6:-0.27689 7:-0.730987 8:0.514176 9:-0.371391 10:-0.15231 11:-0.579614 12:0.316775 13:-0.415147 14:0.423756 15:-0.675167 
512 1:0.324421 2:-0.181658 3:-0.495663 4:-0.637096 5:0.76671 6:0.957861 7:-0.0524403 8:0.17211 9:0.639766 10:0.0587681 11:0.464275 12:0.991775 13:-0.110346 14:-0.987624 15:-0.742207 
512 1:0.914805 2:-0.234148 3:0.614915 4:-0.740864 5:0.257267 6:0.177002 7:-0.330585 8:0.0684733 9:-0.148537 10:0.225624 11:0.933494 12:-0.246039 13:-0.792541 14:0.0146288 15:-0.622022 
29.02004996971395 1:-0.347464 2:-0.428273 3:0.697423 4:0.615857 5:-0.841078 6:0.682453 7:-0.358637 8:0.196832 9:-0.360771 10:-0.885021 11:-0.069175 12:0.715556 13:-0.695553 14:-0.644312 15:0.954553 
512 1:-0.148321 2:0.297253 3:0.0938303 4:0.202616 5:0.135456 6:-0.572762 7:0.517136 8:-0.612902 9:0.248469 10:-0.939183 11:-0.452221 12:-0.769442 13:-0.54606 14:-0.294125 15:0.335597 
512 1:-0.290045 2:0.102576 3:0.615393 4:-0.467973 5:-0.590029 6:-0.742327 7:0.870011 8:-0.7034 9:0.380804 10:0.439505 11:0.35828 12:0.159434 13:-0.774604 14:0.589922 15:0.0461164 
368.1963916502847 1:0.918786 2:-0.361056 3:-0.870109 4:-0.367522 5:0.286827 6:-0.0910447 7:-0.787304 8:0.7069 9:-0.427793 10:-0.181103 11:0.756904 12:-0.65442 13:-0.02096 14:-0.570957 15:0.224459 
75.94420101402342 1:0.0210208 2:0.527551 3:-0.469695 4:0.0707819 5:0.541776 6:0.401904 7:0.306853 8:-0.348222 9:-0.564577 10:-0.329651 11:0.409834 12:-0.693378 13:-0.80431 14:-0.121856 15:0.0320605 
512 1:-0.275438 2:-0.722006 3:0.519487 4:-0.218685 5:-0.613602 6:-0.611556 7:0.365867 8:0.295735 9:-0.981653 10:-0.574525 11:0.935733 12:-0.589585 13:-0.695712 14:-0.44582 15:-0.271137 
512 1:0.493629 2:-0.799946 3:-0.798068 4:0.250954 5:0.0223428 6:-0.381432 7:-0.732419 8:0.0717904 9:-0.144374 10:0.173793 11:0.24024 12:-0.312361 13:-0.605708 14:-0.591669 15:0.738773 
512 1:0.685754 2:-0.747786 3:0.216023 4:-0.0743675 5:0.119395 6:-0.806505 7:0.730392 8:0.769788 9:0.00646577 10:-0.850036 11:-0.815301 12:-0.606105 13:-0.417065 14:-0.721303 15:-0.379256 
512 1:0.513145 2:0.349306 3:-0.332695 4:-0.887789 5:0.610548 6:0.883585 7:0.862158 8:-0.443983 9:-0.939555 10:0.467869 11:0.943554 12:0.585266 13:0.559948 14:0.331556 15:-0.71914 
282.0271384139285 1:-0.848236 2:-0.706911 3:-0.0123398 4:0.998728 5:0.298672 6:0.152849 7:0.793799 8:-0.277493 9:-0.0697875 10:-0.337061 11:-0.0563123 12:0.894785 13:-0.851061 14:0.73475 15:-0.899784 
512 1:-0.646605 2:0.427079 3:0.0711367 4:-0.868082 5:0.177387 6:0.797354 7:0.467852 8:0.258906 9:-0.171281 10:0.0343213 11:0.986594 12:-0.585622 13:-0.600833 14:-0.883542 15:-0.914977 
512 1:-0.958115 2:-0.886676 3:0.853001 4:0.656476 5:-0.197511 6:-0.952224 7:-0.00475434 8:-0.562036 9:-0.142711 10:-0.653338 11:-0.394977 12:-0.584403 13:0.746645 14:-0.191275 15:0.934653 
512 1:-0.801036 2:0.00503613 3:0.781533 4:0.254281 5:0.991607 6:0.077715 7:-0.762646 8:0.520139 9:0.85013 10:0.243971 11:0.907207 12:0.195858 13:0.156091 14:-0.843254 15:-0.764079 
77.56183375076357 1:-0.922209 2:-0.0831868 3:-0.372491 4:-0.543035 5:0.465122 6:-0.677161 7:-0.876194 8:0.951017 9:-0.454572 10:0.80497 11:0.949536 12:-0.300858 13:-0.26912 14:0.440539 15:0.130339 
300.8943534442839 1:-0.909126 2:-0.132787 3:0.831258 4:-0.255665 5:-0.168252 6:0.881936 7:0.608079 8:-0.381961 9:0.823347 10:0.301147 11:0.908672 12:0.581113 13:0.728133 14:-0.287719 15:0.662782 
206.8407499929297 1:0.755141 2:0.66108 3:0.650953 4:-0.618603 5:0.58592 6:0.0118538 7:-0.771803 8:-0.43007 9:0.658156 10:0.661849 11:0.816112 12:-0.640277 13:-0.83141 14:0.753458 15:-0.554363 
512 1:0.125655 2:-0.472175 3:-0.235746 4:-0.812109 5:0.230009 6:-0.337638 7:0.683582 8:-0.492206 9:-0.579568 10:-0.454361 11:-0.507106 12:0.739526 13:-0.889446 14:0.904735 15:0.742046 
512 1:0.136881 2:0.390707 3:-0.427001 4:-0.166691 5:-0.276297 6:0.314226 7:-0.0882468 8:-0.749629 9:0.416061 10:-0.248849 11:0.938004 12:-0.939787 13:-0.0700988 14:-0.342368 15:0.0901406 
512 1:0.64543 2:-0.510145 3:0.73147 4:-0.544525 5:-0.608326 6:-0.065874 7:-0.673554 8:-0.569325 9:0.67647 10:-0.456934 11:0.231185 12:0.730867 13:0.0454654 14:0.299694 15:0.927845 
512 1:0.4793 2:-0.534488 3:0.444032 4:0.542128 5:0.869745 6:0.992741 7:-0.804753 8:-0.446955 9:-0.915916 10:0.932099 11:0.45746 12:-0.247014 13:-0.128415 14:0.0946759 15:0.128737 
512 1:-0.10784 2:0.242761 3:0.139117 4:-0.966786 5:0.0878158 6:0.630127 7:0.967476 8:-0.419224 9:0.958623 10:0.497123 11:0.360006 12:0.241117 13:-0.330254 14:-0.0494794 15:-0.14152 
512 1:-0.349447 2:-0.457173 3:-0.572612 4:0.447508 5:0.0998643 6:0.428006 7:-0.765809 8:0.174359 9:0.841737 10:-0.726042 11:0.651907 12:-0.105945 13:-0.132284 14:0.351674 15:0.688572 
512 1:-0.75427 2:-0.565591 3:-0.00734744 4:-0.0632324 5:-0.175574 6:0.0109971 7:-0.398369 8:-0.926514 9:-0.44473 10:-0.04742 11:0.114706 12:0.364954 13:-0.335447 14:-0.485749 15:-0.440867 
512 1:0.627604 2:-0.827682 3:-0.583968 4:0.659514 5:0.49151 6:0.417333 7:-0.862848 8:0.393128 9:0.214477 10:-0.334799 11:-0.0478129 12:0.147446 13:-0.555127 14:0.168159 15:-0.871796 
512 1:0.436841 2:-0.734316 3:0.634674 4:-0.507887 5:0.601353 6:0.436259 7:0.39791 8:-0.823398 9:-0.0913651 10:0.223218 11:-0.65053 12:-0.812596 13:-0.26058 14:0.949233 15:-0.0550238 
512 1:0.662274 2:-0.2809 3:0.549572 4:-0.308935 5:0.986331 6:-0.570288 7:-0.598652 8:-0.853807 9:-0.676627 10:-0.54495 11:0.644225 12:-0.590679 13:-0.915839 14:-0.33407 15:0.222691 
512 1:0.98515 2:-0.321489 3:-0.958414 4:-0.451717 5:-0.239804 6:0.951853 7:0.391783 8:-0.550533 9:-0.102309 10:-0.527127 11:-0.385914 12:0.289204 13:-0.698471 14:0.0914471 15:-0.0627245 
512 1:0.585897 2:-0.753061 3:-0.83912 4:-0.211293 5:-0.485585 6:-0.262703 7:-0.729736 8:0.00553312 9:-0.0553787 10:0.131178 11:-0.00264608 12:0.295569 13:-0.169701 14:0.87557 15:-0.557815 
206.7208056161106 1:0.782202 2:0.696695 3:0.479265 4:-0.525284 5:0.976629 6:0.089132 7:-0.195676 8:0.067318 9:-0.251271 10:0.172944 11:0.0111165 12:0.277137 13:-0.914724 14:0.816616 15:0.405157 
512 1:0.552842 2:-0.096061 3:-0.702496 4:-0.630233 5:0.617066 6:0.705297 7:-0.935276 8:0.586275 9:-0.332178 10:-0.372353 11:-0.332846 12:-0.0254331 13:0.495216 14:-0.0862906 15:-0.181316 
512 1:0.134893 2:-0.573955 3:0.142035 4:-0.705283 5:0.998074 6:-0.938978 7:0.775614 8:-0.844734 9:-0.484284 10:-0.139077 11:0.397666 12:-0.86589 13:0.00618974 14:-0.371074 15:0.525805 
512 1:0.0112236 2:-0.818196 3:-0.769674 4:-0.808989 5:-0.638681 6:-0.958246 7:-0.408934 8:0.349864 9:0.468743 10:0.793243 11:-0.675456 12:-0.392512 13:0.979705 14:0.744747 15:-0.230258 
512 1:-0.106315 2:0.062529 3:0.212266 4:0.521763 5:0.278842 6:-0.161711 7:0.54588 8:-0.428392 9:0.0953551 10:-0.131202 11:-0.568732 12:0.748463 13:-0.948087 14:-0.158217 15:0.914275 
395.7943832648266 1:0.122975 2:-0.534198 3:0.692472 4:0.378609 5:-0.122835 6:-0.0399738 7:0.825694 8:-0.763428 9:0.331033 10:0.369015 11:0.130576 12:0.517787 13:0.852392 14:0.635232 15:0.701403 
344.3978587645212 1:0.00954785 2:0.831641 3:0.00160143 4:-0.978303 5:-0.156584 6:-0.809641 7:0.151883 8:-0.707385 9:0.639562 10:0.0472982 11:-0.635779 12:0.183372 13:-0.572695 14:-0.548352 15:-0.0475602 
2.126587621792095 1:0.98442 2:0.776462 3:0.957616 4:-0.979658 5:0.727316 6:0.939126 7:-0.123051 8:-0.235499 9:-0.325317 10:-0.958103 11:0.705198 12:0.99257 13:-0.83898 14:0.941243 15:-0.907132 
512 1:0.47724 2:-0.227256 3:-0.976897 4:-0.470868 5:-0.750762 6:-0.819204 7:0.451027 8:0.310785 9:-0.0955156 10:-0.753885 11:0.578409 12:0.522768 13:-0.811415 14:0.508835 15:-0.438404 
230.0907385585021 1:-0.974193 2:-0.89182 3:-0.0773046 4:-0.444214 5:-0.908063 6:-0.381663 7:0.124203 8:-0.801569 9:0.383766 10:-0.907351 11:0.119662 12:-0.731563 13:0.4751 14:-0.0950591 15:0.371501 
512 1:0.311885 2:-0.528928 3:0.0322507 4:-0.340333 5:-0.564443 6:0.370553 7:-0.837351 8:-0.178835 9:-0.753978 10:0.559473 11:-0.321218 12:-0.700932 13:-0.0219113 14:-0.634837 15:-0.199261 
287.4058177173743 1:0.320643 2:-0.799122 3:0.327449 4:-0.164342 5:-0.641972 6:0.907145 7:0.494344 8:0.450557 9:-0.743365 10:-0.523085 11:0.0111369 12:-0.0596002 13:0.431537 14:-0.26361 15:-0.264188 
512 1:-0.00812963 2:0.864261 3:0.544696 4:0.952142 5:-0.894089 6:0.401788 7:0.723283 8:-0.881141 9:0.497117 10:-0.474064 11:-0.116718 12:0.551721 13:-0.966534 14:-0.496539 15:-0.55467 
290.8392085545232 1:-0.99129 2:-0.436361 3:-0.744289 4:0.019311 5:-0.154658 6:-0.705452 7:-0.922193 8:0.126832 9:-0.912021 10:-0.846099 11:-0.527244 12:-0.776311 13:-0.371875 14:-0.495324 15:-0.389514 
512 1:-0.866624 2:-0.187438 3:0.215851 4:-0.147766 5:0.0746329 6:-0.583651 7:0.64011 8:-0.436572 9:0.793342 10:-0.848162 11:-0.436178 12:0.293517 13:-0.0388704 14:0.0938072 15:-0.654604 
512 1:0.334311 2:-0.793769 3:0.928582 4:0.604553 5:-0.766808 6:-0.625044 7:-0.864429 8:-0.146721 9:0.682035 10:0.0365264 11:-0.159276 12:-0.949631 13:-0.799136 14:-0.402374 15:-0.0527363 
512 1:0.423379 2:-0.421521 3:-0.100509 4:-0.815802 5:0.25413 6:0.284146 7:0.353521 8:0.604506 9:-0.534037 10:-0.227381 11:-0.85152 12:0.768549 13:-0.634618 14:-0.307013 15:-0.149394 
431.2659739369361 1:0.28806 2:-0.842495 3:0.675406 4:-0.383929 5:-0.00431182 6:0.576727 7:-0.788541 8:0.0515202 9:-0.315317 10:-0.398963 11:-0.455979 12:-0.356545 13:0.361206 14:-0.672681 15:-0.227857 
429.0984034737884 1:0.537387 2:-0.388675 3:0.73397 4:0.892642 5:-0.326611 6:-0.649016 7:-0.912773 8:-0.418062 9:0.374053 10:-0.631387 11:-0.383084 12:-0.0829681 13:0.895943 14:-0.997333 15:0.7155 
303.6536770554877 1:0.624706 2:-0.240637 3:-0.0997367 4:-0.546739 5:0.472193 6:0.577407 7:0.988809 8:0.370674 9:-0.44062 10:-0.918653 11:0.91324 12:0.255584 13:-0.592964 14:0.0311823 15:0.0157476 
512 1:0.375043 2:-0.00231462 3:-0.0429128 4:0.561032 5:0.576439 6:0.985827 7:-0.754415 8:-0.914851 9:0.28497 10:-0.634413 11:-0.0520356 12:-0.929198 13:-0.464632 14:0.122424 15:-0.320854 
28.88154067604001 1:0.887414 2:-0.9759 3:0.348535 4:-0.902196 5:-0.368929 6:-0.945229 7:-0.833425 8:-0.257803 9:0.275317 10:-0.169939 11:-0.943912 12:0.628764 13:0.29968 14:0.923247 15:0.16015 
512 1:-0.746502 2:-0.865478 3:-0.405572 4:0.202607 5:0.510463 6:-0.52406 7:0.698192 8:0.272122 9:-0.690059 10:-0.614043 11:0.133787 12:0.745899 13:-0.668861 14:0.456371 15:0.682565 
512 1:-0.733069 2:-0.528296 3:0.0276292 4:0.255097 5:0.520134 6:0.553486 7:-0.680028 8:0.482548 9:0.0155538 10:0.146207 11:0.102145 12:0.0317555 13:0.331798 14:-0.764137 15:0.394464 
512 1:-0.0497205 2:0.282065 3:-0.164624 4:0.0397768 5:-0.466474 6:0.212149 7:-0.27864 8:-0.169815 9:0.660347 10:-0.285154 11:0.507514 12:0.305995 13:-0.0721411 14:0.441858 15:0.638969 
512 1:-0.662181 2:-0.382333 3:0.00345537 4:0.775699 5:-0.874127 6:0.954739 7:0.253045 8:0.245971 9:0.557852 10:-0.426137 11:0.0298144 12:0.749061 13:0.193512 14:-0.445759 15:0.081321 
11.00181195631866 1:0.64349 2:-0.34384 3:0.9593 4:0.449132 5:-0.766737 6:0.783087 7:0.832094 8:-0.381791 9:-0.72387 10:-0.173042 11:0.990197 12:-0.149785 13:0.37031 14:0.40635 15:-0.141911 
512 1:-0.744147 2:-0.656849 3:-0.156397 4:-0.46573 5:0.704574 6:0.63699 7:0.387219 8:-0.28901 9:-0.507076 10:0.169504 11:-0.0594003 12:-0.433292 13:0.880195 14:0.922305 15:0.240453 
313.2972383533146 1:-0.472134 2:-0.587614 3:0.176023 4:-0.321261 5:-0.996717 6:0.350613 7:0.662365 8:0.309263 9:-0.534838 10:0.99232 11:-0.257173 12:0.206698 13:-0.113881 14:0.604862 15:0.783162 
364.2328135357499 1:-0.214378 2:-0.310164 3:0.229048 4:-0.34841 5:-0.502312 6:-0.598928 7:0.0101044 8:0.254246 9:-0.123942 10:-0.508859 11:0.925857 12:-0.766727 13:0.00193199 14:0.941866 15:-0.695558 
512 1:0.675561 2:-0.785866 3:-0.515553 4:0.98952 5:0.835403 6:0.248353 7:0.891054 8:-0.652385 9:0.683563 10:0.056679 11:0.622386 12:0.599626 13:0.722737 14:-0.206008 15:-0.280601 
512 1:-0.448724 2:-0.727211 3:-0.295901 4:0.107094 5:0.26544 6:-0.193567 7:0.610319 8:-0.68703 9:-0.244947 10:-0.663724 11:0.736628 12:0.412619 13:-0.718409 14:-0.634232 15:-0.436587 
512 1:-0.177389 2:-0.835694 3:0.661525 4:-0.548825 5:-0.740424 6:-0.117212 7:-0.346526 8:0.804174 9:-0.119409 10:0.384725 11:-0.105976 12:-0.515984 13:0.183906 14:0.15594 15:-0.228576 
213.9479778061194 1:-0.499475 2:-0.830074 3:0.337679 4:0.60609 5:0.753088 6:-0.808661 7:-0.622241 8:0.491113 9:0.403272 10:0.942806 11:0.784332 12:0.283695 13:0.953376 14:-0.951295 15:0.267441 
319.671331668382 1:-0.511809 2:-0.630247 3:0.897069 4:-0.393097 5:0.802191 6:0.0225836 7:0.450732 8:-0.722868 9:0.898359 10:0.61449 11:-0.354542 12:-0.471307 13:0.931651 14:0.354501 15:-0.526673 
206.7432403909013 1:-0.778404 2:0.879282 3:0.874943 4:0.269418 5:-0.425004 6:0.587473 7:-0.35351 8:0.655773 9:0.583425 10:-0.483982 11:-0.763251 12:-0.843473 13:-0.516927 14:-0.0467259 15:0.129337 
340.6898723307372 1:-0.449924 2:-0.191899 3:-0.0408989 4:-0.910003 5:0.423193 6:-0.221608 7:0.748347 8:0.491801 9:-0.814472 10:0.903133 11:-0.777095 12:-0.631621 13:-0.0619663 14:-0.284845 15:0.555389 
120.6574302734638 1:0.0292231 2:0.0833446 3:0.641112 4:0.876876 5:-0.179037 6:-0.460714 7:0.923436 8:-0.830714 9:-0.342011 10:-0.18906 11:0.651039 12:-0.797482 13:-0.332885 14:-0.834348 15:0.904808 
488.7101029174617 1:-0.0228403 2:0.121015 3:-0.889425 4:0.956068 5:0.321973 6:-0.278202 7:-0.309012 8:0.763367 9:-0.693416 10:-0.691687 11:0.861622 12:0.777765 13:-0.92476 14:-0.810943 15:0.0349519 
512 1:0.909512 2:0.164981 3:-0.61405 4:0.465394 5:0.316406 6:0.386694 7:0.386833 8:-0.893648 9:-0.0588172 10:-0.693665 11:0.810865 12:0.550434 13:-0.71523 14:-0.94468 15:-0.103502 
141.6350096954064 1:0.330332 2:-0.659126 3:-0.5729 4:-0.289986 5:0.934459 6:-0.696247 7:0.308876 8:0.762003 9:0.634812 10:0.682104 11:-0.979881 12:-0.0171307 13:0.76355 14:-0.643756 15:-0.298551 
512 1:0.0745008 2:-0.712762 3:0.0098806 4:0.712014 5:0.12966 6:-0.649638 7:0.760504 8:-0.852474 9:-0.56436 10:0.872859 11:0.378137 12:-0.959125 13:0.66452 14:0.294704 15:-0.826141 
512 1:0.144728 2:-0.720096 3:-0.629 4:0.924459 5:-0.710728 6:0.731026 7:0.497928 8:0.488198 9:-0.264148 10:-0.369549 11:-0.585404 12:-0.445893 13:0.658729 14:-0.380401 15:0.361895 
369.9865106400678 1:0.721539 2:0.19963 3:-0.803704 4:-0.508899 5:-0.182825 6:0.919162 7:0.651338 8:0.553639 9:0.513189 10:-0.371826 11:0.678189 12:0.192239 13:0.299247 14:-0.179294 15:0.995302 
42.00530818724481 1:0.868379 2:-0.529507 3:0.966086 4:0.676329 5:-0.607673 6:0.780343 7:0.415367 8:0.820112 9:0.950676 10:-0.200438 11:0.0780827 12:-0.60357 13:-0.300512 14:-0.318155 15:0.535684 
1.102912831012242 1:0.303582 2:0.257796 3:0.131125 4:-0.863344 5:0.283648 6:-0.0682997 7:0.300678 8:0.548543 9:0.736517 10:-0.757273 11:0.610239 12:0.383381 13:0.920058 14:0.0896688 15:0.468601 
170.6184814665916 1:-0.408034 2:-0.592306 3:0.722972 4:0.639126 5:0.359718 6:0.305173 7:0.264325 8:0.430925 9:0.450179 10:-0.994286 11:-0.151912 12:0.217578 13:0.740009 14:0.732308 15:0.0381061 
512 1:0.0777134 2:0.0427626 3:0.169845 4:-0.969743 5:0.576546 6:0.07313 7:0.366085 8:0.372178 9:0.520779 10:-0.404942 11:-0.0350593 12:-0.066066 13:0.734764 14:0.05321 15:0.417014 
512 1:0.343688 2:-0.4874 3:0.269353 4:0.685707 5:0.597647 6:0.415082 7:-0.622293 8:0.451658 9:0.0358043 10:-0.00558972 11:0.382054 12:-0.844979 13:0.918599 14:0.219254 15:-0.67597 
512 1:-0.185179 2:-0.946913 3:-0.130202 4:0.93496 5:0.205616 6:0.472177 7:0.869254 8:-0.609972 9:-0.782182 10:-0.495483 11:0.526747 12:-0.578547 13:0.219238 14:-0.400893 15:-0.46717 
134.7878399611188 1:0.686633 2:-0.521493 3:-0.0475693 4:0.237641 5:0.259043 6:0.343989 7:0.594992 8:-0.759596 9:0.616371 10:-0.126955 11:-0.87503 12:0.584004 13:0.311366 14:-0.123454 15:-0.161929 
293.3849490328199 1:-0.265447 2:0.340461 3:0.0276159 4:-0.580178 5:-0.576728 6:0.659508 7:0.646577 8:-0.482262 9:0.806383 10:-0.678081 11:0.521907 12:-0.400952 13:0.481266 14:0.733332 15:-0.189933 
512 1:0.675247 2:0.17937 3:-0.202543 4:-0.157597 5:0.944185 6:0.74284 7:-0.378449 8:0.139293 9:-0.340975 10:-0.470912 11:0.985692 12:0.882161 13:-0.467958 14:-0.24852 15:0.174392 
505.9541165776217 1:-0.659991 2:0.138239 3:-0.285134 4:-0.484128 5:-0.808341 6:0.993174 7:-0.860091 8:-0.132609 9:0.309771 10:-0.61723 11:-0.613376 12:0.0152851 13:-0.394509 14:0.479292 15:-0.349143 
512 1:-0.575902 2:-0.623293 3:-0.00519023 4:-0.918081 5:0.894591 6:-0.829707 7:-0.94525 8:0.425458 9:-0.38695 10:0.136544 11:-0.930903 12:0.48609 13:-0.532296 14:0.80398 15:0.105929 
512 1:0.852932 2:-0.670574 3:-0.806155 4:-0.239707 5:0.561236 6:0.150665 7:-0.234335 8:-0.104542 9:0.274956 10:0.0303873 11:-0.400185 12:-0.155397 13:-0.741826 14:0.704929 15:-0.37701 
465.8624196354131 1:-0.050505 2:0.450972 3:-0.212356 4:-0.526015 5:0.0183655 6:0.117961 7:-0.89494 8:-0.687355 9:-0.975123 10:0.594946 11:0.356378 12:0.174957 13:0.109698 14:-0.0130616 15:-0.0739959 
512 1:-0.755864 2:0.96672 3:0.181537 4:-0.506769 5:-0.291053 6:0.0376995 7:0.684805 8:0.509454 9:-0.0813717 10:-0.800734 11:0.744901 12:-0.168404 13:-0.591256 14:0.215132 15:-0.791111 
512 1:0.826649 2:-0.768384 3:-0.395334 4:-0.129104 5:-0.34514 6:0.808499 7:-0.231851 8:-0.428412 9:-0.982671 10:0.785236 11:-0.0605192 12:-0.423538 13:-0.568993 14:0.59629 15:0.265993 
9.921051160036527 1:0.669734 2:0.0192027 3:-0.954149 4:-0.784027 5:-0.880092 6:0.986503 7:-0.619311 8:0.276933 9:-0.379787 10:0.259204 11:0.188504 12:0.685091 13:-0.483194 14:-0.111416 15:-0.896105 
512 1:-0.575821 2:0.0809615 3:0.369066 4:-0.263405 5:-0.303676 6:0.328689 7:-0.526554 8:0.9302 9:0.95968 10:-0.912744 11:0.692544 12:0.595006 13:0.261715 14:0.945004 15:-0.742188 
226.9082190650342 1:0.501801 2:0.164383 3:-0.744718 4:-0.282747 5:0.620772 6:0.205986 7:-0.162941 8:0.118065 9:-0.131289 10:0.299836 11:0.47166 12:0.957018 13:-0.333873 14:0.0722712 15:-0.982848 
512 1:0.534754 2:0.904586 3:0.776133 4:-0.615866 5:-0.131615 6:0.0404219 7:-0.263263 8:-0.418269 9:0.0691826 10:0.0986058 11:0.524335 12:-0.501511 13:-0.859561 14:-0.604391 15:0.920773 
207.1131413085207 1:-0.370788 2:-0.853298 3:0.984154 4:0.441079 5:0.747507 6:-0.567782 7:0.675681 8:-0.558376 9:0.0329045 10:-0.815756 11:0.982162 12:0.327595 13:0.784694 14:0.326581 15:0.613356 
512 1:-0.391067 2:0.267384 3:-0.3381 4:0.378807 5:0.904974 6:0.905334 7:-0.0880597 8:-0.51685 9:0.606972 10:-0.678058 11:0.399033 12:0.726083 13:-0.776745 14:0.988273 15:0.836735 
512 1:-0.69416 2:-0.847124 3:0.730915 4:-0.800704 5:0.570415 6:0.491712 7:-0.156853 8:-0.15637 9:0.562755 10:0.565538 11:-0.724134 12:0.647859 13:0.397811 14:0.506581 15:0.357906 
512 1:-0.0228489 2:-0.541037 3:0.657447 4:-0.560471 5:-0.439516 6:-0.482666 7:-0.467271 8:0.131174 9:0.245779 10:0.177568 11:0.539648 12:0.783556 13:0.0491414 14:-0.90332 15:-0.307211 
512 1:-0.366586 2:-0.670713 3:0.145689 4:-0.225857 5:0.155363 6:-0.445653 7:0.722932 8:0.882233 9:-0.103305 10:-0.647332 11:0.257823 12:-0.470317 13:0.0638441 14:-0.619881 15:0.00457843 
512 1:-0.782677 2:-0.906019 3:0.408564 4:0.774784 5:-0.890573 6:0.839385 7:0.861091 8:0.183959 9:-0.0391219 10:-0.57242 11:0.854287 12:0.176077 13:0.0934496 14:0.738151 15:-0.328638 
128.7583547718622 1:-0.590041 2:-0.666121 3:-0.817662 4:0.833197 5:0.93542 6:-0.861384 7:0.870937 8:0.815559 9:-0.986582 10:-0.593633 11:0.293837 12:0.588715 13:-0.760018 14:-0.651205 15:0.815514 
512 1:-0.671265 2:-0.363196 3:0.113491 4:-0.653891 5:0.0873902 6:-0.625204 7:-0.324625 8:0.00379283 9:0.325503 10:0.677708 11:0.160619 12:-0.0656408 13:-0.347197 14:0.835153 15:-0.0991665 
512 1:0.195059 2:-0.529513 3:0.603513 4:0.402253 5:-0.746 6:-0.0102802 7:0.664165 8:0.884571 9:-0.206523 10:0.264596 11:0.93471 12:-0.198565 13:-0.519941 14:-0.184039 15:-0.0965541 
512 1:0.503719 2:-0.395927 3:0.823527 4:0.932295 5:0.269712 6:-0.803072 7:0.696617 8:0.854861 9:-0.357985 10:0.305352 11:0.466073 12:0.477582 13:-0.769748 14:-0.0959933 15:0.219072 
340.1984641343289 1:-0.406333 2:-0.314423 3:0.65262 4:0.383252 5:0.242179 6:-0.328944 7:0.812355 8:0.61186 9:0.592645 10:-0.845698 11:-0.467594 12:-0.308007 13:0.420306 14:0.958378 15:0.883948 
469.6563310627206 1:-0.0876417 2:-0.721765 3:0.334612 4:0.228991 5:-0.423814 6:0.979887 7:0.631622 8:0.474316 9:0.0769474 10:0.352399 11:-0.750329 12:0.193341 13:-0.550864 14:-0.698529 15:0.590184 
146.6384295109185 1:0.907659 2:0.73424 3:-0.255248 4:-0.732876 5:-0.37411 6:0.842325 7:-0.957076 8:-0.766579 9:0.988105 10:0.557076 11:0.869217 12:0.99674 13:-0.417696 14:-0.562732 15:0.405882 
370.7925273950643 1:-0.321903 2:-0.537658 3:0.491817 4:-0.486444 5:0.884118 6:-0.495699 7:-0.291058 8:-0.501428 9:0.276958 10:0.426951 11:-0.407706 12:0.242482 13:-0.508918 14:0.398409 15:-0.645737 
512 1:-0.880738 2:0.208391 3:-0.636264 4:-0.129987 5:0.199826 6:-0.0769026 7:0.893446 8:-0.153393 9:0.022436 10:0.645503 11:-0.0364216 12:0.796499 13:-0.970976 14:0.657218 15:-0.995585 
512 1:-0.961009 2:-0.724307 3:-0.348499 4:-0.901117 5:-0.65101 6:0.964951 7:-0.41437 8:-0.0943894 9:-0.170512 10:-0.691235 11:0.0600901 12:0.673975 13:0.771626 14:-0.640195 15:0.0594651 
227.712570851521 1:0.857118 2:-0.490047 3:0.20308 4:0.0421151 5:-0.847197 6:-0.770746 7:-0.370771 8:0.599577 9:-0.145973 10:0.182529 11:0.669753 12:-0.438296 13:-0.910671 14:0.0590939 15:-0.808483 
512 1:0.132573 2:-0.875851 3:0.112145 4:0.958077 5:-0.253612 6:0.663607 7:0.0144171 8:-0.41854 9:0.0911461 10:0.807142 11:-0.448856 12:-0.140669 13:0.749637 14:0.0117196 15:-0.310135 
512 1:0.392333 2:0.293209 3:-0.101843 4:-0.857015 5:-0.377327 6:-0.883065 7:-0.0702351 8:0.408187 9:0.367624 10:-0.168779 11:-0.300364 12:-0.784284 13:0.718677 14:-0.57761 15:-0.781565 
512 1:-0.693967 2:-0.700767 3:0.473443 4:-0.753382 5:-0.605672 6:-0.673108 7:-0.886222 8:-0.966095 9:-0.189798 10:-0.34614 11:0.540124 12:0.249585 13:0.393855 14:-0.513584 15:0.799595 
512 1:-0.201339 2:-0.970876 3:-0.65648 4:0.324459 5:-0.120026 6:0.323133 7:0.516433 8:-0.153006 9:0.853848 10:0.79541 11:0.454335 12:-0.037733 13:0.419333 14:-0.369088 15:0.672766 
22.92221529002607 1:0.921558 2:0.747149 3:-0.275162 4:-0.291836 5:-0.425364 6:0.186958 7:-0.979349 8:0.0194208 9:0.824773 10:-0.184233 11:-0.475835 12:-0.278183 13:-0.33553 14:-0.888886 15:0.181319 
512 1:0.874693 2:-0.904617 3:-0.137276 4:-0.830849 5:0.97761 6:0.502562 7:-0.833533 8:-0.256886 9:0.136362 10:0.658445 11:-0.765609 12:0.00164819 13:-0.109192 14:-0.327659 15:-0.225787 
512 1:-0.662112 2:0.372872 3:-0.313354 4:-0.335336 5:0.990069 6:-0.588861 7:-0.250503 8:0.62222 9:0.585208 10:-0.176501 11:0.464737 12:0.922842 13:0.272876 14:0.316494 15:0.203995 
43.52903596824216 1:-0.764212 2:0.949184 3:-0.597097 4:-0.366965 5:-0.248712 6:-0.67998 7:-0.855874 8:0.384666 9:-0.615985 10:-0.1543 11:0.596468 12:-0.175502 13:-0.601337 14:0.31247 15:-0.520399 
371.2689184566712 1:0.374622 2:-0.562493 3:-0.43295 4:0.263868 5:-0.252023 6:-0.37726 7:-0.141631 8:0.923595 9:-0.571402 10:0.985585 11:-0.28078 12:0.0478024 13:0.628051 14:-0.970302 15:-0.838744 
512 1:0.0742001 2:-0.680182 3:0.929798 4:0.0401365 5:-0.717772 6:0.298213 7:-0.296425 8:-0.427521 9:-0.820624 10:0.940559 11:-0.155881 12:0.0880593 13:0.0108489 14:-0.87027 15:0.124141 
162.5278989609491 1:-0.521234 2:-0.444685 3:0.910844 4:0.567312 5:0.0107064 6:0.184451 7:0.890878 8:0.354861 9:0.106943 10:0.508515 11:0.48559 12:0.262502 13:-0.604013 14:0.263883 15:0.474654 
512 1:0.110945 2:0.154747 3:-0.820303 4:-0.931627 5:-0.619962 6:-0.141971 7:0.478377 8:-0.889041 9:-0.551752 10:-0.214842 11:-0.208069 12:0.148255 13:0.25457 14:0.366261 15:0.543502 
512 1:-0.911562 2:-0.74389 3:-0.396571 4:-0.659855 5:-0.292702 6:-0.903901 7:0.706132 8:0.0750483 9:-0.340122 10:-0.387695 11:-0.440515 12:-0.31249 13:0.655309 14:-0.697469 15:0.540954 
512 1:0.443162 2:-0.722623 3:-0.466552 4:0.197077 5:-0.414227 6:-0.797199 7:-0.789981 8:0.579621 9:0.752258 10:0.204685 11:0.294435 12:0.631509 13:-0.467098 14:-0.556576 15:0.965952 
512 1:0.470907 2:-0.258973 3:0.423239 4:-0.631188 5:0.638614 6:0.525395 7:0.961353 8:-0.108965 9:0.993734 10:-0.41748 11:-0.33352 12:-0.200022 13:0.884402 14:0.44244 15:0.749752 
512 1:-0.923745 2:-0.866122 3:-0.841697 4:0.513186 5:-0.444108 6:0.450347 7:0.0746134 8:0.376024 9:-0.519 10:-0.366532 11:0.62188 12:0.792453 13:0.358502 14:0.555865 15:-0.976456 
512 1:-0.938445 2:-0.720188 3:-0.893806 4:0.0312442 5:0.911179 6:-0.0263943 7:0.316288 8:0.720607 9:-0.436276 10:0.476873 11:-0.446227 12:-0.535665 13:0.84516 14:-0.0154709 15:-0.281716 
512 1:0.0381274 2:-0.624344 3:0.296061 4:-0.511378 5:-0.203606 6:-0.33448 7:0.349886 8:-0.232727 9:0.657748 10:0.483596 11:0.609263 12:0.361798 13:0.170684 14:0.16207 15:-0.169577 
512 1:-0.0978834 2:-0.852467 3:0.605953 4:-0.83457 5:-0.940503 6:0.354664 7:0.72452 8:0.0400258 9:-0.302849 10:0.988824 11:0.393967 12:-0.846714 13:0.344351 14:-0.141991 15:0.19735 
295.8388873909255 1:-0.97774 2:-0.106288 3:-0.616663 4:-0.550814 5:-0.607175 6:-0.284911 7:0.957447 8:-0.846216 9:0.96159 10:0.863918 11:-0.101697 12:0.066111 13:-0.364446 14:0.568296 15:-0.298184 
512 1:0.024103 2:-0.0395478 3:-0.373792 4:-0.440195 5:0.025392 6:-0.135466 7:0.958441 8:0.658253 9:0.0338354 10:0.24264 11:0.123238 12:-0.815437 13:-0.597769 14:-0.52015 15:0.713902 
508.3224808995605 1:0.586722 2:0.073847 3:-0.833523 4:-0.419391 5:-0.923583 6:0.048261 7:-0.205828 8:0.161426 9:-0.836731 10:-0.248866 11:-0.598046 12:0.00521735 13:-0.981782 14:0.348888 15:-0.653362 
512 1:0.794814 2:-0.234162 3:-0.807118 4:-0.795668 5:0.429826 6:0.485153 7:-0.897298 8:-0.140823 9:-0.657412 10:-0.719623 11:0.845178 12:-0.339163 13:-0.0988894 14:-0.284082 15:-0.0346815 
512 1:0.254716 2:-0.485734 3:-0.127312 4:-0.877436 5:0.558685 6:-0.858647 7:-0.132042 8:0.830381 9:-0.813918 10:0.520341 11:-0.907756 12:0.85897 13:0.830851 14:0.475719 15:-0.119968 
512 1:-0.286359 2:-0.600219 3:0.538989 4:0.468995 5:0.658833 6:0.614416 7:-0.238527 8:-0.653275 9:0.558756 10:0.404681 11:0.467242 12:0.0122533 13:-0.538401 14:-0.76767 15:0.634471 
512 1:-0.513698 2:-0.675106 3:0.837766 4:0.849765 5:0.275031 6:0.612177 7:0.637899 8:-0.042815 9:-0.590451 10:-0.303306 11:0.0660608 12:-0.0191418 13:-0.3771 14:-0.0631074 15:0.994923 
512 1:0.19402 2:-0.174467 3:-0.606143 4:0.0971384 5:0.0488358 6:0.910518 7:0.216953 8:-0.586401 9:-0.734969 10:0.662875 11:0.284045 12:-0.0869919 13:-0.773546 14:-0.35817 15:-0.538313 
512 1:0.131895 2:-0.405209 3:0.128049 4:-0.847937 5:0.0348982 6:0.7369 7:0.791487 8:0.476799 9:-0.39891 10:0.761577 11:0.980531 12:-0.390191 13:-0.0171942 14:-0.334859 15:0.829189 
512 1:-0.317343 2:-0.672617 3:-0.315977 4:-0.427013 5:-0.483553 6:0.433297 7:0.473217 8:-0.569994 9:-0.636105 10:-0.55992 11:-0.0357199 12:-0.680137 13:0.925745 14:-0.46498 15:0.659958 
512 1:0.0831264 2:-0.221489 3:0.745351 4:0.552563 5:0.405498 6:-0.820123 7:-0.685745 8:-0.21422 9:0.483008 10:0.0231293 11:0.527653 12:-0.366679 13:-0.226801 14:0.941317 15:0.311286 
512 1:0.220447 2:-0.137366 3:-0.461654 4:-0.271297 5:-0.460874 6:-0.0797283 7:-0.97945 8:0.162991 9:0.404354 10:0.353027 11:0.92186 12:-0.712184 13:-0.749422 14:0.038992 15:0.893634 
512 1:-0.64626 2:-0.981874 3:-0.0222976 4:-0.422129 5:-0.0178781 6:0.245879 7:0.218039 8:-0.459237 9:0.221679 10:-0.79322 11:-0.432051 12:0.744277 13:0.0150162 14:-0.122602 15:0.954084 
320.2508440137622 1:0.744477 2:0.541884 3:-0.428453 4:0.285256 5:-0.478692 6:-0.399128 7:0.443716 8:0.0155352 9:0.924262 10:-0.787615 11:0.573004 12:-0.871085 13:0.456465 14:0.673051 15:0.33019 
512 1:0.981954 2:-0.681127 3:-0.815834 4:-0.0347961 5:0.0876113 6:-0.435936 7:-0.540011 8:0.552424 9:0.783447 10:-0.402397 11:0.234076 12:-0.995784 13:0.0266884 14:-0.192141 15:0.107451 
70.97142471760235 1:0.0883548 2:-0.405086 3:-0.713778 4:0.443772 5:0.601432 6:0.0811266 7:-0.0317815 8:-0.467187 9:-0.775764 10:0.216744 11:-0.905189 12:-0.926064 13:-0.700154 14:0.16239 15:-0.347551 
53.60724584101967 1:-0.159799 2:-0.366218 3:-0.957641 4:0.982605 5:-0.502913 6:0.503838 7:-0.583189 8:0.659762 9:-0.75237 10:-0.592911 11:0.937112 12:-0.378254 13:-0.435831 14:-0.122553 15:-0.900156 
512 1:-0.89878 2:0.193759 3:0.0839489 4:-0.914522 5:0.203581 6:0.785371 7:-0.217528 8:-0.89947 9:-0.056102 10:-0.18231 11:-0.287944 12:0.542505 13:-0.522758 14:0.500328 15:-0.491109 
512 1:-0.534406 2:0.452605 3:-0.769685 4:-0.620278 5:0.88411 6:0.275054 7:-0.410949 8:-0.751012 9:0.861451 10:-0.872309 11:0.580505 12:-0.49683 13:-0.215267 14:-0.8648 15:-0.195072 
512 1:0.443175 2:0.72295 3:0.0531318 4:-0.829332 5:0.789013 6:-0.222013 7:-0.819518 8:-0.0370985 9:0.503765 10:-0.704216 11:0.615485 12:-0.83447 13:-0.379611 14:0.847576 15:-0.0944128 
512 1:-0.912677 2:0.0984004 3:0.0612109 4:-0.874198 5:-0.335316 6:0.259713 7:-0.473401 8:-0.540264 9:-0.0134766 10:0.250461 11:-0.225543 12:-0.00110589 13:-0.498569 14:-0.866914 15:0.980205 
512 1:-0.672145 2:-0.878699 3:0.100033 4:-0.648686 5:-0.545451 6:-0.656297 7:-0.350218 8:0.450729 9:0.13718 10:0.943253 11:0.1277 12:0.569341 13:-0.439648 14:-0.561365 15:0.463332 
479.7890677806946 1:0.980988 2:-0.0130767 3:-0.264604 4:0.140484 5:-0.154657 6:-0.445657 7:0.911739 8:-0.693215 9:-0.843244 10:-0.583609 11:0.674857 12:0.86377 13:-0.949368 14:0.720827 15:0.436391 
112.2128095210005 1:0.366044 2:-0.845007 3:-0.656744 4:0.15893 5:0.219178 6:-0.369779 7:-0.932904 8:0.169879 9:0.656742 10:0.616508 11:-0.636407 12:0.697231 13:-0.575454 14:0.818853 15:-0.738404 
512 1:-0.117188 2:-0.322503 3:-0.528586 4:0.663966 5:-0.752495 6:-0.323246 7:0.892899 8:-0.799751 9:0.625859 10:-0.529418 11:0.622006 12:0.0864676 13:0.667343 14:-0.601868 15:0.991802 
401.2439026439557 1:-0.232696 2:0.254142 3:0.307185 4:0.832216 5:0.968169 6:0.556924 7:0.295244 8:0.27325 9:-0.624936 10:-0.191489 11:0.635274 12:-0.905987 13:-0.849468 14:-0.0529048 15:0.509125 
512 1:-0.303323 2:0.896714 3:0.765993 4:-0.469159 5:0.877082 6:0.0525691 7:0.417724 8:-0.550117 9:0.06918 10:0.759399 11:0.977256 12:0.445676 13:-0.671671 14:0.590283 15:0.281671 
393.776252634779 1:-0.764658 2:0.0869852 3:-0.265598 4:-0.949254 5:-0.161908 6:0.595702 7:0.784453 8:0.448571 9:0.469096 10:-0.499706 11:0.707318 12:-0.50671 13:0.590929 14:-0.295905 15:0.890122 
512 1:-0.729533 2:-0.375675 3:-0.687226 4:-0.247751 5:-0.562145 6:-0.683474 7:0.982883 8:0.207038 9:0.867195 10:0.757823 11:0.211303 12:0.946172 13:0.978246 14:-0.76955 15:-0.215007 
512 1:-0.218675 2:-0.502645 3:-0.749823 4:-0.169569 5:0.194735 6:0.359085 7:-0.280965 8:0.283917 9:0.59658 10:0.576095 11:-0.729244 12:-0.547221 13:0.942058 14:-0.40305 15:0.956674 
512 1:0.0823702 2:-0.853882 3:-0.674436 4:0.923857 5:0.730508 6:0.958192 7:0.0176449 8:0.624994 9:0.477118 10:0.360366 11:0.632984 12:-0.147974 13:-0.673054 14:-0.45214 15:0.0246714 
512 1:-0.365892 2:-0.268366 3:0.11969 4:-0.688089 5:0.694761 6:0.58013 7:-0.177578 8:-0.971451 9:0.277514 10:-0.627965 11:0.34502 12:-0.492461 13:0.0239669 14:0.767013 15:0.147496 
512 1:-0.100805 2:0.0418733 3:-0.779867 4:-0.98321 5:0.513157 6:-0.654944 7:-0.77902 8:-0.0190802 9:-0.251368 10:0.572459 11:0.671044 12:-0.529462 13:0.50602 14:0.32854 15:0.441483 
512 1:0.487956 2:-0.641184 3:-0.56474 4:0.0147468 5:-0.999047 6:-0.772077 7:0.740035 8:0.427697 9:-0.889227 10:-0.766603 11:0.456203 12:0.486607 13:0.895059 14:0.23593 15:-0.0142312 
512 1:0.552184 2:0.645219 3:-0.634653 4:-0.712242 5:-0.904052 6:-0.641472 7:0.653294 8:-0.898691 9:0.315505 10:-0.235008 11:0.839629 12:0.523537 13:-0.33639 14:-0.525012 15:-0.859585 
512 1:0.0395597 2:0.0660793 3:-0.680669 4:-0.109841 5:0.122815 6:0.805532 7:-0.43175 8:-0.701311 9:-0.13754 10:-0.760797 11:0.961632 12:0.6465 13:-0.45366 14:0.399581 15:0.679798 
222.1391226840568 1:0.392005 2:0.345269 3:-0.673033 4:-0.823559 5:0.548112 6:-0.575359 7:0.547327 8:0.343216 9:0.41556 10:-0.207515 11:-0.827655 12:-0.635572 13:0.282596 14:-0.2447 15:-0.383405 
512 1:-0.106306 2:-0.670212 3:0.677892 4:0.195451 5:0.0675622 6:-0.709494 7:-0.732142 8:0.0163462 9:-0.519131 10:-0.259802 11:-0.218604 12:-0.932365 13:-0.88793 14:0.568731 15:-0.857463 
512 1:-0.0436974 2:0.903697 3:0.926957 4:-0.289357 5:0.590338 6:0.592126 7:-0.397636 8:0.190702 9:-0.442879 10:-0.467263 11:0.196123 12:0.73552 13:-0.934024 14:-0.313838 15:0.802595 
366.0652214356179 1:0.824081 2:0.477833 3:-0.791311 4:0.537833 5:-0.728681 6:0.810587 7:0.520308 8:-0.470614 9:0.414072 10:0.266275 11:0.72096 12:-0.815493 13:-0.980737 14:-0.918585 15:-0.745876 
512 1:0.637302 2:-0.274459 3:0.571705 4:-0.886862 5:0.487484 6:0.549819 7:-0.896595 8:-0.451929 9:0.826773 10:-0.721686 11:0.308317 12:0.707938 13:-0.260554 14:-0.814819 15:0.264085 
232.0584442005854 1:-0.966402 2:0.937567 3:0.437542 4:-0.301043 5:-0.112377 6:-0.809654 7:-0.233735 8:-0.893266 9:-0.249865 10:0.551822 11:0.665158 12:0.741893 13:-0.394088 14:-0.231103 15:0.417462 
88.2517661636159 1:0.0969089 2:0.092474 3:-0.904273 4:-0.831794 5:-0.944901 6:0.827983 7:0.82168 8:0.585332 9:-0.296685 10:-0.93661 11:-0.621519 12:0.449344 13:0.322662 14:-0.839786 15:-0.87752 
512 1:0.0141834 2:-0.496169 3:-0.0153568 4:0.0502992 5:0.227676 6:0.221593 7:0.316693 8:-0.800178 9:-0.00030565 10:-0.578474 11:-0.251211 12:-0.276807 13:0.0734702 14:-0.3718 15:0.956773 
512 1:-0.888099 2:-0.208261 3:-0.89073 4:-0.939834 5:-0.881666 6:-0.986882 7:0.704659 8:-0.745515 9:-0.651924 10:0.273965 11:-0.776753 12:-0.644014 13:-0.528123 14:0.971949 15:0.2432 
512 1:-0.560708 2:-0.30505 3:-0.857635 4:-0.5744 5:-0.545205 6:-0.853057 7:-0.222927 8:0.21585 9:-0.772062 10:0.990704 11:-0.176475 12:0.84266 13:-0.543492 14:0.591512 15:0.628433 
512 1:-0.971354 2:-0.668974 3:-0.163013 4:-0.695655 5:-0.251178 6:-0.837209 7:0.668961 8:0.984196 9:0.293583 10:0.717926 11:-0.249259 12:-0.276815 13:-0.991614 14:-0.619057 15:-0.277395 
473.2896369098432 1:-0.0909415 2:-0.627121 3:0.61367 4:-0.223446 5:-0.639275 6:0.505737 7:-0.646921 8:-0.199377 9:-0.50498 10:0.0447626 11:-0.332923 12:-0.671504 13:-0.638536 14:0.787574 15:0.498734 
512 1:0.468554 2:-0.43489 3:0.141737 4:-0.625961 5:0.844416 6:-0.126802 7:0.409146 8:-0.0857392 9:0.635398 10:-0.716665 11:0.962148 12:0.693226 13:-0.249055 14:-0.426713 15:-0.042535 
512 1:-0.241447 2:-0.223386 3:-0.61449 4:-0.164791 5:-0.155528 6:0.404036 7:-0.539221 8:-0.241967 9:0.42935 10:-0.70315 11:0.552434 12:-0.502453 13:0.608546 14:0.469581 15:-0.908708 
512 1:0.821639 2:-0.842881 3:-0.991284 4:-0.973351 5:-0.266707 6:-0.770117 7:0.171192 8:0.0418072 9:-0.0572406 10:-0.519597 11:-0.0300074 12:0.849361 13:0.220177 14:0.423608 15:-0.307745 
58.16257400775604 1:0.0346494 2:-0.185569 3:-0.920632 4:-0.311728 5:0.536994 6:0.852476 7:-0.813186 8:-0.265934 9:-0.921517 10:-0.393878 11:0.412764 12:-0.311619 13:0.11914 14:-0.399114 15:-0.75589 
293.9284658019247 1:0.190882 2:-0.815655 3:0.0442651 4:0.728225 5:-0.743331 6:-0.340318 7:-0.221208 8:-0.83594 9:-0.251214 10:0.964167 11:0.994317 12:-0.224581 13:-0.11285 14:-0.283841 15:-0.671698 
287.7363091206624 1:-0.444483 2:-0.536063 3:-0.351002 4:0.849354 5:-0.989218 6:0.125522 7:-0.196081 8:0.627714 9:-0.818319 10:0.298797 11:0.599072 12:-0.0767522 13:0.67053 14:-0.135255 15:-0.609697 
504.1045446041452 1:0.00490212 2:0.811187 3:0.294158 4:-0.14052 5:-0.784092 6:-0.611935 7:-0.895615 8:0.428136 9:0.870328 10:-0.696611 11:-0.566981 12:-0.365642 13:-0.0212576 14:-0.910928 15:-0.67919 
148.7893625205617 1:0.445818 2:-0.157042 3:0.793058 4:-0.39462 5:-0.313121 6:-0.892223 7:-0.290037 8:-0.820105 9:0.0525833 10:-0.857871 11:-0.3291 12:0.635269 13:-0.955396 14:-0.492157 15:0.446249 
512 1:0.502338 2:-0.863253 3:0.646572 4:0.0291645 5:-0.29392 6:0.32674 7:-0.562726 8:0.878982 9:0.219663 10:-0.463756 11:-0.225354 12:-0.667448 13:0.0958308 14:-0.424934 15:-0.24959 
512 1:-0.840121 2:-0.42449 3:-0.0255735 4:-0.669174 5:-0.461301 6:-0.127812 7:-0.814112 8:0.102798 9:0.351742 10:-0.4274 11:0.0494634 12:-0.930858 13:0.653844 14:-0.68055 15:-0.391249 
393.868761662211 1:0.0396257 2:-0.451248 3:-0.933507 4:0.0624797 5:-0.318961 6:0.649078 7:0.0757128 8:0.318703 9:-0.953732 10:0.0777479 11:-0.814984 12:0.508864 13:0.484017 14:-0.507647 15:0.622069 
512 1:-0.416106 2:-0.496491 3:0.496806 4:0.429748 5:-0.188831 6:0.248159 7:0.719269 8:0.0235204 9:0.0924336 10:-0.870314 11:0.431382 12:-0.454089 13:-0.469271 14:-0.222597 15:0.350047 
43.60008269317779 1:-0.248123 2:-0.250997 3:-0.503437 4:0.653548 5:-0.0285633 6:0.591728 7:0.344554 8:0.869791 9:0.998166 10:0.0855948 11:-0.714463 12:0.448519 13:-0.59139 14:-0.620345 15:-0.946624 
512 1:-0.248039 2:-0.0747591 3:0.116539 4:-0.514751 5:-0.53035 6:0.744915 7:-0.799502 8:0.545758 9:0.526854 10:0.191789 11:-0.101343 12:0.545257 13:-0.666286 14:-0.832067 15:-0.336441 
512 1:0.379396 2:-0.847496 3:-0.743962 4:0.575542 5:0.0173454 6:-0.759182 7:-0.56389 8:-0.155449 9:0.0590223 10:0.371699 11:-0.536941 12:0.212602 13:-0.903496 14:0.898679 15:-0.379013 
512 1:0.117312 2:-0.764788 3:-0.674344 4:-0.433455 5:-0.339994 6:0.113302 7:-0.118207 8:0.0778466 9:0.804524 10:0.387482 11:-0.973774 12:-0.0988397 13:0.0286 14:-0.877148 15:0.491839 
512 1:0.0694421 2:-0.0994793 3:0.113658 4:-0.696503 5:0.895303 6:-0.80666 7:-0.733223 8:0.0324102 9:0.561851 10:-0.624389 11:-0.597208 12:-0.694893 13:0.0607728 14:-0.366081 15:0.447719 
512 1:0.0958385 2:0.268107 3:-0.724396 4:-0.111044 5:-0.473831 6:-0.915533 7:-0.00406144 8:-0.0873621 9:0.122349 10:-0.786641 11:-0.950124 12:-0.975916 13:0.0165557 14:0.565674 15:0.734668 
88.97240223807161 1:0.0973478 2:-0.723079 3:0.570576 4:0.146943 5:-0.755184 6:-0.529481 7:-0.397144 8:-0.209374 9:-0.335419 10:0.40427 11:-0.812885 12:0.274623 13:-0.676584 14:-0.0854137 15:0.255397 
153.743695002009 1:0.79201 2:0.0232602 3:-0.635814 4:-0.733618 5:0.528277 6:0.880044 7:-0.919612 8:0.872931 9:-0.717377 10:0.67024 11:0.543259 12:0.383147 13:-0.509644 14:-0.249563 15:0.140312 
340.6002098926218 1:0.298996 2:-0.259431 3:0.548939 4:0.957948 5:-0.0435189 6:-0.72245 7:0.0708102 8:0.679994 9:0.0894395 10:-0.849217 11:0.00189661 12:-0.288765 13:-0.294463 14:-0.522316 15:-0.379638 
31.46014867318239 1:0.439409 2:-0.0483089 3:-0.639604 4:-0.923342 5:0.984883 6:0.0354382 7:-0.80355 8:-0.0404583 9:0.902294 10:0.402267 11:-0.510693 12:-0.29095 13:0.113272 14:-0.299727 15:-0.0680506 
512 1:0.955757 2:-0.988855 3:0.155644 4:-0.258262 5:0.432424 6:-0.96347 7:-0.186182 8:-0.218572 9:-0.934074 10:0.844374 11:0.233227 12:-0.298588 13:0.138503 14:-0.128281 15:0.191419 
0.2253309046982607 1:0.506018 2:-0.336072 3:0.456387 4:-0.93618 5:0.665723 6:-0.030378 7:0.530533 8:-0.889263 9:-0.116975 10:0.481814 11:-0.578805 12:-0.0358178 13:0.31651 14:-0.441714 15:0.977914 
512 1:-0.920846 2:0.0771888 3:-0.468647 4:0.598592 5:-0.854447 6:-0.945689 7:-0.83454 8:-0.0262436 9:-0.504655 10:0.317693 11:0.757858 12:0.0675348 13:-0.732039 14:0.760744 15:0.450296 
328.8585059525183 1:-0.693317 2:-0.671532 3:-0.661603 4:0.747966 5:0.157156 6:-0.0114068 7:0.189349 8:0.718246 9:0.0190165 10:0.345733 11:-0.744759 12:0.615535 13:0.959596 14:-0.547742 15:-0.5336 
447.7275450342481 1:0.406273 2:0.421375 3:0.542175 4:-0.402073 5:0.58656 6:0.176525 7:0.0416299 8:-0.944946 9:-0.598707 10:0.338676 11:0.940617 12:0.718505 13:0.0322212 14:0.13742 15:-0.708735 
512 1:-0.80077 2:-0.496355 3:-0.904856 4:-0.729049 5:0.246213 6:0.592668 7:-0.419367 8:0.442359 9:0.581451 10:0.402587 11:-0.834183 12:-0.904792 13:-0.260469 14:0.537172 15:-0.14936 
512 1:-0.518322 2:0.64642 3:-0.961241 4:-0.915776 5:-0.983903 6:0.862715 7:-0.343724 8:0.812816 9:0.718395 10:-0.911541 11:0.463926 12:0.0266659 13:-0.405545 14:0.240765 15:-0.0491788 
109.223188133168 1:-0.872404 2:-0.833278 3:0.769607 4:-0.271954 5:0.31978 6:0.14404 7:-0.27162 8:-0.267853 9:-0.980347 10:-0.164543 11:-0.0468965 12:0.00576538 13:-0.596481 14:0.711722 15:-0.250607 
512 1:0.102053 2:0.25253 3:0.540797 4:-0.00604503 5:0.340774 6:0.0362345 7:-0.719093 8:0.139762 9:-0.460187 10:-0.458612 11:0.548407 12:0.661507 13:-0.787902 14:-0.737173 15:-0.239589 
512 1:0.170756 2:-0.633502 3:0.0368304 4:0.0844857 5:0.932478 6:0.969675 7:-0.964637 8:-0.0315677 9:0.330959 10:0.366657 11:0.694519 12:-0.0913082 13:0.992564 14:0.541253 15:0.425343 
4.391572961429393 1:0.089784 2:-0.573848 3:0.0771397 4:-0.724181 5:0.870516 6:-0.360318 7:0.452156 8:-0.989319 9:0.406702 10:0.713203 11:-0.785094 12:-0.117187 13:-0.342475 14:-0.902147 15:-0.828272 
512 1:-0.443213 2:-0.646013 3:-0.132609 4:-0.561112 5:0.339985 6:0.184753 7:0.814139 8:-0.179871 9:-0.176988 10:-0.387418 11:-0.75486 12:0.826801 13:-0.157539 14:0.953748 15:-0.489694 
231.2932816169193 1:-0.230247 2:0.126164 3:0.853036 4:0.206794 5:-0.278399 6:0.888276 7:-0.655045 8:0.986526 9:0.870137 10:-0.276732 11:-0.623741 12:0.537237 13:-0.532443 14:0.288336 15:0.0793555 
314.3544187131844 1:-0.205982 2:0.768173 3:0.963153 4:-0.752033 5:-0.826144 6:-0.606594 7:0.0349512 8:-0.923469 9:0.649267 10:-0.553155 11:0.363944 12:0.70417 13:-0.776707 14:-0.777965 15:0.267138 
457.2546714438394 1:0.699221 2:-0.368583 3:-0.0823868 4:0.650168 5:0.29782 6:-0.825158 7:-0.235576 8:0.391768 9:0.51408 10:-0.00513481 11:0.660945 12:0.442698 13:-0.0327303 14:-0.429277 15:-0.147881 
512 1:-0.211809 2:-0.262731 3:-0.45002 4:-0.856233 5:0.711345 6:-0.120969 7:-0.443802 8:-0.662134 9:-0.692949 10:-0.762815 11:-0.636714 12:-0.208082 13:-0.778886 14:-0.671434 15:-0.177231 
14.19663242979289 1:-0.400858 2:0.597432 3:-0.765923 4:-0.881067 5:-0.292442 6:0.878834 7:0.2613 8:0.98439 9:0.748501 10:0.94378 11:0.594113 12:0.900298 13:-0.76251 14:-0.180228 15:0.17444 
512 1:0.466634 2:-0.878368 3:-0.630898 4:-0.101859 5:-0.956909 6:-0.260172 7:0.0545902 8:0.646895 9:0.14743 10:0.614697 11:-0.450952 12:-0.439967 13:0.0138323 14:0.962271 15:0.37524 
59.33732954772685 1:-0.00944026 2:0.14313 3:0.445143 4:-0.973981 5:0.32149 6:0.227918 7:0.695509 8:-0.7136 9:0.180141 10:0.621592 11:-0.516911 12:0.437422 13:-0.953803 14:-0.328928 15:0.771595 
239.8398559174014 1:-0.567149 2:-0.686647 3:0.395773 4:-0.714906 5:0.707817 6:0.957564 7:0.463756 8:0.744346 9:-0.233964 10:0.243908 11:-0.432842 12:-0.342944 13:-0.280291 14:-0.752724 15:0.311103 
336.4409772380477 1:-0.480217 2:-0.0442167 3:0.0361166 4:-0.994059 5:0.686384 6:-0.889033 7:0.752064 8:-0.886646 9:0.472038 10:0.210899 11:0.555569 12:-0.916529 13:0.39961 14:0.208109 15:0.53318 
347.1998782291925 1:-0.514223 2:-0.267949 3:-0.138348 4:-0.652503 5:-0.30601 6:0.646719 7:0.00572395 8:0.838557 9:-0.144269 10:-0.233026 11:-0.172184 12:-0.94864 13:0.395872 14:-0.187778 15:0.883355 
512 1:-0.376505 2:-0.707976 3:-0.472068 4:0.586569 5:0.446366 6:0.700458 7:-0.0355337 8:-0.137678 9:0.333001 10:0.816347 11:0.434909 12:0.530271 13:0.772703 14:-0.21579 15:0.106463 
512 1:0.79073 2:-0.565733 3:-0.558042 4:0.610863 5:0.470963 6:0.0207977 7:-0.228333 8:-0.112897 9:-0.940873 10:-0.274929 11:-0.427702 12:0.559257 13:-0.957486 14:0.872497 15:-0.357454 
512 1:-0.74338 2:-0.840715 3:0.944519 4:0.849609 5:0.642071 6:0.642887 7:-0.0698973 8:0.551588 9:-0.274253 10:-0.391868 11:0.857663 12:-0.780819 13:0.0366892 14:0.441661 15:0.868133 
512 1:0.533502 2:-0.809021 3:-0.941464 4:-0.724664 5:-0.84493 6:0.00668238 7:0.307945 8:-0.379112 9:-0.932572 10:-0.592791 11:-0.578586 12:-0.971307 13:-0.415198 14:0.790655 15:0.06007 
342.316001034021 1:0.815867 2:0.753319 3:-0.0769087 4:-0.569111 5:-0.36007 6:-0.662977 7:0.000826232 8:-0.741461 9:0.608921 10:0.608873 11:0.628503 12:0.236788 13:-0.426247 14:-0.684476 15:-0.962849 
345.3139322429015 1:0.243052 2:-0.535937 3:0.673578 4:-0.432196 5:-0.944248 6:-0.713948 7:-0.800043 8:-0.990885 9:-0.663099 10:0.497239 11:0.178415 12:0.893482 13:-0.721232 14:0.663496 15:0.79942 
512 1:-0.83955 2:-0.811666 3:0.806369 4:0.133251 5:-0.295319 6:0.752606 7:-0.402489 8:0.361284 9:0.329822 10:0.70072 11:0.496858 12:-0.121812 13:-0.717065 14:-0.564335 15:0.832634 
512 1:0.189472 2:-0.797647 3:0.201211 4:-0.99022 5:0.904626 6:0.509105 7:-0.0898606 8:0.267089 9:0.469988 10:0.519059 11:-0.606234 12:0.783614 13:0.834181 14:0.848519 15:0.10168 
512 1:0.999403 2:0.105439 3:-0.208321 4:0.304642 5:-0.626879 6:0.277021 7:0.983734 8:-0.166361 9:0.500033 10:-0.0884239 11:0.636343 12:0.975449 13:-0.658793 14:0.0229383 15:0.842367 
512 1:-0.0331754 2:0.490304 3:-0.13491 4:-0.205762 5:0.152028 6:-0.369987 7:0.468941 8:0.854728 9:0.790464 10:-0.00779336 11:0.132294 12:0.14856 13:-0.264934 14:-0.589934 15:0.345194 
512 1:0.0314925 2:-0.233231 3:-0.692272 4:0.213934 5:0.357725 6:-0.29258 7:-0.944797 8:-0.555079 9:-0.411084 10:-0.562307 11:-0.419122 12:-0.616681 13:-0.430963 14:0.0866613 15:0.810943 
11.39348900401864 1:-0.50439 2:-0.705543 3:0.414639 4:0.586939 5:0.703229 6:0.041451 7:-0.296599 8:-0.407404 9:-0.226475 10:0.991838 11:-0.707552 12:-0.497867 13:-0.2899 14:0.550759 15:-0.501389 
512 1:-0.445956 2:-0.412795 3:0.896316 4:0.77291 5:-0.412372 6:-0.303371 7:-0.28673 8:-0.238728 9:-0.689353 10:0.135191 11:0.647236 12:0.300516 13:0.899732 14:0.846109 15:0.171597 
255.1800548508841 1:-0.241668 2:-0.56271 3:-0.356596 4:0.344318 5:-0.292137 6:0.383989 7:-0.939438 8:-0.793806 9:0.291728 10:0.418342 11:-0.992071 12:0.461617 13:0.616389 14:-0.401842 15:-0.457773 
4.422354474107139 1:0.51192 2:-0.416579 3:0.709464 4:-0.422101 5:-0.819515 6:-0.817792 7:0.842142 8:0.667914 9:-0.644521 10:-0.803766 11:0.925342 12:-0.729374 13:-0.899081 14:0.92151 15:0.239431 
512 1:-0.820811 2:0.286783 3:0.911895 4:-0.93817 5:0.676524 6:0.551969 7:0.425294 8:0.310497 9:0.692758 10:-0.770174 11:0.697923 12:-0.371519 13:-0.118072 14:-0.872567 15:-0.240079 
264.0815139373108 1:0.4031 2:-0.0976312 3:0.335084 4:-0.782268 5:0.0590527 6:0.221075 7:-0.113905 8:-0.598088 9:0.198125 10:0.434953 11:0.642694 12:0.838081 13:0.132243 14:0.118597 15:-0.526951 
512 1:0.949208 2:-0.421777 3:-0.0664725 4:-0.225076 5:-0.379479 6:0.961402 7:0.114476 8:-0.117349 9:-0.00467644 10:-0.31723 11:0.28392 12:-0.989225 13:-0.913373 14:-0.101074 15:0.239567 
512 1:0.283109 2:-0.633772 3:-0.284424 4:0.188921 5:-0.765452 6:0.563354 7:-0.26711 8:-0.404814 9:0.603967 10:0.348464 11:0.126741 12:0.667307 13:-0.597514 14:0.661201 15:-0.742283 
512 1:-0.71979 2:-0.598762 3:-0.731709 4:0.404418 5:-0.363953 6:-0.071364 7:-0.842264 8:0.765559 9:0.230251 10:0.931543 11:0.502062 12:0.798965 13:-0.398829 14:0.0340259 15:0.274002 
90.4431935885014 1:-0.253479 2:-0.170062 3:0.344917 4:-0.615736 5:-0.745134 6:-0.424387 7:-0.348979 8:-0.855564 9:0.452636 10:0.439669 11:0.376225 12:0.951439 13:0.553458 14:-0.0240426 15:-0.389033 
512 1:-0.65954 2:0.246499 3:-0.916171 4:0.245369 5:0.858117 6:-0.717969 7:-0.205348 8:-0.678572 9:0.653227 10:-0.0716914 11:0.243943 12:-0.0114169 13:0.227089 14:0.665331 15:0.452269 
53.88377382994204 1:-0.691304 2:0.270678 3:0.69943 4:-0.863546 5:0.812846 6:-0.528923 7:0.995344 8:0.964651 9:0.701788 10:-0.718556 11:0.474285 12:-0.846337 13:0.254854 14:0.757892 15:-0.896869 
512 1:0.181986 2:-0.22365 3:-0.260746 4:-0.9408 5:-0.751526 6:0.240292 7:-0.0794268 8:-0.655506 9:-0.939534 10:-0.658731 11:0.440314 12:-0.427528 13:-0.774884 14:0.891197 15:-0.705753 
264.958579409678 1:0.999419 2:-0.696224 3:0.063158 4:0.86558 5:-0.128581 6:0.133959 7:-0.596377 8:0.574692 9:0.24135 10:0.204161 11:0.163622 12:0.937816 13:-0.788444 14:-0.821565 15:0.454165 
512 1:0.664645 2:-0.837836 3:-0.794489 4:-0.855626 5:-0.989661 6:0.0905277 7:0.384428 8:-0.152119 9:-0.242132 10:0.654817 11:0.244573 12:-0.313853 13:0.948132 14:0.189261 15:0.128638 
489.4280762099553 1:0.557248 2:0.0704703 3:0.269934 4:-0.655133 5:-0.572191 6:0.490061 7:0.325239 8:-0.984173 9:0.638085 10:-0.581408 11:0.301416 12:-0.866309 13:0.863955 14:-0.119029 15:0.191054 
512 1:0.569116 2:-0.856753 3:-0.879317 4:-0.0655257 5:-0.0638234 6:-0.482637 7:0.246769 8:0.554197 9:-0.614076 10:0.332197 11:-0.677063 12:-0.31507 13:-0.960118 14:-0.587059 15:0.0862764 
299.2314617800085 1:0.794013 2:-0.814431 3:-0.450044 4:0.785695 5:0.171481 6:-0.65673 7:0.845569 8:-0.787365 9:0.430449 10:-0.128289 11:0.120105 12:-0.682116 13:-0.0683656 14:0.982373 15:0.131437 
512 1:0.54359 2:-0.50123 3:-0.728816 4:0.612289 5:-0.653466 6:-0.945973 7:0.189116 8:0.0426064 9:0.252301 10:-0.183828 11:-0.931293 12:0.299424 13:-0.967579 14:-0.763736 15:0.0798829 
512 1:0.17854 2:-0.885016 3:-0.373676 4:0.387678 5:0.673107 6:0.742327 7:-0.0164098 8:-0.570085 9:0.685219 10:0.436397 11:-0.0876478 12:0.339386 13:-0.318618 14:-0.311671 15:-0.519058 
24.40311250446207 1:0.827913 2:-0.0340104 3:0.972745 4:0.0914275 5:0.064126 6:-0.766495 7:-0.701706 8:0.370416 9:-0.0337667 10:-0.47413 11:0.74577 12:0.732538 13:-0.560543 14:-0.895935 15:-0.638704 
512 1:-0.57464 2:0.0151799 3:-0.132123 4:-0.0361451 5:-0.619898 6:0.128809 7:-0.05816 8:0.411545 9:0.123784 10:-0.083904 11:-0.184004 12:-0.640455 13:-0.890797 14:-0.711992 15:-0.439112 
172.793538691997 1:0.952985 2:-0.0671096 3:-0.54259 4:0.0628957 5:0.545265 6:-0.805457 7:-0.367919 8:-0.983298 9:-0.677867 10:-0.543655 11:-0.417276 12:-0.566173 13:-0.810293 14:0.57931 15:-0.333593 
436.8855904567664 1:-0.92627 2:-0.0666511 3:0.85376 4:0.511388 5:-0.366795 6:-0.97646 7:0.258053 8:0.414735 9:0.882439 10:0.275316 11:-0.210676 12:0.850385 13:-0.821017 14:-0.659253 15:0.132966 
115.8172953394082 1:0.421289 2:-0.845488 3:0.933764 4:-0.684688 5:-0.255346 6:0.908112 7:0.0893125 8:-0.0602181 9:0.864253 10:-0.152906 11:-0.452708 12:-0.15551 13:0.525074 14:0.548186 15:0.108949 
512 1:0.885113 2:-0.779607 3:0.334322 4:-0.528246 5:0.12023 6:-0.596087 7:-0.549274 8:-0.41318 9:-0.345439 10:-0.552034 11:0.421141 12:0.41308 13:-0.132553 14:0.382847 15:0.651834 
512 1:-0.659576 2:0.114026 3:0.178199 4:-0.351721 5:-0.226961 6:-0.219771 7:0.230407 8:0.19287 9:0.803938 10:0.654324 11:0.581576 12:0.278762 13:-0.889988 14:-0.206938 15:-0.66973 
512 1:0.526891 2:-0.461315 3:0.668568 4:0.374392 5:0.426496 6:0.383209 7:-0.850461 8:0.302955 9:0.353916 10:-0.960699 11:0.597026 12:0.584791 13:-0.354066 14:0.0958723 15:-0.338308 
453.6550742663636 1:0.47436 2:0.0396847 3:-0.593493 4:-0.52457 5:0.847493 6:0.339605 7:0.276774 8:-0.0657063 9:0.293551 10:-0.332529 11:0.100111 12:-0.889496 13:0.413124 14:0.796334 15:-0.592937 
512 1:-0.132867 2:0.230061 3:-0.950967 4:-0.677994 5:0.394293 6:0.762791 7:0.389914 8:-0.678935 9:0.680787 10:0.318673 11:0.745406 12:-0.854063 13:-0.812294 14:-0.172254 15:0.832554 
512 1:0.360787 2:0.444657 3:0.393217 4:-0.876772 5:-0.4018 6:-0.194999 7:-0.462539 8:0.394778 9:0.476619 10:-0.187402 11:-0.472595 12:0.239294 13:-0.242787 14:0.143443 15:-0.88847 
512 1:-0.78962 2:-0.391637 3:-0.597863 4:0.320823 5:0.846121 6:-0.501184 7:-0.630072 8:-0.0867848 9:-0.973025 10:0.277425 11:0.884501 12:0.496604 13:0.46008 14:-0.158274 15:0.108353 
512 1:0.65139 2:-0.837953 3:0.517606 4:0.0491076 5:-0.615176 6:0.272988 7:-0.389871 8:-0.322323 9:-0.037353 10:-0.594264 11:-0.422914 12:-0.502015 13:0.721338 14:0.999254 15:0.783812 
151.6475940800232 1:-0.516938 2:-0.340581 3:0.484184 4:-0.742381 5:0.103735 6:-0.312386 7:0.163878 8:-0.547756 9:-0.643478 10:-0.406951 11:0.0460958 12:-0.989669 13:-0.794159 14:0.950282 15:-0.645631 
400.7268831064001 1:0.689201 2:-0.961342 3:0.120459 4:-0.877295 5:-0.588055 6:-0.333444 7:0.893493 8:-0.333716 9:0.803862 10:0.617494 11:-0.149913 12:0.715843 13:0.142097 14:0.687711 15:0.733182 
281.4235410535641 1:0.844632 2:-0.955096 3:0.60698 4:0.606865 5:0.585916 6:-0.384784 7:0.700003 8:0.295186 9:-0.0911474 10:-0.772845 11:-0.2191 12:0.794189 13:0.457477 14:0.647335 15:-0.359089 
445.4623583640215 1:-0.714893 2:-0.688017 3:0.490221 4:0.577627 5:-0.942555 6:0.638145 7:-0.260039 8:0.73648 9:0.0244405 10:0.57531 11:-0.153948 12:0.759415 13:0.957561 14:0.505286 15:-0.425698 
512 1:-0.405348 2:-0.0513312 3:-0.615168 4:-0.293449 5:-0.1329 6:0.99629 7:0.520018 8:-0.741755 9:0.996383 10:0.0256829 11:-0.767394 12:-0.294598 13:0.453674 14:0.780649 15:0.589468 
512 1:-0.98677 2:-0.390939 3:-0.160016 4:-0.705047 5:-0.956822 6:-0.0597503 7:0.113905 8:0.995026 9:-0.203457 10:0.288481 11:0.600042 12:0.202355 13:-0.0558485 14:-0.528603 15:-0.119331 
512 1:-0.596569 2:-0.647697 3:0.226669 4:0.155439 5:0.609714 6:0.362967 7:-0.130348 8:-0.209311 9:-0.180833 10:0.659242 11:0.0145278 12:0.4721 13:-0.552171 14:0.129881 15:-0.275848 
512 1:-0.00325774 2:-0.474554 3:-0.690419 4:0.755102 5:0.621425 6:-0.47086 7:0.156029 8:0.981185 9:0.233373 10:-0.0241907 11:0.931323 12:-0.51866 13:-0.232661 14:-0.805936 15:0.905867 
297.3962331553028 1:-0.250596 2:-0.807037 3:0.798205 4:-0.265311 5:0.00827923 6:-0.715935 7:0.388555 8:-0.527994 9:-0.658244 10:-0.37768 11:0.20453 12:-0.721912 13:0.923618 14:0.820345 15:0.480884 
512 1:0.550856 2:-0.413408 3:0.0659191 4:0.40985 5:0.345415 6:0.18776 7:-0.743353 8:-0.820766 9:-0.972399 10:-0.0460698 11:0.00829309 12:0.875296 13:-0.0348872 14:0.209887 15:-0.527932 
445.6120262156263 1:0.532222 2:-0.904477 3:0.229194 4:0.274668 5:-0.764455 6:-0.909991 7:0.927106 8:-0.967375 9:0.514641 10:0.514113 11:0.0939334 12:-0.354288 13:-0.82744 14:-0.131379 15:0.0179129 
281.2571638252235 1:0.929505 2:-0.947191 3:0.818253 4:0.637769 5:0.234161 6:-0.531848 7:0.782851 8:-0.37516 9:-0.379624 10:-0.169213 11:-0.721174 12:-0.520715 13:-0.390227 14:0.813568 15:-0.693198 
122.6082912423626 1:-0.657442 2:-0.576376 3:-0.988992 4:0.240227 5:-0.223524 6:-0.0353127 7:0.334357 8:0.861799 9:0.774749 10:0.690025 11:-0.300838 12:0.81942 13:0.198268 14:0.877528 15:0.47757 
51.63891804812634 1:-0.582346 2:-0.130376 3:0.807547 4:-0.818539 5:-0.77015 6:-0.00149479 7:0.697449 8:0.186827 9:-0.0789799 10:-0.25982 11:0.612761 12:-0.71832 13:-0.615967 14:0.513874 15:-0.32611 
512 1:-0.0505042 2:0.33186 3:-0.414661 4:-0.95863 5:0.876947 6:-0.706196 7:-0.841865 8:-0.401723 9:-0.975805 10:0.372235 11:-0.0774164 12:0.367943 13:0.718667 14:-0.484856 15:-0.024141 
512 1:-0.112906 2:-0.44217 3:0.704131 4:-0.829927 5:-0.753907 6:0.831728 7:0.251861 8:-0.570173 9:0.681767 10:-0.291986 11:-0.757958 12:-0.742859 13:0.152886 14:-0.723679 15:0.460251 
512 1:0.764109 2:-0.695798 3:-0.0683602 4:-0.171705 5:-0.970214 6:-0.938876 7:0.62469 8:0.312802 9:-0.831103 10:0.937498 11:-0.156935 12:-0.834733 13:0.601746 14:-0.416237 15:0.12953 
512 1:-0.311465 2:-0.116828 3:-0.195939 4:0.253498 5:0.171651 6:0.933949 7:-0.864922 8:-0.822653 9:0.501065 10:-0.672 11:0.319769 12:-0.267347 13:-0.108923 14:0.792089 15:-0.363526 
512 1:0.892424 2:-0.480277 3:-0.0784912 4:-0.843806 5:0.0829751 6:-0.532623 7:0.0685518 8:0.074727 9:-0.30463 10:0.19152 11:0.430998 12:-0.19796 13:0.36174 14:-0.142704 15:0.936932 
290.5244229973508 1:-0.260608 2:0.673962 3:0.165038 4:-0.970024 5:-0.584353 6:0.812365 7:-0.931262 8:-0.130689 9:0.748883 10:0.426005 11:-0.203806 12:-0.19403 13:-0.69503 14:0.929533 15:0.607574 
512 1:0.539187 2:-0.862518 3:-0.966926 4:-0.951081 5:-0.700318 6:-0.707081 7:0.941047 8:0.579517 9:0.619797 10:-0.23155 11:-0.934416 12:-0.0451564 13:0.908324 14:0.840742 15:-0.0254052 
435.4553755471835 1:0.0897141 2:-0.480121 3:-0.4027 4:0.167299 5:-0.123165 6:-0.41789 7:-0.189191 8:0.882814 9:-0.798301 10:-0.63145 11:-0.642685 12:-0.754055 13:-0.415887 14:0.864351 15:0.375168 
512 1:0.223745 2:0.463645 3:0.507034 4:-0.241309 5:0.273641 6:0.385898 7:0.00297013 8:-0.524422 9:0.462148 10:-0.0815748 11:0.34361 12:-0.112837 13:-0.367096 14:-0.605917 15:0.45645 
512 1:-0.38579 2:-0.415482 3:-0.347269 4:0.229507 5:-0.101574 6:0.837594 7:-0.587049 8:-0.380709 9:0.383792 10:0.237552 11:-0.032316 12:-0.76264 13:0.0338512 14:0.32922 15:0.564976 
512 1:0.0383221 2:0.189395 3:-0.678732 4:-0.987634 5:-0.558186 6:0.539033 7:-0.923457 8:0.824765 9:-0.536762 10:0.467842 11:0.822852 12:0.477077 13:-0.226699 14:-0.18131 15:-0.961521 
512 1:-0.408143 2:0.121926 3:0.108934 4:-0.982581 5:0.536389 6:0.0346163 7:-0.181959 8:-0.397448 9:-0.730168 10:-0.191501 11:0.261429 12:0.557193 13:-0.573058 14:-0.199163 15:-0.983422 
90.0696750511879 1:-0.961729 2:0.0410048 3:0.949125 4:0.416351 5:-0.891981 6:-0.589254 7:0.879593 8:0.468482 9:0.899276 10:-0.914349 11:-0.447505 12:-0.971016 13:0.663038 14:0.697135 15:0.155316 
512 1:0.0485787 2:-0.582522 3:0.60929 4:-0.250831 5:-0.906552 6:0.540792 7:-0.741008 8:-0.319456 9:-0.929848 10:-0.222075 11:-0.104887 12:-0.272398 13:-0.754443 14:0.472867 15:0.260416 
99.98709185677207 1:-0.535699 2:0.245673 3:-0.465743 4:-0.506707 5:-0.258632 6:-0.290858 7:-0.699861 8:0.661313 9:-0.203889 10:-0.212294 11:-0.790428 12:-0.798566 13:-0.42547 14:-0.737769 15:0.408011 
206.675598583891 1:-0.87127 2:-0.418 3:0.125278 4:-0.51017 5:-0.560536 6:0.820529 7:0.177709 8:-0.954638 9:-0.419703 10:0.0995429 11:-0.357714 12:0.70548 13:0.0725412 14:0.643164 15:0.271458 
321.8692625075599 1:0.593899 2:-0.462978 3:-0.27938 4:0.730527 5:0.445033 6:0.960341 7:0.792765 8:-0.474507 9:-0.842599 10:0.135606 11:-0.555295 12:0.514291 13:-0.783799 14:0.004754 15:0.92837 
512 1:-0.587097 2:-0.260765 3:-0.76774 4:-0.91726 5:0.558574 6:0.912863 7:-0.136722 8:0.264451 9:-0.706813 10:-0.153739 11:0.137013 12:-0.937118 13:0.446226 14:0.864843 15:0.283561 
174.9494257856873 1:0.389784 2:0.724319 3:0.62515 4:-0.816876 5:-0.218383 6:0.272723 7:0.895588 8:0.239172 9:-0.734744 10:-0.34824 11:-0.280822 12:-0.491893 13:-0.986555 14:0.93168 15:-0.724253 
279.5987769161788 1:-0.825716 2:0.902286 3:-0.343877 4:0.213344 5:-0.909174 6:-0.726329 7:-0.00775813 8:-0.0988564 9:-0.798558 10:0.495699 11:0.71866 12:0.925987 13:-0.466557 14:-0.802212 15:0.947927 
512 1:0.469613 2:-0.668754 3:-0.313591 4:0.531385 5:-0.215289 6:0.419391 7:-0.911131 8:-0.699507 9:0.792184 10:-0.20589 11:-0.752588 12:-0.972612 13:-0.435863 14:0.0536526 15:0.75184 
512 1:-0.129192 2:0.101061 3:-0.856534 4:-0.460239 5:0.391002 6:-0.841068 7:0.135043 8:-0.588759 9:-0.44538 10:-0.0582254 11:-0.83474 12:-0.504066 13:-0.765486 14:0.419126 15:-0.772803 
512 1:-0.522758 2:0.440217 3:0.54002 4:-0.932391 5:-0.699765 6:0.00444295 7:0.62644 8:-0.707518 9:0.171054 10:-0.35526 11:0.168316 12:0.397302 13:-0.626207 14:-0.195197 15:-0.0226523 
468.947090003014 1:-0.0647516 2:0.570613 3:-0.623736 4:-0.591572 5:-0.665794 6:-0.728925 7:-0.453551 8:-0.331164 9:0.366782 10:0.566735 11:0.965729 12:-0.144996 13:-0.150408 14:0.817386 15:-0.0193882 
512 1:-0.179082 2:-0.644831 3:-0.175065 4:-0.374407 5:0.2823 6:-0.503313 7:-0.812828 8:-0.511357 9:-0.768992 10:-0.289665 11:-0.804261 12:0.170059 13:-0.305301 14:-0.441079 15:0.128025 
512 1:-0.761059 2:-0.396375 3:0.078737 4:0.029957 5:-0.602875 6:-0.243151 7:0.322232 8:0.880759 9:0.396541 10:-0.0749389 11:0.328798 12:0.000117962 13:0.231183 14:-0.329104 15:0.394888 
512 1:0.263634 2:-0.783763 3:0.381298 4:-0.195341 5:0.0198948 6:-0.813236 7:-0.120152 8:-0.322019 9:-0.420697 10:-0.566651 11:0.518476 12:0.144168 13:0.899773 14:-0.0766781 15:0.87014 
51.17279124905627 1:0.698232 2:-0.713253 3:0.522289 4:-0.776574 5:0.650847 6:-0.360099 7:-0.814592 8:0.0537825 9:0.431783 10:0.075069 11:0.34433 12:0.564623 13:0.425386 14:0.982094 15:-0.236003 
512 1:0.397206 2:-0.268693 3:0.154013 4:0.152325 5:-0.54744 6:0.497136 7:0.51489 8:-0.365636 9:-0.182356 10:-0.672728 11:-0.621675 12:-0.388059 13:-0.767983 14:-0.448555 15:-0.777141 
512 1:0.86607 2:-0.986928 3:-0.98453 4:0.723169 5:0.191844 6:0.839182 7:-0.156455 8:0.359049 9:-0.757527 10:-0.589083 11:0.0231365 12:0.416367 13:0.458395 14:0.12448 15:0.333853 
512 1:0.217509 2:0.481737 3:0.545596 4:-0.459862 5:0.390754 6:-0.189159 7:-0.672239 8:0.45557 9:0.705519 10:-0.538878 11:-0.254314 12:-0.1845 13:-0.297688 14:-0.512001 15:-0.34758 
512 1:-0.271 2:-0.383933 3:-0.900325 4:-0.929373 5:0.0883351 6:0.53225 7:-0.15851 8:-0.338178 9:0.131669 10:-0.896157 11:-0.4073 12:0.753566 13:0.984376 14:0.874889 15:0.661608 
512 1:0.355885 2:-0.503817 3:0.704482 4:-0.732477 5:0.749785 6:0.596129 7:0.348631 8:0.124633 9:0.162309 10:0.234483 11:0.325712 12:0.444358 13:-0.525421 14:-0.309165 15:-0.414799 
512 1:0.526252 2:-0.865936 3:0.288483 4:0.146902 5:-0.728617 6:0.633114 7:0.192325 8:0.615359 9:-0.615483 10:0.959312 11:0.295547 12:0.598659 13:-0.653874 14:-0.313865 15:0.630045 
248.8947398022192 1:0.878328 2:-0.836327 3:0.926398 4:0.643735 5:-0.911041 6:0.67525 7:-0.508757 8:0.92669 9:-0.614642 10:0.154601 11:-0.416785 12:0.772039 13:-0.780587 14:0.821705 15:-0.551844 
512 1:-0.410069 2:-0.664582 3:0.396557 4:-0.581645 5:0.814132 6:-0.607009 7:0.238239 8:-0.937062 9:0.967321 10:0.555685 11:0.418966 12:-0.254867 13:-0.287085 14:0.240593 15:-0.0730413 
121.5427157758868 1:0.616044 2:-0.128743 3:-0.619862 4:-0.459744 5:0.377859 6:0.337778 7:-0.89225 8:-0.44715 9:-0.675996 10:0.35154 11:0.319824 12:-0.558891 13:-0.715988 14:0.977931 15:0.814447 
512 1:-0.84697 2:-0.822467 3:0.561069 4:0.777221 5:0.403445 6:-0.164413 7:-0.646855 8:0.938104 9:-0.126791 10:-0.273345 11:0.391215 12:0.899511 13:0.944642 14:-0.0766043 15:0.304649 
512 1:-0.218049 2:0.0628 3:-0.21165 4:-0.66823 5:0.744197 6:-0.441623 7:-0.822336 8:-0.33002 9:-0.442092 10:-0.0576545 11:0.891826 12:-0.35696 13:0.564563 14:-0.17559 15:-0.00871493 
512 1:0.160056 2:0.831197 3:-0.678166 4:-0.435001 5:0.0390118 6:-0.140841 7:-0.166392 8:0.733981 9:0.425652 10:-0.220504 11:-0.827147 12:-0.197455 13:-0.824433 14:-0.166805 15:-0.733779 
512 1:0.00945597 2:-0.619233 3:0.209242 4:0.509783 5:-0.648284 6:-0.545308 7:0.29734 8:-0.258873 9:-0.00830986 10:0.497387 11:0.722294 12:-0.0597255 13:0.140314 14:0.179369 15:-0.260067 
363.383889042441 1:0.234283 2:-0.895368 3:0.205192 4:-0.685616 5:-0.494018 6:-0.159578 7:-0.412287 8:0.352154 9:-0.798073 10:-0.696622 11:0.414234 12:-0.622222 13:-0.423673 14:-0.810368 15:-0.810365 
512 1:0.838711 2:-0.702079 3:0.220311 4:-0.910251 5:0.0964056 6:0.42549 7:-0.147879 8:0.833281 9:0.941494 10:0.293088 11:0.259334 12:0.0102397 13:-0.56162 14:0.863171 15:0.167327 
404.4142221370288 1:0.457982 2:-0.251261 3:0.290231 4:-0.776596 5:0.821734 6:0.90845 7:-0.774952 8:-0.281339 9:0.576038 10:0.0727065 11:0.316217 12:0.740918 13:0.237523 14:0.421609 15:-0.798297 
267.8161871384135 1:-0.336536 2:-0.807726 3:0.0754521 4:-0.811721 5:-0.889616 6:0.192207 7:0.248957 8:0.13534 9:-0.0628429 10:-0.999215 11:0.359671 12:0.500599 13:0.441508 14:-0.664102 15:0.55894 
512 1:-0.417854 2:-0.868258 3:0.39668 4:-0.267283 5:0.0554967 6:-0.93597 7:-0.591583 8:-0.983493 9:-0.845881 10:-0.238855 11:-0.369856 12:0.56563 13:0.36426 14:0.53446 15:-0.936123 
512 1:-0.0513319 2:-0.63457 3:-0.794036 4:0.698676 5:0.220334 6:-0.852314 7:-0.570791 8:-0.904536 9:0.665453 10:0.304223 11:-0.354897 12:0.329235 13:-0.714274 14:-0.837588 15:0.966683 
512 1:-0.220639 2:-0.349454 3:0.0809056 4:-0.262686 5:0.790282 6:-0.416376 7:-0.909955 8:0.550037 9:0.486783 10:-0.917931 11:0.251514 12:-0.292077 13:0.0605963 14:0.683966 15:-0.0846673 
500.5224963648911 1:0.354528 2:-0.559312 3:-0.307271 4:-0.590942 5:-0.777127 6:0.996229 7:0.134732 8:0.45526 9:0.456651 10:0.771934 11:0.565582 12:-0.552321 13:0.957403 14:-0.58386 15:-0.880052 
512 1:-0.776317 2:-0.681238 3:0.450934 4:0.124468 5:-0.165698 6:-0.258117 7:0.425093 8:-0.373073 9:0.280671 10:0.927199 11:0.52097 12:0.695912 13:-0.513104 14:0.761088 15:0.509437 
512 1:0.412964 2:-0.50376 3:-0.787872 4:0.278788 5:-0.332976 6:0.282589 7:-0.790082 8:-0.10338 9:-0.636926 10:-0.193418 11:0.122828 12:-0.799719 13:0.936818 14:0.928205 15:-0.292922 
343.2990473477124 1:-0.721593 2:0.811006 3:-0.40156 4:0.98412 5:0.352181 6:-0.882991 7:-0.167268 8:0.208886 9:0.858255 10:0.549547 11:0.236084 12:0.223518 13:-0.890701 14:-0.866444 15:0.0239624 
215.3720181486018 1:-0.126255 2:0.969075 3:0.916958 4:0.727482 5:0.702367 6:-0.263952 7:-0.169955 8:-0.424377 9:-0.577053 10:0.541774 11:0.603965 12:0.10999 13:-0.628029 14:-0.130649 15:0.964026 
479.9184369574178 1:-0.847831 2:-0.651234 3:0.152481 4:-0.462212 5:-0.350241 6:0.378876 7:-0.383226 8:0.558353 9:-0.566023 10:0.652456 11:-0.947194 12:0.49788 13:0.994036 14:0.764907 15:0.845935 
512 1:-0.506141 2:-0.738584 3:-0.596654 4:0.826735 5:0.451041 6:-0.845184 7:0.611344 8:0.610068 9:-0.0638146 10:0.812346 11:-0.3376 12:-0.434088 13:-0.346833 14:0.307627 15:0.354325 
158.8895905032578 1:-0.607548 2:-0.399925 3:0.528871 4:-0.950508 5:-0.734697 6:0.361944 7:-0.640079 8:-0.930288 9:0.972492 10:0.65958 11:0.976232 12:-0.165187 13:0.0315789 14:-0.380529 15:-0.971869 
512 1:0.359991 2:-0.818489 3:-0.042178 4:0.258092 5:-0.385075 6:0.355427 7:-0.0861114 8:0.168728 9:-0.226496 10:0.266131 11:-0.1743 12:0.423181 13:-0.747357 14:-0.876867 15:0.604018 
512 1:-0.183142 2:0.13735 3:-0.534957 4:-0.924354 5:0.322585 6:-0.757601 7:-0.329999 8:0.322548 9:0.586838 10:-0.400617 11:0.814651 12:0.940954 13:0.324441 14:-0.326794 15:-0.749421 
512 1:-0.866646 2:0.461248 3:-0.0254645 4:0.601075 5:-0.688932 6:0.782763 7:-0.831857 8:-0.499529 9:0.919461 10:-0.787409 11:0.226279 12:0.887658 13:-0.992405 14:-0.0031868 15:0.256569 
512 1:0.671069 2:0.347124 3:-0.781473 4:-0.894692 5:0.849475 6:0.163559 7:-0.580174 8:0.0253165 9:0.485559 10:-0.0106386 11:-0.171273 12:0.775725 13:-0.408087 14:-0.615174 15:-0.792468 
512 1:0.169384 2:-0.455736 3:0.190082 4:-0.602864 5:0.909435 6:0.843609 7:0.958812 8:-0.464456 9:-0.80354 10:-0.189264 11:0.0970997 12:0.502426 13:0.178093 14:0.535951 15:0.185795 
