svm_type c_svc
kernel_type rbf
gamma 0.125
nr_class 2
total_sv 1908
rho 0.834343
label 0 1
nr_sv 953 955
SV
1.020814984913909 1:-0.274151 2:0.502562 3:-0.555274 4:0.463804 5:-0.0607242 6:-0.913572 7:0.903457 8:-0.858125 9:0.897539 10:-0.052879 11:-0.727869 12:0.739948 13:-0.123922 14:0.280632 15:-0.527324 
29.14040255689368 1:-0.805706 2:0.665674 3:0.633111 4:0.2353 5:0.186828 6:-0.829658 7:0.697065 8:-0.389144 9:-0.322851 10:0.464635 11:-0.474682 12:0.0945558 13:0.855252 14:-0.828287 15:-0.850914 
32 1:0.287351 2:0.914332 3:-0.231202 4:-0.448947 5:-0.36784 6:0.227683 7:0.693711 8:-0.0582444 9:-0.727775 10:-0.262499 11:0.200859 12:0.927102 13:0.449536 14:0.97302 15:-0.555449 
32 1:-0.787121 2:-0.37091 3:0.578731 4:-0.957765 5:0.734226 6:0.657104 7:-0.104562 8:0.624215 9:0.78489 10:0.92366 11:-0.899693 12:0.841201 13:-0.0350084 14:0.570174 15:-0.666494 
26.09116136364067 1:0.923306 2:0.66893 3:-0.769484 4:-0.361066 5:0.616513 6:-0.761833 7:-0.00804832 8:0.405784 9:0.328279 10:0.978001 11:0.0824992 12:-0.497237 13:-0.0776852 14:-0.323078 15:0.577825 
0.0106729508375479 1:0.994965 2:-0.164978 3:0.548885 4:-0.714954 5:-0.0363016 6:-0.345567 7:-0.955481 8:-0.633994 9:-0.586415 10:0.381283 11:0.963474 12:0.311572 13:-0.282703 14:0.758619 15:0.65255 
32 1:-0.966424 2:0.42444 3:-0.909529 4:0.472239 5:-0.086857 6:0.225049 7:-0.145604 8:0.678067 9:-0.726187 10:0.867472 11:0.677918 12:-0.789746 13:-0.840606 14:-0.42724 15:-0.438223 
3.698127659058706 1:0.246582 2:-0.54129 3:-0.917261 4:0.502719 5:0.342378 6:-0.970832 7:0.310253 8:-0.676237 9:-0.0338808 10:0.965645 11:-0.326164 12:0.273226 13:-0.81112 14:0.679169 15:-0.938887 
24.66169970707138 1:0.321066 2:0.429107 3:-0.496453 4:-0.843997 5:0.676202 6:0.204868 7:-0.278711 8:0.20921 9:0.574046 10:0.360133 11:-0.47549 12:-0.156964 13:-0.622258 14:0.893807 15:0.824872 
32 1:0.205456 2:0.907161 3:0.565394 4:0.35411 5:0.432863 6:-0.983466 7:0.227834 8:-0.195696 9:-0.797936 10:0.993401 11:-0.561077 12:0.123361 13:-0.0352894 14:-0.067376 15:0.324969 
32 1:0.095546 2:0.884421 3:-0.680093 4:0.91841 5:-0.871246 6:-0.469984 7:0.76865 8:-0.363832 9:0.247558 10:0.68562 11:0.172899 12:0.387463 13:-0.679134 14:-0.0913249 15:-0.971928 
11.42910146322979 1:0.299399 2:0.520218 3:0.124427 4:-0.157586 5:0.880476 6:-0.504772 7:-0.0573669 8:-0.678361 9:-0.789901 10:0.677731 11:-0.414757 12:-0.512478 13:-0.722324 14:0.721167 15:0.869423 
32 1:-0.000695536 2:0.794245 3:0.098164 4:-0.177221 5:0.406509 6:-0.835654 7:-0.973305 8:0.0521273 9:-0.482181 10:0.0766791 11:0.0593473 12:-0.0218114 13:0.96052 14:0.534263 15:0.414944 
31.90904032571488 1:-0.844518 2:0.761834 3:0.30956 4:-0.81361 5:0.0351132 6:-0.823135 7:0.136338 8:-0.524648 9:-0.269201 10:0.0753363 11:0.720855 12:-0.263041 13:0.997866 14:0.636146 15:-0.780886 
32 1:0.244846 2:0.534108 3:-0.79522 4:0.673986 5:0.0483664 6:0.59167 7:-0.00218323 8:-0.572896 9:0.32101 10:0.7944 11:0.564624 12:-0.466385 13:-0.406307 14:0.23389 15:0.548082 
32 1:-0.985166 2:0.917658 3:0.395935 4:-0.977894 5:0.780971 6:0.137441 7:-0.108393 8:0.623734 9:-0.29521 10:-0.491609 11:0.0128234 12:-0.0164624 13:-0.172938 14:0.690557 15:0.76809 
2.115166726670739 1:-0.740193 2:0.734117 3:0.626398 4:0.53077 5:0.485592 6:-0.131441 7:0.115447 8:0.64867 9:0.698769 10:-0.815872 11:-0.596708 12:0.824693 13:-0.0955838 14:0.392397 15:-0.944753 
9.443943203369745 1:0.451888 2:0.231624 3:0.264469 4:-0.386094 5:0.671223 6:-0.403027 7:0.793871 8:0.859393 9:0.757482 10:-0.0446029 11:-0.874725 12:-0.39563 13:0.520847 14:-0.777253 15:-0.548331 
32 1:-0.856844 2:0.937684 3:0.286469 4:-0.0497509 5:-0.256956 6:-0.973502 7:0.479644 8:0.090071 9:-0.754986 10:-0.0278972 11:-0.361078 12:-0.363904 13:0.533182 14:-0.195626 15:-0.468072 
29.95910615178236 1:0.628574 2:0.864059 3:0.122742 4:-0.0299703 5:0.279448 6:0.919892 7:0.722326 8:0.686852 9:0.338185 10:0.833399 11:-0.203247 12:0.57793 13:0.346722 14:-0.946313 15:-0.669227 
32 1:-0.682118 2:0.617436 3:-0.814511 4:0.570306 5:0.00675168 6:0.39089 7:0.311756 8:-0.922183 9:0.809496 10:0.460703 11:0.450469 12:-0.197341 13:0.603942 14:-0.564334 15:-0.7048 
20.80003079332398 1:0.99619 2:-0.137964 3:0.317523 4:-0.679994 5:0.142486 6:0.50201 7:-0.0236428 8:0.749386 9:0.963015 10:0.324168 11:-0.148421 12:-0.684105 13:0.261545 14:-0.848629 15:0.776401 
7.160913818027284 1:-0.142388 2:-0.999184 3:0.322522 4:-0.160794 5:-0.870945 6:0.340093 7:-0.418332 8:0.526703 9:0.119731 10:0.528136 11:-0.242766 12:-0.96868 13:-0.471561 14:-0.00364887 15:-0.943072 
24.16903162894281 1:0.7742 2:0.89746 3:-0.138407 4:-0.794194 5:-0.211351 6:0.422001 7:-0.81726 8:-0.435742 9:0.0141159 10:0.324968 11:-0.267535 12:-0.734666 13:0.868731 14:-0.208779 15:-0.398381 
31.9986553458741 1:0.0710361 2:0.663727 3:0.421721 4:0.446479 5:0.591017 6:0.456449 7:0.00529496 8:0.0412581 9:-0.670843 10:-0.155403 11:-0.953059 12:0.409944 13:-0.364486 14:-0.891792 15:-0.157389 
18.05007647663483 1:-0.222808 2:-0.510598 3:0.849537 4:-0.213681 5:-0.160741 6:-0.575747 7:-0.423906 8:0.737954 9:0.853906 10:0.930999 11:-0.0937543 12:0.990103 13:-0.599507 14:-0.921474 15:0.277517 
12.84131670343912 1:0.650646 2:0.980084 3:-0.22443 4:0.116653 5:-0.832209 6:-0.197443 7:-0.440512 8:0.83647 9:-0.442057 10:0.0926879 11:-0.780584 12:0.615649 13:0.159812 14:-0.747612 15:0.52653 
5.936927356904636 1:-0.85542 2:0.749223 3:0.0410312 4:-0.348482 5:0.206445 6:-0.729502 7:-0.606464 8:0.793452 9:-0.465943 10:-0.89419 11:-0.00191684 12:0.98391 13:-0.296947 14:-0.0165369 15:0.517531 
32 1:0.348764 2:0.30502 3:0.893878 4:-0.839345 5:-0.889161 6:-0.067249 7:0.342141 8:-0.309387 9:-0.656099 10:0.407133 11:-0.740584 12:-0.00192692 13:0.391124 14:0.53586 15:-0.615508 
16.73724588545917 1:0.20773 2:0.867427 3:0.77093 4:0.562136 5:-0.527615 6:-0.0471767 7:0.388055 8:0.89332 9:-0.2193 10:-0.330442 11:0.492208 12:-0.115594 13:0.715801 14:-0.357885 15:0.456867 
20.07533154902369 1:0.0102076 2:-0.853089 3:0.229704 4:-0.715769 5:0.450015 6:-0.686044 7:0.917488 8:-0.283741 9:-0.00869293 10:0.740856 11:-0.555102 12:0.126043 13:-0.859095 14:0.644323 15:-0.334102 
32 1:-0.237682 2:0.524284 3:-0.083419 4:0.911455 5:0.639811 6:-0.409994 7:0.525053 8:-0.0174397 9:0.367904 10:0.0385242 11:-0.215582 12:-0.69995 13:-0.749536 14:0.783133 15:-0.0518265 
9.356757933172169 1:-0.802136 2:0.107007 3:-0.123099 4:0.507503 5:-0.620298 6:-0.397375 7:0.969532 8:-0.795037 9:0.533838 10:0.320145 11:-0.454908 12:-0.419408 13:-0.203078 14:0.752236 15:-0.692608 
15.50008511060378 1:0.702542 2:0.300062 3:0.789812 4:-0.81502 5:-0.342412 6:0.581421 7:-0.25979 8:0.944624 9:0.643228 10:-0.147354 11:-0.872542 12:0.609095 13:0.110265 14:0.90903 15:-0.691595 
32 1:0.107689 2:0.227053 3:0.211315 4:-0.312241 5:-0.461345 6:0.455875 7:-0.512694 8:0.873977 9:-0.654891 10:0.46547 11:0.219609 12:-0.241252 13:-0.979466 14:0.251964 15:-0.705211 
26.30522378487993 1:-0.02316 2:0.782917 3:0.75178 4:0.8072 5:0.900562 6:-0.796874 7:-0.252215 8:0.238154 9:-0.011128 10:0.818148 11:0.0358385 12:0.877913 13:0.618793 14:0.909252 15:0.139623 
4.390935154812968 1:0.872125 2:0.592451 3:0.0946244 4:0.87382 5:0.950886 6:-0.991138 7:0.777745 8:-0.561903 9:-0.777355 10:-0.752179 11:-0.400948 12:-0.60855 13:0.0335169 14:-0.0951921 15:0.574467 
32 1:-0.751209 2:0.749152 3:-0.269413 4:0.810288 5:-0.564615 6:0.837736 7:0.317353 8:0.861551 9:-0.145585 10:-0.21555 11:-0.167709 12:-0.73137 13:0.634317 14:0.286384 15:-0.381107 
28.45043068710507 1:-0.232205 2:0.18143 3:-0.143905 4:0.568736 5:-0.525839 6:-0.611593 7:-0.658267 8:0.975022 9:0.00254019 10:0.255627 11:-0.250197 12:-0.514281 13:-0.67533 14:-0.368169 15:-0.653566 
21.66892323324978 1:0.0386001 2:0.925645 3:0.955283 4:0.640324 5:0.727001 6:-0.350333 7:-0.488705 8:0.236295 9:-0.901341 10:-0.235056 11:-0.515102 12:0.179826 13:-0.46373 14:0.738054 15:0.987294 
7.483422155319739 1:0.355351 2:0.0658084 3:0.965797 4:-0.472076 5:0.905597 6:0.971366 7:-0.849026 8:0.728232 9:-0.177225 10:0.802433 11:-0.827024 12:0.266292 13:0.689812 14:-0.870261 15:-0.555141 
32 1:-0.411218 2:0.0708229 3:0.521028 4:-0.972135 5:-0.721686 6:0.517558 7:0.665042 8:0.463558 9:0.0430787 10:0.693022 11:-0.522407 12:0.178074 13:-0.509074 14:0.612156 15:-0.00394094 
5.804699588473165 1:0.76245 2:0.948923 3:0.994124 4:0.353755 5:0.887258 6:0.236167 7:0.710973 8:-0.0404915 9:-0.398068 10:0.989875 11:-0.319296 12:-0.795691 13:-0.274071 14:0.762027 15:-0.563056 
1.019957541720969 1:-0.52808 2:0.920725 3:-0.183131 4:-0.423807 5:0.404279 6:0.81253 7:-0.396034 8:-0.453695 9:-0.712337 10:-0.0153575 11:-0.899809 12:-0.727789 13:-0.230005 14:0.24337 15:0.453961 
27.55608044330738 1:-0.960849 2:-0.779376 3:0.648062 4:-0.53299 5:0.864052 6:-0.200959 7:0.333404 8:-0.704523 9:0.698629 10:0.618408 11:-0.155102 12:-0.457574 13:-0.208054 14:0.177307 15:-0.752708 
1.320072438903077 1:-0.61748 2:-0.0597087 3:-0.220093 4:0.759082 5:0.561843 6:-0.0567783 7:0.783573 8:0.271567 9:0.232968 10:0.522428 11:-0.777723 12:0.287528 13:-0.300443 14:-0.986067 15:-0.759091 
24.12051056457529 1:-0.242786 2:0.735093 3:-0.0764634 4:0.0904548 5:-0.759062 6:-0.868114 7:-0.889346 8:-0.867052 9:-0.65176 10:0.954213 11:-0.251865 12:0.420327 13:-0.133555 14:-0.689291 15:-0.999646 
32 1:-0.948984 2:0.897346 3:0.353874 4:-0.863238 5:-0.418219 6:-0.340575 7:0.00933749 8:-0.0225608 9:-0.228926 10:0.280895 11:-0.351558 12:0.317968 13:-0.335338 14:-0.214424 15:-0.253616 
32 1:-0.982855 2:0.92388 3:0.753264 4:0.491407 5:0.986613 6:-0.0440756 7:0.192742 8:0.838682 9:-0.265754 10:-0.0142581 11:-0.868953 12:0.398381 13:0.168928 14:0.410676 15:0.718845 
16.9417523915713 1:-0.614109 2:-0.136445 3:0.710474 4:-0.382454 5:0.0406428 6:-0.0554667 7:0.719202 8:0.781232 9:0.145685 10:-0.0967787 11:-0.441154 12:-0.904716 13:0.0677538 14:0.782969 15:0.322067 
22.95623642816975 1:-0.437809 2:-0.0553131 3:0.745528 4:0.804642 5:0.657034 6:-0.140301 7:0.15753 8:0.390883 9:-0.127112 10:0.902492 11:-0.804671 12:-0.796586 13:-0.275618 14:0.26119 15:-0.0258877 
22.23343446336858 1:-0.489263 2:0.77103 3:-0.106883 4:-0.299618 5:-0.098111 6:-0.381314 7:0.880021 8:0.0936131 9:0.651646 10:-0.0378433 11:0.932921 12:0.103366 13:-0.0653226 14:-0.452874 15:-0.651951 
6.905087641739513 1:-0.0610913 2:0.607895 3:0.262988 4:0.0833762 5:0.875363 6:0.0463884 7:-0.130206 8:0.170087 9:0.129249 10:-0.437275 11:-0.0480596 12:-0.219971 13:-0.0892062 14:0.49414 15:-0.595438 
29.85224153894676 1:-0.399262 2:-0.750281 3:-0.753207 4:-0.614366 5:0.20116 6:0.294422 7:-0.260008 8:-0.602855 9:0.672024 10:0.810356 11:0.297752 12:0.501679 13:-0.892563 14:-0.989478 15:-0.633701 
32 1:0.111157 2:0.565899 3:0.720003 4:0.00689427 5:-0.857547 6:-0.0476154 7:0.708046 8:0.0866805 9:-0.0135135 10:0.800283 11:0.753024 12:-0.139348 13:0.311591 14:-0.768199 15:-0.321035 
32 1:-0.604777 2:0.748758 3:0.976951 4:0.00782684 5:-0.816042 6:0.955177 7:0.286534 8:0.353041 9:-0.246518 10:0.249964 11:0.305012 12:0.0410912 13:-0.701338 14:0.129123 15:0.0193779 
32 1:0.197847 2:-0.0106187 3:0.0919577 4:-0.20331 5:-0.49833 6:0.00849491 7:-0.54612 8:-0.270687 9:0.615081 10:0.747484 11:0.482709 12:0.131465 13:-0.574895 14:0.121937 15:0.549059 
28.03764932602905 1:-0.59384 2:0.249347 3:0.468667 4:-0.814059 5:-0.241874 6:-0.847125 7:-0.0659657 8:0.989236 9:-0.0107485 10:0.760418 11:0.507779 12:0.99923 13:-0.53575 14:-0.676831 15:0.844946 
32 1:0.610751 2:0.792935 3:-0.0728053 4:-0.722313 5:-0.628362 6:0.69402 7:-0.413675 8:-0.172805 9:0.852174 10:0.151042 11:-0.275665 12:0.859487 13:-0.449459 14:0.517401 15:-0.284893 
11.01550637388277 1:0.761491 2:0.148797 3:0.40255 4:-0.547473 5:-0.597835 6:-0.442376 7:0.953311 8:-0.737843 9:0.607733 10:0.447423 11:0.767182 12:-0.838446 13:-0.485756 14:-0.654282 15:-0.889124 
20.95676317901728 1:-0.300906 2:0.214801 3:-0.267377 4:0.0182536 5:0.799159 6:-0.718794 7:-0.73349 8:-0.923764 9:0.880486 10:0.648714 11:0.602329 12:-0.756081 13:0.198301 14:-0.348961 15:0.0212192 
25.85153493245748 1:-0.396677 2:-0.728739 3:-0.666136 4:-0.56713 5:-0.904537 6:-0.0324103 7:-0.961459 8:-0.4563 9:0.813749 10:0.950698 11:-0.262816 12:-0.158768 13:-0.0963668 14:-0.0381179 15:0.200116 
32 1:-0.396574 2:0.438856 3:0.640214 4:-0.644337 5:0.24583 6:-0.168077 7:0.483039 8:-0.572105 9:0.875812 10:0.184938 11:-0.421451 12:-0.0891667 13:0.207596 14:-0.915303 15:-0.168701 
9.714022994551206 1:-0.657796 2:0.576706 3:0.21679 4:0.106471 5:0.569128 6:0.596951 7:-0.957429 8:0.646534 9:-0.41074 10:-0.382155 11:-0.514798 12:-0.0961632 13:0.633711 14:-0.300524 15:-0.171491 
3.657255886186779 1:-0.954517 2:0.415796 3:0.997915 4:-0.151811 5:0.0773542 6:-0.516367 7:0.439915 8:0.0877997 9:0.995033 10:-0.32648 11:0.967312 12:0.84411 13:0.934817 14:-0.220487 15:-0.790985 
26.08347006924828 1:-0.741545 2:0.786853 3:-0.644775 4:0.736373 5:0.170129 6:0.065039 7:0.0850507 8:-0.944548 9:-0.101161 10:0.621567 11:0.766806 12:0.542971 13:-0.727956 14:-0.859801 15:0.525485 
20.72788789017305 1:-0.463738 2:0.611136 3:0.554599 4:0.760762 5:-0.218343 6:-0.309318 7:0.905256 8:0.099755 9:-0.987809 10:-0.593267 11:0.88186 12:0.401377 13:0.46878 14:0.09458 15:-0.0447186 
3.114698893868693 1:0.511215 2:0.530761 3:0.529861 4:0.803319 5:-0.129308 6:-0.124948 7:0.0681685 8:0.931373 9:-0.659295 10:0.199283 11:-0.736381 12:0.432824 13:0.883346 14:0.109975 15:-0.450904 
32 1:0.377452 2:0.559329 3:0.695255 4:0.849385 5:-0.575396 6:-0.211339 7:-0.394505 8:-0.00932999 9:-0.444906 10:-0.195967 11:-0.976676 12:-0.881309 13:-0.51205 14:0.51514 15:-0.827934 
32 1:0.329519 2:0.936285 3:-0.115046 4:-0.942338 5:0.972831 6:-0.634972 7:0.99666 8:0.7001 9:-0.199861 10:0.254476 11:-0.399916 12:0.657816 13:-0.44937 14:-0.61181 15:0.901004 
18.74738864538329 1:0.626539 2:0.142812 3:-0.207063 4:0.0335399 5:0.350806 6:-0.168884 7:0.317582 8:0.733886 9:-0.372776 10:-0.977531 11:-0.416365 12:-0.848942 13:-0.938117 14:-0.837439 15:0.981059 
32 1:-0.0767795 2:0.2533 3:0.109059 4:-0.756054 5:0.732478 6:0.775622 7:0.509856 8:-0.360519 9:0.710028 10:0.321115 11:0.0360921 12:0.446658 13:0.0951429 14:0.157668 15:0.776181 
32 1:0.986388 2:-0.859538 3:0.364352 4:-0.952428 5:-0.814408 6:0.372528 7:-0.775723 8:-0.439849 9:0.730609 10:0.5614 11:0.649091 12:0.143222 13:-0.897666 14:-0.985395 15:0.0123856 
32 1:0.212607 2:0.538952 3:-0.0467276 4:-0.843497 5:0.251781 6:0.429652 7:0.466889 8:0.450903 9:0.517103 10:-0.416456 11:-0.644536 12:-0.978493 13:0.807827 14:0.41079 15:-0.990388 
32 1:-0.864139 2:0.563354 3:-0.417241 4:-0.0175492 5:0.413964 6:-0.759027 7:-0.375138 8:0.034966 9:0.643508 10:-0.535476 11:-0.811707 12:-0.549512 13:-0.947476 14:0.972299 15:0.626813 
20.88893462440161 1:0.703539 2:0.957949 3:0.707738 4:0.0296243 5:-0.558913 6:0.996526 7:-0.0299494 8:-0.53958 9:-0.680812 10:0.689949 11:0.4262 12:0.635278 13:-0.855915 14:-0.908491 15:0.0759261 
5.972576052558796 1:-0.835955 2:0.889021 3:0.220862 4:-0.611169 5:-0.775126 6:-0.768139 7:-0.995605 8:0.696119 9:-0.745214 10:0.198974 11:-0.988443 12:-0.697963 13:0.657303 14:-0.284746 15:0.113481 
18.68788584356136 1:0.677674 2:0.304605 3:0.118099 4:-0.218675 5:0.421656 6:0.121826 7:0.289706 8:-0.189539 9:-0.915543 10:-0.778415 11:0.408195 12:0.960986 13:0.407055 14:0.646404 15:-0.198524 
2.195387805554401 1:-0.963135 2:-0.487509 3:0.163272 4:-0.587445 5:0.398995 6:-0.298693 7:0.728838 8:-0.0290396 9:-0.151826 10:0.221151 11:0.0574562 12:-0.591627 13:-0.931981 14:-0.196463 15:0.176624 
32 1:-0.710396 2:0.465939 3:0.871415 4:-0.429986 5:0.550422 6:-0.781442 7:-0.205016 8:0.0929993 9:0.269384 10:-0.677101 11:0.648603 12:0.358106 13:-0.0288985 14:0.797504 15:0.775497 
32 1:0.296824 2:-0.0743091 3:-0.0166242 4:-0.896535 5:0.332583 6:0.378039 7:-0.741401 8:-0.489808 9:-0.253152 10:-0.937626 11:-0.261146 12:0.503806 13:0.95323 14:-0.0113915 15:0.70431 
32 1:-0.847149 2:0.623377 3:0.74339 4:0.53018 5:0.756748 6:0.187582 7:-0.0565904 8:0.402571 9:0.00251854 10:0.410766 11:-0.518038 12:-0.343293 13:0.71448 14:-0.826617 15:0.592184 
28.75197562479424 1:-0.286204 2:0.648414 3:0.852367 4:0.510614 5:0.297802 6:-0.459911 7:-0.169109 8:-0.9465 9:0.745497 10:0.502095 11:0.958624 12:-0.544407 13:-0.202097 14:0.546979 15:0.394721 
32 1:0.915632 2:0.774593 3:0.706866 4:0.11683 5:0.295835 6:-0.145723 7:0.331037 8:-0.127378 9:-0.583972 10:-0.293126 11:0.213398 12:-0.70632 13:-0.80227 14:0.0134013 15:0.167933 
32 1:0.541861 2:0.207466 3:0.747588 4:-0.407818 5:-0.289095 6:-0.403827 7:-0.3206 8:-0.263287 9:-0.746737 10:0.866131 11:-0.7946 12:0.0376077 13:-0.591001 14:-0.568091 15:-0.216536 
18.36919889767094 1:-0.517316 2:-0.25519 3:0.0231234 4:-0.993017 5:0.629789 6:-0.877496 7:-0.257997 8:-0.405149 9:-0.249743 10:0.826891 11:0.0499555 12:0.480033 13:-0.538433 14:-0.177084 15:0.44981 
32 1:-0.758497 2:-0.0571768 3:0.886064 4:-0.540209 5:0.562215 6:-0.90448 7:-0.324687 8:0.885834 9:0.880549 10:0.483189 11:0.299177 12:0.119635 13:0.416617 14:0.434608 15:0.577029 
29.15022961194495 1:0.374548 2:0.965363 3:0.00397779 4:0.45254 5:0.237157 6:0.0366696 7:-0.525903 8:0.987311 9:0.0705489 10:0.924445 11:0.977125 12:0.114553 13:-0.179623 14:-0.301815 15:-0.712405 
9.81315524445659 1:-0.0224665 2:0.579506 3:-0.205754 4:-0.164755 5:0.429182 6:0.645802 7:-0.603699 8:-0.788532 9:0.524643 10:-0.0612052 11:-0.956256 12:-0.612331 13:0.0421735 14:0.976616 15:0.789907 
21.84774567916019 1:-0.662435 2:-0.298646 3:-0.556047 4:-0.941276 5:-0.28099 6:0.365568 7:-0.0704415 8:0.258718 9:0.490948 10:0.240349 11:0.226877 12:-0.189548 13:-0.823002 14:0.961123 15:-0.408607 
13.70369365480645 1:-0.675856 2:0.695191 3:-0.483274 4:-0.468374 5:0.497796 6:0.904494 7:0.458889 8:0.920262 9:0.154424 10:0.412278 11:0.181476 12:0.69583 13:-0.756257 14:0.590927 15:0.484042 
32 1:-0.248499 2:0.869099 3:0.936376 4:-0.382094 5:-0.369577 6:0.980884 7:-0.247311 8:0.53139 9:0.460133 10:-0.286808 11:-0.0239183 12:-0.657787 13:-0.303922 14:0.457582 15:0.925202 
32 1:-0.808842 2:0.840865 3:0.207948 4:-0.543035 5:-0.565746 6:0.265939 7:-0.049395 8:-0.73803 9:-0.532857 10:-0.268133 11:-0.0382108 12:-0.0245895 13:-0.126452 14:0.429045 15:-0.86796 
10.74649849044085 1:0.493935 2:0.320633 3:0.568569 4:-0.660601 5:0.131241 6:0.554949 7:0.761098 8:0.377533 9:0.344951 10:-0.818813 11:0.650781 12:-0.128299 13:0.280355 14:0.524767 15:-0.96693 
19.64374066032548 1:0.934743 2:-0.574521 3:-0.431025 4:-0.693735 5:0.67903 6:-0.560717 7:0.110347 8:-0.063196 9:0.513677 10:0.827964 11:0.882663 12:0.668147 13:-0.543447 14:-0.927647 15:-0.230075 
31.02145202566804 1:-0.536624 2:0.890598 3:-0.576147 4:-0.0958569 5:-0.183828 6:-0.201892 7:0.66717 8:-0.38783 9:-0.0236398 10:-0.244272 11:-0.848276 12:-0.459354 13:-0.00417823 14:0.883164 15:0.965342 
8.773022163195725 1:-0.844085 2:0.598263 3:0.661495 4:0.106104 5:-0.507481 6:0.286023 7:-0.252453 8:0.460781 9:0.79853 10:-0.39179 11:0.805404 12:-0.732146 13:0.160556 14:0.649042 15:-0.71682 
6.763647861811636 1:0.484003 2:-0.330541 3:0.120654 4:-0.576428 5:0.805957 6:-0.981431 7:0.997606 8:-0.286751 9:0.722242 10:0.948113 11:-0.0997016 12:0.887097 13:0.197024 14:-0.582778 15:0.487286 
32 1:0.22416 2:0.820732 3:0.336072 4:0.15631 5:-0.636307 6:-0.757743 7:0.424151 8:0.307025 9:-0.911433 10:0.310124 11:0.333383 12:0.623481 13:0.416844 14:-0.581305 15:-0.615165 
10.05671179117683 1:0.225939 2:0.906946 3:-0.022565 4:0.866287 5:-0.831125 6:0.104019 7:-0.50287 8:0.791439 9:-0.156513 10:0.538401 11:-0.584311 12:-0.950004 13:0.983696 14:-0.896127 15:-0.949387 
3.938422165071164 1:0.974708 2:-0.131459 3:-0.233903 4:-0.659466 5:-0.966393 6:0.332379 7:0.895533 8:-0.920246 9:-0.231109 10:-0.904361 11:0.715618 12:0.360511 13:0.650616 14:-0.545462 15:0.563016 
32 1:0.409516 2:0.325064 3:0.043474 4:-0.89835 5:0.722544 6:0.944592 7:0.214113 8:0.22887 9:-0.654764 10:-0.720514 11:-0.590901 12:0.274601 13:0.0637247 14:-0.0214774 15:0.395018 
32 1:0.355793 2:0.403992 3:0.752293 4:-0.390015 5:0.427315 6:-0.0673105 7:-0.418108 8:0.22666 9:0.804388 10:0.20004 11:-0.165096 12:0.393384 13:-0.987786 14:-0.524393 15:-0.714871 
4.856941241223362 1:0.0546614 2:0.475118 3:0.950033 4:0.429562 5:-0.0710033 6:-0.555972 7:-0.157856 8:0.00448254 9:-0.959509 10:0.880854 11:-0.84953 12:0.026541 13:-0.804162 14:-0.141558 15:0.135496 
20.80287227837927 1:0.994156 2:0.733972 3:0.425638 4:0.252098 5:0.14206 6:0.971326 7:0.475046 8:-0.240114 9:0.304105 10:-0.48241 11:0.907181 12:-0.867955 13:-0.711583 14:0.992896 15:0.0265269 
32 1:0.156214 2:-0.00924727 3:0.58736 4:-0.972484 5:-0.0872948 6:0.380417 7:0.00295665 8:-0.636473 9:0.616215 10:-0.263819 11:-0.924842 12:-0.239577 13:0.83395 14:0.0647484 15:-0.730617 
20.13051733941824 1:0.919277 2:0.95377 3:0.269512 4:-0.430734 5:-0.786207 6:-0.270384 7:-0.918468 8:0.917488 9:0.961155 10:0.254604 11:-0.150647 12:-0.105516 13:0.356522 14:0.173416 15:-0.784947 
32 1:0.5919 2:0.546906 3:0.707091 4:-0.812329 5:0.348354 6:-0.75971 7:-0.56192 8:0.199532 9:-0.251193 10:0.531881 11:-0.580168 12:0.152484 13:-0.831042 14:-0.227255 15:0.429912 
32 1:-0.412539 2:0.462569 3:0.724254 4:-0.410594 5:-0.797996 6:0.628389 7:0.34482 8:-0.899619 9:0.420434 10:-0.294797 11:-0.181967 12:-0.562261 13:-0.385021 14:0.190851 15:-0.625436 
26.92201994488501 1:-0.0524699 2:0.998833 3:0.826287 4:-0.745835 5:-0.997536 6:0.887007 7:0.913059 8:-0.817043 9:0.463188 10:0.205771 11:0.379963 12:-0.568926 13:0.179566 14:-0.762842 15:0.380354 
0.793687177849183 1:-0.707555 2:-0.634055 3:0.761629 4:-0.863204 5:-0.584654 6:-0.0802458 7:0.127607 8:0.590605 9:0.911969 10:-0.124749 11:0.816684 12:0.805407 13:0.795035 14:0.421352 15:0.648475 
8.247596580712928 1:-0.121217 2:0.441921 3:0.892362 4:-0.312443 5:-0.329095 6:-0.999649 7:0.851109 8:0.606724 9:-0.63068 10:-0.984606 11:0.18329 12:0.33706 13:-0.224053 14:0.0420449 15:0.820238 
21.7986444924955 1:0.955401 2:-0.580372 3:0.544996 4:-0.949001 5:0.673442 6:0.402366 7:-0.455085 8:0.22401 9:0.948534 10:0.355277 11:0.787145 12:-0.62285 13:0.361458 14:0.0689433 15:-0.954041 
16.56946463452972 1:-0.380855 2:0.519521 3:0.357469 4:-0.0433971 5:-0.178847 6:0.747475 7:-0.378159 8:-0.53076 9:-0.11762 10:-0.469627 11:-0.604584 12:-0.319078 13:0.898871 14:-0.901523 15:-0.720164 
32 1:-0.679505 2:0.652685 3:0.834874 4:0.358901 5:0.390022 6:-0.238665 7:0.581661 8:-0.00707695 9:-0.0785726 10:0.617978 11:0.488944 12:0.158417 13:0.952736 14:0.901452 15:-0.40767 
1.805986533753399 1:0.411626 2:-0.837743 3:0.029286 4:-0.838637 5:-0.90549 6:-0.152131 7:-0.0255005 8:-0.99479 9:0.543085 10:0.359999 11:0.835031 12:-0.801101 13:-0.0805351 14:-0.844406 15:0.344422 
5.934097609162576 1:-0.401781 2:0.848997 3:0.996129 4:0.605819 5:-0.0617761 6:-0.907826 7:0.940207 8:-0.459459 9:0.633103 10:-0.258806 11:-0.858216 12:0.378201 13:0.399353 14:-0.860826 15:-0.418607 
32 1:-0.422168 2:-0.190564 3:-0.00063582 4:-0.574119 5:-0.918928 6:0.819573 7:0.960269 8:0.29802 9:0.834267 10:0.794658 11:-0.612627 12:0.0194191 13:0.450571 14:0.00218472 15:-0.473426 
8.706793774369366 1:0.257389 2:0.771082 3:0.223673 4:0.975443 5:-0.962841 6:0.714894 7:-0.578267 8:-0.743091 9:0.452066 10:-0.644323 11:-0.999752 12:-0.536321 13:-0.251847 14:-0.58406 15:0.906349 
32 1:0.673047 2:0.774098 3:0.969387 4:-0.234568 5:-0.415803 6:0.138624 7:0.714598 8:0.56193 9:0.746796 10:-0.0128179 11:-0.987684 12:-0.269833 13:-0.846276 14:-0.0205188 15:0.950712 
24.88874030491726 1:-0.853058 2:0.480013 3:0.599583 4:-0.495985 5:0.476014 6:0.813287 7:0.489572 8:0.967111 9:-0.814385 10:-0.782056 11:0.144117 12:-0.826712 13:0.201431 14:-0.397286 15:-0.885923 
0.2052446318445529 1:-0.974006 2:0.460983 3:-0.543332 4:0.510947 5:-0.992154 6:-0.952392 7:0.649376 8:-0.989518 9:-0.101491 10:0.810345 11:-0.278993 12:0.952261 13:-0.133302 14:-0.860204 15:-0.685126 
32 1:-0.584107 2:-0.202822 3:0.486565 4:-0.160294 5:-0.832517 6:-0.37378 7:-0.724125 8:0.183883 9:0.724725 10:0.307529 11:0.0413576 12:-0.711623 13:-0.50766 14:0.332479 15:-0.652773 
14.84112812024224 1:-0.269344 2:0.756078 3:0.407698 4:0.770895 5:0.813772 6:0.282175 7:-0.111857 8:-0.306137 9:-0.841725 10:0.933676 11:-0.834177 12:0.181796 13:-0.341314 14:0.891423 15:0.21226 
28.15448731047382 1:0.375347 2:0.969597 3:-0.0376306 4:-0.7061 5:0.0811246 6:0.282082 7:-0.185125 8:0.149779 9:0.756043 10:-0.622003 11:-0.9088 12:-0.0998229 13:0.199622 14:-0.949293 15:0.216131 
32 1:0.357004 2:0.577944 3:0.246665 4:0.00518644 5:0.911256 6:-0.914741 7:-0.266222 8:-0.910674 9:-0.0884429 10:-0.534914 11:-0.798382 12:0.17815 13:0.931647 14:0.740716 15:-0.419735 
24.05807952544935 1:-0.975984 2:0.565926 3:0.688584 4:0.751403 5:-0.00426099 6:-0.861442 7:0.0430283 8:-0.990298 9:0.892661 10:0.417028 11:0.951806 12:-0.890946 13:0.809982 14:-0.524491 15:0.619622 
32 1:-0.262632 2:0.951704 3:-0.437512 4:0.179094 5:-0.733162 6:0.831132 7:0.502041 8:-0.480285 9:0.878473 10:-0.156545 11:-0.130688 12:0.454445 13:0.814895 14:0.978779 15:-0.139033 
10.49609880426269 1:-0.184734 2:0.999593 3:-0.0143447 4:-0.704437 5:-0.0435816 6:-0.486016 7:-0.247822 8:-0.997368 9:-0.350683 10:0.342312 11:0.997938 12:0.785499 13:0.00114745 14:-0.486356 15:0.102147 
9.706726392651209 1:-0.88306 2:0.593069 3:-0.0830906 4:-0.741836 5:0.378816 6:0.949573 7:0.274702 8:0.296519 9:0.421504 10:-0.664286 11:-0.55655 12:-0.0840847 13:0.756364 14:0.622799 15:0.741905 
2.071457590900037 1:-0.679832 2:0.665858 3:-0.544992 4:-0.141205 5:0.32 6:-0.909942 7:0.875721 8:-0.368098 9:-0.540252 10:-0.922226 11:-0.575081 12:-0.699621 13:0.59082 14:-0.675463 15:0.638495 
9.60118186053719 1:0.731565 2:0.980756 3:-0.12548 4:-0.888642 5:0.0500926 6:-0.41056 7:-0.0375925 8:0.919104 9:0.0400769 10:0.25781 11:-0.082532 12:-0.397265 13:0.509325 14:0.667911 15:0.0276229 
4.201712232529999 1:-0.492579 2:-0.440487 3:-0.45892 4:0.848168 5:0.527429 6:0.792967 7:-0.212393 8:0.986818 9:0.223075 10:0.182719 11:-0.239829 12:-0.313656 13:-0.661919 14:0.959976 15:-0.474967 
6.651574725511533 1:-0.870259 2:0.616321 3:0.963603 4:0.972886 5:-0.0141893 6:-0.880308 7:0.163912 8:0.255889 9:-0.721053 10:0.46402 11:0.124035 12:0.847198 13:0.0539538 14:-0.477126 15:-0.14778 
28.53621531810995 1:-0.145337 2:0.492714 3:0.80072 4:-0.344932 5:0.0539315 6:-0.836222 7:0.298775 8:-0.97443 9:0.73108 10:-0.601981 11:0.222829 12:-0.0695141 13:0.999446 14:-0.362308 15:0.968429 
18.09112197722546 1:-0.254415 2:-0.319084 3:0.155257 4:0.192102 5:0.847161 6:-0.942699 7:-0.124117 8:-0.46449 9:0.56643 10:0.919933 11:0.825619 12:0.046296 13:-0.0943561 14:-0.195305 15:0.941642 
32 1:-0.583375 2:0.260494 3:0.138639 4:-0.791582 5:0.34623 6:0.804993 7:-0.49452 8:0.475166 9:0.757953 10:0.0410999 11:-0.0447789 12:0.347428 13:-0.952375 14:-0.6717 15:0.835594 
25.19962406871687 1:-0.504974 2:0.578881 3:0.883993 4:-0.0460319 5:0.516775 6:-0.930816 7:0.183702 8:0.776706 9:0.775924 10:0.218825 11:0.943614 12:-0.803523 13:0.287698 14:-0.778636 15:-0.0575385 
6.224288477268797 1:0.842285 2:-0.866634 3:0.391051 4:0.362094 5:0.992791 6:0.698996 7:-0.181379 8:0.415688 9:0.334654 10:-0.25229 11:-0.859731 12:-0.939447 13:-0.546518 14:-0.467861 15:-0.743927 
14.16776465173961 1:-0.882466 2:0.510474 3:-0.300466 4:0.716661 5:-0.931488 6:0.605978 7:-0.567561 8:-0.442331 9:0.487336 10:0.098771 11:-0.473563 12:0.378142 13:-0.642978 14:-0.696777 15:0.08692 
31.31670417925711 1:-0.759517 2:0.939717 3:-0.76754 4:0.0767415 5:0.618451 6:-0.366668 7:0.924378 8:0.182632 9:0.602613 10:-0.192598 11:0.0397953 12:0.117883 13:0.466788 14:0.922 15:0.432089 
21.23374129872682 1:-0.0678322 2:0.463879 3:0.45105 4:0.856126 5:0.157843 6:0.141661 7:-0.949633 8:0.805557 9:0.397285 10:0.0451433 11:-0.699092 12:-0.41291 13:0.696085 14:0.836962 15:-0.572075 
32 1:0.624725 2:0.997454 3:0.188993 4:-0.388802 5:0.485576 6:0.791473 7:-0.930409 8:-0.318623 9:-0.341848 10:0.666826 11:0.979502 12:0.333562 13:-0.789878 14:0.0825769 15:-0.954557 
32 1:-0.410998 2:0.626204 3:0.178661 4:0.478943 5:0.341187 6:0.746907 7:-0.935007 8:0.739482 9:0.213891 10:0.53807 11:0.380062 12:-0.630237 13:0.421366 14:0.352676 15:-0.940645 
25.76855017941936 1:-0.91531 2:-0.144013 3:-0.570148 4:-0.471829 5:0.0468743 6:-0.208533 7:-0.821168 8:-0.426945 9:0.0380468 10:0.681779 11:0.520635 12:0.29041 13:-0.814426 14:0.303467 15:-0.175478 
28.95860213434483 1:0.322401 2:0.284821 3:-0.334723 4:0.62175 5:-0.310041 6:0.177649 7:0.956036 8:-0.227335 9:0.209219 10:0.840462 11:-0.134197 12:0.314916 13:-0.917519 14:0.600939 15:-0.368289 
32 1:-0.468568 2:0.604605 3:0.253667 4:-0.27032 5:0.589775 6:0.485371 7:0.219573 8:-0.859744 9:0.299534 10:-0.224729 11:-0.775989 12:0.336467 13:-0.36262 14:-0.305048 15:-0.103176 
32 1:-0.687732 2:0.775553 3:0.996438 4:-0.151468 5:-0.333825 6:0.183625 7:-0.745654 8:-0.743787 9:0.728113 10:-0.0710999 11:0.859632 12:-0.448468 13:0.278296 14:-0.138682 15:0.08196 
32 1:-0.760312 2:0.721232 3:0.963441 4:-0.910513 5:-0.0287934 6:0.0940597 7:-0.522825 8:0.214583 9:0.804185 10:-0.530555 11:0.129482 12:0.513258 13:-0.0756834 14:0.0014801 15:-0.400339 
32 1:-0.522948 2:0.601704 3:0.462756 4:-0.569776 5:0.113576 6:-0.917127 7:0.132063 8:-0.0500257 9:-0.514927 10:-0.0261397 11:-0.693261 12:-0.0765442 13:0.0815551 14:0.0818149 15:0.323748 
32 1:-0.135405 2:0.869219 3:-0.0866916 4:-0.153334 5:-0.195073 6:0.261245 7:0.383161 8:0.906354 9:0.236095 10:-0.886966 11:0.157403 12:0.590423 13:-0.0692631 14:0.559105 15:0.363578 
32 1:-0.243787 2:0.0908738 3:0.573341 4:-0.979023 5:-0.737346 6:-0.178999 7:0.743808 8:-0.798311 9:-0.101692 10:0.870224 11:0.644314 12:-0.0786284 13:0.530919 14:0.604479 15:0.564794 
32 1:-0.404517 2:0.547304 3:0.0895838 4:-0.197956 5:-0.553052 6:-0.517384 7:0.36309 8:-0.93865 9:-0.843778 10:-0.902584 11:0.751241 12:-0.904913 13:-0.292231 14:0.633827 15:-0.636835 
32 1:-0.109062 2:0.468708 3:0.260962 4:-0.321865 5:0.517234 6:0.956509 7:0.656855 8:-0.585532 9:-0.302189 10:-0.244366 11:-0.93434 12:0.42823 13:0.411265 14:0.6062 15:-0.299099 
32 1:0.981109 2:0.78892 3:-0.620818 4:0.0144728 5:0.00661406 6:0.565751 7:0.241078 8:0.266931 9:-0.958096 10:-0.924084 11:-0.876829 12:0.6801 13:0.147259 14:0.205517 15:-0.276347 
32 1:0.0671127 2:0.747391 3:-0.00767921 4:-0.945905 5:-0.944021 6:0.11361 7:0.0302565 8:0.824591 9:-0.50612 10:-0.425176 11:-0.0854656 12:-0.408135 13:-0.430046 14:0.261051 15:-0.491299 
18.31983493222759 1:0.811447 2:-0.851774 3:-0.245853 4:-0.678674 5:0.875406 6:0.446414 7:0.631554 8:0.858136 9:0.890878 10:-0.0594697 11:0.445157 12:0.188024 13:-0.920761 14:-0.505144 15:-0.614431 
32 1:-0.542444 2:0.634766 3:-0.194592 4:-0.865929 5:-0.911232 6:-0.721187 7:0.0666682 8:0.709913 9:0.334741 10:0.381649 11:-0.223518 12:-0.650337 13:0.265928 14:0.348112 15:0.29736 
23.86792916519915 1:-0.0722552 2:-0.622978 3:0.464444 4:-0.427425 5:-0.231306 6:0.199165 7:-0.425602 8:0.930464 9:0.451378 10:0.255458 11:-0.806044 12:0.382157 13:-0.883579 14:0.438672 15:0.554421 
0.2905946902376903 1:0.0974068 2:-0.564597 3:-0.657296 4:0.621044 5:0.647368 6:-0.517445 7:-0.00081536 8:-0.890883 9:0.702564 10:0.630947 11:-0.681546 12:0.0699425 13:-0.319245 14:-0.550707 15:-0.75245 
32 1:0.921421 2:0.244649 3:0.315503 4:-0.817548 5:-0.362906 6:-0.241626 7:0.135539 8:-0.94284 9:-0.030893 10:0.116617 11:-0.25893 12:-0.90894 13:-0.565306 14:-0.0912675 15:-0.826272 
5.141152070183181 1:0.880585 2:-0.111387 3:0.170055 4:-0.902226 5:-0.956715 6:-0.669977 7:-0.19543 8:0.443695 9:-0.648041 10:-0.0722581 11:0.899401 12:0.221737 13:0.999681 14:0.985957 15:-0.888761 
9.978337165131645 1:-0.887156 2:0.0653864 3:-0.0813387 4:-0.696982 5:0.49415 6:0.51193 7:0.960816 8:-0.523029 9:-0.203581 10:0.707361 11:-0.47524 12:0.332103 13:-0.70739 14:-0.406933 15:-0.887471 
32 1:-0.326743 2:0.563365 3:-0.01967 4:0.07841 5:-0.895959 6:0.941212 7:0.615418 8:0.60431 9:0.846137 10:0.199313 11:0.274882 12:0.266045 13:-0.414067 14:-0.781171 15:-0.805776 
9.962699718822913 1:-0.986442 2:-0.614946 3:0.775392 4:0.610579 5:-0.502174 6:-0.916228 7:-0.729872 8:0.604643 9:0.719962 10:0.0281308 11:-0.518265 12:-0.0801359 13:-0.920252 14:0.440942 15:0.892307 
21.58250478070582 1:0.497116 2:0.691532 3:0.163256 4:0.966051 5:0.68465 6:0.504067 7:0.697349 8:0.801829 9:0.265762 10:-0.860248 11:-0.326748 12:0.956513 13:0.672303 14:0.431306 15:-0.600298 
16.99471388622936 1:0.499979 2:0.824411 3:0.883181 4:0.701587 5:0.856977 6:0.176423 7:0.707998 8:0.423129 9:-0.97665 10:0.989496 11:0.897791 12:0.580387 13:-0.835451 14:0.339304 15:0.180936 
19.00183800402751 1:-0.743444 2:0.143079 3:0.189689 4:-0.595647 5:-0.603779 6:-0.014707 7:-0.260094 8:-0.141094 9:0.757087 10:-0.409847 11:-0.592874 12:0.55132 13:0.690519 14:-0.903946 15:-0.760285 
21.27220327559553 1:-0.708082 2:0.932501 3:0.144911 4:0.422458 5:0.84219 6:-0.653367 7:-0.274802 8:-0.414512 9:-0.196296 10:-0.676338 11:0.431384 12:0.81732 13:-0.542701 14:-0.736403 15:0.304084 
24.87537960552925 1:0.298353 2:0.482885 3:0.449566 4:-0.200923 5:0.764733 6:-0.141351 7:-0.16328 8:0.828659 9:0.0930215 10:0.651547 11:0.694412 12:-0.612521 13:0.689077 14:0.870981 15:-0.741128 
32 1:0.0232786 2:0.37644 3:0.862762 4:0.40545 5:0.640882 6:0.0496008 7:-0.247532 8:0.455441 9:-0.0897306 10:0.337596 11:-0.62311 12:0.989915 13:0.578252 14:-0.0271144 15:-0.776299 
29.97609520491137 1:0.508672 2:0.399556 3:0.336703 4:-0.215681 5:0.358413 6:0.958489 7:0.388267 8:0.335876 9:-0.0189377 10:-0.967073 11:0.795956 12:0.0975642 13:0.120512 14:0.638366 15:0.448699 
5.259979448675288 1:-0.93347 2:0.317011 3:0.910397 4:0.589474 5:-0.690874 6:-0.0461977 7:0.273318 8:0.557055 9:-0.615214 10:-0.76399 11:-0.197986 12:0.560151 13:0.686571 14:-0.443356 15:-0.563267 
30.21299063553634 1:0.846527 2:0.495601 3:-0.266558 4:-0.197327 5:0.241731 6:-0.211422 7:0.262628 8:0.337772 9:-0.561898 10:0.661993 11:0.481326 12:-0.702263 13:-0.977892 14:0.602316 15:-0.413255 
32 1:0.327097 2:0.770111 3:0.684586 4:0.360056 5:-0.835357 6:0.789811 7:-0.195025 8:-0.540451 9:-0.188541 10:-0.145622 11:-0.382171 12:-0.384899 13:0.252502 14:-0.66629 15:0.584901 
32 1:-0.732449 2:0.144177 3:0.703068 4:-0.118211 5:0.99629 6:-0.0706972 7:-0.10927 8:0.508662 9:0.542372 10:0.431605 11:0.348308 12:0.164435 13:-0.50313 14:0.418992 15:-0.234096 
3.245959625984334 1:0.819483 2:0.218395 3:0.333075 4:0.0173098 5:-0.344703 6:0.010406 7:-0.332279 8:0.376871 9:0.0326658 10:0.0851273 11:-0.73888 12:0.936769 13:0.875441 14:-0.675764 15:0.515569 
18.74006739589715 1:-0.725787 2:0.521483 3:0.206085 4:0.335041 5:0.687817 6:0.230267 7:-0.961114 8:0.295648 9:-0.628119 10:-0.199251 11:-0.619588 12:0.537777 13:0.29849 14:0.872112 15:0.0758525 
6.014553136620044 1:-0.963904 2:0.612618 3:-0.891915 4:0.942308 5:0.289352 6:-0.461269 7:-0.589457 8:0.889187 9:0.393814 10:-0.502882 11:-0.228487 12:-0.0746902 13:-0.665907 14:-0.0320958 15:0.874114 
0.1854707532462458 1:-0.160208 2:0.631884 3:-0.04929 4:0.0960052 5:0.792843 6:0.72869 7:0.0109816 8:-0.578599 9:-0.416174 10:0.400892 11:0.585983 12:-0.766748 13:-0.768541 14:-0.105516 15:0.925863 
5.358005223820016 1:-0.951997 2:-0.00401476 3:0.990851 4:0.320638 5:-0.713638 6:-0.173903 7:-0.870095 8:0.441136 9:0.679041 10:0.850691 11:0.995878 12:-0.0338505 13:0.698179 14:0.96413 15:0.384388 
32 1:-0.757149 2:0.675466 3:0.0560198 4:0.0459105 5:-0.0392584 6:-0.482352 7:0.0161835 8:0.0787403 9:-0.143391 10:-0.0765329 11:-0.783788 12:0.737416 13:0.388694 14:-0.171791 15:-0.681658 
19.01050884560049 1:-0.918539 2:0.675651 3:-0.491284 4:-0.651713 5:-0.596408 6:0.785234 7:0.594907 8:-0.391142 9:0.849767 10:0.346077 11:0.800224 12:-0.933082 13:0.212242 14:-0.688909 15:0.547843 
19.07865529073198 1:-0.242363 2:0.617095 3:0.181514 4:-0.0942333 5:0.152445 6:0.284594 7:-0.849506 8:0.206537 9:-0.203124 10:0.547938 11:-0.980003 12:0.770736 13:-0.416201 14:-0.619868 15:-0.447805 
15.18166641203652 1:-0.979865 2:0.526343 3:0.760627 4:-0.389459 5:0.942111 6:-0.526539 7:-0.474706 8:0.639777 9:-0.928545 10:0.649517 11:0.0293343 12:0.811265 13:-0.123499 14:-0.77494 15:-0.517099 
15.46706277022146 1:-0.371988 2:0.627008 3:-0.131541 4:-0.789368 5:-0.108251 6:0.647926 7:0.876181 8:-0.392823 9:-0.605436 10:0.844172 11:0.598129 12:-0.771116 13:0.358932 14:-0.165031 15:-0.829234 
1.545704737956149 1:0.982233 2:-0.909113 3:0.395137 4:0.170323 5:0.110307 6:-0.128899 7:-0.470287 8:0.178058 9:0.621666 10:0.839855 11:0.526243 12:0.298081 13:-0.117153 14:0.543849 15:-0.942794 
9.370933097496559 1:-0.440055 2:0.724288 3:-0.832226 4:0.845726 5:0.321763 6:0.233988 7:0.881428 8:0.28721 9:-0.337502 10:-0.454751 11:0.0197132 12:-0.926487 13:-0.142278 14:-0.702869 15:-0.989977 
14.83364325115405 1:0.82546 2:-0.763573 3:0.0532943 4:-0.970281 5:-0.969707 6:0.416664 7:0.170279 8:0.513792 9:0.775885 10:0.312473 11:0.0417858 12:-0.580138 13:0.591381 14:-0.315835 15:0.474045 
32 1:-0.392862 2:0.479946 3:-0.108118 4:-0.593832 5:0.830844 6:-0.178359 7:-0.362555 8:0.848663 9:-0.0798016 10:0.975461 11:-0.960203 12:-0.809927 13:-0.565338 14:0.207909 15:-0.201888 
32 1:0.115099 2:-0.708519 3:0.596235 4:-0.831975 5:0.6827 6:0.99007 7:0.597814 8:-0.229247 9:0.922807 10:0.936709 11:-0.332978 12:0.747928 13:0.84373 14:0.447005 15:0.211874 
9.0839678434536 1:0.706901 2:0.220189 3:0.91666 4:-0.686999 5:-0.889477 6:0.996269 7:-0.500815 8:0.544656 9:0.371293 10:0.835543 11:0.711778 12:-0.863809 13:-0.509418 14:-0.76618 15:0.289582 
12.2955452948315 1:-0.0110638 2:0.792476 3:-0.217598 4:-0.856749 5:-0.770649 6:0.144014 7:0.0137174 8:0.105032 9:-0.608865 10:-0.844344 11:0.80454 12:0.490922 13:-0.562535 14:0.530191 15:-0.59597 
6.247991431883724 1:0.165911 2:0.999932 3:0.930078 4:-0.520743 5:0.868062 6:-0.926949 7:0.370978 8:-0.66652 9:0.517409 10:0.506782 11:0.8239 12:0.499399 13:0.857822 14:0.593795 15:0.789493 
32 1:0.513407 2:-0.636868 3:-0.0143719 4:-0.565911 5:-0.0685929 6:0.0172785 7:0.20772 8:-0.711784 9:0.922094 10:0.0809253 11:-0.81895 12:-0.358106 13:-0.882547 14:-0.410243 15:-0.0110986 
27.22968278564091 1:-0.919109 2:-0.283328 3:0.870631 4:0.882649 5:-0.576709 6:0.166132 7:0.208718 8:-0.896449 9:0.588234 10:0.821273 11:-0.908371 12:0.205118 13:0.0350231 14:0.584905 15:0.922502 
29.05100392830476 1:-0.835382 2:0.79415 3:0.798986 4:0.526467 5:0.872401 6:-0.219664 7:-0.532746 8:0.102705 9:0.509475 10:-0.296287 11:0.623386 12:-0.976177 13:0.578527 14:-0.0329561 15:-0.26046 
32 1:-0.452469 2:0.25176 3:0.33096 4:0.530092 5:-0.204139 6:-0.581788 7:0.861596 8:0.69623 9:-0.348518 10:0.92116 11:-0.110802 12:-0.962458 13:-0.894773 14:-0.201866 15:0.698061 
30.29831159839576 1:-0.794011 2:-0.0863354 3:-0.846309 4:0.968584 5:0.796517 6:0.147314 7:0.483996 8:0.505565 9:0.743243 10:0.630499 11:0.0274662 12:0.624243 13:-0.712239 14:0.954511 15:0.390957 
27.59712698584478 1:-0.242867 2:0.415289 3:0.0209348 4:0.659488 5:-0.563714 6:0.11858 7:0.0719649 8:0.647111 9:0.245219 10:-0.192567 11:-0.70593 12:-0.862277 13:-0.217525 14:0.39583 15:0.668688 
2.224545995098364 1:0.279441 2:0.527613 3:0.239576 4:0.079337 5:-0.0675109 6:0.554213 7:-0.618041 8:-0.645079 9:-0.177079 10:-0.582476 11:0.833102 12:-0.804244 13:-0.967959 14:0.973528 15:0.807679 
32 1:-0.876809 2:0.468929 3:0.904553 4:-0.563681 5:0.758836 6:-0.850647 7:0.641375 8:0.183383 9:-0.416417 10:-0.125173 11:0.449912 12:-0.625949 13:-0.329286 14:-0.291561 15:-0.705937 
25.14410838140075 1:0.17306 2:0.633973 3:0.55379 4:0.292575 5:0.0810088 6:-0.176921 7:0.0556416 8:0.206228 9:-0.977401 10:-0.335048 11:-0.454766 12:0.603081 13:-0.684174 14:0.475066 15:0.826365 
6.793170433179285 1:0.608521 2:0.766701 3:0.664019 4:0.63503 5:-0.915559 6:0.350268 7:-0.257661 8:-0.976718 9:-0.319503 10:-0.801343 11:-0.675721 12:-0.258176 13:0.480673 14:-0.123631 15:-0.96886 
5.66603335780637 1:0.276275 2:0.427037 3:0.561811 4:-0.408464 5:-0.933802 6:0.768822 7:-0.625341 8:0.738137 9:0.57667 10:0.458592 11:0.25576 12:-0.887366 13:0.803221 14:-0.43879 15:0.0961797 
1.581642938100107 1:-1 2:0.897245 3:-0.93344 4:0.12475 5:0.246839 6:-0.536999 7:0.0163225 8:-0.584688 9:0.081926 10:-0.837888 11:-0.389077 12:-0.353315 13:0.832803 14:0.472453 15:0.7436 
30.78329794980772 1:0.0286073 2:0.830528 3:0.49012 4:0.789854 5:-0.235508 6:0.732604 7:-0.444078 8:0.810843 9:-0.906979 10:0.429967 11:0.478987 12:-0.501508 13:-0.824729 14:0.126599 15:-0.427371 
32 1:0.867247 2:0.808548 3:0.717974 4:0.0512925 5:0.362234 6:-0.517137 7:-0.996849 8:-0.491129 9:-0.110933 10:0.525763 11:-0.287082 12:0.0447484 13:-0.0235116 14:-0.0116127 15:0.00265007 
12.58648088803574 1:0.666198 2:0.568869 3:0.703367 4:-0.138581 5:0.336601 6:-0.82903 7:-0.404062 8:0.456434 9:-0.519891 10:0.789074 11:0.125137 12:0.76351 13:0.861987 14:0.849654 15:-0.422463 
3.308544264773105 1:0.933416 2:0.134781 3:0.464746 4:-0.554265 5:-0.00266978 6:0.358124 7:-0.907325 8:-0.811783 9:-0.577001 10:0.956357 11:-0.752233 12:-0.4074 13:0.617644 14:-0.816083 15:0.922766 
29.50399009544619 1:-0.492547 2:0.700776 3:-0.980073 4:0.966663 5:0.723003 6:0.900904 7:-0.191725 8:-0.17187 9:-0.917319 10:-0.169052 11:0.384659 12:0.592513 13:0.908704 14:0.854619 15:0.00954874 
7.991846429730599 1:-0.400575 2:0.834713 3:0.113376 4:-0.39838 5:-0.820601 6:-0.345057 7:0.822967 8:0.598302 9:0.994294 10:-0.942609 11:0.673389 12:0.714936 13:0.186603 14:-0.871391 15:0.693311 
26.21114218198676 1:0.0725529 2:-0.753003 3:0.711915 4:-0.984506 5:0.420007 6:-0.749591 7:-0.493752 8:0.151569 9:0.32578 10:0.901873 11:0.966251 12:-0.660641 13:-0.0599816 14:-0.0257297 15:-0.724034 
32 1:0.398983 2:-0.253143 3:0.146689 4:0.751013 5:0.916084 6:-0.919487 7:0.638315 8:0.802478 9:0.785259 10:0.991239 11:-0.968872 12:0.141979 13:-0.177267 14:0.6237 15:0.220122 
0.01682679623364815 1:0.323653 2:-0.437863 3:-0.503067 4:-0.949726 5:0.739731 6:-0.487454 7:-0.744586 8:-0.780632 9:-0.979038 10:0.0623995 11:0.909499 12:0.506258 13:-0.862612 14:0.645945 15:0.521973 
28.25187768212194 1:-0.842459 2:0.858641 3:-0.0271564 4:0.515679 5:0.513536 6:0.0815882 7:0.474559 8:0.692926 9:-0.607482 10:0.953227 11:-0.653164 12:-0.679948 13:-0.618378 14:0.69091 15:0.489495 
8.148565546119421 1:0.957074 2:0.528579 3:-0.322958 4:-0.0941154 5:0.964562 6:-0.852323 7:0.677442 8:-0.117714 9:-0.797181 10:0.551768 11:0.751828 12:-0.85562 13:-0.590186 14:-0.0841885 15:-0.704867 
24.51801631012615 1:0.399343 2:0.884779 3:-0.0805957 4:-0.770195 5:0.796568 6:-0.377593 7:0.499026 8:0.810056 9:0.127842 10:-0.725823 11:0.109321 12:0.107441 13:-0.895117 14:0.714817 15:-0.938437 
11.67454305372584 1:-0.15832 2:0.384596 3:0.0535148 4:-0.0385376 5:-0.388099 6:0.53244 7:-0.917981 8:-0.0020411 9:-0.0833269 10:0.658765 11:-0.976365 12:-0.635062 13:0.345557 14:-0.540874 15:0.116917 
3.585688361712956 1:-0.313194 2:-0.215692 3:0.81757 4:-0.83225 5:-0.791499 6:0.91829 7:-0.534216 8:-0.402395 9:-0.927566 10:-0.619715 11:-0.942751 12:-0.152634 13:0.442974 14:-0.184522 15:-0.773175 
32 1:-0.897051 2:0.857681 3:-0.249645 4:0.291631 5:0.285014 6:0.470058 7:-0.726931 8:-0.927527 9:0.309468 10:0.31123 11:0.243054 12:0.0807667 13:-0.0815309 14:-0.380096 15:0.416265 
6.232839819912438 1:-0.0617032 2:0.258321 3:-0.192421 4:0.877038 5:-0.1991 6:0.404123 7:0.860656 8:-0.904856 9:0.0195618 10:0.993831 11:-0.819957 12:0.518562 13:0.753548 14:0.225877 15:-0.035973 
23.13168531991599 1:-0.546222 2:0.0772017 3:-0.0970992 4:0.666478 5:-0.112261 6:-0.668231 7:0.0166432 8:-0.790705 9:0.491122 10:0.0773195 11:0.102101 12:-0.771374 13:-0.914288 14:0.817045 15:-0.0731513 
7.71403260458769 1:-0.647866 2:0.206833 3:-0.36342 4:0.646486 5:0.360031 6:0.718639 7:0.0758075 8:-0.705195 9:-0.143218 10:-0.357157 11:-0.972996 12:0.982328 13:0.849153 14:-0.400766 15:-0.555741 
32 1:0.223641 2:0.858821 3:0.936829 4:-0.774829 5:0.818944 6:0.265738 7:-0.21813 8:0.427239 9:0.431375 10:-0.911499 11:-0.662989 12:-0.689061 13:-0.892977 14:0.944581 15:0.971127 
23.30026214251379 1:-0.881918 2:-0.739085 3:-0.545418 4:0.158284 5:-0.353816 6:-0.443833 7:0.592743 8:-0.47386 9:0.660307 10:0.83114 11:0.775206 12:-0.885969 13:-0.26632 14:0.618833 15:-0.903361 
32 1:0.546319 2:0.448741 3:0.841597 4:-0.225641 5:0.161414 6:-0.810522 7:0.107762 8:-0.49302 9:-0.695853 10:-0.440974 11:0.068855 12:0.0260478 13:0.817831 14:-0.384774 15:-0.523709 
32 1:0.303029 2:0.798003 3:-0.0753831 4:0.037787 5:-0.50904 6:-0.973624 7:0.311198 8:0.72672 9:-0.158742 10:0.88434 11:0.360891 12:-0.362266 13:0.0129552 14:-0.929787 15:0.576213 
22.54597680655197 1:0.902248 2:0.81157 3:0.233677 4:-0.673185 5:-0.916951 6:-0.732422 7:0.20984 8:0.419287 9:-0.437038 10:0.23258 11:-0.849133 12:0.828724 13:-0.139615 14:0.16936 15:-0.172537 
26.48056897041878 1:0.952393 2:0.833112 3:-0.721634 4:-0.412464 5:0.00791758 6:0.900627 7:-0.367973 8:0.937626 9:0.037005 10:0.0734758 11:0.773829 12:-0.304201 13:-0.856756 14:0.369103 15:0.896928 
15.33912977501033 1:0.227716 2:0.541237 3:0.23045 4:0.0577081 5:0.689494 6:-0.869979 7:-0.469431 8:-0.25232 9:0.937008 10:0.585572 11:0.807108 12:0.677471 13:-0.92036 14:-0.659583 15:0.710334 
7.154540443089553 1:-0.811401 2:-0.282611 3:0.164133 4:-0.445329 5:-0.191822 6:-0.613642 7:0.401348 8:-0.123081 9:0.052376 10:0.968982 11:-0.531412 12:0.169838 13:0.00259945 14:-0.749387 15:0.250666 
1.405793345579738 1:-0.786301 2:0.699398 3:0.939498 4:0.615105 5:-0.20155 6:0.10215 7:-0.859926 8:0.946886 9:0.829453 10:-0.450603 11:-0.895758 12:0.316327 13:-0.921526 14:0.552501 15:-0.459821 
32 1:-0.528399 2:-0.216747 3:0.870139 4:-0.0796381 5:-0.490405 6:0.170624 7:-0.0893119 8:-0.0750783 9:0.824957 10:0.293611 11:-0.395758 12:-0.409255 13:-0.230773 14:-0.629508 15:0.00949524 
13.40460414722384 1:-0.550682 2:0.39021 3:-0.260697 4:-0.718162 5:0.494664 6:0.958205 7:-0.596426 8:0.15809 9:0.132877 10:0.850284 11:-0.435433 12:0.121057 13:0.659915 14:0.560596 15:0.72539 
32 1:-0.381137 2:-0.0103655 3:0.241505 4:-0.39288 5:-0.409578 6:-0.549213 7:-0.659302 8:0.537445 9:0.783463 10:0.519971 11:0.11262 12:-0.720041 13:0.791368 14:-0.363508 15:-0.375353 
5.491877334940513 1:-0.646903 2:-0.238859 3:0.14123 4:-0.456059 5:0.0441 6:-0.109463 7:0.248789 8:0.265779 9:-0.552306 10:0.39496 11:0.836403 12:0.126915 13:-0.918423 14:0.339853 15:0.449102 
24.01150668284231 1:0.0275477 2:0.0419667 3:0.891937 4:-0.842772 5:0.0523536 6:-0.204703 7:-0.941079 8:-0.73054 9:-0.974048 10:0.143102 11:-0.28535 12:-0.356986 13:-0.0607582 14:0.476156 15:0.125452 
23.93807490042343 1:0.642924 2:0.85858 3:-0.00119196 4:0.469268 5:0.917283 6:-0.0315761 7:-0.534916 8:0.713958 9:-0.643155 10:-0.761909 11:0.964709 12:0.534984 13:0.0451991 14:-0.595516 15:-0.160173 
9.296676907978933 1:-0.89545 2:0.518777 3:-0.908069 4:-0.583838 5:-0.88869 6:-0.570642 7:0.933296 8:-0.939624 9:-0.853521 10:0.707533 11:0.668548 12:-0.0711346 13:-0.629834 14:0.755284 15:0.275989 
22.49201981849852 1:0.700303 2:0.886016 3:-0.764794 4:0.796548 5:0.856257 6:0.610287 7:0.934662 8:0.240654 9:0.204124 10:0.370927 11:-0.856251 12:0.208853 13:-0.358274 14:-0.626216 15:-0.456149 
7.365233384234105 1:-0.491167 2:-0.0161044 3:-0.121422 4:-0.77643 5:-0.766872 6:0.619728 7:-0.254218 8:0.935858 9:0.0402106 10:0.225986 11:0.557977 12:0.575857 13:0.444111 14:0.286851 15:0.614889 
17.52242613676065 1:0.109791 2:0.943431 3:-0.342046 4:0.348268 5:-0.592358 6:0.0210969 7:-0.65817 8:0.681799 9:-0.213026 10:-0.923992 11:0.0227907 12:0.670679 13:0.461511 14:-0.553751 15:-0.506904 
0.9832712540777037 1:-0.357727 2:-0.439361 3:0.823829 4:0.761475 5:-0.337061 6:0.805885 7:-0.288861 8:0.39801 9:-0.373857 10:0.306144 11:0.228345 12:-0.923424 13:-0.978121 14:-0.559222 15:-0.386002 
26.08682336048255 1:-0.2498 2:0.193555 3:-0.848978 4:0.577344 5:0.518033 6:0.931424 7:-0.363938 8:0.646641 9:-0.291849 10:0.955939 11:-0.109874 12:-0.875391 13:-0.394648 14:-0.421793 15:0.911275 
32 1:0.216239 2:0.90673 3:0.888185 4:0.125014 5:0.671959 6:-0.33347 7:-0.846166 8:0.10171 9:-0.519053 10:0.725863 11:0.96882 12:0.544405 13:-0.776964 14:-0.410455 15:0.381955 
32 1:-0.831869 2:-0.0169906 3:-0.563734 4:-0.337769 5:-0.262295 6:-0.925178 7:-0.361993 8:0.197003 9:0.690554 10:0.711432 11:-0.393256 12:-0.67821 13:0.118612 14:-0.0454263 15:0.166445 
17.40945931621205 1:0.718612 2:0.562242 3:0.247014 4:0.279535 5:0.0638595 6:-0.920899 7:0.952128 8:-0.223433 9:0.673488 10:0.0648591 11:-0.614834 12:0.849763 13:0.777874 14:-0.492679 15:0.229317 
11.76077299838629 1:0.0965451 2:0.92956 3:-0.109042 4:-0.957944 5:-0.702849 6:-0.351479 7:0.77122 8:0.894963 9:0.309477 10:0.0520888 11:-0.654224 12:-0.805888 13:0.6224 14:0.169139 15:0.184978 
32 1:0.551056 2:0.584301 3:0.370105 4:-0.0112571 5:0.366769 6:-0.689485 7:-0.185093 8:0.316663 9:0.813966 10:0.0222816 11:-0.765193 12:0.0860215 13:0.808221 14:0.517098 15:0.910131 
32 1:0.144545 2:0.111227 3:0.618613 4:-0.900052 5:0.459597 6:-0.812259 7:0.326997 8:-0.43295 9:-0.413667 10:-0.834723 11:0.655527 12:-0.82388 13:0.314758 14:0.88554 15:0.773569 
32 1:0.49308 2:0.925153 3:0.859249 4:-0.911316 5:0.880943 6:0.104215 7:-0.462146 8:0.579818 9:0.48134 10:-0.241705 11:-0.351255 12:-0.647372 13:0.377061 14:-0.375763 15:0.312618 
18.12023291656625 1:-0.516334 2:0.606957 3:-0.377795 4:-0.172974 5:-0.561653 6:-0.116906 7:0.546148 8:0.770055 9:0.555642 10:-0.146856 11:-0.834735 12:-0.629684 13:0.80244 14:0.804992 15:-0.817099 
4.730515750408599 1:0.755239 2:0.723886 3:-0.638104 4:-0.0894188 5:-0.677246 6:-0.504229 7:-0.973657 8:-0.479926 9:-0.951713 10:-0.797141 11:0.561601 12:-0.749758 13:-0.290339 14:-0.0243532 15:-0.77028 
32 1:0.814181 2:0.900707 3:0.24509 4:-0.594501 5:-0.014562 6:-0.426827 7:-0.905046 8:-0.560898 9:0.961092 10:-0.050294 11:0.708509 12:0.271106 13:0.277386 14:-0.5356 15:0.956203 
32 1:0.0984161 2:0.556955 3:0.998674 4:0.106825 5:-0.0682441 6:-0.86322 7:-0.911301 8:0.474273 9:-0.826741 10:0.0490223 11:0.616024 12:-0.925003 13:-0.855202 14:-0.811721 15:-0.142315 
6.838062099543601 1:-0.27973 2:0.289196 3:0.617499 4:-0.00620103 5:0.551458 6:-0.198307 7:0.969951 8:-0.176165 9:-0.398108 10:0.510495 11:-0.604914 12:-0.694527 13:-0.206576 14:-0.877989 15:0.3662 
32 1:-0.703409 2:0.641231 3:-0.606299 4:0.630758 5:-0.401004 6:0.819154 7:-0.993063 8:0.629559 9:0.00734419 10:-0.101432 11:0.264411 12:-0.261481 13:-0.853201 14:-0.707619 15:-0.89028 
10.04622802480585 1:-0.901204 2:0.477936 3:-0.83127 4:0.201882 5:-0.307774 6:-0.918804 7:-0.504949 8:-0.493085 9:0.9231 10:0.326874 11:0.526854 12:-0.921774 13:0.475311 14:-0.286707 15:-0.682919 
19.14830840801575 1:-0.413518 2:0.569915 3:0.125475 4:-0.26827 5:-0.581996 6:-0.662705 7:-0.981717 8:-0.163125 9:0.632275 10:-0.129375 11:-0.326178 12:-0.825421 13:-0.0121785 14:-0.987849 15:-0.652821 
32 1:-0.582791 2:0.667123 3:0.33379 4:0.691184 5:-0.328206 6:-0.426749 7:-0.24874 8:0.621243 9:0.93241 10:0.11444 11:0.118592 12:-0.0153727 13:0.877133 14:-0.0354551 15:-0.536881 
7.98340807884114 1:0.70427 2:0.853067 3:0.17498 4:0.340099 5:0.968943 6:0.242629 7:-0.936089 8:0.568114 9:0.42716 10:-0.864961 11:0.0527042 12:0.396486 13:0.319826 14:0.0336714 15:-0.96523 
29.71502654740868 1:0.629626 2:0.412569 3:0.173863 4:-0.910221 5:-0.0815581 6:-0.335854 7:-0.19684 8:0.64697 9:-0.202929 10:0.743889 11:-0.644158 12:0.759062 13:-0.16044 14:-0.844602 15:-0.0512485 
13.08646290277822 1:-0.19962 2:0.990579 3:-0.835257 4:0.525696 5:-0.584662 6:0.625377 7:-0.580412 8:-0.570333 9:-0.761486 10:-0.0207817 11:-0.673137 12:0.238449 13:-0.99152 14:-0.166449 15:0.885792 
4.056617468123455 1:0.288848 2:0.698785 3:-0.386867 4:-0.796498 5:0.0198697 6:-0.293641 7:-0.958693 8:-0.909902 9:0.694834 10:0.0908922 11:-0.67004 12:-0.847595 13:0.241017 14:-0.292738 15:0.767087 
11.28115029265104 1:0.965062 2:0.903243 3:-0.132103 4:-0.390257 5:-0.871977 6:0.899201 7:-0.814116 8:-0.419168 9:0.979075 10:0.583491 11:0.287764 12:-0.735517 13:0.241897 14:0.609731 15:0.555982 
16.42786902368918 1:-0.570887 2:0.437475 3:-0.920844 4:0.94337 5:0.769261 6:-0.418446 7:-0.0436913 8:0.0166099 9:-0.239545 10:0.670616 11:-0.527841 12:-0.432863 13:0.567254 14:0.153703 15:0.365481 
17.54499783801122 1:0.903332 2:0.918098 3:0.986353 4:0.238008 5:-0.439187 6:0.0679967 7:0.923526 8:0.0785757 9:-0.464987 10:0.860942 11:-0.66873 12:0.887252 13:0.922723 14:0.268572 15:-0.424558 
3.785986207526281 1:0.25638 2:0.916546 3:-0.827855 4:-0.0144369 5:-0.739268 6:-0.556782 7:-0.513716 8:0.827624 9:-0.522454 10:0.698159 11:0.158138 12:0.244311 13:-0.115216 14:0.989013 15:0.930976 
5.235678171851942 1:-0.641766 2:0.424544 3:0.969904 4:0.229778 5:0.305781 6:0.0517323 7:-0.835313 8:-0.317652 9:-0.983827 10:-0.381056 11:0.485158 12:0.764346 13:0.87759 14:0.259469 15:0.905332 
32 1:0.332225 2:0.717512 3:0.0110309 4:-0.994775 5:-0.915412 6:-0.248813 7:-0.842028 8:-0.193446 9:0.0447968 10:-0.370955 11:0.466669 12:-0.368287 13:-0.48731 14:-0.200443 15:0.472278 
32 1:-0.866961 2:-0.000561581 3:0.771098 4:-0.439638 5:-0.92696 6:0.570525 7:-0.0288962 8:0.773042 9:0.309993 10:0.523106 11:0.748154 12:0.26368 13:0.0447723 14:-0.170496 15:-0.201793 
28.27706353937331 1:-0.59593 2:0.864073 3:0.0659879 4:0.903426 5:-0.0714304 6:0.129889 7:0.936204 8:0.739413 9:0.61461 10:-0.252648 11:0.345628 12:0.0847852 13:-0.954593 14:-0.758285 15:-0.934988 
6.933324433549973 1:0.0380196 2:0.625436 3:0.489575 4:-0.197591 5:-0.461966 6:0.729677 7:-0.350228 8:-0.636114 9:0.27726 10:0.49382 11:0.853526 12:0.698337 13:-0.279131 14:0.85942 15:-0.962946 
12.65763415067393 1:0.178807 2:0.0386471 3:0.792506 4:-0.696213 5:0.693583 6:0.444121 7:0.170139 8:0.792955 9:0.203866 10:-0.669039 11:-0.137185 12:0.456394 13:0.703569 14:0.0267071 15:-0.586773 
10.87927295620116 1:-0.366148 2:0.538736 3:-0.136322 4:-0.730718 5:0.0649363 6:0.872582 7:0.313085 8:-0.156929 9:-0.399782 10:0.706249 11:0.26509 12:-0.536958 13:-0.493235 14:0.417615 15:0.572037 
5.545795980663036 1:0.38584 2:0.917973 3:0.891079 4:0.339996 5:-0.422731 6:0.923326 7:-0.481557 8:-0.582591 9:0.278239 10:0.851923 11:0.615515 12:0.202971 13:-0.56825 14:-0.978528 15:-0.775229 
11.96001951426879 1:-0.679217 2:0.0313117 3:0.978336 4:-0.0602788 5:0.384211 6:-0.87413 7:-0.647461 8:0.85442 9:0.907028 10:0.0312339 11:-0.87662 12:0.131931 13:0.0307831 14:-0.630262 15:-0.206178 
20.86974179918239 1:-0.38337 2:0.564994 3:0.950993 4:0.323597 5:-0.360279 6:-0.880693 7:0.389016 8:0.707292 9:0.0312789 10:-0.697821 11:-0.216815 12:-0.94496 13:-0.268983 14:-0.295348 15:-0.304456 
32 1:0.50308 2:0.866752 3:0.245028 4:-0.786149 5:-0.361354 6:-0.467995 7:-0.597079 8:-0.561872 9:-0.92572 10:0.0714342 11:-0.0792884 12:-0.446026 13:0.896438 14:-0.630951 15:0.827771 
23.32448034659995 1:0.101574 2:0.923709 3:-0.173758 4:0.158373 5:0.894808 6:-0.404514 7:0.614265 8:-0.974988 9:-0.366594 10:0.837905 11:0.0556849 12:0.651877 13:-0.59801 14:-0.905708 15:0.983149 
7.988898967503527 1:0.956084 2:-0.964188 3:-0.532291 4:-0.813424 5:-0.106512 6:-0.684334 7:0.0685665 8:0.877804 9:-0.487036 10:0.773668 11:0.975023 12:0.126293 13:0.889097 14:-0.823267 15:0.679839 
9.745766055913952 1:-0.678011 2:0.227397 3:0.316755 4:0.469462 5:-0.40185 6:-0.751795 7:-0.719513 8:-0.597404 9:-0.853147 10:0.88743 11:-0.336871 12:-0.65612 13:-0.720706 14:0.0440113 15:0.642757 
32 1:0.0638019 2:0.489631 3:0.95106 4:-0.283382 5:-0.239364 6:0.342119 7:-0.368694 8:0.37368 9:0.653327 10:0.31014 11:0.347746 12:0.355337 13:0.159714 14:-0.481092 15:0.488786 
32 1:-0.673447 2:0.763614 3:0.605578 4:-0.92385 5:0.744279 6:0.912571 7:-0.0892699 8:0.50315 9:-0.677814 10:-0.312845 11:0.949223 12:-0.670484 13:0.25404 14:0.513313 15:0.148954 
7.207188170563823 1:-0.621928 2:0.872207 3:0.661076 4:0.165036 5:0.64513 6:-0.350704 7:0.561826 8:0.310175 9:0.862019 10:-0.987243 11:0.636597 12:-0.303247 13:-0.432766 14:0.229285 15:0.248236 
32 1:-0.464512 2:0.926007 3:-0.109057 4:-0.720111 5:-0.455512 6:0.692851 7:0.802141 8:0.560176 9:0.191054 10:0.0736444 11:-0.262158 12:0.689309 13:0.801614 14:-0.858244 15:0.358262 
32 1:0.467359 2:0.139408 3:0.636684 4:-0.349538 5:-0.295624 6:0.600443 7:0.47888 8:0.130433 9:-0.549243 10:0.599465 11:0.109614 12:-0.924318 13:-0.430842 14:-0.972422 15:-0.837174 
1.060268791505631 1:0.920707 2:0.68108 3:-0.805069 4:0.23111 5:0.111927 6:-0.699327 7:0.110087 8:-0.784689 9:-0.983099 10:0.92421 11:0.60414 12:-0.0197378 13:-0.584993 14:-0.594702 15:-0.665997 
6.01748756310866 1:-0.965915 2:0.643141 3:0.642447 4:0.271915 5:0.707006 6:-0.896957 7:0.0486752 8:0.888523 9:-0.733561 10:0.0765856 11:-0.108888 12:-0.969475 13:-0.235009 14:0.912816 15:0.354631 
18.99611174901813 1:0.417095 2:0.711249 3:-0.268534 4:0.369834 5:-0.717893 6:0.148659 7:0.0113228 8:0.301002 9:-0.898512 10:-0.330755 11:-0.728808 12:0.218998 13:0.343523 14:0.00697777 15:-0.304508 
7.291169084282966 1:-0.31722 2:-0.717852 3:-0.517822 4:-0.938383 5:0.381814 6:-0.677946 7:-0.815549 8:0.482298 9:0.341997 10:0.741297 11:-0.329678 12:-0.236733 13:-0.36599 14:0.864942 15:0.364708 
28.95362375429229 1:-0.258209 2:0.286488 3:0.0358625 4:-0.810205 5:-0.836539 6:0.0050884 7:0.287079 8:0.56984 9:-0.260819 10:-0.715233 11:0.879389 12:-0.168213 13:0.170919 14:-0.368149 15:0.348661 
26.10829308056627 1:-0.89389 2:0.834444 3:-0.0934145 4:-0.6986 5:-0.335946 6:0.837635 7:-0.284076 8:-0.116735 9:-0.216694 10:0.117788 11:0.987777 12:-0.769628 13:-0.240113 14:0.440303 15:-0.250242 
31.66734796821017 1:-0.231681 2:0.73082 3:0.315661 4:0.790638 5:0.685781 6:0.396729 7:0.260242 8:-0.464975 9:0.359622 10:-0.204964 11:0.805747 12:-0.951671 13:-0.726899 14:-0.630665 15:0.0914748 
32 1:-0.666004 2:0.530909 3:0.736519 4:-0.943231 5:-0.938698 6:0.742406 7:-0.435973 8:-0.11118 9:-0.882576 10:0.578268 11:-0.100309 12:0.873726 13:0.435381 14:-0.338678 15:0.581289 
11.90691520773349 1:0.217546 2:0.929827 3:-0.244419 4:-0.989495 5:-0.287811 6:0.396028 7:0.516305 8:0.345474 9:0.312072 10:0.0735217 11:0.908192 12:0.864632 13:-0.132476 14:0.81149 15:-0.590915 
5.586033496644104 1:-0.0309598 2:0.247652 3:0.871412 4:0.395982 5:-0.807381 6:0.158916 7:0.133755 8:0.391738 9:-0.647172 10:-0.965273 11:0.792185 12:-0.0447173 13:0.794196 14:-1 15:-0.119882 
32 1:-0.190344 2:0.818086 3:-0.63021 4:0.0806628 5:0.521426 6:-0.620911 7:0.279927 8:0.639433 9:-0.0764584 10:0.673959 11:0.692648 12:0.100054 13:-0.517325 14:0.352291 15:-0.174652 
20.0862960172458 1:-0.504934 2:-0.751104 3:-0.295534 4:0.331358 5:-0.0866277 6:0.491569 7:-0.706605 8:0.112314 9:0.673845 10:0.192517 11:0.836141 12:-0.838562 13:-0.813904 14:0.573853 15:0.822289 
32 1:0.444641 2:0.979763 3:0.776633 4:-0.424593 5:0.282399 6:-0.471777 7:-0.00887642 8:-0.0466066 9:0.288101 10:-0.339132 11:-0.490953 12:-0.172428 13:-0.883019 14:-0.287021 15:0.695754 
32 1:-0.568416 2:0.966026 3:0.0470423 4:-0.66841 5:0.815962 6:-0.000383098 7:-0.211354 8:0.471473 9:-0.39475 10:-0.540758 11:0.320366 12:0.841758 13:0.848859 14:-0.913909 15:-0.324921 
32 1:0.755757 2:0.243411 3:0.923161 4:-0.9144 5:0.333892 6:-0.317382 7:-0.314806 8:0.590074 9:-0.843148 10:0.0394119 11:0.695823 12:0.45343 13:0.10946 14:-0.676864 15:0.126575 
32 1:0.605371 2:-0.963358 3:-0.1692 4:-0.578231 5:-0.130676 6:-0.521776 7:-0.734477 8:0.554145 9:0.572085 10:0.673081 11:-0.379625 12:0.1512 13:-0.362435 14:0.964179 15:0.359194 
32 1:-0.27271 2:0.138346 3:0.890516 4:-0.925147 5:-0.626444 6:0.581122 7:-0.986585 8:0.175364 9:0.0290641 10:0.390489 11:0.869912 12:-0.800271 13:-0.604279 14:-0.0381834 15:0.0578127 
32 1:-0.967192 2:0.966489 3:0.183197 4:-0.293697 5:-0.116442 6:-0.249261 7:-0.682622 8:-0.142568 9:-0.415984 10:-0.254448 11:0.070467 12:-0.478244 13:0.715657 14:0.476853 15:-0.404883 
0.4547436007118988 1:0.913229 2:-0.0446441 3:0.319289 4:-0.788683 5:-0.592801 6:-0.673661 7:0.138935 8:0.405283 9:-0.467344 10:-0.89544 11:0.605543 12:0.554769 13:-0.542727 14:0.76056 15:0.872624 
32 1:-0.40289 2:0.814439 3:-0.025073 4:0.278608 5:-0.274114 6:0.725121 7:0.538638 8:-0.773085 9:0.0113815 10:0.215824 11:0.304728 12:-0.358263 13:-0.784571 14:-0.592092 15:0.135888 
19.99236289759255 1:0.403234 2:0.469572 3:0.499129 4:-0.394319 5:-0.433785 6:0.794002 7:-0.696544 8:0.994534 9:0.754272 10:0.16473 11:-0.814266 12:-0.733794 13:0.461275 14:0.746886 15:0.408587 
11.93782346336408 1:-0.684385 2:-0.570582 3:0.0685211 4:0.491164 5:-0.805075 6:-0.976652 7:0.690371 8:-0.126523 9:0.540754 10:0.138591 11:0.444785 12:-0.808309 13:-0.694342 14:0.780773 15:0.699227 
0.9448324545592454 1:-0.711639 2:0.300617 3:0.68492 4:0.857979 5:0.288266 6:0.361397 7:-0.322372 8:-0.0787441 9:-0.476303 10:0.979188 11:-0.324835 12:0.775217 13:0.542519 14:-0.891348 15:-0.369867 
26.66865663637705 1:-0.235518 2:0.49024 3:-0.883033 4:0.721346 5:0.817374 6:-0.319598 7:-0.810978 8:0.124029 9:0.628581 10:0.232684 11:0.478184 12:0.282908 13:-0.536203 14:0.421761 15:-0.860335 
16.64769877175621 1:-0.973445 2:-0.0200499 3:0.0316714 4:-0.0467172 5:-0.15196 6:-0.140314 7:-0.702684 8:0.366773 9:0.876614 10:0.0840683 11:-0.841192 12:-0.415922 13:0.281744 14:-0.167702 15:0.586575 
32 1:-0.378248 2:-0.575301 3:-0.43715 4:-0.727044 5:0.963866 6:-0.764787 7:0.107526 8:0.419428 9:0.599734 10:0.542996 11:-0.395841 12:-0.32404 13:-0.353815 14:-0.215951 15:0.125232 
32 1:0.643521 2:0.108175 3:0.5967 4:-0.656101 5:-0.706543 6:-0.27345 7:0.680587 8:-0.915514 9:-0.420238 10:0.890137 11:0.45415 12:0.513271 13:-0.423101 14:-0.463699 15:0.192573 
7.734060479664613 1:0.289766 2:-0.143105 3:0.381603 4:-0.731027 5:0.620108 6:0.779671 7:-0.810958 8:-0.0427043 9:-0.436841 10:-0.89474 11:0.536311 12:-0.500301 13:-0.835196 14:-0.821933 15:0.461358 
32 1:-0.761008 2:0.851778 3:-0.139292 4:-0.312679 5:0.0312077 6:0.124153 7:0.954893 8:-0.598508 9:-0.437499 10:-0.265245 11:-0.696847 12:0.569016 13:0.534566 14:-0.0407889 15:0.919623 
4.202372813206055 1:0.114933 2:-0.572706 3:-0.393562 4:0.147467 5:0.241831 6:0.648903 7:-0.647818 8:-0.738301 9:0.187769 10:0.807902 11:-0.722063 12:0.381185 13:-0.940965 14:0.448176 15:-0.727111 
1.465498712601072 1:0.415677 2:0.864154 3:0.456339 4:0.794785 5:-0.0717634 6:-0.808541 7:0.553479 8:-0.152739 9:-0.780436 10:0.512067 11:-0.637333 12:-0.556152 13:0.982122 14:0.669189 15:-0.654665 
32 1:0.387127 2:0.438304 3:-0.160088 4:-0.0539812 5:0.849661 6:-0.460742 7:0.172657 8:-0.657738 9:0.924043 10:0.758647 11:0.139848 12:-0.143086 13:0.176781 14:-0.672739 15:0.439448 
13.57280672753167 1:-0.136797 2:0.602792 3:0.853647 4:0.0488768 5:0.939062 6:0.978971 7:-0.81421 8:0.86892 9:-0.22122 10:-0.643692 11:0.190697 12:-0.833679 13:-0.337065 14:-0.805641 15:0.579179 
5.309314428922665 1:-0.84998 2:-0.392937 3:-0.119926 4:0.437747 5:-0.340694 6:0.881802 7:0.921044 8:0.89049 9:0.00762693 10:0.157876 11:0.423857 12:-0.3695 13:-0.889823 14:0.83933 15:-0.537276 
0.1896046550679354 1:-0.275263 2:0.441256 3:-0.628765 4:-0.769408 5:-0.415973 6:0.983189 7:0.0869379 8:0.84864 9:-0.698024 10:0.613207 11:0.880871 12:0.279346 13:-0.156752 14:0.491904 15:-0.826167 
10.09851379282756 1:-0.640444 2:0.129126 3:-0.285207 4:-0.871968 5:0.698618 6:-0.628568 7:0.056913 8:0.204565 9:-0.864861 10:0.823176 11:-0.76134 12:-0.565834 13:-0.836541 14:-0.0654588 15:-0.975434 
32 1:-0.602004 2:-0.749479 3:0.16083 4:-0.561406 5:0.299361 6:-0.622615 7:-0.0540103 8:-0.24798 9:0.775096 10:0.324961 11:-0.367865 12:-0.469368 13:0.116133 14:0.215422 15:0.960997 
1.390139889324884 1:-0.186185 2:0.209295 3:-0.473316 4:-0.446172 5:-0.0686747 6:-0.764401 7:0.826625 8:0.969151 9:0.30495 10:0.160117 11:-0.315089 12:-0.174886 13:-0.758481 14:0.203108 15:-0.671529 
32 1:0.367845 2:0.883353 3:0.515371 4:-0.943731 5:-0.633384 6:0.273572 7:0.761043 8:0.2024 9:0.99502 10:-0.0216871 11:-0.662521 12:-0.572417 13:0.622916 14:-0.723652 15:0.165019 
32 1:-0.508847 2:0.295497 3:0.834192 4:-0.122087 5:-0.241706 6:-0.877003 7:0.564608 8:0.130142 9:-0.233908 10:-0.0916496 11:-0.630036 12:-0.53016 13:-0.837694 14:0.970627 15:-0.284051 
15.94610700611136 1:0.528015 2:0.461355 3:0.00894377 4:0.108653 5:0.959511 6:-0.641121 7:-0.19386 8:-0.584153 9:-0.965656 10:-0.788667 11:0.662973 12:0.0189603 13:-0.496574 14:-0.720505 15:0.654404 
24.40660347796668 1:-0.972702 2:0.847566 3:0.974897 4:0.254006 5:-0.97851 6:0.869918 7:-0.780301 8:-0.451614 9:-0.421949 10:-0.22054 11:-0.41785 12:-0.900553 13:-0.234655 14:0.87511 15:-0.177673 
17.00848051512727 1:-0.626705 2:0.638257 3:-0.590458 4:-0.891328 5:-0.908294 6:0.0124037 7:-0.243665 8:0.588007 9:0.252184 10:0.618304 11:-0.895041 12:-0.556721 13:0.726859 14:0.464596 15:0.860522 
29.96478315285454 1:-0.4716 2:0.407182 3:0.759347 4:-0.688246 5:-0.880856 6:0.835553 7:-0.930409 8:0.994889 9:-0.240624 10:-0.200464 11:0.902327 12:-0.230102 13:1 14:-0.0553483 15:0.393333 
10.28005169033482 1:-0.768466 2:0.739559 3:0.657314 4:0.785281 5:-0.813736 6:0.534406 7:0.559144 8:0.286971 9:0.00234023 10:-0.254177 11:0.425877 12:-0.219519 13:-0.961919 14:-0.197957 15:0.440227 
5.566274246026049 1:-0.83194 2:0.00157644 3:0.675637 4:-0.690718 5:-0.389319 6:0.380678 7:-0.558227 8:-0.0805188 9:-0.997818 10:0.99402 11:-0.302338 12:0.587105 13:0.206311 14:0.570116 15:0.344533 
32 1:0.0699349 2:0.790895 3:-0.0524163 4:0.960436 5:-0.16742 6:-0.414544 7:0.459755 8:0.422472 9:0.548561 10:0.324275 11:0.930139 12:-0.193478 13:-0.649215 14:-0.407679 15:-0.358971 
7.220130931548385 1:0.681334 2:0.843669 3:-0.688335 4:-0.0727 5:0.210065 6:-0.133705 7:0.112856 8:0.987463 9:-0.0140713 10:0.823423 11:-0.908177 12:-0.994513 13:-0.128172 14:-0.407312 15:0.059246 
32 1:-0.231526 2:0.249931 3:0.777312 4:0.215099 5:0.765085 6:0.569462 7:0.570614 8:-0.556708 9:0.417358 10:0.900921 11:0.570156 12:0.701803 13:0.237904 14:0.766722 15:0.455092 
31.1588526084694 1:0.89393 2:-0.78643 3:-0.487251 4:-0.238591 5:0.185392 6:0.359209 7:0.234879 8:-0.189986 9:0.0429552 10:0.837693 11:0.627557 12:-0.4877 13:-0.473835 14:-0.963714 15:-0.298585 
14.39168232998533 1:0.373618 2:0.759012 3:-0.199755 4:0.439057 5:0.56494 6:-0.156278 7:0.951228 8:-0.597771 9:0.231586 10:0.503295 11:-0.518772 12:-0.199007 13:-0.149939 14:-0.986982 15:-0.527797 
32 1:0.175881 2:0.612049 3:-0.0709459 4:-0.566889 5:-0.3321 6:-0.136838 7:-0.192309 8:-0.583794 9:0.999605 10:0.345699 11:-0.467731 12:0.427072 13:-0.524658 14:0.189335 15:-0.86711 
28.76497547990478 1:-0.627713 2:0.130371 3:0.377056 4:-0.165204 5:-0.182502 6:0.983703 7:0.788036 8:0.23043 9:0.766957 10:0.282688 11:0.0452825 12:0.366895 13:-0.170422 14:-0.165375 15:-0.725104 
32 1:0.126382 2:0.802788 3:-0.646617 4:0.833515 5:0.155216 6:-0.942429 7:-0.37989 8:0.00483996 9:-0.135286 10:0.295078 11:0.0626427 12:-0.321326 13:-0.977612 14:0.399861 15:0.225133 
10.88787042363903 1:-0.0230485 2:0.169537 3:0.805597 4:-0.844205 5:-0.214583 6:-0.582055 7:0.768447 8:-0.0306098 9:0.501285 10:0.0124464 11:0.390108 12:0.753007 13:0.292663 14:0.734326 15:-0.826071 
32 1:0.511985 2:0.550703 3:0.90354 4:-0.711443 5:0.837864 6:-0.230094 7:-0.321669 8:0.542013 9:-0.231761 10:-0.142875 11:-0.908994 12:0.200037 13:-0.0344713 14:-0.192108 15:0.842473 
17.02758144724311 1:-0.544958 2:-0.117245 3:0.499727 4:-0.63486 5:0.402107 6:-0.934026 7:0.93139 8:0.55356 9:-0.183972 10:0.64876 11:0.413834 12:0.600009 13:-0.657141 14:-0.147735 15:-0.452374 
6.650731039795697 1:-0.237407 2:-0.268819 3:0.706574 4:-0.702561 5:0.685092 6:-0.368442 7:-0.0766446 8:-0.284748 9:0.552713 10:-0.253504 11:-0.0557439 12:-0.577758 13:-0.861356 14:-0.300782 15:0.737359 
29.0052299183601 1:-0.113768 2:0.558126 3:0.839396 4:0.177926 5:-0.195274 6:0.221245 7:-0.757399 8:-0.53471 9:-0.244977 10:0.0946562 11:0.102669 12:-0.457632 13:-0.975547 14:0.770081 15:0.233166 
32 1:-0.964307 2:0.645081 3:0.980745 4:-0.978349 5:-0.114242 6:-0.836141 7:0.556318 8:0.132469 9:0.726393 10:-0.110494 11:-0.381773 12:-0.925557 13:0.857919 14:-0.389903 15:0.467114 
32 1:-0.405183 2:0.684917 3:0.226799 4:0.0331467 5:0.30879 6:-0.0838223 7:0.165519 8:0.404439 9:0.788876 10:-0.164337 11:0.6464 12:0.674456 13:0.578285 14:-0.917303 15:-0.169078 
9.956677192289296 1:0.419879 2:0.428415 3:0.855384 4:-0.583782 5:0.77316 6:-0.760312 7:-0.829255 8:-0.947119 9:-0.381723 10:-0.725559 11:0.172553 12:-0.81019 13:-0.586446 14:-0.307923 15:0.925461 
21.23464172619558 1:-0.763812 2:0.90683 3:0.914852 4:0.656775 5:-0.827427 6:-0.355156 7:-0.0238418 8:-0.238588 9:-0.464135 10:-0.396562 11:-0.211695 12:-0.510309 13:-0.820345 14:0.438525 15:0.874209 
32 1:-0.408935 2:0.456631 3:0.773394 4:-0.478357 5:0.429937 6:0.315212 7:0.999905 8:-0.600231 9:0.0364242 10:0.994903 11:0.985903 12:-0.404766 13:0.558875 14:0.160544 15:0.860888 
25.35482481223486 1:0.0300046 2:0.986786 3:0.470144 4:0.862272 5:-0.0368822 6:-0.676466 7:0.756101 8:-0.287586 9:0.899475 10:0.00181068 11:-0.214055 12:0.0562616 13:-0.0237888 14:0.617154 15:0.109102 
28.08217877498859 1:0.735147 2:0.110608 3:0.351493 4:-0.746925 5:-0.690914 6:0.589186 7:-0.419156 8:-0.584073 9:0.161495 10:-0.993774 11:-0.892512 12:0.563248 13:0.602728 14:-0.0833037 15:0.160421 
13.57893924413353 1:-0.392892 2:0.328573 3:0.981427 4:0.851542 5:-0.368038 6:-0.722492 7:0.914594 8:0.974381 9:-0.111571 10:-0.666035 11:-0.716462 12:0.743684 13:0.484918 14:0.82836 15:-0.691413 
9.766186829203097 1:-0.81737 2:0.775334 3:-0.809145 4:0.366074 5:0.388504 6:0.153013 7:-0.490628 8:0.828716 9:0.239367 10:0.163798 11:0.455893 12:0.840063 13:0.952775 14:-0.977853 15:0.193418 
32 1:-0.067434 2:0.878615 3:0.799215 4:0.550836 5:-0.85619 6:-0.349052 7:0.834076 8:-0.709809 9:0.0772773 10:-0.512981 11:-0.0935656 12:-0.765698 13:0.0926059 14:-0.141427 15:0.138963 
32 1:-0.655376 2:0.38182 3:-0.0598825 4:-0.877075 5:0.155064 6:0.0783382 7:0.290624 8:-0.673586 9:-0.513346 10:0.46544 11:-0.508164 12:-0.492469 13:-0.679383 14:0.129475 15:0.159283 
32 1:-0.742474 2:0.407569 3:-0.0641756 4:-0.722572 5:-0.759619 6:-0.475456 7:-0.200776 8:0.0330499 9:0.1683 10:0.55298 11:-0.746559 12:-0.224595 13:0.238484 14:0.279313 15:-0.857746 
23.45815847112231 1:0.762819 2:0.295603 3:0.612207 4:-0.471491 5:-0.691206 6:0.634508 7:-0.0964001 8:-0.421288 9:0.196036 10:0.776736 11:0.265041 12:-0.61159 13:-0.440386 14:0.598776 15:0.0202837 
21.21078604037922 1:0.710012 2:0.501865 3:-0.554873 4:0.759039 5:0.408763 6:-0.836675 7:-0.980134 8:-0.0632865 9:0.704857 10:0.746383 11:-0.536185 12:-0.667965 13:-0.127725 14:-0.825208 15:-0.593385 
32 1:-0.741826 2:0.969808 3:0.717225 4:0.178352 5:-0.16629 6:0.816923 7:0.618653 8:0.211597 9:0.178449 10:-0.491787 11:0.259583 12:0.190757 13:-0.436646 14:-0.430136 15:0.328175 
32 1:-0.330486 2:0.976222 3:0.0295545 4:-0.310719 5:0.916021 6:-0.0684077 7:0.712157 8:0.26519 9:-0.196096 10:-0.523579 11:-0.0726512 12:0.121734 13:0.919325 14:-0.0459916 15:0.742378 
32 1:-0.358355 2:0.853803 3:0.220837 4:-0.726802 5:0.0141322 6:0.00107505 7:-0.246535 8:0.483497 9:0.215226 10:-0.199047 11:0.139734 12:-0.473381 13:0.429635 14:-0.830565 15:0.903764 
2.486374775899352 1:-0.836235 2:0.867913 3:0.799647 4:0.616848 5:0.824695 6:0.223971 7:0.696632 8:-0.662509 9:0.721197 10:-0.642706 11:0.574528 12:0.457979 13:0.578211 14:-0.946315 15:0.926984 
13.52011105301388 1:-0.250451 2:-0.324126 3:-0.410314 4:-0.755622 5:0.0666143 6:-0.0437388 7:0.974725 8:-0.900032 9:0.306401 10:0.952573 11:0.856261 12:-0.121153 13:-0.396323 14:0.105862 15:-0.0313598 
22.74945090092887 1:0.963004 2:0.611995 3:0.849895 4:-0.986287 5:0.914431 6:-0.268415 7:-0.284788 8:-0.408461 9:0.536526 10:0.389499 11:0.591452 12:-0.639097 13:-0.374349 14:-0.866505 15:-0.465532 
15.41505781929036 1:0.473064 2:0.360932 3:0.350928 4:-0.538929 5:-0.958471 6:-0.443892 7:0.743064 8:0.882251 9:-0.255554 10:-0.986182 11:0.437858 12:-0.781931 13:-0.617232 14:0.6739 15:-0.704561 
32 1:0.597178 2:0.751828 3:0.122886 4:-0.678168 5:-0.588099 6:-0.0807244 7:-0.435135 8:-0.143037 9:-0.312747 10:0.199728 11:0.652983 12:0.668942 13:0.253233 14:-0.480397 15:0.672305 
3.955622007192928 1:0.649907 2:0.856284 3:-0.228767 4:-0.787217 5:-0.736148 6:0.0308046 7:-0.306106 8:-0.966061 9:-0.258687 10:0.759042 11:0.00681127 12:0.728175 13:-0.889651 14:0.609936 15:0.0929396 
32 1:-0.780736 2:0.995448 3:-0.297715 4:0.328599 5:-0.455061 6:-0.0301599 7:-0.780537 8:-0.604299 9:-0.175151 10:0.418079 11:-0.579555 12:0.743676 13:0.699984 14:-0.307646 15:0.397539 
17.97282780717161 1:0.739765 2:0.768183 3:-0.0870781 4:-0.924327 5:-0.388809 6:-0.0875725 7:0.813013 8:-0.194615 9:-0.460526 10:-0.55309 11:-0.909399 12:-0.672411 13:0.733838 14:0.347727 15:0.423479 
32 1:-0.970824 2:0.479671 3:0.245366 4:-0.131727 5:-0.21369 6:-0.459828 7:-0.8054 8:-0.894092 9:-0.0642535 10:0.385368 11:-0.479425 12:0.364421 13:0.425239 14:0.357764 15:0.602347 
1.572437838567029 1:-0.365448 2:-0.152551 3:-0.0248431 4:0.237049 5:-0.771167 6:-0.770613 7:0.761273 8:0.475659 9:-0.422665 10:0.729303 11:0.93431 12:-0.929984 13:-0.695648 14:-0.893758 15:0.887403 
1.746024946057586 1:0.88148 2:0.0993977 3:0.902595 4:-0.754588 5:-0.0440462 6:0.303093 7:0.70169 8:0.37439 9:-0.909989 10:-0.7824 11:-0.318771 12:0.382671 13:-0.607133 14:0.182387 15:-0.77092 
32 1:0.0485151 2:0.51592 3:-0.606405 4:-0.758184 5:0.980784 6:-0.0628285 7:0.0562172 8:0.133341 9:0.475709 10:0.30599 11:0.836774 12:-0.554467 13:-0.729912 14:-0.0912839 15:-0.347196 
5.148840692815149 1:0.668601 2:-0.967944 3:-0.471709 4:-0.797307 5:0.637406 6:0.940164 7:-0.929118 8:0.22789 9:-0.406644 10:0.510647 11:0.0168268 12:-0.931346 13:-0.794204 14:0.489134 15:-0.269029 
24.79036821492587 1:0.590345 2:0.307503 3:0.595191 4:-0.796402 5:-0.522371 6:0.898863 7:0.726052 8:0.517436 9:-0.00847896 10:0.966649 11:0.557876 12:-0.833063 13:0.115489 14:0.838536 15:-0.24467 
32 1:0.333053 2:0.126067 3:-0.177185 4:-0.0754471 5:-0.0353679 6:0.294215 7:0.410715 8:-0.0678481 9:-0.20314 10:0.572854 11:0.095807 12:-0.929649 13:-0.70065 14:0.507553 15:-0.850121 
13.11651341724308 1:-0.983211 2:0.638452 3:-0.435786 4:-0.458233 5:-0.63253 6:0.782172 7:-0.599827 8:-0.824915 9:0.306839 10:0.550416 11:0.0656794 12:0.0113895 13:0.507441 14:0.346482 15:0.346667 
3.737225127241403 1:-0.455612 2:0.501748 3:0.595712 4:0.759191 5:0.917239 6:0.978146 7:-0.0733152 8:0.939922 9:0.231728 10:-0.691612 11:-0.86713 12:0.0555447 13:-0.838204 14:0.285278 15:0.585815 
0.8237551607263597 1:-0.083716 2:0.0678972 3:0.251438 4:-0.141182 5:0.0304129 6:0.170969 7:0.829478 8:0.408137 9:-0.213474 10:0.775354 11:0.0369841 12:0.894503 13:-0.698018 14:-0.996663 15:-0.956726 
32 1:-0.640947 2:0.729881 3:0.69786 4:-0.451284 5:-0.529561 6:0.896808 7:-0.125673 8:-0.491634 9:0.744555 10:-0.309785 11:0.34966 12:0.743905 13:-0.203802 14:0.21888 15:0.774449 
9.769691387755861 1:-0.990321 2:0.922158 3:0.118511 4:0.130459 5:0.322363 6:0.57694 7:0.345305 8:0.456514 9:-0.820196 10:-0.635745 11:0.23906 12:-0.0905692 13:-0.935734 14:-0.919604 15:0.938482 
2.122939431040813 1:-0.803529 2:0.931537 3:-0.703669 4:0.0413937 5:0.100873 6:0.150309 7:-0.668359 8:0.695214 9:-0.318833 10:-0.596065 11:0.350081 12:0.619253 13:0.781491 14:0.126976 15:-0.541146 
12.51581746119884 1:-0.488469 2:0.539859 3:-0.803009 4:-0.501761 5:-0.17549 6:-0.77185 7:-0.372789 8:-0.225041 9:0.708716 10:0.215402 11:-0.80063 12:-0.434672 13:0.153026 14:0.011312 15:-0.694738 
32 1:0.0011951 2:-0.0168358 3:-0.304407 4:-0.941057 5:0.30543 6:-0.0761481 7:-0.632874 8:0.936458 9:0.275218 10:0.912141 11:-0.646299 12:-0.489539 13:-0.538133 14:0.0784393 15:0.792858 
2.349136608269777 1:0.0315662 2:0.639682 3:0.0729906 4:-0.35524 5:0.46706 6:0.281277 7:-0.353965 8:-0.0599522 9:-0.277206 10:0.654488 11:0.72977 12:0.113063 13:0.958075 14:0.593795 15:-0.669389 
2.368311662247742 1:-0.873948 2:0.659363 3:0.604305 4:-0.145856 5:0.991877 6:-0.137633 7:0.665812 8:-0.129712 9:0.890267 10:-0.671665 11:-0.137071 12:-0.354237 13:0.368193 14:-0.264229 15:0.238805 
29.38198700036954 1:-0.933733 2:0.43481 3:-0.813551 4:0.513642 5:-0.495202 6:-0.312503 7:-0.347434 8:-0.353242 9:-0.471795 10:0.187084 11:-0.955688 12:-0.816231 13:-0.768904 14:0.960009 15:-0.920503 
32 1:0.797686 2:0.675757 3:0.661326 4:-0.624523 5:-0.869889 6:0.813124 7:-0.09753 8:0.398167 9:-0.772375 10:-0.563571 11:-0.606588 12:-0.476765 13:0.658463 14:0.858773 15:-0.788463 
4.037414455367961 1:0.212154 2:0.278189 3:0.66666 4:-0.824845 5:0.714065 6:-0.414044 7:0.260368 8:0.294649 9:0.93255 10:-0.608145 11:0.448549 12:0.113538 13:-0.553086 14:0.243238 15:0.930839 
22.18070597158025 1:-0.44427 2:-0.116479 3:0.288224 4:-0.784565 5:0.214079 6:-0.992598 7:0.273194 8:-0.966325 9:0.924043 10:-0.182158 11:0.757192 12:-0.996879 13:-0.933657 14:-0.889347 15:0.305262 
32 1:0.426675 2:0.209822 3:0.0853909 4:-0.836592 5:-0.750005 6:0.345748 7:0.619254 8:-0.693995 9:-0.826805 10:-0.686864 11:0.593275 12:-0.165675 13:0.145966 14:0.997313 15:0.150595 
0.6951818789831781 1:0.144161 2:0.737575 3:-0.0113131 4:-0.873603 5:0.893487 6:0.635311 7:0.395015 8:0.943551 9:-0.892728 10:0.0482362 11:-0.851621 12:0.505007 13:-0.670501 14:0.47913 15:-0.436846 
12.56096369814221 1:-0.753585 2:0.243074 3:-0.03368 4:-0.877131 5:0.967116 6:-0.504902 7:0.41207 8:-0.72146 9:0.5918 10:0.890234 11:-0.546105 12:-0.167987 13:0.841115 14:-0.144556 15:-0.890357 
32 1:0.101025 2:0.540134 3:-0.672775 4:0.220271 5:0.697222 6:-0.97384 7:0.139615 8:-0.995103 9:0.880664 10:0.751027 11:0.212083 12:-0.521144 13:0.0901587 14:0.911669 15:-0.463429 
14.24048990349411 1:0.461977 2:-0.197006 3:0.567226 4:-0.633281 5:0.000400187 6:-0.130959 7:-0.116556 8:-0.881834 9:-0.402603 10:-0.334986 11:-0.927021 12:0.669286 13:0.850472 14:-0.777495 15:-0.576052 
7.07599399633359 1:0.863061 2:0.0980755 3:-0.633294 4:-0.687471 5:-0.77791 6:0.786776 7:0.235246 8:0.0318954 9:0.991199 10:0.669177 11:-0.650378 12:0.78518 13:-0.72767 14:-0.519778 15:-0.327134 
32 1:-0.234005 2:-0.0556436 3:-0.086988 4:-0.666786 5:0.41939 6:0.432019 7:0.736079 8:-0.646332 9:0.850263 10:0.652458 11:-0.316894 12:-0.145193 13:0.224885 14:0.298682 15:0.626179 
13.48732474307836 1:0.940673 2:0.366038 3:-0.207616 4:-0.288253 5:-0.313079 6:0.396693 7:0.0268145 8:-0.875944 9:-0.525103 10:-0.56874 11:0.765084 12:-0.904015 13:-0.177368 14:-0.995534 15:0.667937 
10.46160814113587 1:-0.794005 2:0.967399 3:-0.819476 4:0.480172 5:0.0914955 6:0.963356 7:-0.255543 8:-0.066054 9:-0.484614 10:-0.792376 11:0.25246 12:-0.856031 13:0.392393 14:-0.800231 15:0.0190846 
3.19823173861398 1:0.827911 2:-0.726432 3:-0.820014 4:-0.215844 5:0.971174 6:-0.661468 7:0.483642 8:-0.993025 9:-0.851088 10:0.392886 11:0.493989 12:0.877413 13:-0.962066 14:0.596515 15:0.0683146 
23.2994503399638 1:-0.0148678 2:-0.176399 3:0.712826 4:-0.501446 5:0.761332 6:0.242512 7:0.678605 8:0.241054 9:-0.665006 10:-0.569517 11:-0.625335 12:-0.981811 13:-0.992418 14:0.517245 15:-0.0882969 
32 1:-0.561835 2:0.63738 3:-0.054248 4:-0.514345 5:0.269812 6:0.277284 7:-0.349741 8:-0.706379 9:0.265559 10:0.769724 11:0.895759 12:-0.241077 13:0.793886 14:0.726239 15:0.206325 
21.37511033740472 1:-0.163833 2:-0.19906 3:0.324507 4:-0.525676 5:-0.778934 6:0.50135 7:-0.33271 8:0.406242 9:0.748681 10:-0.178482 11:0.798145 12:-0.444255 13:-0.355063 14:-0.851918 15:-0.906409 
8.174936981989914 1:0.794575 2:0.83898 3:-0.486259 4:0.791661 5:0.995547 6:0.486739 7:-0.345626 8:0.256485 9:-0.608895 10:-0.568789 11:0.531549 12:-0.952608 13:0.656607 14:-0.536962 15:0.23809 
15.75794581957758 1:-0.932327 2:0.864155 3:-0.862987 4:0.384369 5:0.274629 6:-0.248522 7:0.654226 8:-0.234672 9:0.597646 10:-0.831398 11:-0.742187 12:-0.82026 13:0.140175 14:-0.157584 15:0.552716 
23.75777360382298 1:0.758781 2:0.717194 3:0.827683 4:0.0524048 5:0.53961 6:-0.42058 7:-0.01552 8:0.8929 9:0.148082 10:-0.937569 11:0.557125 12:-0.731109 13:-0.495453 14:-0.702403 15:0.297594 
6.314370451794223 1:0.228585 2:0.266128 3:0.87996 4:0.293281 5:0.0778782 6:0.0374856 7:-0.967551 8:0.101522 9:-0.837025 10:-0.772751 11:0.500156 12:0.575791 13:0.96707 14:-0.791621 15:0.606255 
23.32115030549578 1:0.464943 2:-0.239991 3:-0.493756 4:0.265842 5:0.99385 6:0.481868 7:0.414848 8:-0.692105 9:0.940663 10:0.407601 11:-0.964621 12:-0.527676 13:-0.183841 14:0.754219 15:0.914367 
32 1:-0.425195 2:0.678694 3:0.955469 4:-0.325617 5:0.373017 6:-0.307524 7:0.254533 8:-0.396639 9:0.50345 10:-0.727721 11:-0.479496 12:0.0957683 13:-0.00437446 14:-0.870119 15:0.795257 
8.806981803610757 1:-0.265297 2:0.939894 3:-0.538192 4:0.192716 5:0.241151 6:-0.778718 7:0.626281 8:0.830214 9:0.378723 10:-0.347524 11:0.225378 12:-0.26809 13:-0.636581 14:-0.327336 15:0.849456 
32 1:0.147727 2:0.534917 3:-0.201058 4:0.364875 5:-0.15353 6:0.709872 7:-0.189847 8:0.233545 9:0.823174 10:0.394961 11:-0.376187 12:-0.04747 13:-0.384498 14:-0.272911 15:-0.24097 
3.21758680208477 1:0.983309 2:0.367114 3:0.85581 4:-0.744723 5:-0.966693 6:0.157621 7:-0.349774 8:0.309818 9:0.716982 10:-0.288904 11:-0.897818 12:-0.838878 13:-0.377579 14:0.502407 15:-0.606087 
17.70196628076857 1:0.592418 2:-0.973064 3:-0.750781 4:-0.127469 5:-0.16174 6:0.732645 7:0.750022 8:0.952016 9:0.760029 10:0.375194 11:0.742386 12:-0.865242 13:-0.333057 14:0.105502 15:0.385476 
28.13978596384871 1:-0.516395 2:0.647369 3:-0.0492116 4:-0.53994 5:0.00689571 6:0.465036 7:-0.178559 8:-0.344414 9:0.528846 10:-0.0308282 11:0.250076 12:-0.839278 13:0.368643 14:0.841862 15:-0.584866 
26.61842954139239 1:-0.171938 2:0.48409 3:0.385685 4:-0.0166672 5:-0.841716 6:0.919088 7:-0.725869 8:-0.0368564 9:0.302969 10:0.246181 11:-0.437446 12:0.0625454 13:-0.799505 14:-0.865845 15:-0.484778 
4.901489458100757 1:-0.498542 2:-0.105915 3:0.6575 4:-0.81975 5:-0.842704 6:0.0868438 7:0.75109 8:-0.819254 9:0.0213295 10:-0.406455 11:0.625403 12:-0.825302 13:0.00330601 14:0.212448 15:0.145699 
13.91769953349871 1:-0.851345 2:-0.24815 3:-0.120617 4:-0.879339 5:0.742302 6:0.415408 7:-0.883456 8:0.887491 9:0.607682 10:0.900996 11:0.852772 12:0.97824 13:0.160978 14:-0.209658 15:0.200469 
0.9567507417186146 1:-0.82229 2:0.28518 3:-0.00702173 4:-0.851233 5:-0.606373 6:-0.409353 7:-0.449015 8:0.448676 9:-0.607986 10:0.918534 11:0.593215 12:-0.696067 13:0.943767 14:-0.758088 15:-0.883248 
12.69493696599027 1:0.886232 2:0.295807 3:0.0307872 4:-0.371324 5:-0.239342 6:-0.392643 7:0.434248 8:0.836425 9:-0.725774 10:-0.762081 11:0.737007 12:0.340788 13:0.753848 14:-0.286721 15:0.25941 
5.191131172594101 1:-0.458613 2:0.22054 3:0.428345 4:-0.929209 5:-0.0632817 6:-0.850728 7:0.352247 8:0.673136 9:-0.385088 10:-0.735719 11:-0.240964 12:-0.316965 13:-0.596984 14:0.274815 15:0.384424 
25.93648467972267 1:0.128698 2:-0.61041 3:-0.186802 4:-0.9019 5:-0.258357 6:0.357672 7:0.155086 8:0.523063 9:0.990359 10:-0.353542 11:-0.450467 12:-0.411617 13:-0.734124 14:0.203403 15:0.198338 
15.23592287121747 1:0.878849 2:0.834799 3:0.0594725 4:-0.516232 5:0.573063 6:-0.0570583 7:-0.685638 8:-0.342247 9:0.491047 10:-0.240027 11:-0.756374 12:0.611552 13:-0.202638 14:-0.669035 15:-0.00608316 
32 1:-0.193408 2:0.600301 3:0.798083 4:-0.524311 5:-0.985182 6:-0.642383 7:-0.257485 8:0.0992316 9:-0.312097 10:0.908873 11:0.216981 12:0.70399 13:0.080679 14:0.457148 15:-0.928433 
8.302511315880162 1:0.53187 2:0.596568 3:0.342533 4:-0.128115 5:-0.440943 6:-0.818174 7:0.282646 8:0.116737 9:-0.315977 10:0.402078 11:0.751189 12:0.188471 13:0.737985 14:0.215037 15:-0.0635533 
15.06717654680359 1:-0.796598 2:-0.194903 3:0.582051 4:0.807156 5:-0.897889 6:-0.717841 7:0.750326 8:0.51655 9:-0.83491 10:0.983534 11:0.545236 12:-0.23745 13:-0.906127 14:0.684683 15:-0.953639 
32 1:-0.838145 2:0.0436616 3:0.821431 4:-0.927085 5:0.926485 6:0.00209893 7:-0.0465122 8:-0.195894 9:0.376917 10:-0.309286 11:-0.989607 12:-0.36522 13:0.690514 14:0.22591 15:0.38789 
32 1:-0.150201 2:-0.117625 3:0.994835 4:-0.793801 5:0.130999 6:0.99731 7:-0.277277 8:0.456003 9:0.390871 10:0.761766 11:-0.44765 12:0.941848 13:0.529763 14:0.0633801 15:-0.512393 
7.07177440763725 1:0.0382293 2:0.770428 3:0.291632 4:0.0272086 5:-0.505144 6:0.110218 7:-0.303133 8:0.895055 9:-0.653916 10:-0.0807143 11:0.952335 12:0.958586 13:-0.9895 14:-0.148678 15:-0.259143 
18.95803394051198 1:0.106756 2:0.77232 3:0.643642 4:-0.413144 5:0.0232138 6:-0.779773 7:0.931687 8:-0.666638 9:0.731628 10:-0.588732 11:-0.602024 12:0.32103 13:0.540656 14:-0.193745 15:0.661346 
20.09409044369754 1:0.00451607 2:0.467604 3:0.824476 4:-0.040678 5:-0.303989 6:0.95686 7:0.92001 8:-0.961557 9:-0.795565 10:-0.795553 11:0.118095 12:-0.592703 13:-0.368405 14:-0.462675 15:0.581506 
15.26805085911715 1:0.773407 2:0.0976676 3:-0.314446 4:0.85364 5:-0.59553 6:-0.766341 7:0.679978 8:0.804567 9:0.948025 10:0.656615 11:0.852948 12:0.539621 13:-0.930159 14:0.184304 15:-0.128849 
12.69582418212562 1:-0.57936 2:0.724741 3:-0.676604 4:0.454383 5:-0.665564 6:0.495192 7:-0.336542 8:-0.442293 9:0.934486 10:-0.132803 11:0.0683249 12:-0.861847 13:0.322848 14:-0.71393 15:-0.654588 
10.78276846168345 1:-0.978121 2:0.271156 3:-0.909476 4:0.833369 5:0.352389 6:-0.615551 7:-0.799132 8:-0.887946 9:0.966937 10:0.716403 11:0.652453 12:-0.607286 13:0.764204 14:0.931742 15:0.772601 
16.70702752046599 1:0.929637 2:0.648029 3:0.696721 4:-0.522912 5:-0.874358 6:0.252679 7:0.111774 8:-0.236354 9:0.522351 10:0.0114747 11:0.767346 12:-0.972443 13:0.141075 14:0.999918 15:0.906524 
32 1:0.259205 2:0.677889 3:0.955213 4:-0.549546 5:-0.856558 6:-0.757155 7:0.16714 8:0.96616 9:-0.089267 10:0.789693 11:-0.381326 12:-0.200422 13:0.646043 14:0.771097 15:-0.120741 
2.863775136227923 1:-0.164828 2:-0.584071 3:0.934421 4:-0.956411 5:-0.0905092 6:-0.191526 7:0.125196 8:0.0855147 9:-0.149281 10:-0.262038 11:0.715217 12:-0.743978 13:-0.784788 14:-0.580918 15:-0.425933 
16.93133366302628 1:-0.187408 2:0.502204 3:0.553477 4:-0.164418 5:0.0917091 6:0.954724 7:0.26588 8:-0.733523 9:0.274136 10:0.21369 11:0.487989 12:0.371883 13:0.8687 14:-0.157805 15:0.127687 
32 1:-0.802266 2:-0.171195 3:0.475432 4:-0.145856 5:-0.816761 6:0.104818 7:-0.379486 8:-0.757496 9:0.625677 10:0.847302 11:-0.287415 12:0.733476 13:0.836741 14:0.130712 15:0.0637588 
32 1:-0.436907 2:0.211292 3:-0.367387 4:0.619498 5:-0.628508 6:0.0054143 7:-0.098363 8:0.818216 9:0.397113 10:0.959602 11:-0.26082 12:-0.633847 13:0.204868 14:-0.682676 15:-0.478439 
12.71837419583722 1:0.729004 2:-0.00947233 3:-0.219219 4:0.555323 5:-0.442616 6:0.705478 7:0.439682 8:0.874103 9:0.71381 10:0.972795 11:-0.868005 12:-0.00184827 13:-0.041235 14:0.537966 15:0.0358602 
32 1:0.992656 2:0.917349 3:0.00163878 4:0.336869 5:0.657251 6:0.184595 7:-0.278602 8:-0.636484 9:-0.703965 10:-0.354666 11:0.344905 12:-0.0991142 13:0.0956163 14:-0.344589 15:0.983149 
20.76186992809646 1:0.357993 2:0.47632 3:-0.216153 4:-0.714724 5:-0.495336 6:-0.153762 7:-0.979025 8:0.331461 9:0.701826 10:0.329653 11:-0.418751 12:0.676864 13:0.261408 14:-0.935269 15:0.375362 
29.47828770512833 1:0.770053 2:0.682628 3:-0.369271 4:-0.50116 5:0.383418 6:-0.322679 7:0.458599 8:-0.316302 9:0.0988202 10:-0.249124 11:-0.576568 12:-0.659488 13:-0.657357 14:-0.561219 15:0.554606 
7.991091109646921 1:0.238795 2:0.689262 3:-0.675901 4:0.780442 5:0.931678 6:-0.791602 7:0.325721 8:0.719432 9:0.457898 10:-0.394151 11:-0.4413 12:-0.669105 13:-0.000969695 14:0.786549 15:0.319369 
15.20469699925111 1:0.104559 2:0.66627 3:0.234175 4:-0.948136 5:0.654934 6:-0.490887 7:-0.815488 8:-0.835577 9:-0.487553 10:0.0748387 11:-0.947514 12:0.27179 13:-0.964876 14:-0.552843 15:0.700047 
22.71918910226517 1:-0.151087 2:0.969677 3:-0.664276 4:0.837651 5:0.130983 6:-0.551111 7:-0.605599 8:-0.385298 9:-0.874382 10:0.79104 11:0.700635 12:0.259946 13:0.827092 14:-0.100149 15:-0.271075 
12.87251569146362 1:-0.495042 2:0.842182 3:-0.0477994 4:-0.89649 5:0.479719 6:-0.0782443 7:-0.642958 8:0.994519 9:0.837464 10:-0.578486 11:-0.905981 12:0.318606 13:0.708599 14:-0.621716 15:0.951379 
4.018086198356217 1:-0.923527 2:0.192605 3:0.518704 4:0.0675787 5:0.00419661 6:0.306244 7:0.442083 8:-0.463115 9:-0.761844 10:0.974148 11:0.674766 12:-0.721005 13:-0.031956 14:0.975781 15:0.647983 
32 1:0.984723 2:0.614196 3:0.217793 4:0.306493 5:-0.190845 6:0.234433 7:0.444133 8:0.174703 9:-0.578836 10:-0.984262 11:-0.110294 12:0.879322 13:-0.392953 14:-0.167702 15:0.783134 
2.966894437043844 1:-0.163329 2:0.600557 3:-0.913653 4:0.906105 5:-0.595008 6:-0.0751207 7:0.887581 8:0.175366 9:0.163172 10:-0.323479 11:0.376787 12:0.00192774 13:0.941858 14:0.885573 15:-0.477928 
6.394572084105307 1:0.808431 2:0.85545 3:-0.549082 4:-0.641579 5:0.984956 6:-0.774013 7:0.292966 8:-0.24805 9:-0.318065 10:-0.648766 11:-0.472392 12:-0.689417 13:0.206116 14:0.0246752 15:-0.370169 
23.88675543361711 1:-0.515643 2:0.750089 3:-0.234808 4:0.984463 5:0.634037 6:0.112513 7:-0.269351 8:-0.978185 9:-0.598012 10:-0.990012 11:-0.744211 12:-0.349563 13:0.0744703 14:-0.366718 15:0.126513 
0.544198429964123 1:-0.845997 2:0.34195 3:0.906821 4:-0.474025 5:-0.928063 6:0.880774 7:0.617081 8:0.156889 9:0.0966016 10:0.665123 11:-0.341684 12:0.912928 13:-0.592938 14:0.573025 15:0.950382 
3.015516227209268 1:-0.299522 2:0.046095 3:0.416914 4:-0.495957 5:0.803193 6:0.803431 7:-0.0974252 8:-0.828793 9:0.0283445 10:-0.737743 11:-0.319674 12:-0.800308 13:0.644446 14:0.372757 15:-0.861339 
29.92555271305218 1:0.294456 2:-0.225778 3:0.340753 4:-0.938877 5:-0.197274 6:0.203348 7:0.608205 8:-0.0360697 9:-0.174435 10:-0.178053 11:-0.0151218 12:-0.722316 13:-0.865389 14:0.492625 15:-0.171282 
8.281230367791673 1:-0.624229 2:0.57349 3:-0.0575596 4:0.985481 5:0.864412 6:-0.962464 7:0.35209 8:0.448726 9:-0.848253 10:-0.563394 11:-0.880912 12:0.388753 13:-0.274795 14:-0.796723 15:0.69486 
32 1:-0.751923 2:0.496729 3:-0.100523 4:0.619687 5:0.261767 6:-0.555586 7:0.25759 8:0.733993 9:0.41788 10:0.95372 11:-0.455173 12:0.674972 13:-0.361919 14:0.614753 15:0.597946 
22.14551457422282 1:-0.875163 2:0.283605 3:0.675683 4:-0.606399 5:-0.641175 6:-0.662439 7:0.895722 8:-0.987028 9:-0.819694 10:-0.0865342 11:-0.0876512 12:0.16824 13:-0.862312 14:0.856946 15:0.986124 
17.13122465360577 1:0.723003 2:0.504072 3:-0.603138 4:0.919079 5:-0.922744 6:0.553587 7:-0.482355 8:-0.15697 9:-0.700995 10:-0.932346 11:0.521139 12:0.436859 13:0.391055 14:0.685928 15:0.741598 
4.634233031975743 1:0.497017 2:0.84174 3:-0.313032 4:-0.577849 5:0.564517 6:0.707263 7:-0.910746 8:0.732801 9:-0.0541896 10:-0.644042 11:-0.627307 12:0.43921 13:-0.445076 14:0.839601 15:0.538281 
17.97332672610653 1:0.678954 2:0.722819 3:-0.244786 4:0.787896 5:-0.62033 6:0.486973 7:-0.69578 8:0.198697 9:0.47631 10:0.393916 11:-0.72122 12:-0.924838 13:-0.0456834 14:0.968554 15:-0.743316 
6.359156542190729 1:-0.574624 2:0.48239 3:0.0590864 4:0.30081 5:-0.120833 6:0.531825 7:0.679606 8:0.871632 9:-0.420231 10:-0.832992 11:-0.960316 12:0.64996 13:-0.289495 14:-0.807719 15:0.494212 
4.115110243949813 1:-0.222621 2:0.965584 3:-0.129904 4:0.631289 5:-0.628524 6:0.982959 7:0.949321 8:0.971321 9:0.574517 10:-0.876004 11:0.750042 12:-0.272997 13:-0.028111 14:-0.553179 15:0.479871 
21.97783940303233 1:-0.349135 2:0.237778 3:0.302863 4:-0.652691 5:0.587047 6:0.831815 7:0.317736 8:0.284755 9:-0.536893 10:-0.592825 11:0.856877 12:0.63414 13:-0.903069 14:-0.330478 15:-0.578855 
20.59868378967124 1:0.523999 2:0.328946 3:-0.272252 4:0.0845391 5:0.411662 6:0.344506 7:-0.171127 8:0.342831 9:0.994422 10:0.884747 11:0.427106 12:0.93998 13:0.0766563 14:-0.151144 15:0.255353 
1.777304947880924 1:0.185099 2:0.821184 3:-0.601742 4:-0.916265 5:-0.0877694 6:0.641445 7:-0.598983 8:-0.177967 9:-0.135477 10:0.983597 11:0.713255 12:0.00116828 13:0.559888 14:0.947219 15:0.573453 
32 1:-0.996276 2:0.591797 3:0.571822 4:0.0152368 5:0.846505 6:0.390831 7:0.288887 8:0.245979 9:-0.712636 10:0.242346 11:-0.2568 12:-0.870898 13:-0.889039 14:0.070795 15:0.268345 
16.94829164720871 1:-0.193603 2:0.902939 3:-0.507287 4:0.989598 5:-0.360432 6:-0.820999 7:-0.221073 8:-0.0419334 9:0.392979 10:-0.933487 11:0.489259 12:0.882492 13:0.766051 14:0.201633 15:0.307899 
27.10617788934573 1:0.82004 2:0.940911 3:0.177768 4:0.67138 5:0.0659598 6:0.781577 7:0.00880927 8:-0.147075 9:-0.553066 10:-0.418205 11:0.884383 12:-0.269294 13:-0.550232 14:-0.812426 15:-0.813067 
30.96631509673668 1:-0.820172 2:-0.482804 3:0.680321 4:-0.201608 5:-0.174863 6:0.826245 7:-0.490112 8:-0.157924 9:0.608573 10:0.230004 11:0.109516 12:-0.229929 13:-0.795625 14:0.897609 15:-0.946922 
21.64721255490534 1:0.240403 2:0.460782 3:0.740109 4:-0.264371 5:0.484611 6:0.959807 7:-0.63627 8:0.151379 9:-0.105063 10:0.277857 11:-0.0983102 12:0.0669866 13:-0.00126723 14:0.563816 15:0.915698 
32 1:0.494782 2:0.67938 3:0.719943 4:-0.938653 5:0.134743 6:-0.149009 7:0.994253 8:-0.294067 9:0.1611 10:0.179972 11:0.639131 12:0.145612 13:-0.0980641 14:-0.103336 15:0.277865 
32 1:-0.142283 2:0.482347 3:0.334512 4:0.246348 5:-0.517791 6:-0.654473 7:0.00859162 8:0.546077 9:0.423662 10:0.0330681 11:0.716422 12:-0.779651 13:-0.615008 14:0.239592 15:0.986141 
0.8728387836877112 1:-0.540076 2:-0.0633447 3:-0.0710802 4:-0.773543 5:-0.948146 6:0.980985 7:0.148198 8:0.788979 9:-0.475496 10:0.431198 11:0.131544 12:0.876725 13:0.995585 14:0.799462 15:-0.451836 
32 1:0.488905 2:0.412327 3:-0.482004 4:-0.011656 5:-0.363264 6:0.26962 7:0.763045 8:0.416376 9:0.711531 10:0.844866 11:0.510791 12:-0.612454 13:-0.104565 14:-0.815199 15:0.800279 
3.231569844193459 1:0.748028 2:0.481665 3:-0.117891 4:0.551454 5:0.413877 6:0.596404 7:0.0188493 8:0.831745 9:-0.641521 10:-0.545535 11:0.00273075 12:0.515542 13:-0.900947 14:-0.852423 15:0.492843 
2.259980979453137 1:-0.363751 2:0.472439 3:-0.375755 4:-0.578793 5:0.771349 6:0.792683 7:0.758386 8:-0.182981 9:0.0245326 10:0.909389 11:0.452324 12:-0.951857 13:-0.195422 14:0.0376205 15:-0.509375 
13.18317691687169 1:-0.373939 2:0.616021 3:-0.203651 4:0.614963 5:-0.758556 6:-0.770559 7:-0.49737 8:-0.486007 9:0.263837 10:-0.533596 11:-0.943551 12:0.0856463 13:0.807279 14:-0.617367 15:0.53548 
2.617216971077402 1:-0.303629 2:0.633322 3:0.307355 4:0.728819 5:-0.759837 6:-0.780563 7:0.673963 8:-0.194116 9:-0.239588 10:1.74295e-05 11:-0.647395 12:0.500681 13:0.0701462 14:-0.250766 15:-0.229593 
8.624720050811971 1:-0.135831 2:0.0515174 3:0.429214 4:0.639734 5:-0.315183 6:0.701348 7:0.254766 8:0.5066 9:0.356751 10:0.616435 11:0.715567 12:0.621318 13:-0.907318 14:-0.909552 15:0.666118 
7.075411222840084 1:0.27333 2:0.922917 3:-0.55296 4:0.183177 5:0.674822 6:0.785471 7:0.494883 8:-0.9286 9:-0.614514 10:-0.183576 11:-0.305533 12:-0.542362 13:-0.802429 14:-0.409449 15:-0.769611 
9.780847561105748 1:0.679362 2:0.30073 3:0.350444 4:0.199007 5:-0.695134 6:-0.722357 7:-0.0258925 8:-0.219126 9:0.792022 10:0.782062 11:-0.301436 12:0.725594 13:-0.332293 14:0.706673 15:-0.73056 
3.221744828310531 1:-0.182724 2:-0.0633518 3:0.241199 4:-0.779728 5:0.299109 6:-0.663951 7:-0.636935 8:-0.989572 9:-0.951717 10:-0.822769 11:-0.433486 12:-0.422023 13:0.561734 14:0.19421 15:-0.863441 
27.34372585038642 1:0.678436 2:0.846332 3:0.601552 4:-0.517991 5:0.1463 6:0.0824217 7:0.820857 8:-0.787833 9:0.575918 10:-0.0095085 11:0.0777842 12:-0.849901 13:0.398019 14:-0.251953 15:0.603879 
12.11874105681806 1:0.510442 2:-0.10659 3:0.441718 4:0.526771 5:0.489369 6:0.298685 7:0.558801 8:-0.955602 9:-0.975541 10:0.991985 11:-0.920455 12:-0.964998 13:-0.674884 14:-0.709395 15:-0.660627 
20.78140507120323 1:0.133007 2:0.833711 3:-0.100469 4:0.358556 5:0.428565 6:-0.265441 7:-0.905499 8:0.786523 9:-0.561081 10:0.00971588 11:0.611599 12:0.105384 13:0.76859 14:-0.461131 15:0.735528 
13.33129390274271 1:-0.644978 2:0.469779 3:0.212048 4:-0.284893 5:0.656539 6:-0.891968 7:0.642303 8:0.278006 9:0.194975 10:0.140486 11:0.559505 12:-0.511248 13:0.754443 14:-0.644773 15:-0.529956 
32 1:-0.885182 2:0.470551 3:0.373069 4:0.426644 5:-0.542564 6:0.248962 7:0.648279 8:-0.212472 9:-0.77132 10:0.881565 11:-0.899968 12:-0.436374 13:-0.455397 14:0.475427 15:-0.240841 
3.844619259151277 1:-0.588066 2:0.70581 3:0.000452444 4:-0.523103 5:0.899083 6:0.843536 7:0.456548 8:0.802543 9:-0.67778 10:0.797812 11:-0.339155 12:-0.565604 13:-0.282823 14:-0.656025 15:0.80425 
32 1:0.561691 2:0.676472 3:0.790375 4:-0.75506 5:-0.951982 6:0.850228 7:-0.474324 8:-0.748447 9:-0.595849 10:-0.940608 11:-0.519201 12:0.477109 13:0.140687 14:0.244975 15:0.127937 
0.4488257828398439 1:0.907691 2:0.910703 3:-0.188833 4:-0.511907 5:-0.973013 6:0.887128 7:-0.992014 8:0.104746 9:0.939568 10:0.331298 11:0.66093 12:-0.13193 13:0.529992 14:-0.318075 15:-0.189945 
32 1:-0.33612 2:0.123619 3:0.697017 4:0.0460173 5:-0.228418 6:-0.52781 7:-0.520183 8:0.263566 9:-0.214346 10:0.830652 11:0.729682 12:0.740784 13:-0.871595 14:0.0277804 15:-0.61663 
19.7142605286468 1:-0.153533 2:-0.888774 3:0.703933 4:-0.663685 5:0.0228612 6:-0.53766 7:0.305742 8:0.941786 9:0.720866 10:0.204413 11:-0.46441 12:0.0462968 13:-0.733315 14:-0.54273 15:0.936619 
30.54999336583137 1:0.122199 2:0.335079 3:0.314205 4:-0.777773 5:-0.67761 6:0.888649 7:0.365375 8:0.911988 9:-0.997044 10:0.677313 11:0.852357 12:-0.534996 13:0.957914 14:0.17004 15:0.28262 
9.827855336688199 1:-0.803392 2:0.149219 3:0.780504 4:0.528439 5:-0.0985888 6:0.601811 7:-0.620742 8:0.625334 9:0.646437 10:0.491572 11:-0.900527 12:0.799124 13:-0.665512 14:0.465489 15:-0.231814 
32 1:0.225717 2:0.326583 3:0.838633 4:0.699699 5:-0.669962 6:-0.585546 7:-0.907142 8:0.15405 9:0.275774 10:0.859268 11:-0.310713 12:-0.692628 13:0.0273178 14:-0.861713 15:0.356241 
1.714876030077965 1:0.37442 2:0.493329 3:0.159577 4:-0.49939 5:0.586873 6:-0.0557026 7:0.754796 8:-0.859076 9:-0.582026 10:0.493413 11:-0.660425 12:-0.142653 13:0.0369542 14:-0.439913 15:-0.600232 
3.346127874553805 1:-0.523131 2:0.470244 3:-0.310247 4:-0.522833 5:0.633013 6:0.515247 7:0.953277 8:-0.854049 9:-0.541401 10:0.730897 11:-0.178134 12:0.794839 13:-0.639346 14:-0.648551 15:-0.55357 
7.106008847041748 1:-0.290239 2:-0.727058 3:-0.0775228 4:-0.126238 5:0.102199 6:0.263203 7:-0.946799 8:-0.561009 9:0.611018 10:0.411907 11:-0.719353 12:0.0614238 13:-0.937307 14:-0.85032 15:-0.673211 
11.78577331411434 1:0.735139 2:-0.740069 3:0.299632 4:0.779753 5:0.0217343 6:-0.944247 7:-0.918813 8:-0.863927 9:0.464862 10:0.702041 11:-0.137069 12:0.0269367 13:-0.958791 14:-0.624421 15:0.585625 
32 1:0.0659667 2:0.312665 3:-0.737904 4:0.245103 5:-0.965068 6:0.546611 7:0.118024 8:0.154244 9:0.683231 10:0.666081 11:-0.866084 12:0.657333 13:-0.598417 14:0.757431 15:-0.382429 
32 1:-0.159089 2:0.772765 3:0.682621 4:0.0074673 5:-0.773738 6:0.55196 7:-0.0774404 8:-0.544446 9:0.273328 10:-0.495068 11:0.908506 12:-0.946627 13:0.789491 14:0.495492 15:-0.158467 
27.70996480795713 1:0.14791 2:0.916117 3:-0.497624 4:-0.823503 5:0.766576 6:-0.0683982 7:-0.455862 8:-0.845829 9:-0.103305 10:0.823669 11:0.232002 12:0.506651 13:-0.38504 14:0.916036 15:0.398068 
6.075128476294547 1:-0.982864 2:0.550915 3:0.844002 4:-0.423127 5:0.557121 6:0.334456 7:0.928462 8:-0.688732 9:-0.0556835 10:-0.146229 11:-0.796568 12:0.723563 13:-0.917519 14:-0.966951 15:0.233688 
29.59470925623158 1:0.520144 2:0.878997 3:-0.340618 4:-0.412133 5:-0.420794 6:0.578637 7:-0.132292 8:0.857854 9:-0.448417 10:-0.857961 11:0.372564 12:-0.422764 13:0.950705 14:-0.887428 15:-0.31663 
32 1:-0.507437 2:0.835816 3:0.231137 4:-0.656989 5:-0.136735 6:0.76307 7:-0.437802 8:0.621087 9:-0.0900158 10:-0.275995 11:0.999164 12:-0.307069 13:0.237369 14:-0.235301 15:0.992367 
32 1:-0.55211 2:0.785629 3:-0.0903493 4:-0.928439 5:0.904363 6:-0.10944 7:0.846531 8:0.322017 9:0.0661487 10:-0.337094 11:0.545875 12:-0.702955 13:-0.0934405 14:0.679709 15:-0.121252 
8.000964871523621 1:-0.425173 2:-0.566967 3:0.94651 4:-0.835283 5:-0.377197 6:0.0591657 7:-0.299525 8:0.768096 9:-0.759073 10:-0.698205 11:-0.977461 12:-0.482169 13:0.406536 14:0.248277 15:-0.440277 
9.977947812758117 1:-0.421881 2:-0.37219 3:0.839867 4:-0.145912 5:-0.677978 6:0.157744 7:0.0295183 8:0.744314 9:-0.0736183 10:0.190527 11:-0.352719 12:-0.861419 13:-0.538847 14:0.953774 15:-0.884605 
32 1:0.488738 2:0.426539 3:0.716251 4:-0.399071 5:-0.127034 6:0.775007 7:0.0345785 8:-0.847319 9:0.904735 10:0.910054 11:0.1757 12:0.924726 13:0.473306 14:-0.174708 15:-0.55863 
32 1:0.560662 2:0.998039 3:0.00300189 4:-0.183895 5:-0.0989834 6:-0.4926 7:0.434221 8:-0.681111 9:-0.796491 10:0.38478 11:0.764002 12:-0.32133 13:-0.467744 14:-0.754342 15:0.458252 
19.93211592262137 1:-0.0328316 2:-0.287133 3:-0.332251 4:-0.864586 5:-0.0420511 6:-0.17039 7:0.536052 8:0.236966 9:0.00902024 10:0.963748 11:-0.973349 12:-0.299603 13:-0.473663 14:0.807393 15:0.944836 
32 1:0.683549 2:0.446785 3:-0.0456288 4:-0.544726 5:-0.310291 6:-0.579352 7:-0.629832 8:-0.0140978 9:0.861738 10:-0.123708 11:-0.694268 12:-0.871523 13:-0.332082 14:0.893537 15:-0.480719 
4.241549416390865 1:0.293075 2:0.752921 3:-0.125593 4:0.423428 5:-0.960623 6:0.286588 7:-0.922505 8:0.565318 9:0.0721282 10:-0.290487 11:0.921747 12:0.0629935 13:0.230297 14:0.877544 15:-0.798266 
32 1:-0.948768 2:-0.0849992 3:0.450354 4:-0.706623 5:0.570445 6:0.398571 7:0.53582 8:0.889054 9:0.511882 10:0.070776 11:-0.496306 12:-0.34203 13:0.582024 14:-0.255635 15:-0.167021 
9.789932770556433 1:0.632737 2:0.94505 3:0.247441 4:0.123468 5:-0.976244 6:-0.878888 7:0.951059 8:0.0564227 9:-0.455218 10:0.0693323 11:-0.849339 12:0.712314 13:-0.803328 14:0.00141456 15:0.559556 
