svm_type c_svc
kernel_type rbf
gamma 0.03125
nr_class 2
total_sv 2445
rho 7.01758
label 1 0
nr_sv 1176 1269
SV
2048 1:-0.321926 2:0.953048 3:0.0752817 4:-0.170311 5:0.388599 6:0.598221 7:0.564895 8:-0.825506 9:0.539569 10:0.200298 11:-0.437069 12:0.897551 13:-0.095434 14:-0.483594 
382.6749861876079 1:-0.448216 2:0.97685 3:0.374683 4:-0.993348 5:0.920533 6:-0.185473 7:-0.0375369 8:-0.217903 9:0.655347 10:0.563388 11:0.894792 12:0.83938 13:0.82547 14:-0.417735 
2048 1:-0.559741 2:-0.541151 3:-0.400853 4:-0.881709 5:0.163954 6:-0.144255 7:0.562684 8:-0.829907 9:-0.194022 10:-0.488395 11:-0.368418 12:0.250889 13:-0.359671 14:0.91019 
2048 1:-0.209511 2:0.733206 3:0.317435 4:-0.842181 5:-0.786381 6:-0.690444 7:0.64087 8:-0.351493 9:0.486976 10:0.221093 11:-0.955324 12:-0.959862 13:0.250363 14:-0.232204 
2048 1:-0.0196576 2:0.928169 3:0.607762 4:-0.662694 5:-0.205331 6:-0.401225 7:0.121074 8:0.962833 9:0.216724 10:-0.708283 11:-0.801609 12:0.322237 13:0.662967 14:0.889855 
2048 1:-0.207743 2:-0.992598 3:-0.273563 4:-0.6372 5:0.519446 6:0.657761 7:-0.419984 8:0.272407 9:-0.342627 10:0.542314 11:-0.30461 12:0.599583 13:0.878329 14:0.946421 
2048 1:-0.455166 2:-0.981033 3:-0.875486 4:-0.640711 5:0.174845 6:-0.667094 7:0.406962 8:0.924246 9:0.413033 10:-0.0275486 11:-0.638488 12:0.0754111 13:0.728829 14:0.190363 
2048 1:-0.384262 2:-0.357472 3:0.564852 4:-0.890214 5:0.435597 6:-0.804505 7:-0.0857491 8:0.0511706 9:0.921198 10:0.419776 11:-0.840469 12:0.995733 13:-0.267816 14:0.477849 
1188.321955529436 1:0.862793 2:0.703222 3:-0.130139 4:-0.400112 5:-0.287677 6:0.646079 7:-0.310505 8:0.641929 9:0.888377 10:0.664282 11:-0.876059 12:-0.332395 13:0.525039 14:0.501277 
2048 1:0.540205 2:-0.0987559 3:-0.435801 4:-0.630054 5:-0.904439 6:0.120499 7:0.646823 8:-0.478801 9:0.839511 10:0.682305 11:-0.959359 12:0.499867 13:0.805029 14:0.848886 
2048 1:-0.955812 2:-0.650342 3:-0.336506 4:-0.667469 5:0.208265 6:-0.0341168 7:0.747089 8:-0.347265 9:0.226464 10:0.299578 11:0.609821 12:-0.874951 13:-0.337528 14:0.851758 
1229.553904227723 1:-0.705844 2:-0.741429 3:0.979697 4:-0.867293 5:0.971631 6:0.440827 7:0.666583 8:-0.796422 9:0.339254 10:0.198277 11:-0.777645 12:-0.203465 13:0.69852 14:0.40992 
931.3153061314633 1:-0.0466962 2:-0.696434 3:0.44901 4:0.100648 5:-0.252896 6:0.923669 7:0.791584 8:-0.742755 9:0.788428 10:0.76466 11:-0.790287 12:-0.2018 13:-0.626993 14:-0.324332 
2048 1:-0.591319 2:-0.378661 3:0.350622 4:-0.80817 5:-0.572256 6:0.916227 7:0.312232 8:-0.764493 9:0.651503 10:0.244562 11:-0.875593 12:0.773814 13:0.137855 14:0.279164 
2048 1:0.560826 2:-0.163947 3:0.650581 4:0.435827 5:0.529541 6:0.548376 7:0.868989 8:0.0133933 9:-0.921485 10:-0.264825 11:-0.498713 12:0.409158 13:0.667007 14:-0.557449 
886.6301009378292 1:-0.0207467 2:-0.620408 3:0.497657 4:-0.844659 5:-0.45716 6:0.296346 7:-0.477519 8:-0.841924 9:0.982416 10:0.392701 11:-0.707583 12:-0.0275364 13:0.943254 14:-0.785825 
241.3156514129683 1:0.812941 2:0.856129 3:0.976486 4:-0.612374 5:-0.448318 6:-0.19053 7:0.416327 8:0.683907 9:-0.6172 10:-0.36688 11:0.0780794 12:0.881974 13:-0.539365 14:-0.582658 
360.9774250920939 1:0.933014 2:0.993423 3:0.485583 4:0.609229 5:-0.438318 6:0.506426 7:0.466745 8:-0.916515 9:-0.787296 10:-0.187861 11:-0.655609 12:0.928222 13:0.26088 14:0.166976 
2048 1:0.281912 2:0.650512 3:0.426263 4:-0.761114 5:-0.765652 6:0.177445 7:0.181389 8:-0.163678 9:-0.587841 10:0.962644 11:-0.33003 12:0.296005 13:0.825896 14:0.404869 
2048 1:-0.71703 2:0.627738 3:0.285633 4:-0.755502 5:-0.00471016 6:-0.352306 7:-0.123187 8:-0.896551 9:-0.993263 10:-0.713079 11:0.311447 12:0.820557 13:0.141483 14:-0.411215 
2048 1:0.0682548 2:0.590836 3:-0.977161 4:-0.573577 5:-0.847302 6:0.415724 7:-0.76429 8:-0.894208 9:0.268551 10:0.186485 11:-0.822118 12:-0.228537 13:0.0404319 14:-0.194763 
573.3293867994938 1:0.832618 2:0.891836 3:0.597626 4:-0.431308 5:-0.388558 6:-0.613033 7:-0.912429 8:-0.880689 9:0.0887162 10:0.198823 11:-0.483233 12:0.83123 13:0.137768 14:-0.456301 
2048 1:0.740262 2:-0.781808 3:-0.668911 4:-0.392331 5:-0.0802048 6:-0.541222 7:-0.0473192 8:-0.250611 9:-0.427204 10:-0.64227 11:0.969059 12:0.82527 13:0.820853 14:0.345479 
2048 1:-0.155399 2:-0.993829 3:-0.227969 4:0.941802 5:-0.622421 6:-0.553427 7:-0.484845 8:0.524192 9:0.73649 10:0.691428 11:-0.720906 12:0.3265 13:0.199768 14:-0.180843 
325.130870355895 1:0.956091 2:0.974385 3:0.958897 4:-0.992927 5:-0.967491 6:-0.735163 7:0.456031 8:0.474821 9:0.200866 10:0.840929 11:-0.859748 12:-0.0883712 13:0.465593 14:0.894491 
2048 1:-0.816107 2:-0.9871 3:-0.645847 4:0.639563 5:0.197502 6:-0.576788 7:0.509099 8:0.900188 9:-0.821859 10:-0.727012 11:-0.765441 12:-0.334926 13:-0.296453 14:-0.132595 
2048 1:-0.57235 2:-0.369908 3:-0.146073 4:-0.268484 5:-0.566178 6:-0.855719 7:-0.716666 8:-0.798143 9:0.959007 10:0.932306 11:0.676764 12:-0.646709 13:-0.593007 14:-0.360967 
1380.840772165152 1:0.565546 2:0.66273 3:0.790415 4:-0.962085 5:-0.755126 6:-0.33591 7:-0.284328 8:0.383639 9:-0.555345 10:-0.936725 11:-0.592666 12:0.780051 13:-0.892058 14:-0.871959 
2048 1:-0.392084 2:-0.89818 3:0.951508 4:-0.00253678 5:0.371995 6:-0.859126 7:-0.365982 8:-0.0183203 9:0.993495 10:0.685627 11:-0.571747 12:-0.86932 13:-0.0395298 14:0.341604 
2048 1:-0.870122 2:0.358513 3:0.144261 4:0.315916 5:0.257265 6:-0.0738262 7:-0.765831 8:0.0400905 9:-0.861493 10:-0.409426 11:-0.822478 12:-0.126991 13:0.149406 14:-0.778702 
2048 1:0.668738 2:0.500307 3:-0.649424 4:-0.579262 5:0.675374 6:0.969482 7:0.060963 8:0.532736 9:0.766007 10:0.605814 11:-0.706617 12:0.355658 13:-0.283805 14:-0.247873 
498.2013269277669 1:-0.317674 2:0.964994 3:0.592811 4:-0.976753 5:-0.22 6:0.566557 7:-0.457441 8:-0.723785 9:0.61566 10:-0.975874 11:-0.215343 12:-0.395851 13:-0.0746492 14:-0.100518 
771.8800079025594 1:-0.523084 2:-0.687865 3:0.361386 4:-0.86831 5:-0.497305 6:-0.485912 7:0.603618 8:-0.7351 9:0.761392 10:0.437704 11:-0.759563 12:-0.207762 13:0.534373 14:-0.955659 
2048 1:-0.0220376 2:0.859567 3:0.449017 4:-0.576256 5:0.675319 6:0.225091 7:-0.564357 8:0.331583 9:0.684917 10:-0.678233 11:-0.586542 12:0.598409 13:-0.719467 14:0.764199 
2048 1:-0.674291 2:-0.50287 3:-0.383247 4:0.776442 5:-0.180816 6:-0.0242165 7:-0.231711 8:-0.637911 9:-0.998425 10:-0.237035 11:-0.621289 12:-0.756284 13:-0.311035 14:0.0728887 
2048 1:-0.671327 2:-0.775978 3:-0.175171 4:-0.523639 5:0.566443 6:0.574523 7:-0.158132 8:-0.573642 9:-0.289667 10:0.913841 11:-0.656435 12:0.89105 13:-0.699243 14:-0.311782 
2048 1:-0.506466 2:-0.78144 3:-0.431732 4:0.447499 5:-0.496087 6:0.183218 7:0.538568 8:-0.565237 9:0.796789 10:0.00511234 11:0.19843 12:-0.404982 13:0.453595 14:0.603116 
2048 1:-0.0824481 2:-0.924532 3:-0.472521 4:-0.546032 5:0.501176 6:-0.289251 7:-0.194091 8:0.412989 9:0.602018 10:0.163425 11:0.410209 12:0.064225 13:-0.631598 14:-0.642481 
2048 1:0.285172 2:0.581216 3:0.0741341 4:0.476148 5:-0.522925 6:-0.217047 7:-0.772787 8:0.840023 9:-0.842408 10:-0.787843 11:-0.716883 12:-0.999743 13:-0.271912 14:0.17113 
2048 1:0.0642204 2:0.261789 3:-0.259131 4:-0.993028 5:0.836337 6:-0.888778 7:-0.506926 8:-0.405967 9:0.879877 10:0.506793 11:-0.650923 12:-0.0059026 13:0.303938 14:0.0790718 
82.49625868440485 1:-0.226769 2:-0.959598 3:-0.874473 4:-0.608357 5:-0.848034 6:0.869122 7:-0.239369 8:-0.720301 9:-0.344181 10:-0.0568143 11:-0.086424 12:0.620008 13:-0.90488 14:-0.772694 
2048 1:-0.0346558 2:0.793911 3:0.286721 4:-0.214574 5:0.0481432 6:0.291593 7:0.289354 8:0.220024 9:-0.441268 10:-0.408364 11:-0.684394 12:0.37458 13:0.253341 14:-0.363904 
2048 1:-0.418113 2:-0.670082 3:-0.34055 4:-0.411921 5:0.325399 6:-0.111903 7:0.24112 8:0.484914 9:0.860983 10:0.42505 11:-0.167982 12:-0.201248 13:-0.931709 14:-0.138593 
2048 1:-0.764996 2:-0.826632 3:-0.585419 4:-0.619925 5:0.332228 6:-0.855692 7:0.620217 8:0.72824 9:0.540243 10:-0.172368 11:-0.343543 12:0.097274 13:0.42935 14:-0.993127 
1486.153573419032 1:-0.67633 2:-0.0748144 3:0.166738 4:0.00932829 5:0.242441 6:0.159955 7:0.399853 8:-0.321938 9:-0.953433 10:-0.30235 11:-0.696582 12:0.751424 13:-0.144565 14:0.48673 
174.9552529220013 1:0.267962 2:0.570631 3:-0.145688 4:0.607702 5:0.352788 6:-0.867608 7:0.230035 8:-0.967034 9:0.906729 10:-0.0707828 11:-0.612057 12:0.887668 13:-0.468201 14:-0.898971 
2048 1:-0.217891 2:-0.848532 3:0.0496832 4:-0.582734 5:0.370088 6:0.134048 7:-0.80792 8:0.448366 9:-0.516597 10:-0.594911 11:-0.851932 12:-0.194123 13:-0.157152 14:0.230142 
2048 1:0.203384 2:0.408591 3:-0.598635 4:-0.820693 5:-0.912284 6:-0.250039 7:0.324293 8:-0.659207 9:0.52583 10:0.0242822 11:-0.775201 12:0.70921 13:-0.364179 14:-0.456596 
867.9807568143452 1:0.136901 2:-0.193507 3:-0.10412 4:-0.932051 5:-0.656251 6:0.723476 7:0.00427982 8:-0.994692 9:0.972723 10:0.163034 11:-0.229739 12:0.224488 13:-0.639759 14:0.904716 
2048 1:-0.791621 2:-0.928311 3:-0.230923 4:0.0983556 5:0.387053 6:-0.655493 7:-0.728535 8:-0.592113 9:-0.848491 10:0.100113 11:0.994615 12:0.162396 13:0.972611 14:-0.766226 
1974.316486705452 1:0.821264 2:-0.222686 3:0.881929 4:0.114431 5:-0.738897 6:-0.915308 7:-0.597527 8:-0.880285 9:0.503749 10:0.211278 11:-0.485391 12:0.798234 13:-0.277532 14:-0.29069 
2048 1:0.984814 2:0.197188 3:-0.659816 4:0.307978 5:-0.312957 6:0.764619 7:0.270547 8:-0.779359 9:-0.744399 10:-0.169698 11:-0.6321 12:-0.727317 13:0.129615 14:0.310696 
2048 1:0.871446 2:-0.995062 3:-0.294399 4:0.0254686 5:-0.83154 6:0.207698 7:0.833679 8:-0.505553 9:0.960947 10:0.951028 11:0.176825 12:0.449783 13:0.732378 14:-0.499108 
2048 1:0.291742 2:0.865443 3:0.775513 4:-0.601554 5:0.302384 6:0.0347252 7:-0.699964 8:0.359178 9:-0.247214 10:0.0280317 11:-0.704712 12:-0.10547 13:-0.91844 14:-0.0150835 
2048 1:-0.684685 2:0.0937131 3:0.503527 4:-0.39882 5:0.684647 6:-0.889569 7:0.678416 8:-0.546421 9:-0.930247 10:-0.310443 11:-0.663492 12:0.830546 13:0.14046 14:-0.250121 
1990.298784095142 1:-0.942206 2:-0.886737 3:-0.633305 4:-0.747081 5:-0.668545 6:0.834658 7:-0.874484 8:-0.0168266 9:0.180023 10:0.210653 11:0.150878 12:-0.850389 13:0.0696201 14:-0.840689 
2048 1:0.0530634 2:-0.365216 3:-0.63314 4:0.548555 5:0.647543 6:0.447456 7:-0.82181 8:-0.642846 9:0.594175 10:0.398273 11:-0.463337 12:-0.144107 13:-0.360967 14:0.095376 
2048 1:-0.406572 2:0.38019 3:0.943799 4:0.00256992 5:-0.439698 6:-0.650492 7:-0.434281 8:0.423518 9:0.779995 10:0.872178 11:-0.924567 12:0.244645 13:0.639509 14:-0.123713 
2048 1:-0.569611 2:-0.926702 3:0.692531 4:0.836887 5:0.976918 6:-0.316945 7:0.928942 8:-0.546408 9:0.967068 10:-0.519001 11:0.165773 12:0.800318 13:0.491009 14:-0.522666 
2048 1:-0.430808 2:-0.613332 3:0.820632 4:0.0636312 5:-0.55961 6:-0.0566763 7:0.309504 8:0.571497 9:0.955916 10:0.221146 11:-0.905053 12:-0.621206 13:0.94879 14:0.30883 
2048 1:-0.723546 2:0.685067 3:-0.333546 4:0.615852 5:0.584495 6:-0.624649 7:0.34948 8:0.587282 9:0.922655 10:0.943043 11:-0.368744 12:0.979626 13:0.836555 14:0.0371054 
2048 1:-0.635249 2:0.85033 3:0.695932 4:-0.714008 5:-0.296466 6:-0.713642 7:0.0345435 8:0.526769 9:0.806637 10:0.213207 11:0.208349 12:0.610264 13:0.162582 14:-0.421478 
270.4330628047807 1:-0.96263 2:0.832521 3:-0.133873 4:-0.714806 5:-0.353674 6:-0.0110485 7:0.0951078 8:-0.702348 9:0.00174153 10:0.240282 11:-0.773161 12:1 13:-0.225707 14:0.688352 
2048 1:-0.59058 2:-0.799548 3:0.345753 4:-0.152996 5:0.484869 6:-0.0776958 7:-0.892808 8:-0.877527 9:0.798197 10:-0.0526579 11:-0.576883 12:-0.822008 13:0.856888 14:-0.640239 
2048 1:-0.151541 2:0.878313 3:0.17148 4:-0.775249 5:0.755363 6:-0.341076 7:-0.599896 8:0.0880766 9:-0.674942 10:0.709134 11:-0.818241 12:-0.929914 13:-0.333403 14:-0.286817 
2048 1:-0.045264 2:0.970808 3:0.244969 4:-0.826591 5:-0.651355 6:0.634136 7:-0.282222 8:0.520568 9:0.0253487 10:0.613623 11:-0.485914 12:-0.775345 13:-0.502471 14:-0.819562 
61.94058162856594 1:0.412998 2:0.940449 3:0.903836 4:-0.505566 5:-0.0402048 6:-0.707079 7:-0.625368 8:0.486853 9:0.878488 10:-0.905951 11:0.985206 12:0.753453 13:0.1642 14:-0.658142 
2048 1:0.122421 2:-0.0563739 3:-0.323026 4:-0.680216 5:0.395567 6:-0.779976 7:0.64524 8:-0.77634 9:0.857336 10:0.349187 11:-0.213416 12:0.00407373 13:-0.868339 14:-0.201756 
1299.622985995913 1:0.438009 2:0.883384 3:0.836219 4:-0.786985 5:-0.538676 6:-0.685456 7:-0.161894 8:-0.941748 9:-0.836001 10:0.232515 11:0.952939 12:-0.367819 13:-0.56024 14:0.799653 
727.6756156725016 1:0.520358 2:-0.889124 3:-0.761347 4:-0.993579 5:-0.741883 6:0.28552 7:-0.617447 8:0.235232 9:-0.0373155 10:0.816845 11:-0.965573 12:0.334122 13:0.247666 14:-0.96281 
2048 1:-0.524672 2:-0.244967 3:0.331114 4:0.0617155 5:0.776614 6:0.25197 7:0.916667 8:-0.254682 9:0.889258 10:0.245355 11:-0.99741 12:0.512035 13:-0.682033 14:0.438186 
1857.020868859582 1:0.607193 2:0.668543 3:0.986713 4:-0.399084 5:-0.207851 6:0.733311 7:-0.57708 8:-0.613098 9:-0.893553 10:-0.332299 11:-0.363861 12:-0.186648 13:0.194585 14:-0.147008 
596.248998116563 1:-0.518058 2:-0.933705 3:-0.0455768 4:-0.719036 5:0.74193 6:0.736447 7:0.291879 8:-0.490806 9:-0.72485 10:0.876872 11:-0.591189 12:-0.583741 13:-0.693808 14:-0.800551 
2048 1:0.164213 2:0.914861 3:0.709092 4:-0.205968 5:0.650035 6:0.585249 7:0.0958418 8:0.836192 9:0.0287453 10:-0.776477 11:-0.500382 12:-0.200484 13:-0.557661 14:-0.11714 
2048 1:-0.871443 2:-0.577635 3:-0.110526 4:-0.476218 5:0.0867869 6:-0.577312 7:-0.87176 8:0.619425 9:-0.965802 10:0.91319 11:-0.113417 12:0.300613 13:0.0417302 14:0.892132 
913.5738470755513 1:0.244706 2:0.555163 3:0.359177 4:-0.883406 5:-0.388155 6:0.928637 7:-0.260174 8:0.58831 9:-0.650618 10:-0.381439 11:-0.782882 12:0.729995 13:0.784548 14:-0.0198119 
2048 1:-0.969675 2:-0.911748 3:-0.0901911 4:-0.560285 5:0.451972 6:0.999507 7:0.895025 8:-0.0826958 9:-0.218796 10:-0.585657 11:0.19709 12:0.867362 13:-0.975152 14:-0.676869 
795.9316699187445 1:-0.779871 2:-0.963633 3:-0.367625 4:-0.208046 5:-0.130846 6:0.206505 7:0.339555 8:-0.294103 9:-0.432063 10:-0.703698 11:0.304451 12:-0.306044 13:0.264625 14:0.539311 
2048 1:0.227636 2:0.0546234 3:-0.504001 4:-0.385983 5:-0.503968 6:-0.745721 7:-0.0399516 8:0.118551 9:0.967551 10:0.72685 11:-0.566494 12:0.676071 13:0.324106 14:0.118188 
2048 1:0.516855 2:0.483478 3:0.231177 4:0.525984 5:0.916832 6:-0.124368 7:0.157266 8:-0.286808 9:-0.67568 10:-0.453198 11:-0.756996 12:-0.346517 13:-0.086166 14:-0.166627 
187.1996841105982 1:-0.30347 2:-0.702543 3:-0.446229 4:-0.575043 5:-0.502122 6:0.421372 7:0.30964 8:-0.898318 9:0.711984 10:0.862351 11:-0.141365 12:-0.334292 13:-0.647673 14:0.812081 
1358.420191747663 1:-0.869704 2:0.276937 3:0.93597 4:-0.636767 5:-0.113728 6:-0.0701566 7:0.858384 8:-0.920529 9:0.725858 10:0.0311089 11:-0.31855 12:0.604582 13:-0.333343 14:-0.538685 
241.0551973147394 1:0.201331 2:0.899984 3:0.329175 4:-0.803547 5:0.930083 6:-0.380195 7:0.00869131 8:0.127335 9:0.947014 10:-0.363375 11:0.792206 12:0.0781607 13:-0.589093 14:-0.464045 
2048 1:-0.128738 2:0.348123 3:-0.80252 4:-0.336337 5:-0.730961 6:0.601291 7:-0.286575 8:0.637275 9:0.885938 10:0.781075 11:-0.449925 12:-0.532135 13:-0.489272 14:0.0729435 
2048 1:0.860932 2:-0.918828 3:-0.00375191 4:-0.55992 5:-0.430808 6:-0.841471 7:0.631534 8:-0.491717 9:0.939056 10:0.125982 11:-0.390612 12:0.0273874 13:-0.418418 14:0.927944 
2048 1:0.510506 2:0.465961 3:0.727985 4:0.550316 5:0.6433 6:0.00266951 7:-0.155414 8:-0.154352 9:0.754413 10:0.744641 11:-0.791743 12:0.932386 13:0.35634 14:0.0997391 
754.8987947148354 1:0.606628 2:0.495049 3:0.998864 4:0.0653109 5:0.950642 6:0.107546 7:-0.825379 8:0.587329 9:0.965934 10:0.549813 11:-0.614434 12:0.902031 13:0.453247 14:-0.465872 
2048 1:0.288406 2:-0.966328 3:0.412684 4:0.500693 5:0.442138 6:0.400461 7:0.120527 8:0.595995 9:-0.804736 10:-0.545081 11:-0.781898 12:0.563111 13:0.613533 14:-0.415593 
2048 1:-0.0941383 2:0.238403 3:0.735374 4:0.690034 5:0.105044 6:-0.762578 7:0.223831 8:-0.0988388 9:0.877833 10:0.333562 11:-0.338374 12:0.337252 13:-0.71118 14:-0.308014 
724.6478053947463 1:-0.839856 2:-0.841852 3:-0.505577 4:0.804211 5:0.511414 6:0.375301 7:0.241516 8:0.921483 9:-0.970514 10:-0.662851 11:-0.742881 12:-0.82134 13:-0.152468 14:-0.389478 
1170.726084711484 1:-0.928994 2:0.922821 3:-0.499218 4:-0.713744 5:-0.398422 6:-0.889968 7:0.23107 8:-0.848799 9:0.161479 10:0.159854 11:-0.822983 12:0.672263 13:-0.363021 14:-0.143855 
1181.236624986923 1:-0.997634 2:0.691498 3:0.0588385 4:-0.466993 5:0.444186 6:0.649994 7:-0.48939 8:-0.343176 9:-0.725026 10:0.0894435 11:-0.973305 12:0.584449 13:0.988563 14:0.22038 
1659.204503394855 1:0.924934 2:0.972801 3:0.513546 4:-0.23317 5:-0.0648251 6:-0.0515338 7:0.67603 8:0.467589 9:0.731526 10:0.635523 11:-0.99151 12:-0.565424 13:0.31519 14:-0.611612 
2048 1:-0.41037 2:0.241355 3:0.35438 4:-0.335281 5:-0.275405 6:-0.0646493 7:-0.443786 8:0.0108077 9:0.976297 10:0.60164 11:-0.40285 12:-0.749965 13:-0.345072 14:0.279223 
1152.584503879933 1:-0.323987 2:-0.929498 3:-0.564672 4:-0.408449 5:-0.0218662 6:-0.550226 7:0.453389 8:0.56282 9:-0.560106 10:0.985852 11:0.00068522 12:0.85018 13:-0.61308 14:0.596429 
851.730740557946 1:0.4635 2:0.446722 3:0.108733 4:0.152226 5:-0.670783 6:-0.861099 7:0.806629 8:-0.685748 9:-0.972898 10:-0.366047 11:-0.828793 12:-0.141763 13:0.0840537 14:0.474936 
2048 1:-0.634944 2:0.538265 3:0.313283 4:-0.876625 5:-0.572549 6:-0.267546 7:0.0774192 8:-0.28405 9:-0.871584 10:0.58353 11:-0.158435 12:-0.599184 13:-0.0743896 14:0.910879 
2048 1:-0.398687 2:-0.872943 3:-0.910796 4:-0.638554 5:-0.139713 6:0.186609 7:0.898573 8:0.13652 9:0.661977 10:0.519974 11:-0.445076 12:0.799519 13:0.719772 14:-0.264648 
217.1615551904813 1:0.401293 2:-0.703538 3:-0.163409 4:-0.406544 5:0.354286 6:-0.343973 7:-0.385339 8:-0.311151 9:-0.859953 10:-0.302774 11:-0.592054 12:-0.776697 13:-0.410762 14:0.144151 
1380.071014447878 1:0.124765 2:-0.450772 3:-0.0704831 4:-0.288562 5:-0.640512 6:-0.736008 7:0.430319 8:-0.655164 9:0.902859 10:0.271151 11:-0.622823 12:-0.865962 13:0.900392 14:0.003082 
2048 1:0.509316 2:-0.893582 3:-0.669548 4:-0.500881 5:-0.680135 6:0.535716 7:0.224431 8:-0.873065 9:0.241731 10:-0.752414 11:0.16383 12:-0.57359 13:0.333209 14:-0.387445 
2048 1:0.019956 2:-0.0339675 3:-0.710819 4:-0.118558 5:0.917457 6:-0.364256 7:0.51508 8:-0.0693049 9:-0.954199 10:-0.926448 11:-0.722428 12:0.147637 13:-0.626046 14:0.350122 
115.2326982877762 1:0.787139 2:0.929197 3:0.981585 4:-0.70321 5:0.385446 6:0.364621 7:0.0328615 8:-0.0840899 9:0.0724155 10:-0.63437 11:0.310033 12:-0.0229956 13:0.45892 14:0.729962 
2048 1:-0.708533 2:-0.155015 3:-0.509164 4:-0.210586 5:-0.520015 6:0.179453 7:0.694395 8:-0.891042 9:0.519919 10:-0.625583 11:0.855941 12:-0.272514 13:0.631156 14:0.156813 
2048 1:-0.689699 2:-0.478617 3:-0.0472903 4:-0.649042 5:-0.787216 6:-0.956478 7:0.633304 8:-0.974368 9:0.917066 10:0.789109 11:0.954838 12:0.311603 13:0.582167 14:-0.288814 
2048 1:-0.856891 2:-0.123038 3:0.333059 4:-0.332938 5:0.402555 6:-0.116529 7:0.124916 8:0.992802 9:0.76711 10:0.781866 11:-0.647737 12:0.600698 13:0.118368 14:-0.672812 
2048 1:-0.528113 2:0.939289 3:0.129787 4:-0.464786 5:0.687629 6:-0.571827 7:-0.488461 8:-0.0642452 9:0.124215 10:-0.5719 11:-0.65943 12:-0.931967 13:-0.681175 14:0.842986 
158.0514097214692 1:0.611645 2:0.943859 3:0.754841 4:-0.844737 5:-0.585934 6:0.288493 7:-0.650304 8:0.372762 9:0.624264 10:0.737908 11:-0.829732 12:0.442684 13:-0.291997 14:-0.861551 
1410.657021777276 1:0.0958343 2:0.998104 3:0.641331 4:0.888213 5:0.386249 6:-0.920424 7:0.85272 8:-0.613122 9:-0.966456 10:-0.135947 11:-0.954841 12:-0.319934 13:-0.144735 14:-0.601114 
2048 1:-0.880786 2:-0.839393 3:-0.195098 4:-0.324686 5:-0.762651 6:-0.576091 7:0.912003 8:0.256179 9:0.279001 10:0.135455 11:0.498745 12:0.356813 13:-0.57868 14:0.581766 
2048 1:0.687135 2:-0.369877 3:-0.0667763 4:0.623976 5:-0.97884 6:-0.214948 7:-0.813916 8:-0.11041 9:-0.750349 10:-0.678581 11:-0.91447 12:-0.763216 13:0.532719 14:-0.640298 
1016.596617413472 1:-0.972008 2:0.13381 3:0.323234 4:0.586269 5:-0.66119 6:-0.0388738 7:0.529103 8:0.621811 9:-0.904094 10:-0.485987 11:-0.59016 12:0.47557 13:0.125043 14:-0.499426 
2048 1:-0.153665 2:0.944359 3:0.337314 4:-0.612717 5:0.231815 6:-0.24672 7:-0.314902 8:0.110722 9:-0.21514 10:0.202849 11:0.118155 12:-0.281339 13:0.264718 14:-0.551728 
2048 1:-0.80348 2:-0.592018 3:-0.119928 4:-0.458078 5:-0.405164 6:-0.526915 7:0.474413 8:-0.165517 9:-0.00111355 10:-0.107362 11:-0.933535 12:0.278453 13:0.704995 14:0.0123327 
725.4384257729726 1:-0.258296 2:0.692089 3:0.52486 4:-0.875703 5:0.692497 6:0.314656 7:0.668202 8:0.56915 9:-0.679288 10:0.0377414 11:1 12:-0.898357 13:-0.867291 14:-0.449993 
853.2805498961819 1:-0.715341 2:-0.846399 3:-0.000836837 4:-0.584273 5:-0.718825 6:-0.29697 7:0.303843 8:0.815447 9:0.296624 10:0.263309 11:-0.993123 12:-0.693068 13:-0.0571843 14:-0.738531 
2048 1:0.791418 2:0.13008 3:0.625962 4:-0.325365 5:-0.326847 6:0.637416 7:-0.642271 8:0.434924 9:0.723096 10:0.676595 11:-0.992695 12:-0.725059 13:0.0332624 14:-0.134537 
2048 1:-0.512114 2:0.389845 3:-0.826833 4:-0.708025 5:0.413516 6:-0.782058 7:-0.600295 8:-0.921986 9:0.504697 10:0.515154 11:-0.603151 12:-0.639634 13:-0.064272 14:0.437359 
2048 1:0.733242 2:-0.0802737 3:0.216716 4:-0.323068 5:0.676462 6:-0.978337 7:-0.471079 8:-0.499407 9:0.961385 10:0.324667 11:-0.954779 12:0.0122291 13:0.505511 14:-0.487092 
2048 1:-0.304813 2:-0.82067 3:-0.103707 4:-0.752806 5:-0.0117302 6:0.0651793 7:-0.359394 8:-0.774336 9:-0.726052 10:0.895337 11:-0.753793 12:0.729967 13:-0.2825 14:-0.222095 
420.4799558457782 1:-0.644701 2:0.870007 3:-0.0827675 4:0.00700247 5:0.946577 6:-0.217773 7:0.330066 8:-0.882533 9:0.78139 10:0.27266 11:-0.13614 12:-0.474949 13:-0.406618 14:0.317996 
2048 1:-0.710963 2:-0.643301 3:0.957642 4:-0.508763 5:0.784657 6:0.867906 7:0.441739 8:-0.175421 9:0.629402 10:0.306159 11:-0.882807 12:-0.803058 13:0.0107588 14:-0.415736 
2048 1:0.555311 2:0.511851 3:-0.605814 4:-0.642155 5:0.452229 6:0.0345989 7:-0.544636 8:-0.160721 9:-0.963608 10:0.00987724 11:-0.837604 12:-0.0417919 13:-0.552805 14:-0.755616 
618.2258523236251 1:-0.229136 2:0.0607216 3:0.892754 4:0.813807 5:0.594741 6:-0.0114543 7:-0.889408 8:0.804622 9:0.809557 10:0.503752 11:-0.906727 12:-0.390447 13:0.822144 14:-0.0775134 
834.9221157272625 1:0.814692 2:0.570291 3:1 4:-0.975517 5:0.933954 6:0.820301 7:0.563631 8:-0.181462 9:-0.511872 10:-0.00285279 11:-0.855399 12:0.472557 13:0.307408 14:0.0934966 
1248.981996747548 1:-0.350957 2:-0.549375 3:0.119918 4:-0.542032 5:0.387708 6:-0.296842 7:0.200783 8:0.953414 9:0.831937 10:0.826219 11:-0.330316 12:0.445397 13:0.287827 14:-0.717338 
115.2468130998237 1:-0.716142 2:-0.794634 3:-0.495877 4:-0.737514 5:-0.206325 6:0.771439 7:0.747582 8:-0.853062 9:0.504157 10:-0.997398 11:0.795581 12:0.702807 13:-0.384761 14:-0.845987 
2048 1:-0.644859 2:-0.36018 3:-0.762071 4:-0.679806 5:0.746118 6:-0.99881 7:0.78813 8:0.132986 9:-0.894812 10:-0.632717 11:-0.509018 12:-0.155066 13:-0.391105 14:0.761367 
2048 1:0.788929 2:-0.618944 3:-0.757113 4:-0.647261 5:0.966178 6:0.0714436 7:-0.380701 8:0.796859 9:0.155234 10:0.0416638 11:0.124363 12:-0.751768 13:-0.030167 14:0.871324 
1073.40706464075 1:-0.527833 2:0.619598 3:-0.213596 4:0.423899 5:0.360406 6:-0.973943 7:-0.701444 8:0.132582 9:0.807643 10:0.231272 11:-0.851404 12:-0.955219 13:0.494423 14:-0.0976238 
2048 1:-0.0715456 2:0.774005 3:0.541031 4:-0.621284 5:-0.376793 6:-0.0647497 7:-0.194085 8:-0.96026 9:0.0610092 10:-0.372246 11:-0.0680615 12:0.518476 13:0.374375 14:0.760421 
2048 1:-0.262179 2:-0.882064 3:0.519374 4:-0.839462 5:-0.82046 6:0.483104 7:0.686581 8:0.812519 9:-0.950528 10:-0.898751 11:-0.477272 12:0.403219 13:-0.45872 14:-0.116579 
2048 1:0.246224 2:0.758697 3:-0.0641818 4:-0.539431 5:-0.255219 6:-0.67262 7:-0.574458 8:0.118665 9:0.916189 10:0.487762 11:-0.696773 12:-0.34418 13:0.0471119 14:0.58973 
1401.416970976254 1:-0.965013 2:0.778054 3:-0.686253 4:0.0741592 5:-0.829084 6:0.653197 7:0.714388 8:-0.827882 9:0.520496 10:0.0369009 11:-0.977525 12:-0.991885 13:-0.403364 14:-0.761766 
1434.247286154157 1:-0.386836 2:-0.976869 3:-0.143367 4:-0.146255 5:0.993859 6:0.93036 7:0.267106 8:-0.60469 9:-0.915051 10:0.063627 11:0.341297 12:0.591496 13:0.988874 14:0.988119 
2048 1:-0.371679 2:0.0581587 3:0.485559 4:-0.587942 5:0.983186 6:0.435459 7:0.163615 8:-0.566603 9:0.984803 10:0.395742 11:-0.466725 12:0.529142 13:0.545488 14:0.0951773 
2048 1:0.735676 2:-0.956548 3:-0.315292 4:-0.826766 5:-0.102884 6:0.0997962 7:-0.83937 8:-0.163206 9:0.633025 10:0.0841789 11:0.587507 12:0.63078 13:-0.378149 14:0.120473 
2048 1:0.908704 2:0.382094 3:0.923816 4:-0.500027 5:0.266276 6:-0.0157334 7:-0.432852 8:-0.971596 9:-0.662207 10:-0.0564782 11:-0.617828 12:-0.777674 13:0.169468 14:0.833518 
2048 1:0.5622 2:0.454244 3:-0.964321 4:-0.0158232 5:0.657698 6:0.223373 7:-0.0558728 8:-0.793446 9:0.610057 10:0.363853 11:-0.410065 12:0.208076 13:-0.313955 14:0.0230769 
2048 1:0.0852074 2:-0.962985 3:0.339761 4:-0.0378061 5:-0.484556 6:-0.709823 7:0.701607 8:-0.10947 9:-0.905634 10:-0.506252 11:-0.557678 12:0.24215 13:-0.0872793 14:-0.334616 
2048 1:0.255562 2:-0.9572 3:0.697578 4:-0.456353 5:0.775222 6:-0.24496 7:-0.51092 8:-0.362744 9:-0.854032 10:-0.204095 11:-0.703566 12:0.0759205 13:-0.238763 14:-0.674949 
2048 1:0.230516 2:0.141922 3:-0.969431 4:-0.987921 5:-0.27087 6:-0.36815 7:0.348296 8:-0.731319 9:0.499209 10:0.309299 11:-0.497275 12:-0.614729 13:0.243256 14:0.361261 
2048 1:0.925877 2:0.579452 3:-0.342783 4:0.346821 5:0.268165 6:0.701847 7:-0.059527 8:-0.0114765 9:0.97573 10:0.720297 11:-0.400569 12:-0.197001 13:-0.508263 14:-0.433064 
2048 1:0.38443 2:0.656993 3:0.758751 4:0.561042 5:-0.128476 6:-0.979243 7:0.744256 8:0.215137 9:-0.972047 10:-0.371968 11:-0.757226 12:0.786671 13:0.603195 14:0.542251 
2048 1:0.0730759 2:0.160675 3:0.641971 4:-0.369129 5:0.175159 6:0.324427 7:0.714544 8:-0.933271 9:0.759237 10:0.263823 11:-0.00831057 12:-0.984273 13:0.836853 14:0.0722812 
2048 1:-0.430052 2:-0.892549 3:0.374838 4:0.184308 5:-0.22623 6:0.531933 7:-0.404683 8:0.180323 9:-0.865459 10:-0.541987 11:-0.751854 12:0.858888 13:-0.18057 14:0.602665 
2048 1:-0.049 2:0.662639 3:0.390675 4:-0.881737 5:0.346419 6:-0.299476 7:0.112646 8:-0.780896 9:-0.209753 10:0.421801 11:0.355785 12:0.083171 13:0.0581176 14:0.140816 
1434.599490571037 1:-0.178384 2:0.864638 3:0.79818 4:-0.875945 5:-0.944769 6:-0.456712 7:0.372883 8:-0.894987 9:-0.591216 10:-0.751964 11:-0.423443 12:0.703072 13:-0.81406 14:-0.094317 
2048 1:0.53478 2:-0.101617 3:0.0673808 4:0.434478 5:0.16263 6:-0.0591823 7:0.664476 8:0.472496 9:-0.950254 10:0.987603 11:-0.980637 12:0.444507 13:-0.75774 14:0.26748 
2048 1:0.955133 2:-0.971567 3:-0.503991 4:-0.225799 5:0.656714 6:0.948556 7:-0.334144 8:0.772605 9:0.584479 10:-0.104069 11:0.481641 12:-0.537161 13:0.407988 14:-0.686635 
2048 1:0.252472 2:-0.863561 3:-0.524076 4:-0.697727 5:-0.66079 6:-0.0763338 7:-0.0985995 8:0.518644 9:0.48674 10:0.274779 11:-0.230677 12:0.562644 13:0.0533641 14:0.519024 
2048 1:-0.538443 2:0.986512 3:0.160073 4:-0.651312 5:-0.733183 6:0.00854965 7:0.191086 8:0.478202 9:0.510874 10:-0.166622 11:-0.74428 12:-0.208487 13:-0.306945 14:-0.985355 
2048 1:0.16749 2:0.816727 3:0.471716 4:-0.557245 5:-0.184026 6:-0.385653 7:0.62141 8:0.214773 9:-0.848294 10:-0.549775 11:0.0696005 12:-0.610608 13:0.905759 14:-0.992938 
2048 1:0.733085 2:-0.9665 3:-0.612366 4:0.0219686 5:0.0814758 6:-0.878166 7:-0.417805 8:0.907244 9:-0.189873 10:-0.00193308 11:0.184905 12:0.242365 13:-0.683642 14:0.174299 
1945.39497954298 1:-0.906262 2:0.53209 3:0.165672 4:-0.928523 5:0.341537 6:0.777239 7:-0.219821 8:-0.682498 9:-0.625238 10:-0.0546173 11:-0.809105 12:-0.461413 13:-0.155781 14:0.397643 
59.59400133073488 1:0.218012 2:-0.91537 3:-0.525015 4:-0.385455 5:0.400384 6:0.881884 7:-0.946427 8:-0.128613 9:-0.999627 10:-0.425546 11:-0.669308 12:0.521767 13:0.696701 14:0.670754 
298.8944527674132 1:0.506278 2:0.900866 3:0.599388 4:-0.665295 5:0.778259 6:0.108546 7:0.373821 8:0.420903 9:0.53552 10:0.64658 11:-0.338818 12:-0.691383 13:0.898824 14:0.391621 
2001.422069109047 1:-0.987735 2:-0.365362 3:-0.284679 4:-0.526431 5:0.914301 6:0.482339 7:-0.457341 8:-0.788757 9:-0.995401 10:0.782207 11:0.743838 12:0.088576 13:0.0238596 14:0.0204431 
2048 1:0.756304 2:-0.753039 3:-0.835857 4:-0.701003 5:-0.440323 6:0.519009 7:-0.118981 8:-0.678456 9:-0.0983693 10:-0.383278 11:-0.459359 12:0.407774 13:0.871083 14:-0.610796 
2048 1:0.114714 2:-0.118773 3:-0.474304 4:0.0679289 5:-0.211812 6:0.0246499 7:0.315092 8:-0.473678 9:0.999235 10:0.408677 11:-0.66806 12:0.138085 13:0.848452 14:0.265995 
1194.786057925971 1:0.23006 2:-0.817333 3:-0.617673 4:-0.864074 5:-0.507195 6:-0.0692813 7:0.222341 8:-0.918991 9:0.677421 10:0.946956 11:0.546799 12:-0.396828 13:-0.65706 14:-0.789738 
2048 1:0.615618 2:0.499154 3:0.306929 4:0.140175 5:-0.620329 6:-0.922804 7:0.988969 8:-0.636477 9:0.968211 10:0.230623 11:-0.217141 12:0.601889 13:-0.259083 14:-0.860646 
2048 1:-0.582089 2:-0.287037 3:0.818796 4:-0.125699 5:0.43324 6:-0.579914 7:-0.0470337 8:0.38745 9:-0.821627 10:-0.617571 11:-0.908525 12:-0.958901 13:-0.133743 14:0.192361 
935.4893850002851 1:0.552841 2:-0.66279 3:0.164442 4:0.23263 5:-0.0110764 6:-0.139601 7:0.985313 8:-0.296864 9:-0.723169 10:-0.649871 11:-0.706403 12:-0.769983 13:0.265625 14:0.276287 
2048 1:0.656088 2:0.708411 3:0.702414 4:-0.721581 5:0.969136 6:-0.144897 7:-0.24786 8:0.597329 9:0.148392 10:0.402151 11:0.361884 12:-0.176064 13:-0.68256 14:0.686365 
2048 1:-0.78782 2:-0.220387 3:-0.0453595 4:-0.768991 5:0.497143 6:0.225364 7:-0.357783 8:-0.205042 9:0.683884 10:-0.108259 11:-0.526173 12:0.0866949 13:0.641607 14:-0.102513 
2048 1:0.65279 2:0.928134 3:0.142415 4:-0.245237 5:-0.0794211 6:-0.930807 7:0.744905 8:-0.672717 9:0.929852 10:0.306808 11:-0.44053 12:-0.0446613 13:-0.697053 14:-0.339034 
749.8984440786895 1:-0.531159 2:-0.948574 3:-0.383557 4:-0.436876 5:0.119317 6:0.327439 7:-0.588268 8:-0.779647 9:0.456521 10:-0.293953 11:-0.482497 12:-0.175175 13:-0.21639 14:0.927897 
2048 1:0.193667 2:-0.225499 3:0.743544 4:0.605737 5:0.459335 6:0.63547 7:0.716172 8:-0.645079 9:0.813073 10:0.538682 11:-0.558268 12:0.0937074 13:-0.560804 14:-0.904587 
2048 1:-0.0707352 2:0.905867 3:0.538165 4:-0.528083 5:-0.579038 6:-0.111867 7:-0.266286 8:0.976374 9:-0.525444 10:0.254362 11:0.0900363 12:0.204167 13:0.529502 14:-0.218551 
1027.468113892511 1:-0.00426131 2:0.94961 3:0.457571 4:-0.668486 5:-0.372096 6:0.113786 7:0.489434 8:0.0592656 9:0.942346 10:0.864823 11:-0.576433 12:-0.845264 13:-0.824104 14:0.70174 
2048 1:-0.323026 2:0.985268 3:0.270655 4:-0.540324 5:0.618388 6:0.311292 7:-0.614936 8:0.853013 9:0.430045 10:0.732711 11:-0.432079 12:0.406022 13:0.4782 14:-0.674391 
2048 1:0.257468 2:0.561637 3:0.530277 4:-0.919074 5:0.65733 6:-0.209699 7:-0.16804 8:0.109794 9:-0.103186 10:0.608802 11:0.851327 12:0.992237 13:0.335293 14:-0.210485 
54.36102597476228 1:-0.830932 2:-0.954581 3:-0.771247 4:0.219997 5:-0.695561 6:0.0425176 7:0.364553 8:0.408799 9:0.999435 10:0.575419 11:-0.0187785 12:0.924295 13:0.161119 14:0.0476921 
1984.915180502311 1:0.812163 2:0.917292 3:0.632602 4:-0.343641 5:0.605164 6:-0.500323 7:-0.353668 8:-0.798571 9:-0.588249 10:-0.656463 11:-0.855972 12:0.463497 13:-0.685007 14:0.627953 
2048 1:0.287406 2:0.943032 3:0.550369 4:-0.659705 5:0.671788 6:0.497388 7:0.435182 8:0.145862 9:0.538397 10:-0.155161 11:-0.919538 12:-0.131132 13:0.35091 14:0.984172 
2048 1:-0.480561 2:0.6112 3:0.46197 4:-0.832704 5:-0.884572 6:-0.252966 7:0.0451292 8:0.227847 9:0.077549 10:0.0526192 11:0.50639 12:0.628471 13:-0.838097 14:-0.0598969 
2048 1:-0.567381 2:-0.714392 3:-0.199075 4:-0.576268 5:-0.867667 6:-0.345419 7:0.369476 8:0.483418 9:0.146676 10:-0.647695 11:-0.896203 12:0.463541 13:-0.168467 14:0.12931 
2048 1:-0.0170209 2:-0.555434 3:0.874051 4:-0.96427 5:0.853305 6:0.886588 7:0.814537 8:-0.795746 9:0.797183 10:0.477981 11:-0.634701 12:-0.726293 13:-0.447722 14:0.774607 
2048 1:-0.665656 2:-0.919538 3:-0.425865 4:-0.346758 5:0.761821 6:0.640764 7:-0.516709 8:0.583153 9:0.739708 10:-0.940839 11:0.32125 12:-0.841322 13:-0.0947654 14:-0.308067 
2048 1:0.589612 2:-0.888556 3:-0.485326 4:-0.39609 5:0.893481 6:0.212726 7:0.24103 8:-0.479853 9:-0.33141 10:0.806031 11:-0.934001 12:-0.0988973 13:-0.018529 14:-0.234977 
1026.603095740067 1:-0.752419 2:-0.983789 3:-0.186859 4:-0.110918 5:0.110248 6:-0.754852 7:-0.0254148 8:-0.247335 9:-0.136083 10:-0.0488819 11:-0.169218 12:-0.331627 13:-0.698783 14:-0.216283 
2048 1:-0.130412 2:-0.835738 3:-0.665032 4:-0.614329 5:0.449924 6:-0.464962 7:0.103721 8:0.337714 9:0.878112 10:-0.421823 11:0.788408 12:0.372381 13:-0.346781 14:0.400242 
561.497832622301 1:0.505553 2:0.786757 3:0.726916 4:-0.691767 5:-0.858477 6:0.145475 7:0.146638 8:-0.0385606 9:0.0269872 10:0.716338 11:-0.362625 12:-0.923583 13:-0.86431 14:-0.0688879 
2048 1:0.676904 2:-0.17763 3:-0.344211 4:-0.106665 5:0.864409 6:-0.221774 7:-0.983102 8:0.020785 9:-0.791213 10:-0.608426 11:-0.849931 12:0.221692 13:0.0826376 14:0.661237 
2048 1:0.284932 2:-0.6368 3:0.950612 4:-0.143889 5:-0.685268 6:0.210861 7:0.540635 8:0.469985 9:0.956916 10:0.563518 11:-0.735234 12:-0.207975 13:-0.0874294 14:0.557048 
2048 1:0.656677 2:0.591794 3:0.86529 4:-0.434443 5:0.171677 6:0.181355 7:-0.85691 8:0.51774 9:-0.547764 10:-0.37143 11:-0.805228 12:0.851991 13:0.241709 14:0.68089 
2048 1:0.731067 2:-0.646183 3:-0.521027 4:-0.664688 5:-0.54562 6:-0.454073 7:0.406138 8:-0.482468 9:0.555208 10:-0.935818 11:-0.846925 12:-0.154966 13:-0.306622 14:-0.12432 
970.0716417207816 1:-0.660093 2:-0.620108 3:0.126724 4:0.652819 5:-0.806525 6:-0.252098 7:-0.965096 8:-0.928085 9:0.877321 10:0.169985 11:-0.809588 12:0.804636 13:0.479498 14:0.896511 
1844.47242746551 1:0.400902 2:0.466371 3:0.479133 4:-0.706699 5:-0.929051 6:-0.166523 7:-0.0997398 8:-0.456395 9:-0.227924 10:-0.0928809 11:-0.913554 12:-0.158433 13:0.277264 14:0.085578 
2048 1:0.00293431 2:0.720822 3:0.63704 4:-0.945748 5:0.794337 6:0.156819 7:0.646685 8:0.706262 9:-0.640034 10:0.106786 11:-0.281707 12:0.774139 13:-0.917777 14:-0.00993823 
2048 1:-0.583 2:0.880272 3:-0.0121857 4:-0.922046 5:-0.323959 6:0.20567 7:0.493631 8:0.312825 9:0.364823 10:0.000962076 11:0.160427 12:0.532875 13:-0.180416 14:0.029413 
1846.758811512112 1:-0.950286 2:-0.95283 3:0.0266011 4:-0.0807159 5:0.0764735 6:0.315319 7:-0.0793233 8:-0.88338 9:0.552981 10:0.955275 11:-0.807734 12:0.648603 13:-0.166051 14:0.871013 
2048 1:0.298528 2:-0.837378 3:-0.508848 4:-0.690924 5:0.365344 6:0.184887 7:0.159566 8:0.164268 9:-0.894179 10:0.795557 11:-0.401384 12:-0.876881 13:-0.641465 14:-0.619576 
2048 1:-0.172355 2:0.877355 3:0.440236 4:-0.688475 5:-0.269863 6:-0.529748 7:-0.255781 8:0.593012 9:-0.813013 10:0.918728 11:-0.965967 12:0.666857 13:-0.485028 14:-0.530115 
2048 1:-0.0980423 2:-0.941532 3:-0.239963 4:-0.574189 5:-0.607399 6:-0.528648 7:-0.204727 8:-0.623107 9:-0.0346643 10:-0.617729 11:-0.551295 12:0.76101 13:-0.10145 14:-0.587047 
2042.853928751225 1:0.372406 2:0.899032 3:0.366014 4:-0.544993 5:0.431516 6:-0.65125 7:-0.140662 8:-0.662169 9:0.0627321 10:0.114097 11:-0.865209 12:-0.816658 13:0.343566 14:0.687507 
1775.647650948058 1:-0.287448 2:0.979247 3:-0.421089 4:0.994169 5:-0.338036 6:0.867757 7:-0.610081 8:-0.104003 9:-0.609472 10:-0.517998 11:-0.445301 12:0.42171 13:-0.177171 14:-0.960079 
2048 1:-0.692813 2:-0.487917 3:-0.708522 4:-0.925349 5:0.28688 6:-0.43119 7:0.205513 8:-0.919621 9:-0.847844 10:-0.269078 11:0.884174 12:-0.899718 13:0.33822 14:0.41169 
1456.602939975297 1:0.489231 2:0.698103 3:-0.175984 4:-0.467791 5:0.0516456 6:0.391551 7:-0.755679 8:0.505082 9:0.983072 10:0.557351 11:-0.431838 12:0.0235737 13:-0.332033 14:0.0149722 
1081.1529124356 1:0.954262 2:0.878515 3:0.268712 4:-0.396488 5:-0.879649 6:0.223403 7:-0.731293 8:-0.0869368 9:-0.615878 10:-0.784173 11:-0.927949 12:0.215891 13:-0.407014 14:0.274526 
1696.548531975732 1:0.787688 2:-0.875433 3:-0.517492 4:-0.668896 5:0.805255 6:0.153514 7:0.545278 8:-0.272027 9:-0.784659 10:0.468583 11:-0.130802 12:-0.221153 13:-0.416841 14:0.706281 
2048 1:-0.087095 2:0.993381 3:0.455788 4:-0.422466 5:0.566313 6:0.0751496 7:-0.229138 8:-0.129895 9:0.373093 10:-0.129455 11:-0.338716 12:-0.72818 13:0.931668 14:-0.130811 
2048 1:0.757521 2:0.999743 3:-0.253413 4:0.797617 5:0.0238611 6:-0.3265 7:-0.542258 8:-0.866846 9:0.469283 10:0.478726 11:-0.855489 12:-0.282362 13:0.0401584 14:-0.736835 
2048 1:-0.683787 2:-0.719853 3:-0.248618 4:-0.378146 5:-0.526658 6:-0.570466 7:0.17294 8:-0.461862 9:-0.0959854 10:-0.283644 11:0.0127208 12:-0.933244 13:-0.236338 14:0.826246 
2048 1:0.350791 2:0.931572 3:0.747599 4:0.901751 5:-0.885422 6:-0.603436 7:0.338645 8:-0.137402 9:-0.830439 10:-0.255049 11:-0.796698 12:0.279099 13:0.0572265 14:-0.539431 
2048 1:-0.306127 2:-0.0200069 3:-0.580214 4:-0.367056 5:-0.672685 6:-0.513101 7:0.104681 8:-0.244519 9:-0.907266 10:-0.533591 11:-0.839986 12:-0.154659 13:0.391793 14:-0.160247 
2048 1:-0.562056 2:-0.111411 3:0.932668 4:-0.970596 5:-0.506479 6:0.923872 7:0.396493 8:0.436668 9:-0.796262 10:-0.639946 11:-0.490971 12:0.904001 13:0.37105 14:-0.36228 
2048 1:0.950022 2:0.101617 3:-0.419605 4:-0.0729126 5:0.393909 6:0.940668 7:-0.923386 8:0.838759 9:-0.910543 10:-0.715842 11:-0.45192 12:-0.385675 13:-0.388396 14:0.171167 
2048 1:-0.809804 2:0.910444 3:-0.522845 4:0.514767 5:0.106053 6:0.324249 7:-0.768123 8:-0.779347 9:0.787857 10:0.618471 11:-0.323309 12:-0.493136 13:-0.541255 14:0.399101 
2048 1:0.454309 2:-0.352763 3:-0.895839 4:-0.997702 5:0.361698 6:0.154876 7:-0.86373 8:-0.925175 9:-0.545401 10:0.202214 11:-0.988504 12:-0.720188 13:-0.440333 14:0.078619 
78.73056863375244 1:0.92451 2:-0.659182 3:-0.865206 4:-0.483915 5:-0.599743 6:0.187902 7:0.408674 8:0.0902838 9:0.172055 10:0.934788 11:-0.616496 12:0.799716 13:0.17124 14:0.0991992 
1660.835777276261 1:0.690354 2:0.933322 3:0.358034 4:-0.967596 5:-0.591585 6:0.351621 7:-0.385698 8:0.237512 9:0.998305 10:0.162455 11:0.639245 12:0.832432 13:-0.991997 14:0.414682 
2048 1:0.502413 2:0.0734181 3:-0.239603 4:0.935354 5:0.20157 6:-0.0252199 7:-0.188007 8:-0.0106837 9:-0.856507 10:-0.488813 11:-0.618586 12:0.176682 13:-0.0660645 14:0.45413 
368.9269749722656 1:-0.905769 2:0.132233 3:0.316101 4:-0.73289 5:-0.993796 6:0.353408 7:-0.7777 8:-0.885275 9:0.520973 10:0.312148 11:-0.71386 12:-0.796414 13:0.115311 14:0.112438 
2048 1:-0.859721 2:0.72674 3:0.37034 4:-0.882849 5:0.00581513 6:-0.177056 7:-0.573024 8:0.644959 9:0.428758 10:-0.387641 11:0.983727 12:0.015505 13:0.604242 14:-0.703754 
2048 1:-0.153602 2:-0.421066 3:0.258284 4:0.388153 5:-0.064143 6:0.101014 7:0.328442 8:0.514449 9:-0.869418 10:-0.658031 11:-0.857961 12:-0.936791 13:-0.143591 14:-0.614341 
437.8362538132622 1:0.17875 2:-0.939074 3:-0.89517 4:-0.857664 5:-0.984954 6:0.464834 7:-0.029623 8:0.781545 9:-0.632031 10:0.170982 11:0.509712 12:-0.732917 13:-0.256094 14:0.209137 
2048 1:0.82625 2:-0.724472 3:0.889388 4:-0.243563 5:0.576428 6:-0.890542 7:0.26433 8:0.837409 9:0.956665 10:-0.880067 11:-0.562443 12:0.939381 13:0.940895 14:0.544483 
2048 1:0.392157 2:-0.324452 3:-0.862023 4:0.647363 5:0.961263 6:-0.0964619 7:0.933835 8:0.354625 9:0.800735 10:0.529896 11:-0.74496 12:0.234833 13:-0.337381 14:-0.223463 
2048 1:-0.266336 2:0.0435174 3:0.770618 4:0.202345 5:0.2105 6:-0.84821 7:0.471072 8:0.719991 9:0.973127 10:0.984956 11:-0.37806 12:-0.816341 13:-0.084758 14:0.917475 
1833.938129781972 1:0.405989 2:0.926884 3:-0.815459 4:0.982183 5:-0.886454 6:-0.952977 7:-0.108553 8:0.212252 9:-0.668107 10:-0.629265 11:-0.699116 12:-0.277276 13:0.348503 14:-0.5832 
2048 1:0.722155 2:-0.70431 3:0.051499 4:0.960847 5:-0.800882 6:0.0381892 7:0.443013 8:0.738036 9:-0.9687 10:-0.412643 11:-0.699369 12:-0.855107 13:-0.636613 14:0.807418 
2048 1:-0.878087 2:0.622376 3:-0.0019889 4:-0.970607 5:-0.842624 6:0.267391 7:-0.0144158 8:0.66711 9:-0.171589 10:0.580936 11:-0.965388 12:0.172849 13:-0.0612877 14:-0.723596 
1389.730536865362 1:0.675192 2:-0.747281 3:-0.889346 4:0.598233 5:-0.565554 6:-0.993741 7:0.691184 8:0.999749 9:0.947131 10:-0.377597 11:0.987131 12:-0.489257 13:0.596092 14:-0.961174 
1582.118268582137 1:-0.869186 2:-0.197557 3:-0.303652 4:-0.973433 5:-0.321071 6:0.178452 7:0.379133 8:0.243452 9:-0.852977 10:-0.995433 11:0.671372 12:-0.546704 13:-0.180527 14:-0.470861 
2048 1:-0.758517 2:-0.721645 3:-0.440478 4:-0.720424 5:-0.976503 6:-0.377751 7:-0.252501 8:0.0398793 9:-0.998108 10:0.361413 11:-0.732784 12:-0.151751 13:-0.47757 14:0.854252 
2048 1:-0.916723 2:0.742555 3:0.219747 4:-0.699868 5:-0.825806 6:0.109503 7:0.27122 8:-0.438782 9:-0.301763 10:-0.0687555 11:-0.279561 12:-0.992119 13:-0.871759 14:-0.847791 
177.085530055885 1:0.588262 2:-0.723443 3:-0.446246 4:-0.691991 5:-0.751606 6:-0.920648 7:-0.549814 8:0.643476 9:0.71511 10:0.442243 11:-0.666077 12:0.705129 13:-0.00136787 14:0.407316 
2048 1:-0.470134 2:0.629467 3:0.291906 4:0.531726 5:0.486656 6:-0.895321 7:-0.0379687 8:0.804756 9:-0.886415 10:-0.918896 11:-0.539445 12:-0.745208 13:0.363389 14:0.297025 
768.6457482420619 1:0.327222 2:0.206099 3:0.323342 4:0.345462 5:0.177852 6:0.296517 7:0.676247 8:0.636364 9:-0.836937 10:-0.754738 11:-0.827479 12:-0.185897 13:0.393528 14:0.29223 
2048 1:0.111323 2:0.524124 3:0.341619 4:-0.626458 5:-0.130903 6:0.966258 7:0.947854 8:-0.182341 9:0.56163 10:0.555274 11:-0.941266 12:-0.853209 13:-0.0476261 14:0.194328 
2048 1:-0.22203 2:-0.0831144 3:-0.798743 4:0.855183 5:0.358115 6:-0.17069 7:-0.0373078 8:0.0802688 9:-0.638972 10:-0.801509 11:-0.983503 12:0.508025 13:-0.240821 14:0.353264 
2048 1:-0.160712 2:0.929127 3:0.461861 4:-0.387775 5:0.662934 6:-0.122552 7:-0.687629 8:-0.441784 9:0.323839 10:-0.194736 11:0.599062 12:0.596083 13:0.85584 14:-0.827672 
2048 1:0.0934457 2:0.0215694 3:0.472961 4:-0.175266 5:0.505728 6:-0.864425 7:0.660896 8:0.0866386 9:-0.820671 10:-0.336721 11:-0.938799 12:0.146549 13:-0.0592574 14:-0.185619 
2048 1:-0.238535 2:0.889315 3:0.551167 4:-0.157923 5:0.659691 6:0.107794 7:0.0844947 8:-0.137575 9:-0.916738 10:-0.210209 11:0.441717 12:-0.599801 13:-0.192611 14:0.959011 
2048 1:0.404709 2:0.573382 3:0.68339 4:-0.927624 5:-0.294572 6:-0.206383 7:-0.0854693 8:0.183775 9:0.529311 10:0.670396 11:0.721873 12:0.376358 13:-0.108293 14:-0.0893727 
2048 1:0.980323 2:-0.159384 3:-0.679546 4:-0.402758 5:-0.809657 6:0.359701 7:0.68183 8:-0.893745 9:0.633554 10:0.0480349 11:-0.809436 12:0.971136 13:-0.75121 14:-0.222479 
2048 1:-0.379 2:-0.938741 3:-0.39908 4:-0.91586 5:-0.686189 6:-0.212666 7:-0.804081 8:0.0544759 9:-0.258163 10:-0.537691 11:-0.604854 12:0.59653 13:0.492613 14:0.559342 
2048 1:0.408553 2:0.20328 3:-0.800666 4:-0.775721 5:-0.470661 6:0.630467 7:-0.923298 8:-0.90466 9:0.751666 10:0.340379 11:-0.630723 12:0.309791 13:0.387725 14:-0.8002 
2048 1:-0.949348 2:0.252822 3:-0.117305 4:-0.98386 5:-0.272219 6:0.0854344 7:-0.0378111 8:0.0897124 9:0.649233 10:-0.453472 11:0.316388 12:-0.0623937 13:0.983953 14:-0.159363 
340.4180530233099 1:0.455669 2:0.882925 3:0.747571 4:-0.954978 5:-0.497914 6:0.454844 7:-0.802486 8:-0.276602 9:0.614922 10:0.66815 11:-0.232424 12:-0.540827 13:-0.349269 14:0.671391 
2048 1:0.653175 2:0.802079 3:-0.160432 4:0.546944 5:-0.645712 6:-0.228242 7:0.645784 8:-0.25668 9:-0.755602 10:-0.389006 11:-0.840582 12:0.578264 13:-0.23052 14:0.405702 
411.0654055278362 1:0.543247 2:0.490924 3:0.707826 4:-0.586689 5:0.299405 6:-0.0501802 7:0.210038 8:0.66211 9:-0.922308 10:0.885478 11:0.0562276 12:0.673465 13:-0.896411 14:-0.117084 
2048 1:-0.025096 2:0.909145 3:0.666882 4:-0.375786 5:-0.239813 6:-0.632013 7:0.0882811 8:-0.781311 9:0.44317 10:0.585158 11:0.941813 12:0.266938 13:0.216471 14:0.824401 
2048 1:0.0822503 2:0.831417 3:0.294644 4:-0.82062 5:-0.85947 6:0.653527 7:-0.604376 8:-0.225289 9:0.540005 10:0.885246 11:0.134052 12:0.36109 13:-0.11615 14:0.817988 
2048 1:-0.488565 2:-0.733021 3:-0.399523 4:-0.90095 5:-0.954639 6:0.408867 7:-0.507704 8:0.954356 9:-0.9455 10:-0.064398 11:-0.268436 12:-0.306093 13:-0.274813 14:0.666988 
2048 1:-0.861633 2:-0.432133 3:-0.55352 4:-0.90254 5:-0.424493 6:0.588371 7:-0.0609999 8:0.625069 9:-0.867506 10:0.723303 11:0.77194 12:-0.834627 13:0.018774 14:0.593981 
1490.908603745131 1:0.585749 2:-0.639486 3:-0.807605 4:-0.529903 5:-0.448852 6:-0.423022 7:0.16434 8:-0.893945 9:-0.947786 10:-0.296243 11:-0.961224 12:-0.767068 13:-0.91579 14:0.312387 
2048 1:-0.183626 2:0.344615 3:-0.755646 4:0.339502 5:0.338046 6:0.170193 7:0.40719 8:-0.540379 9:-0.742149 10:-0.0321943 11:-0.931517 12:0.988429 13:0.322117 14:0.549879 
1232.471076381809 1:-0.12562 2:0.982935 3:-0.05653 4:-0.268242 5:-0.00275735 6:0.568348 7:0.79522 8:0.976405 9:-0.958137 10:0.924543 11:-0.18976 12:0.298556 13:-0.980188 14:0.662732 
1888.438186437297 1:-0.860264 2:-0.601468 3:-0.409758 4:-0.624015 5:0.872147 6:0.0529142 7:0.154939 8:0.214985 9:0.21306 10:-0.235984 11:0.432982 12:0.699798 13:-0.998756 14:0.340195 
2048 1:-0.194921 2:0.589544 3:0.325085 4:-0.215939 5:0.901979 6:0.081973 7:-0.662073 8:-0.693218 9:-0.977286 10:-0.230876 11:0.0157719 12:-0.932473 13:0.728505 14:-0.0803302 
2048 1:0.48587 2:-0.0668201 3:-0.189677 4:0.481869 5:-0.687728 6:-0.405609 7:-0.711394 8:0.970141 9:0.116212 10:0.84101 11:-0.824737 12:0.838281 13:-0.117454 14:-0.385533 
2048 1:0.30116 2:0.804287 3:0.846658 4:-0.935663 5:-0.809487 6:-0.399805 7:-0.210038 8:0.215819 9:0.133244 10:-0.577434 11:-0.986784 12:0.0697356 13:0.579359 14:-0.478751 
1489.679986579627 1:0.269069 2:0.923703 3:0.486874 4:-0.746255 5:-0.599901 6:-0.19721 7:-0.349351 8:0.0167301 9:-0.0596569 10:-0.169784 11:0.618753 12:0.197369 13:-0.148011 14:0.994931 
850.2058622241808 1:-0.33154 2:-0.503673 3:-0.068444 4:-0.868248 5:-0.0943563 6:0.957789 7:0.995749 8:-0.293536 9:0.967276 10:0.152579 11:-0.89568 12:-0.994215 13:-0.225043 14:-0.955044 
2048 1:0.410414 2:-0.428844 3:0.521365 4:-0.0013851 5:0.176867 6:-0.535551 7:-0.799586 8:-0.823564 9:0.788995 10:0.345839 11:-0.605 12:-0.700494 13:0.534626 14:-0.33071 
2048 1:-0.647615 2:-0.768767 3:-0.744733 4:-0.23204 5:-0.0680511 6:0.968813 7:-0.57403 8:-0.93627 9:0.455939 10:0.139526 11:-0.635274 12:0.188355 13:-0.18994 14:0.930127 
875.6470296030373 1:-0.709549 2:-0.820401 3:-0.407359 4:-0.484858 5:-0.215623 6:-0.523882 7:0.782912 8:0.734536 9:0.6162 10:0.886185 11:0.858531 12:-0.0571046 13:-0.582003 14:0.776229 
2048 1:-0.80525 2:-0.480104 3:-0.260222 4:-0.811468 5:0.470309 6:-0.00215689 7:0.010401 8:-0.305069 9:-0.940831 10:-0.943564 11:0.748009 12:-0.748205 13:0.0550077 14:0.351489 
1879.342240842945 1:-0.922004 2:0.442471 3:0.611391 4:0.464803 5:-0.43568 6:0.598962 7:0.345516 8:0.992889 9:-0.93498 10:-0.393836 11:-0.805048 12:0.545984 13:0.541958 14:-0.562712 
334.8657345765545 1:-0.41598 2:-0.261949 3:0.0722479 4:-0.949349 5:0.6125 6:0.539734 7:0.120578 8:0.547194 9:-0.583903 10:-0.94554 11:-0.933034 12:-0.010465 13:-0.0928883 14:0.345821 
1945.313907945465 1:0.974889 2:0.919723 3:-0.31969 4:-0.661745 5:-0.331387 6:-0.306855 7:-0.656879 8:-0.0562679 9:0.838785 10:0.391449 11:-0.886595 12:-0.733277 13:0.290615 14:-0.0681519 
390.1247124817472 1:0.857367 2:0.435998 3:0.763408 4:0.747482 5:0.75804 6:0.845249 7:-0.565129 8:-0.978965 9:0.802564 10:0.260351 11:-0.620412 12:-0.295694 13:0.389713 14:0.700388 
2048 1:-0.947344 2:-0.622344 3:0.0684152 4:-0.613706 5:0.310727 6:0.00356016 7:-0.443068 8:0.824261 9:0.84958 10:-0.933129 11:-0.931478 12:0.346309 13:0.105048 14:-0.293507 
2048 1:-0.36841 2:-0.0310295 3:-0.78981 4:0.816853 5:0.250971 6:-0.394805 7:-0.184311 8:-0.74946 9:0.682621 10:0.443948 11:-0.995061 12:0.567417 13:0.441423 14:0.654871 
2048 1:-0.281718 2:-0.167017 3:-0.265816 4:-0.373607 5:-0.388465 6:-0.473256 7:0.948942 8:-0.546316 9:0.875524 10:-0.0304374 11:-0.311324 12:-0.146821 13:0.0563774 14:0.661915 
1354.805995383561 1:-0.89926 2:-0.851551 3:-0.112698 4:-0.133682 5:-0.191572 6:-0.876274 7:0.252338 8:-0.685418 9:0.163406 10:-0.935017 11:-0.0496766 12:0.744025 13:-0.947364 14:-0.162357 
1343.532312417576 1:0.224056 2:-0.759312 3:0.783606 4:0.552074 5:-0.95443 6:-0.302142 7:0.575604 8:-0.59763 9:0.787294 10:0.547648 11:-0.524667 12:0.693155 13:0.839354 14:-0.254137 
696.0980534992559 1:-0.977976 2:-0.726233 3:-0.148094 4:-0.287748 5:0.969085 6:0.851684 7:-0.48632 8:-0.490099 9:0.0715575 10:0.609157 11:-0.371205 12:0.0282621 13:0.987394 14:-0.213746 
2048 1:0.602733 2:0.0115191 3:-0.407356 4:0.813003 5:0.116228 6:0.00593621 7:-0.242817 8:-0.851218 9:0.0416987 10:0.410716 11:-0.854196 12:-0.837403 13:-0.0848148 14:0.218995 
720.5849588524937 1:-0.877319 2:-0.921562 3:-0.271017 4:-0.165058 5:0.6593 6:0.218221 7:-0.0237641 8:0.211181 9:0.126739 10:-0.16975 11:0.570769 12:0.979721 13:0.570635 14:-0.357314 
2048 1:-0.443691 2:0.706723 3:0.23813 4:-0.687733 5:-0.0260796 6:0.392468 7:0.900554 8:0.136632 9:-0.325159 10:-0.920268 11:-0.991707 12:-0.182617 13:0.315268 14:0.681357 
2048 1:0.673472 2:-0.596118 3:-0.875184 4:0.890576 5:0.649619 6:-0.0506239 7:0.284841 8:-0.9262 9:0.120713 10:0.0810353 11:-0.766947 12:0.0449678 13:-0.460603 14:0.328462 
2048 1:-0.77456 2:0.437721 3:-0.830775 4:-0.900838 5:0.599636 6:-0.024183 7:-0.541677 8:0.560022 9:0.875608 10:0.499502 11:-0.880268 12:-0.346513 13:0.479128 14:0.351254 
2048 1:-0.642574 2:-0.693765 3:-0.195462 4:-0.496679 5:0.982605 6:0.633083 7:-0.428641 8:0.404571 9:-0.728936 10:-0.695679 11:0.458206 12:-0.627269 13:0.384634 14:-0.262203 
1161.07553133602 1:-0.298825 2:0.177755 3:-0.334551 4:-0.14362 5:0.822963 6:-0.61679 7:-0.791671 8:-0.886357 9:0.929486 10:0.43134 11:-0.603252 12:0.763082 13:0.585788 14:0.95326 
1975.795219614871 1:0.999623 2:-0.871508 3:0.0404263 4:0.43337 5:-0.082494 6:-0.36047 7:0.9961 8:0.209619 9:0.747786 10:0.82111 11:-0.719349 12:0.244229 13:0.205328 14:0.044874 
1887.879685505011 1:-0.198022 2:0.625251 3:-0.566578 4:0.492931 5:0.495909 6:-0.0959408 7:0.940419 8:-0.397479 9:-0.982061 10:-0.559971 11:-0.555278 12:0.696116 13:0.0317606 14:-0.588295 
2048 1:0.145192 2:-0.337198 3:-0.551519 4:0.606627 5:-0.114975 6:-0.435529 7:0.211573 8:0.636136 9:-0.833364 10:-0.720553 11:-0.509474 12:0.554391 13:0.191259 14:-0.51673 
2048 1:0.779459 2:-0.52847 3:-0.580428 4:-0.829917 5:-0.382402 6:-0.439942 7:0.00554214 8:-0.12929 9:0.224487 10:-0.741937 11:0.551017 12:0.296143 13:-0.661635 14:0.665766 
2048 1:0.682981 2:0.922133 3:0.332318 4:-0.509235 5:-0.0145141 6:-0.622479 7:0.52198 8:-0.119064 9:-0.688978 10:-0.533071 11:-0.953212 12:0.906531 13:-0.721029 14:0.347612 
1759.60181289814 1:0.0730751 2:-0.782599 3:-0.0566257 4:0.349129 5:-0.791012 6:0.983927 7:-0.904677 8:0.369001 9:-0.799166 10:-0.765342 11:-0.952706 12:0.297768 13:0.32668 14:0.47789 
2048 1:-0.19416 2:0.917146 3:0.333272 4:-0.416235 5:-0.21997 6:-0.306299 7:0.296118 8:0.658743 9:0.0498561 10:-0.951358 11:0.226139 12:0.888772 13:0.183712 14:0.0826212 
1373.499720058493 1:-0.761575 2:0.343962 3:-0.386585 4:0.89486 5:0.880681 6:-0.0880285 7:0.981723 8:-0.841983 9:-0.860185 10:-0.543418 11:-0.992285 12:-0.865215 13:0.382801 14:-0.0880447 
2048 1:-0.202726 2:-0.829691 3:-0.574562 4:-0.768524 5:0.243613 6:0.033369 7:0.814429 8:0.275462 9:0.0706996 10:-0.222277 11:-0.704004 12:0.231812 13:-0.722252 14:0.53378 
2048 1:-0.489075 2:-0.679692 3:-0.301781 4:-0.577032 5:0.594041 6:0.282786 7:0.0130306 8:-0.119489 9:0.447523 10:-0.223695 11:-0.939075 12:-0.0330007 13:-0.609627 14:-0.602027 
433.1315668708708 1:0.986887 2:0.100291 3:-0.550007 4:-0.803339 5:-0.166748 6:0.643412 7:0.607922 8:-0.990144 9:0.850758 10:0.121879 11:-0.635049 12:-0.0156 13:-0.214386 14:0.970649 
95.25592579729961 1:0.788301 2:-0.971031 3:-0.675878 4:-0.858484 5:0.104767 6:0.967009 7:-0.0491742 8:-0.384233 9:-0.478919 10:0.989076 11:-0.868783 12:0.213438 13:0.461101 14:-0.451644 
842.7641403653929 1:-0.0237046 2:0.352603 3:-0.917489 4:0.601991 5:-0.823801 6:0.807682 7:0.67482 8:0.606026 9:0.86912 10:0.761826 11:-0.773639 12:0.450447 13:0.453338 14:0.137347 
2048 1:-0.761324 2:-0.509767 3:-0.32386 4:-0.854732 5:0.877023 6:0.0119179 7:-0.485502 8:0.552872 9:-0.0097421 10:0.822457 11:0.378085 12:0.442566 13:-0.160145 14:-0.190701 
2048 1:0.270217 2:-0.112043 3:-0.0898489 4:0.106769 5:0.735753 6:-0.759185 7:0.0338978 8:-0.316624 9:-0.864158 10:-0.49286 11:-0.524504 12:-0.724696 13:0.593042 14:0.231035 
2048 1:0.876291 2:0.511233 3:-0.20869 4:0.99894 5:-0.499211 6:0.596952 7:-0.651331 8:0.552275 9:0.861796 10:0.586667 11:-0.847493 12:0.389912 13:0.24279 14:0.692825 
1515.365643456915 1:-0.727522 2:-0.814108 3:-0.187244 4:-0.673688 5:0.322828 6:0.811156 7:0.0986455 8:-0.979677 9:-0.17822 10:-0.624244 11:-0.289501 12:0.884995 13:0.997992 14:0.218177 
2048 1:-0.320807 2:0.983213 3:0.930456 4:0.921379 5:0.755169 6:-0.658058 7:-0.503007 8:-0.0646369 9:-0.926738 10:-0.518589 11:-0.142877 12:0.230862 13:-0.457944 14:-0.0922612 
2048 1:0.326982 2:0.683018 3:0.545118 4:-0.922613 5:0.545228 6:-0.413442 7:0.444023 8:0.144388 9:0.737735 10:0.695587 11:-0.130257 12:-0.180883 13:-0.971617 14:-0.133334 
2048 1:-0.698992 2:0.974211 3:-0.0181806 4:-0.94077 5:-0.0808047 6:-0.238488 7:0.781715 8:0.638805 9:0.146359 10:-0.163365 11:0.51109 12:-0.428365 13:0.00666682 14:0.223456 
849.0514846725546 1:0.481259 2:-0.903395 3:-0.915541 4:-0.797732 5:-0.467995 6:0.437755 7:-0.351168 8:0.952582 9:-0.496689 10:-0.837582 11:-0.943412 12:-0.673671 13:0.939584 14:0.771288 
2048 1:-0.814867 2:0.400437 3:0.260127 4:0.0863051 5:0.190075 6:-0.166955 7:-0.899465 8:0.739182 9:0.8104 10:0.779011 11:-0.901957 12:-0.624085 13:-0.416438 14:-0.644964 
2048 1:-0.266721 2:-0.801996 3:-0.226077 4:-0.263209 5:0.156193 6:-0.480452 7:-0.121871 8:-0.707865 9:0.599218 10:-0.13036 11:-0.986723 12:0.599872 13:-0.915641 14:-0.922889 
1477.081328203394 1:-0.481922 2:-0.975585 3:-0.310379 4:-0.905349 5:-0.981446 6:-0.54594 7:0.648933 8:-0.874042 9:-0.148087 10:-0.752038 11:-0.218928 12:0.116334 13:0.563319 14:-0.51352 
2048 1:-0.711132 2:0.809392 3:-0.660766 4:0.0317214 5:-0.673433 6:-0.808851 7:0.746636 8:0.6101 9:0.648077 10:0.526401 11:-0.699846 12:-0.836351 13:0.419553 14:0.109232 
2048 1:-0.742668 2:0.982129 3:0.387882 4:-0.444887 5:0.645376 6:0.128925 7:-0.689981 8:-0.840994 9:-0.455086 10:-0.450515 11:-0.839093 12:-0.977507 13:-0.966966 14:0.468563 
923.6735815815904 1:0.346619 2:-0.992092 3:0.760004 4:-0.174636 5:0.900556 6:-0.535919 7:0.591528 8:-0.948335 9:0.101909 10:0.489397 11:-0.842026 12:-0.334999 13:-0.164301 14:-0.1241 
2048 1:0.786785 2:0.647838 3:0.544464 4:-0.566959 5:-0.523538 6:-0.277665 7:0.489429 8:0.49291 9:-0.608867 10:-0.59187 11:-0.534292 12:-0.908438 13:0.626086 14:-0.0875433 
2048 1:-0.987872 2:0.287682 3:0.784904 4:-0.632492 5:-0.623793 6:0.0469165 7:-0.147279 8:-0.477621 9:0.973337 10:0.657957 11:-0.457168 12:0.823807 13:0.396028 14:-0.108313 
2048 1:0.337327 2:0.664577 3:0.684948 4:-0.69066 5:0.943061 6:0.0445271 7:0.0632046 8:0.600461 9:-0.190618 10:0.789404 11:-0.672819 12:0.189568 13:0.849865 14:-0.011659 
1490.463754038469 1:-0.943476 2:0.607929 3:-0.0286961 4:0.775017 5:0.537304 6:0.967894 7:0.650922 8:-0.672887 9:0.832714 10:0.720096 11:-0.693407 12:0.864748 13:0.856232 14:0.680269 
2048 1:-0.814081 2:0.150847 3:-0.110736 4:-0.726441 5:0.408387 6:-0.548764 7:0.557956 8:0.78912 9:0.862974 10:0.644274 11:-0.58149 12:0.857349 13:-0.0484792 14:-0.730455 
2048 1:0.509726 2:0.0449065 3:-0.723737 4:-0.509403 5:0.280401 6:0.28825 7:0.550845 8:0.466586 9:-0.986836 10:-0.767494 11:-0.584289 12:-0.465494 13:0.882101 14:0.710877 
836.2512400717635 1:0.493681 2:-0.773144 3:-0.727479 4:-0.885265 5:0.0788109 6:0.289219 7:-0.250631 8:-0.356743 9:0.43489 10:-0.471403 11:0.134131 12:-0.554601 13:0.776524 14:0.183788 
2048 1:-0.494839 2:0.510621 3:-0.517116 4:0.420594 5:-0.131778 6:-0.593123 7:0.976992 8:0.482593 9:-0.736664 10:-0.637316 11:-0.774594 12:0.500634 13:0.370533 14:0.121807 
567.502227144535 1:0.997982 2:-0.704736 3:-0.634783 4:-0.924152 5:-0.974668 6:-0.684192 7:0.248888 8:0.976531 9:-0.788274 10:0.753747 11:0.566522 12:-0.681378 13:0.00551709 14:0.392782 
2048 1:0.830702 2:0.774081 3:0.869163 4:-0.743502 5:-0.0746047 6:-0.307509 7:-0.48568 8:0.0463189 9:0.604945 10:-0.643722 11:-0.100269 12:-0.323137 13:-0.487353 14:0.702267 
2048 1:0.544982 2:0.842787 3:-0.702143 4:-0.519117 5:-0.361375 6:0.183884 7:-0.92855 8:-0.26775 9:0.473318 10:0.378525 11:-0.946008 12:0.754271 13:0.0932114 14:-0.216246 
2048 1:-0.542037 2:-0.54131 3:-0.279718 4:-0.844333 5:0.708555 6:0.267894 7:0.307312 8:-0.342 9:0.454747 10:0.128944 11:0.910893 12:0.915635 13:-0.66686 14:-0.580504 
1084.34172167263 1:-0.797181 2:-0.647368 3:0.135397 4:-0.683256 5:-0.533436 6:-0.900823 7:-0.626727 8:0.379495 9:-0.738092 10:-0.165242 11:-0.629638 12:0.322859 13:-0.0796931 14:-0.316199 
2048 1:0.287553 2:0.899303 3:0.523837 4:-0.721396 5:0.16257 6:-0.127171 7:0.347259 8:-0.415665 9:-0.205034 10:0.963811 11:-0.142146 12:-0.459914 13:0.563461 14:0.121603 
882.7575674119771 1:0.939092 2:-0.931012 3:-0.825078 4:-0.192035 5:0.236434 6:-0.291272 7:-0.232152 8:-0.536518 9:0.109939 10:-0.958766 11:0.704045 12:-0.313329 13:0.678674 14:-0.834762 
2048 1:0.855813 2:0.538279 3:0.654798 4:-0.952203 5:-0.365291 6:0.347996 7:0.280409 8:-0.0588535 9:-0.983509 10:0.40162 11:-0.936187 12:-0.50967 13:0.305932 14:-0.899519 
2048 1:-0.0630363 2:-0.944365 3:-0.430051 4:-0.536909 5:-0.536801 6:-0.511047 7:0.716673 8:0.677047 9:-0.165387 10:-0.183943 11:0.0719886 12:0.991589 13:-0.219848 14:-0.303764 
2048 1:-0.212008 2:0.971905 3:0.736021 4:-0.602633 5:-0.677747 6:-0.598054 7:0.84913 8:0.169981 9:-0.716721 10:-0.217658 11:-0.565752 12:-0.946646 13:-0.663133 14:0.497 
1989.82748829773 1:-0.990555 2:-0.350019 3:-0.54388 4:-0.85881 5:0.715361 6:-0.533993 7:-0.480101 8:0.88401 9:-0.607665 10:0.850844 11:0.649427 12:-0.225148 13:-0.975848 14:0.950347 
1580.082914414516 1:-0.943327 2:-0.672606 3:0.0147146 4:-0.748474 5:-0.650774 6:-0.318242 7:0.600144 8:-0.309681 9:-0.135373 10:-0.910167 11:0.46772 12:-0.207026 13:0.368969 14:-0.832538 
879.7757490481169 1:-0.917449 2:-0.632738 3:-0.49383 4:-0.596088 5:-0.511877 6:0.550113 7:0.969645 8:0.528387 9:0.475587 10:-0.335839 11:0.856805 12:-0.408498 13:-0.148328 14:0.99825 
2048 1:-0.948728 2:-0.396293 3:0.131697 4:-0.92345 5:-0.515815 6:-0.517511 7:0.0562822 8:-0.867542 9:0.416885 10:-0.849627 11:0.447998 12:0.0285988 13:0.386382 14:-0.254925 
2048 1:0.645864 2:-0.883675 3:-0.418103 4:-0.864496 5:0.530249 6:0.30598 7:0.427846 8:-0.422974 9:0.46823 10:-0.237831 11:-0.218748 12:-0.437868 13:0.958314 14:0.426221 
2048 1:0.549221 2:-0.725272 3:-0.577252 4:-0.266799 5:-0.830963 6:0.193842 7:0.899675 8:0.542589 9:0.882115 10:-0.706571 11:-0.924089 12:0.923223 13:0.937792 14:0.0817454 
2048 1:-0.105022 2:-0.8803 3:-0.49778 4:-0.703014 5:0.117808 6:-0.174025 7:-0.578837 8:0.545233 9:0.599212 10:-0.0594874 11:0.894681 12:-1 13:-0.224215 14:-0.0293827 
572.0290614014677 1:0.950438 2:-0.999673 3:-0.832987 4:-0.214378 5:-0.495182 6:0.442779 7:0.965062 8:0.659323 9:0.658266 10:-0.46242 11:-0.752776 12:-0.0590122 13:0.917696 14:0.0932066 
2048 1:0.182399 2:-0.834686 3:0.444955 4:0.959672 5:0.987963 6:0.123237 7:0.799526 8:-0.923275 9:0.0283304 10:-0.0618406 11:-0.791125 12:-0.348554 13:0.053066 14:0.400301 
2048 1:0.261648 2:0.534632 3:-0.966965 4:0.165159 5:0.0963426 6:0.106428 7:-0.792618 8:0.0667774 9:-0.790524 10:-0.607403 11:-0.655098 12:0.228122 13:0.220585 14:-0.00801315 
800.6168357306454 1:-0.831515 2:-0.219394 3:-0.269066 4:0.014244 5:0.97612 6:-0.435377 7:0.641997 8:-0.990691 9:0.635119 10:0.38775 11:0.187998 12:0.585454 13:0.448018 14:-0.268294 
2048 1:-0.820412 2:0.591148 3:-0.773713 4:0.631247 5:0.398264 6:0.0698795 7:-0.696585 8:0.509249 9:-0.878982 10:-0.514676 11:-0.570472 12:-0.307857 13:-0.411449 14:0.195695 
1974.108324286596 1:0.680256 2:-0.962994 3:-0.352354 4:0.933769 5:0.912079 6:-0.557982 7:0.885873 8:-0.669144 9:-0.569775 10:-0.272969 11:-0.908407 12:0.353765 13:0.0895958 14:0.42105 
2048 1:0.0114836 2:0.863499 3:0.684329 4:-0.371893 5:-0.627993 6:-0.520679 7:0.594258 8:0.49947 9:0.278298 10:0.683419 11:0.280155 12:0.689267 13:-0.401429 14:-0.480429 
1608.52083691792 1:-0.273893 2:-0.867628 3:0.972663 4:0.294345 5:0.0556158 6:-0.792487 7:-0.825129 8:0.90153 9:-0.861599 10:-0.81469 11:-0.580423 12:0.456027 13:-0.0163905 14:-0.129692 
1642.742981471653 1:-0.838929 2:0.237598 3:-0.046384 4:-0.942366 5:-0.00108788 6:-0.0134824 7:-0.0226832 8:0.0750812 9:-0.991153 10:0.795146 11:-0.798766 12:0.937179 13:0.559558 14:-0.0723528 
2048 1:-0.0186188 2:0.998403 3:0.55384 4:-0.21226 5:-0.526263 6:-0.0729874 7:0.59667 8:0.165169 9:-0.372746 10:0.630249 11:-0.508086 12:-0.53921 13:-0.981803 14:0.265854 
2048 1:-0.286538 2:0.888905 3:0.549068 4:-0.792715 5:0.61074 6:-0.00507145 7:0.512501 8:0.799952 9:-0.483433 10:0.417463 11:0.274771 12:-0.528608 13:0.285093 14:0.415151 
2048 1:-0.734126 2:-0.748641 3:0.114041 4:-0.635419 5:-0.344243 6:-0.796745 7:-0.0598891 8:0.703444 9:0.038492 10:-0.770257 11:0.436796 12:-0.414576 13:0.0513186 14:0.343936 
1401.166503491893 1:-0.877725 2:-0.530662 3:-0.254588 4:-0.682244 5:-0.83757 6:0.0514808 7:-0.33296 8:0.240252 9:-0.41188 10:-0.369886 11:0.566967 12:-0.969523 13:-0.825618 14:0.0330707 
2048 1:-0.266769 2:-0.998698 3:-0.393485 4:-0.652857 5:0.0790426 6:-0.20583 7:0.757788 8:-0.873786 9:0.39348 10:-0.966582 11:-0.875885 12:-0.923314 13:-0.533052 14:0.742992 
970.997027665044 1:0.216614 2:-0.887506 3:-0.623609 4:-0.430836 5:0.883319 6:0.234214 7:-0.666722 8:0.711019 9:-0.974515 10:-0.186911 11:0.408535 12:-0.43145 13:0.0197594 14:-0.533111 
747.3382179479057 1:0.9278 2:-0.344199 3:-0.193411 4:0.81108 5:0.423101 6:0.699968 7:0.818627 8:-0.42553 9:-0.651876 10:-0.266154 11:-0.752568 12:-0.800227 13:0.015045 14:-0.0104127 
2048 1:-0.663079 2:-0.131338 3:-0.692981 4:-0.704171 5:-0.923099 6:0.769959 7:-0.521644 8:0.528232 9:-0.975978 10:-0.497339 11:-0.59361 12:0.587229 13:0.565419 14:0.0325518 
2048 1:0.832209 2:0.309012 3:-0.467235 4:0.102372 5:0.111648 6:-0.701637 7:0.959709 8:-0.943064 9:0.699179 10:0.462902 11:-0.597751 12:0.511133 13:0.680492 14:-0.997918 
370.1054588908751 1:-0.754406 2:-0.88557 3:-0.364259 4:0.737771 5:-0.812729 6:0.250581 7:-0.876194 8:0.939058 9:-0.98621 10:-0.426783 11:-0.635314 12:0.623603 13:0.817183 14:-0.409209 
2048 1:0.530721 2:-0.852326 3:-0.717223 4:-0.553195 5:-0.183357 6:-0.391348 7:0.462315 8:0.0937092 9:0.820376 10:-0.337296 11:0.112062 12:-0.421911 13:-0.356436 14:-0.588362 
2048 1:0.727848 2:-0.883613 3:-0.694613 4:-0.163569 5:-0.0962952 6:-0.821829 7:-0.125593 8:0.314088 9:0.902895 10:-0.380125 11:-0.619289 12:-0.636135 13:-0.546223 14:-0.556904 
1700.639869148302 1:-0.898939 2:-0.699553 3:-0.280889 4:-0.853872 5:-0.967404 6:-0.769128 7:-0.19696 8:-0.307207 9:-0.195119 10:0.762093 11:0.170135 12:0.19997 13:-0.654311 14:-0.54889 
1460.999686928014 1:-0.724102 2:0.911145 3:0.191519 4:-0.894377 5:0.87647 6:-0.112211 7:-0.50164 8:-0.474702 9:-0.377985 10:-0.146792 11:0.0641446 12:0.45891 13:0.127096 14:0.375438 
2048 1:0.108268 2:0.903977 3:0.540275 4:-0.661632 5:-0.878043 6:-0.0287668 7:-0.210954 8:-0.689097 9:-0.0665977 10:-0.50384 11:0.0912556 12:-0.437599 13:-0.666853 14:-0.838316 
1966.204535025173 1:-0.9481 2:-0.618198 3:-0.320501 4:-0.871299 5:-0.933488 6:0.518297 7:-0.301861 8:-0.373412 9:-0.331692 10:0.792874 11:-0.725665 12:0.211956 13:-0.32516 14:0.760577 
2000.535059115503 1:-0.248256 2:0.0255561 3:0.616871 4:0.0689514 5:-0.322467 6:-0.695757 7:-0.38989 8:-0.941971 9:0.618352 10:0.560966 11:-0.743381 12:0.685068 13:0.869927 14:0.331746 
2048 1:0.424561 2:0.791563 3:0.480976 4:-0.762895 5:0.823173 6:0.0191229 7:-0.0133063 8:-0.590164 9:0.687513 10:-0.844143 11:0.103932 12:-0.406449 13:-0.480437 14:-0.276457 
1825.392942063301 1:0.386034 2:0.986581 3:0.964317 4:0.698655 5:-0.60053 6:-0.649351 7:-0.88323 8:-0.332375 9:0.887654 10:0.295818 11:-0.945992 12:-0.121316 13:0.679539 14:0.712661 
2048 1:-0.631718 2:-0.861926 3:-0.288663 4:-0.333444 5:0.100471 6:-0.673154 7:-0.40554 8:0.316214 9:-0.0580676 10:-0.400218 11:-0.805941 12:-0.17792 13:0.877024 14:-0.438847 
2048 1:0.496708 2:0.00746983 3:0.0418133 4:-0.930551 5:-0.262049 6:-0.0607661 7:-0.273188 8:-0.388207 9:0.900327 10:0.600797 11:-0.689193 12:-0.18281 13:0.406849 14:-0.971447 
2048 1:-0.816118 2:-0.0924909 3:-0.461612 4:-0.974174 5:-0.856401 6:0.396614 7:-0.0745473 8:0.772448 9:0.00266979 10:0.387599 11:0.911187 12:0.805581 13:0.578276 14:0.232754 
2048 1:0.541556 2:0.597281 3:0.542558 4:-0.629975 5:0.804627 6:0.49656 7:0.0543574 8:-0.702328 9:0.858349 10:0.157151 11:-0.347634 12:0.984724 13:-0.192747 14:-0.385619 
2048 1:-0.638372 2:-0.469746 3:-0.131419 4:-0.936208 5:0.558349 6:0.249081 7:-0.0780249 8:-0.283764 9:-0.136224 10:-0.144551 11:-0.484031 12:-0.134383 13:0.904651 14:0.312609 
1792.171891031646 1:-0.118718 2:0.568499 3:-0.435734 4:-0.521015 5:-0.635827 6:0.816239 7:-0.608812 8:-0.609154 9:0.853797 10:0.035121 11:-0.477823 12:0.522119 13:-0.656937 14:-0.26066 
2048 1:0.533446 2:0.0546789 3:-0.215545 4:0.526606 5:-0.495 6:-0.0891134 7:0.299607 8:-0.945656 9:0.92872 10:-0.201816 11:-0.524358 12:-0.572784 13:0.803366 14:0.614696 
2048 1:0.0858638 2:0.943588 3:0.295776 4:-0.413516 5:0.708626 6:-0.718792 7:-0.888827 8:0.635469 9:0.127098 10:0.749288 11:-0.093897 12:-0.361209 13:0.370322 14:0.619128 
2048 1:-0.596587 2:-0.620783 3:0.368683 4:0.532293 5:-0.203366 6:-0.919275 7:-0.87785 8:-0.883427 9:0.922151 10:-0.334873 11:0.583335 12:0.0757433 13:-0.288975 14:0.628682 
2048 1:-0.0733751 2:0.948818 3:0.60919 4:0.574613 5:0.148591 6:0.150206 7:0.37275 8:-0.136886 9:0.792431 10:0.274914 11:-0.971681 12:0.228194 13:-0.0923793 14:0.369637 
2048 1:0.600959 2:0.588912 3:-0.18802 4:0.633766 5:-0.312026 6:0.385297 7:0.251039 8:-0.813147 9:0.660641 10:0.467683 11:-0.610905 12:0.708079 13:0.251367 14:0.438045 
2048 1:0.0672701 2:-0.700263 3:-0.413102 4:-0.795064 5:-0.779536 6:-0.249319 7:-0.0184864 8:0.0203604 9:0.0331053 10:-0.790867 11:-0.0870308 12:0.00958729 13:-0.708693 14:0.431011 
2048 1:-0.302723 2:-0.0961026 3:0.053051 4:0.746243 5:-0.254516 6:0.0257868 7:-0.933274 8:-0.83923 9:0.776011 10:-0.0979416 11:-0.670465 12:-0.629716 13:0.569359 14:-0.0815318 
2048 1:-0.369755 2:0.573396 3:0.464826 4:-0.79103 5:-0.264681 6:-0.118409 7:-0.320806 8:-0.622062 9:0.271843 10:0.302116 11:-0.679686 12:0.872922 13:0.780533 14:-0.388082 
2048 1:-0.930362 2:-0.482485 3:-0.24995 4:-0.558498 5:-0.185379 6:0.600309 7:0.719295 8:-0.63252 9:0.114342 10:-0.307041 11:-0.292698 12:-0.411349 13:0.873814 14:0.732435 
1882.59566671493 1:-0.962137 2:0.690387 3:0.0617847 4:-0.884771 5:-0.457611 6:-0.0596956 7:0.150457 8:-0.875851 9:0.58993 10:-0.816786 11:0.309374 12:-0.131837 13:0.708727 14:-0.248593 
2048 1:0.524854 2:-0.0884695 3:0.328556 4:0.0894737 5:-0.122641 6:-0.424952 7:0.753307 8:-0.74733 9:-0.631335 10:-0.206229 11:-0.631161 12:-0.222367 13:-0.395558 14:0.0542425 
1976.816478372936 1:-0.497483 2:-0.0141101 3:0.298838 4:-0.874113 5:-0.496419 6:-0.148113 7:-0.407816 8:0.939544 9:-0.731959 10:-0.674426 11:-0.566482 12:0.393956 13:0.954144 14:-0.481424 
1091.541710812638 1:-0.38757 2:0.858532 3:0.322267 4:-0.269175 5:-0.668458 6:0.752764 7:-0.372103 8:-0.716655 9:-0.961674 10:-0.268895 11:-0.146113 12:0.772703 13:-0.567829 14:-0.444666 
1918.085499901639 1:-0.480123 2:-0.158578 3:-0.271475 4:-0.0238287 5:0.92412 6:-0.174842 7:-0.951578 8:0.400203 9:-0.749477 10:-0.475277 11:-0.969748 12:0.0805591 13:0.504671 14:-0.228011 
621.8697112697969 1:-0.342545 2:-0.982604 3:-0.521586 4:-0.641121 5:0.286225 6:0.482666 7:0.324214 8:-0.766606 9:-0.8188 10:0.428907 11:0.50813 12:-0.403705 13:0.234361 14:-0.922916 
262.529224772441 1:-0.54139 2:-0.937065 3:0.00676534 4:-0.962394 5:0.510173 6:0.414694 7:-0.10915 8:0.589841 9:-0.029362 10:0.0499598 11:-0.133791 12:0.64922 13:-0.316801 14:-0.945164 
2048 1:-0.646124 2:0.405827 3:-0.135707 4:0.59653 5:0.436815 6:0.970969 7:0.824379 8:-0.988285 9:0.885976 10:0.0555525 11:-0.193312 12:-0.732288 13:0.732763 14:-0.0303845 
2048 1:0.0270582 2:0.647394 3:0.386704 4:-0.972124 5:-0.547106 6:0.373985 7:-0.0481775 8:0.564274 9:-0.201743 10:-0.0786171 11:0.128674 12:0.951664 13:-0.287535 14:-0.468169 
850.3562136492392 1:-0.796152 2:-0.832015 3:0.226649 4:0.52701 5:0.782494 6:0.657643 7:-0.0292582 8:-0.455064 9:0.853784 10:0.280136 11:0.19128 12:0.0891767 13:0.0658616 14:-0.0952199 
2048 1:0.0568018 2:-0.790533 3:-0.11197 4:-0.969764 5:0.738272 6:0.542275 7:0.228825 8:-0.78026 9:-0.25753 10:-0.63155 11:-0.995539 12:-0.939128 13:0.542792 14:0.823523 
2048 1:0.455562 2:-0.113869 3:0.766204 4:-0.832917 5:-0.755505 6:-0.381665 7:-0.60457 8:-0.311882 9:-0.722367 10:-0.4562 11:-0.710286 12:-0.305531 13:-0.0829431 14:0.138856 
1736.604538579587 1:0.0238812 2:0.962209 3:0.205017 4:0.704398 5:0.632663 6:0.0922503 7:-0.380585 8:-0.993174 9:0.932846 10:0.309056 11:0.0912107 12:0.991241 13:0.618 14:-0.921253 
2048 1:-0.80473 2:0.591829 3:0.458671 4:-0.734834 5:0.732871 6:0.36059 7:0.431647 8:-0.169084 9:-0.355644 10:-0.760402 11:-0.581721 12:0.673884 13:-0.15835 14:-0.59689 
847.2320516258025 1:-0.0328287 2:0.915493 3:0.8188 4:-0.00873897 5:0.286806 6:0.740786 7:-0.461604 8:0.595132 9:-0.886936 10:-0.476434 11:-0.0916888 12:0.285458 13:0.466815 14:-0.497685 
2048 1:0.234966 2:0.500752 3:-0.895255 4:-0.784822 5:-0.729102 6:0.432879 7:-0.548414 8:0.303614 9:0.944317 10:0.31527 11:-0.644405 12:0.768784 13:-0.59167 14:-0.649192 
2048 1:-0.52393 2:0.693512 3:0.505542 4:0.702888 5:0.639987 6:0.0706332 7:-0.382097 8:-0.745368 9:0.60399 10:0.186635 11:-0.623345 12:-0.98988 13:0.281655 14:-0.252328 
1882.106954175843 1:-0.83551 2:0.901456 3:0.21112 4:-0.538987 5:-0.171334 6:0.492116 7:0.289686 8:-0.994929 9:-0.749948 10:-0.152094 11:-0.0597793 12:0.99773 13:0.260573 14:0.102615 
2048 1:-0.669381 2:-0.619113 3:-0.111477 4:0.0350584 5:0.857192 6:0.625523 7:0.0596374 8:-0.633458 9:0.831183 10:0.155014 11:-0.600595 12:-0.019322 13:0.81915 14:-0.971014 
2048 1:-0.267303 2:-0.755795 3:-0.385512 4:-0.785288 5:0.380251 6:0.317656 7:0.314116 8:-0.239824 9:-0.351382 10:-0.649386 11:-0.431456 12:0.638333 13:0.0657282 14:0.452557 
203.5852869686489 1:0.591458 2:0.996062 3:0.662542 4:-0.0689519 5:0.0906653 6:0.145587 7:0.46176 8:0.426767 9:-0.841325 10:-0.58673 11:-0.605236 12:0.0178083 13:0.429519 14:0.739876 
2048 1:-0.62581 2:0.595281 3:0.112661 4:-0.141255 5:0.963576 6:0.912807 7:-0.794091 8:0.435914 9:-0.939896 10:-0.818473 11:-0.121845 12:-0.524305 13:0.759031 14:-0.298158 
2048 1:-0.512898 2:-0.593346 3:-0.126949 4:-0.597532 5:-0.77434 6:-0.212975 7:0.569692 8:0.556825 9:-0.390699 10:0.291913 11:-0.733475 12:0.159725 13:0.0272401 14:0.671738 
2048 1:-0.139736 2:0.805003 3:-0.173417 4:-0.714564 5:0.588335 6:0.135107 7:0.985035 8:0.137756 9:-0.754287 10:-0.586241 11:-0.775549 12:0.109313 13:-0.149196 14:-0.43011 
2048 1:-0.0376765 2:0.95659 3:0.888959 4:-0.639863 5:-0.363054 6:-0.696751 7:-0.285365 8:0.874505 9:-0.209282 10:0.0256122 11:-0.223361 12:-0.779382 13:0.964675 14:0.546584 
1843.493077985591 1:-0.83322 2:-0.63267 3:-0.169785 4:-0.80649 5:0.31573 6:0.536737 7:-0.174443 8:0.944756 9:-0.559958 10:0.470194 11:0.55554 12:-0.452547 13:-0.779275 14:-0.142759 
2048 1:-0.741682 2:0.417641 3:0.256006 4:-0.294759 5:0.098228 6:0.610963 7:-0.602898 8:0.00700396 9:0.899465 10:0.311632 11:-0.728879 12:-0.394832 13:0.485488 14:0.704754 
2048 1:-0.860843 2:-0.282869 3:-0.111398 4:-0.906681 5:-0.768318 6:-0.118178 7:-0.0781019 8:-0.441958 9:0.227181 10:-0.759105 11:-0.374289 12:-0.874994 13:0.618314 14:-0.629086 
425.2206530319781 1:-0.588371 2:-0.340483 3:0.735642 4:0.454354 5:-0.348696 6:-0.660849 7:0.174388 8:-0.787165 9:0.64721 10:0.0973316 11:-0.869395 12:0.634517 13:-0.725902 14:0.0353361 
1270.505968923965 1:-0.107415 2:-0.48941 3:-0.68377 4:-0.738154 5:-0.20079 6:0.958303 7:0.752083 8:0.151377 9:0.898282 10:0.185152 11:-0.852544 12:0.75789 13:-0.45177 14:0.44099 
2048 1:0.826344 2:0.461662 3:-0.0501766 4:-0.502358 5:-0.238071 6:0.235638 7:-0.416266 8:0.433983 9:-0.753935 10:-0.644938 11:-0.647928 12:-0.964149 13:0.196637 14:-0.403473 
1546.148438692598 1:0.782616 2:-0.80772 3:0.711561 4:-0.792176 5:0.432861 6:-0.0136124 7:0.848204 8:-0.835864 9:0.881101 10:0.373613 11:-0.418836 12:0.38621 13:0.915358 14:-0.824746 
2048 1:0.0389266 2:0.353249 3:-0.146706 4:-0.490083 5:-0.540665 6:-0.882235 7:-0.516947 8:-0.616096 9:0.723618 10:0.541432 11:-0.531713 12:-0.355901 13:-0.380579 14:0.162107 
2048 1:-0.60917 2:-0.853774 3:-0.329418 4:-0.591419 5:0.747787 6:0.822376 7:-0.421484 8:-0.774002 9:0.373719 10:-0.751166 11:-0.962657 12:-0.234866 13:-0.628734 14:-0.847325 
1670.965066264078 1:-0.0621341 2:0.541481 3:0.818445 4:0.799032 5:-0.826787 6:0.290627 7:-0.275118 8:-0.653115 9:0.63182 10:0.436308 11:-0.722029 12:0.589491 13:0.3119 14:-0.528351 
243.6157585793857 1:0.84968 2:-0.0151728 3:-0.735519 4:0.445995 5:0.543623 6:-0.252862 7:-0.0919878 8:0.969034 9:0.539823 10:0.857404 11:-0.793608 12:-0.641639 13:-0.239511 14:-0.617181 
574.2909181648387 1:-0.94523 2:-0.245738 3:0.136988 4:0.957248 5:0.762975 6:-0.691857 7:0.599443 8:-0.715318 9:0.632157 10:0.540001 11:-0.88192 12:-0.219162 13:0.251399 14:-0.42567 
125.1489905449462 1:0.169415 2:0.835529 3:0.571456 4:-0.994 5:-0.901248 6:-0.231394 7:-0.0939932 8:-0.540652 9:0.704247 10:0.122361 11:0.166939 12:-0.746738 13:0.19798 14:-0.877413 
2048 1:-0.659517 2:0.48843 3:-0.345838 4:0.117069 5:-0.329054 6:-0.20535 7:0.514804 8:0.137757 9:0.963506 10:0.433288 11:-0.641865 12:0.671998 13:-0.497028 14:0.240188 
2048 1:-0.588268 2:0.921696 3:0.245089 4:-0.845361 5:-0.659458 6:0.403148 7:0.139169 8:0.405082 9:0.769066 10:-0.780812 11:-0.395669 12:-0.408359 13:0.215723 14:0.700766 
2048 1:0.183419 2:-0.952289 3:-0.760967 4:-0.517184 5:0.969061 6:0.156929 7:-0.221249 8:-0.433347 9:0.0385764 10:-0.688717 11:-0.413812 12:-0.705607 13:-0.548213 14:-0.0492374 
2048 1:-0.195565 2:-0.523419 3:-0.370709 4:-0.946113 5:-0.272175 6:-0.854888 7:-0.860486 8:-0.495709 9:0.970387 10:0.297299 11:-0.138174 12:0.426451 13:-0.899033 14:0.130549 
1229.749523915837 1:0.850002 2:-0.888944 3:-0.515308 4:-0.339337 5:0.957502 6:0.604379 7:-0.0483068 8:-0.470532 9:-0.742121 10:-0.226578 11:0.18607 12:0.926102 13:-0.18571 14:-0.0956193 
2043.73634032195 1:0.628951 2:-0.935402 3:-0.0618103 4:-0.603385 5:0.840663 6:0.933159 7:-0.230187 8:-0.20183 9:0.689827 10:0.526848 11:-0.831468 12:-0.884572 13:-0.870968 14:0.0560372 
2048 1:0.226825 2:0.40898 3:-0.0974462 4:0.147415 5:-0.857216 6:-0.29174 7:0.310936 8:0.643005 9:-0.995077 10:-0.589943 11:-0.838744 12:0.828248 13:0.0664694 14:0.876622 
105.5088595836392 1:0.783118 2:0.645393 3:0.470868 4:-0.281091 5:-0.0638338 6:0.0371284 7:-0.658144 8:-0.87845 9:-0.0535881 10:0.159794 11:-0.94893 12:-0.751139 13:-0.160901 14:0.0822624 
2048 1:0.570226 2:0.653159 3:0.712279 4:-0.848277 5:0.0361956 6:0.196326 7:-0.0284575 8:0.503312 9:0.78016 10:-0.494741 11:0.977513 12:-0.170204 13:0.409019 14:0.189642 
2048 1:0.945114 2:0.291634 3:0.254537 4:0.67256 5:-0.096226 6:0.704503 7:-0.124546 8:-0.625703 9:-0.736685 10:-0.641626 11:-0.97095 12:0.654966 13:-0.724402 14:-0.194653 
2048 1:0.884331 2:0.939851 3:0.698731 4:-0.601318 5:0.485161 6:-0.177747 7:-0.686047 8:0.227117 9:0.288931 10:0.718416 11:-0.101584 12:-0.00783086 13:-0.500623 14:-0.052985 
338.2097451362437 1:-0.302654 2:-0.355555 3:-0.519968 4:0.118227 5:-0.165523 6:-0.341972 7:0.918371 8:-0.501852 9:0.950567 10:0.478459 11:-0.156278 12:-0.458514 13:-0.326915 14:0.201808 
2048 1:-0.81668 2:0.914333 3:-0.944633 4:0.164633 5:-0.315191 6:-0.747018 7:0.739539 8:0.665022 9:0.989239 10:0.660309 11:-0.317932 12:-0.456984 13:-0.513156 14:0.401023 
2048 1:0.838577 2:-0.916096 3:-0.774806 4:-0.155075 5:0.576614 6:-0.580311 7:-0.620115 8:0.736325 9:-0.301749 10:-0.527579 11:-0.0511993 12:0.0629869 13:-0.890023 14:-0.296646 
2048 1:0.0254336 2:-0.663914 3:-0.707253 4:-0.729294 5:0.248432 6:-0.32664 7:0.242917 8:-0.55566 9:-0.989536 10:0.263686 11:-0.705044 12:-0.388514 13:0.222784 14:-0.620909 
938.9370660046261 1:-0.248549 2:0.170899 3:0.694775 4:0.438748 5:0.916049 6:-0.740827 7:0.683202 8:-0.627929 9:-0.994937 10:-0.143835 11:-0.655822 12:0.918284 13:0.348448 14:-0.135562 
2048 1:-0.614539 2:0.664362 3:-0.486775 4:0.685333 5:0.566427 6:0.874597 7:0.344828 8:0.810297 9:0.708201 10:0.548196 11:-0.953802 12:0.000796583 13:0.625424 14:0.549759 
2048 1:0.440355 2:0.755877 3:0.0157711 4:0.173002 5:-0.779983 6:0.81803 7:0.471936 8:-0.405578 9:-0.713647 10:-0.132714 11:-0.789613 12:-0.358448 13:-0.371438 14:-0.118875 
2048 1:-0.894404 2:-0.583901 3:0.9767 4:-0.175018 5:-0.0893635 6:-0.506618 7:0.808934 8:-0.345256 9:0.9702 10:0.281713 11:-0.162633 12:0.066606 13:-0.533472 14:-0.59966 
2048 1:-0.846912 2:-0.400858 3:-0.000155966 4:-0.965422 5:-0.372946 6:-0.119141 7:-0.728062 8:0.214074 9:0.85815 10:-0.908286 11:-0.0204417 12:0.209132 13:-0.764154 14:-0.5799 
2048 1:0.478373 2:0.351082 3:0.297409 4:0.747083 5:0.419894 6:0.766214 7:0.795092 8:0.94281 9:0.498486 10:0.478231 11:-0.90875 12:0.227522 13:-0.58581 14:0.227717 
2048 1:0.492266 2:0.881279 3:0.635521 4:-0.396022 5:-0.893809 6:0.384626 7:0.607017 8:-0.303022 9:0.475236 10:-0.762536 11:-0.134791 12:-0.972287 13:0.107456 14:-0.884407 
2048 1:0.878105 2:-0.0943662 3:0.428021 4:0.3412 5:0.779141 6:-0.36728 7:-0.61301 8:0.0517514 9:0.60604 10:0.622525 11:-0.930236 12:-0.606887 13:-0.156071 14:-0.251246 
2048 1:-0.72199 2:-0.0612219 3:0.939104 4:-0.792659 5:0.262451 6:0.994011 7:0.724615 8:-0.296493 9:0.585042 10:0.440449 11:-0.88156 12:0.311534 13:-0.0923354 14:-0.0513676 
2048 1:-0.279509 2:-0.278098 3:0.61124 4:0.0395022 5:0.49358 6:-0.430991 7:0.319991 8:-0.341125 9:0.834802 10:0.254819 11:-0.406789 12:-0.990161 13:0.662628 14:-0.138173 
2048 1:-0.530141 2:0.413494 3:0.836525 4:-0.057806 5:-0.046998 6:0.513813 7:-0.846765 8:0.870886 9:0.529345 10:0.758075 11:-0.782578 12:0.450566 13:-0.107392 14:-0.49007 
2048 1:0.0426901 2:0.873229 3:0.280815 4:-0.804828 5:-0.372542 6:0.533495 7:0.781303 8:-0.0295339 9:0.261969 10:0.848129 11:0.449389 12:-0.0356085 13:0.549922 14:0.539436 
2048 1:-0.314681 2:-0.706591 3:0.93621 4:-0.064261 5:-0.753888 6:-0.343791 7:0.83401 8:-0.770666 9:0.635299 10:0.645163 11:-0.688187 12:-0.258949 13:-0.566451 14:-0.146796 
1084.398437885303 1:0.366342 2:0.995478 3:0.705315 4:-0.665059 5:0.522222 6:0.0654413 7:0.675661 8:0.00688857 9:-0.060128 10:0.843816 11:0.198625 12:-0.663405 13:-0.421636 14:-0.904696 
2048 1:0.370627 2:0.663417 3:0.711227 4:-0.616307 5:0.242079 6:-0.0866037 7:-0.481853 8:0.463373 9:-0.583973 10:0.602534 11:-0.755332 12:-0.353123 13:-0.0775605 14:0.226763 
770.8561654195775 1:-0.328858 2:0.592371 3:-0.0819122 4:0.888412 5:0.198159 6:-0.264428 7:0.765298 8:0.865094 9:0.7827 10:0.932577 11:-0.940676 12:0.905851 13:0.589588 14:0.683594 
2048 1:-0.780109 2:-0.29342 3:-0.385252 4:-0.91204 5:-0.794725 6:0.0936325 7:-0.0594647 8:0.0179396 9:-0.502617 10:-0.185646 11:0.135159 12:0.127928 13:-0.896357 14:0.587751 
2048 1:0.327153 2:0.825333 3:0.951449 4:0.79125 5:-0.305999 6:0.487964 7:-0.0273787 8:-0.542316 9:0.442127 10:0.563156 11:-0.866384 12:-0.686531 13:-0.28075 14:0.325814 
1893.968959954625 1:-0.640905 2:0.333801 3:0.478264 4:-0.0496656 5:0.558317 6:-0.210053 7:0.545931 8:-0.987962 9:0.685488 10:0.00679865 11:-0.70183 12:-0.391607 13:0.716716 14:0.797172 
2048 1:-0.930332 2:0.214142 3:0.138552 4:-0.750744 5:0.254597 6:0.474397 7:-0.320449 8:0.0251234 9:-0.314639 10:-0.304876 11:-0.999978 12:-0.39858 13:0.592941 14:-0.165979 
136.0671658922519 1:0.306923 2:0.9258 3:0.600841 4:-0.793204 5:0.642842 6:-0.331034 7:0.824291 8:-0.441068 9:-0.761368 10:-0.769779 11:-0.915886 12:-0.0774789 13:-0.469435 14:-0.80362 
2048 1:-0.442019 2:-0.853712 3:-0.444962 4:-0.49392 5:-0.568385 6:-0.0944747 7:0.506256 8:-0.566824 9:-0.850143 10:-0.473316 11:-0.518576 12:-0.604435 13:0.942443 14:0.319446 
1336.422689867799 1:0.787194 2:-0.738961 3:-0.470242 4:-0.85599 5:0.956668 6:0.240613 7:0.189668 8:0.716843 9:-0.782022 10:0.992286 11:-0.994201 12:0.839542 13:0.0697384 14:0.753339 
2048 1:-0.622096 2:0.250815 3:0.105103 4:0.90957 5:0.249616 6:-0.136938 7:-0.0925447 8:-0.843539 9:0.912305 10:0.346077 11:-0.468181 12:0.311745 13:0.807138 14:-0.940913 
381.9763936834082 1:0.905877 2:-0.942499 3:0.162984 4:-0.00366598 5:-0.565739 6:-0.24623 7:0.206437 8:-0.36986 9:0.866917 10:0.547148 11:-0.430023 12:0.131428 13:-0.194891 14:-0.508872 
476.1930698202691 1:0.796522 2:-0.623735 3:0.10819 4:0.833203 5:0.33954 6:-0.917842 7:-0.709096 8:0.2506 9:-0.979768 10:-0.522137 11:-0.648091 12:-0.0889478 13:0.608794 14:-0.0182046 
180.5266085853216 1:-0.49099 2:-0.798044 3:-0.106115 4:-0.479291 5:0.847611 6:0.408962 7:-0.477853 8:-0.867697 9:0.894076 10:-0.112957 11:0.456692 12:-0.793781 13:0.675889 14:-0.18896 
760.869488229264 1:0.990263 2:0.995208 3:0.325964 4:-0.0301882 5:0.795243 6:0.921601 7:-0.80354 8:0.652589 9:0.671506 10:0.333033 11:-0.973254 12:-0.852691 13:0.453985 14:-0.313897 
2048 1:0.358269 2:-0.420207 3:0.91949 4:0.0243169 5:-0.00580157 6:-0.143001 7:-0.679653 8:-0.485635 9:-0.826423 10:-0.297196 11:-0.530758 12:-0.23272 13:-0.615499 14:0.153201 
2048 1:-0.943764 2:0.951311 3:0.263245 4:0.189656 5:-0.603563 6:0.856476 7:0.70938 8:-0.928199 9:0.0537449 10:0.0559962 11:-0.765289 12:0.263955 13:-0.291104 14:0.23207 
2048 1:-0.973103 2:-0.599543 3:-0.480842 4:-0.0963449 5:0.862463 6:0.181389 7:-0.848286 8:-0.507748 9:0.962091 10:-0.744859 11:0.00627037 12:0.62749 13:-0.769447 14:-0.615787 
2048 1:-0.823161 2:0.81406 3:-0.965875 4:-0.0890192 5:0.223091 6:0.707248 7:0.296458 8:0.459321 9:0.89649 10:0.577385 11:-0.48425 12:0.318068 13:-0.0711268 14:-0.355782 
2048 1:0.0541376 2:-0.404938 3:-0.0135239 4:-0.807839 5:-0.66966 6:-0.33932 7:-0.539932 8:-0.904562 9:0.802756 10:-0.0521899 11:0.403809 12:-0.250337 13:0.753637 14:0.783 
2045.947264081305 1:-0.857195 2:-0.229138 3:-0.411938 4:-0.756558 5:-0.108664 6:-0.980581 7:0.728481 8:-0.984921 9:-0.111956 10:0.580503 11:-0.863995 12:-0.590081 13:-0.426361 14:-0.018271 
1075.5189229528 1:0.9565 2:-0.68296 3:-0.862533 4:-0.366 5:0.987101 6:0.410159 7:-0.247662 8:0.350488 9:-0.971597 10:0.251942 11:0.557789 12:0.420033 13:-0.843105 14:0.680863 
2048 1:0.893879 2:-0.0383224 3:0.0388531 4:-0.135704 5:-0.360796 6:0.189927 7:0.290879 8:-0.750279 9:0.454789 10:0.0607011 11:-0.886741 12:-0.368037 13:-0.088686 14:0.32326 
1066.674255668202 1:-0.956691 2:-0.563521 3:0.0568764 4:-0.949102 5:-0.0501062 6:0.638786 7:-0.630158 8:0.048968 9:0.330252 10:-0.421415 11:0.42991 12:0.676095 13:0.904921 14:0.0624341 
2048 1:-0.765804 2:-0.452771 3:0.258324 4:0.596078 5:-0.60639 6:0.845898 7:-0.288216 8:-0.643958 9:0.939159 10:0.0508437 11:-0.834255 12:0.381283 13:-0.345183 14:0.976279 
1361.32111592306 1:0.976389 2:-0.891017 3:-0.274411 4:0.932995 5:-0.933839 6:0.496473 7:-0.0548951 8:-0.0604391 9:-0.685455 10:-0.267334 11:-0.904743 12:-0.687583 13:-0.0414358 14:0.0310508 
1354.872902414964 1:-0.601764 2:-0.311728 3:-0.0910728 4:-0.944394 5:0.364103 6:-0.20587 7:0.986948 8:-0.820867 9:0.920656 10:0.088439 11:-0.297558 12:0.96509 13:0.77697 14:0.879251 
2048 1:-0.356613 2:-0.937983 3:-0.507849 4:0.196739 5:-0.311337 6:0.383049 7:-1 8:-0.604803 9:-0.941035 10:-0.376943 11:-0.891135 12:-0.205293 13:0.264279 14:0.461744 
2048 1:0.186011 2:-0.408841 3:-0.697771 4:0.305545 5:-0.571121 6:-0.731357 7:-0.340365 8:-0.96354 9:0.606028 10:0.164583 11:-0.243954 12:0.0178701 13:-0.652916 14:0.451383 
2048 1:-0.850512 2:0.384302 3:-0.80169 4:-0.61443 5:-0.698254 6:-0.705882 7:-0.971713 8:0.662047 9:0.968543 10:0.408965 11:-0.970793 12:0.40121 13:-0.592157 14:0.712782 
2048 1:-0.800451 2:-0.970975 3:-0.225356 4:-0.198805 5:-0.40019 6:-0.963088 7:0.1326 8:-0.0948788 9:-0.593903 10:0.0291326 11:0.992099 12:0.958185 13:-0.68423 14:0.646458 
2048 1:-0.788756 2:0.873007 3:0.453431 4:-0.809901 5:0.400455 6:0.309444 7:-0.655151 8:0.0142756 9:0.267574 10:0.389427 11:-0.572354 12:-0.480051 13:0.137581 14:-0.0949611 
2048 1:-0.993917 2:-0.254573 3:-0.229311 4:-0.586964 5:-0.0031535 6:0.550164 7:-0.632123 8:-0.222497 9:0.479826 10:0.173558 11:-0.0647576 12:0.351852 13:-0.278525 14:-0.6144 
1864.336330750984 1:0.88046 2:0.935392 3:0.550837 4:0.221127 5:0.647611 6:0.634483 7:0.0969104 8:-0.740829 9:0.786363 10:0.644822 11:-0.893702 12:-0.326491 13:-0.489312 14:-0.299122 
1725.882475179474 1:-0.492563 2:-0.932348 3:-0.110074 4:-0.286501 5:0.810768 6:0.587996 7:-0.537093 8:0.929191 9:-0.242586 10:0.711454 11:0.175374 12:0.28625 13:0.892369 14:0.797112 
979.7856671459371 1:-0.345844 2:-0.852279 3:-0.898867 4:-0.299495 5:0.215036 6:0.902824 7:0.78959 8:0.445155 9:0.947888 10:0.702647 11:-0.42941 12:0.554336 13:0.470574 14:0.502191 
2048 1:0.678317 2:-0.561042 3:-0.737502 4:-0.869473 5:-0.348683 6:-0.0656426 7:-0.158236 8:0.776168 9:0.54776 10:-0.61602 11:-0.752332 12:0.752757 13:-0.870502 14:0.007431 
168.7579324007751 1:0.710393 2:0.287592 3:0.855851 4:0.886146 5:-0.507096 6:0.469641 7:0.140584 8:0.4101 9:-0.888715 10:-0.481279 11:-0.806565 12:-0.248587 13:-0.575031 14:-0.595935 
2048 1:-0.183188 2:0.299691 3:0.154122 4:-0.0708564 5:0.858394 6:0.654887 7:0.71015 8:-0.984918 9:0.0906922 10:0.28078 11:-0.876267 12:-0.301571 13:0.267855 14:0.0922733 
2048 1:-0.8346 2:-0.367764 3:-0.909875 4:0.310444 5:-0.521561 6:-0.10892 7:-0.0986259 8:0.735627 9:-0.958622 10:-0.651657 11:-0.682939 12:0.759602 13:0.209085 14:-0.160322 
190.1621526878921 1:0.322243 2:0.991033 3:0.550066 4:-0.735997 5:-0.105829 6:0.587407 7:0.39392 8:0.985063 9:0.998137 10:-0.21285 11:0.231018 12:0.537015 13:0.176615 14:0.355742 
1248.733552619039 1:-0.629734 2:-0.704797 3:-0.195046 4:-0.787463 5:0.129613 6:-0.143322 7:-0.36326 8:-0.315871 9:-0.7825 10:-0.9092 11:0.503451 12:0.0888722 13:0.0433003 14:-0.197472 
70.35748656704371 1:-0.25809 2:0.91068 3:-0.0265046 4:-0.815063 5:-0.661613 6:-0.519323 7:0.789157 8:-0.880747 9:0.341701 10:-0.169291 11:-0.975125 12:-0.459598 13:0.377166 14:0.270678 
2048 1:0.562176 2:0.37312 3:-0.412571 4:-0.378264 5:-0.462408 6:0.562759 7:-0.409776 8:-0.149053 9:0.959389 10:0.233845 11:-0.724193 12:0.741483 13:-0.74681 14:-0.368085 
1337.272462190588 1:-0.0968951 2:-0.976947 3:-0.446056 4:-0.814007 5:0.835668 6:-0.597417 7:0.617753 8:0.858375 9:-0.468961 10:-0.93958 11:-0.58739 12:0.986535 13:0.846384 14:-0.381787 
293.2159704962804 1:-0.982966 2:-0.571541 3:-0.238568 4:-0.231372 5:0.344515 6:-0.50609 7:0.53193 8:-0.645793 9:-0.929657 10:-0.278326 11:-0.804599 12:0.296891 13:-0.57453 14:0.804268 
2048 1:0.160999 2:0.511017 3:-0.956232 4:-0.121862 5:0.763185 6:-0.0945525 7:0.288434 8:0.191228 9:-0.714126 10:-0.424632 11:-0.917375 12:-0.283537 13:-0.0732101 14:-0.343539 
2048 1:-0.728841 2:-0.130768 3:0.16032 4:-0.691986 5:0.989272 6:-0.317802 7:-0.813287 8:-0.196805 9:-0.844398 10:-0.0697625 11:-0.800334 12:-0.497684 13:-0.622632 14:0.271682 
302.7851774101238 1:0.358212 2:0.873396 3:0.556977 4:-0.489886 5:-0.716373 6:0.797205 7:0.934667 8:-0.193198 9:-0.879046 10:0.038935 11:-0.959893 12:-0.0909764 13:0.321601 14:-0.739437 
1150.868076662847 1:0.537077 2:-0.687467 3:-0.789884 4:-0.700126 5:-0.889211 6:-0.354701 7:-0.323299 8:0.878987 9:0.791868 10:-0.968976 11:-0.338447 12:0.952087 13:0.28303 14:-0.404732 
1593.925862149076 1:0.664128 2:-0.716962 3:-0.901409 4:-0.823737 5:0.427008 6:-0.0902084 7:0.358053 8:0.287459 9:-0.19066 10:-0.532723 11:0.446526 12:-0.596949 13:0.255349 14:0.477617 
2048 1:0.350604 2:0.930246 3:0.485108 4:-0.510808 5:0.0221578 6:-0.543084 7:0.169899 8:-0.881507 9:-0.37783 10:0.345601 11:-0.426118 12:-0.270048 13:-0.491182 14:0.808594 
2048 1:0.00473165 2:-0.921108 3:-0.341826 4:0.852881 5:-0.212427 6:0.856003 7:0.0675141 8:0.963414 9:0.595298 10:0.848179 11:-0.539411 12:-0.111017 13:-0.626909 14:-0.176479 
2048 1:0.825041 2:-0.799573 3:-0.653057 4:-0.577425 5:-0.275036 6:-0.562171 7:0.00828285 8:0.980651 9:-0.352043 10:0.414112 11:-0.309549 12:-0.523285 13:0.516322 14:0.809587 
1117.126323083868 1:-0.458664 2:-0.641769 3:-0.729814 4:-0.892934 5:-0.466093 6:0.650987 7:0.366445 8:0.352491 9:-0.184134 10:0.543474 11:0.66832 12:-0.512814 13:-0.931716 14:0.713276 
1868.909118128004 1:-0.378476 2:-0.906468 3:-0.688497 4:-0.531622 5:0.467584 6:-0.924784 7:-0.384736 8:-0.154708 9:0.430429 10:0.573668 11:0.804685 12:0.80842 13:0.731607 14:-0.922247 
2048 1:0.206997 2:-0.45884 3:0.395606 4:0.44849 5:0.320597 6:-0.35884 7:-0.0178006 8:-0.631687 9:0.830473 10:0.238996 11:-0.953566 12:-0.177278 13:0.686778 14:0.508529 
1120.757828441931 1:-0.854394 2:-0.434309 3:-0.826133 4:0.612517 5:-0.989185 6:0.547154 7:0.450955 8:0.31002 9:-0.996428 10:-0.774729 11:-0.207932 12:0.361255 13:-0.90052 14:-0.454166 
2048 1:-0.57805 2:-0.633174 3:-0.638409 4:0.351644 5:-0.0513158 6:0.729803 7:-0.30652 8:-0.932274 9:0.614962 10:0.186475 11:-0.857393 12:0.447102 13:-0.391692 14:0.982348 
2048 1:0.0772265 2:0.970641 3:0.408738 4:-0.649913 5:-0.509686 6:0.842349 7:0.404758 8:-0.621804 9:-0.578685 10:0.869699 11:-0.148967 12:0.655346 13:-0.271003 14:-0.456272 
1771.091710511098 1:-0.0769949 2:0.934725 3:0.679546 4:0.629595 5:-0.629998 6:-0.216598 7:0.987894 8:0.35247 9:0.905504 10:0.517095 11:-0.63592 12:-0.609568 13:0.274504 14:-0.287912 
2048 1:0.794386 2:-0.732232 3:-0.748549 4:-0.709199 5:-0.107525 6:0.177496 7:0.537787 8:0.325991 9:-0.422844 10:0.753033 11:-0.934731 12:0.0416678 13:-0.950791 14:0.321459 
2048 1:-0.669148 2:-0.528655 3:-0.223187 4:-0.569532 5:0.866619 6:0.376749 7:-0.494877 8:0.176354 9:-0.52761 10:0.0870566 11:-0.402479 12:-0.189452 13:-0.0990097 14:0.0251721 
2048 1:-0.854585 2:0.697735 3:0.904599 4:0.336569 5:0.156446 6:-0.253295 7:0.275445 8:-0.803966 9:0.682952 10:-0.00429805 11:-0.553284 12:0.234144 13:-0.908598 14:0.459206 
2048 1:-0.682229 2:-0.882728 3:-0.0465317 4:0.372732 5:-0.560998 6:0.273548 7:-0.559685 8:-0.660261 9:0.852924 10:0.481131 11:0.637892 12:0.22076 13:-0.247815 14:-0.792442 
2048 1:0.329625 2:-0.239057 3:-0.972146 4:0.126601 5:0.922044 6:0.581713 7:-0.684236 8:-0.712275 9:0.691215 10:0.280832 11:-0.498314 12:0.298266 13:-0.511543 14:-0.392492 
1290.39133287569 1:0.851808 2:0.879105 3:0.80558 4:-0.354949 5:0.42388 6:0.184687 7:-0.365578 8:0.999725 9:-0.617053 10:-0.691794 11:-0.880948 12:-0.565784 13:-0.806063 14:0.500777 
450.170518887979 1:-0.487019 2:0.60904 3:0.751113 4:-0.646975 5:-0.629836 6:-0.94496 7:-0.933923 8:0.944113 9:0.870011 10:0.759534 11:-0.624301 12:-0.88318 13:0.103586 14:0.485464 
2048 1:0.871823 2:0.967328 3:0.462846 4:-0.960669 5:0.104627 6:0.470738 7:0.683256 8:0.327661 9:-0.141463 10:0.185367 11:-0.189614 12:-0.0636848 13:-0.568778 14:0.394679 
2048 1:-0.34843 2:-0.916412 3:-0.26241 4:-0.569672 5:0.811495 6:0.882654 7:-0.330949 8:0.174633 9:0.140291 10:-0.484454 11:-0.812454 12:-0.244833 13:-0.56271 14:-0.100456 
2048 1:-0.522683 2:-0.214615 3:-0.148867 4:-0.924585 5:-0.714795 6:-0.848561 7:-0.769069 8:0.990494 9:0.867872 10:0.633104 11:-0.906289 12:-0.576655 13:0.322838 14:-0.920273 
2048 1:-0.139977 2:-0.228471 3:-0.51055 4:-0.381533 5:-0.0442719 6:0.889947 7:-0.426812 8:-0.15069 9:0.87812 10:0.430014 11:-0.447773 12:-0.373438 13:-0.393197 14:0.133335 
2048 1:0.651863 2:0.0254519 3:0.036839 4:0.707921 5:0.242452 6:-0.251359 7:-0.0413066 8:-0.898716 9:0.755643 10:0.378258 11:-0.599696 12:0.338283 13:0.739246 14:-0.752156 
2048 1:-0.00458717 2:0.347852 3:-0.126969 4:0.338616 5:-0.726801 6:-0.0579089 7:-0.529067 8:-0.867944 9:0.669908 10:0.65262 11:-0.431686 12:-0.769164 13:-0.473716 14:0.763848 
819.7190298421253 1:-0.985213 2:-0.797234 3:0.489234 4:-0.97245 5:-0.606169 6:-0.817023 7:0.483651 8:-0.0646549 9:-0.465733 10:-0.619385 11:-0.735037 12:-0.331456 13:0.25791 14:0.0532337 
2048 1:0.620479 2:-0.313117 3:-0.678055 4:-0.833103 5:0.540032 6:-0.659726 7:-0.395184 8:0.60835 9:-0.855769 10:-0.504287 11:-0.814757 12:-0.26619 13:-0.292022 14:-0.571413 
2048 1:0.290724 2:0.701479 3:0.567451 4:-0.757884 5:-0.315089 6:-0.0103579 7:0.000371765 8:0.0463417 9:-0.496211 10:0.573173 11:-0.231098 12:0.391408 13:-0.71458 14:0.442677 
2048 1:-0.0227396 2:0.787194 3:0.200383 4:0.94743 5:0.639595 6:0.0920516 7:0.885143 8:0.692408 9:0.975732 10:0.816642 11:-0.222305 12:-0.887858 13:0.522164 14:0.815778 
2048 1:-0.367324 2:-0.368142 3:-0.557079 4:-0.854417 5:-0.377934 6:0.187623 7:-0.00871037 8:0.832173 9:0.490266 10:0.292497 11:-0.727221 12:-0.107393 13:-0.581877 14:0.630707 
2048 1:-0.899015 2:-0.487812 3:0.699115 4:-0.505583 5:-0.616577 6:-0.847554 7:-0.141745 8:0.396458 9:0.751067 10:0.841165 11:-0.989167 12:-0.701578 13:-0.432444 14:-0.11641 
939.9371261585328 1:0.96399 2:0.983511 3:0.468726 4:-0.904877 5:0.594072 6:-0.351348 7:0.275125 8:0.747581 9:0.599523 10:-0.647906 11:-0.553655 12:-0.767966 13:0.440078 14:0.45186 
2048 1:-0.257406 2:0.476977 3:0.0284829 4:-0.0278175 5:-0.813797 6:-0.927711 7:-0.11558 8:0.196477 9:0.919002 10:0.577353 11:-0.467832 12:0.270752 13:-0.157674 14:-0.0197823 
1583.655614643221 1:-0.569199 2:-0.9474 3:-0.169032 4:-0.981534 5:-0.568009 6:-0.379932 7:-0.836275 8:0.306972 9:-0.301763 10:0.470897 11:-0.875975 12:0.200621 13:-0.90557 14:-0.765747 
550.0719186444013 1:0.969102 2:0.783826 3:-0.18802 4:0.199431 5:0.995354 6:-0.129136 7:-0.77376 8:-0.981636 9:0.360252 10:0.177345 11:-0.751545 12:-0.966233 13:0.118206 14:-0.50468 
2048 1:-0.0144321 2:-0.304852 3:0.0414479 4:-0.941759 5:0.217578 6:0.0577347 7:0.181647 8:-0.834236 9:0.0656153 10:0.0273334 11:-0.92818 12:0.0791169 13:0.671577 14:0.00156038 
2048 1:-0.666781 2:0.0924629 3:0.321632 4:0.384339 5:0.180537 6:-0.33058 7:0.299805 8:-0.509815 9:0.803045 10:0.533085 11:-0.802694 12:-0.400601 13:-0.730114 14:-0.31468 
2048 1:0.430035 2:-0.92878 3:-0.729381 4:-0.770384 5:-0.403306 6:0.238873 7:0.574153 8:-0.773746 9:0.275134 10:0.867867 11:-0.476221 12:-0.968625 13:-0.238263 14:0.172754 
2048 1:-0.577756 2:-0.60667 3:-0.66027 4:-0.0129917 5:-0.712482 6:0.676223 7:0.987949 8:-0.431588 9:-0.778021 10:-0.499748 11:-0.924792 12:-0.663761 13:0.0760443 14:0.156761 
1274.629829707466 1:-0.1766 2:-0.969219 3:-0.0893403 4:-0.842024 5:0.802843 6:0.946447 7:0.279489 8:-0.841738 9:-0.181954 10:0.542064 11:0.503034 12:-0.613404 13:-0.215201 14:0.18906 
847.9506406776908 1:0.666374 2:-0.850002 3:-0.206633 4:0.993374 5:0.59151 6:0.827554 7:-0.0141799 8:0.576301 9:0.982553 10:0.381134 11:-0.448863 12:0.671559 13:-0.369521 14:-0.362301 
2048 1:-0.682819 2:-0.478248 3:-0.429449 4:-0.871967 5:-0.443012 6:0.335224 7:-0.016086 8:-0.0413628 9:0.17913 10:0.640979 11:-0.287422 12:0.285969 13:0.671755 14:-0.17162 
2048 1:0.970704 2:-0.377397 3:0.0590801 4:0.200081 5:-0.286465 6:0.255769 7:0.197113 8:-0.937034 9:-0.760257 10:0.0247134 11:-0.770683 12:0.298097 13:-0.0611985 14:-0.589421 
2048 1:-0.445741 2:-0.0560058 3:0.505352 4:0.78948 5:0.788101 6:0.138177 7:-0.248951 8:0.31349 9:-0.741713 10:-0.447077 11:-0.961938 12:0.582073 13:0.379788 14:0.501336 
2048 1:0.791355 2:0.34863 3:-0.547358 4:-0.00782886 5:0.374461 6:-0.267502 7:-0.450749 8:0.138631 9:-0.535317 10:-0.386653 11:-0.777038 12:-0.110039 13:-0.0627396 14:-0.193078 
2048 1:-0.0132935 2:0.451688 3:0.617187 4:-0.978427 5:-0.107506 6:0.0384178 7:-0.218787 8:0.370963 9:-0.432949 10:0.765662 11:-0.315791 12:-0.573677 13:0.149903 14:-0.180493 
2048 1:-0.10741 2:-0.12542 3:-0.308349 4:-0.296939 5:-0.0474987 6:-0.356074 7:-0.300151 8:-0.638393 9:0.916841 10:0.231673 11:-0.89223 12:0.35756 13:0.904407 14:0.818366 
2048 1:-0.8295 2:-0.987243 3:-0.468871 4:-0.378955 5:-0.347119 6:0.520214 7:-0.103321 8:0.502524 9:-0.562047 10:0.591262 11:-0.589222 12:-0.961535 13:-0.747215 14:0.972048 
34.2115622048778 1:0.980982 2:-0.427795 3:-0.837197 4:-0.136923 5:-0.589924 6:0.0372196 7:0.690305 8:0.920478 9:0.828651 10:0.528395 11:0.28809 12:0.910798 13:0.515756 14:-0.942467 
221.4948653992921 1:0.933823 2:0.895768 3:0.613167 4:-0.893327 5:0.999707 6:-0.254911 7:-0.700687 8:0.894772 9:0.565068 10:-0.913271 11:-0.268239 12:0.101393 13:-0.197763 14:-0.825239 
2048 1:-0.50675 2:-0.286321 3:-0.632405 4:-0.325776 5:0.969286 6:-0.243777 7:-0.211668 8:-0.826502 9:0.900575 10:0.0934168 11:0.637995 12:-0.200001 13:-0.613841 14:0.79574 
2048 1:-0.255646 2:0.665945 3:0.413669 4:-0.822086 5:0.0836823 6:-0.224708 7:0.284347 8:0.906365 9:0.318326 10:-0.823529 11:0.964707 12:0.71341 13:-0.0696248 14:0.642773 
2048 1:0.597048 2:-0.975453 3:-0.11521 4:-0.0713789 5:-0.103776 6:0.375581 7:-0.221189 8:0.0893372 9:0.977401 10:0.726052 11:-0.635044 12:-0.770552 13:-0.0636248 14:0.820826 
1765.531172012488 1:-0.344884 2:-0.97888 3:-0.551136 4:-0.347523 5:-0.00833584 6:-0.195799 7:0.656455 8:0.474386 9:0.468602 10:-0.852612 11:0.740747 12:-0.575113 13:0.663687 14:0.900438 
2048 1:-0.696472 2:0.993923 3:0.520907 4:-0.392831 5:0.159772 6:-0.169512 7:0.811793 8:0.158878 9:0.756484 10:0.585738 11:-0.545856 12:0.927308 13:0.193786 14:-0.340347 
2048 1:-0.595186 2:-0.314937 3:-0.56609 4:-0.858277 5:-0.725812 6:0.303485 7:0.0990443 8:-0.742685 9:-0.150211 10:-0.0579615 11:0.340054 12:-0.967019 13:0.443184 14:-0.68477 
2048 1:-0.793164 2:0.924543 3:0.259325 4:-0.500656 5:0.802812 6:0.170654 7:-0.683208 8:-0.444295 9:0.0770778 10:0.290691 11:-0.897686 12:-0.41057 13:0.362344 14:0.986132 
1165.881929682063 1:-0.143926 2:0.971433 3:-0.446295 4:0.946965 5:-0.525796 6:-0.763626 7:0.694848 8:-0.88893 9:0.612333 10:0.384495 11:-0.506692 12:-0.257678 13:-0.390293 14:0.2076 
9.261657822197748 1:-0.988167 2:-0.934464 3:0.0351313 4:-0.187957 5:0.119912 6:-0.885196 7:-0.423161 8:0.722126 9:-0.116273 10:-0.161427 11:-0.342975 12:0.759468 13:-0.0719447 14:0.1631 
2048 1:-0.690255 2:-0.668266 3:-0.0344129 4:-0.636301 5:0.30048 6:0.676527 7:-0.221299 8:-0.59011 9:0.68773 10:-0.425018 11:0.00437681 12:-0.918498 13:-0.693166 14:-0.244568 
2048 1:0.707111 2:-0.885113 3:-0.7826 4:-0.411168 5:0.540499 6:-0.493911 7:0.500126 8:-0.0832924 9:0.67851 10:0.581519 11:-0.278302 12:0.43296 13:0.194576 14:-0.886489 
1068.780150312126 1:-0.76284 2:-0.628874 3:-0.21313 4:-0.78067 5:0.7861 6:0.586699 7:0.729001 8:-0.389437 9:-0.544248 10:-0.0699323 11:-0.81006 12:0.187773 13:-0.565197 14:-0.519001 
2014.666249003629 1:-0.821554 2:-0.854511 3:-0.827645 4:0.847346 5:0.179975 6:-0.629633 7:0.743439 8:-0.690488 9:0.543206 10:0.19952 11:0.336862 12:0.411863 13:-0.510844 14:0.258319 
2048 1:-0.138455 2:-0.658051 3:-0.547059 4:0.00591259 5:0.0860901 6:-0.406871 7:-0.100301 8:0.925997 9:0.728603 10:0.830656 11:-0.359158 12:-0.2229 13:-0.686805 14:0.0322821 
2048 1:0.187692 2:0.962702 3:0.661177 4:-0.523701 5:-0.391769 6:-0.323623 7:-0.101478 8:0.506512 9:0.394905 10:-0.00130441 11:-0.215675 12:-0.0885377 13:0.691206 14:-0.989349 
2048 1:-0.52388 2:0.518949 3:0.424627 4:-0.00371092 5:-0.691528 6:-0.140784 7:0.0969692 8:-0.997257 9:0.454998 10:0.30939 11:-0.306891 12:0.0968101 13:-0.791138 14:-0.400805 
1161.90789197779 1:-0.455505 2:0.936566 3:0.337403 4:-0.526263 5:0.0590668 6:0.0145597 7:-0.0293997 8:-0.763751 9:0.858023 10:-0.768703 11:0.0969812 12:0.675011 13:-0.647986 14:-0.865228 
2048 1:-0.489549 2:0.438686 3:0.419229 4:-0.745845 5:-0.168781 6:0.124083 7:-0.819161 8:-0.09986 9:-0.483771 10:-0.303456 11:-0.40249 12:0.0546144 13:-0.0549737 14:-0.572279 
2048 1:0.0729652 2:-0.819014 3:-0.472992 4:-0.491342 5:0.0534963 6:-0.432943 7:-0.354949 8:-0.152207 9:0.842722 10:0.057874 11:0.144225 12:0.0496851 13:-0.257403 14:-0.949523 
19.87786851428728 1:0.829681 2:0.831403 3:0.970897 4:-0.278742 5:0.952026 6:0.878585 7:-0.656659 8:-0.328388 9:-0.43522 10:-0.465317 11:-0.923909 12:0.171785 13:-0.0236941 14:0.581523 
2048 1:0.0243123 2:-0.96076 3:-0.458214 4:-0.726677 5:0.728968 6:0.606723 7:0.699261 8:-0.482912 9:-0.272937 10:-0.560203 11:0.101139 12:0.800116 13:-0.30037 14:0.59919 
2048 1:0.317304 2:0.853566 3:0.292623 4:-0.901035 5:0.920454 6:-0.758644 7:-0.209453 8:-0.701853 9:0.626989 10:-0.197973 11:-0.0854912 12:0.163172 13:-0.551109 14:-0.213308 
2048 1:-0.589524 2:-0.599873 3:-0.248123 4:-0.583054 5:0.639706 6:-0.0663661 7:-0.586545 8:-0.368519 9:-0.853765 10:-0.147715 11:0.282019 12:0.831649 13:0.17483 14:-0.758657 
89.96001210574296 1:0.0770671 2:-0.772071 3:-0.472177 4:-0.871945 5:0.580106 6:0.296285 7:0.369932 8:-0.991655 9:0.496676 10:0.906482 11:-0.56691 12:0.222176 13:-0.67889 14:0.864167 
2048 1:0.965522 2:-0.984052 3:0.914292 4:-0.519296 5:0.152521 6:-0.931685 7:0.568591 8:0.443585 9:-0.0108884 10:-0.502557 11:-0.879695 12:0.744033 13:-0.396254 14:0.719872 
1984.932883679879 1:-0.756643 2:0.807941 3:-0.660084 4:-0.34545 5:-0.825802 6:-0.214841 7:-0.601736 8:0.699402 9:0.685695 10:0.647065 11:-0.892562 12:-0.213861 13:0.0677633 14:0.127918 
