svm_type c_svc
kernel_type rbf
gamma 0.125
nr_class 2
total_sv 872
rho 11.2146
label 0 1
nr_sv 424 448
SV
107.2636490224018 1:0.208774 2:0.232904 3:-0.0623562 4:-0.788959 5:-0.563258 6:-0.424265 7:-0.941976 8:0.653979 9:-0.592831 10:-0.0342597 
128 1:-0.684951 2:0.295822 3:-0.200487 4:-0.472673 5:-0.157978 6:0.302419 7:-0.254982 8:-0.128485 9:-0.778612 10:0.762573 
128 1:0.369047 2:-0.467492 3:0.249631 4:-0.603863 5:0.44608 6:0.458481 7:-0.00171195 8:-0.913444 9:-0.419172 10:-0.123561 
78.73278136643815 1:-0.421746 2:0.151032 3:-0.571582 4:-0.491179 5:-0.978468 6:-0.230573 7:0.187933 8:0.148447 9:-0.785194 10:0.00695226 
128 1:0.301996 2:0.415359 3:-0.600149 4:-0.634718 5:0.576204 6:-0.874163 7:-0.0621407 8:0.280943 9:-0.747006 10:-0.89645 
22.80554090426179 1:-0.307363 2:-0.630434 3:0.696979 4:-0.179026 5:0.666709 6:-0.511842 7:-0.0843042 8:0.866315 9:0.345531 10:0.936437 
52.21669261159926 1:-0.204112 2:-0.372258 3:-0.6524 4:-0.194647 5:0.176951 6:-0.44385 7:0.838054 8:-0.363213 9:-0.789893 10:-0.328574 
70.37588013163649 1:-0.690255 2:-0.47293 3:0.325582 4:0.975329 5:0.10702 6:0.885191 7:0.978342 8:0.92624 9:-0.720877 10:0.971926 
86.20524007094728 1:-0.322859 2:-0.469151 3:0.613951 4:-0.511698 5:-0.678732 6:-0.567051 7:-0.773554 8:0.914201 9:0.753759 10:-0.210247 
128 1:-0.671273 2:-0.118282 3:0.868799 4:-0.645442 5:-0.193792 6:0.375266 7:0.588645 8:0.437964 9:0.395174 10:-0.271739 
31.79873976103234 1:0.0624504 2:-0.413378 3:-0.46571 4:0.418715 5:-0.883751 6:0.624136 7:0.252957 8:-0.405824 9:0.550522 10:-0.820715 
128 1:-0.274242 2:-0.522723 3:-0.79986 4:-0.335898 5:-0.15708 6:-0.972369 7:-0.647946 8:0.388324 9:0.641383 10:0.874118 
128 1:-0.143555 2:0.376958 3:0.776155 4:0.08028 5:0.237024 6:-0.853032 7:-0.125948 8:0.812537 9:-0.547134 10:0.567644 
39.5149391673967 1:0.294897 2:-0.456893 3:0.783545 4:0.930024 5:0.882252 6:0.491617 7:0.871764 8:-0.775862 9:0.190175 10:0.556406 
128 1:0.0173092 2:0.332626 3:0.550581 4:-0.614683 5:0.881026 6:-0.973065 7:-0.407188 8:0.838316 9:-0.00729067 10:-0.0531667 
128 1:0.283294 2:0.235141 3:0.660215 4:-0.567217 5:-0.841106 6:-0.381472 7:-0.221243 8:-0.748276 9:-0.361232 10:-0.855723 
128 1:0.864247 2:0.0347944 3:-0.0752805 4:0.842207 5:-0.438529 6:-0.439514 7:-0.593236 8:-0.11906 9:-0.340161 10:0.531378 
23.90464957130209 1:0.889002 2:0.094483 3:0.884879 4:0.749126 5:-0.777939 6:-0.899361 7:-0.759818 8:-0.844475 9:0.0718921 10:-0.0683776 
38.05610018112779 1:-0.207954 2:0.394711 3:0.55127 4:-0.498112 5:-0.978931 6:-0.433286 7:-0.867357 8:-0.610082 9:0.826647 10:-0.182097 
128 1:-0.005619 2:0.155304 3:-0.41392 4:-0.372145 5:-0.997113 6:-0.208079 7:0.88921 8:0.488073 9:0.891089 10:0.159049 
128 1:-0.802536 2:-0.0554607 3:-0.561437 4:-0.40128 5:0.715476 6:-0.036325 7:-0.0280196 8:-0.143781 9:-0.568338 10:0.69638 
69.83203597448082 1:0.191019 2:0.293836 3:0.560572 4:-0.515691 5:0.747311 6:-0.39471 7:0.552263 8:-0.984381 9:-0.234277 10:-0.496862 
46.77228832765946 1:-0.544156 2:-0.614327 3:0.458461 4:0.664135 5:0.570567 6:0.206991 7:-0.658449 8:0.178095 9:-0.7662 10:0.746826 
128 1:0.553459 2:0.258158 3:0.289989 4:-0.281729 5:0.921886 6:-0.00610462 7:-0.498161 8:-0.874556 9:-0.370497 10:0.572989 
128 1:0.363198 2:0.12091 3:-0.959765 4:-0.503516 5:-0.7458 6:-0.383985 7:0.141405 8:-0.164106 9:-0.903807 10:0.402984 
86.76510796771431 1:0.127112 2:0.269451 3:0.413804 4:-0.298239 5:0.947183 6:0.639466 7:0.873839 8:-0.887066 9:0.575693 10:0.00593555 
65.54966590620828 1:-0.300419 2:0.394218 3:-0.0565996 4:0.859713 5:-0.0138345 6:0.447545 7:-0.0244818 8:0.444654 9:0.712883 10:-0.831999 
66.27476217811426 1:-0.322989 2:0.27557 3:-0.971574 4:0.939995 5:-0.899623 6:0.797675 7:-0.95323 8:-0.812098 9:-0.240083 10:0.566969 
27.93115896592552 1:0.813985 2:0.0924827 3:-0.427722 4:-0.136862 5:-0.139918 6:0.162116 7:0.65658 8:0.632002 9:0.0642454 10:-0.49031 
10.64769693630415 1:-0.580422 2:-0.544312 3:0.297226 4:0.924598 5:0.881002 6:-0.683563 7:0.393097 8:-0.515216 9:-0.890791 10:0.499197 
128 1:-0.713876 2:0.0431914 3:-0.56762 4:-0.698953 5:-0.0805427 6:0.498165 7:-0.012966 8:-0.054106 9:-0.241321 10:-0.617162 
128 1:-0.165763 2:0.254115 3:0.877355 4:-0.410817 5:-0.574131 6:-0.754604 7:-0.0361501 8:-0.820152 9:-0.403858 10:0.564389 
86.48772975636777 1:0.240103 2:-0.4703 3:0.895984 4:0.491797 5:0.177877 6:-0.810379 7:-0.975368 8:-0.787634 9:0.634301 10:0.0816168 
42.50796429507859 1:-0.550591 2:-0.608611 3:0.607201 4:-0.569899 5:-0.907094 6:-0.696476 7:0.446682 8:-0.17326 9:-0.395364 10:0.418351 
75.45298747460082 1:0.619703 2:0.223479 3:-0.0245403 4:-0.124171 5:0.30082 6:-0.774937 7:-0.574189 8:0.955159 9:0.0398251 10:0.963812 
82.64868587164143 1:-0.539298 2:0.306456 3:0.0571143 4:-0.285997 5:0.57107 6:0.673103 7:-0.357837 8:0.965124 9:-0.546042 10:0.716454 
9.278900343584755 1:-0.304063 2:-0.684863 3:0.932352 4:0.752774 5:0.163474 6:-0.98043 7:0.520961 8:0.953234 9:-0.075953 10:0.371521 
120.6421256054435 1:-0.694385 2:-0.427664 3:0.0189384 4:0.836254 5:0.91958 6:0.113151 7:-0.431773 8:-0.38766 9:0.584762 10:0.0243991 
128 1:-0.264804 2:0.255282 3:-0.86792 4:-0.65503 5:0.159632 6:0.397441 7:0.644037 8:0.345191 9:-0.26296 10:0.00841548 
128 1:-0.737089 2:-0.266732 3:0.602912 4:-0.542019 5:0.904863 6:-0.72654 7:-0.55366 8:0.25228 9:-0.633835 10:0.239604 
128 1:-0.336386 2:0.369395 3:-0.502802 4:-0.308541 5:0.26181 6:-0.1688 7:-0.487668 8:-0.234756 9:-0.0143833 10:0.887986 
128 1:0.867121 2:0.142406 3:0.354821 4:-0.140591 5:0.369997 6:-0.543567 7:-0.198027 8:0.379029 9:0.956881 10:-0.389825 
128 1:-0.545157 2:0.165131 3:0.594503 4:-0.676387 5:0.10032 6:0.851748 7:0.779441 8:-0.759413 9:-0.912927 10:-0.969176 
23.54931818172854 1:0.421773 2:0.161964 3:-0.865796 4:-0.492438 5:-0.453128 6:0.577227 7:0.0754553 8:0.799826 9:-0.433143 10:0.289988 
128 1:-0.5704 2:-0.131575 3:0.169086 4:-0.537149 5:-0.704698 6:-0.48204 7:-0.0984642 8:0.969927 9:-0.635212 10:0.0682091 
45.43099569636544 1:0.57017 2:-0.172442 3:0.469791 4:-0.0141459 5:0.980256 6:0.254328 7:-0.856589 8:-0.397196 9:0.0339159 10:0.914231 
9.501678859738549 1:0.510749 2:0.382737 3:0.756901 4:0.292803 5:-0.608462 6:0.807981 7:-0.672807 8:-0.3816 9:-0.370284 10:-0.765416 
128 1:0.146356 2:-0.607876 3:0.484296 4:0.252093 5:0.677961 6:0.20538 7:-0.911463 8:0.00739179 9:-0.529516 10:0.255864 
4.852243392135306 1:0.159588 2:-0.444132 3:0.966438 4:-0.503882 5:-0.423211 6:0.884914 7:-0.0936534 8:0.489132 9:-0.543938 10:0.784963 
84.90377730138817 1:0.637297 2:0.0408091 3:-0.822806 4:-0.351407 5:0.783789 6:-0.842045 7:-0.362884 8:-0.714317 9:0.610353 10:-0.56485 
128 1:-0.392061 2:-0.6261 3:0.327072 4:-0.837021 5:-0.202279 6:0.923438 7:-0.447812 8:-0.935601 9:-0.270906 10:0.581655 
128 1:0.853279 2:0.12846 3:0.204604 4:-0.530255 5:-0.591561 6:0.810913 7:0.117688 8:-0.0895918 9:0.893293 10:-0.38238 
22.67529171204019 1:0.0858701 2:-0.518517 3:-0.818285 4:0.827744 5:-0.441563 6:-0.627966 7:-0.970251 8:0.747768 9:-0.912815 10:0.553736 
1.023058210740337 1:0.0438693 2:0.393592 3:0.486929 4:0.375545 5:-0.9267 6:-0.891252 7:0.41934 8:0.679192 9:0.741543 10:0.933308 
109.5300687430996 1:0.269646 2:0.248913 3:0.154051 4:-0.703013 5:-0.749268 6:-0.515687 7:-0.763185 8:-0.0729248 9:0.660134 10:-0.378614 
106.500012499437 1:0.0753474 2:-0.422183 3:-0.819635 4:-0.624237 5:-0.762336 6:-0.908822 7:-0.909232 8:-0.897699 9:0.0439867 10:-0.911951 
93.78293187288548 1:0.220376 2:0.397301 3:0.370402 4:0.338988 5:-0.893393 6:0.141322 7:0.880031 8:-0.523133 9:0.848607 10:-0.996361 
18.47906819503094 1:-0.450912 2:0.0886697 3:-0.640039 4:-0.590812 5:0.831333 6:-0.588217 7:0.727622 8:-0.976101 9:-0.519097 10:-0.300995 
123.0493095656641 1:-0.575118 2:0.290217 3:-0.562516 4:-0.369109 5:0.525313 6:-0.513155 7:0.502338 8:-0.163645 9:-0.445168 10:0.784498 
128 1:-0.408326 2:-0.469529 3:-0.462862 4:-0.395797 5:0.519898 6:-0.914167 7:0.45221 8:0.482063 9:-0.796835 10:-0.783765 
107.4500982096374 1:-0.415712 2:-0.113337 3:-0.885198 4:-0.264117 5:-0.773588 6:-0.152474 7:0.398182 8:-0.181121 9:-0.697455 10:-0.777628 
128 1:-0.3063 2:0.359282 3:-0.349933 4:-0.727092 5:-0.355062 6:-0.518483 7:-0.421618 8:0.28615 9:0.0474209 10:-0.0357924 
128 1:-0.0047334 2:-0.547347 3:0.124916 4:-0.159412 5:0.156888 6:-0.405282 7:0.0150986 8:-0.164828 9:0.359503 10:0.378766 
30.13395085146203 1:-0.4187 2:-0.473562 3:0.674259 4:0.340024 5:0.472065 6:0.851701 7:-0.342041 8:0.795138 9:0.456444 10:-0.715939 
90.19751056789413 1:0.462895 2:-0.0994597 3:-0.450397 4:-0.692306 5:0.981304 6:-0.585448 7:-0.906637 8:-0.996542 9:-0.824565 10:-0.195441 
87.02133300758113 1:-0.561283 2:-0.494808 3:0.140705 4:0.228926 5:-0.720344 6:-0.968754 7:-0.933553 8:-0.941607 9:-0.276089 10:-0.22921 
0.389604626358959 1:0.83271 2:0.226438 3:0.260297 4:0.372932 5:0.982767 6:-0.0374706 7:-0.436084 8:0.922094 9:-0.316241 10:-0.950351 
128 1:0.47347 2:-0.3417 3:0.292834 4:-0.449583 5:0.302125 6:-0.28315 7:-0.444208 8:-0.259959 9:-0.6901 10:0.83868 
33.43115630049945 1:-0.631886 2:-0.357473 3:-0.401257 4:0.783667 5:0.176654 6:-0.205676 7:0.764638 8:0.829032 9:0.214372 10:-0.972224 
106.0415191680395 1:0.82321 2:-0.0392502 3:-0.55584 4:0.834493 5:0.475802 6:0.28717 7:-0.846382 8:-0.822991 9:-0.502368 10:-0.104439 
128 1:0.439629 2:0.261005 3:0.640616 4:-0.527055 5:-0.847352 6:-0.773518 7:0.521736 8:0.713274 9:-0.0291811 10:-0.131026 
128 1:0.250698 2:-0.418126 3:0.952232 4:-0.619192 5:-0.75492 6:-0.669814 7:0.752761 8:0.765519 9:-0.654051 10:0.473168 
128 1:-0.563444 2:-0.634102 3:0.450822 4:0.995019 5:0.142115 6:-0.602132 7:-0.393202 8:0.508755 9:-0.904965 10:0.553079 
122.8717766747581 1:0.767789 2:-0.0899584 3:0.464086 4:-0.104562 5:0.405939 6:0.0511913 7:-0.364227 8:0.690433 9:-0.152853 10:0.926059 
20.04834787824327 1:-0.402469 2:-0.464483 3:0.691207 4:-0.353741 5:0.573024 6:-0.88911 7:-0.597831 8:0.723957 9:-0.395434 10:-0.203748 
107.5719089140061 1:0.856161 2:0.213554 3:0.053602 4:-0.0749278 5:0.956015 6:0.577617 7:0.913646 8:-0.140353 9:-0.692575 10:0.570375 
7.924468112677745 1:0.221459 2:-0.521096 3:0.644124 4:0.831313 5:0.96385 6:-0.137685 7:0.810934 8:-0.833888 9:-0.743163 10:0.248484 
29.70982105227656 1:-0.255384 2:-0.486284 3:0.732029 4:-0.126735 5:0.992497 6:0.978113 7:0.129934 8:-0.339759 9:0.312331 10:0.712535 
123.4273417750193 1:-0.00132761 2:-0.591523 3:0.458306 4:-0.654574 5:0.285207 6:-0.838159 7:0.722681 8:-0.490041 9:0.913661 10:0.744328 
113.5787116682589 1:0.668489 2:0.360442 3:-0.982117 4:-0.00542983 5:0.364386 6:-0.438458 7:0.716118 8:0.0713377 9:0.218442 10:0.799335 
13.04030477015954 1:0.213866 2:0.440015 3:0.769493 4:-0.063237 5:0.52553 6:0.111338 7:0.889143 8:-0.588957 9:-0.950842 10:-0.957629 
128 1:0.751176 2:-0.135138 3:0.590967 4:-0.0587159 5:-0.581136 6:0.743244 7:0.40672 8:-0.76312 9:-0.381025 10:0.313607 
128 1:0.394739 2:-0.349049 3:0.21346 4:-0.332541 5:0.455671 6:-0.305416 7:-0.707337 8:-0.458164 9:-0.593814 10:0.152559 
128 1:0.730002 2:-0.147126 3:0.927634 4:-0.656975 5:-0.582991 6:-0.54068 7:-0.932282 8:0.455131 9:-0.0733392 10:0.334701 
40.93696926962797 1:-0.39399 2:-0.562748 3:0.139721 4:0.958721 5:-0.783805 6:0.141235 7:-0.513578 8:-0.689409 9:0.886745 10:0.137728 
113.6888108368189 1:0.545941 2:0.178876 3:-0.86927 4:-0.664218 5:0.966156 6:-0.938724 7:-0.80579 8:0.507235 9:0.0734602 10:0.591088 
125.4254577695292 1:0.242887 2:-0.36883 3:0.769529 4:-0.605044 5:0.342707 6:-0.275723 7:0.851397 8:0.312876 9:0.513607 10:-0.183315 
18.68170072522436 1:0.223312 2:0.39676 3:-0.133406 4:-0.587578 5:0.632983 6:-0.9821 7:0.940617 8:-0.39516 9:-0.535894 10:-0.513376 
20.45542545617983 1:-0.475605 2:-0.509169 3:-0.242118 4:0.732824 5:0.890834 6:0.378401 7:0.522957 8:-0.456365 9:-0.862005 10:0.495377 
23.03005453020856 1:-0.118877 2:0.441689 3:-0.285385 4:0.82732 5:0.116731 6:-0.696179 7:0.520364 8:0.922641 9:-0.609799 10:-0.714643 
16.14382266293849 1:-0.441733 2:-0.396179 3:-0.817409 4:0.652302 5:0.651798 6:0.776369 7:-0.977011 8:-0.874923 9:-0.0673331 10:-0.824371 
53.49824430067041 1:-0.301145 2:-0.502807 3:0.87616 4:-0.178312 5:0.305867 6:0.519286 7:0.265274 8:-0.544036 9:0.522053 10:-0.980877 
6.576481973899266 1:-0.836309 2:-0.0722755 3:-0.580835 4:0.86203 5:-0.835051 6:-0.00717978 7:0.928382 8:-0.758275 9:0.526358 10:-0.81985 
123.672815183959 1:-0.54932 2:-0.569061 3:-0.423257 4:0.480215 5:-0.797541 6:0.473186 7:-0.227779 8:0.218849 9:0.0353668 10:0.611408 
94.40093061220705 1:-0.759621 2:-0.119011 3:-0.96784 4:-0.519526 5:-0.329949 6:0.355727 7:0.343716 8:-0.115115 9:-0.630431 10:0.19583 
128 1:-0.837208 2:0.10097 3:-0.355025 4:-0.194062 5:0.450379 6:-0.353712 7:0.0824879 8:-0.168903 9:-0.820164 10:-0.857706 
101.2122499203638 1:0.621995 2:0.314874 3:0.847952 4:-0.49516 5:-0.0238961 6:0.868162 7:-0.000110865 8:0.373177 9:-0.622206 10:0.640445 
128 1:0.586909 2:0.332056 3:0.107145 4:-0.370936 5:-0.759018 6:-0.331583 7:0.668754 8:-0.370807 9:0.238953 10:0.577111 
128 1:-0.486355 2:-0.694914 3:0.453645 4:-0.559445 5:-0.583853 6:0.0642687 7:-0.55479 8:-0.230718 9:-0.126796 10:-0.528498 
98.06094113396566 1:0.571348 2:-0.163607 3:-0.64668 4:-0.0613307 5:-0.66392 6:-0.507282 7:0.558296 8:-0.385222 9:0.832455 10:0.665567 
128 1:-0.180741 2:0.316256 3:-0.375963 4:-0.835131 5:-0.520634 6:-0.875197 7:-0.268358 8:-0.830778 9:-0.997094 10:0.627419 
128 1:-0.546918 2:-0.408576 3:0.974878 4:-0.542514 5:0.947428 6:-0.327287 7:-0.580338 8:0.0644851 9:0.441588 10:-0.726156 
33.66544428662727 1:0.232683 2:0.0226608 3:0.992677 4:-0.45587 5:-0.97619 6:-0.0911755 7:0.0579416 8:0.864733 9:0.892745 10:0.818641 
58.95762200536264 1:-0.259535 2:0.392634 3:0.240013 4:-0.333553 5:-0.886148 6:-0.851363 7:0.999932 8:-0.366778 9:0.427174 10:0.56003 
84.98095010258579 1:0.856577 2:-0.000126927 3:-0.177212 4:0.236412 5:-0.787847 6:-0.597111 7:0.479863 8:0.790469 9:-0.323989 10:-0.458684 
16.56445831002981 1:0.821224 2:0.043747 3:0.996224 4:0.530422 5:-0.705331 6:-0.939629 7:0.701639 8:0.202652 9:0.75846 10:-0.461488 
102.0822386002908 1:0.376222 2:-0.345097 3:-0.309512 4:0.139787 5:0.207839 6:0.414305 7:-0.953197 8:-0.40595 9:0.760803 10:-0.980092 
128 1:-0.54842 2:-0.589396 3:0.513127 4:0.613435 5:0.996591 6:0.765571 7:-0.167622 8:0.345789 9:0.0695228 10:0.0652052 
128 1:0.0128271 2:-0.14009 3:0.0973251 4:-0.477143 5:0.999189 6:0.0457944 7:-0.947235 8:0.759348 9:0.711749 10:0.473939 
60.94965621024414 1:0.769626 2:0.319562 3:-0.076093 4:-0.155487 5:-0.859241 6:-0.639838 7:0.0879679 8:-0.95731 9:0.591463 10:-0.924294 
128 1:0.739337 2:0.0110343 3:-0.156365 4:-0.705155 5:-0.0366307 6:0.280199 7:-0.538447 8:-0.326115 9:0.327706 10:-0.166497 
128 1:0.700616 2:-0.0983415 3:-0.962732 4:-0.103173 5:-0.242227 6:0.546047 7:0.347706 8:-0.452582 9:-0.4558 10:-0.453717 
128 1:-0.143129 2:0.340655 3:-0.690926 4:-0.257071 5:0.313269 6:-0.902673 7:-0.511226 8:0.269103 9:0.859014 10:0.360284 
58.88921446148553 1:-0.832055 2:-0.125928 3:-0.604628 4:0.494021 5:-0.73181 6:-0.939629 7:0.078612 8:-0.995377 9:-0.55764 10:-0.306161 
128 1:0.0658696 2:-0.647925 3:-0.227333 4:-0.499074 5:-0.555396 6:0.957354 7:0.241792 8:0.984086 9:0.518129 10:0.970631 
28.40642364580217 1:0.816953 2:0.0185075 3:0.0681128 4:-0.410946 5:0.937778 6:0.448733 7:-0.00816869 8:-0.58647 9:-0.989238 10:-0.44982 
49.89700801099286 1:0.0115882 2:-0.480498 3:0.775311 4:-0.445203 5:-0.353015 6:0.18532 7:-0.986947 8:-0.68751 9:0.935991 10:0.511692 
22.73274696103992 1:0.0189116 2:0.244788 3:-0.501441 4:-0.19774 5:0.144558 6:-0.86029 7:0.585978 8:0.297127 9:0.696552 10:-0.657 
84.45873511978438 1:0.246495 2:-0.182457 3:0.269623 4:-0.420624 5:-0.799953 6:-0.19765 7:0.93694 8:0.388718 9:0.0752766 10:0.688615 
49.8462249470919 1:-0.443759 2:0.403406 3:-0.978879 4:0.867713 5:0.701648 6:0.775781 7:-0.127691 8:-0.758431 9:-0.400561 10:0.0224118 
128 1:0.448623 2:0.220694 3:-0.316671 4:-0.292869 5:0.211759 6:-0.402938 7:-0.633866 8:-0.133885 9:0.667688 10:0.631184 
128 1:0.411529 2:0.350128 3:0.947141 4:-0.253871 5:0.607809 6:0.216925 7:-0.232944 8:0.725187 9:0.3068 10:-0.296034 
87.23174226260943 1:0.744566 2:0.295288 3:-0.898983 4:0.727289 5:0.617191 6:-0.415362 7:0.408159 8:-0.999431 9:0.77949 10:0.184382 
107.0568342781597 1:0.725284 2:-0.120476 3:-0.602951 4:-0.295135 5:0.128034 6:0.6633 7:0.760731 8:0.730265 9:-0.766811 10:0.546501 
128 1:-0.404355 2:-0.677784 3:0.998197 4:0.736241 5:-0.923927 6:0.764814 7:0.113021 8:-0.704517 9:-0.0545479 10:-0.87586 
26.0017258562836 1:-0.303765 2:-0.709176 3:0.51981 4:-0.0795164 5:0.949857 6:-0.841788 7:-0.944943 8:-0.634738 9:0.395939 10:0.680117 
128 1:0.0458879 2:-0.293882 3:0.162982 4:-0.629219 5:0.532408 6:0.480124 7:0.0557041 8:0.519266 9:0.103092 10:-0.113056 
128 1:-0.217518 2:-0.747678 3:0.578325 4:-0.690844 5:-0.573111 6:0.892192 7:0.142604 8:-0.0772461 9:0.784471 10:0.7387 
128 1:-0.424947 2:-0.572324 3:-0.891467 4:-0.450539 5:-0.0110464 6:-0.106263 7:-0.870142 8:0.461171 9:-0.124411 10:-0.58126 
48.53680542337494 1:0.520205 2:0.306025 3:0.510195 4:0.577049 5:0.980299 6:0.852384 7:-0.75827 8:0.39357 9:-0.220473 10:-0.213857 
128 1:-0.4043 2:-0.606878 3:0.861782 4:-0.888209 5:-0.569954 6:0.430073 7:-0.956029 8:0.800682 9:0.232492 10:-0.489555 
128 1:-0.0128027 2:-0.512218 3:0.514167 4:-0.506558 5:-0.946815 6:0.427793 7:-0.413685 8:0.388936 9:-0.383011 10:-0.936374 
60.50361363086321 1:-0.611458 2:0.347552 3:0.909033 4:0.252527 5:-0.811506 6:0.666695 7:-0.338119 8:0.221825 9:0.474923 10:0.197883 
56.18178847233136 1:-0.813279 2:-0.129547 3:0.953944 4:-0.132004 5:0.713949 6:0.964929 7:0.864599 8:-0.923875 9:0.399299 10:-0.148493 
12.18470411944616 1:-0.78928 2:-0.0196226 3:-0.463527 4:-0.189283 5:-0.505703 6:0.954766 7:-0.633266 8:0.937125 9:-0.301829 10:-0.272911 
128 1:0.773364 2:0.155616 3:0.268984 4:-0.454071 5:-0.376766 6:-0.944521 7:-0.634887 8:0.290965 9:0.63974 10:-0.019646 
31.83725398254333 1:0.825871 2:0.201317 3:-0.168218 4:0.720554 5:0.539445 6:0.557893 7:-0.645399 8:-0.215257 9:0.900897 10:-0.330935 
128 1:-0.204326 2:0.390307 3:0.769641 4:-0.298464 5:-0.602023 6:0.513384 7:0.603374 8:0.648172 9:0.0361438 10:0.337967 
23.34602254871032 1:0.538696 2:-0.295792 3:0.574943 4:0.771446 5:0.587899 6:0.881245 7:-0.932533 8:0.879363 9:0.708017 10:-0.47443 
128 1:-0.414449 2:-0.380833 3:0.0783531 4:-0.483542 5:0.6241 6:-0.0723715 7:0.309947 8:0.0121888 9:0.712144 10:0.640324 
128 1:-0.187012 2:-0.624008 3:0.427634 4:-0.765161 5:0.0256047 6:0.630902 7:0.363428 8:0.904225 9:0.0253865 10:-0.31641 
39.28822543836791 1:-0.388783 2:-0.555859 3:0.990431 4:-0.810749 5:-0.898673 6:-0.667084 7:0.895051 8:-0.269965 9:-0.0408518 10:0.261564 
82.69976488752287 1:-0.23375 2:0.0724939 3:-0.00639505 4:-0.613502 5:-0.386345 6:-0.0104204 7:-0.971975 8:-0.415781 9:-0.749662 10:0.479428 
92.08142073900459 1:0.322124 2:-0.28322 3:-0.863554 4:0.635059 5:0.229344 6:-0.810738 7:-0.890975 8:0.0546531 9:0.735658 10:-0.876754 
29.05981584296596 1:0.331048 2:-0.488444 3:-0.641052 4:0.498848 5:-0.546516 6:0.494712 7:0.108088 8:0.0472225 9:0.260428 10:0.954849 
12.00498624437722 1:-0.525145 2:-0.219573 3:0.427138 4:-0.448076 5:-0.632386 6:0.29478 7:0.306668 8:-0.594585 9:-0.501567 10:-0.684341 
108.230257391312 1:-0.537713 2:-0.417743 3:-0.970357 4:-0.586167 5:-0.390215 6:0.361622 7:-0.834329 8:0.380527 9:-0.697063 10:0.495639 
127.8567384222722 1:0.129783 2:-0.498476 3:0.264596 4:0.891429 5:-0.856721 6:0.688198 7:-0.779043 8:0.356869 9:0.0820024 10:-0.819105 
114.8768154693735 1:-0.295715 2:-0.476391 3:0.192246 4:-0.699448 5:0.391457 6:-0.995094 7:0.95321 8:0.592002 9:0.310563 10:0.343704 
128 1:0.318979 2:0.247906 3:0.770035 4:-0.635247 5:0.131345 6:0.796358 7:-0.0758913 8:0.752521 9:0.979402 10:-0.563226 
104.618079642576 1:0.0738148 2:-0.655457 3:0.46417 4:-0.0263709 5:-0.949762 6:-0.354756 7:-0.19881 8:-0.475534 9:-0.489997 10:0.299601 
128 1:0.26469 2:-0.512553 3:0.330631 4:-0.499158 5:0.0805506 6:0.805757 7:0.80598 8:-0.844831 9:-0.408509 10:0.904868 
128 1:0.5899 2:-0.215475 3:-0.469538 4:0.0345516 5:0.212884 6:-0.815887 7:0.0895896 8:0.650338 9:0.958576 10:0.118854 
31.4933899196548 1:-0.265146 2:0.271666 3:-0.117592 4:-0.502189 5:-0.558821 6:0.978329 7:-0.882052 8:-0.837812 9:-0.500975 10:-0.409625 
128 1:0.570453 2:0.373618 3:0.298046 4:-0.552073 5:-0.749419 6:-0.903051 7:0.900012 8:0.186218 9:0.905903 10:0.187322 
97.44813445833663 1:-0.592111 2:-0.381537 3:0.827024 4:0.328194 5:0.251784 6:-0.3424 7:-0.654693 8:-0.490068 9:0.742499 10:-0.787897 
128 1:0.742493 2:-0.0484876 3:-0.865005 4:-0.118131 5:0.883359 6:-0.11396 7:0.395249 8:0.147093 9:0.0298181 10:0.0112978 
128 1:0.530067 2:-0.26128 3:0.51358 4:-0.622943 5:-0.332688 6:0.059581 7:-0.61481 8:0.191242 9:-0.692997 10:-0.189823 
128 1:-0.359161 2:-0.0508907 3:0.583697 4:-0.398406 5:0.629922 6:-0.252795 7:-0.590444 8:-0.0124856 9:-0.971631 10:0.729864 
128 1:-0.7692 2:-0.230686 3:0.138116 4:0.000901972 5:0.323562 6:0.0031243 7:0.274358 8:0.161769 9:0.451269 10:0.00680888 
128 1:0.308108 2:-0.186062 3:-0.0945369 4:-0.586263 5:0.39736 6:-0.00895152 7:0.524958 8:-0.331902 9:0.503378 10:-0.353456 
51.53175646258025 1:0.619122 2:0.081002 3:0.935048 4:0.299407 5:0.924556 6:0.996797 7:-0.169541 8:-0.838924 9:0.968562 10:-0.607764 
102.1786072577421 1:-0.247709 2:0.164895 3:-0.855545 4:-0.381205 5:-0.000455964 6:-0.416925 7:0.148229 8:-0.01377 9:0.107746 10:-0.510985 
16.83332661390588 1:0.580078 2:-0.119789 3:-0.0313873 4:0.669041 5:-0.920166 6:0.877494 7:0.917452 8:0.899208 9:0.0216211 10:-0.55338 
128 1:-0.496896 2:-0.693036 3:0.727824 4:0.336515 5:-0.227786 6:-0.590754 7:-0.590634 8:0.334387 9:-0.392581 10:0.154858 
128 1:0.357101 2:-0.112392 3:-0.110449 4:-0.474382 5:0.988087 6:-0.458111 7:-0.74661 8:-0.964623 9:0.511913 10:-0.870336 
128 1:0.153388 2:0.332834 3:-0.0357254 4:-0.688629 5:0.315311 6:0.137234 7:0.99324 8:-0.171906 9:0.78135 10:0.490915 
38.74389806927942 1:0.778859 2:0.215978 3:-0.977051 4:0.660265 5:-0.654278 6:-0.0632517 7:0.205756 8:-0.528283 9:-0.420591 10:-0.0316663 
128 1:0.190073 2:-0.489949 3:-0.371045 4:-0.517861 5:-0.0584537 6:0.863966 7:0.17737 8:0.589099 9:-0.78007 10:-0.148173 
25.81682042882868 1:0.829742 2:0.121223 3:0.942409 4:0.939047 5:0.39386 6:0.589279 7:0.111831 8:0.576303 9:0.174614 10:0.286979 
128 1:0.00142497 2:-0.616506 3:0.0376937 4:-0.580651 5:0.484183 6:0.118034 7:0.819816 8:-0.0878606 9:0.162134 10:0.036426 
33.62765661312094 1:0.405269 2:0.296691 3:-0.226584 4:-0.759324 5:0.204783 6:0.864 7:0.262941 8:-0.582271 9:-0.293522 10:-0.984556 
128 1:-0.130406 2:-0.697267 3:-0.124084 4:0.459061 5:-0.833991 6:0.426812 7:0.639606 8:-0.443955 9:0.711978 10:0.308117 
128 1:-0.696979 2:-0.427952 3:-0.471282 4:-0.111878 5:-0.537894 6:0.367595 7:0.119053 8:0.216886 9:-0.75048 10:-0.165762 
128 1:-0.39666 2:-0.690868 3:0.0677215 4:0.0541543 5:-0.0882323 6:0.714721 7:0.851411 8:0.428401 9:-0.745975 10:0.137704 
14.58205638934784 1:-0.840636 2:0.107408 3:-0.501273 4:0.0430371 5:-0.457265 6:-0.474968 7:0.345297 8:-0.357484 9:-0.0576993 10:-0.295667 
18.96633945286961 1:-0.527145 2:0.368575 3:0.204239 4:0.683238 5:0.0860938 6:0.855769 7:0.664812 8:-0.844739 9:0.9592 10:-0.897624 
128 1:-0.377063 2:-0.719145 3:0.182269 4:0.94882 5:-0.791802 6:0.356139 7:-0.927618 8:0.121529 9:0.885089 10:0.868135 
105.3117491557302 1:-0.453775 2:-0.498011 3:0.816945 4:0.744003 5:0.145242 6:-0.892908 7:0.697495 8:0.062535 9:0.238783 10:-0.856485 
59.00424322606071 1:0.818311 2:0.00875621 3:0.606667 4:0.802921 5:-0.0653463 6:-0.688637 7:0.328565 8:-0.917639 9:-0.725935 10:0.741015 
89.15164823776976 1:0.561252 2:-0.157565 3:0.0842615 4:0.917301 5:0.96847 6:-0.71785 7:0.797077 8:-0.896495 9:0.771452 10:-0.94819 
26.45659888399634 1:0.629155 2:-0.251161 3:0.782219 4:0.903349 5:0.0344352 6:-0.873055 7:-0.931532 8:0.533785 9:-0.204169 10:-0.949864 
128 1:0.675469 2:0.0840996 3:-0.114817 4:-0.612332 5:0.00438913 6:0.306619 7:-0.223814 8:-0.241587 9:-0.335239 10:0.566033 
128 1:0.830205 2:-0.0255053 3:-0.945999 4:0.619208 5:0.776199 6:0.885921 7:0.623642 8:0.37072 9:0.849716 10:-0.252569 
128 1:-0.234389 2:0.382355 3:0.856909 4:-0.0856963 5:0.15346 6:-0.411492 7:-0.720755 8:-0.747221 9:-0.977006 10:-0.572227 
128 1:0.385543 2:-0.354008 3:0.714838 4:-0.522332 5:0.486711 6:-0.142714 7:0.645804 8:-0.0692519 9:-0.242951 10:0.49039 
128 1:0.0391948 2:-0.581423 3:0.483699 4:0.0575226 5:0.522722 6:-0.806413 7:-0.263408 8:0.985053 9:-0.67672 10:0.123142 
90.75504872109241 1:-0.602835 2:0.205887 3:-0.446083 4:-0.526853 5:-0.270601 6:0.795398 7:0.586702 8:-0.169602 9:-0.000854092 10:0.954889 
128 1:-0.433642 2:-0.702953 3:-0.560554 4:0.388617 5:-0.489143 6:-0.514943 7:-0.159304 8:-0.175601 9:0.345314 10:0.608595 
25.11208073289215 1:0.580377 2:-0.0119063 3:-0.601024 4:-0.0103727 5:-0.751187 6:-0.495316 7:0.307073 8:0.275895 9:-0.848174 10:0.720426 
128 1:0.722991 2:-0.108336 3:0.413206 4:-0.730241 5:-0.984599 6:-0.745413 7:0.380617 8:-0.768988 9:0.102042 10:-0.278477 
128 1:-0.802917 2:-0.133193 3:0.206601 4:-0.582259 5:-0.896126 6:-0.923857 7:0.162377 8:0.633928 9:0.419453 10:0.473089 
80.40081394124736 1:0.314503 2:-0.0566206 3:0.537584 4:-0.691603 5:0.383764 6:0.871838 7:-0.302972 8:0.0949791 9:-0.793077 10:-0.706581 
128 1:0.730112 2:0.262408 3:-0.88632 4:-0.285767 5:-0.293799 6:0.573176 7:0.176325 8:-0.23875 9:0.291975 10:0.379065 
21.39737105957795 1:-0.107667 2:-0.67905 3:0.73714 4:-0.306286 5:0.987292 6:-0.671926 7:-0.313546 8:0.792417 9:-0.0991963 10:0.598096 
60.82528824739718 1:-0.542478 2:-0.480942 3:-0.524088 4:-0.1912 5:-0.62433 6:-0.596693 7:-0.190033 8:-0.773722 9:0.290462 10:0.755731 
128 1:0.787566 2:-0.101252 3:-0.0434299 4:-0.653298 5:-0.680959 6:0.986553 7:0.205411 8:-0.15629 9:-0.581011 10:-0.994631 
21.10428105180895 1:-0.816346 2:-0.201814 3:0.272206 4:0.130965 5:0.345647 6:-0.95336 7:0.916141 8:0.465898 9:0.0149514 10:0.564769 
20.1787491375885 1:0.499441 2:0.407337 3:-0.333439 4:0.655792 5:-0.250416 6:-0.113447 7:-0.203618 8:0.849247 9:0.145311 10:-0.403886 
79.55560388824091 1:-0.258572 2:-0.276796 3:0.688553 4:-0.479949 5:-0.330511 6:0.0490266 7:0.929389 8:-0.948041 9:0.217263 10:-0.164784 
38.10847192079483 1:0.344513 2:0.256262 3:-0.0962683 4:-0.745587 5:-0.512728 6:0.902754 7:-0.350813 8:0.715669 9:0.654899 10:0.527359 
5.809770973138649 1:-0.761877 2:-0.213808 3:-0.659673 4:0.303706 5:-0.214695 6:-0.399991 7:0.591465 8:0.775296 9:0.832952 10:0.782991 
128 1:-0.704277 2:-0.281845 3:0.374525 4:-0.137369 5:0.959045 6:-0.112678 7:-0.423275 8:-0.739091 9:-0.150609 10:-0.00708927 
128 1:0.301822 2:-0.504886 3:-0.889772 4:0.170466 5:-0.864762 6:0.730338 7:-0.226719 8:-0.560527 9:0.2269 10:0.114015 
120.4816752256289 1:-0.665669 2:-0.20437 3:0.25392 4:-0.0280072 5:0.241001 6:-0.503058 7:-0.956658 8:0.652474 9:0.958283 10:-0.802595 
86.15942723749576 1:0.348463 2:-0.340367 3:0.261855 4:-0.17451 5:0.138074 6:-0.627055 7:0.602178 8:0.705346 9:0.0484425 10:-0.574223 
85.85371686203729 1:0.402563 2:-0.398573 3:0.118983 4:0.183211 5:0.15518 6:-0.589823 7:-0.51106 8:-0.523064 9:-0.941938 10:-0.543995 
57.55970878183206 1:-0.736862 2:-0.2146 3:0.108633 4:0.0608291 5:-0.960816 6:0.570967 7:-0.178237 8:-0.464278 9:0.67756 10:-0.259229 
77.54640613330858 1:-0.830698 2:-0.117532 3:-0.703241 4:0.292262 5:-0.934135 6:0.774024 7:0.87853 8:0.0696107 9:0.272817 10:-0.607827 
90.81007461875147 1:9.89233e-05 2:-0.6879 3:0.963186 4:0.92039 5:-0.277487 6:0.384984 7:-0.684402 8:-0.65088 9:-0.217616 10:-0.152453 
128 1:-0.165602 2:-0.457257 3:0.211766 4:-0.418402 5:-0.274037 6:-0.205909 7:0.210404 8:0.3885 9:-0.190483 10:0.24037 
128 1:0.771205 2:0.00252621 3:0.682418 4:0.089907 5:-0.0834584 6:-0.854668 7:0.568722 8:0.342002 9:0.727187 10:-0.529569 
128 1:-0.795434 2:0.133558 3:0.751234 4:-0.41563 5:-0.0822589 6:0.346628 7:0.808109 8:0.598265 9:-0.0584585 10:-0.0478984 
128 1:0.212551 2:0.442877 3:-0.261975 4:0.330444 5:-0.300479 6:-0.604034 7:-0.507667 8:-0.966129 9:-0.173239 10:0.741869 
128 1:0.18829 2:-0.360467 3:0.882896 4:-0.679614 5:-0.252211 6:0.484513 7:-0.0434783 8:-0.822594 9:-0.850471 10:-0.0964021 
128 1:-0.49556 2:0.198643 3:-0.227034 4:-0.516939 5:0.920976 6:0.155215 7:0.126705 8:0.623401 9:-0.514129 10:0.00913971 
128 1:-0.423419 2:-0.182228 3:-0.02213 4:-0.608958 5:-0.621264 6:-0.823482 7:-0.00933857 8:-0.69976 9:-0.211112 10:0.964637 
67.67874681151484 1:-0.739789 2:-0.275976 3:-0.329806 4:0.998231 5:0.578181 6:0.947528 7:0.305393 8:-0.931734 9:0.806508 10:-0.0582999 
128 1:-0.309963 2:-0.393442 3:0.448755 4:-0.640634 5:-0.483167 6:0.827442 7:0.440844 8:0.746744 9:0.806903 10:0.307574 
1.358513304787349 1:-0.025355 2:-0.451655 3:0.748341 4:-0.510326 5:0.902605 6:0.959449 7:0.643326 8:-0.769386 9:-0.220196 10:0.494454 
79.81649944526393 1:-0.518379 2:-0.537465 3:-0.850128 4:0.109714 5:-0.138958 6:-0.104109 7:-0.973604 8:0.522189 9:-0.613325 10:0.921756 
128 1:0.675037 2:-0.171185 3:0.692578 4:0.157667 5:-0.534473 6:0.57187 7:0.802755 8:0.123239 9:0.933125 10:-0.730746 
40.02573734115487 1:0.206966 2:0.345843 3:0.472509 4:-0.281572 5:0.486521 6:-0.74713 7:0.693067 8:0.894176 9:0.179445 10:-0.192134 
128 1:0.0593187 2:-0.0754981 3:-0.727469 4:-0.273446 5:0.046565 6:-0.590204 7:0.56878 8:0.795894 9:-0.352694 10:-0.545603 
6.860103127053467 1:0.333367 2:-0.243903 3:0.614411 4:-0.569994 5:-0.21629 6:0.179165 7:-0.577022 8:-0.0906689 9:-0.182993 10:0.198852 
128 1:-0.524202 2:-0.434897 3:-0.0414834 4:-0.521314 5:0.176052 6:0.620587 7:0.967513 8:-0.230607 9:-0.640433 10:0.181044 
56.52496496885042 1:0.48517 2:0.267444 3:-0.435058 4:-0.575927 5:-0.270683 6:0.99404 7:0.893949 8:0.448066 9:-0.516598 10:-0.980052 
43.16059222339634 1:0.515935 2:0.368624 3:-0.703227 4:-0.418622 5:0.294087 6:0.714194 7:-0.104465 8:-0.996901 9:-0.719986 10:-0.66637 
128 1:0.138388 2:-0.225046 3:-0.627661 4:-0.472616 5:0.517592 6:0.945184 7:0.686767 8:-0.938451 9:0.50599 10:-0.509182 
23.29900690063197 1:0.779589 2:0.154706 3:-0.186392 4:0.890603 5:-0.917555 6:0.697422 7:0.84966 8:-0.0448949 9:-0.597037 10:-0.782527 
82.29060078460178 1:-0.318439 2:-0.461715 3:0.252423 4:-0.331804 5:-0.803742 6:-0.997027 7:0.314142 8:0.458539 9:-0.666479 10:0.901114 
40.23986220959822 1:-0.584101 2:-0.22083 3:-0.659209 4:0.126187 5:-0.850081 6:0.935703 7:-0.907515 8:0.678936 9:-0.625582 10:-0.67661 
48.33612487865307 1:0.0751589 2:-0.592108 3:0.883553 4:0.884418 5:-0.00415597 6:0.91487 7:-0.79876 8:0.287401 9:0.0638709 10:0.481388 
128 1:-0.466136 2:-0.635594 3:0.938447 4:-0.743326 5:0.520709 6:0.546207 7:0.144675 8:-0.750117 9:-0.188694 10:0.83695 
60.84715941353988 1:0.403736 2:0.210026 3:-0.451634 4:-0.345947 5:0.916578 6:0.592349 7:0.99343 8:-0.72247 9:-0.449867 10:0.647889 
83.64320230939622 1:0.118082 2:0.120056 3:-0.720568 4:-0.711633 5:0.554466 6:0.904957 7:0.88992 8:0.153629 9:0.205509 10:0.535762 
128 1:0.341607 2:-0.319975 3:-0.366292 4:-0.547372 5:-0.684808 6:-0.506474 7:-0.518355 8:-0.177543 9:0.313361 10:0.0668499 
128 1:0.655394 2:0.0938579 3:-0.608625 4:-0.48871 5:-0.341375 6:0.669219 7:-0.00619764 8:0.733302 9:-0.452457 10:-0.749559 
38.71020053829213 1:0.16132 2:0.275861 3:-0.72556 4:-0.281802 5:-0.319549 6:-0.90595 7:-0.500119 8:0.933201 9:-0.833053 10:0.881734 
128 1:-0.406289 2:-0.713652 3:0.318143 4:0.564133 5:-0.832971 6:-0.00264438 7:-0.756026 8:-0.605849 9:-0.472229 10:-0.0345105 
74.10976051518887 1:0.197119 2:-0.544601 3:-0.988828 4:0.715532 5:-0.407921 6:0.333312 7:0.806128 8:0.899624 9:0.247328 10:-0.160001 
128 1:0.383443 2:-0.452055 3:0.606892 4:0.28959 5:-0.0390941 6:-0.713985 7:0.90834 8:0.671459 9:0.698132 10:-0.00647897 
112.6421724975959 1:-0.631139 2:0.273715 3:0.186371 4:0.35492 5:0.542838 6:0.697415 7:0.119117 8:0.840846 9:-0.0346203 10:-0.61719 
128 1:0.052014 2:-0.195271 3:-0.0584477 4:-0.56274 5:0.903756 6:-0.0280566 7:-0.199026 8:-0.1856 9:-0.284378 10:0.867923 
109.3945801579145 1:0.362179 2:0.42518 3:-0.195904 4:0.403288 5:-0.168512 6:-0.957171 7:0.483842 8:0.613838 9:0.242954 10:0.241773 
122.1747914763926 1:0.460292 2:0.0464626 3:0.673721 4:-0.695438 5:-0.442018 6:0.644204 7:-0.912524 8:0.366786 9:0.40252 10:-0.739984 
128 1:0.156917 2:0.136857 3:0.378867 4:-0.32139 5:0.881781 6:-0.538543 7:-0.937244 8:-0.437834 9:-0.0194607 10:0.0900097 
11.42342665430765 1:-0.140322 2:-0.686611 3:-0.0808607 4:0.891237 5:0.0647787 6:-0.165056 7:-0.371252 8:0.0651897 9:-0.560655 10:-0.575392 
11.0044674496739 1:-0.555598 2:-0.60614 3:0.803108 4:0.221428 5:-0.589141 6:-0.987195 7:0.0336421 8:-0.380555 9:0.576801 10:0.379613 
11.3618354853877 1:-0.761539 2:0.242614 3:-0.226256 4:-0.0458274 5:0.333064 6:0.0537172 7:0.392629 8:-0.0374129 9:0.432598 10:-0.931096 
128 1:-0.0981987 2:0.277195 3:0.786891 4:-0.454757 5:0.381369 6:0.37744 7:0.354172 8:-0.240693 9:0.0199167 10:0.760505 
128 1:0.0903319 2:-0.445291 3:0.565332 4:-0.712775 5:0.359395 6:-0.0644097 7:0.349323 8:-0.843734 9:0.58568 10:-0.272193 
50.36956917131171 1:-0.28294 2:-0.573462 3:-0.982141 4:0.462038 5:-0.794847 6:-0.606228 7:0.500275 8:-0.0603086 9:-0.001919 10:-0.500265 
71.780781717005 1:0.555648 2:0.200622 3:0.295884 4:-0.504933 5:0.650979 6:-0.876954 7:0.38261 8:0.0616746 9:0.754536 10:-0.913951 
128 1:-0.694867 2:-0.160051 3:0.427082 4:-0.637575 5:-0.333131 6:0.790296 7:-0.609545 8:-0.625346 9:0.149083 10:-0.602967 
128 1:-0.56051 2:-0.566173 3:0.709027 4:-0.41644 5:-0.783718 6:-0.0334772 7:0.122836 8:-0.357056 9:0.344445 10:0.270291 
128 1:-0.0024668 2:-0.624646 3:-0.0440339 4:-0.547023 5:0.203767 6:0.323479 7:0.797388 8:-0.19941 9:0.978867 10:0.0851256 
50.0102129606437 1:-0.444228 2:-0.639389 3:0.539735 4:0.0807017 5:-0.642191 6:-0.0410454 7:0.995309 8:0.514548 9:-0.265053 10:0.240483 
128 1:0.292786 2:0.237342 3:-0.407589 4:-0.780693 5:-0.384178 6:0.140643 7:-0.652387 8:0.175 9:-0.922253 10:0.373085 
111.5304044708913 1:0.0491971 2:-0.46974 3:0.72762 4:-0.497606 5:-0.239959 6:-0.124883 7:0.466637 8:0.178936 9:-0.901201 10:-0.70089 
128 1:-0.746863 2:0.249927 3:-0.089552 4:0.146155 5:0.330167 6:0.109226 7:-0.855453 8:-0.798787 9:0.167948 10:-0.416628 
21.0870337871168 1:-0.837692 2:-0.132332 3:0.781168 4:-0.210589 5:0.707079 6:-0.999716 7:-0.297251 8:0.857225 9:-0.119368 10:-0.678048 
26.02840229141001 1:-0.747719 2:-0.147661 3:-0.482785 4:-0.49877 5:-0.360297 6:0.462202 7:0.0339165 8:0.0203456 9:-0.638386 10:0.705887 
15.12804916125984 1:-0.692944 2:-0.241597 3:-0.945876 4:0.384405 5:0.763297 6:0.592132 7:0.144646 8:-0.301946 9:0.87565 10:-0.496897 
113.4277093465437 1:-0.677309 2:0.302733 3:-0.673029 4:0.372665 5:-0.696301 6:-0.750914 7:0.318963 8:0.746408 9:0.863014 10:-0.981932 
9.079500789094867 1:-0.215165 2:-0.607191 3:0.546707 4:0.012694 5:0.827078 6:0.479768 7:0.921305 8:-0.962201 9:-0.229082 10:-0.577896 
128 1:-0.139659 2:0.0713965 3:0.826553 4:-0.423402 5:0.528255 6:-0.596579 7:-0.171469 8:-0.60735 9:0.961926 10:-0.701326 
73.57285940143051 1:-0.790429 2:0.174806 3:-0.793033 4:-0.663543 5:-0.47882 6:0.589908 7:-0.239682 8:0.582771 9:0.81801 10:0.892289 
27.05407448749734 1:-0.359153 2:-0.664669 3:0.677651 4:-0.167369 5:0.0969866 6:-0.847512 7:0.946707 8:-0.546329 9:-0.152423 10:0.941274 
90.24773550944796 1:-0.702012 2:-0.125678 3:-0.976597 4:-0.275645 5:0.380614 6:0.825969 7:-0.352969 8:-0.222342 9:0.777465 10:-0.788303 
128 1:-0.17123 2:0.197705 3:0.95368 4:-0.276353 5:0.169046 6:-0.302725 7:-0.50241 8:-0.885904 9:-0.291587 10:0.942575 
128 1:0.661557 2:-0.210287 3:0.132176 4:-0.91127 5:0.806337 6:-0.56875 7:0.494525 8:0.0847574 9:0.0140406 10:0.859047 
128 1:-0.43201 2:-0.710549 3:-0.17574 4:0.222077 5:0.314695 6:-0.187016 7:0.0227392 8:0.907404 9:-0.628035 10:-0.557235 
84.22343123026508 1:-0.330565 2:-0.320253 3:0.967584 4:-0.448583 5:0.199928 6:0.117915 7:-0.209714 8:0.0875275 9:0.818494 10:0.917979 
63.21819256101504 1:0.0420597 2:-0.648912 3:-0.174275 4:0.6396 5:0.498659 6:-0.975565 7:0.717463 8:-0.197118 9:0.827398 10:0.176604 
70.0080562350967 1:-0.333982 2:-0.723711 3:-0.346049 4:0.861613 5:-0.908415 6:-0.470308 7:0.241522 8:-0.242228 9:-0.470826 10:-0.212616 
128 1:0.0482754 2:-0.371029 3:0.0329863 4:-0.534174 5:-0.857164 6:-0.129454 7:-0.246163 8:0.653719 9:0.56549 10:-0.161383 
128 1:0.298653 2:0.26793 3:0.138288 4:-0.361276 5:0.542909 6:0.763692 7:-0.394243 8:-0.616199 9:-0.246276 10:-0.578647 
68.66762117377479 1:-0.706849 2:0.000921825 3:0.0856656 4:-0.234657 5:-0.346694 6:-0.00908734 7:-0.614063 8:-0.543146 9:0.627066 10:-0.148517 
93.66609817231092 1:0.35616 2:0.376403 3:-0.0159599 4:0.574565 5:-0.183195 6:-0.876927 7:0.638989 8:-0.891467 9:0.134017 10:-0.445352 
5.49810097027792 1:-0.164203 2:-0.712899 3:0.418588 4:0.12191 5:-0.745048 6:0.0557404 7:0.692229 8:0.890756 9:0.481873 10:0.61256 
16.16761968918082 1:-0.134723 2:-0.583066 3:0.230794 4:0.805584 5:0.741295 6:0.964726 7:-0.33634 8:0.101623 9:0.341995 10:0.355003 
128 1:0.832435 2:0.216055 3:0.937597 4:-0.0394787 5:-0.73374 6:-0.658179 7:0.351292 8:0.137454 9:-0.545502 10:-0.855918 
17.37647284760864 1:0.774895 2:0.101789 3:-0.13656 4:0.969603 5:0.0472263 6:0.406603 7:-0.846449 8:-0.522258 9:0.850964 10:0.953445 
128 1:0.632626 2:0.211936 3:-0.26044 4:-0.653264 5:-0.326134 6:0.889171 7:0.420477 8:-0.189275 9:-0.744177 10:-0.274616 
128 1:0.755479 2:-0.0789014 3:-0.53423 4:-0.0485659 5:-0.660151 6:0.678346 7:0.799876 8:0.712739 9:-0.538151 10:-0.918191 
31.41147021351542 1:-0.473746 2:0.262221 3:-0.480225 4:-0.217747 5:0.356557 6:-0.942251 7:-0.805736 8:0.674936 9:-0.645388 10:0.69536 
128 1:0.473715 2:-0.100745 3:0.165828 4:-0.890639 5:0.586946 6:0.602031 7:0.657122 8:0.744803 9:-0.452118 10:0.771284 
3.770772869570453 1:-0.59623 2:-0.552779 3:-0.553421 4:0.525824 5:0.926336 6:-0.971011 7:-0.952379 8:-0.969266 9:-0.737423 10:0.202605 
14.30423324502829 1:-0.794351 2:0.0729037 3:-0.722776 4:0.704857 5:-0.440539 6:-0.998155 7:-0.96141 8:0.847864 9:0.220089 10:0.900111 
128 1:0.423539 2:-0.392454 3:-0.802634 4:0.0745443 5:0.0842811 6:0.203651 7:-0.274169 8:-0.874843 9:-0.899878 10:0.515903 
48.27641144904258 1:-0.322777 2:0.380973 3:0.677627 4:0.196958 5:-0.355249 6:-0.720228 7:-0.113358 8:0.830594 9:0.84606 10:0.147398 
128 1:0.45863 2:-0.377387 3:-0.835032 4:0.114538 5:0.181024 6:0.873886 7:0.518181 8:-0.92198 9:0.336681 10:0.858388 
128 1:0.207971 2:-0.517021 3:-0.485038 4:-0.0445902 5:-0.659799 6:0.0781093 7:-0.629452 8:-0.746908 9:-0.0489482 10:0.848038 
104.7947938487902 1:0.634722 2:-0.224247 3:-0.277252 4:0.0794365 5:-0.539089 6:0.76722 7:-0.63966 8:0.997704 9:0.936551 10:-0.623316 
63.30325322256305 1:-0.0133915 2:0.402489 3:0.895144 4:-0.324888 5:-0.627241 6:0.409525 7:0.302988 8:0.947113 9:-0.18298 10:0.758052 
128 1:-0.557106 2:0.076036 3:-0.473799 4:-0.702569 5:0.188778 6:0.583911 7:0.271823 8:0.865027 9:-0.725291 10:-0.522025 
128 1:-0.361416 2:0.370068 3:0.755625 4:-0.289894 5:-0.234708 6:0.137381 7:-0.890427 8:0.214606 9:-0.978106 10:-0.518277 
81.81243421000019 1:-0.323284 2:-0.0385904 3:0.979747 4:-0.79862 5:0.376315 6:-0.93525 7:0.655436 8:-0.12178 9:0.520256 10:-0.362733 
68.95204877490055 1:0.044857 2:0.375868 3:-0.333898 4:0.238814 5:-0.984089 6:0.269351 7:0.84021 8:-0.237021 9:-0.756878 10:0.55717 
96.60800409972494 1:-0.31903 2:-0.111864 3:-0.928499 4:-0.602846 5:0.365698 6:0.861878 7:-0.620772 8:0.844418 9:0.291536 10:0.306392 
128 1:-0.42343 2:-0.688932 3:-0.909185 4:-0.0202246 5:-0.288936 6:0.621024 7:-0.139488 8:0.715948 9:0.279549 10:0.391954 
34.71465864617586 1:-0.0793577 2:-0.272573 3:-0.17564 4:-0.198735 5:0.692742 6:-0.356771 7:0.47497 8:-0.270962 9:0.826188 10:-0.919011 
128 1:-0.248094 2:-0.623631 3:0.758001 4:-0.663847 5:-0.622985 6:-0.661128 7:0.503921 8:-0.141917 9:-0.0059659 10:-0.70697 
54.90537039773664 1:0.138471 2:-0.505802 3:-0.787373 4:0.474074 5:0.851663 6:0.831327 7:-0.441538 8:-0.065678 9:-0.82893 10:-0.952139 
67.43552173219308 1:-0.54087 2:0.3333 3:0.308434 4:0.323088 5:0.119065 6:-0.852134 7:-0.413114 8:0.576261 9:0.588227 10:0.346537 
60.48316683057884 1:-0.408064 2:-0.623323 3:0.406942 4:0.0658001 5:0.123334 6:0.159701 7:-0.279458 8:-0.678921 9:-0.605687 10:-0.230963 
81.38733226929644 1:0.0573394 2:-0.366344 3:-0.566021 4:-0.251656 5:-0.191421 6:0.3643 7:-0.926692 8:-0.567297 9:0.795273 10:0.00488802 
47.06196200231079 1:0.0529169 2:-0.497944 3:0.502556 4:-0.636225 5:0.953428 6:0.251511 7:0.682347 8:-0.960115 9:-0.887896 10:-0.431107 
59.87100964445291 1:-0.450386 2:0.38232 3:-0.346603 4:-0.0471713 5:-0.323851 6:-0.207541 7:-0.63465 8:-0.945776 9:0.932526 10:0.400486 
128 1:-0.660439 2:0.193441 3:-0.436616 4:-0.121966 5:-0.40211 6:-0.611704 7:0.633305 8:-0.150521 9:0.316618 10:0.130556 
82.04203068629721 1:-0.686796 2:0.25615 3:-0.197862 4:0.167684 5:0.515006 6:-0.390377 7:-0.656593 8:0.447386 9:0.824086 10:-0.326023 
18.47874210972379 1:-0.750786 2:0.199921 3:0.984078 4:0.293456 5:0.91699 6:0.342023 7:-0.447459 8:-0.656581 9:0.315119 10:-0.275503 
128 1:-0.577641 2:-0.176609 3:-0.587732 4:-0.238897 5:0.231971 6:0.129421 7:0.212084 8:0.533701 9:0.738779 10:-0.959348 
121.2778869129589 1:-0.473226 2:0.357789 3:0.514976 4:0.1616 5:-0.206981 6:-0.603465 7:-0.187664 8:-0.300621 9:0.219049 10:-0.936202 
49.09819708788127 1:0.182456 2:-0.535346 3:-0.594725 4:-0.148345 5:-0.732653 6:-0.672315 7:-0.401718 8:-0.472878 9:0.471658 10:0.9516 
96.78196960926483 1:-0.710079 2:0.253581 3:0.814822 4:0.0110126 5:-0.189395 6:0.311452 7:0.850904 8:0.525548 9:0.693521 10:0.248747 
128 1:-0.214466 2:-0.718458 3:-0.065472 4:0.289173 5:-0.143981 6:-0.749198 7:0.541419 8:-0.684939 9:0.648695 10:0.317403 
126.4719262357568 1:-0.314358 2:-0.372555 3:0.219886 4:-0.211719 5:-0.30246 6:-0.607579 7:0.412747 8:0.373662 9:0.993465 10:0.21405 
25.86034822944823 1:-0.737776 2:0.0258904 3:-0.308855 4:0.94682 5:-0.780455 6:0.882948 7:-0.0907225 8:0.101504 9:0.379194 10:-0.240365 
116.6963232903581 1:-0.285216 2:0.148969 3:-0.854863 4:-0.492219 5:0.373819 6:-0.143159 7:0.483284 8:-0.502829 9:0.147921 10:0.514819 
68.64891243412589 1:0.721115 2:0.320437 3:0.441538 4:0.911003 5:0.955188 6:0.912822 7:0.611728 8:0.255792 9:-0.68675 10:-0.442328 
128 1:-0.720438 2:0.160367 3:-0.390651 4:-0.561363 5:-0.0951289 6:0.73673 7:-0.236909 8:-0.43655 9:0.711214 10:0.349842 
50.26882648201104 1:-0.514876 2:-0.599954 3:-0.0376353 4:0.235718 5:0.93563 6:-0.251899 7:-0.596567 8:-0.213735 9:-0.128279 10:-0.329174 
4.366639376851243 1:-0.749165 2:0.0739524 3:0.83711 4:-0.0567365 5:-0.734998 6:0.70445 7:0.423374 8:-0.561956 9:-0.492482 10:0.135823 
128 1:-0.297564 2:-0.264016 3:0.544288 4:-0.923057 5:-0.261601 6:0.877096 7:-0.0879463 8:-0.218659 9:0.282092 10:0.638153 
55.77179770519708 1:0.0681872 2:0.4516 3:-0.538684 4:0.491565 5:0.367236 6:-0.365101 7:-0.548326 8:0.778796 9:-0.890074 10:0.683555 
31.56916481795538 1:-0.562954 2:0.341169 3:0.596883 4:-0.13531 5:-0.405021 6:0.141888 7:-0.747719 8:0.492861 9:-0.286765 10:0.529303 
128 1:0.169028 2:-0.568056 3:-0.040698 4:-0.464024 5:-0.615929 6:0.852309 7:-0.060396 8:0.362264 9:0.112988 10:0.597644 
128 1:0.321191 2:-0.429673 3:-0.34163 4:0.288954 5:0.788092 6:0.43343 7:-0.568334 8:0.486453 9:0.244722 10:0.0505269 
128 1:-0.0627621 2:-0.62835 3:0.683086 4:-0.220604 5:0.695736 6:0.633899 7:-0.656369 8:0.828848 9:-0.887759 10:-0.00277428 
126.5078227684657 1:0.0258496 2:0.166194 3:-0.345951 4:-0.571665 5:0.524245 6:0.85537 7:-0.323995 8:-0.957284 9:-0.576918 10:0.879035 
128 1:0.147796 2:-0.555742 3:-0.11076 4:0.140262 5:0.541078 6:-0.20723 7:-0.404348 8:0.470395 9:0.349507 10:-0.929985 
60.65664812746819 1:0.310396 2:-0.11551 3:0.205257 4:-0.345452 5:-0.478539 6:-0.92137 7:-0.0214785 8:-0.762852 9:-0.946375 10:0.163778 
124.0249241410723 1:0.551192 2:-0.292944 3:-0.5341 4:-0.105524 5:-0.745989 6:0.704281 7:-0.746968 8:0.45021 9:-0.994488 10:0.749617 
6.063781491117187 1:0.387072 2:-0.255133 3:0.643059 4:-0.288494 5:-0.899761 6:-0.117976 7:0.603638 8:0.0888105 9:0.156176 10:-0.895791 
128 1:0.266594 2:0.301788 3:-0.618423 4:-0.234763 5:0.688585 6:0.515114 7:-0.511426 8:-0.796746 9:0.986281 10:0.762711 
128 1:0.558779 2:0.343433 3:-0.840555 4:-0.443904 5:0.294897 6:-0.776072 7:0.81764 8:0.0893553 9:0.0405308 10:0.277118 
103.999743367358 1:0.624005 2:0.0696532 3:-0.694916 4:-0.518856 5:0.923986 6:-0.321433 7:-0.119551 8:-0.282901 9:-0.985008 10:0.130766 
128 1:-0.329715 2:0.400385 3:-0.884204 4:-0.890105 5:-0.393046 6:0.361707 7:-0.842292 8:0.917017 9:-0.028841 10:-0.8577 
45.55611572295741 1:-0.451989 2:-0.459539 3:-1 4:-0.0528789 5:-0.899828 6:-0.517008 7:0.569693 8:-0.697792 9:0.180983 10:0.430462 
34.43152909231831 1:-0.0527143 2:-0.421169 3:0.379721 4:-0.720023 5:-0.925667 6:0.779275 7:-0.643623 8:0.034841 9:0.31214 10:0.507418 
30.32096467096209 1:0.275816 2:-0.475081 3:-0.0722196 4:-0.215971 5:0.142246 6:0.200867 7:-0.948985 8:0.488108 9:0.505964 10:0.971365 
6.170366136700018 1:-0.730242 2:0.253136 3:-0.94975 4:0.3239 5:-0.990278 6:0.613395 7:0.166947 8:0.59925 9:-0.299288 10:-0.752981 
128 1:0.70597 2:-0.0939937 3:0.38342 4:-0.578857 5:0.980893 6:0.710437 7:0.435003 8:0.62668 9:-0.986634 10:-0.737073 
46.43384371737099 1:0.240905 2:-0.158093 3:0.539577 4:-0.810777 5:0.24057 6:0.927391 7:0.154943 8:-0.294171 9:-0.928607 10:0.49145 
28.2593326597068 1:-0.272357 2:-0.69496 3:0.540867 4:0.600107 5:-0.0609969 6:0.473361 7:-0.283286 8:-0.721343 9:-0.91924 10:-0.577083 
128 1:-0.173607 2:0.301663 3:-0.638809 4:-0.537188 5:0.716971 6:0.313045 7:0.51015 8:0.861119 9:0.12881 10:0.498369 
43.9440401553392 1:0.262284 2:0.429132 3:-0.907328 4:0.0594121 5:0.35399 6:0.776444 7:-0.875238 8:-0.282186 9:0.97432 10:-0.140894 
49.4405637294673 1:0.770482 2:0.111582 3:-0.119276 4:-0.485972 5:0.000135897 6:0.259553 7:-0.253552 8:0.280709 9:-0.633218 10:0.684524 
119.6984259853166 1:-0.383804 2:-0.0357428 3:0.842545 4:-0.842385 5:0.61337 6:-0.465719 7:0.928416 8:0.887711 9:-0.692448 10:0.946867 
3.191313088159728 1:-0.542407 2:-0.562613 3:0.747722 4:-0.207063 5:-0.825448 6:0.658238 7:0.0568713 8:-0.802095 9:-0.684458 10:-0.942168 
68.01258186325548 1:0.531945 2:0.286078 3:-0.926762 4:-0.739075 5:-0.472753 6:0.997811 7:-0.232481 8:0.680373 9:0.492324 10:0.758138 
128 1:-0.768395 2:0.167944 3:0.980732 4:-0.62905 5:0.555771 6:0.79156 7:-0.13917 8:0.936804 9:-0.756492 10:-0.627414 
104.4701302994557 1:-0.646438 2:0.0073463 3:-0.698052 4:-0.264134 5:0.115584 6:0.471778 7:0.662246 8:0.93288 9:0.957684 10:-0.827712 
13.28798370120405 1:0.384179 2:0.420624 3:-0.0662862 4:0.854765 5:-0.844749 6:-0.156266 7:0.289026 8:-0.14695 9:-0.817344 10:-0.731124 
128 1:0.845114 2:-0.0053429 3:-0.107528 4:-0.336753 5:-0.969953 6:0.635948 7:-0.706999 8:-0.0958644 9:-0.291657 10:0.588343 
128 1:0.620967 2:0.0628607 3:0.406109 4:-0.616167 5:0.574637 6:0.343708 7:0.3523 8:0.423426 9:-0.0199345 10:-0.251368 
128 1:-0.342145 2:-0.691323 3:-0.403721 4:-0.0493813 5:0.408 6:0.263862 7:0.463085 8:0.505886 9:-0.779057 10:0.277934 
22.86079516182344 1:-0.397121 2:0.0162642 3:0.809517 4:-0.32279 5:-0.995566 6:-0.268174 7:0.966168 8:-0.520409 9:0.631053 10:-0.42758 
76.43840786432632 1:-0.226279 2:-0.676024 3:0.0273333 4:0.485839 5:0.548193 6:0.329529 7:0.868932 8:-0.0779029 9:-0.517434 10:0.143419 
78.27704799588378 1:0.736432 2:0.317499 3:0.491598 4:0.380038 5:-0.466247 6:0.598438 7:0.936379 8:-0.407306 9:0.969798 10:0.702569 
75.69556451175313 1:0.559917 2:0.330591 3:-0.651802 4:0.0740157 5:0.316242 6:-0.420594 7:0.76866 8:-0.349145 9:0.866988 10:-0.63519 
125.7937940814143 1:-0.670242 2:0.125466 3:0.807299 4:-0.926043 5:0.679547 6:-0.841923 7:0.763827 8:-0.336781 9:-0.298502 10:-0.391484 
128 1:-0.607975 2:-0.407823 3:-0.913744 4:-0.68156 5:-0.488384 6:0.038494 7:-0.262327 8:-0.418898 9:0.423835 10:0.416817 
79.31584785375692 1:0.583337 2:-0.264426 3:0.82264 4:-0.169573 5:0.170691 6:-0.443254 7:0.972759 8:-0.881231 9:-0.16404 10:0.732087 
128 1:-0.563325 2:-0.346222 3:0.36999 4:-0.750811 5:-0.837258 6:-0.075311 7:-0.463503 8:-0.285973 9:-0.326895 10:0.275601 
39.30107212565184 1:-0.37044 2:0.338606 3:0.591248 4:0.899268 5:-0.853561 6:-0.961368 7:0.0362941 8:-0.807215 9:0.763593 10:0.746402 
128 1:-0.187378 2:-0.00625275 3:-0.563307 4:-0.569314 5:-0.38062 6:-0.842349 7:-0.350249 8:0.725118 9:-0.665404 10:-0.502605 
53.63245705892493 1:0.827983 2:-0.0169486 3:-0.480788 4:0.627612 5:-0.624353 6:-0.557826 7:-0.647804 8:-0.989092 9:0.0666695 10:0.0634878 
34.6050105529138 1:0.175071 2:-0.497125 3:0.926924 4:0.305785 5:-0.945 6:0.190351 7:0.905048 8:0.102281 9:0.756638 10:0.95599 
126.0465325692756 1:0.0177591 2:-0.679546 3:0.514238 4:0.392294 5:-0.718466 6:-0.0257719 7:0.309369 8:0.593282 9:0.72222 10:0.464675 
128 1:-0.802474 2:-0.0987721 3:-0.417372 4:-0.203588 5:-0.487941 6:-0.076578 7:0.58102 8:-0.182879 9:-0.168718 10:-0.547413 
90.31789407023579 1:0.639707 2:0.303115 3:-0.225965 4:0.866369 5:-0.943912 6:0.664282 7:0.746367 8:-0.0045301 9:0.303894 10:0.824623 
77.84063025928846 1:-0.396147 2:-0.260884 3:-0.921591 4:-0.320754 5:0.467825 6:-0.620655 7:0.856007 8:-0.945841 9:0.730716 10:0.52903 
58.65930501491967 1:0.568773 2:0.260491 3:0.978738 4:-0.260788 5:-0.494918 6:-0.225996 7:-0.914897 8:-0.988064 9:0.225528 10:-0.607248 
128 1:0.243695 2:0.304949 3:-0.736209 4:-0.376087 5:0.588275 6:-0.735629 7:-0.613362 8:-0.492574 9:-0.00864346 10:-0.313276 
67.31441406472599 1:0.0856103 2:-0.492268 3:0.843283 4:-0.0993721 5:0.971337 6:-0.161977 7:-0.763833 8:0.853481 9:-0.712661 10:0.97227 
119.6388591510469 1:0.375022 2:0.171986 3:0.843775 4:-0.37643 5:-0.544938 6:0.778113 7:0.228169 8:-0.511105 9:0.791235 10:-0.874152 
128 1:0.569951 2:0.343718 3:0.216636 4:0.0446622 5:0.254837 6:-0.685813 7:-0.813665 8:0.26386 9:0.195438 10:-0.65021 
128 1:-0.104489 2:0.372791 3:-0.377289 4:-0.315502 5:0.869603 6:0.346674 7:-0.771107 8:-0.00715161 9:-0.957337 10:-0.515766 
54.1940916989051 1:0.59202 2:-0.192687 3:0.194025 4:-0.475945 5:-0.515215 6:-0.480541 7:-0.887446 8:-0.357994 9:0.93529 10:0.307865 
128 1:-0.397807 2:0.201101 3:-0.584294 4:-0.80192 5:-0.647787 6:-0.952968 7:-0.0172691 8:-0.250548 9:-0.00455452 10:0.542929 
39.31551187064296 1:0.0996754 2:0.170736 3:0.33076 4:-0.0230925 5:-0.971515 6:0.86625 7:0.409961 8:0.0618538 9:-0.827631 10:-0.37975 
76.34178708450295 1:0.146472 2:-0.336582 3:0.268534 4:-0.567059 5:0.0645628 6:0.4768 7:-0.796962 8:-0.691526 9:-0.973565 10:-0.43096 
128 1:-0.440896 2:0.167784 3:-0.791026 4:-0.715564 5:-0.92664 6:0.576549 7:-0.735335 8:0.466341 9:0.437781 10:0.0779871 
128 1:-0.691438 2:0.0644512 3:0.106894 4:-0.0344121 5:0.370397 6:-0.671419 7:-0.213962 8:-0.268105 9:0.865524 10:-0.178818 
42.28637972896013 1:0.471243 2:-0.210356 3:-0.395935 4:-0.250531 5:0.915688 6:0.793675 7:0.839176 8:0.661884 9:0.721748 10:-0.700512 
58.25331731892165 1:-0.285829 2:-0.638926 3:-0.817452 4:0.768075 5:0.332026 6:-0.90991 7:-0.641893 8:-0.644152 9:0.0319339 10:0.293883 
128 1:0.539708 2:0.00368608 3:-0.890159 4:-0.494536 5:0.0577896 6:0.645615 7:-0.577614 8:0.473337 9:0.65151 10:-0.648284 
128 1:0.251107 2:-0.47854 3:0.483692 4:0.525237 5:0.906022 6:0.633209 7:0.356355 8:0.0293833 9:0.167758 10:-0.814383 
128 1:-0.0987396 2:-0.529089 3:-0.848089 4:-0.44387 5:-0.156354 6:0.169698 7:-0.729826 8:-0.418234 9:-0.201126 10:0.612262 
64.27034000911446 1:0.542086 2:0.371353 3:0.966167 4:-0.423593 5:-0.181637 6:0.631085 7:-0.624809 8:0.210877 9:-0.904044 10:0.968242 
17.36360953894336 1:0.85134 2:0.226153 3:-0.191882 4:0.484682 5:-0.327363 6:-0.829787 7:0.221775 8:0.229759 9:-0.340832 10:-0.887556 
70.76858255958476 1:-0.688275 2:-0.422847 3:-0.843733 4:0.0804656 5:0.867547 6:-0.52782 7:-0.108236 8:-0.948935 9:-0.109224 10:-0.489543 
114.308560493634 1:-0.143288 2:0.0885099 3:-0.405458 4:-0.783324 5:-0.705184 6:-0.915444 7:-0.605349 8:0.707329 9:-0.520627 10:-0.719772 
128 1:0.299244 2:0.216902 3:0.176237 4:-0.382065 5:0.16746 6:-0.28513 7:-0.460547 8:0.916543 9:0.699864 10:-0.42632 
10.00115919316713 1:-0.72402 2:-0.340721 3:0.105074 4:0.573701 5:-0.0746931 6:0.870372 7:-0.88554 8:0.182592 9:-0.587916 10:0.844594 
128 1:0.54195 2:-0.268392 3:-0.0686103 4:-0.758571 5:0.227859 6:-0.440286 7:0.93886 8:-0.918331 9:0.379014 10:-0.573426 
53.98156750524802 1:0.718249 2:0.0876695 3:-0.226173 4:-0.157995 5:-0.0543162 6:-0.385291 7:-0.32018 8:0.44671 9:0.599934 10:-0.195751 
128 1:0.886678 2:0.156179 3:0.704394 4:-0.584474 5:-0.349293 6:0.389048 7:-0.480918 8:0.844403 9:-0.313941 10:0.228275 
128 1:0.395128 2:-0.371681 3:0.00688338 4:-0.411222 5:0.864727 6:-0.694077 7:-0.323757 8:0.226408 9:-0.43618 10:0.495839 
28.75455095676209 1:0.427353 2:-0.400574 3:-0.972976 4:0.565523 5:-0.464111 6:0.0491751 7:0.140595 8:5.22812e-05 9:-0.362767 10:-0.688444 
82.56696473483609 1:-0.0536329 2:-0.665264 3:-0.712082 4:0.393536 5:0.281414 6:-0.206947 7:0.562054 8:0.806512 9:0.464647 10:0.942867 
100.9456029793403 1:0.700498 2:-0.18013 3:0.493967 4:-0.408888 5:-0.125297 6:0.172003 7:0.973279 8:0.247846 9:0.34473 10:-0.768012 
128 1:-0.496321 2:-0.0394169 3:0.679286 4:-0.643828 5:-0.161212 6:0.499355 7:0.314399 8:-0.0974091 9:0.36552 10:-0.713096 
128 1:0.560119 2:0.197073 3:-0.388281 4:-0.693397 5:-0.600267 6:0.337938 7:-0.589733 8:-0.726792 9:-0.793904 10:-0.201029 
2.278356028457456 1:0.136257 2:0.371006 3:-0.728443 4:0.935314 5:0.0109005 6:0.342746 7:0.890846 8:-0.286928 9:0.643014 10:-0.961514 
35.56383290510564 1:-0.698412 2:-0.448144 3:0.602733 4:0.657733 5:0.0512091 6:-0.599497 7:0.500577 8:0.406351 9:0.292784 10:0.0451381 
16.6166452339009 1:0.207255 2:0.138544 3:-0.848173 4:-0.447784 5:-0.256203 6:-0.944163 7:-0.591738 8:-0.939708 9:-0.649324 10:-0.0725947 
128 1:-0.0396337 2:-0.695497 3:0.447233 4:-0.179402 5:-0.200481 6:-0.475892 7:0.0585224 8:-0.483145 9:-0.0318587 10:-0.26491 
128 1:0.0312119 2:0.0954067 3:-0.429406 4:-0.601102 5:0.476862 6:-0.697618 7:0.631246 8:0.762428 9:0.986001 10:-0.457191 
20.07343747157457 1:-0.766856 2:-0.04971 3:-0.172775 4:-0.0218554 5:-0.854499 6:0.900517 7:0.0436733 8:0.714577 9:-0.313122 10:0.54572 
128 1:-0.784267 2:-0.291235 3:-0.440571 4:-0.100469 5:-0.732858 6:-0.479411 7:0.498161 8:0.665059 9:0.0532142 10:0.961497 
120.0727922792445 1:0.193293 2:-0.537509 3:0.817606 4:0.377391 5:0.855274 6:0.987505 7:0.36452 8:0.4696 9:-0.722305 10:0.0943053 
128 1:-0.037718 2:0.352774 3:-0.210849 4:-0.794031 5:-0.922369 6:-0.840193 7:0.00877875 8:-0.0159036 9:0.689164 10:0.594996 
48.02988454081339 1:0.0540082 2:-0.0589404 3:-0.0314849 4:-0.757783 5:-0.440677 6:0.840781 7:-0.47152 8:-0.331965 9:0.0415422 10:-0.410757 
86.26051820545094 1:0.220395 2:-0.573268 3:0.459853 4:-0.295714 5:-0.940167 6:0.17189 7:-0.713934 8:-0.733184 9:-0.120447 10:-0.42332 
14.01643537024541 1:0.758337 2:-0.0958828 3:0.979529 4:0.161366 5:-0.997275 6:-0.924168 7:-0.668284 8:-0.239006 9:-0.748264 10:0.863837 
76.20808805049012 1:-0.0813244 2:0.0263905 3:-0.163781 4:-0.805559 5:0.980323 6:-0.883218 7:-0.245141 8:0.655324 9:0.437796 10:0.379101 
128 1:0.0752791 2:0.330285 3:0.109637 4:-0.645774 5:0.447401 6:0.77026 7:-0.214013 8:-0.276952 9:-0.347955 10:-0.057355 
128 1:-0.331012 2:-0.675926 3:0.0925032 4:0.227056 5:0.00027274 6:-0.915079 7:-0.290432 8:-0.171758 9:-0.0596266 10:-0.14374 
128 1:-0.570839 2:0.299448 3:0.6701 4:-0.464423 5:-0.846659 6:0.056356 7:-0.42642 8:-0.158962 9:-0.0973391 10:0.988762 
128 1:-0.390598 2:-0.721612 3:-0.0415913 4:0.768393 5:0.18608 6:0.977586 7:0.747563 8:0.585423 9:0.953582 10:0.531817 
-128 1:0.30137 2:-0.703764 3:0.126406 4:0.263299 5:-0.263676 6:0.958989 7:0.315868 8:0.607992 9:0.00293295 10:0.839294 
-25.13152928792684 1:0.558561 2:-0.0289919 3:0.0621172 4:-0.59346 5:-0.214056 6:-0.713147 7:0.143909 8:-0.237344 9:0.873765 10:-0.903063 
-128 1:-0.907675 2:-0.435698 3:0.279523 4:0.424344 5:0.260625 6:0.676542 7:0.637041 8:0.368555 9:0.0314269 10:0.247987 
-15.6880071731672 1:0.907962 2:0.40151 3:0.931075 4:-0.567436 5:-0.370246 6:0.965355 7:-0.686315 8:0.934932 9:-0.0372189 10:-0.49142 
-34.23272779224579 1:-0.516753 2:0.123327 3:-0.140597 4:-0.730168 5:-0.807777 6:-0.0596489 7:0.211948 8:-0.963672 9:-0.567854 10:0.898719 
-48.7716103629062 1:0.163208 2:0.294544 3:0.792822 4:-0.974071 5:-0.943355 6:-0.968274 7:-0.268291 8:0.91459 9:-0.544167 10:0.608549 
-45.35714973266358 1:-0.817411 2:-0.594538 3:0.181819 4:0.264618 5:0.585494 6:-0.633395 7:-0.295876 8:0.500281 9:-0.376268 10:0.672272 
-16.95890984736664 1:0.00646299 2:0.257046 3:-0.289943 4:-0.70646 5:-0.174885 6:-0.930716 7:-0.377428 8:-0.697551 9:0.442716 10:0.909756 
-84.96104695921915 1:0.760449 2:0.116298 3:-0.362545 4:-0.469625 5:0.620315 6:0.0970997 7:-0.861043 8:0.524065 9:-0.582778 10:0.906936 
-109.0473401495175 1:0.869625 2:-0.227789 3:0.178518 4:0.652654 5:0.0129856 6:-0.775376 7:-0.534832 8:-0.910987 9:0.657548 10:0.486754 
-76.39693013422864 1:0.709448 2:0.0434345 3:-0.348884 4:-0.404744 5:0.0174524 6:-0.612092 7:-0.250337 8:0.0886798 9:0.912986 10:-0.915721 
-63.03909160878143 1:-0.0549503 2:-0.83977 3:0.910897 4:0.487193 5:-0.98202 6:-0.0774511 7:-0.616508 8:0.0546566 9:0.474748 10:0.171332 
-120.9167618300824 1:0.310907 2:-0.671251 3:0.672287 4:0.0949005 5:0.546287 6:0.474435 7:-0.69469 8:0.431851 9:-0.752083 10:-0.4404 
-43.77347214411051 1:0.990186 2:0.587702 3:-0.293433 4:-0.298554 5:-0.84626 6:-0.299288 7:-0.236838 8:0.962025 9:-0.105927 10:0.857465 
-5.466780949183491 1:-0.455711 2:0.0295645 3:0.991352 4:-0.393272 5:0.447911 6:-0.904578 7:-0.989036 8:-0.205731 9:0.844646 10:0.134358 
-128 1:-0.0978516 2:-0.442035 3:-0.708482 4:0.591991 5:-0.676272 6:-0.191973 7:0.785856 8:0.531263 9:0.793286 10:-0.838388 
-128 1:-0.991805 2:-0.279192 3:0.00714792 4:-0.105524 5:0.269455 6:0.717133 7:0.814916 8:0.918839 9:-0.444202 10:-0.091687 
-48.64722144613224 1:0.536915 2:-0.155002 3:0.879254 4:-0.697198 5:-0.393354 6:0.734372 7:0.498382 8:-0.975211 9:0.817399 10:-0.946781 
-53.61336369301007 1:0.600593 2:0.569609 3:0.198551 4:0.312032 5:0.275645 6:0.249204 7:-0.708331 8:0.933243 9:-0.995725 10:0.62699 
-8.312075305974277 1:-0.352177 2:0.385571 3:0.71982 4:-0.234038 5:0.314808 6:-0.985586 7:-0.921156 8:0.142602 9:-0.671917 10:-0.964734 
-128 1:0.343464 2:-0.0251581 3:0.160674 4:-0.450388 5:0.903159 6:0.689705 7:-0.31108 8:-0.00346173 9:-0.67807 10:-0.336046 
-52.81547288022843 1:0.726885 2:-0.347222 3:0.948108 4:0.255594 5:-0.378571 6:0.631044 7:0.276796 8:-0.635196 9:-0.7041 10:-0.000747333 
-40.58557562805986 1:-0.937486 2:-0.368477 3:0.894247 4:0.47279 5:0.595469 6:0.457171 7:0.591389 8:-0.673763 9:-0.320665 10:-0.720981 
-128 1:0.996781 2:-0.100821 3:-0.639754 4:0.274149 5:-0.429326 6:0.973281 7:0.893489 8:0.353831 9:-0.696785 10:-0.829701 
-128 1:0.462557 2:-0.559461 3:0.314049 4:-0.102274 5:0.479243 6:0.537699 7:0.167434 8:0.706782 9:-0.492098 10:0.148432 
-128 1:0.871109 2:-0.0471749 3:0.735467 4:-0.130278 5:-0.435516 6:-0.871845 7:0.9185 8:0.228783 9:-0.0367565 10:-0.0256772 
-17.93738757439607 1:0.200087 2:0.603933 3:0.0492842 4:0.923571 5:-0.201497 6:0.148476 7:0.861969 8:0.999052 9:-0.279105 10:0.634078 
-53.53106826412664 1:-0.0302203 2:-0.560185 3:0.593013 4:0.862367 5:0.789263 6:-0.594581 7:-0.971427 8:-0.275217 9:0.850187 10:-0.842268 
-128 1:-0.640393 2:-0.34775 3:-0.957842 4:-0.378567 5:-0.985168 6:0.457977 7:-0.500869 8:0.18946 9:-0.0823718 10:0.527185 
-128 1:-0.315745 2:-0.86309 3:0.703325 4:0.659736 5:0.639968 6:-0.333945 7:-0.680089 8:0.457458 9:-0.537836 10:0.431298 
-2.260878517999102 1:-0.621639 2:0.544821 3:0.643389 4:-0.249108 5:0.771931 6:-0.42677 7:0.737816 8:0.586382 9:-0.549548 10:0.677802 
-128 1:0.826052 2:-0.346493 3:0.0730475 4:0.100974 5:0.832801 6:0.275749 7:0.776048 8:-0.396042 9:-0.0312396 10:0.266772 
-38.75040387209469 1:0.663755 2:0.572512 3:-0.37429 4:0.0944506 5:-0.988166 6:0.0987195 7:-0.730786 8:0.221417 9:-0.251798 10:-0.387772 
-24.41343036674697 1:0.0232305 2:-0.55932 3:0.9908 4:-0.849684 5:-0.993233 6:-0.0278008 7:-0.185637 8:0.987132 9:-0.995185 10:-0.71889 
-128 1:0.486564 2:0.573755 3:0.297753 4:0.0528047 5:0.0887868 6:0.842268 7:0.370551 8:0.337611 9:0.924246 10:-0.583856 
-128 1:-0.502627 2:-0.183374 3:-0.210816 4:-0.307973 5:-0.600769 6:-0.384519 7:0.836303 8:0.580628 9:-0.539314 10:-0.0532555 
-25.41506414575266 1:-0.590983 2:-0.907774 3:0.783559 4:-0.565845 5:-0.975276 6:0.0770497 7:-0.995917 8:0.0656524 9:-0.571885 10:-0.158653 
-128 1:0.101916 2:-0.591144 3:-0.701567 4:-0.111586 5:-0.585989 6:0.338474 7:-0.167647 8:0.0105158 9:-0.478455 10:0.631328 
-64.40588093391305 1:-0.128148 2:0.612538 3:0.680573 4:0.707179 5:0.365448 6:-0.369056 7:-0.69158 8:-0.12895 9:-0.907716 10:-0.680862 
-103.2196636096019 1:-0.619098 2:0.0213204 3:-0.60968 4:-0.865998 5:0.0155808 6:0.305268 7:-0.264553 8:0.735499 9:-0.851557 10:-0.530787 
-128 1:-0.13313 2:0.0793351 3:-0.676969 4:-0.855819 5:-0.725783 6:0.850661 7:-0.42054 8:-0.0293147 9:0.393101 10:-0.220358 
-128 1:-0.675529 2:0.242607 3:0.173637 4:-0.532611 5:-0.839386 6:0.744711 7:-0.447399 8:0.0611974 9:-0.649003 10:0.0585011 
-16.55499383823033 1:-0.699964 2:-0.481523 3:0.822169 4:-0.855347 5:0.086901 6:-0.430075 7:-0.744494 8:0.599147 9:-0.691815 10:-0.828738 
-128 1:0.0244576 2:-0.56232 3:-0.337305 4:-0.132279 5:-0.559671 6:-0.79948 7:-0.663124 8:-0.98278 9:-0.132124 10:-0.385517 
-119.3445137760184 1:-0.0205745 2:-0.172872 3:0.258622 4:-0.564782 5:0.998343 6:0.173093 7:-0.228321 8:-0.534828 9:0.827538 10:-0.135419 
-14.86551619366985 1:-0.913859 2:-0.596535 3:0.78313 4:0.165909 5:-0.899322 6:-0.3494 7:-0.160527 8:-0.456178 9:0.339398 10:-0.141871 
-128 1:0.439721 2:-0.13204 3:-0.379939 4:-0.822001 5:-0.986114 6:0.960449 7:-0.34082 8:-0.133598 9:0.440247 10:1 
-47.0550496319974 1:-0.66846 2:0.555003 3:-0.990835 4:-0.568465 5:-0.901161 6:-0.963145 7:0.803309 8:-0.79291 9:0.747174 10:0.188609 
-128 1:-0.268932 2:0.00422782 3:0.0243301 4:-0.82118 5:-0.580946 6:0.529067 7:-0.39135 8:0.356912 9:0.290464 10:-0.451614 
-13.66581497582884 1:-0.298258 2:0.675561 3:-0.838337 4:0.282983 5:-0.13301 6:0.855411 7:0.644565 8:-0.515946 9:-0.671284 10:-0.102472 
-128 1:-0.386733 2:-0.0161221 3:0.244404 4:-0.618579 5:-0.619065 6:-0.370653 7:-0.0621322 8:-0.191343 9:0.00198396 10:0.930369 
-68.72899118583933 1:-0.187846 2:-0.707919 3:0.688156 4:-0.198415 5:0.442291 6:0.409072 7:0.197246 8:0.428217 9:-0.940198 10:0.785696 
-101.9942907794302 1:-0.895417 2:-0.469323 3:-0.609908 4:0.864167 5:-0.875263 6:0.252331 7:-0.182939 8:-0.271066 9:0.352041 10:0.502953 
-128 1:0.0556294 2:-0.393653 3:-0.321927 4:-0.868174 5:-0.956494 6:-0.431192 7:-0.79634 8:-0.31981 9:-0.161135 10:0.555579 
-128 1:-0.272491 2:-0.119379 3:-0.306891 4:-0.393486 5:0.0707178 6:-0.285105 7:-0.697049 8:-0.981286 9:-0.848282 10:0.239834 
-128 1:-0.586395 2:-0.138257 3:0.042189 4:-0.426241 5:-0.192794 6:-0.269271 7:0.192189 8:-0.792822 9:0.258932 10:0.130269 
-105.8371927489107 1:-0.353622 2:-0.883185 3:0.193567 4:0.759669 5:-0.936417 6:-0.484767 7:-0.295491 8:0.0165289 9:0.830315 10:0.921882 
-22.25617053546384 1:0.354333 2:0.254671 3:0.204186 4:-0.849893 5:0.686314 6:-0.413116 7:0.483679 8:-0.854807 9:0.55549 10:-0.513834 
-103.6037478627622 1:-0.345021 2:-0.622261 3:-0.653078 4:-0.431808 5:-0.342173 6:0.553055 7:-0.69135 8:0.980327 9:-0.385172 10:-0.666261 
-128 1:-0.0702198 2:-0.376384 3:0.740027 4:-0.831904 5:-0.101477 6:0.0125822 7:0.260946 8:-0.212482 9:-0.131477 10:0.698088 
-15.899413165355 1:0.742917 2:-0.100488 3:-0.512522 4:-0.532813 5:-0.714095 6:0.2037 7:-0.0896098 8:-0.992794 9:0.979479 10:-0.132615 
-128 1:-0.00869269 2:-0.0501197 3:0.165625 4:-0.85758 5:0.637896 6:0.494086 7:0.597906 8:-0.729619 9:-0.23024 10:-0.201145 
-128 1:-0.468299 2:0.0728203 3:-0.765574 4:-0.534849 5:-0.263836 6:-0.755793 7:0.211124 8:0.621705 9:-0.220318 10:-0.506433 
-10.40748220233559 1:-0.442679 2:0.0407049 3:-0.560111 4:-0.750355 5:0.197952 6:-0.718127 7:0.850417 8:-0.649329 9:-0.743942 10:-0.0128396 
-97.80511276033445 1:-0.800056 2:-0.57636 3:-0.00681677 4:0.3108 5:-0.0550187 6:0.550373 7:0.903804 8:-0.46581 9:0.292885 10:0.110054 
-128 1:0.0332948 2:0.610705 3:-0.205921 4:0.139458 5:-0.879341 6:-0.502416 7:-0.686233 8:0.297916 9:-0.562089 10:-0.860084 
-99.17772110770878 1:0.892189 2:-0.203918 3:-0.493134 4:-0.0738987 5:0.359537 6:0.977146 7:-0.387513 8:-0.990704 9:0.0660326 10:0.423452 
-128 1:0.418505 2:-0.602553 3:0.123472 4:-0.13923 5:0.181104 6:0.646101 7:0.4283 8:-0.648844 9:-0.297005 10:0.380672 
-0.3354880434328113 1:-0.845477 2:-0.00801687 3:0.894789 4:-0.956555 5:-0.901236 6:0.409304 7:-0.486773 8:0.994605 9:-0.903352 10:0.611723 
-111.563039730217 1:-0.387915 2:-0.246493 3:0.71977 4:-0.500502 5:0.203887 6:-0.544227 7:-0.596351 8:-0.168231 9:-0.247519 10:0.837099 
-87.69600475645738 1:0.235686 2:0.5978 3:-0.250624 4:0.499658 5:-0.191188 6:0.365928 7:-0.997979 8:-0.789124 9:-0.777279 10:0.177542 
-22.75368878431347 1:-0.767497 2:-0.71812 3:0.00524257 4:0.34139 5:0.855207 6:-0.777788 7:-0.0657133 8:-0.484772 9:0.0105262 10:0.261742 
-127.9079825262419 1:0.822794 2:0.534556 3:-0.0248769 4:0.444205 5:-0.744546 6:-0.206626 7:0.701753 8:-0.407405 9:0.575527 10:-0.556121 
-45.11269245546038 1:-0.136469 2:-0.831062 3:0.417696 4:0.826233 5:-0.829482 6:0.15684 7:-0.970636 8:-0.726773 9:-0.431923 10:-0.0390701 
-115.687517225642 1:-0.121209 2:0.0820716 3:0.907828 4:-0.475018 5:0.610851 6:0.257219 7:-0.985048 8:-0.501335 9:-0.290957 10:-0.625838 
-128 1:-0.951484 2:-0.346229 3:-0.0693921 4:0.0608685 5:-0.322958 6:0.886664 7:-0.0721451 8:0.90876 9:0.944895 10:0.79157 
-16.83760706038333 1:-0.619707 2:0.0639303 3:-0.0534139 4:-0.809776 5:0.648666 6:-0.138976 7:0.776332 8:0.958468 9:0.347171 10:-0.69634 
-116.5966221730294 1:-0.496169 2:-0.413759 3:-0.839912 4:-0.723425 5:-0.244127 6:0.585529 7:-0.515813 8:-0.421202 9:-0.515468 10:0.0407128 
-101.8814535957332 1:0.99017 2:0.364033 3:-0.534979 4:-0.784117 5:-0.0397044 6:0.608404 7:-0.103581 8:-0.48366 9:-0.641187 10:-0.553559 
-128 1:-0.891348 2:-0.476727 3:0.924122 4:-0.21272 5:0.39214 6:0.19594 7:0.569583 8:0.273933 9:-0.242496 10:0.409201 
-95.40962395894104 1:0.0729944 2:0.581069 3:0.0677665 4:0.795645 5:-0.140997 6:-0.385046 7:0.831078 8:-0.582015 9:0.449686 10:-0.613615 
-128 1:-0.221671 2:0.0892114 3:0.113747 4:-0.695298 5:-0.754521 6:-0.0171617 7:-0.142274 8:0.848877 9:-0.524702 10:-0.836531 
-128 1:0.365011 2:-0.169156 3:-0.724372 4:-0.449702 5:0.184126 6:0.256597 7:-0.753194 8:-0.0834679 9:0.925546 10:0.0972176 
-42.16052599909752 1:0.626227 2:0.569804 3:-0.369896 4:0.168605 5:-0.946483 6:0.597537 7:0.614577 8:-0.148613 9:0.380528 10:0.480379 
-128 1:-0.365832 2:0.28107 3:-0.0029069 4:-0.620171 5:0.912592 6:-0.61054 7:-0.354305 8:0.935494 9:-0.203402 10:0.357576 
-128 1:-0.296459 2:-0.664458 3:0.116464 4:0.624169 5:-0.581159 6:-0.776802 7:0.105031 8:0.223864 9:-0.623333 10:0.821976 
-128 1:-0.284019 2:-0.507854 3:-0.16556 4:-0.115775 5:-0.0162563 6:-0.0169593 7:-0.347366 8:0.238266 9:0.569731 10:-0.693057 
-66.47649467082717 1:0.683116 2:-0.385452 3:0.535053 4:0.354567 5:-0.20847 6:0.265777 7:-0.243925 8:0.84574 9:0.990739 10:-0.571959 
-83.12194232996457 1:-0.125749 2:0.194295 3:0.397091 4:-0.653438 5:-0.0338221 6:0.364665 7:0.200821 8:0.354514 9:0.921953 10:0.801157 
-3.37236332010059 1:-0.0970155 2:-0.86937 3:0.820939 4:0.68205 5:0.956656 6:0.316631 7:-0.56831 8:0.781478 9:0.448412 10:0.561434 
-39.92693770706428 1:0.749441 2:-0.366848 3:0.715605 4:0.390331 5:-0.543609 6:0.522739 7:0.088698 8:-0.830736 9:-0.316741 10:-0.428703 
-43.09029147487655 1:0.880421 2:-0.151175 3:0.616675 4:-0.952933 5:-0.396004 6:0.948914 7:-0.490596 8:-0.615962 9:-0.912093 10:-0.841059 
-128 1:0.282818 2:-0.662682 3:0.773311 4:-0.130115 5:-0.650248 6:0.197143 7:-0.393338 8:-0.22484 9:-0.964658 10:0.315472 
-128 1:0.0222939 2:-0.0665108 3:0.229895 4:-0.63947 5:-0.702934 6:-0.195608 7:0.266216 8:-0.946857 9:-0.557673 10:0.100805 
-128 1:0.584444 2:-0.490054 3:0.491155 4:0.692562 5:0.911409 6:-0.609181 7:-0.659077 8:0.332852 9:-0.308835 10:0.755662 
-128 1:0.436241 2:-0.0679693 3:0.414728 4:-0.459492 5:0.310679 6:-0.929162 7:-0.724412 8:-0.784829 9:0.392841 10:-0.637832 
-128 1:0.109171 2:0.0335026 3:-0.473725 4:-0.45406 5:-0.756929 6:0.671124 7:0.431737 8:0.819908 9:0.235874 10:-0.554924 
-11.07969918302712 1:0.458664 2:0.140795 3:0.928551 4:-0.74052 5:0.736798 6:0.941575 7:0.844584 8:0.495318 9:0.177878 10:0.78918 
-27.49287576743198 1:-0.901323 2:-0.32856 3:0.675247 4:-0.434676 5:-0.559576 6:-0.75509 7:0.805905 8:0.357335 9:0.247592 10:0.261771 
-4.76541696604078 1:-0.564597 2:0.351406 3:0.0526834 4:-0.13932 5:0.580799 6:-0.765537 7:-0.656476 8:-0.89572 9:-0.444389 10:-0.631643 
-128 1:-0.176701 2:-0.329254 3:-0.909821 4:-0.2461 5:0.00888995 6:-0.756766 7:0.548649 8:0.210103 9:-0.0276258 10:0.293815 
-15.69271485310752 1:0.00577053 2:0.171375 3:-0.257758 4:-0.731703 5:0.170328 6:-0.0629366 7:0.673857 8:0.0710393 9:0.795069 10:0.287468 
-109.8998893292269 1:-0.188251 2:-0.666768 3:-0.36007 4:0.312826 5:-0.789943 6:-0.0714687 7:-0.535648 8:-0.83563 9:-0.708875 10:0.899991 
-128 1:-0.5303 2:-0.512587 3:-0.212308 4:0.73696 5:0.683997 6:-0.443072 7:-0.0258031 8:0.620566 9:0.877077 10:-0.334544 
-128 1:-0.792487 2:0.0454139 3:0.426481 4:-0.285013 5:-0.198555 6:-0.44715 7:0.260351 8:0.575432 9:0.354931 10:-0.900071 
-36.18250483686586 1:0.151985 2:-0.491105 3:-0.492354 4:-0.537582 5:0.267941 6:0.863189 7:-0.336433 8:0.677901 9:-0.415894 10:-0.651866 
-113.8213657063594 1:-0.121115 2:-0.662013 3:-0.155644 4:0.0111813 5:0.195974 6:0.881907 7:-0.916431 8:-0.152572 9:0.610188 10:0.0621296 
-128 1:0.180906 2:-0.383251 3:-0.400684 4:-0.275617 5:-0.240705 6:-0.422831 7:0.920365 8:-0.0440619 9:0.922692 10:0.424241 
-128 1:-0.630072 2:-0.420872 3:0.906791 4:0.978773 5:-0.713055 6:0.943204 7:-0.429616 8:-0.340067 9:0.661879 10:-0.373448 
-110.184342491789 1:-0.507351 2:0.568637 3:-0.907167 4:0.204291 5:-0.828292 6:-0.732007 7:0.035315 8:-0.113986 9:0.113638 10:0.950586 
-14.21728654925764 1:0.206216 2:-0.257522 3:-0.0432605 4:-0.132066 5:-0.955477 6:0.404257 7:0.953284 8:-0.0372877 9:0.853219 10:-0.641579 
-128 1:-0.979985 2:-0.341041 3:0.906752 4:0.163555 5:-0.110456 6:0.0488736 7:-0.739972 8:-0.738472 9:0.196383 10:-0.985318 
-128 1:-0.651638 2:-0.165288 3:0.175924 4:-0.201446 5:-0.221557 6:-0.765713 7:0.853107 8:-0.20875 9:0.522154 10:0.478452 
-128 1:0.663991 2:-0.3412 3:-0.572422 4:-0.0342209 5:-0.430781 6:-0.849356 7:-0.00740101 8:-0.451497 9:0.171153 10:0.210466 
-68.78434470639506 1:0.0495574 2:0.177272 3:-0.617579 4:-0.539522 5:0.717655 6:-0.853972 7:-0.764604 8:0.428477 9:0.980052 10:-0.654393 
-128 1:0.309082 2:0.235384 3:-0.609047 4:-0.53644 5:0.666017 6:0.411877 7:-0.435478 8:-0.995514 9:-0.480643 10:-0.114072 
-33.00671375326421 1:0.0551152 2:0.59664 3:0.781495 4:0.9101 5:-0.452345 6:-0.937798 7:0.480035 8:-0.859246 9:0.971008 10:-0.999375 
-128 1:0.347382 2:-0.617489 3:0.227657 4:0.19881 5:-0.336366 6:-0.0641661 7:-0.331036 8:-0.843344 9:-0.0847525 10:0.0772771 
-128 1:-0.6195 2:-0.0356872 3:-0.221686 4:-0.232964 5:-0.552761 6:-0.470156 7:0.887608 8:0.680828 9:0.657701 10:0.699246 
-89.21677559748122 1:-0.872891 2:-0.561686 3:-0.350364 4:0.357537 5:0.297947 6:0.0539705 7:-0.496015 8:0.688118 9:-0.664369 10:0.393388 
-128 1:0.196154 2:-0.140215 3:-0.542404 4:-0.156729 5:-0.469609 6:0.573099 7:0.863341 8:0.73237 9:0.627639 10:-0.805759 
-28.82093101668087 1:0.85781 2:-0.313224 3:0.567272 4:-0.566559 5:-0.566039 6:0.934642 7:-0.27896 8:0.98367 9:0.0511366 10:-0.0326902 
-37.05848703976336 1:0.240136 2:0.583701 3:-0.463485 4:0.335312 5:-0.997833 6:-0.326108 7:0.635743 8:0.163955 9:0.938717 10:0.906358 
-128 1:0.538988 2:-0.479516 3:-0.44114 4:0.63173 5:-0.0387836 6:-0.328936 7:-0.510897 8:0.363108 9:0.600188 10:0.458407 
-121.9310052770683 1:-0.744156 2:0.0653957 3:-0.524049 4:-0.404963 5:0.25011 6:-0.113069 7:0.0323206 8:0.783725 9:0.965785 10:-0.198934 
-0.01432615490687151 1:-0.718659 2:-0.40547 3:-0.866324 4:-0.198921 5:0.325028 6:-0.838213 7:0.477896 8:0.994922 9:-0.182136 10:-0.299534 
-103.2408526993198 1:0.837405 2:-0.259432 3:-0.43689 4:0.49689 5:0.540303 6:0.949346 7:0.973117 8:-0.340149 9:0.381231 10:0.223551 
-128 1:0.100238 2:0.313998 3:0.672023 4:-0.360921 5:-0.782444 6:-0.731986 7:0.720714 8:0.715394 9:-0.786377 10:0.103972 
-67.42319023363589 1:0.798244 2:-0.452335 3:0.469152 4:-0.553125 5:0.961109 6:-0.683502 7:0.674027 8:0.48261 9:-0.423001 10:0.672392 
-128 1:-0.0533833 2:0.244572 3:0.754236 4:-0.051102 5:0.863809 6:0.882819 7:-0.56385 8:-0.292053 9:-0.326991 10:0.758367 
-5.053220927074248 1:0.863038 2:-0.306432 3:-0.839462 4:0.155574 5:0.954496 6:-0.682839 7:0.8482 8:-0.419999 9:-0.380453 10:0.670301 
-59.46438217548548 1:0.358529 2:0.582673 3:-0.940926 4:-0.0141515 5:0.849642 6:0.522991 7:0.900262 8:0.660234 9:-0.978029 10:-0.42213 
-86.62411466472396 1:-0.446388 2:-0.636822 3:-0.900006 4:-0.637586 5:-0.972393 6:-0.814306 7:-0.96216 8:0.149701 9:0.178179 10:0.988103 
-128 1:0.40248 2:0.274132 3:-0.997877 4:-0.363103 5:0.498817 6:-0.507254 7:-0.733213 8:0.739805 9:-0.0279545 10:0.188081 
-93.8442519391664 1:0.228726 2:0.597307 3:-0.447538 4:0.242481 5:0.428072 6:-0.883677 7:0.0589632 8:0.515407 9:0.963493 10:0.118753 
-10.22589429628421 1:-0.0197619 2:0.603183 3:-0.957343 4:0.292076 5:0.991651 6:-0.992324 7:-0.352608 8:0.938566 9:0.101441 10:-0.0951374 
-128 1:0.727498 2:-0.0375208 3:0.0853907 4:-0.57316 5:-0.945123 6:0.863783 7:-0.0881998 8:0.484612 9:-0.525522 10:-0.143083 
-78.10038220923795 1:0.80867 2:-0.282588 3:-0.880319 4:0.38318 5:-0.721638 6:0.374108 7:-0.567309 8:-0.67635 9:-0.952125 10:-0.13786 
-21.41914811131665 1:0.727851 2:0.695598 3:-0.558107 4:-0.144268 5:-0.163192 6:0.964875 7:0.779164 8:0.629629 9:0.492723 10:0.609007 
-2.170440181367423 1:-0.0529365 2:0.0514772 3:0.380421 4:-0.854132 5:0.669019 6:0.494991 7:0.292573 8:0.0993168 9:0.6115 10:-0.890977 
-23.29011941375093 1:-0.809189 2:0.0273768 3:0.921499 4:-0.897105 5:0.598467 6:0.97393 7:-0.239729 8:0.726348 9:-0.811443 10:-0.746878 
-102.1123130279184 1:0.74616 2:-0.404653 3:0.00128637 4:0.249642 5:-0.0897851 6:-0.164792 7:-0.794894 8:0.148996 9:-0.165493 10:-0.572566 
-46.25090828338569 1:-0.427075 2:-0.67337 3:-0.6459 4:0.256872 5:-0.0367461 6:-0.839335 7:-0.638451 8:-0.350345 9:-0.155431 10:-0.694953 
-70.88394569896597 1:0.558207 2:-0.49833 3:-0.254601 4:0.813079 5:-0.051149 6:0.505703 7:0.0140601 8:0.788929 9:0.143154 10:-0.872026 
-47.83021636843461 1:0.524063 2:-0.546827 3:0.213021 4:0.321367 5:-0.126746 6:0.577565 7:0.540805 8:-0.720147 9:0.83485 10:0.472912 
-55.44385464753428 1:0.561553 2:-0.239506 3:0.380249 4:-0.813724 5:-0.181062 6:0.604617 7:0.802072 8:0.0504025 9:-0.637897 10:0.291168 
-128 1:-0.0569735 2:0.0663611 3:0.658147 4:-0.386125 5:0.541818 6:-0.170714 7:-0.987731 8:-0.928429 9:-0.579417 10:0.102599 
-128 1:-0.397968 2:-0.32367 3:0.111289 4:-0.890031 5:-0.9175 6:-0.479962 7:-0.0766003 8:0.278789 9:0.180249 10:0.66508 
-15.8573908462547 1:0.70155 2:0.136558 3:0.935192 4:-0.288162 5:-0.104196 6:-0.69205 7:-0.424432 8:-0.11047 9:-0.0587209 10:0.760321 
-19.8332865042796 1:-0.0397884 2:0.612351 3:0.200475 4:0.656009 5:0.491678 6:-0.725445 7:0.782916 8:0.806741 9:-0.260028 10:-0.0798369 
-128 1:0.185517 2:-0.378068 3:-0.254625 4:0.0690166 5:0.00918888 6:-0.95413 7:0.350207 8:0.726433 9:0.520091 10:-0.427333 
-128 1:0.0258677 2:0.180883 3:0.774956 4:-0.282786 5:0.511379 6:-0.692165 7:-0.872703 8:0.855609 9:-0.867804 10:0.681074 
-128 1:0.08301 2:-0.217114 3:0.270254 4:-0.785669 5:0.644402 6:0.10106 7:0.149643 8:-0.754626 9:-0.648201 10:-0.165384 
-17.22167218629743 1:-0.195409 2:0.616317 3:-0.58839 4:0.329338 5:-0.637354 6:0.581965 7:-0.543358 8:-0.603545 9:0.186208 10:-0.626543 
-128 1:0.217207 2:-0.312599 3:0.714437 4:-0.541198 5:-0.187942 6:-0.422275 7:0.965911 8:0.436994 9:0.8275 10:0.497983 
-128 1:-0.267317 2:-0.0430146 3:-0.169815 4:-0.482468 5:-0.254171 6:-0.789121 7:0.338228 8:0.516737 9:0.515505 10:-0.0608552 
-83.11974305483147 1:-0.0596013 2:-0.546613 3:-0.520752 4:-0.0557468 5:0.759429 6:0.294486 7:-0.145151 8:-0.783721 9:0.844506 10:0.128966 
-128 1:0.503096 2:0.118104 3:-0.799871 4:-0.447598 5:-0.0695126 6:-0.0949522 7:0.722363 8:-0.520477 9:0.317263 10:0.30626 
-39.99138567512893 1:-0.792632 2:-0.728679 3:0.314923 4:0.721278 5:0.986853 6:-0.682454 7:-0.287883 8:-0.0267301 9:-0.588698 10:0.0947615 
-54.36452567561186 1:0.800944 2:0.198712 3:0.627275 4:-0.648214 5:0.505672 6:0.394968 7:0.11036 8:0.617307 9:0.83336 10:0.722259 
-93.53783786832211 1:-0.116362 2:-0.708297 3:0.815304 4:-0.475833 5:0.29149 6:0.783356 7:-0.157267 8:0.867969 9:-0.806435 10:0.777444 
-128 1:0.702037 2:-0.405208 3:0.344787 4:-0.0170925 5:0.395178 6:0.954914 7:0.0834579 8:0.245328 9:-0.928828 10:-0.401809 
-128 1:-0.0565056 2:-0.292659 3:-0.70651 4:-0.135271 5:0.93618 6:0.712667 7:-0.504252 8:0.593023 9:0.393707 10:0.478784 
-8.586918650148231 1:-0.839284 2:-0.596367 3:0.81767 4:-0.237744 5:-0.805661 6:-0.939197 7:-0.736951 8:-0.960596 9:-0.684522 10:-0.956929 
-128 1:0.175247 2:-0.721785 3:0.431413 4:0.161822 5:-0.98923 6:0.26888 7:-0.712386 8:-0.615661 9:-0.202868 10:-0.626932 
-45.19882212358394 1:-0.40088 2:0.602808 3:-0.963882 4:0.684647 5:0.928464 6:-0.645109 7:-0.735518 8:-0.708612 9:0.301771 10:-0.509314 
-128 1:0.317546 2:-0.642707 3:0.546492 4:-0.0785829 5:-0.796512 6:0.00367574 7:-0.697529 8:-0.890416 9:0.139583 10:-0.173792 
-100.6342442228012 1:0.231797 2:0.578763 3:0.369098 4:0.199677 5:0.947492 6:0.460423 7:0.911233 8:0.0283311 9:-0.56901 10:0.471979 
-17.5762195081984 1:0.862952 2:0.126404 3:-0.798802 4:-0.588894 5:0.643824 6:0.351978 7:0.206048 8:0.914583 9:0.405216 10:0.449604 
-38.79285432345436 1:-0.542793 2:-0.646877 3:-0.48308 4:0.39575 5:0.781645 6:0.597338 7:-0.392598 8:0.324552 9:-0.7177 10:0.866473 
-28.08383894016573 1:0.834947 2:0.534445 3:0.712057 4:0.635493 5:0.54073 6:0.204809 7:-0.75681 8:-0.475266 9:0.225164 10:-0.880903 
-121.2197779901282 1:-0.421119 2:-0.179081 3:-0.760989 4:-0.697997 5:-0.611203 6:-0.5972 7:-0.86399 8:0.230368 9:0.906604 10:-0.518312 
-55.08816747097434 1:0.873166 2:-0.273032 3:-0.401672 4:-0.136283 5:0.64106 6:-0.951306 7:-0.916154 8:0.71873 9:0.910438 10:0.349435 
-113.5655260969384 1:-0.105459 2:0.0861416 3:0.0764702 4:-0.735408 5:0.106357 6:0.204561 7:-0.723627 8:0.50234 9:0.250365 10:0.304406 
-128 1:-0.378438 2:-0.2955 3:0.297346 4:-0.616651 5:-0.211875 6:-0.52624 7:-0.628093 8:-0.459674 9:-0.972893 10:-0.0400156 
-65.33689483825951 1:-0.0488469 2:-0.176984 3:-0.678474 4:-0.678012 5:-0.303498 6:0.428041 7:0.948053 8:-0.0822659 9:-0.785397 10:-0.0795894 
-128 1:-0.870831 2:-0.51811 3:0.175998 4:-0.0120372 5:0.867725 6:-0.29523 7:0.230967 8:0.783144 9:-0.698409 10:-0.286371 
-17.33247162242403 1:0.611153 2:-0.449129 3:-0.723114 4:0.848323 5:-0.904448 6:-0.48524 7:-0.43012 8:0.560836 9:-0.531111 10:0.369917 
-78.51440346292154 1:-0.888279 2:-0.495445 3:-0.956092 4:0.321976 5:-0.521702 6:0.461939 7:-0.821026 8:0.02206 9:-0.386259 10:0.738087 
-35.22819729800074 1:0.774573 2:-0.372767 3:0.63864 4:0.602461 5:0.807262 6:-0.535473 7:0.771965 8:0.270441 9:0.286597 10:-0.993221 
-93.33429921681066 1:-0.828849 2:-0.568919 3:0.0961087 4:0.117515 5:-0.231701 6:-0.250871 7:-0.523418 8:0.645054 9:-0.496643 10:-0.434827 
-119.6306715684929 1:-0.328449 2:-0.629124 3:0.976074 4:0.134201 5:0.893868 6:0.713998 7:0.171734 8:-0.789009 9:-0.737067 10:0.968878 
-2.763353896263453 1:0.666448 2:0.621123 3:-0.657272 4:-0.0386015 5:0.697626 6:-0.546507 7:0.879875 8:-0.997639 9:-0.62456 10:0.625505 
-128 1:-0.468356 2:-0.472788 3:0.502039 4:-0.408314 5:-0.287854 6:-0.946866 7:0.854507 8:0.868038 9:-0.396855 10:-0.0426133 
-128 1:0.0208979 2:-0.175963 3:-0.766431 4:-0.724977 5:0.873622 6:-0.355954 7:-0.349287 8:-0.0403489 9:-0.614385 10:-0.0967935 
-0.4196787360217487 1:0.131683 2:-0.777888 3:0.887814 4:0.366635 5:-0.480189 6:0.298289 7:0.912517 8:0.670282 9:-0.141354 10:0.762172 
-128 1:-0.0744728 2:-0.510361 3:0.247704 4:-0.815101 5:0.223393 6:0.221875 7:0.140968 8:-0.100238 9:-0.739049 10:-0.461424 
-98.65083310752124 1:0.558283 2:-0.485268 3:0.284771 4:0.8828 5:-0.822434 6:0.604498 7:0.813226 8:0.565513 9:0.906502 10:0.695463 
-5.131607186241538 1:-0.224101 2:-0.924049 3:0.72543 4:-0.1506 5:0.390781 6:0.920512 7:0.662735 8:0.972819 9:0.628824 10:0.708174 
-19.36412048547566 1:0.244426 2:0.632854 3:0.549101 4:0.907077 5:0.617467 6:0.177479 7:-0.149211 8:-0.894237 9:0.915674 10:0.358133 
-128 1:-0.213967 2:-0.275671 3:0.941657 4:-0.612191 5:-0.884649 6:0.166353 7:0.520039 8:0.0637653 9:0.349917 10:0.754299 
-128 1:-0.0827344 2:-0.32699 3:-0.314393 4:-0.486736 5:0.642025 6:0.758996 7:-0.803796 8:-0.113366 9:-0.845912 10:-0.89645 
-128 1:0.385503 2:-0.245313 3:0.81189 4:-0.666501 5:0.951233 6:0.752941 7:0.198041 8:0.881124 9:-0.546552 10:-0.418841 
-56.62576344506633 1:-0.609576 2:-0.801768 3:0.219078 4:0.609903 5:-0.000180145 6:0.179587 7:0.632491 8:0.499841 9:-0.952396 10:-0.749731 
-74.40551345946865 1:-0.521353 2:-0.231658 3:0.549364 4:-0.738912 5:-0.788681 6:0.559597 7:0.152229 8:-0.838931 9:-0.042867 10:0.178134 
-128 1:0.328514 2:0.123529 3:0.954872 4:-0.614233 5:-0.983163 6:0.262188 7:0.0168468 8:-0.19627 9:0.0802025 10:-0.992762 
-128 1:-0.21481 2:-0.230109 3:-0.691284 4:-0.335032 5:0.725514 6:-0.694483 7:-0.371708 8:-0.414332 9:0.0785363 10:0.696552 
-27.77626112422053 1:0.674715 2:-0.00876697 3:0.896016 4:-0.194956 5:-0.233251 6:-0.592174 7:0.350004 8:-0.795424 9:0.824838 10:0.947033 
-128 1:0.0373231 2:0.286599 3:0.534272 4:-0.570371 5:-0.312605 6:0.599216 7:0.299724 8:-0.496227 9:-0.967482 10:-0.633081 
-128 1:-0.612578 2:-0.278761 3:-0.420701 4:-0.0994396 5:0.154508 6:-0.852607 7:0.178751 8:-0.503437 9:0.875625 10:0.112884 
-40.9151747115539 1:-0.199834 2:-0.83217 3:-0.503691 4:0.859617 5:0.766184 6:0.28533 7:0.84192 8:0.89084 9:-0.0626175 10:0.851247 
-26.93859879486723 1:-0.501674 2:-0.839616 3:0.223216 4:-0.131492 5:0.113091 6:0.958922 7:-0.155329 8:-0.85345 9:0.355558 10:0.381124 
-4.951370226276184 1:0.680902 2:0.6272 3:0.690922 4:-0.23333 5:-0.631623 6:-0.64428 7:-0.978268 8:0.172751 9:-0.949966 10:-0.927939 
-128 1:0.569048 2:0.0267725 3:0.650241 4:-0.42262 5:-0.00632924 6:-0.848093 7:0.895206 8:0.312657 9:0.889637 10:-0.125254 
-128 1:-0.232101 2:0.630694 3:-0.372135 4:-0.279795 5:-0.23195 6:0.942521 7:-0.266127 8:0.467285 9:-0.584574 10:0.310871 
-128 1:-0.595865 2:0.106478 3:0.469556 4:-0.682769 5:0.5631 6:0.342798 7:0.0968311 8:0.854799 9:-0.0593998 10:-0.321909 
-128 1:0.687646 2:0.564136 3:0.465116 4:0.0706473 5:-0.967789 6:-0.747346 7:0.0363762 8:-0.782258 9:0.0160188 10:0.0242045 
-128 1:-0.597977 2:-0.020338 3:-0.7269 4:-0.518913 5:0.106731 6:-0.561509 7:-0.215335 8:0.305857 9:-0.458036 10:-0.531477 
-21.13541962649751 1:-0.00803477 2:0.600335 3:-0.519212 4:-0.840788 5:-0.928863 6:-0.781701 7:-0.162328 8:0.279443 9:0.175054 10:0.388005 
-5.706703354714593 1:-0.158175 2:0.295482 3:0.933434 4:-0.588951 5:-0.735105 6:0.662263 7:0.301981 8:-0.282651 9:-0.0273379 10:0.704386 
-6.303180254148872 1:0.096988 2:0.620456 3:-0.665414 4:0.234647 5:-0.810968 6:0.53675 7:-0.500416 8:-0.292921 9:-0.346896 10:0.327616 
-128 1:-0.0252364 2:-0.23295 3:0.808382 4:-0.561143 5:-0.890039 6:0.633678 7:0.761968 8:0.20091 9:0.600367 10:0.0692418 
-9.661080409152468 1:0.0633109 2:0.634166 3:-0.397731 4:0.0575676 5:-0.607453 6:-0.912005 7:-0.795597 8:0.548644 9:-0.0716233 10:0.371977 
-28.60210223255445 1:-0.298804 2:0.0705839 3:-0.828539 4:-0.606771 5:0.586898 6:0.974856 7:-0.738755 8:0.0277836 9:0.886567 10:-0.614153 
-128 1:-0.0762392 2:-0.645558 3:0.542928 4:0.604182 5:0.683498 6:0.21678 7:-0.73111 8:0.370606 9:0.593463 10:-0.453254 
-6.10783808258117 1:0.435441 2:-0.591973 3:-0.397847 4:-0.0281816 5:-0.130222 6:0.731189 7:-0.611928 8:0.816935 9:0.301315 10:0.36963 
-98.10316778560484 1:-0.51474 2:-0.576759 3:0.841779 4:-0.1478 5:0.800005 6:-0.990979 7:-0.276881 8:-0.0524329 9:0.84048 10:-0.569879 
-31.40430633792808 1:-0.425371 2:0.575276 3:0.0961326 4:0.00394416 5:0.341286 6:0.542726 7:0.582735 8:-0.107336 9:0.548344 10:-0.788831 
-128 1:0.0115387 2:0.104797 3:0.719257 4:-0.338125 5:0.0872008 6:-0.418441 7:-0.128543 8:0.5692 9:-0.595164 10:-0.158082 
-30.33729964979588 1:0.597045 2:-0.489017 3:-0.495655 4:-0.0808603 5:-0.957087 6:-0.951137 7:-0.710791 8:0.845259 9:-0.116851 10:-0.913022 
-128 1:-0.350671 2:-0.309238 3:0.215381 4:-0.591307 5:0.176122 6:-0.929696 7:0.00952636 8:-0.651843 9:-0.506061 10:-0.489802 
-128 1:0.767585 2:-0.291687 3:-0.374592 4:0.336368 5:-0.418536 6:-0.489867 7:0.631627 8:0.297612 9:0.477468 10:0.62111 
-9.34085809628262 1:-0.479923 2:0.458615 3:-0.100182 4:-0.290709 5:-0.265918 6:-0.57121 7:0.820222 8:-0.332843 9:-0.718127 10:0.704563 
-128 1:0.180142 2:-0.171747 3:0.620019 4:-0.432674 5:0.539057 6:-0.522785 7:-0.651497 8:-0.584728 9:0.047105 10:0.703589 
-75.75950550618388 1:-0.551084 2:0.282814 3:0.34488 4:-0.596289 5:0.578786 6:-0.438709 7:0.806831 8:-0.877063 9:-0.869072 10:-0.712873 
-14.82320614555538 1:0.530216 2:-0.0504114 3:-0.396385 4:-0.720861 5:-0.822248 6:0.839781 7:-0.0126547 8:-0.851192 9:0.984765 10:0.782447 
-22.16939406338164 1:0.576184 2:-0.471364 3:-0.68715 4:0.739716 5:0.978164 6:-0.553426 7:0.756283 8:0.502199 9:0.0997122 10:-0.836978 
-10.85667252043093 1:0.621697 2:-0.425526 3:-0.596539 4:0.584091 5:0.187545 6:0.287447 7:0.140855 8:-0.346695 9:-0.0322867 10:-0.147514 
-128 1:-0.197368 2:-0.868918 3:0.632832 4:-0.187905 5:0.758693 6:-0.942346 7:0.144817 8:0.445403 9:-0.0128929 10:0.617162 
-76.27484165230756 1:0.506124 2:-0.523349 3:0.938261 4:-0.179706 5:0.46896 6:0.31192 7:0.981573 8:-0.528822 9:-0.552646 10:0.814154 
-128 1:0.0207621 2:0.220687 3:-0.736662 4:-0.67312 5:0.025461 6:-0.0469271 7:0.647264 8:-0.0828409 9:0.422145 10:0.264854 
-36.35375807561786 1:0.313363 2:-0.0257901 3:0.802145 4:-0.958933 5:-0.25662 6:0.928918 7:-0.151357 8:-0.874083 9:-0.227188 10:-0.260859 
-102.4591469764701 1:0.268742 2:-0.0509184 3:-0.0101455 4:-0.855673 5:0.262892 6:-0.288099 7:0.23629 8:0.740825 9:-0.20964 10:-0.967445 
-74.509814899771 1:0.100961 2:0.0403646 3:0.122605 4:-0.919424 5:-0.207561 6:0.760259 7:-0.356827 8:-0.275289 9:0.490559 10:0.21145 
-28.9228874021351 1:-0.936874 2:0.0142083 3:-0.200634 4:-0.438343 5:-0.903499 6:0.129662 7:-0.177357 8:-0.495505 9:0.905993 10:-0.274027 
-100.403091230023 1:0.385748 2:0.572825 3:-0.869751 4:0.143832 5:0.89736 6:0.106576 7:0.124639 8:0.122786 9:-0.535556 10:0.487594 
-128 1:0.313447 2:-0.278935 3:-0.433304 4:-0.271377 5:0.588801 6:-0.493152 7:-0.317295 8:-0.359536 9:-0.69408 10:0.712661 
-128 1:-0.0764347 2:-0.610358 3:-0.0440497 4:-0.127331 5:-0.999498 6:0.0700395 7:0.7236 8:-0.541278 9:0.537631 10:0.188058 
-128 1:-0.0773431 2:-0.0318742 3:0.100364 4:-0.324365 5:0.0499051 6:-0.738365 7:-0.50915 8:0.701739 9:0.599182 10:0.378208 
-50.57981892840117 1:-0.0668133 2:0.582375 3:0.843143 4:0.786614 5:-0.265546 6:0.646714 7:-0.131089 8:-0.814452 9:-0.463684 10:-0.825374 
-128 1:0.63809 2:-0.00768349 3:0.0680654 4:-0.396511 5:0.374529 6:-0.984188 7:-0.362713 8:-0.321417 9:0.758268 10:-0.813695 
-36.02220983373499 1:0.326047 2:-0.623511 3:0.931912 4:0.592417 5:0.940993 6:0.920708 7:0.580205 8:0.703011 9:0.686604 10:0.281923 
-128 1:-0.0593877 2:-0.675694 3:0.855763 4:0.159928 5:-0.58214 6:-0.932101 7:0.427064 8:0.620903 9:0.44821 10:-0.566662 
-128 1:-0.335094 2:-0.42151 3:-0.853636 4:-0.288494 5:0.195089 6:-0.0102648 7:0.473216 8:-0.111504 9:-0.0108866 10:0.961434 
-48.62434400827567 1:-0.899726 2:0.518463 3:-0.750457 4:-0.536047 5:0.227905 6:0.634403 7:0.951101 8:0.0928701 9:-0.721518 10:0.798584 
-128 1:-0.0871962 2:-0.0290127 3:0.12913 4:-0.846429 5:-0.632742 6:0.356992 7:-0.613239 8:-0.682081 9:-0.746706 10:0.0896143 
-11.95178796266471 1:0.333174 2:-0.563422 3:0.678129 4:0.922348 5:-0.92984 6:-0.736561 7:-0.302689 8:0.728156 9:-0.605491 10:0.973559 
-128 1:0.641968 2:-0.419734 3:0.174003 4:-0.153873 5:-0.73488 6:0.173238 7:-0.47035 8:0.827641 9:-0.461318 10:0.345174 
-36.49829856068383 1:-0.975325 2:0.495502 3:-0.806761 4:-0.643372 5:-0.787969 6:0.216271 7:-0.49413 8:0.9595 9:-0.166722 10:0.848256 
-29.58616347071772 1:-0.0544926 2:0.659309 3:-0.285364 4:0.80856 5:-0.205464 6:0.800338 7:-0.851674 8:-0.799509 9:0.805412 10:0.947056 
-128 1:0.111704 2:0.603878 3:0.348375 4:0.0256331 5:-0.890656 6:-0.905984 7:-0.204888 8:-0.587383 9:0.216644 10:0.498283 
-89.15174257299928 1:0.714779 2:-0.02745 3:0.0403591 4:-0.452929 5:0.204972 6:-0.717046 7:-0.993038 8:-0.168977 9:0.829118 10:-0.607002 
-80.19602228267107 1:-0.960486 2:-0.326476 3:0.267845 4:0.617328 5:-0.775376 6:-0.78462 7:0.0866748 8:-0.900457 9:-0.511625 10:-0.393667 
-128 1:-0.531207 2:0.0920799 3:0.476924 4:-0.300353 5:-0.289122 6:-0.965584 7:-0.061388 8:0.263932 9:0.426075 10:0.0227767 
-24.23369924902951 1:0.222123 2:0.238822 3:0.897636 4:-0.444641 5:-0.099769 6:-0.235267 7:-0.860124 8:-0.285167 9:0.0298881 10:0.429175 
-128 1:0.166273 2:-0.203439 3:0.494403 4:-0.585374 5:-0.311084 6:-0.353711 7:0.633668 8:0.969957 9:-0.350162 10:0.617867 
-59.41970374949813 1:0.0451499 2:-0.191826 3:-0.173392 4:-0.402044 5:-0.401691 6:-0.940082 7:0.239961 8:-0.910082 9:-0.47143 10:-0.955921 
-36.05355586571074 1:-0.950034 2:-0.350334 3:-0.267428 4:0.142982 5:-0.339193 6:0.102675 7:0.734524 8:0.477689 9:0.571617 10:0.507581 
-128 1:0.308781 2:-0.12763 3:0.791208 4:-0.438224 5:0.54921 6:-0.423185 7:-0.56249 8:0.586512 9:-0.0598686 10:-0.275768 
-11.16071066278588 1:0.158551 2:0.700557 3:0.377106 4:0.86661 5:0.976752 6:-0.878373 7:-0.897099 8:-0.748219 9:-0.612358 10:0.249553 
-92.39100831790422 1:0.943834 2:0.177737 3:-0.446927 4:-0.581961 5:-0.0503817 6:0.0109673 7:-0.228514 8:-0.868653 9:-0.625517 10:0.718196 
-27.30847780294469 1:0.510966 2:-0.374468 3:-0.268599 4:-0.10833 5:0.272493 6:-0.491848 7:-0.508139 8:-0.944274 9:-0.428881 10:0.78035 
-48.05889972154957 1:0.862497 2:0.296079 3:0.627637 4:-0.770874 5:0.0610854 6:0.860993 7:0.429916 8:0.83986 9:-0.715721 10:-0.112578 
-128 1:0.352659 2:-0.137298 3:-0.716476 4:-0.765015 5:0.509892 6:0.921654 7:0.99512 8:-0.334798 9:-0.793295 10:0.645614 
-128 1:-0.116047 2:-0.531433 3:-0.340738 4:0.122093 5:-0.108417 6:-0.180764 7:-0.508611 8:-0.802137 9:0.493964 10:-0.136623 
-10.41358914831851 1:-0.807929 2:0.522589 3:0.514273 4:-0.131599 5:-0.589335 6:0.729986 7:-0.863118 8:0.457996 9:0.963887 10:0.828406 
-128 1:-0.222621 2:-0.166066 3:-0.703304 4:-0.586707 5:-0.454809 6:0.306319 7:-0.0574625 8:0.127825 9:0.308098 10:-0.433628 
-39.33619227403388 1:0.713358 2:0.0839538 3:-0.969577 4:-0.308687 5:-0.258922 6:-0.965355 7:-0.0517096 8:-0.367701 9:-0.959522 10:-0.202546 
-56.50705119818543 1:0.264681 2:0.574589 3:0.402846 4:0.726273 5:-0.893971 6:-0.743934 7:-0.251575 8:-0.297903 9:0.311616 10:0.355631 
-16.22862100461127 1:-0.641112 2:0.531326 3:0.128663 4:-0.606788 5:-0.316477 6:0.816434 7:-0.191993 8:-0.924792 9:-0.84174 10:0.686787 
-2.193161947725205 1:0.906926 2:-0.249098 3:0.747377 4:0.841187 5:0.79989 6:-0.216098 7:0.936865 8:0.22747 9:-0.502154 10:-0.779398 
-11.59212333504477 1:-0.431397 2:0.227883 3:0.67229 4:-0.706792 5:0.300673 6:0.628445 7:-0.383918 8:0.256677 9:0.537797 10:-0.849591 
-128 1:0.398567 2:0.254074 3:0.757857 4:-0.270364 5:0.379639 6:-0.754793 7:-0.930342 8:0.904274 9:-0.141563 10:-0.534721 
-89.51510463620397 1:0.0437296 2:-0.482681 3:0.632513 4:-0.538903 5:0.287016 6:0.0695496 7:-0.0644367 8:0.283826 9:0.992777 10:-0.580911 
-128 1:0.177598 2:-0.0240954 3:0.517412 4:-0.493507 5:0.0539029 6:-0.457162 7:-0.765564 8:0.779427 9:0.727773 10:0.372813 
-128 1:-0.234807 2:-0.652316 3:0.533844 4:0.00290948 5:0.0918813 6:0.127777 7:0.396842 8:-0.943666 9:0.464007 10:-0.598715 
-16.22300459193137 1:0.893014 2:-0.304536 3:0.423788 4:0.538978 5:0.480774 6:0.341584 7:-0.661553 8:-0.442385 9:-0.242747 10:-0.864542 
-79.73842703308539 1:-0.696507 2:0.215423 3:0.825189 4:-0.415242 5:0.215724 6:-0.88061 7:0.0352785 8:-0.00697402 9:0.537466 10:-0.499563 
-52.83084090213541 1:0.623667 2:0.255116 3:0.669119 4:-0.723611 5:-0.830728 6:0.168954 7:-0.553714 8:-0.483374 9:-0.198287 10:0.967502 
-42.88200370590265 1:-0.999728 2:-0.267934 3:0.46411 4:-0.259579 5:0.818756 6:0.295891 7:0.204101 8:0.334434 9:-0.795089 10:-0.204273 
-2.7347092841249 1:0.937443 2:-0.165955 3:0.32057 4:0.376707 5:-0.0221677 6:-0.0818373 7:0.622692 8:0.775239 9:0.919979 10:0.707349 
-78.63029581771498 1:-0.555609 2:-0.608056 3:0.202585 4:0.980366 5:-0.274667 6:0.912903 7:-0.532195 8:0.816618 9:-0.13408 10:0.824113 
-78.20192942128122 1:0.447721 2:-0.616916 3:0.755829 4:0.655527 5:0.388162 6:0.726033 7:-0.171261 8:-0.366523 9:-0.710297 10:-0.643058 
-53.97074416154098 1:0.231679 2:0.254859 3:0.835866 4:-0.911417 5:-0.570386 6:0.778836 7:-0.984453 8:0.591135 9:-0.770603 10:-0.394876 
-91.28007303050434 1:0.0599224 2:0.356414 3:0.461063 4:-0.849021 5:0.985528 6:-0.882272 7:0.228945 8:-0.295786 9:0.350174 10:0.351991 
-128 1:-0.100899 2:-0.0308602 3:0.451627 4:-0.874837 5:0.816379 6:0.434318 7:0.869074 8:0.533395 9:-0.294367 10:0.336506 
-103.2865191352873 1:-0.00410218 2:-0.126998 3:0.705202 4:-0.724021 5:-0.227166 6:-0.537159 7:-0.496188 8:0.754103 9:0.981211 10:-0.473799 
-128 1:-0.131074 2:0.245899 3:-0.134683 4:-0.479595 5:-0.318911 6:-0.69032 7:-0.0667645 8:-0.0547227 9:-0.815431 10:0.987599 
-128 1:0.242834 2:0.0669723 3:0.692814 4:-0.757941 5:-0.739812 6:0.204808 7:-0.800349 8:0.639965 9:0.562025 10:-0.36717 
-96.33736197763301 1:0.910192 2:0.216833 3:0.862302 4:-0.913492 5:-0.996302 6:-0.892922 7:0.19832 8:-0.258353 9:0.357827 10:-0.408482 
-1.035033405020025 1:-0.462433 2:0.560136 3:-0.108252 4:0.983755 5:0.626707 6:-0.229912 7:-0.422548 8:0.984602 9:-0.416743 10:0.61366 
-128 1:-0.252276 2:-0.26385 3:-0.357598 4:-0.616572 5:-0.497777 6:0.224518 7:0.238987 8:0.0167462 9:0.496933 10:0.992361 
-128 1:-0.0339323 2:0.58898 3:0.330151 4:0.573422 5:0.198905 6:0.539855 7:0.289888 8:0.432027 9:0.161509 10:-0.642399 
-19.663847783807 1:0.225682 2:-0.706316 3:0.873805 4:0.106678 5:0.846023 6:-0.790006 7:-0.804202 8:0.0508927 9:-0.720162 10:-0.105951 
-72.8966345843298 1:-0.375267 2:0.482577 3:-0.955273 4:-0.985919 5:-0.613706 6:-0.353304 7:-0.316563 8:-0.174664 9:-0.896876 10:0.551418 
-128 1:0.739557 2:-0.360467 3:0.324862 4:-0.474005 5:0.946321 6:-0.743609 7:0.856345 8:0.024364 9:0.270388 10:-0.357431 
-102.3394888890251 1:-0.559545 2:-0.422756 3:-0.577499 4:-0.532825 5:0.685753 6:0.933669 7:0.249772 8:0.156201 9:0.487447 10:0.566636 
-128 1:-0.497539 2:-0.488846 3:0.724632 4:-0.346357 5:0.396336 6:0.52687 7:0.981823 8:0.313623 9:0.837067 10:-0.435986 
-128 1:-0.469184 2:-0.208995 3:-0.579172 4:-0.264662 5:-0.876102 6:0.894584 7:0.432426 8:-0.230209 9:-0.467177 10:-0.783507 
-128 1:0.388104 2:0.356511 3:0.596641 4:-0.32184 5:-0.501183 6:0.186128 7:0.821655 8:-0.0776439 9:0.702081 10:-0.695802 
-104.4329135223118 1:-0.932856 2:-0.360779 3:-0.296535 4:0.960465 5:0.379482 6:0.36512 7:-0.352687 8:-0.458608 9:-0.439497 10:0.0618351 
-85.95049629472287 1:0.164674 2:0.587216 3:-0.493075 4:0.524523 5:-0.0700442 6:0.00340245 7:-0.581865 8:-0.467999 9:0.898821 10:-0.182121 
-128 1:-0.403448 2:0.3368 3:-0.00611135 4:-0.366854 5:-0.571094 6:0.711667 7:0.678764 8:0.472126 9:-0.486614 10:0.849276 
-61.85803984944247 1:0.100446 2:0.325257 3:0.757906 4:-0.406897 5:0.441879 6:0.481513 7:-0.778414 8:0.358192 9:0.155773 10:0.181033 
-128 1:0.630396 2:-0.121963 3:-0.87834 4:-0.491544 5:-0.786569 6:0.786046 7:-0.312954 8:0.551716 9:-0.518663 10:0.162829 
-24.88120946304145 1:0.878858 2:-0.0125591 3:0.571051 4:-0.44369 5:-0.0755367 6:-0.591425 7:0.571259 8:-0.77906 9:-0.543458 10:-0.703876 
-5.952668181847814 1:0.262583 2:-0.721098 3:0.702777 4:-0.609571 5:-0.833489 6:0.0272272 7:-0.917702 8:0.449717 9:0.40277 10:-0.47675 
-128 1:-0.181255 2:-0.0510018 3:-0.523765 4:-0.508352 5:0.201215 6:0.185426 7:0.704275 8:-0.433417 9:0.675993 10:-0.62664 
-97.43256127390215 1:0.71211 2:0.638986 3:-0.873306 4:0.269887 5:0.69905 6:-0.897692 7:0.639232 8:-0.284387 9:0.504576 10:0.167792 
-25.75988766715124 1:-0.919505 2:0.485785 3:-0.870613 4:0.282849 5:-0.947804 6:0.430549 7:-0.49972 8:0.398981 9:0.692425 10:-0.84558 
-17.41777133089841 1:-0.951748 2:-0.341957 3:-0.651208 4:0.707082 5:0.806246 6:-0.569662 7:0.741662 8:0.903189 9:-0.275063 10:-0.8548 
-128 1:-0.231745 2:-0.36635 3:0.318945 4:-0.790561 5:0.584711 6:0.509669 7:0.0989712 8:0.387805 9:-0.188022 10:0.780401 
-83.64470596345619 1:-0.68088 2:-0.293472 3:-0.943886 4:-0.471644 5:-0.598321 6:0.701105 7:0.325793 8:-0.352692 9:-0.380952 10:-0.800504 
-0.9633365302158524 1:0.453198 2:-0.687117 3:0.816777 4:0.846091 5:-0.482783 6:-0.810312 7:-0.325019 8:0.761717 9:-0.988905 10:-0.677785 
-63.22407572521279 1:0.158872 2:0.0820299 3:0.00350318 4:-0.87558 5:0.887548 6:-0.506819 7:-0.233609 8:0.788012 9:-0.432232 10:0.477747 
-128 1:-0.36481 2:-0.666283 3:-0.651967 4:-0.102234 5:-0.535149 6:0.736176 7:0.48334 8:0.45429 9:-0.708547 10:0.22044 
-128 1:0.358709 2:-0.104731 3:-0.606663 4:-0.391669 5:0.132775 6:-0.559363 7:0.160673 8:0.696776 9:-0.941569 10:-0.742419 
-128 1:-0.93893 2:-0.412912 3:0.776918 4:0.149651 5:0.742529 6:0.0319507 7:0.357145 8:0.0123264 9:-0.359634 10:-0.662748 
-128 1:0.415155 2:0.0779808 3:-0.000942986 4:-0.466909 5:0.723069 6:0.148177 7:-0.992226 8:-0.392439 9:-0.633346 10:0.875545 
-62.05989320519226 1:-0.373815 2:0.617539 3:-0.798134 4:0.437477 5:-0.0480485 6:0.505206 7:-0.241449 8:0.81436 9:0.20018 10:-0.88457 
-128 1:0.483689 2:0.207852 3:-0.881004 4:-0.365223 5:0.0130379 6:-0.737865 7:0.355239 8:-0.676644 9:0.0820304 10:0.747239 
-56.80902236940247 1:0.253764 2:-0.0512727 3:-0.731867 4:-0.448127 5:0.0683846 6:-0.857499 7:0.586562 8:0.541289 9:0.861435 10:-0.334609 
-128 1:0.0627684 2:0.310526 3:-0.950734 4:-0.339722 5:0.16753 6:-0.655601 7:-0.143179 8:-0.554994 9:-0.594712 10:-0.951302 
-128 1:-0.328472 2:-0.242194 3:0.141499 4:-0.507053 5:-0.0992335 6:-0.44235 7:0.245352 8:0.266737 9:0.44106 10:0.532093 
-122.7240635626423 1:0.0225749 2:0.589959 3:-0.510617 4:0.376085 5:0.755561 6:0.499277 7:0.181241 8:-0.849691 9:0.270431 10:0.762929 
-16.13355271398325 1:-0.0625965 2:0.583743 3:0.553129 4:-0.139657 5:0.518122 6:0.668205 7:0.0105268 8:0.524997 9:-0.485009 10:0.764591 
-128 1:-0.329677 2:0.0415175 3:-0.142248 4:-0.713562 5:0.485991 6:-0.461685 7:0.186529 8:0.56071 9:0.0909904 10:0.941726 
-41.29561871210679 1:0.441083 2:-0.605688 3:0.0837581 4:0.500091 5:0.184312 6:0.94444 7:0.402818 8:0.856148 9:-0.747709 10:0.245764 
-19.79459757620436 1:0.972702 2:-0.136958 3:0.93419 4:-0.123547 5:-0.8103 6:0.574335 7:-0.36907 8:0.582584 9:-0.548279 10:0.407922 
-48.37363065177007 1:-0.22597 2:0.603982 3:-0.575442 4:-0.00927052 5:0.781491 6:-0.99229 7:-0.278866 8:-0.159251 9:0.734843 10:-0.92724 
-69.23963600715003 1:-0.505517 2:0.386362 3:0.189123 4:-0.703283 5:0.122418 6:0.954286 7:0.981479 8:-0.837434 9:-0.475486 10:-0.660628 
-28.04245017068195 1:-0.41955 2:0.630062 3:-0.950003 4:0.531448 5:-0.571983 6:0.491767 7:0.401726 8:-0.175335 9:-0.701801 10:-0.301679 
-75.12371699925662 1:-0.0584817 2:0.471082 3:0.919717 4:-0.140101 5:-0.118333 6:-0.756333 7:0.20473 8:-0.779358 9:-0.758673 10:0.718248 
-128 1:-0.198421 2:-0.25107 3:0.851907 4:-0.657819 5:-0.215023 6:-0.359866 7:0.698867 8:-0.812385 9:0.070589 10:0.761599 
-128 1:-0.0505914 2:-0.297764 3:-0.565079 4:-0.801814 5:0.203737 6:0.642148 7:-0.150051 8:0.594899 9:-0.243968 10:0.148962 
-3.655841268481332 1:-0.358486 2:-0.664565 3:-0.848096 4:-0.408961 5:0.895359 6:-0.766713 7:0.0155615 8:-0.507277 9:-0.614742 10:-0.900696 
-128 1:-0.837147 2:0.173125 3:-0.343304 4:-0.477565 5:0.624745 6:-0.510047 7:-0.12639 8:-0.105514 9:-0.94658 10:-0.698323 
-94.8892669315464 1:-0.337761 2:-0.117934 3:0.51551 4:-0.72338 5:-0.156902 6:0.320522 7:0.329609 8:-0.49176 9:0.862008 10:0.908083 
-66.14357715481037 1:-0.944666 2:-0.435968 3:0.207892 4:-0.0143989 5:-0.472923 6:0.0605575 7:0.0698908 8:-0.316389 9:0.908298 10:0.770877 
-85.25427739745862 1:0.102821 2:-0.654386 3:-0.567719 4:-0.444033 5:-0.366521 6:0.798601 7:0.371012 8:0.938646 9:0.973479 10:0.411774 
-62.954230267988 1:0.25247 2:-0.525965 3:-0.688349 4:0.386731 5:0.791798 6:-0.211009 7:-0.959916 8:-0.371919 9:0.770624 10:-0.910793 
-128 1:-0.613646 2:-0.227025 3:-0.416261 4:-0.339784 5:-0.0836606 6:-0.912687 7:0.94979 8:-0.338442 9:-0.0437918 10:-0.531879 
-84.7209372416204 1:0.0924297 2:0.605308 3:0.889698 4:0.0511796 5:0.557796 6:0.474737 7:-0.0174479 8:0.854994 9:0.326171 10:-0.445065 
-128 1:-0.276961 2:0.190579 3:0.423602 4:-0.529979 5:-0.511984 6:0.36978 7:0.120721 8:0.387774 9:0.75739 10:0.161242 
-7.54699050899377 1:-0.11618 2:-0.791537 3:-0.827545 4:0.910036 5:-0.126311 6:0.635983 7:0.390482 8:0.415261 9:-0.904472 10:0.432838 
