svm_type c_svc
kernel_type rbf
gamma 0.125
nr_class 2
total_sv 2125
rho 0.574087
label 0 1
nr_sv 1063 1062
SV
8 1:0.492064 2:-0.190101 3:-0.285697 4:-0.665111 5:-0.304751 6:-0.940144 7:0.694359 8:0.338468 9:0.525464 10:-0.724608 11:0.605238 12:-0.204068 13:-0.850819 14:-0.997077 15:0.139752 
8 1:0.231083 2:-0.916073 3:0.653779 4:0.867261 5:-0.255038 6:-0.550942 7:-0.648912 8:0.120597 9:-0.972521 10:-0.734807 11:-0.730624 12:-0.144546 13:-0.948213 14:-0.908656 15:-0.65216 
8 1:-0.985675 2:-0.0673466 3:-0.305102 4:0.711149 5:0.604581 6:0.561841 7:0.565199 8:-0.907216 9:-0.122465 10:-0.998556 11:-0.725414 12:0.924871 13:-0.345709 14:0.646959 15:0.796504 
8 1:0.714834 2:-0.391702 3:-0.993087 4:-0.471821 5:0.301676 6:-0.10853 7:-0.0894908 8:-0.785439 9:0.430032 10:-0.286277 11:0.102885 12:0.164875 13:-0.932144 14:0.791718 15:-0.898438 
2.938422480742674 1:0.868698 2:-0.27648 3:-0.648611 4:-0.0805149 5:-0.762346 6:-0.662388 7:0.727226 8:0.627092 9:-0.519723 10:0.871721 11:0.064452 12:0.0318282 13:-0.955342 14:-0.596003 15:-0.83813 
0.9113130400689707 1:0.337415 2:0.262222 3:0.250618 4:0.247698 5:-0.865911 6:-0.753423 7:-0.018299 8:-0.675915 9:0.189239 10:-0.226651 11:-0.315926 12:0.696701 13:-0.653934 14:-0.738587 15:-0.581112 
8 1:0.606744 2:-0.133458 3:-0.740836 4:-0.598274 5:0.0758047 6:-0.79456 7:-0.794116 8:-0.592254 9:0.461564 10:-0.822347 11:0.172582 12:-0.718234 13:-0.949054 14:0.34667 15:-0.071957 
8 1:0.621675 2:-0.674712 3:0.519584 4:-0.160205 5:0.602821 6:0.0433038 7:-0.745921 8:-0.462512 9:0.389399 10:-0.822078 11:-0.503611 12:-0.684402 13:-0.896751 14:-0.632791 15:-0.204391 
8 1:0.52778 2:0.0150733 3:-0.391978 4:-0.402534 5:0.462444 6:-0.577585 7:-0.935422 8:-0.0971725 9:0.956431 10:-0.368937 11:-0.628231 12:0.984339 13:-0.0948767 14:-0.82197 15:-0.513394 
2.684905140588151 1:-0.271765 2:-0.66715 3:-0.915173 4:0.928805 5:0.945546 6:-0.389539 7:-0.921534 8:-0.435819 9:0.751041 10:0.297638 11:0.382175 12:-0.189096 13:0.652812 14:-0.351507 15:0.872233 
3.602177228511309 1:0.35686 2:-0.571764 3:0.29611 4:-0.546082 5:-0.379526 6:0.921465 7:0.780634 8:-0.911891 9:-0.510081 10:-0.619855 11:-0.825936 12:-0.0449615 13:0.808595 14:0.135408 15:0.76213 
6.94156721543481 1:0.446161 2:-0.615706 3:-0.20182 4:0.0396775 5:0.265069 6:-0.96705 7:0.452165 8:-0.401053 9:0.451574 10:-0.578463 11:-0.521233 12:-0.97532 13:-0.157721 14:-0.834654 15:0.984431 
8 1:-0.291882 2:0.350796 3:-0.400206 4:-0.863055 5:0.709494 6:0.769148 7:-0.583424 8:-0.108321 9:0.959793 10:-0.320934 11:0.708993 12:0.86112 13:0.555801 14:-0.766695 15:-0.967337 
8 1:0.129601 2:-0.546544 3:-0.905648 4:-0.847027 5:-0.422136 6:0.131292 7:0.165529 8:0.825929 9:0.737897 10:0.466975 11:-0.923896 12:0.351818 13:0.12448 14:-0.719545 15:-0.797679 
8 1:-0.0630611 2:-0.220948 3:-0.617885 4:-0.905535 5:0.991972 6:-0.293295 7:-0.916362 8:0.693668 9:-0.0149614 10:0.527175 11:0.678976 12:0.478014 13:0.138742 14:0.503174 15:-0.0905091 
8 1:0.119431 2:-0.737982 3:-0.156713 4:-0.691429 5:0.50832 6:-0.439366 7:0.118924 8:-0.103082 9:0.138655 10:-0.290359 11:0.316967 12:-0.525356 13:-0.343842 14:0.453542 15:0.854127 
8 1:-0.76864 2:-0.750334 3:-0.60683 4:-0.170416 5:0.907484 6:-0.902441 7:-0.494415 8:0.75505 9:-0.113557 10:0.498563 11:0.472918 12:-0.190997 13:-0.191002 14:-0.965314 15:0.967896 
7.597224940072893 1:0.692586 2:-0.690197 3:-0.987303 4:0.268961 5:0.238284 6:0.955105 7:-0.698686 8:0.0228718 9:0.0123212 10:0.855683 11:0.726141 12:-0.576315 13:0.446907 14:0.986208 15:0.805727 
6.299106580470785 1:-0.260175 2:0.706356 3:-0.47236 4:-0.377155 5:-0.411724 6:0.883039 7:-0.912542 8:-0.169587 9:0.708923 10:-0.989961 11:0.992647 12:-0.484302 13:0.583571 14:-0.27535 15:0.55364 
7.631343761876247 1:0.0176688 2:-0.909149 3:-0.390157 4:0.796267 5:0.265591 6:-0.383236 7:-0.455116 8:0.281155 9:-0.711487 10:-0.559004 11:-0.559949 12:-0.061941 13:0.554472 14:-0.30823 15:-0.474762 
8 1:-0.38151 2:-0.665742 3:0.191689 4:0.232184 5:-0.0943569 6:0.930078 7:-0.339299 8:-0.907503 9:-0.875033 10:-0.316621 11:0.619553 12:0.327967 13:0.787081 14:0.585738 15:0.547231 
4.600431234835622 1:-0.928876 2:-0.755928 3:0.119499 4:-0.438479 5:0.965434 6:0.10755 7:-0.733041 8:0.570381 9:-0.144046 10:-0.362762 11:0.783721 12:-0.706181 13:0.328198 14:-0.129009 15:-0.894167 
7.251820871478613 1:0.659505 2:-0.905447 3:0.841732 4:0.358207 5:-0.321858 6:0.315912 7:0.612738 8:0.0123338 9:-0.841493 10:0.50251 11:0.292914 12:-0.26559 13:0.151212 14:-0.093906 15:0.555326 
8 1:0.150778 2:-0.880421 3:0.241888 4:0.87213 5:0.217479 6:-0.312499 7:-0.58912 8:0.250916 9:-0.987772 10:-0.757336 11:-0.290065 12:-0.469314 13:-0.763944 14:0.423542 15:-0.348709 
7.773909564665384 1:-0.660904 2:0.521949 3:-0.468334 4:-0.774682 5:0.183425 6:0.426356 7:0.0776658 8:0.371622 9:0.21339 10:0.138502 11:0.251921 12:0.924675 13:-0.832737 14:0.791596 15:-0.454815 
8 1:-0.112341 2:-0.963398 3:0.184539 4:0.336 5:-0.240509 6:-0.138394 7:0.18722 8:0.0183384 9:0.049939 10:0.531957 11:0.977342 12:-0.0809116 13:0.317758 14:-0.00699306 15:-0.721174 
8 1:0.1782 2:-0.576766 3:0.21699 4:0.553903 5:-0.31291 6:0.806174 7:0.919621 8:-0.771156 9:0.741616 10:-0.532481 11:-0.367395 12:-0.551782 13:-0.37519 14:-0.508078 15:0.978888 
8 1:0.190612 2:-0.785154 3:0.539388 4:-0.381971 5:-0.765672 6:-0.0287075 7:0.704744 8:0.137565 9:0.887072 10:-0.0671071 11:0.951971 12:0.605113 13:-0.137544 14:0.665346 15:-0.271877 
7.018792462587461 1:0.549941 2:0.106648 3:0.419465 4:-0.361099 5:0.471203 6:-0.072863 7:0.264746 8:0.139338 9:0.812797 10:-0.0213098 11:0.00393598 12:0.48537 13:-0.849863 14:-0.323034 15:0.686816 
8 1:0.689587 2:-0.512787 3:-0.554202 4:0.137065 5:-0.46526 6:0.0618678 7:-0.0886517 8:0.212693 9:0.0938303 10:-0.903481 11:-0.77442 12:0.272928 13:-0.462969 14:-0.568832 15:0.602834 
8 1:0.134693 2:0.368188 3:0.408174 4:-0.821749 5:-0.378627 6:-0.803991 7:0.976207 8:-0.678005 9:0.709089 10:-0.604035 11:-0.173526 12:-0.222947 13:-0.401019 14:0.791596 15:-0.705884 
3.604607911548417 1:0.570688 2:-0.60059 3:-0.729292 4:0.576656 5:0.672377 6:-0.463889 7:-0.00706396 8:-0.99969 9:0.658668 10:-0.71026 11:0.686322 12:0.720937 13:0.737321 14:-0.532851 15:0.444527 
8 1:-0.911727 2:-0.0458977 3:-0.177115 4:-0.325126 5:0.899975 6:0.707426 7:-0.650167 8:0.832618 9:-0.442046 10:-0.782565 11:-0.0545535 12:0.0625367 13:-0.694527 14:-0.253503 15:-0.624486 
8 1:-0.370792 2:-0.59435 3:0.274265 4:-0.439676 5:-0.801638 6:0.542006 7:-0.870033 8:0.83613 9:-0.550857 10:-0.999547 11:-0.57594 12:0.709562 13:0.229004 14:0.600448 15:0.259164 
0.2337994552931544 1:-0.411244 2:0.260596 3:-0.717804 4:-0.856036 5:-0.10392 6:0.0302093 7:-0.726415 8:-0.0685095 9:-0.662805 10:-0.86634 11:-0.746863 12:-0.824117 13:-0.457528 14:-0.77121 15:-0.0894914 
8 1:-0.0108313 2:-0.889162 3:0.372005 4:-0.70345 5:0.345937 6:-0.199465 7:0.383485 8:0.579156 9:0.331157 10:0.20125 11:0.94222 12:0.549706 13:-0.208104 14:-0.613223 15:0.15472 
8 1:-0.996797 2:-0.634546 3:-0.979767 4:-0.920928 5:-0.254576 6:-0.631991 7:-0.84219 8:-0.291298 9:-0.441784 10:-0.109653 11:0.54469 12:-0.297854 13:-0.277544 14:0.618613 15:0.806605 
8 1:-0.949789 2:-0.949935 3:-0.317388 4:0.926774 5:-0.671835 6:0.623626 7:-0.918005 8:0.453224 9:-0.0103892 10:0.209927 11:0.0231118 12:0.16071 13:0.298389 14:-0.440458 15:-0.448749 
8 1:-0.411132 2:-0.59274 3:-0.635945 4:0.0356424 5:0.774067 6:-0.947202 7:0.0320303 8:-0.859219 9:0.437502 10:0.174306 11:-0.379297 12:-0.277657 13:-0.930774 14:0.55487 15:0.814439 
8 1:0.440452 2:-0.61969 3:0.0715638 4:0.0550759 5:0.0324054 6:-0.51119 7:-0.0199139 8:-0.763626 9:0.675199 10:-0.360729 11:0.590338 12:-0.342085 13:-0.670838 14:0.141034 15:0.953384 
8 1:-0.949182 2:-0.00280541 3:-0.180859 4:0.430827 5:-0.727447 6:-0.778707 7:0.59106 8:0.227028 9:0.298268 10:-0.96035 11:0.497145 12:0.0135049 13:0.424011 14:-0.441408 15:0.0927902 
8 1:0.239626 2:-0.092838 3:0.345685 4:-0.445964 5:-0.769124 6:-0.479988 7:-0.835915 8:0.231539 9:0.878309 10:-0.665207 11:0.232982 12:-0.19104 13:0.819256 14:-0.185169 15:-0.0105547 
8 1:0.190804 2:-0.451571 3:0.412133 4:-0.527616 5:-0.892109 6:-0.127376 7:-0.186602 8:0.592296 9:0.747462 10:-0.910918 11:0.373826 12:0.497652 13:0.920406 14:-0.845 15:-0.973138 
1.346281885465168 1:0.600283 2:-0.0986586 3:-0.83182 4:-0.691345 5:-0.69869 6:-0.338693 7:0.971609 8:0.610871 9:0.688432 10:-0.195237 11:-0.133984 12:-0.0519239 13:0.930306 14:0.0390515 15:-0.941507 
8 1:-0.536531 2:-0.99007 3:0.87507 4:0.758723 5:0.259768 6:-0.5265 7:-0.446432 8:0.538329 9:0.116537 10:-0.00956617 11:0.263219 12:0.842327 13:0.0541319 14:0.201911 15:0.305532 
8 1:0.0527224 2:-0.442263 3:-0.421877 4:0.217057 5:0.852833 6:0.0282206 7:-0.823035 8:-0.159739 9:0.589946 10:-0.0438841 11:0.854352 12:0.0102068 13:-0.893654 14:-0.29027 15:0.762625 
1.807649561277803 1:0.229509 2:-0.208501 3:-0.413586 4:-0.887535 5:-0.703444 6:0.0107367 7:0.785617 8:0.324458 9:-0.847658 10:-0.612091 11:0.0631237 12:0.384062 13:0.573072 14:0.959123 15:0.931913 
8 1:-0.493401 2:0.467313 3:-0.10531 4:0.0612128 5:-0.123666 6:0.42919 7:-0.823008 8:0.658448 9:0.328048 10:-0.944753 11:0.998699 12:0.26587 13:-0.125042 14:-0.692237 15:0.0254086 
6.439739673747649 1:-0.76488 2:-0.245606 3:-0.451273 4:0.363579 5:-0.708909 6:-0.899264 7:-0.494358 8:-0.828968 9:0.38046 10:-0.601485 11:0.0954596 12:-0.803312 13:0.408742 14:-0.854417 15:-0.843195 
8 1:0.436719 2:-0.216412 3:0.0727667 4:-0.792222 5:0.208697 6:0.725003 7:-0.893495 8:0.859242 9:0.680714 10:-0.542717 11:0.155189 12:0.488717 13:0.288091 14:-0.646862 15:-0.912132 
8 1:0.308381 2:-0.501548 3:-0.220872 4:-0.937243 5:0.178429 6:0.597532 7:0.583496 8:-0.25456 9:-0.704434 10:-0.385693 11:0.671945 12:-0.739276 13:-0.557815 14:-0.982225 15:-0.648873 
3.239439917093498 1:-0.119836 2:-0.969876 3:0.528315 4:0.255884 5:-0.0597091 6:-0.927448 7:0.246223 8:-0.327241 9:-0.810987 10:0.23292 11:-0.358267 12:0.81893 13:0.376929 14:0.998116 15:0.262822 
8 1:-0.0760453 2:0.267313 3:-0.974046 4:-0.779999 5:-0.704412 6:0.672953 7:0.0212904 8:0.619177 9:-0.733009 10:-0.822135 11:0.946874 12:0.453701 13:-0.198066 14:-0.902704 15:0.216272 
6.240665460066714 1:-0.854873 2:-0.573929 3:0.131824 4:-0.718972 5:-0.204912 6:0.597477 7:-0.494054 8:0.265141 9:-0.797886 10:-0.79646 11:-0.555976 12:0.942622 13:0.768828 14:-0.685127 15:0.216098 
8 1:-0.383689 2:-0.904893 3:0.335457 4:-0.0536575 5:0.753654 6:0.616104 7:0.354849 8:-0.508422 9:-0.472762 10:-0.465623 11:-0.171519 12:-0.620849 13:-0.00106021 14:0.577851 15:-0.507242 
8 1:0.667418 2:-0.938147 3:0.120569 4:-0.554911 5:-0.650825 6:0.704201 7:-0.757787 8:-0.989898 9:-0.273736 10:-0.981848 11:-0.945107 12:-0.0629824 13:-0.397279 14:0.529997 15:-0.742331 
6.78533710858207 1:0.257916 2:0.513559 3:0.841869 4:0.480555 5:-0.805549 6:-0.653557 7:0.80033 8:0.135256 9:0.513964 10:-0.900576 11:0.744868 12:0.0496968 13:-0.407537 14:0.00104139 15:0.152183 
8 1:-0.885318 2:-0.671289 3:-0.028573 4:-0.4884 5:-0.621095 6:0.874954 7:0.520899 8:-0.806074 9:0.0595367 10:0.198249 11:0.234038 12:-0.96883 13:0.593747 14:0.421872 15:0.517757 
3.866427349912925 1:0.776089 2:0.956005 3:-0.480922 4:-0.965786 5:-0.274155 6:0.333503 7:-0.810939 8:-0.873101 9:-0.396612 10:0.0205763 11:0.864265 12:0.480752 13:-0.826078 14:0.655018 15:0.304743 
8 1:-0.606309 2:0.287477 3:0.779786 4:0.171579 5:0.917924 6:-0.813063 7:-0.639925 8:0.210898 9:-0.143765 10:-0.887759 11:0.380933 12:0.779982 13:-0.547066 14:-0.895302 15:0.215337 
0.2723129335379514 1:0.45337 2:0.404967 3:-0.516201 4:-0.978852 5:0.239697 6:0.593601 7:0.677942 8:0.493902 9:-0.88034 10:0.67112 11:-0.310285 12:-0.042219 13:0.313224 14:0.162902 15:0.840059 
5.411269814752206 1:0.211343 2:0.822032 3:0.0891554 4:-0.887692 5:0.751617 6:-0.912751 7:-0.436581 8:-0.566631 9:-0.591106 10:0.56989 11:0.805383 12:0.540572 13:-0.934788 14:-0.886758 15:0.945209 
8 1:0.0669775 2:-0.315023 3:-0.36947 4:-0.664252 5:-0.282297 6:-0.0822632 7:-0.897998 8:-0.72429 9:0.918325 10:-0.00292221 11:-0.542984 12:-0.0418609 13:-0.480714 14:-0.406172 15:-0.227484 
3.592640368378811 1:-0.232677 2:-0.949128 3:0.554269 4:-0.247729 5:-0.179716 6:-0.903611 7:0.352425 8:0.084499 9:-0.761414 10:-0.00514706 11:-0.891782 12:0.580841 13:0.870276 14:-0.337877 15:0.282217 
8 1:-0.826736 2:0.629888 3:0.0863122 4:-0.424519 5:0.325066 6:-0.749867 7:-0.101252 8:0.131701 9:0.816974 10:-0.37603 11:0.937621 12:-0.0519116 13:-0.776343 14:-0.601817 15:0.660587 
8 1:-0.0728919 2:-0.38456 3:-0.898031 4:0.138191 5:-0.0665168 6:-0.527436 7:-0.626628 8:-0.391009 9:-0.574603 10:0.919611 11:0.201641 12:-0.0902429 13:0.223004 14:0.415213 15:-0.777621 
3.518743317884165 1:-0.204647 2:0.907335 3:-0.0756121 4:-0.965691 5:-0.178832 6:0.989535 7:0.563823 8:-0.940873 9:0.182627 10:-0.396246 11:0.570853 12:0.914812 13:-0.0831207 14:-0.550452 15:0.936649 
8 1:-0.541313 2:0.0195117 3:0.588486 4:0.487458 5:0.180996 6:0.762151 7:0.225816 8:-0.707737 9:0.883327 10:0.0760319 11:0.988112 12:0.270874 13:-0.440554 14:-0.328724 15:0.169174 
7.72669658004758 1:0.719269 2:-0.836644 3:0.732288 4:-0.266123 5:0.360309 6:0.284147 7:-0.199672 8:0.95412 9:-0.464713 10:0.986661 11:0.972997 12:0.532463 13:0.808157 14:-0.0289179 15:-0.646207 
5.398462761350449 1:-0.645958 2:-0.785837 3:-0.177102 4:-0.214763 5:0.329692 6:-0.943335 7:-0.643415 8:-0.109533 9:0.273144 10:0.906713 11:-0.517013 12:0.804017 13:-0.633234 14:-0.274942 15:-0.84416 
8 1:0.30645 2:-0.495262 3:-0.796069 4:-0.892278 5:0.0709284 6:0.603855 7:0.49494 8:0.0166313 9:-0.137911 10:-0.70751 11:0.26694 12:0.914465 13:0.692198 14:0.223713 15:0.257261 
8 1:-0.50018 2:-0.809623 3:0.685739 4:0.481738 5:0.71753 6:0.229823 7:0.759579 8:0.57762 9:-0.938466 10:0.562594 11:-0.471868 12:0.571848 13:0.180757 14:0.801415 15:-0.0568976 
8 1:-0.363946 2:0.322734 3:-0.89723 4:-0.737619 5:0.020642 6:-0.0104116 7:0.0571001 8:-0.145701 9:0.782982 10:0.665109 11:0.968917 12:-0.609935 13:0.9718 14:0.903546 15:-0.797603 
8 1:-0.847755 2:-0.281023 3:0.984722 4:0.195342 5:0.0798435 6:-0.0322467 7:-0.250854 8:0.366338 9:0.537856 10:-0.80086 11:0.666021 12:-0.69743 13:-0.40618 14:-0.857636 15:-0.725254 
8 1:-0.873648 2:0.332674 3:-0.256437 4:-0.0825605 5:-0.640365 6:-0.945667 7:-0.41514 8:-0.482723 9:0.736203 10:-0.196318 11:0.931822 12:0.830564 13:0.0299841 14:0.00753612 15:-0.768361 
8 1:-0.222956 2:-0.327498 3:-0.925522 4:-0.794459 5:0.671748 6:0.792782 7:-0.0875685 8:-0.735997 9:0.228448 10:-0.526339 11:-0.611204 12:0.975507 13:0.59766 14:-0.940272 15:0.756324 
0.2770760030560535 1:-0.0704913 2:0.808474 3:-0.784635 4:-0.501607 5:-0.474576 6:0.187167 7:0.920615 8:-0.108335 9:0.616971 10:-0.790397 11:-0.957533 12:-0.37159 13:-0.436432 14:0.675215 15:-0.702215 
6.144366855401115 1:-0.251302 2:0.0865673 3:-0.870464 4:-0.707536 5:0.897558 6:0.9952 7:0.542178 8:-0.355711 9:-0.62108 10:0.830678 11:0.169979 12:0.718728 13:0.603588 14:0.164212 15:-0.341747 
8 1:-0.829241 2:-0.733809 3:-0.10422 4:-0.971828 5:0.404511 6:0.433551 7:0.671669 8:-0.938163 9:0.0525269 10:0.0511876 11:-0.676956 12:-0.14619 13:-0.41173 14:0.508629 15:0.704915 
8 1:-0.101478 2:0.366952 3:0.00168571 4:-0.613532 5:0.806755 6:-0.130679 7:-0.330847 8:0.0199697 9:0.679911 10:-0.956104 11:0.737685 12:0.176108 13:-0.180475 14:0.771767 15:0.708721 
5.040543905883546 1:-0.027867 2:-0.271833 3:-0.768917 4:0.179233 5:0.596613 6:-0.481649 7:-0.977376 8:-0.867999 9:-0.946242 10:0.762997 11:-0.000720033 12:0.573929 13:-0.735859 14:-0.834225 15:0.727679 
4.980275836241939 1:-0.0349628 2:0.598681 3:-0.732576 4:-0.34257 5:-0.694328 6:0.395636 7:-0.661376 8:0.00225807 9:0.844789 10:-0.627115 11:-0.0127243 12:0.241975 13:-0.166529 14:0.686976 15:-0.533602 
0.1687966609568248 1:-0.435545 2:-0.790245 3:0.112666 4:-0.690322 5:-0.178342 6:-0.899852 7:0.391003 8:0.42024 9:-0.297374 10:0.292466 11:-0.522041 12:-0.663417 13:0.314239 14:0.301912 15:0.938442 
8 1:-0.0937687 2:-0.950363 3:-0.299998 4:0.296283 5:-0.70569 6:0.988244 7:-0.0603663 8:-0.28253 9:0.265261 10:0.703275 11:-0.654776 12:0.256812 13:0.848024 14:0.266653 15:-0.744232 
2.447998610302298 1:-0.2788 2:-0.879462 3:0.496781 4:0.565999 5:-0.51008 6:-0.629138 7:-0.151137 8:-0.194083 9:-0.0234536 10:0.854778 11:0.869544 12:0.642935 13:0.188514 14:0.0204273 15:0.268577 
8 1:-0.189116 2:-0.605703 3:-0.078711 4:0.376635 5:-0.805015 6:-0.610216 7:0.372372 8:0.337775 9:-0.970889 10:0.867188 11:0.183107 12:0.321609 13:-0.949716 14:0.232542 15:0.340313 
8 1:0.643915 2:-0.393261 3:-0.917775 4:-0.0870452 5:-0.0744796 6:0.0369464 7:0.855334 8:-0.972176 9:-0.524698 10:-0.410624 11:0.462699 12:-0.449683 13:0.788676 14:0.503903 15:0.614996 
8 1:-0.257842 2:-0.854526 3:-0.333361 4:0.0981411 5:0.643094 6:-0.337254 7:0.287911 8:-0.361719 9:-0.118275 10:0.412843 11:-0.925898 12:-0.584706 13:-0.139627 14:0.621832 15:0.308777 
8 1:-0.211522 2:-0.884632 3:-0.290078 4:0.47504 5:-0.503599 6:0.362454 7:-0.548696 8:-0.202163 9:-0.413783 10:0.579402 11:-0.685773 12:0.714004 13:-0.275289 14:-0.319553 15:-0.344847 
8 1:-0.88846 2:-0.214516 3:-0.897486 4:0.389568 5:0.514675 6:0.792485 7:0.434528 8:-0.93816 9:0.696964 10:-0.392318 11:0.702791 12:-0.660631 13:0.400685 14:0.718884 15:-0.232491 
8 1:0.0417493 2:-0.608808 3:-0.756328 4:0.0549073 5:-0.508214 6:-0.852483 7:0.539142 8:0.42738 9:0.2892 10:0.0552981 11:0.784361 12:0.848537 13:0.386918 14:-0.849535 15:0.446721 
8 1:0.978106 2:0.0881301 3:0.258846 4:0.598751 5:0.398587 6:0.360649 7:0.967032 8:-0.473041 9:0.516435 10:-0.761061 11:0.686537 12:0.905225 13:-0.288411 14:0.935356 15:0.507959 
2.070272596161662 1:0.346167 2:0.0943606 3:-0.776621 4:-0.727655 5:0.409695 6:0.923635 7:0.272506 8:0.140503 9:-0.782852 10:-0.684929 11:-0.575896 12:0.632613 13:-0.753412 14:0.729032 15:-0.194718 
8 1:0.586624 2:-0.923144 3:-0.921689 4:0.306026 5:-0.120877 6:-0.604597 7:0.655921 8:-0.525434 9:-0.76608 10:-0.313422 11:0.172757 12:-0.545932 13:0.760315 14:-0.456416 15:-0.802486 
8 1:-0.556989 2:0.635494 3:-0.87424 4:-0.356136 5:-0.612355 6:0.279596 7:0.273671 8:-0.243409 9:0.910506 10:-0.506878 11:-0.28548 12:-0.0736125 13:-0.733546 14:0.513764 15:0.0622366 
8 1:-0.49278 2:-0.866649 3:-0.763586 4:0.0193279 5:-0.478084 6:0.0629211 7:-0.338979 8:0.655264 9:0.89712 10:0.97146 11:0.875603 12:0.85207 13:-0.129048 14:-0.556626 15:-0.421923 
7.128356226530939 1:0.115988 2:-0.804572 3:0.0272582 4:0.287557 5:0.381069 6:0.172821 7:0.968864 8:0.71326 9:0.926145 10:0.244741 11:-0.45082 12:-0.886235 13:0.883626 14:-0.379384 15:0.0689144 
8 1:0.622547 2:-0.262241 3:-0.467951 4:-0.701939 5:-0.0334462 6:-0.0588166 7:0.736388 8:0.90367 9:-0.253964 10:-0.172927 11:-0.863029 12:0.342775 13:-0.3426 14:-0.879727 15:-0.269351 
7.436443335790925 1:-0.0313612 2:0.108759 3:-0.705884 4:-0.0643914 5:0.490964 6:0.260902 7:-0.50622 8:0.573909 9:-0.43512 10:-0.895763 11:0.000824624 12:-0.122793 13:-0.926537 14:-0.61687 15:-0.143192 
6.303444750930848 1:0.885301 2:-0.281363 3:-0.170074 4:0.869448 5:0.465449 6:0.416862 7:-0.0916098 8:0.8824 9:-0.833905 10:0.842052 11:-0.436878 12:0.110226 13:0.875864 14:0.766206 15:-0.735422 
8 1:0.554134 2:-0.955959 3:-0.723933 4:0.815002 5:-0.634481 6:0.312662 7:0.851953 8:-0.0791543 9:0.743883 10:-0.100703 11:0.506299 12:0.853723 13:-0.301032 14:-0.783265 15:-0.219043 
8 1:0.312655 2:-0.476813 3:-0.0311921 4:-0.948252 5:0.571264 6:0.445841 7:-0.607944 8:0.400235 9:-0.951854 10:-0.453228 11:-0.13649 12:-0.928696 13:0.120595 14:0.997084 15:-0.020986 
1.801505716370733 1:-0.920342 2:-0.144633 3:-0.919495 4:-0.509452 5:0.825116 6:0.967084 7:-0.0964063 8:-0.843083 9:0.681274 10:0.0154622 11:0.502573 12:0.0366635 13:-0.489799 14:-0.352081 15:0.914354 
8 1:-0.553552 2:-0.297804 3:-0.846757 4:0.299311 5:-0.992941 6:-0.592161 7:0.201391 8:-0.486216 9:0.560895 10:-0.40128 11:-0.146848 12:0.413229 13:0.607405 14:-0.528243 15:-0.143302 
2.897739719471367 1:-0.128955 2:-0.897033 3:0.249472 4:0.49588 5:-0.156621 6:-0.298462 7:0.828897 8:-0.0534358 9:0.809804 10:0.739832 11:0.938474 12:0.106038 13:-0.267486 14:-0.93085 15:-0.832941 
6.887068628472578 1:-0.585618 2:-0.425528 3:-0.216943 4:0.576973 5:-0.737962 6:-0.0866703 7:0.362105 8:-0.265296 9:-0.308669 10:-0.80502 11:-0.816047 12:0.778181 13:0.125359 14:0.0721557 15:-0.804072 
0.1072827073500086 1:0.365381 2:-0.450364 3:-0.847914 4:0.804965 5:-0.099616 6:-0.68248 7:0.803494 8:0.924977 9:0.116603 10:0.00233545 11:0.968067 12:0.866511 13:-0.582275 14:0.241936 15:0.640363 
4.879152590224835 1:0.673534 2:-0.764701 3:0.245673 4:0.282911 5:-0.0471741 6:-0.740457 7:0.762608 8:-0.00589002 9:0.594518 10:-0.165317 11:0.885215 12:0.948771 13:0.404595 14:-0.579376 15:-0.23969 
3.799965909402875 1:-0.196637 2:-0.4346 3:-0.197496 4:-0.568967 5:-0.767368 6:-0.977515 7:-0.431839 8:-0.975161 9:-0.273359 10:0.659482 11:-0.300128 12:-0.573136 13:0.392451 14:0.563207 15:0.739586 
6.390475338497209 1:-0.632063 2:0.0156012 3:-0.34331 4:-0.449404 5:0.835916 6:0.270476 7:0.842676 8:0.670071 9:0.287701 10:-0.960327 11:0.701107 12:0.376634 13:0.872644 14:0.816403 15:0.803079 
8 1:0.142319 2:0.24028 3:-0.892546 4:-0.497999 5:-0.578018 6:0.0171015 7:-0.565426 8:-0.424593 9:0.499445 10:-0.685318 11:0.259783 12:0.505732 13:-0.235381 14:-0.0732015 15:0.340632 
8 1:-0.864005 2:-0.399352 3:0.561656 4:0.797359 5:-0.398832 6:0.797717 7:-0.510268 8:0.0361972 9:0.246805 10:-0.948214 11:0.681307 12:-0.814227 13:0.683932 14:0.475017 15:-0.968178 
8 1:0.876399 2:-0.537268 3:-0.571066 4:-0.673322 5:0.848084 6:0.683974 7:-0.103133 8:0.688038 9:-0.099294 10:-0.400626 11:-0.0927132 12:0.556197 13:0.354651 14:0.556131 15:-0.250346 
8 1:-0.88804 2:-0.827874 3:-0.0734229 4:0.544718 5:-0.848345 6:-0.807722 7:-0.140064 8:0.671023 9:0.403696 10:0.00549209 11:-0.712565 12:-0.811777 13:0.713509 14:-0.563179 15:-0.0225953 
4.026482653258215 1:-0.857859 2:-0.143474 3:-0.0214168 4:0.275204 5:0.0483189 6:-0.601132 7:-0.857876 8:0.786417 9:0.14486 10:-0.696004 11:-0.3515 12:-0.963521 13:0.966438 14:0.827853 15:0.315862 
8 1:-0.0414534 2:-0.740031 3:-0.658319 4:-0.0705171 5:-0.0519923 6:0.498733 7:0.54172 8:0.688826 9:0.682866 10:0.279865 11:0.726982 12:0.397401 13:-0.722924 14:-0.297186 15:0.835216 
8 1:-0.133988 2:-0.453144 3:0.196585 4:0.0763134 5:-0.309267 6:0.0112969 7:0.859931 8:0.288496 9:-0.896548 10:-0.314033 11:0.953905 12:0.725596 13:-0.370698 14:-0.91307 15:0.757449 
2.382846799667365 1:-0.372239 2:0.118782 3:-0.931264 4:-0.578537 5:-0.385835 6:0.951265 7:-0.846077 8:0.614823 9:0.247444 10:-0.49507 11:-0.640585 12:-0.1062 13:-0.712373 14:-0.773127 15:-0.905481 
8 1:-0.246166 2:-0.541866 3:-0.912684 4:-0.962437 5:0.370234 6:0.228617 7:-0.469527 8:-0.625712 9:-0.173717 10:0.88027 11:0.0575559 12:0.841533 13:0.292819 14:-0.488754 15:-0.857424 
8 1:0.762681 2:-0.773781 3:-0.761874 4:-0.596161 5:0.822454 6:-0.0300342 7:0.263276 8:-0.867972 9:0.578993 10:-0.30683 11:0.815269 12:0.0464937 13:-0.491016 14:-0.425075 15:-0.557275 
5.871762463019424 1:-0.772585 2:-0.0254143 3:-0.71977 4:-0.366763 5:0.673346 6:0.525767 7:0.800343 8:0.318325 9:-0.0297833 10:-0.884177 11:0.809553 12:-0.535345 13:-0.272564 14:0.448497 15:0.855943 
8 1:0.00182635 2:-0.962158 3:0.183981 4:-0.203495 5:-0.520698 6:0.939353 7:-0.684454 8:-0.152973 9:-0.482569 10:-0.0325717 11:0.359601 12:-0.676281 13:0.296859 14:-0.32766 15:0.753138 
8 1:-0.0933275 2:-0.792497 3:-0.383106 4:-0.393536 5:-0.131244 6:0.263414 7:0.884482 8:0.647444 9:0.939913 10:0.960459 11:0.522392 12:-0.606854 13:0.362518 14:0.0576675 15:0.0490617 
0.9621854708040659 1:0.996695 2:0.433014 3:-0.451241 4:-0.646734 5:-0.971611 6:0.631647 7:0.687726 8:-0.819161 9:-0.337571 10:-0.08766 11:0.924139 12:-0.768111 13:0.763358 14:0.587966 15:0.588321 
8 1:0.45496 2:-0.773717 3:0.160896 4:0.414052 5:0.756604 6:-0.947114 7:0.0931108 8:0.529282 9:-0.748497 10:0.672334 11:-0.422103 12:-0.688474 13:0.632651 14:-0.471741 15:0.424606 
8 1:-0.0705855 2:-0.319871 3:0.134041 4:0.258807 5:-0.786939 6:-0.191454 7:-0.250514 8:-0.797169 9:0.596046 10:-0.697494 11:-0.133538 12:0.804097 13:0.68156 14:0.93235 15:-0.680379 
8 1:-0.917107 2:-0.295109 3:-0.227146 4:-0.773204 5:-0.185318 6:0.209613 7:0.0221263 8:0.64042 9:-0.120029 10:-0.443548 11:0.651137 12:-0.225629 13:0.0545269 14:-0.778385 15:-0.640559 
8 1:-0.571413 2:-0.362415 3:-0.843596 4:-0.938462 5:0.15983 6:0.987277 7:-0.228846 8:-0.0147955 9:-0.347673 10:-0.355396 11:0.300717 12:-0.670095 13:-0.180428 14:0.386646 15:0.546093 
8 1:-0.867543 2:-0.619244 3:0.802153 4:0.640452 5:-0.352003 6:-0.146184 7:0.728484 8:-0.942031 9:0.395811 10:-0.510651 11:0.797361 12:-0.844962 13:0.951003 14:-0.312526 15:0.465613 
8 1:0.291509 2:-0.814588 3:0.222954 4:-0.489159 5:0.231248 6:-0.484745 7:-0.643866 8:-0.973238 9:0.0567934 10:-0.941401 11:0.485826 12:0.137199 13:0.432522 14:-0.0341431 15:0.628419 
8 1:-0.483926 2:-0.996484 3:0.186695 4:-0.352483 5:-0.496184 6:0.279479 7:0.109646 8:0.241327 9:0.371601 10:0.617615 11:0.360169 12:0.451485 13:-0.320229 14:-0.373435 15:-0.905777 
5.457342812184837 1:-0.926116 2:-0.497625 3:-0.0500276 4:-0.706828 5:0.833927 6:0.336839 7:-0.148 8:0.0941339 9:0.601064 10:0.708169 11:0.643947 12:0.0808526 13:0.502001 14:-0.245575 15:0.558962 
0.1637050266183883 1:-0.897206 2:-0.129276 3:-0.954366 4:0.136205 5:0.350821 6:-0.164025 7:0.723473 8:-0.256759 9:-0.0932343 10:-0.801433 11:0.0837867 12:0.296966 13:0.227113 14:-0.589 15:0.418401 
8 1:0.814845 2:-0.876346 3:-0.376591 4:0.574737 5:0.295614 6:0.394549 7:0.204965 8:-0.777971 9:-0.471816 10:-0.845089 11:0.951403 12:0.0907534 13:-0.976661 14:0.665288 15:-0.641677 
8 1:-0.874284 2:-0.930313 3:-0.128793 4:0.755669 5:-0.762239 6:-0.562729 7:-0.419952 8:-0.907813 9:-0.156131 10:0.798551 11:0.429917 12:-0.470808 13:-0.0400567 14:-0.635137 15:-0.375672 
8 1:0.911293 2:-0.39348 3:-0.849032 4:-0.548954 5:-0.943379 6:0.0458497 7:-0.162107 8:-0.896507 9:-0.620129 10:0.803215 11:0.651981 12:0.448725 13:-0.521657 14:-0.330509 15:0.404686 
8 1:0.332836 2:-0.302541 3:-0.779044 4:-0.143283 5:-0.851587 6:-0.162665 7:-0.203779 8:-0.346937 9:-0.584668 10:0.982524 11:-0.583267 12:0.938969 13:0.641513 14:-0.756727 15:0.507066 
7.624331147227128 1:-0.745645 2:-0.233235 3:-0.776361 4:0.498563 5:0.42261 6:-0.709373 7:-0.230995 8:0.528843 9:-0.798589 10:-0.943853 11:-0.0450753 12:0.210264 13:-0.368353 14:0.792726 15:-0.822172 
8 1:0.573004 2:-0.672955 3:-0.066173 4:-0.861627 5:0.67558 6:-0.470972 7:-0.717334 8:-0.692013 9:-0.384252 10:0.803937 11:-0.738711 12:-0.137749 13:0.303624 14:0.669547 15:-0.232479 
8 1:-0.250329 2:0.0666743 3:-0.682747 4:0.756894 5:0.272575 6:0.92642 7:-0.44015 8:0.523985 9:0.726168 10:-0.74857 11:0.88727 12:0.921261 13:0.0234189 14:-0.565456 15:-0.765628 
8 1:0.996263 2:-0.0245182 3:-0.313862 4:-0.334106 5:0.870972 6:-0.0670245 7:0.997295 8:-0.249644 9:-0.537328 10:-0.366236 11:0.674154 12:0.747149 13:-0.726607 14:-0.523588 15:-0.30879 
0.5486858454231978 1:-0.46555 2:-0.796348 3:0.586601 4:0.098186 5:0.85256 6:-0.510768 7:0.945017 8:-0.95675 9:0.652962 10:0.484862 11:-0.990923 12:0.31321 13:-0.958133 14:-0.611224 15:0.684158 
8 1:0.353378 2:-0.674757 3:-0.835877 4:-0.806609 5:0.338253 6:-0.263383 7:-0.673424 8:0.953646 9:0.954877 10:0.176297 11:-0.385185 12:-0.742259 13:-0.412565 14:0.123671 15:-0.842144 
8 1:0.737395 2:-0.455761 3:-0.934523 4:-0.812335 5:-0.546545 6:-0.584536 7:0.779268 8:-0.504007 9:0.297685 10:0.0261793 11:0.995148 12:-0.902787 13:0.046432 14:0.111222 15:0.633998 
8 1:-0.882323 2:-0.63843 3:-0.250698 4:-0.367865 5:0.21306 6:-0.861508 7:-0.687591 8:-0.206114 9:0.163568 10:0.355278 11:0.291902 12:0.618569 13:0.605104 14:-0.562039 15:-0.124962 
8 1:-0.890663 2:-0.401481 3:-0.814681 4:-0.623305 5:0.797735 6:0.621992 7:0.469738 8:0.735989 9:0.57181 10:0.165614 11:-0.987926 12:-0.816513 13:-0.0866378 14:-0.872015 15:0.838618 
8 1:-0.339745 2:-0.651582 3:-0.145309 4:-0.312324 5:-0.869992 6:0.751314 7:-0.432927 8:0.367157 9:0.873635 10:0.961484 11:0.186395 12:-0.873764 13:0.461159 14:-0.276979 15:-0.641897 
8 1:0.219462 2:-0.759471 3:0.736985 4:-0.655237 5:0.688571 6:-0.716667 7:0.504806 8:-0.205386 9:0.342913 10:-0.860628 11:0.426431 12:-0.215763 13:0.765887 14:-0.704819 15:0.195529 
8 1:0.313769 2:-0.0888927 3:-0.385332 4:-0.478228 5:-0.131609 6:0.922222 7:0.34064 8:0.586666 9:0.402813 10:-0.930835 11:-0.893385 12:0.255046 13:0.769008 14:0.810334 15:0.0847707 
4.44010969626109 1:-0.605374 2:0.0820803 3:-0.111893 4:-0.221782 5:0.861644 6:0.891044 7:-0.933712 8:-0.294218 9:-0.91223 10:0.302062 11:0.707483 12:0.549664 13:-0.919968 14:-0.656336 15:0.093225 
6.318555914573964 1:0.353162 2:-0.94846 3:0.811787 4:0.59587 5:0.383074 6:0.487114 7:0.629993 8:0.881441 9:0.360478 10:0.451155 11:0.887044 12:0.445351 13:-0.754565 14:0.912235 15:-0.449424 
8 1:-0.000251599 2:-0.822999 3:0.316448 4:-0.0402484 5:-0.162607 6:-0.240118 7:-0.440382 8:-0.143588 9:0.61799 10:0.0771652 11:0.82311 12:-0.883761 13:-0.202565 14:0.54677 15:0.471727 
8 1:0.990431 2:-0.624764 3:0.697202 4:-0.0183309 5:-0.163497 6:0.902746 7:0.438949 8:0.865143 9:-0.845609 10:0.915852 11:0.50842 12:-0.589753 13:0.326647 14:0.179216 15:0.22418 
8 1:-0.977578 2:0.333445 3:0.680204 4:-0.514218 5:0.456552 6:0.615708 7:-0.798227 8:0.285251 9:0.422379 10:-0.899327 11:0.775793 12:0.611007 13:-0.112025 14:-0.528019 15:-0.161699 
6.98591543779492 1:-0.701543 2:-0.194609 3:0.192175 4:-0.474221 5:-0.583919 6:-0.850454 7:0.975078 8:0.216246 9:-0.299666 10:-0.781459 11:-0.678719 12:-0.871445 13:-0.758331 14:0.0172495 15:-0.620778 
5.454485424198823 1:-0.84868 2:-0.165186 3:0.0375687 4:-0.243722 5:-0.01653 6:-0.844803 7:0.903975 8:0.629099 9:0.290318 10:-0.561473 11:-0.21542 12:0.49893 13:-0.0215158 14:0.368136 15:-0.852694 
8 1:-0.814102 2:-0.551874 3:0.503202 4:-0.36578 5:-0.692956 6:0.649856 7:0.482189 8:-0.260778 9:-0.578869 10:-0.781361 11:-0.559422 12:0.039147 13:-0.515489 14:0.664076 15:0.103793 
8 1:0.928383 2:-0.875694 3:-0.515987 4:0.42681 5:-0.605977 6:-0.768161 7:-0.374824 8:0.952955 9:-0.704272 10:-0.228493 11:0.701651 12:-0.609648 13:0.0468283 14:0.496237 15:0.337007 
8 1:-0.971054 2:-0.46788 3:-0.453175 4:-0.876902 5:-0.0471223 6:-0.659091 7:-0.227801 8:-0.862155 9:0.587182 10:0.0681304 11:-0.520139 12:-0.501065 13:-0.00272443 14:-0.182572 15:0.119876 
8 1:-0.412441 2:0.861798 3:-0.333103 4:0.348917 5:-0.0661506 6:0.304604 7:-0.764414 8:-0.52444 9:0.571682 10:-0.996671 11:-0.87943 12:-0.919027 13:-0.681555 14:0.33984 15:-0.835139 
8 1:-0.315786 2:-0.63742 3:-0.178388 4:-0.22113 5:-0.965817 6:0.857695 7:-0.360013 8:-0.613337 9:-0.549267 10:-0.579775 11:-0.335266 12:0.222939 13:0.737273 14:-0.585149 15:-0.227022 
3.640181346558043 1:-0.186256 2:-0.97041 3:0.990418 4:0.376865 5:-0.430776 6:0.474623 7:-0.819525 8:-0.727149 9:0.291202 10:0.323498 11:-0.932903 12:-0.541753 13:-0.905473 14:-0.0824154 15:-0.183747 
8 1:-0.563009 2:-0.751757 3:0.463756 4:0.131476 5:0.500609 6:-0.505186 7:-0.751898 8:-0.848036 9:-0.60302 10:-0.25412 11:0.999248 12:0.931569 13:-0.149862 14:0.877411 15:0.453897 
8 1:0.0471361 2:-0.869082 3:-0.340243 4:-0.907879 5:0.681706 6:0.625887 7:-0.701458 8:0.898999 9:0.634292 10:0.258046 11:-0.846625 12:-0.974246 13:0.127478 14:-0.791358 15:0.924155 
8 1:-0.430005 2:-0.486518 3:-0.98585 4:-0.965775 5:-0.644854 6:-0.658427 7:-0.302112 8:0.555299 9:0.299721 10:-0.830048 11:-0.443691 12:-0.525609 13:0.678311 14:0.952055 15:-0.391472 
8 1:-0.826441 2:-0.291136 3:-0.443298 4:-0.309497 5:0.927269 6:-0.464031 7:0.993719 8:-0.190642 9:-0.0474084 10:0.0840296 11:0.0555841 12:-0.152634 13:-0.898343 14:-0.310731 15:0.213816 
6.099240782257656 1:-0.875697 2:-0.470656 3:0.0905064 4:-0.148527 5:0.857436 6:-0.58661 7:-0.838092 8:-0.617655 9:-0.408659 10:-0.431999 11:-0.951115 12:0.393244 13:0.745619 14:0.632594 15:-0.849454 
8 1:-0.81442 2:-0.446793 3:0.0577167 4:-0.31791 5:-0.148616 6:-0.368268 7:-0.559605 8:-0.488631 9:0.934844 10:0.0860579 11:0.420475 12:-0.546309 13:-0.191091 14:0.572659 15:0.425569 
2.529745590624245 1:-0.263231 2:-0.667135 3:0.238133 4:0.668764 5:-0.470697 6:0.98752 7:0.774508 8:-0.75685 9:-0.974522 10:0.434012 11:-0.637578 12:0.352575 13:-0.0324963 14:-0.540222 15:-0.181195 
2.229791271210071 1:0.84824 2:0.945301 3:-0.852805 4:0.508851 5:-0.0484906 6:0.752294 7:0.211711 8:-0.561575 9:0.214265 10:-0.971248 11:0.602868 12:0.650211 13:-0.138568 14:-0.850811 15:0.168362 
8 1:-0.97491 2:0.128257 3:0.497786 4:0.912815 5:-0.407559 6:-0.43991 7:-0.86265 8:0.112118 9:0.309827 10:-0.845054 11:0.42182 12:-0.772585 13:-0.678407 14:0.0616806 15:0.226479 
6.241282302145081 1:-0.465669 2:0.221318 3:-0.809502 4:-0.601646 5:-0.669233 6:0.952184 7:-0.560004 8:-0.675911 9:-0.473469 10:0.532181 11:-0.462957 12:0.81011 13:-0.926671 14:-0.842889 15:-0.714093 
3.353657876359281 1:0.726805 2:-0.788685 3:-0.977401 4:0.44856 5:-0.980595 6:-0.311241 7:0.586252 8:0.437336 9:-0.702283 10:-0.581918 11:0.951131 12:0.316289 13:-0.204776 14:-0.0919568 15:0.623553 
1.81676205657812 1:0.617907 2:-0.759338 3:-0.748357 4:0.983286 5:0.0797387 6:0.0723762 7:0.639335 8:-0.518355 9:-0.903299 10:0.236578 11:0.949721 12:0.604279 13:-0.241854 14:0.543101 15:0.135539 
5.615616027384342 1:-0.197345 2:0.0680287 3:-0.976666 4:-0.876087 5:0.557091 6:-0.0882522 7:0.0345806 8:-0.823823 9:-0.15024 10:-0.282953 11:0.365186 12:0.160603 13:-0.278516 14:0.529407 15:-0.506351 
8 1:0.327161 2:-0.48967 3:-0.689885 4:-0.73822 5:0.815008 6:0.91077 7:-0.24618 8:-0.483984 9:-0.158085 10:0.0529876 11:0.754204 12:0.640366 13:0.831956 14:-0.300352 15:-0.996722 
0.2801681784033337 1:-0.164484 2:0.792214 3:0.635899 4:-0.534494 5:0.180017 6:-0.17326 7:-0.572521 8:0.945635 9:-0.570545 10:0.165813 11:-0.629576 12:0.918809 13:-0.97842 14:-0.471143 15:0.945644 
4.408535569826279 1:-0.533318 2:-0.121865 3:0.250894 4:-0.808559 5:0.801547 6:0.728079 7:0.568659 8:0.616612 9:0.516969 10:-0.279953 11:-0.918468 12:0.98862 13:0.632028 14:0.932039 15:0.713607 
8 1:0.759462 2:0.706974 3:0.664209 4:-0.650921 5:-0.0922385 6:-0.0321779 7:-0.630853 8:-0.839651 9:0.480283 10:-0.755606 11:-0.197374 12:-0.187669 13:-0.334113 14:0.0466601 15:0.207746 
8 1:0.835028 2:-0.226442 3:-0.582297 4:-0.282561 5:0.351477 6:0.670829 7:-0.985578 8:-0.0579278 9:0.0615706 10:-0.654022 11:0.694962 12:0.122216 13:-0.961924 14:0.800326 15:-0.487974 
8 1:-0.55466 2:-0.751456 3:0.50984 4:0.453403 5:-0.256736 6:-0.311448 7:-0.247973 8:0.970047 9:-0.156259 10:-0.832277 11:-0.930201 12:-0.890062 13:-0.863472 14:-0.989275 15:-0.24067 
8 1:-0.692295 2:-0.950504 3:0.179633 4:0.107494 5:-0.235686 6:-0.910229 7:0.552916 8:0.999324 9:-0.164448 10:0.275238 11:-0.773126 12:0.606552 13:0.685504 14:-0.506456 15:-0.0765755 
8 1:0.240034 2:-0.590057 3:0.244649 4:-0.988979 5:-0.787785 6:0.333212 7:-0.278568 8:-0.594547 9:-0.897706 10:0.682648 11:0.361377 12:-0.762252 13:-0.654648 14:0.561545 15:-0.509586 
8 1:-0.678625 2:-0.146662 3:-0.819702 4:-0.73513 5:0.0870988 6:-0.193732 7:-0.82962 8:-0.818083 9:-0.20381 10:-0.141138 11:0.0102463 12:0.0755356 13:0.638958 14:0.317563 15:-0.125784 
8 1:-0.0457286 2:-0.595599 3:-0.0370877 4:0.80334 5:0.82304 6:-0.846675 7:-0.274975 8:-0.721103 9:0.583489 10:0.225939 11:0.986064 12:0.755028 13:0.0755049 14:-0.244073 15:0.0571289 
0.3597199076361861 1:0.370297 2:-0.480337 3:0.843272 4:-0.273254 5:-0.336345 6:0.36611 7:-0.0299259 8:-0.988385 9:-0.17285 10:-0.661683 11:0.787561 12:0.0459128 13:-0.765639 14:0.873128 15:-0.342528 
8 1:-0.996786 2:-0.371426 3:-0.767964 4:-0.120922 5:0.449944 6:0.374437 7:-0.432215 8:0.481595 9:-0.543857 10:0.458662 11:0.186784 12:0.975714 13:-0.575731 14:-0.0628411 15:0.585736 
8 1:-0.236359 2:-0.315752 3:0.187466 4:-0.413549 5:0.859496 6:-0.66185 7:0.263936 8:-0.855359 9:0.266175 10:-0.523554 11:0.955897 12:-0.278579 13:0.0906333 14:0.291723 15:0.0669592 
0.1044865397051842 1:-0.226772 2:0.602494 3:-0.372568 4:0.551938 5:0.165051 6:-0.429376 7:-0.398413 8:0.966928 9:-0.385703 10:-0.706301 11:-0.839906 12:0.738997 13:-0.703797 14:0.288947 15:0.36646 
8 1:0.448753 2:-0.901759 3:0.080512 4:-0.30418 5:0.321784 6:0.793722 7:0.185699 8:0.797039 9:0.0102568 10:-0.923134 11:-0.735515 12:-0.965167 13:-0.554935 14:0.517892 15:0.179995 
8 1:-0.0668386 2:-0.650142 3:-0.215341 4:-0.680341 5:0.0998141 6:0.728721 7:0.880472 8:-0.177616 9:-0.0254952 10:-0.0762393 11:-0.0824503 12:0.878958 13:0.748127 14:0.528932 15:-0.396187 
5.54153761675394 1:0.367025 2:-0.645081 3:-0.691942 4:-0.0328527 5:-0.657816 6:-0.716701 7:-0.549868 8:-0.346393 9:-0.468126 10:0.0335226 11:-0.756777 12:-0.969453 13:-0.410538 14:-0.0275337 15:-0.0248199 
8 1:0.447288 2:-0.721396 3:-0.184133 4:0.434627 5:0.104118 6:-0.322949 7:0.105473 8:0.106619 9:-0.630016 10:0.502153 11:-0.577078 12:0.295378 13:0.969802 14:0.987993 15:-0.44441 
1.614916959205057 1:-0.0212862 2:0.700896 3:-0.661853 4:-0.760593 5:-0.334899 6:-0.225112 7:-0.304308 8:0.944183 9:0.144706 10:-0.322549 11:-0.855484 12:0.27023 13:-0.726085 14:-0.41443 15:-0.572656 
8 1:0.559202 2:-0.987877 3:0.213699 4:-0.0172744 5:-0.679195 6:-0.560134 7:0.393398 8:0.280776 9:0.00827636 10:-0.0953282 11:-0.474782 12:-0.654846 13:0.806659 14:-0.139811 15:-0.779714 
8 1:0.649897 2:-0.918954 3:-0.217247 4:0.112337 5:0.100151 6:-0.638585 7:0.604932 8:-0.642151 9:0.296387 10:0.0449582 11:0.28805 12:-0.934276 13:0.493404 14:-0.618725 15:0.701525 
8 1:0.218922 2:-0.628683 3:-0.918566 4:-0.788603 5:-0.525012 6:-0.316871 7:-0.542172 8:0.87307 9:-0.317586 10:-0.519564 11:0.130192 12:-0.579847 13:-0.951558 14:0.759957 15:-0.943944 
8 1:0.392805 2:-0.691489 3:0.061081 4:-0.133752 5:0.634485 6:0.990001 7:-0.72513 8:0.574925 9:0.638813 10:0.346213 11:0.770997 12:0.862604 13:-0.57928 14:0.953046 15:-0.431305 
8 1:-0.603354 2:-0.252573 3:0.0771681 4:0.547531 5:-0.708232 6:0.834318 7:-0.97167 8:-0.49733 9:0.678472 10:-0.888515 11:-0.35224 12:-0.818209 13:0.930069 14:-0.429724 15:0.340697 
7.699889120020997 1:0.0128802 2:-0.762402 3:0.391334 4:-0.0988638 5:-0.182086 6:0.154055 7:-0.779349 8:0.390122 9:-0.486615 10:0.61809 11:-0.467506 12:0.0167333 13:-0.908684 14:0.511381 15:-0.0151549 
8 1:-0.585246 2:-0.162582 3:-0.22962 4:0.970895 5:0.373185 6:-0.140558 7:0.0630755 8:-0.188573 9:0.763178 10:-0.768309 11:0.496968 12:0.689973 13:0.135764 14:-0.156585 15:-0.0465016 
2.580663818661466 1:0.496961 2:-0.238382 3:0.0035577 4:0.964599 5:0.953546 6:-0.926407 7:-0.776084 8:0.257959 9:0.949897 10:-0.153548 11:0.160903 12:0.871413 13:0.0658541 14:0.370495 15:-0.600183 
8 1:0.352367 2:-0.901937 3:0.968529 4:0.137248 5:-0.680519 6:-0.596733 7:0.0295192 8:0.930741 9:0.685222 10:-0.694188 11:0.458574 12:-0.0430277 13:0.991424 14:-0.0421694 15:0.578084 
6.251083489365952 1:-0.946078 2:-0.301492 3:-0.584934 4:-0.961397 5:-0.931219 6:0.710313 7:0.120212 8:0.628415 9:0.591474 10:0.62264 11:0.383222 12:-0.172949 13:-0.0104524 14:0.334574 15:0.339656 
4.139528975433724 1:0.852903 2:-0.225914 3:0.725638 4:0.521989 5:-0.98786 6:0.664 7:0.905963 8:0.0385219 9:0.58224 10:-0.818789 11:0.766184 12:0.837115 13:-0.0510736 14:-0.229104 15:-0.380209 
1.75060370375189 1:-0.932284 2:-0.328255 3:-0.342735 4:-0.810026 5:0.752566 6:-0.680364 7:0.209826 8:0.646768 9:-0.266085 10:0.918631 11:-0.522873 12:-0.117941 13:-0.0325352 14:0.791489 15:-0.452808 
2.289256867367678 1:0.212625 2:0.210412 3:-0.731117 4:-0.653686 5:-0.852374 6:0.375528 7:0.0157549 8:0.382283 9:0.658884 10:-0.248054 11:0.846283 12:-0.835834 13:-0.284657 14:0.4655 15:-0.533074 
4.272638392257828 1:-0.731649 2:-0.744181 3:0.575043 4:0.986821 5:0.302489 6:-0.940908 7:-0.235001 8:0.26146 9:-0.000194221 10:0.709807 11:0.382138 12:0.00156873 13:0.486926 14:0.521389 15:-0.221278 
8 1:-0.232835 2:-0.0954219 3:-0.729707 4:-0.838698 5:-0.104656 6:-0.862887 7:-0.03399 8:-0.0286767 9:-0.00603358 10:-0.961645 11:0.651428 12:-0.381659 13:0.597152 14:0.54989 15:-0.197464 
8 1:-0.406569 2:-0.628269 3:-0.102906 4:-0.867865 5:0.0786425 6:-0.0482903 7:0.217198 8:0.406916 9:-0.975961 10:0.484644 11:0.569732 12:0.208939 13:-0.695871 14:0.172206 15:0.655818 
8 1:-0.987992 2:0.191283 3:0.341828 4:-0.785231 5:0.241277 6:-0.131821 7:-0.211669 8:0.747868 9:0.981584 10:0.13388 11:0.237728 12:0.370615 13:-0.930099 14:-0.202553 15:0.884732 
2.735438480055292 1:-0.962496 2:0.676106 3:0.0342468 4:-0.921575 5:0.655673 6:0.0582641 7:0.981129 8:-0.133599 9:0.243791 10:-0.629069 11:0.922605 12:0.928109 13:-0.395362 14:0.855069 15:-0.216612 
8 1:-0.417285 2:-0.488024 3:0.406142 4:0.107748 5:-0.114791 6:0.252007 7:-0.0410369 8:0.965885 9:0.415752 10:-0.633664 11:0.037687 12:0.527164 13:0.621809 14:-0.812251 15:0.0954506 
8 1:-0.0525787 2:0.546079 3:0.319591 4:0.974519 5:0.95983 6:0.235718 7:-0.696624 8:0.584947 9:0.982679 10:-0.491647 11:0.27571 12:0.103873 13:-0.557184 14:-0.0539713 15:0.277231 
3.263648817554069 1:0.462817 2:-0.868134 3:0.739405 4:-0.807834 5:0.582614 6:0.38705 7:0.146478 8:0.863962 9:0.329486 10:-0.489585 11:0.782796 12:-0.103001 13:-0.760644 14:0.441372 15:-0.884229 
8 1:0.27428 2:-0.994057 3:0.484228 4:0.225301 5:-0.825242 6:-0.792998 7:-0.131292 8:0.234447 9:-0.0820828 10:0.226068 11:-0.157151 12:0.505382 13:-0.157927 14:-0.127338 15:-0.886121 
8 1:0.654764 2:-0.424073 3:-0.496127 4:-0.448465 5:-0.560429 6:-0.465519 7:-0.826713 8:-0.885989 9:0.767292 10:0.312127 11:0.492002 12:0.368157 13:-0.91828 14:0.103425 15:0.230773 
8 1:0.682475 2:-0.744239 3:0.113122 4:-0.87226 5:0.811018 6:0.0660714 7:0.500021 8:0.132263 9:-0.3017 10:-0.7167 11:-0.617515 12:-0.930392 13:-0.969245 14:-0.395092 15:0.657628 
8 1:0.517564 2:-0.0913585 3:-0.757714 4:-0.865904 5:0.414492 6:-0.647061 7:-0.55061 8:0.628051 9:-0.527775 10:0.467014 11:0.525108 12:0.613325 13:-0.241624 14:-0.483082 15:0.48212 
5.221924928020799 1:0.421855 2:0.0355637 3:0.525941 4:0.41324 5:0.533277 6:-0.980855 7:-0.744603 8:-0.625728 9:0.958137 10:-0.388868 11:0.634537 12:-0.570727 13:-0.882689 14:0.436073 15:-0.1015 
8 1:0.318949 2:-0.842014 3:0.126203 4:-0.580965 5:-0.123382 6:-0.579156 7:-0.832102 8:-0.428346 9:-0.440781 10:-0.656348 11:-0.567289 12:-0.903303 13:-0.575037 14:-0.536372 15:0.632105 
8 1:0.394943 2:-0.871684 3:-0.321812 4:-0.0438339 5:0.219583 6:-0.205117 7:0.63173 8:0.433426 9:0.0738823 10:-0.0601024 11:-0.0745086 12:0.75583 13:-0.561561 14:0.0818282 15:-0.818158 
8 1:-0.387643 2:-0.86494 3:0.0509893 4:0.395508 5:0.719748 6:-0.870242 7:-0.0804664 8:0.430009 9:-0.965244 10:-0.388221 11:0.482221 12:0.508244 13:-0.0731908 14:0.24273 15:0.595045 
8 1:-0.265207 2:-0.721426 3:-0.207757 4:-0.949022 5:-0.496069 6:0.264784 7:0.716421 8:-0.659702 9:-0.834262 10:-0.87497 11:0.469689 12:0.182185 13:-0.452112 14:0.0595512 15:0.0820817 
5.135172818051588 1:0.164463 2:-0.198318 3:-0.858135 4:-0.718703 5:0.816713 6:0.785346 7:-0.477003 8:-0.919894 9:-0.68514 10:0.017002 11:0.546491 12:0.0982206 13:0.928649 14:0.692209 15:0.953475 
4.702617166692043 1:-0.168169 2:-0.21064 3:-0.419535 4:-0.152168 5:0.0585461 6:-0.571473 7:-0.744244 8:-0.952435 9:-0.45393 10:-0.362506 11:0.808158 12:-0.167322 13:0.577571 14:0.0157753 15:-0.248679 
8 1:-0.956487 2:-0.99454 3:0.638209 4:0.399766 5:0.531328 6:0.305634 7:0.762054 8:-0.641004 9:-0.546863 10:0.68694 11:0.173032 12:0.0130821 13:-0.588818 14:-0.558359 15:-0.619565 
4.456816110136685 1:0.182481 2:-0.692567 3:0.251772 4:-0.438361 5:0.376428 6:0.989001 7:-0.499122 8:-0.527387 9:-0.278809 10:-0.973425 11:0.66893 12:0.0790016 13:0.65445 14:0.700137 15:0.937864 
3.586976442799549 1:-0.583946 2:-0.849271 3:-0.657556 4:0.835638 5:0.678024 6:0.43519 7:0.670417 8:0.689789 9:-0.104974 10:0.0982235 11:0.403376 12:-0.102278 13:0.502173 14:0.286179 15:-0.423942 
8 1:0.436191 2:-0.967535 3:-0.452324 4:0.537222 5:0.890183 6:0.445287 7:0.251812 8:-0.0923835 9:-0.289055 10:-0.398256 11:0.778869 12:0.462235 13:-0.629245 14:-0.792306 15:-0.587677 
8 1:-0.943635 2:0.994617 3:-0.141196 4:0.243933 5:-0.342764 6:-0.00419408 7:-0.637642 8:-0.318747 9:-0.428072 10:-0.98858 11:-0.789553 12:0.724781 13:-0.890239 14:0.321592 15:-0.10883 
8 1:0.413211 2:-0.3627 3:0.872355 4:0.170111 5:0.830138 6:-0.899115 7:-0.673623 8:-0.502089 9:0.675008 10:-0.656887 11:0.897534 12:-0.350971 13:-0.514399 14:0.135326 15:-0.904105 
8 1:0.0281771 2:-0.662173 3:-0.087142 4:-0.877919 5:0.261701 6:-0.748603 7:-0.265444 8:0.11609 9:-0.322861 10:-0.0363869 11:0.319762 12:-0.713007 13:0.276164 14:0.0619181 15:0.267601 
3.156540230423427 1:-0.391085 2:-0.840424 3:0.325791 4:-0.111879 5:-0.687523 6:0.315597 7:0.832095 8:-0.178772 9:-0.793062 10:-0.731982 11:0.747293 12:-0.881663 13:0.824593 14:-0.0900239 15:-0.803604 
4.739649125088546 1:-0.648702 2:-0.961136 3:0.715919 4:-0.310615 5:-0.02608 6:0.848487 7:-0.793913 8:0.339788 9:-0.59706 10:0.293183 11:0.425238 12:0.574739 13:-0.154534 14:-0.0706217 15:0.602446 
0.406242714083704 1:0.000568747 2:-0.215162 3:-0.926154 4:0.984505 5:-0.558851 6:-0.565248 7:0.357235 8:0.132055 9:0.127547 10:0.0664327 11:-0.879057 12:0.960226 13:-0.991915 14:-0.838671 15:0.0744148 
8 1:-0.926382 2:-0.278828 3:-0.164175 4:0.0823885 5:-0.730797 6:0.525529 7:0.193608 8:-0.540699 9:0.164383 10:-0.13865 11:-0.231674 12:0.231262 13:-0.533966 14:0.475926 15:-0.389178 
7.992721022307658 1:-0.902398 2:0.535563 3:-0.00211274 4:0.239102 5:0.754326 6:0.996701 7:-0.744346 8:-0.517629 9:0.143766 10:-0.927816 11:-0.108818 12:-0.0517698 13:-0.582918 14:-0.153235 15:0.972525 
2.201534959328471 1:-0.552016 2:-0.317225 3:0.25871 4:-0.420793 5:0.847823 6:0.716404 7:-0.74868 8:-0.67061 9:0.31149 10:-0.554665 11:-0.822584 12:-0.48777 13:0.0715788 14:0.729867 15:0.742962 
1.613648325594599 1:0.289918 2:-0.849155 3:0.422777 4:0.59069 5:0.404787 6:-0.436043 7:-0.639476 8:-0.243209 9:-0.560165 10:0.66343 11:-0.382392 12:-0.522134 13:-0.874463 14:-0.258099 15:0.672574 
8 1:0.779904 2:-0.267492 3:-0.754307 4:-0.577655 5:0.437974 6:0.560029 7:0.104715 8:-0.968812 9:0.506029 10:-0.886309 11:-0.347306 12:-0.428453 13:0.977451 14:0.983857 15:-0.914798 
8 1:0.138885 2:-0.260151 3:-0.784944 4:-0.891002 5:-0.303208 6:-0.603832 7:0.942691 8:-0.737323 9:0.623403 10:0.328877 11:0.415526 12:0.659507 13:0.445065 14:0.795216 15:0.873407 
5.814314447465017 1:-0.812616 2:-0.914914 3:0.748818 4:-0.603034 5:-0.0362496 6:0.732067 7:-0.214448 8:-0.363641 9:0.783874 10:0.696973 11:-0.162755 12:0.855085 13:-0.69842 14:-0.391686 15:-0.304199 
4.464454058994624 1:-0.947655 2:-0.868789 3:-0.271012 4:0.885075 5:-0.0544567 6:-0.892402 7:0.286235 8:0.133837 9:-0.60346 10:-0.0450974 11:0.411134 12:0.283194 13:0.233953 14:0.713307 15:0.104736 
8 1:0.261228 2:-0.928574 3:0.0295781 4:0.282684 5:0.479951 6:0.0400045 7:-0.899959 8:-0.391491 9:0.215721 10:-0.00990285 11:-0.233462 12:0.219642 13:-0.515107 14:-0.547105 15:-0.554831 
8 1:-0.0762745 2:-0.621403 3:0.010257 4:0.545289 5:-0.488694 6:-0.764672 7:-0.626237 8:0.103048 9:0.894777 10:-0.133142 11:-0.968019 12:0.422114 13:-0.63071 14:-0.874777 15:0.161251 
0.1947366082413942 1:0.370864 2:-0.434726 3:-0.0395055 4:-0.200185 5:0.566653 6:-0.961926 7:-0.156966 8:0.685386 9:-0.188925 10:0.957261 11:0.423726 12:0.163397 13:0.531434 14:-0.351809 15:0.306049 
0.3567429474637107 1:0.528905 2:0.356193 3:-0.454782 4:0.218119 5:-0.0475601 6:-0.609883 7:0.578297 8:0.988247 9:0.615506 10:-0.83768 11:0.305203 12:0.140569 13:-0.106091 14:-0.344939 15:0.18835 
1.888526400130054 1:-0.559296 2:0.100452 3:-0.496985 4:0.000293358 5:-0.905313 6:0.186331 7:0.664042 8:-0.640913 9:0.477119 10:0.283579 11:0.909747 12:-0.879393 13:0.505657 14:-0.854286 15:-0.576953 
8 1:0.0654577 2:-0.740825 3:0.248422 4:-0.409008 5:0.182294 6:0.43576 7:0.52305 8:-0.649401 9:0.108433 10:-0.678059 11:0.491542 12:-0.0244692 13:0.670313 14:-0.0145279 15:0.0383905 
5.871029160852756 1:-0.177465 2:-0.436337 3:-0.751933 4:0.152258 5:0.727542 6:-0.646872 7:-0.671832 8:-0.356092 9:-0.821109 10:-0.619465 11:0.0557072 12:0.631317 13:0.601627 14:0.568908 15:0.538045 
8 1:0.583044 2:-0.795427 3:-0.122687 4:-0.972923 5:-0.821272 6:0.232987 7:0.957525 8:0.64639 9:-0.609601 10:0.312093 11:0.693712 12:0.0602997 13:-0.983128 14:-0.195428 15:0.0862806 
1.790649111556334 1:0.412565 2:-0.387375 3:-0.499 4:-0.598943 5:0.461511 6:0.955341 7:-0.99714 8:-0.524597 9:0.758784 10:0.406618 11:0.0120753 12:-0.260161 13:0.770589 14:-0.378731 15:-0.369104 
8 1:-0.14162 2:0.287192 3:0.21644 4:0.662596 5:-0.668739 6:-0.563737 7:0.962103 8:0.749191 9:0.467977 10:-0.402302 11:-0.385585 12:0.221473 13:-0.959573 14:-0.0973786 15:-0.402384 
8 1:-0.482965 2:-0.0352566 3:-0.543966 4:-0.884371 5:0.0783621 6:0.682528 7:0.0120342 8:-0.510914 9:-0.286086 10:0.099323 11:-0.469329 12:-0.616482 13:0.793157 14:-0.74839 15:-0.564083 
8 1:-0.696919 2:0.295757 3:0.0349504 4:-0.502984 5:-0.593002 6:0.783142 7:0.50407 8:0.820766 9:0.544708 10:-0.654159 11:-0.0663757 12:-0.567916 13:-0.897451 14:-0.902008 15:0.132388 
0.2966122310878719 1:-0.511236 2:-0.520643 3:-0.976515 4:0.412149 5:-0.550052 6:-0.747143 7:0.802926 8:-0.931081 9:-0.548852 10:0.70402 11:-0.827412 12:0.117912 13:0.531774 14:-0.268855 15:0.0519266 
8 1:0.410257 2:-0.851706 3:0.127821 4:-0.940811 5:0.723975 6:0.502994 7:0.554965 8:-0.639437 9:-0.0249004 10:0.420123 11:0.465297 12:0.299848 13:0.769861 14:-0.678199 15:0.9295 
8 1:-0.893863 2:-0.683946 3:-0.272203 4:-0.99311 5:0.725711 6:-0.751334 7:0.483492 8:-0.177238 9:-0.0762982 10:0.573822 11:0.246927 12:-0.538844 13:-0.0536763 14:0.3159 15:0.302229 
8 1:0.455314 2:-0.496318 3:-0.894642 4:-0.569287 5:-0.198415 6:-0.0197364 7:-0.856382 8:0.0055046 9:-0.072205 10:-0.668152 11:-0.833037 12:-0.570579 13:0.988003 14:-0.101433 15:0.354872 
6.887049629042148 1:0.836315 2:-0.963822 3:0.711819 4:-0.788603 5:-0.198538 6:0.668282 7:0.369876 8:0.674439 9:0.543957 10:-0.622009 11:-0.767849 12:0.812286 13:0.259478 14:-0.945518 15:-0.349316 
8 1:0.201015 2:-0.58528 3:0.238593 4:0.850927 5:-0.399172 6:0.846709 7:-0.175257 8:-0.531109 9:-0.141131 10:-0.936846 11:0.277533 12:-0.800305 13:-0.456177 14:0.394615 15:0.43986 
8 1:0.233805 2:-0.365408 3:-0.842646 4:-0.566471 5:0.13596 6:0.803754 7:0.37431 8:0.327503 9:-0.997579 10:-0.354844 11:-0.555835 12:0.627566 13:-0.971704 14:-0.793358 15:0.0675584 
6.496538617392337 1:0.388531 2:-0.736502 3:0.557447 4:0.184269 5:0.884762 6:0.938548 7:-0.572487 8:-0.386621 9:-0.953049 10:-0.213715 11:0.818172 12:0.690423 13:-0.278637 14:0.827149 15:0.186596 
0.7700994128259531 1:-0.336517 2:-0.217551 3:-0.0795813 4:-0.970591 5:-0.931279 6:-0.954557 7:-0.0888079 8:-0.967253 9:-0.490173 10:-0.982381 11:0.1263 12:-0.561779 13:0.668434 14:0.000795692 15:-0.198302 
8 1:-0.677654 2:0.0145524 3:-0.837161 4:-0.471754 5:0.575163 6:-0.00518461 7:0.843555 8:0.353466 9:0.19145 10:-0.722533 11:-0.999657 12:-0.744135 13:-0.832558 14:0.655722 15:-0.0697897 
8 1:-0.926309 2:-0.480667 3:-0.216936 4:-0.62049 5:0.129082 6:-0.478001 7:0.284155 8:0.390726 9:0.527145 10:-0.476477 11:-0.353557 12:0.81275 13:0.679368 14:0.895454 15:0.777353 
8 1:-0.515517 2:-0.833893 3:-0.235394 4:0.037688 5:-0.201377 6:-0.711678 7:0.966808 8:-0.0346781 9:-0.531093 10:0.184712 11:-0.00136223 12:-0.888505 13:0.313674 14:-0.890155 15:0.749578 
8 1:0.631543 2:-0.236069 3:-0.921566 4:-0.819905 5:0.116912 6:0.135843 7:0.450166 8:0.64527 9:-0.920804 10:-0.404208 11:0.821356 12:-0.476916 13:0.199961 14:-0.311786 15:-0.39559 
0.5149438081481245 1:-0.651209 2:0.297243 3:0.590631 4:0.952072 5:-0.605178 6:0.772487 7:0.652944 8:-0.0984054 9:0.934716 10:-0.418723 11:-0.478764 12:0.760958 13:0.0895935 14:-0.978389 15:0.22541 
5.396081568169185 1:-0.57652 2:-0.791269 3:0.280202 4:0.0755772 5:-0.166342 6:-0.653241 7:-0.206778 8:0.65223 9:-0.793307 10:-0.821911 11:0.693372 12:-0.566966 13:0.883527 14:0.638073 15:-0.389832 
8 1:0.395608 2:-0.239938 3:-0.55039 4:-0.435236 5:-0.572166 6:-0.848433 7:0.328368 8:0.0947225 9:-0.608334 10:0.739138 11:-0.365942 12:0.51698 13:-0.949544 14:-0.807264 15:0.808399 
8 1:-0.910052 2:-0.838463 3:-0.0785805 4:0.0600327 5:0.335098 6:0.156499 7:0.718132 8:0.287662 9:-0.998809 10:-0.209257 11:0.474434 12:-0.328674 13:0.0875706 14:-0.328564 15:0.192685 
8 1:0.166155 2:-0.78042 3:-0.628863 4:-0.821052 5:-0.773446 6:-0.756026 7:-0.615778 8:-0.0380483 9:0.843821 10:-0.286929 11:-0.750725 12:0.669262 13:-0.151268 14:-0.641497 15:-0.944422 
8 1:-0.797594 2:-0.940742 3:0.199316 4:-0.198712 5:-0.930108 6:0.789564 7:0.383748 8:0.747971 9:-0.645655 10:-0.130592 11:-0.963588 12:-0.980359 13:0.247215 14:0.516598 15:-0.274638 
6.439361060227177 1:-0.197323 2:-0.795112 3:0.942055 4:0.19803 5:0.514118 6:-0.873007 7:0.0395182 8:0.752856 9:0.209986 10:0.691615 11:0.767945 12:-0.922223 13:0.479438 14:0.821842 15:-0.453296 
5.682119801102209 1:0.454421 2:0.717698 3:0.226375 4:-0.732601 5:-0.312323 6:0.193738 7:0.958546 8:0.255721 9:0.0888201 10:-0.687135 11:0.851601 12:-0.339352 13:-0.889978 14:-0.481211 15:0.245818 
7.058030564271373 1:0.336323 2:0.229215 3:0.208484 4:-0.977009 5:-0.254428 6:-0.0772741 7:0.851946 8:0.919928 9:-0.69698 10:-0.891397 11:0.646082 12:0.677325 13:-0.956961 14:0.756002 15:-0.845947 
8 1:0.290132 2:-0.820203 3:0.864489 4:-0.0601597 5:-0.901169 6:-0.273918 7:0.169363 8:0.554011 9:0.891466 10:-0.48792 11:-0.237716 12:0.93261 13:-0.211818 14:0.603814 15:0.728083 
3.107094060070695 1:-0.240319 2:-0.472812 3:0.237972 4:0.566506 5:0.357098 6:0.203146 7:0.837896 8:-0.839528 9:0.975407 10:-0.169912 11:0.537739 12:-0.819741 13:-0.362332 14:0.965733 15:0.604752 
6.960971109775156 1:-0.983688 2:0.256186 3:-0.130241 4:-0.570978 5:0.601536 6:-0.0605009 7:0.461389 8:0.226116 9:0.538964 10:-0.832712 11:-0.812469 12:-0.635361 13:0.524103 14:0.46541 15:0.879247 
8 1:-0.348515 2:-0.891504 3:0.0252991 4:-0.0841509 5:-0.797988 6:0.964231 7:-0.830905 8:-0.0390187 9:-0.399949 10:0.218322 11:-0.566875 12:-0.963086 13:-0.632017 14:0.22264 15:0.00353287 
1.842525733242839 1:0.0779992 2:-0.543181 3:0.721384 4:0.819731 5:0.329555 6:-0.30678 7:-0.373532 8:-0.351833 9:0.243307 10:-0.77224 11:-0.660752 12:0.210038 13:-0.119119 14:0.260552 15:0.426212 
0.8210687823097241 1:-0.28272 2:-0.549235 3:-0.860875 4:0.755256 5:0.521121 6:0.559328 7:-0.795638 8:0.752309 9:0.391146 10:-0.578807 11:0.803051 12:-0.806008 13:-0.613335 14:-0.614343 15:0.89327 
8 1:-0.707104 2:-0.288531 3:-0.704706 4:-0.411217 5:0.601726 6:-0.0802824 7:0.0240358 8:0.833317 9:-0.447306 10:0.626588 11:-0.415396 12:-0.314414 13:0.133184 14:0.120125 15:-0.0820425 
8 1:0.334684 2:-0.6613 3:-0.228466 4:-0.0257716 5:-0.0310971 6:0.622202 7:0.166808 8:0.934311 9:-0.704797 10:-0.327735 11:0.325562 12:0.659176 13:-0.676693 14:0.00406353 15:-0.0161813 
8 1:-0.00928326 2:-0.837123 3:-0.888643 4:-0.553804 5:-0.794876 6:-0.0739061 7:-0.61601 8:0.607653 9:-0.909717 10:-0.628106 11:0.948905 12:-0.194581 13:-0.209056 14:-0.81044 15:-0.957093 
7.273133502645282 1:-0.222421 2:-0.0369028 3:0.00322697 4:0.963216 5:0.387935 6:-0.998567 7:-0.0589186 8:-0.161737 9:0.11358 10:-0.654148 11:0.359831 12:0.160668 13:-0.271016 14:0.503035 15:-0.3333 
4.535520709385694 1:-0.683648 2:-0.436177 3:-0.806341 4:0.11155 5:0.0365034 6:0.086625 7:0.973948 8:-0.715301 9:-0.126046 10:0.594976 11:-0.445108 12:0.654417 13:0.215417 14:0.146898 15:-0.873105 
8 1:0.594435 2:-0.836042 3:-0.912367 4:-0.306631 5:0.820659 6:0.384351 7:0.738659 8:-0.194805 9:0.212795 10:-0.569246 11:0.0302168 12:0.810949 13:0.631464 14:0.95805 15:-0.524839 
8 1:-0.364695 2:-0.53158 3:0.205995 4:-0.802647 5:-0.965536 6:0.611503 7:-0.721161 8:0.500568 9:0.789082 10:0.228169 11:0.803311 12:0.588678 13:-0.949251 14:0.995495 15:0.275242 
2.595303337557886 1:-0.501328 2:0.873703 3:-0.423238 4:-0.185455 5:0.135733 6:0.197684 7:-0.00114338 8:-0.41818 9:0.2707 10:0.156226 11:0.809164 12:0.923776 13:-0.523065 14:0.261526 15:0.896959 
8 1:-0.762345 2:-0.488233 3:0.802216 4:0.920071 5:0.115022 6:-0.945126 7:-0.871872 8:-0.854354 9:0.0218438 10:-0.449594 11:0.543832 12:-0.113955 13:-0.0160879 14:-0.316213 15:-0.80951 
8 1:0.62721 2:-0.894718 3:-0.832825 4:-0.861352 5:-0.854976 6:-0.953164 7:0.745218 8:-0.21792 9:0.679389 10:-0.176119 11:-0.24529 12:0.387087 13:-0.180579 14:-0.815417 15:-0.745293 
8 1:0.0187294 2:-0.995542 3:-0.421965 4:0.391845 5:-0.407318 6:0.761502 7:-0.0625597 8:0.638898 9:0.00710212 10:0.159989 11:-0.317928 12:-0.271682 13:-0.431284 14:-0.626472 15:-0.878036 
8 1:-0.845312 2:-0.544957 3:0.266069 4:0.589901 5:0.804632 6:-0.122912 7:0.784035 8:0.026599 9:0.825494 10:-0.999198 11:0.818868 12:-0.257625 13:0.960287 14:0.598032 15:-0.638753 
8 1:-0.551767 2:-0.690866 3:0.119659 4:-0.883854 5:-0.164693 6:-0.974223 7:-0.91885 8:-0.490944 9:-0.925678 10:-0.0879831 11:-0.866478 12:-0.553519 13:-0.974565 14:0.395688 15:0.163608 
4.495097450443076 1:0.122117 2:-0.684784 3:-0.959095 4:-0.260205 5:0.726605 6:0.92759 7:0.844272 8:0.799691 9:0.989824 10:0.190882 11:-0.164153 12:0.788712 13:0.558722 14:-0.287866 15:-0.712621 
8 1:-0.467315 2:0.906904 3:-0.630343 4:-0.26093 5:-0.0774878 6:0.554096 7:-0.202446 8:0.423622 9:0.95126 10:0.590203 11:0.952926 12:0.676426 13:-0.971373 14:-0.294594 15:-0.984328 
8 1:0.541512 2:-0.343758 3:-0.367023 4:-0.757452 5:-0.921938 6:0.83162 7:-0.48061 8:-0.32852 9:0.130201 10:-0.214429 11:0.713148 12:-0.176123 13:0.889046 14:-0.930975 15:0.343015 
8 1:0.743903 2:-0.288768 3:-0.916499 4:-0.688631 5:0.199457 6:0.96728 7:-0.15653 8:0.443497 9:-0.335546 10:0.955577 11:-0.399835 12:0.192411 13:-0.601459 14:-0.519807 15:0.0109321 
8 1:-0.778223 2:-0.524375 3:-0.341979 4:0.898985 5:0.629186 6:-0.783818 7:0.894982 8:0.456064 9:0.715228 10:0.185522 11:-0.0378725 12:0.619992 13:-0.765702 14:-0.389123 15:0.0794146 
8 1:0.0268324 2:-0.951868 3:0.946605 4:0.899835 5:0.0115138 6:-0.357064 7:0.512143 8:0.0969305 9:0.950012 10:0.50346 11:-0.5356 12:-0.329463 13:0.757711 14:-0.474062 15:-0.756082 
5.687578967334272 1:0.809523 2:-0.551149 3:-0.326562 4:0.435032 5:0.677514 6:-0.143772 7:-0.111185 8:-0.5802 9:-0.88419 10:0.614521 11:-0.063359 12:0.409523 13:-0.0804938 14:0.138102 15:-0.139212 
8 1:0.334603 2:-0.786573 3:-0.713152 4:0.194607 5:-0.416058 6:0.626011 7:-0.708233 8:0.776377 9:0.071004 10:-0.807839 11:-0.0442129 12:-0.248545 13:-0.0518751 14:0.870147 15:-0.124193 
8 1:-0.27202 2:-0.753363 3:-0.449367 4:-0.165858 5:0.870901 6:-0.867477 7:0.53249 8:0.803154 9:-0.414506 10:-0.60737 11:-0.895854 12:-0.848477 13:-0.175722 14:0.0495511 15:0.242447 
8 1:-0.962308 2:-0.388736 3:0.825575 4:0.556968 5:-0.240355 6:-0.668713 7:0.733142 8:-0.353434 9:0.0405336 10:-0.248069 11:0.584707 12:0.750197 13:-0.379605 14:-0.111728 15:0.975156 
8 1:0.441519 2:-0.92926 3:-0.486492 4:0.828961 5:0.754097 6:0.868728 7:-0.672266 8:-0.0987865 9:0.337894 10:-0.770194 11:-0.527862 12:0.242583 13:-0.0365053 14:0.343247 15:-0.585429 
8 1:-0.429382 2:-0.596022 3:-0.336257 4:0.271125 5:-0.368274 6:-0.00848112 7:-0.159425 8:-0.0461774 9:0.914377 10:0.679886 11:0.935876 12:0.510427 13:-0.660204 14:-0.916754 15:0.908625 
8 1:0.0856163 2:-0.609276 3:0.497136 4:-0.991868 5:-0.554371 6:-0.0943162 7:0.171953 8:0.770735 9:0.113754 10:-0.798711 11:-0.191217 12:-0.0280729 13:0.545567 14:0.951539 15:-0.826634 
6.445971257728686 1:0.739051 2:-0.275299 3:0.785092 4:-0.754737 5:-0.703598 6:-0.742613 7:-0.321239 8:0.216996 9:-0.900516 10:-0.983257 11:-0.361048 12:-0.107683 13:-0.894616 14:0.621496 15:0.761569 
8 1:-0.822938 2:-0.535851 3:0.108111 4:-0.914662 5:0.960585 6:0.375419 7:0.917423 8:-0.811539 9:0.20867 10:0.0248402 11:0.0947057 12:0.199986 13:-0.0887525 14:0.212247 15:-0.154406 
6.063450767154853 1:0.750795 2:-0.330005 3:0.957871 4:-0.89887 5:-0.156868 6:-0.236392 7:-0.677963 8:-0.830241 9:0.897197 10:-0.963186 11:0.155061 12:-0.950951 13:0.426448 14:-0.43075 15:-0.509954 
8 1:0.769031 2:0.0142676 3:0.409893 4:-0.677014 5:0.699062 6:-0.15993 7:0.187733 8:-0.553239 9:0.283601 10:-0.941986 11:-0.997143 12:0.843902 13:-0.283992 14:-0.0410883 15:0.648721 
8 1:-0.833058 2:0.499431 3:0.11625 4:0.620084 5:0.744048 6:0.0381634 7:0.100038 8:-0.139946 9:0.862364 10:-0.577271 11:-0.896917 12:0.31018 13:-0.425244 14:-0.557662 15:0.114393 
8 1:-0.738695 2:-0.526074 3:-0.0056032 4:-0.425249 5:0.868489 6:0.299341 7:-0.0323323 8:-0.0759392 9:-0.424589 10:-0.489345 11:-0.179133 12:-0.975852 13:-0.658191 14:-0.08339 15:-0.891157 
8 1:-0.679026 2:0.0263326 3:-0.864482 4:-0.947235 5:-0.0703361 6:0.574655 7:0.198696 8:0.836409 9:0.412307 10:-0.24473 11:-0.243961 12:-0.889799 13:0.126714 14:0.820891 15:0.221257 
8 1:0.788806 2:-0.698301 3:-0.984103 4:-0.210216 5:0.477716 6:0.489443 7:0.101833 8:0.971128 9:0.122548 10:-0.41756 11:0.302012 12:-0.633337 13:0.776876 14:0.00195868 15:-0.779255 
0.9039744436215472 1:0.79803 2:0.182414 3:-0.616616 4:-0.956525 5:0.516241 6:0.214615 7:-0.670577 8:-0.54939 9:-0.12371 10:0.995038 11:0.0116898 12:-0.440727 13:-0.945435 14:0.262591 15:0.892922 
8 1:-0.313968 2:-0.946161 3:-0.291285 4:0.526055 5:0.152803 6:0.97523 7:0.276471 8:0.464144 9:0.206672 10:0.35697 11:-0.115699 12:-0.531934 13:0.94916 14:-0.489964 15:0.237589 
8 1:0.39524 2:-0.497314 3:-0.161465 4:-0.684523 5:-0.562813 6:0.694054 7:-0.948127 8:0.361011 9:-0.409162 10:0.477993 11:0.557758 12:-0.0651989 13:0.882322 14:-0.18149 15:0.456645 
8 1:-0.17902 2:0.442204 3:-0.0876234 4:0.188002 5:-0.173981 6:0.199975 7:-0.829438 8:0.645751 9:0.636966 10:-0.168157 11:-0.57649 12:0.784664 13:-0.839554 14:0.915167 15:-0.379153 
8 1:-0.753891 2:-0.509775 3:0.106188 4:0.729211 5:0.101613 6:-0.691526 7:-0.57334 8:0.242108 9:0.940295 10:-0.124874 11:-0.0435619 12:0.297614 13:-0.952705 14:0.0735317 15:0.0856594 
8 1:0.129549 2:-0.584833 3:-0.426174 4:0.5994 5:-0.348154 6:0.311334 7:0.185989 8:-0.214359 9:0.617633 10:-0.734004 11:0.191366 12:-0.507471 13:-0.31122 14:0.499046 15:0.869273 
8 1:-0.101374 2:-0.370873 3:-0.89512 4:-0.998308 5:-0.0213244 6:-0.220367 7:0.0415351 8:0.567682 9:0.897108 10:-0.385084 11:0.037894 12:-0.956605 13:0.521982 14:-0.830726 15:-0.0181594 
8 1:0.755984 2:-0.657975 3:-0.679023 4:-0.708385 5:-0.812529 6:-0.930423 7:0.381591 8:-0.374698 9:0.396681 10:0.529666 11:-0.0647145 12:0.0457407 13:-0.789761 14:-0.472117 15:-0.904411 
7.415298955321302 1:-0.391039 2:-0.710566 3:0.0395797 4:0.316533 5:-0.118598 6:0.0437158 7:0.534106 8:-0.0258419 9:-0.879628 10:0.7229 11:-0.972465 12:0.154202 13:0.48174 14:0.748409 15:0.596014 
8 1:-0.64143 2:-0.718687 3:0.200796 4:0.257734 5:0.339676 6:-0.94055 7:-0.772013 8:-0.297866 9:-0.763219 10:-0.693598 11:-0.407955 12:-0.617596 13:0.48929 14:0.969426 15:0.120866 
1.751609374674252 1:-0.71072 2:-0.472458 3:0.470771 4:-0.84388 5:-0.791182 6:0.83231 7:-0.917491 8:-0.723396 9:-0.954141 10:-0.799674 11:-0.0621322 12:0.604333 13:-0.497165 14:-0.440103 15:-0.637463 
8 1:0.856286 2:-0.745839 3:0.583078 4:0.138524 5:0.959371 6:-0.262402 7:-0.65277 8:0.776874 9:-0.536862 10:0.806349 11:-0.921032 12:0.924718 13:-0.981733 14:-0.653702 15:-0.252303 
1.156627801093367 1:-0.100377 2:-0.998543 3:0.60593 4:-0.407586 5:-0.873594 6:0.334656 7:0.448431 8:0.684316 9:-0.152155 10:-0.352247 11:0.577575 12:-0.252904 13:0.127462 14:0.984758 15:-0.539039 
7.981621899060912 1:-0.967178 2:-0.557576 3:0.0879912 4:-0.929729 5:0.67594 6:-0.306739 7:-0.602279 8:0.941496 9:0.855894 10:0.0249617 11:0.0657438 12:0.218119 13:0.335254 14:0.696296 15:-0.250177 
8 1:-0.0593832 2:-0.695734 3:0.0925859 4:-0.649831 5:0.935886 6:-0.22772 7:-0.992475 8:0.298602 9:-0.283752 10:-0.923341 11:0.922954 12:-0.464177 13:-0.564677 14:-0.279164 15:0.35389 
4.005156161003655 1:0.612961 2:-0.524949 3:0.159731 4:-0.690362 5:-0.603379 6:-0.196651 7:0.11883 8:-0.119624 9:-0.363851 10:0.941252 11:0.216973 12:-0.328736 13:-0.470341 14:0.434951 15:-0.2736 
8 1:0.718515 2:-0.763103 3:0.0321732 4:-0.411166 5:-0.0316927 6:-0.82148 7:0.129094 8:-0.183033 9:0.114324 10:0.527103 11:0.306968 12:-0.172858 13:0.857831 14:0.796035 15:-0.465494 
8 1:0.736045 2:-0.0662005 3:-0.0813493 4:0.752724 5:0.786484 6:0.452124 7:0.315861 8:0.275476 9:0.776754 10:-0.782782 11:0.733947 12:0.29753 13:-0.182933 14:0.620038 15:0.516159 
8 1:-0.319884 2:0.215247 3:-0.758635 4:-0.76274 5:-0.4541 6:-0.578912 7:0.222696 8:-0.268668 9:0.368326 10:-0.883748 11:0.0511449 12:0.665431 13:0.595946 14:-0.420474 15:0.724062 
8 1:0.425965 2:-0.910776 3:-0.815181 4:0.151092 5:0.821375 6:-0.0134352 7:-0.120027 8:-0.0401485 9:0.960086 10:-0.483897 11:0.868077 12:0.551309 13:0.453905 14:-0.966097 15:-0.635265 
8 1:-0.735253 2:-0.89084 3:0.15975 4:-0.574676 5:0.479013 6:-0.950413 7:-0.950642 8:-0.829637 9:0.981559 10:0.334834 11:0.180638 12:0.0808526 13:0.0766486 14:0.995823 15:0.158111 
8 1:-0.399338 2:-0.24744 3:-0.673516 4:-0.546706 5:0.192505 6:0.297582 7:0.797105 8:0.3863 9:-0.890015 10:-0.907097 11:-0.762239 12:0.562922 13:0.688072 14:-0.598337 15:-0.0735424 
1.940446629522591 1:0.364959 2:-0.767088 3:-0.545531 4:0.779989 5:0.251318 6:0.654649 7:0.475251 8:-0.194739 9:-0.311232 10:-0.196322 11:0.583983 12:0.232205 13:-0.653947 14:0.853054 15:-0.925549 
5.841701836510088 1:0.49876 2:-0.928762 3:0.665556 4:0.85306 5:-0.964398 6:0.735103 7:-0.922379 8:0.958191 9:0.294611 10:-0.17258 11:0.136733 12:-0.124531 13:-0.53886 14:-0.768825 15:0.77315 
4.093212171771548 1:0.324387 2:-0.649397 3:0.340687 4:-0.72752 5:0.515976 6:0.697414 7:-0.534352 8:0.843301 9:0.696391 10:-0.292164 11:-0.116998 12:0.484389 13:0.479457 14:-0.351633 15:0.539441 
8 1:0.448157 2:-0.904232 3:-0.60734 4:0.550162 5:0.119915 6:0.288066 7:-0.125505 8:0.237031 9:0.242733 10:-0.238904 11:0.0403992 12:1 13:-0.476923 14:0.975454 15:0.36124 
8 1:0.417348 2:0.513135 3:0.395238 4:-0.75753 5:-0.736582 6:-0.666161 7:0.251772 8:-0.954869 9:0.0818574 10:-0.854898 11:0.109645 12:0.802268 13:-0.296517 14:0.281813 15:0.746326 
8 1:0.481773 2:-0.722269 3:-0.419271 4:0.407765 5:-0.517957 6:0.648124 7:-0.520742 8:-0.675861 9:0.147125 10:-0.242689 11:0.457488 12:-0.613294 13:0.601431 14:-0.466293 15:-0.355107 
1.307766906376141 1:0.578444 2:-0.215336 3:-0.998157 4:-0.496774 5:-0.938318 6:-0.812671 7:0.943921 8:0.590917 9:-0.0182663 10:0.786644 11:-0.982393 12:-0.104335 13:0.969779 14:0.661406 15:-0.742971 
8 1:-0.121718 2:-0.478432 3:-0.501331 4:0.293074 5:-0.0563585 6:0.0527085 7:-0.406549 8:0.60708 9:0.24031 10:-0.695855 11:-0.669071 12:-0.286215 13:-0.544275 14:0.447998 15:-0.953261 
4.402714649547647 1:-0.233532 2:-0.26386 3:-0.873994 4:-0.876262 5:-0.505141 6:-0.578918 7:0.533284 8:0.775949 9:0.715368 10:0.316379 11:-0.85297 12:0.962851 13:0.20014 14:0.702791 15:-0.728666 
8 1:0.620992 2:-0.402074 3:0.0146906 4:0.812479 5:-0.36133 6:-0.407677 7:0.875915 8:-0.919768 9:0.148508 10:-0.836958 11:-0.726924 12:0.668943 13:-0.437885 14:0.849761 15:-0.661821 
8 1:0.249302 2:-0.147579 3:-0.54955 4:-0.628874 5:0.145515 6:0.549625 7:0.493317 8:-0.943755 9:-0.179805 10:0.965885 11:0.171279 12:-0.447027 13:0.664307 14:-0.0350768 15:-0.930633 
8 1:-0.584653 2:-0.716799 3:-0.913809 4:0.153464 5:-0.297443 6:0.00779927 7:-0.415275 8:0.816367 9:0.048403 10:0.441319 11:0.701475 12:-0.0650285 13:-0.416368 14:-0.928109 15:0.268532 
0.5992902729668013 1:0.0286317 2:-0.584115 3:0.96861 4:0.828631 5:0.583274 6:-0.339371 7:-0.143935 8:-0.395664 9:0.892994 10:0.0986561 11:0.816296 12:-0.611238 13:-0.856196 14:0.314049 15:-0.334753 
1.476203616529402 1:0.533889 2:-0.722926 3:-0.658467 4:0.142796 5:0.543507 6:-0.332665 7:0.84937 8:-0.607512 9:0.245892 10:-0.432908 11:-0.438548 12:-0.939692 13:-0.594622 14:0.538547 15:0.432305 
8 1:0.0324068 2:-0.784346 3:-0.160335 4:-0.96496 5:0.43411 6:0.275525 7:-0.30887 8:0.443505 9:-0.388931 10:-0.850727 11:-0.0168243 12:0.228933 13:-0.207641 14:-0.423583 15:0.677026 
8 1:0.101152 2:-0.736786 3:-0.158176 4:0.172316 5:0.695068 6:-0.0572523 7:0.728511 8:0.873999 9:-0.274767 10:0.520822 11:0.0784215 12:0.334377 13:0.744507 14:0.474796 15:-0.00624488 
8 1:-0.204916 2:-0.611467 3:-0.909874 4:-0.420619 5:-0.152951 6:0.143001 7:-0.394066 8:-0.878054 9:-0.825614 10:-0.256159 11:-0.0158614 12:0.325878 13:0.460347 14:-0.494077 15:0.998927 
8 1:0.735323 2:-0.760218 3:-0.169614 4:-0.182252 5:0.220012 6:-0.668455 7:-0.41958 8:-0.354251 9:-0.107888 10:0.24751 11:0.567579 12:0.621836 13:-0.574087 14:-0.49096 15:0.927737 
8 1:-0.490041 2:-0.202395 3:-0.347502 4:0.78432 5:0.0729955 6:0.862758 7:0.502174 8:-0.123467 9:0.544835 10:0.0851125 11:-0.772313 12:0.77261 13:-0.895311 14:-0.0255927 15:-0.292676 
8 1:0.0638783 2:-0.979971 3:0.554103 4:0.906279 5:0.184171 6:0.214005 7:0.55537 8:0.211525 9:-0.751314 10:-0.822926 11:0.34677 12:-0.752682 13:-0.29212 14:-0.53754 15:0.156668 
8 1:-0.106242 2:-0.835466 3:-0.470173 4:0.51996 5:-0.371155 6:-0.924122 7:-0.40702 8:-0.431064 9:-0.171749 10:0.873841 11:0.558209 12:-0.813506 13:-0.841523 14:0.411962 15:-0.689591 
8 1:0.823355 2:-0.66568 3:0.396391 4:0.0302473 5:0.676877 6:0.670587 7:0.530439 8:-0.51563 9:-0.963832 10:0.914964 11:0.796024 12:0.651803 13:-0.770264 14:0.566107 15:0.10008 
5.928807062520526 1:0.0485068 2:-0.88015 3:0.993013 4:-0.0524042 5:0.916908 6:0.783432 7:-0.819519 8:0.209795 9:-0.431387 10:-0.348652 11:0.672796 12:0.507019 13:-0.522179 14:-0.97914 15:0.972653 
8 1:-0.800665 2:-0.615371 3:-0.279838 4:-0.723879 5:-0.205693 6:-0.936798 7:0.646374 8:-0.3101 9:0.623746 10:0.621752 11:-0.745853 12:-0.66658 13:0.893314 14:-0.65578 15:-0.198367 
8 1:0.320141 2:-0.975964 3:-0.846001 4:-0.90172 5:0.177807 6:-0.070361 7:-0.337739 8:-0.150881 9:0.541779 10:0.0652976 11:0.650925 12:-0.573914 13:0.793022 14:0.784962 15:0.19302 
1.979061322933998 1:-0.201309 2:0.0807397 3:0.541322 4:-0.149926 5:0.677799 6:0.0810058 7:0.676806 8:-0.944443 9:-0.690573 10:-0.709343 11:0.709213 12:0.464549 13:-0.99373 14:0.831874 15:0.139735 
8 1:-0.733292 2:-0.77798 3:-0.647802 4:-0.015358 5:0.912087 6:0.333991 7:0.176846 8:0.984368 9:-0.776421 10:-0.0834445 11:-0.828888 12:0.454758 13:0.817374 14:-0.981828 15:0.40793 
0.1969206806309352 1:0.113701 2:0.813329 3:-0.810662 4:-0.781567 5:-0.548913 6:-0.00199634 7:0.351312 8:0.114107 9:0.676052 10:-0.921496 11:-0.217379 12:-0.514296 13:-0.0921727 14:0.55184 15:0.716631 
8 1:0.110622 2:-0.564889 3:-0.917533 4:0.0640453 5:0.871664 6:-0.965881 7:-0.390067 8:-0.20178 9:0.896662 10:0.526127 11:0.617205 12:-0.680772 13:0.763548 14:0.032655 15:-0.752116 
8 1:-0.483275 2:-0.0423414 3:-0.772092 4:-0.831398 5:-0.870478 6:-0.270813 7:-0.0159037 8:0.177393 9:-0.610818 10:-0.162638 11:0.518207 12:-0.266107 13:-0.103485 14:0.0175853 15:-0.536518 
7.485491329772294 1:-0.120466 2:-0.736537 3:0.0229908 4:-0.193323 5:-0.969981 6:0.776814 7:0.51369 8:-0.680467 9:0.513658 10:0.784398 11:0.334764 12:0.279345 13:0.164938 14:0.100477 15:-0.461499 
4.416974592131574 1:-0.491442 2:-0.901894 3:0.595458 4:0.791487 5:-0.103054 6:-0.90495 7:-0.613533 8:-0.363847 9:-0.724614 10:0.20792 11:-0.0759583 12:-0.739334 13:0.972367 14:-0.681452 15:0.477945 
8 1:0.704291 2:-0.827665 3:-0.7046 4:-0.202551 5:-0.575238 6:0.223492 7:-0.111322 8:-0.192071 9:0.957042 10:-0.469496 11:-0.936783 12:-0.199914 13:0.616076 14:-0.665981 15:-0.420996 
8 1:0.590282 2:-0.550401 3:0.388514 4:0.210111 5:-0.734016 6:-0.861521 7:0.308838 8:0.446872 9:-0.363624 10:-0.722654 11:0.186682 12:0.898532 13:-0.759006 14:-0.204321 15:0.695038 
8 1:-0.833865 2:-0.191852 3:-0.121482 4:-0.887664 5:0.953451 6:0.0200033 7:0.219713 8:-0.436189 9:0.426778 10:-0.222054 11:-0.913872 12:-0.777403 13:0.348422 14:0.0494938 15:-0.994075 
0.4757561883335814 1:0.615262 2:0.196875 3:-0.424134 4:-0.429807 5:0.789415 6:0.130846 7:-0.54719 8:0.335248 9:0.106747 10:-0.296505 11:0.453601 12:0.639441 13:-0.36007 14:0.133475 15:-0.697169 
8 1:-0.708429 2:-0.425521 3:-0.271375 4:0.490058 5:0.709447 6:0.705168 7:0.403371 8:-0.622724 9:0.0213955 10:-0.738554 11:-0.421684 12:0.706376 13:0.558082 14:-0.823798 15:-0.955201 
8 1:0.788256 2:-0.398085 3:-0.966427 4:-0.58699 5:0.747153 6:0.366469 7:0.661996 8:0.382677 9:-0.239659 10:0.721198 11:0.496836 12:0.474894 13:0.661464 14:0.817722 15:0.83016 
4.40259189799226 1:0.862998 2:0.357554 3:-0.996941 4:-0.672018 5:-0.266355 6:0.158784 7:-0.510741 8:-0.00640699 9:0.971115 10:-0.699293 11:0.822833 12:0.248572 13:0.126119 14:-0.424689 15:0.100808 
8 1:-0.496988 2:-0.36104 3:-0.331594 4:0.463895 5:0.596881 6:0.163971 7:-0.743392 8:-0.383204 9:0.202229 10:0.363178 11:0.755336 12:0.369309 13:-0.961319 14:0.339799 15:-0.997888 
8 1:-0.561234 2:-0.394081 3:-0.817192 4:-0.824536 5:0.957552 6:0.793248 7:0.831216 8:0.539346 9:-0.242834 10:-0.106694 11:0.402618 12:-0.490635 13:0.0882236 14:-0.589093 15:-0.254932 
1.017500026162843 1:-0.47699 2:0.78813 3:0.862344 4:-0.893127 5:0.751076 6:-0.124148 7:-0.806672 8:-0.365285 9:0.92924 10:-0.274695 11:0.777746 12:0.0550556 13:-0.254254 14:0.928869 15:-0.839554 
1.765784681351262 1:-0.500055 2:-0.148829 3:0.537324 4:-0.231431 5:-0.567515 6:-0.700672 7:-0.0611866 8:0.991324 9:-0.0701418 10:-0.996104 11:-0.96489 12:-0.663597 13:-0.422937 14:0.213295 15:-0.74643 
8 1:0.835837 2:0.087512 3:-0.737432 4:-0.259345 5:-0.0421752 6:-0.0825803 7:0.17832 8:-0.355337 9:0.552082 10:-0.210154 11:0.844092 12:0.264119 13:-0.99756 14:-0.103169 15:-0.636058 
0.7709486858269788 1:-0.182299 2:-0.500885 3:-0.300913 4:0.6722 5:-0.164065 6:-0.338308 7:-0.543708 8:-0.70286 9:-0.42836 10:0.343405 11:0.380445 12:-0.973984 13:0.108121 14:0.185539 15:-0.665997 
2.492784601845013 1:0.447619 2:-0.889082 3:-0.998766 4:0.820902 5:-0.453728 6:-0.743053 7:-0.021049 8:-0.503923 9:0.0588069 10:-0.930916 11:0.804528 12:0.629018 13:0.74368 14:0.0852598 15:-0.239724 
6.679367895918014 1:-0.618507 2:-0.104486 3:-0.915001 4:-0.495661 5:0.774249 6:0.859121 7:0.195585 8:-0.671175 9:-0.997529 10:0.402254 11:0.720271 12:-0.1212 13:-0.190028 14:0.726132 15:0.122121 
1.748727474538113 1:-0.949645 2:-0.723222 3:-0.539725 4:0.565746 5:-0.277242 6:0.870283 7:0.596406 8:0.352668 9:-0.865696 10:0.38679 11:0.0283664 12:-0.342665 13:0.82719 14:0.751341 15:-0.367975 
3.793432250416997 1:-0.997862 2:0.101293 3:-0.454919 4:-0.0594403 5:0.412384 6:0.342358 7:0.706279 8:-0.484527 9:0.969511 10:-0.0426821 11:-0.806694 12:0.897939 13:0.01541 14:0.0417706 15:-0.452301 
8 1:0.323371 2:-0.908583 3:-0.430685 4:-0.925154 5:0.643133 6:0.847554 7:-0.696252 8:-0.373732 9:-0.363064 10:-0.0385509 11:0.498626 12:0.517047 13:-0.741211 14:-0.0673784 15:0.118506 
2.149288807862188 1:0.957844 2:-0.67057 3:0.00959137 4:-0.969271 5:0.814241 6:-0.909831 7:0.534122 8:0.800872 9:0.66794 10:-0.945945 11:-0.586061 12:-0.964553 13:-0.3008 14:0.454222 15:0.334131 
4.935466527858178 1:-0.898912 2:-0.856019 3:-0.574301 4:0.80226 5:0.276077 6:0.384125 7:0.625077 8:-0.0159516 9:-0.702732 10:-0.703041 11:-0.00163052 12:0.652434 13:0.689661 14:0.975856 15:-0.347169 
7.81847290183257 1:0.930973 2:-0.929276 3:0.343827 4:0.160019 5:-0.330531 6:0.278125 7:0.673844 8:0.159454 9:-0.723676 10:0.281385 11:-0.657515 12:-0.130972 13:0.598874 14:0.950688 15:-0.693843 
6.734618047494884 1:0.409728 2:-0.349523 3:0.207242 4:-0.15477 5:-0.223323 6:0.425155 7:-0.1448 8:-0.190985 9:0.383552 10:-0.482552 11:-0.881676 12:0.904521 13:-0.469838 14:0.0754481 15:-0.0445293 
4.977592142915348 1:-0.730719 2:0.840411 3:0.733877 4:-0.454501 5:-0.689998 6:-0.364305 7:0.648617 8:-0.968778 9:0.938601 10:-0.453564 11:-0.670809 12:-0.180699 13:-0.484148 14:-0.932064 15:0.817754 
7.266250772712645 1:-0.94558 2:-0.692124 3:0.647014 4:-0.264594 5:-0.817373 6:-0.403545 7:-0.962765 8:-0.985274 9:-0.698347 10:0.315993 11:-0.0422064 12:0.833579 13:-0.642918 14:-0.855958 15:-0.149583 
3.961743298171809 1:0.331059 2:-0.63221 3:0.204458 4:-0.508834 5:-0.0359891 6:0.175288 7:-0.565397 8:0.698369 9:0.206145 10:0.844699 11:-0.660147 12:0.0457153 13:-0.681421 14:-0.397952 15:0.880867 
5.399648812553068 1:-0.936022 2:-0.848617 3:-0.758407 4:0.832965 5:-0.0108994 6:-0.411576 7:-0.350181 8:-0.829041 9:-0.547398 10:0.817454 11:0.550847 12:0.874592 13:-0.483307 14:0.899508 15:0.116842 
8 1:0.244027 2:0.962492 3:0.250712 4:-0.966826 5:-0.49111 6:0.542897 7:0.750418 8:0.606606 9:0.478892 10:-0.912517 11:0.265724 12:0.305074 13:-0.13279 14:-0.407127 15:0.728841 
8 1:-0.304711 2:-0.861056 3:0.0302414 4:-0.543559 5:0.470353 6:-0.0343432 7:-0.476092 8:0.90636 9:0.113138 10:-0.216738 11:-0.539454 12:-0.41514 13:0.0522383 14:0.712201 15:0.794974 
8 1:0.447972 2:-0.434358 3:-0.723856 4:-0.562953 5:-0.593204 6:-0.97594 7:-0.0503101 8:-0.582661 9:-0.254294 10:0.0758262 11:0.546401 12:-0.796036 13:0.563827 14:-0.278813 15:0.158572 
0.8727250014272759 1:-0.409242 2:0.610183 3:-0.892402 4:-0.982427 5:-0.564747 6:-0.127193 7:-0.767105 8:-0.927978 9:-0.871233 10:0.814445 11:0.249394 12:-0.272226 13:0.643987 14:-0.742649 15:-0.288629 
8 1:0.835436 2:-0.778762 3:0.137841 4:0.476533 5:0.673876 6:-0.35075 7:0.776604 8:0.819845 9:-0.666614 10:0.865596 11:0.206931 12:-0.877238 13:-0.849939 14:-0.379601 15:-0.336284 
8 1:-0.388471 2:-0.417642 3:-0.621345 4:-0.853035 5:-0.0807874 6:0.191288 7:-0.849674 8:0.424031 9:-0.549259 10:-0.813225 11:0.750316 12:0.236215 13:0.488469 14:-0.212559 15:0.936123 
6.942211595522718 1:0.0839976 2:-0.836855 3:0.110774 4:-0.395054 5:0.755659 6:0.456783 7:0.0628523 8:0.114333 9:-0.905944 10:-0.552062 11:0.565847 12:-0.531025 13:-0.675629 14:0.611832 15:0.736586 
8 1:0.753449 2:-0.763149 3:-0.947108 4:0.296451 5:0.609216 6:-0.496165 7:-0.312633 8:-0.714991 9:-0.634802 10:-0.175599 11:-0.0220857 12:-0.477319 13:-0.120141 14:0.202886 15:0.127119 
8 1:-0.0287211 2:-0.551753 3:0.297017 4:-0.254568 5:0.788976 6:0.286899 7:-0.919181 8:0.337664 9:0.527426 10:-0.478879 11:-0.088685 12:-0.818086 13:-0.219283 14:0.715248 15:-0.74643 
8 1:0.754171 2:-0.353385 3:0.0784061 4:-0.695307 5:-0.112332 6:0.413707 7:-0.669065 8:-0.374956 9:-0.332016 10:-0.483094 11:-0.355871 12:0.608802 13:-0.546849 14:-0.314562 15:-0.491631 
0.4253110469245002 1:0.670244 2:0.35704 3:0.363239 4:-0.98595 5:0.596735 6:-0.036379 7:0.332797 8:-0.230448 9:0.552299 10:-0.698984 11:0.0962122 12:-0.0604046 13:0.679576 14:-0.887002 15:0.562982 
8 1:-0.446991 2:-0.678712 3:-0.182872 4:-0.603928 5:-0.200952 6:-0.946086 7:0.441342 8:0.698744 9:-0.790152 10:-0.523709 11:0.469703 12:-0.971338 13:0.278407 14:-0.348438 15:0.176936 
5.133559751114389 1:0.871045 2:-0.394159 3:-0.071394 4:-0.566662 5:-0.00933659 6:-0.291328 7:0.0132513 8:0.235794 9:-0.734964 10:-0.898141 11:-0.842493 12:-0.602454 13:0.959295 14:-0.06986 15:-0.136692 
5.554924789294584 1:0.136499 2:-0.741715 3:0.0205292 4:0.487349 5:0.194558 6:0.736989 7:-0.948404 8:-0.789934 9:-0.776137 10:0.0660964 11:0.315995 12:-0.501394 13:0.0485148 14:-0.590366 15:0.292903 
8 1:0.268729 2:-0.876922 3:-0.877461 4:0.314975 5:0.362412 6:0.0673096 7:0.877849 8:0.864792 9:0.398579 10:-0.851684 11:-0.628514 12:0.390992 13:-0.0184932 14:-0.878166 15:0.0539525 
1.117975033545303 1:-0.961317 2:-0.557803 3:0.950498 4:-0.212385 5:-0.946733 6:0.967246 7:0.621815 8:0.808856 9:0.340841 10:-0.751904 11:0.271 12:0.0235613 13:0.906032 14:-0.00322563 15:0.325372 
8 1:0.353775 2:-0.307945 3:-0.106564 4:-0.682454 5:-0.45671 6:-0.471123 7:0.82173 8:0.447839 9:0.947146 10:0.325644 11:0.75985 12:-0.702674 13:0.71342 14:0.708802 15:-0.322557 
8 1:0.377348 2:-0.672767 3:0.183145 4:-0.401629 5:-0.428811 6:-0.535026 7:-0.235522 8:0.478813 9:0.0938214 10:0.805656 11:-0.272771 12:-0.745561 13:0.225054 14:0.167201 15:0.59674 
8 1:-0.462834 2:-0.841186 3:0.232122 4:-0.63817 5:-0.140738 6:0.482219 7:-0.943685 8:0.913924 9:-0.84724 10:0.395018 11:-0.196438 12:-0.695488 13:0.453102 14:0.536672 15:0.114157 
8 1:-0.397456 2:-0.971785 3:-0.961623 4:-0.527908 5:-0.671622 6:-0.986452 7:-0.662519 8:-0.250201 9:-0.56257 10:-0.804241 11:0.0106881 12:-0.623676 13:0.910686 14:0.195678 15:-0.982799 
4.88853467607632 1:0.0453651 2:-0.970661 3:0.42764 4:0.693638 5:0.195395 6:0.842876 7:-0.959418 8:0.749882 9:0.453656 10:0.20704 11:-0.10472 12:0.434184 13:-0.0313482 14:-0.832034 15:0.659281 
8 1:-0.693455 2:-0.554118 3:0.207543 4:-0.0115927 5:-0.841488 6:0.19448 7:-0.637582 8:-0.448374 9:0.335888 10:-0.086557 11:0.471095 12:0.385526 13:0.727657 14:-0.806841 15:0.542229 
8 1:0.884759 2:0.233883 3:-0.412759 4:0.0765439 5:-0.790352 6:-0.700693 7:-0.180606 8:-0.0456801 9:0.77706 10:-0.966521 11:0.615295 12:0.721981 13:-0.103923 14:-0.148919 15:0.642804 
8 1:0.187899 2:-0.0838292 3:-0.774065 4:-0.805204 5:-0.309739 6:-0.279289 7:-0.126156 8:0.635359 9:0.722602 10:0.0559349 11:0.869179 12:-0.738056 13:-0.669595 14:-0.117739 15:-0.603073 
0.9206523123015069 1:-0.718117 2:0.246385 3:-0.420776 4:0.668199 5:0.989453 6:0.259874 7:0.862785 8:0.201861 9:0.610501 10:0.224873 11:0.373208 12:0.989567 13:-0.677037 14:-0.228726 15:-0.618926 
0.3199102257789383 1:0.210102 2:0.101897 3:-0.513561 4:-0.881246 5:0.278191 6:-0.500527 7:0.566786 8:-0.0765343 9:-0.968357 10:-0.301719 11:-0.931585 12:-0.221214 13:-0.839344 14:-0.0408262 15:-0.121755 
0.8793784586381296 1:0.764258 2:-0.0194616 3:0.975477 4:-0.656603 5:-0.297049 6:-0.911014 7:-0.925699 8:0.530968 9:0.859384 10:-0.374341 11:0.0124392 12:0.903347 13:-0.0450449 14:-0.533111 15:-0.260684 
8 1:0.664302 2:-0.415506 3:-0.151391 4:-0.264734 5:-0.289296 6:0.214522 7:-0.385506 8:0.310624 9:0.600236 10:-0.850635 11:-0.461888 12:0.247157 13:0.101316 14:-0.145053 15:0.21435 
8 1:0.115719 2:-0.957836 3:-0.629464 4:0.948364 5:0.763718 6:0.0863208 7:0.490192 8:-0.580238 9:-0.288952 10:-0.258544 11:0.886428 12:-0.296713 13:0.993412 14:0.145055 15:-0.520372 
7.766252052044098 1:0.895506 2:-0.79514 3:0.775232 4:0.546368 5:-0.86894 6:-0.0522502 7:0.594185 8:-0.970341 9:-0.702469 10:0.43638 11:0.572882 12:0.958473 13:-0.831851 14:0.870654 15:0.899563 
5.849980633681894 1:0.902877 2:-0.438813 3:-0.179669 4:-0.47503 5:-0.610097 6:0.917997 7:-0.107911 8:-0.521719 9:-0.387617 10:0.992935 11:-0.235189 12:0.283427 13:0.214013 14:0.908206 15:-0.411852 
8 1:-0.490096 2:-0.672585 3:-0.00779353 4:-0.826616 5:0.743969 6:-0.646505 7:-0.23234 8:-0.8147 9:-0.268144 10:0.379119 11:0.873788 12:-0.131739 13:0.886794 14:-0.554381 15:-0.69414 
8 1:-0.0143702 2:-0.869454 3:0.0636339 4:-0.654765 5:-0.146002 6:0.26762 7:-0.331562 8:0.285646 9:0.337844 10:-0.265677 11:-0.354044 12:-0.369839 13:0.0348232 14:-0.000137975 15:0.846953 
8 1:0.954053 2:-0.537162 3:-0.72452 4:-0.403079 5:0.996461 6:-0.875792 7:0.410013 8:-0.855474 9:0.930743 10:0.148938 11:0.326788 12:0.943649 13:-0.324326 14:0.743643 15:-0.0197313 
6.534804726625457 1:-0.733528 2:-0.284274 3:-0.172633 4:-0.175463 5:-0.961819 6:0.253395 7:0.907606 8:0.117833 9:0.480224 10:0.711744 11:0.658142 12:-0.837006 13:0.713334 14:0.811907 15:0.509942 
6.213684725233175 1:-0.0201001 2:-0.579203 3:0.429384 4:-0.607525 5:0.349807 6:0.197249 7:-0.807903 8:-0.532176 9:0.35279 10:-0.361806 11:-0.290496 12:-0.847043 13:0.992303 14:-0.544957 15:0.989676 
5.300595231353539 1:0.583719 2:0.957359 3:-0.861363 4:-0.292379 5:-0.0851073 6:0.256818 7:0.974172 8:-0.814207 9:0.641487 10:-0.609198 11:0.766816 12:-0.456396 13:-0.962122 14:-0.933511 15:0.564882 
8 1:0.491534 2:-0.331964 3:-0.288241 4:-0.732971 5:-0.507502 6:0.582996 7:-0.87983 8:0.250393 9:0.18569 10:0.78759 11:-0.909067 12:-0.0025602 13:-0.577286 14:-0.724332 15:0.405229 
8 1:-0.657847 2:-0.742734 3:-0.364551 4:0.0158098 5:-0.631729 6:-0.452078 7:-0.887903 8:0.195607 9:0.696506 10:0.145713 11:-0.23843 12:-0.563287 13:-0.745078 14:-0.477501 15:-0.950098 
8 1:-0.315434 2:-0.886349 3:-0.875664 4:-0.251601 5:-0.0173093 6:0.7344 7:-0.740526 8:-0.841917 9:-0.743979 10:-0.991205 11:0.194897 12:-0.959702 13:0.0116324 14:0.113925 15:-0.1577 
4.474921246942168 1:-0.875808 2:-0.821366 3:0.147466 4:-0.967259 5:-0.0760183 6:0.596879 7:-0.187861 8:-0.0294003 9:-0.87709 10:0.707636 11:0.543608 12:0.527758 13:-0.689589 14:0.849573 15:0.335804 
8 1:0.87515 2:0.386421 3:-0.32109 4:-0.837681 5:0.866666 6:-0.531132 7:0.0494642 8:0.0654882 9:-0.420011 10:-0.904587 11:0.38718 12:0.829515 13:-0.677292 14:-0.309894 15:-0.928951 
1.134982160989147 1:-0.6911 2:0.991825 3:-0.356369 4:-0.906811 5:0.491636 6:0.291806 7:0.675109 8:-0.961569 9:0.923432 10:0.977648 11:-0.982416 12:0.487411 13:-0.981211 14:-0.508651 15:0.516003 
8 1:-0.610345 2:-0.409352 3:0.422658 4:-0.892048 5:0.528907 6:0.370186 7:-0.766692 8:0.861941 9:0.645614 10:-0.569925 11:0.160078 12:0.905222 13:0.843645 14:0.203058 15:-0.84846 
8 1:-0.041181 2:-0.83493 3:0.0854964 4:0.783322 5:0.925932 6:-0.463523 7:0.484606 8:-0.623664 9:0.548198 10:0.124009 11:-0.151098 12:-0.387531 13:0.656847 14:0.89389 15:-0.268782 
5.590341483259872 1:0.559887 2:-0.278585 3:0.272665 4:-0.0694606 5:0.138571 6:-0.0126616 7:0.602851 8:0.118379 9:0.997338 10:-0.725742 11:-0.861805 12:-0.29722 13:0.90504 14:0.792308 15:0.908265 
8 1:0.404386 2:0.200862 3:0.320189 4:-0.899899 5:0.626426 6:-0.165962 7:-0.867693 8:-0.771641 9:0.98636 10:-0.2951 11:0.797705 12:0.19055 13:-0.19209 14:0.96792 15:0.024538 
8 1:0.880261 2:0.596694 3:0.491545 4:0.369183 5:-0.476427 6:-0.00784369 7:-0.811946 8:0.167097 9:0.817789 10:-0.842264 11:0.932399 12:0.657166 13:0.00483785 14:0.0915989 15:0.603045 
7.988825173778539 1:-0.301686 2:-0.325192 3:-0.73541 4:0.222828 5:-0.903217 6:-0.0509564 7:0.0711371 8:0.463674 9:-0.659319 10:-0.726372 11:-0.915146 12:-0.400506 13:-0.346824 14:-0.388009 15:0.310806 
8 1:-0.430887 2:-0.792462 3:0.171756 4:-0.455451 5:-0.758732 6:-0.949926 7:-0.396477 8:0.400587 9:0.432564 10:0.37424 11:0.203751 12:-0.316982 13:0.376342 14:0.796313 15:-0.129532 
8 1:0.17495 2:-0.693681 3:0.0184658 4:0.0986468 5:0.696112 6:-0.500309 7:0.210446 8:-0.320259 9:0.484455 10:-0.888165 11:-0.817088 12:0.284677 13:0.626694 14:-0.122432 15:0.956641 
8 1:0.526755 2:-0.614387 3:-0.625976 4:-0.475306 5:-0.181757 6:-0.447347 7:-0.862832 8:-0.35324 9:0.959322 10:-0.390406 11:-0.313725 12:-0.0261613 13:0.224496 14:-0.0974851 15:-0.0796171 
2.473613596877571 1:0.689422 2:-0.500314 3:-0.699998 4:0.174208 5:-9.88465e-05 6:-0.895958 7:0.706617 8:-0.829488 9:-0.219487 10:-0.603032 11:-0.249021 12:0.227926 13:0.139497 14:0.783111 15:-0.808143 
8 1:0.246539 2:-0.890207 3:0.503827 4:0.655578 5:0.738836 6:0.461842 7:0.151818 8:-0.153484 9:-0.417094 10:0.440793 11:0.243544 12:0.546938 13:-0.27292 14:-0.927826 15:-0.219581 
7.227227065018791 1:0.0030188 2:0.216997 3:-0.729369 4:-0.898067 5:-0.19554 6:-0.402052 7:-0.351115 8:0.919783 9:-0.108196 10:0.560865 11:-0.311232 12:0.767864 13:0.232802 14:0.1754 15:-0.942176 
8 1:-0.556584 2:-0.833562 3:0.0235822 4:-0.613656 5:0.377136 6:-0.184724 7:-0.399082 8:0.33155 9:-0.704047 10:0.484396 11:-0.735785 12:0.330762 13:0.661827 14:-0.758614 15:0.242049 
8 1:-0.452381 2:-0.0506278 3:0.0900971 4:0.0606565 5:-0.170225 6:0.0750797 7:0.347281 8:0.0333642 9:0.767635 10:-0.873955 11:0.636002 12:-0.598095 13:0.822863 14:0.581586 15:0.315524 
8 1:-0.822018 2:-0.853723 3:0.240228 4:0.0931281 5:0.670811 6:0.574516 7:-0.645439 8:0.400774 9:-0.0510584 10:0.11911 11:0.0243588 12:0.852688 13:-0.51942 14:0.169937 15:-0.874672 
8 1:-0.420215 2:0.355727 3:0.447138 4:-0.832528 5:0.903905 6:0.297216 7:-0.755725 8:-0.544873 9:0.856302 10:-0.301626 11:-0.341267 12:-0.379209 13:-0.335393 14:-0.788784 15:-0.763297 
8 1:0.590141 2:-0.552019 3:-0.865411 4:-0.62013 5:0.161764 6:-0.226093 7:0.19115 8:-0.48132 9:0.658222 10:-0.417703 11:0.000614296 12:0.483169 13:0.70606 14:0.181886 15:-0.47563 
2.420151795617495 1:-0.896165 2:-0.716845 3:0.565528 4:-0.586428 5:-0.123874 6:0.608336 7:-0.582084 8:0.600525 9:0.0388843 10:-0.170738 11:0.380715 12:-0.945264 13:0.784071 14:0.983554 15:-0.595774 
3.628907406031385 1:0.00900693 2:-0.367987 3:0.156875 4:-0.255439 5:-0.0737725 6:-0.591155 7:-0.99785 8:-0.541719 9:-0.896358 10:-0.73813 11:0.58909 12:0.697206 13:-0.463594 14:-0.949204 15:-0.837939 
8 1:-0.476804 2:-0.728344 3:0.0288333 4:0.153165 5:-0.279758 6:-0.679539 7:0.429976 8:0.354404 9:-0.460141 10:-0.612452 11:-0.462925 12:0.504825 13:0.625107 14:0.586819 15:-0.160331 
8 1:-0.648565 2:-0.144627 3:-0.219256 4:-0.720271 5:-0.87363 6:0.994903 7:0.592998 8:-0.22303 9:0.847769 10:-0.141787 11:0.471119 12:-0.193081 13:-0.984103 14:0.341019 15:0.492758 
8 1:0.411722 2:-0.608503 3:-0.236137 4:-0.79823 5:0.98279 6:0.0258193 7:-0.977958 8:-0.0703185 9:0.366008 10:0.418179 11:-0.892307 12:-0.121336 13:-0.680701 14:0.239806 15:0.153708 
8 1:0.85346 2:-0.771768 3:0.239119 4:-0.132521 5:-0.649117 6:-0.671242 7:0.253429 8:0.670262 9:-0.534727 10:0.973374 11:-0.48871 12:0.200213 13:-0.507474 14:-0.342312 15:0.728916 
8 1:0.997582 2:-0.889117 3:-0.927329 4:-0.080335 5:-0.646764 6:0.548615 7:-0.610493 8:-0.0186355 9:0.485786 10:0.609404 11:-0.502402 12:0.978205 13:-0.683109 14:0.654404 15:-0.737562 
1.488380452414054 1:0.463797 2:-0.282405 3:0.803907 4:-0.237585 5:0.149929 6:0.731418 7:-0.875652 8:0.644773 9:0.323324 10:-0.63646 11:0.465825 12:0.57395 13:-0.551093 14:-0.598869 15:-0.849387 
8 1:-0.295646 2:-0.667169 3:0.355482 4:0.00338991 5:-0.651212 6:-0.788766 7:-0.539038 8:-0.524088 9:0.150138 10:-0.4334 11:-0.432409 12:0.855864 13:0.91735 14:-0.499235 15:0.608343 
1.605607867995081 1:-0.473157 2:-0.705878 3:0.366618 4:0.415197 5:-0.445436 6:-0.421461 7:0.839627 8:-0.646294 9:-0.265834 10:0.0253644 11:0.96828 12:-0.591031 13:0.222854 14:-0.409349 15:0.865842 
8 1:-0.843906 2:-0.42566 3:0.104928 4:0.0102181 5:0.176623 6:-0.0641599 7:0.257657 8:-0.913118 9:0.043515 10:0.534641 11:0.97898 12:0.654745 13:-0.816075 14:-0.556219 15:-0.350196 
8 1:0.520166 2:-0.803677 3:0.0546132 4:-0.635202 5:-0.0447978 6:-0.0122316 7:0.360951 8:-0.362454 9:0.232207 10:-0.920275 11:-0.280569 12:0.686755 13:0.826403 14:-0.0140119 15:-0.737065 
3.507011523367956 1:-0.542248 2:-0.495476 3:0.271426 4:0.754458 5:0.107947 6:0.643374 7:-0.216159 8:-0.397644 9:-0.656426 10:0.542435 11:0.821601 12:0.899073 13:0.79474 14:0.706206 15:-0.566779 
7.249524474964586 1:-0.975796 2:-0.142946 3:0.930283 4:-0.657159 5:-0.985886 6:-0.383481 7:-0.876443 8:-0.091363 9:-0.0922613 10:-0.936806 11:0.0588062 12:-0.720439 13:-0.995368 14:-0.0347492 15:-0.779896 
1.652609248930612 1:-0.81352 2:-0.895177 3:0.405488 4:-0.634803 5:-0.0865721 6:-0.53921 7:-0.982333 8:0.980255 9:0.168267 10:0.823413 11:0.0529352 12:-0.56096 13:-0.476126 14:0.340708 15:-0.646407 
3.338091951601767 1:0.657174 2:-0.90298 3:-0.887215 4:0.574251 5:-0.935897 6:0.975595 7:0.0795908 8:0.0240792 9:0.400355 10:-0.428653 11:0.398975 12:0.126498 13:-0.338318 14:0.0291333 15:-0.65646 
8 1:0.622813 2:-0.762071 3:0.169554 4:-0.044351 5:-0.625556 6:-0.582495 7:0.305354 8:-0.575097 9:-0.501473 10:0.794351 11:0.365734 12:-0.691129 13:-0.198948 14:-0.552576 15:0.115267 
4.50183373042771 1:-0.99275 2:-0.0488705 3:-0.653467 4:-0.818849 5:0.680468 6:-0.923081 7:0.85008 8:-0.368988 9:-0.473189 10:-0.622135 11:-0.0890876 12:0.642361 13:-0.431609 14:0.386548 15:0.961177 
2.90829763174438 1:-0.512591 2:0.80953 3:-0.659258 4:0.848422 5:0.13702 6:-0.546991 7:0.816368 8:-0.46328 9:0.0237402 10:-0.948976 11:0.0770466 12:-0.34701 13:-0.73108 14:0.434361 15:0.332746 
3.290881809600289 1:0.468903 2:-0.105855 3:0.910901 4:0.847556 5:0.0804738 6:0.90332 7:-0.670561 8:-0.544594 9:0.819203 10:-0.722293 11:0.158543 12:-0.814325 13:0.0437674 14:-0.929613 15:0.0298703 
4.790809864345575 1:-0.246392 2:-0.503798 3:0.328924 4:-0.873918 5:0.724921 6:0.331311 7:-0.949905 8:0.727547 9:-0.24844 10:-0.92314 11:-0.281325 12:-0.14923 13:-0.329761 14:0.235056 15:0.74702 
8 1:0.0155336 2:-0.584989 3:-0.0606718 4:0.62843 5:0.727115 6:-0.136966 7:-0.431559 8:0.0710282 9:0.0573869 10:-0.976405 11:-0.00490851 12:-0.907081 13:-0.791864 14:0.123516 15:-0.181457 
8 1:0.535796 2:-0.446022 3:-0.170757 4:-0.665016 5:0.58569 6:0.15481 7:0.883745 8:0.39482 9:-0.213398 10:0.562406 11:-0.61567 12:0.0946291 13:-0.114441 14:0.577221 15:-0.558158 
6.137971034601537 1:-0.786639 2:-0.658958 3:-0.445531 4:0.98307 5:-0.698504 6:0.917003 7:0.649441 8:0.599612 9:-0.677521 10:-0.298943 11:0.396971 12:-0.44108 13:0.582796 14:0.215891 15:0.916764 
4.38811089089553 1:-0.0756661 2:0.58797 3:-0.762883 4:0.89175 5:-0.140522 6:0.560806 7:0.887525 8:-0.264528 9:-0.68431 10:-0.767295 11:0.449912 12:0.955635 13:-0.936993 14:0.876649 15:-0.575229 
8 1:0.748134 2:-0.213801 3:-0.753874 4:-0.814111 5:0.459941 6:-0.185367 7:-0.592823 8:0.414301 9:-0.549946 10:-0.21948 11:-0.950554 12:-0.397156 13:-0.908684 14:0.470799 15:-0.797355 
6.8884403333056 1:-0.64029 2:-0.822543 3:0.0860755 4:-0.0625032 5:-0.981869 6:0.813435 7:-0.528978 8:-0.465562 9:0.30546 10:0.356976 11:-0.160643 12:-0.24832 13:0.74559 14:0.669981 15:0.670355 
8 1:-0.159623 2:-0.905919 3:0.0514144 4:-0.965539 5:0.456453 6:-0.132788 7:-0.425881 8:-0.6636 9:-0.358381 10:-0.130148 11:-0.995706 12:0.0996266 13:-0.161913 14:-0.36184 15:0.969917 
8 1:-0.230149 2:-0.829792 3:0.219295 4:-0.44642 5:-0.701763 6:0.385826 7:-0.028982 8:-0.919458 9:-0.321371 10:-0.244037 11:0.591224 12:-0.232258 13:0.488779 14:0.499874 15:-0.169262 
8 1:-0.906993 2:-0.282301 3:-0.890823 4:-0.965348 5:-0.368589 6:0.131683 7:-0.505462 8:-0.840365 9:0.688584 10:0.207791 11:-0.139536 12:-0.556953 13:0.726599 14:0.370847 15:0.512097 
2.273657748195756 1:0.83126 2:-0.844462 3:0.609154 4:-0.930201 5:-0.948718 6:-0.878692 7:0.581978 8:-0.707485 9:0.321894 10:-0.816015 11:-0.562624 12:-0.946747 13:0.490146 14:-0.989951 15:-0.910106 
8 1:0.181506 2:0.526791 3:-0.728212 4:-0.404557 5:0.0619371 6:0.662066 7:0.799579 8:0.110733 9:0.762057 10:-0.986489 11:-0.985252 12:0.551544 13:-0.142782 14:0.192763 15:-0.415075 
8 1:0.220955 2:-0.796179 3:0.670869 4:0.317933 5:-0.454211 6:-0.866402 7:0.189687 8:0.0381018 9:-0.73675 10:-0.732841 11:0.947888 12:-0.294664 13:-0.943116 14:0.717164 15:-0.39187 
8 1:-0.583587 2:0.0354109 3:0.949858 4:0.263197 5:0.0490936 6:-0.900123 7:0.535778 8:0.0555777 9:0.178016 10:-0.974159 11:-0.110243 12:0.945841 13:-0.695209 14:0.105407 15:0.596119 
1.160006980165226 1:0.802583 2:-0.189059 3:-0.750716 4:-0.708132 5:-0.567547 6:-0.549461 7:-0.264697 8:0.123626 9:0.938193 10:0.948489 11:0.299141 12:-0.550488 13:0.563931 14:0.788115 15:0.644694 
8 1:0.800424 2:-0.629327 3:0.0550545 4:-0.881865 5:-0.404091 6:-0.312694 7:0.23657 8:0.93295 9:0.551292 10:-0.455213 11:-0.210724 12:-0.539377 13:-0.564243 14:0.365082 15:-0.477716 
8 1:0.593846 2:-0.717134 3:-0.771223 4:0.0438924 5:-0.259303 6:-0.110341 7:-0.70703 8:0.284454 9:-0.386895 10:0.280157 11:0.583532 12:0.598994 13:0.612111 14:-0.584433 15:-0.267417 
5.755076983249996 1:0.632132 2:-0.286462 3:0.273683 4:-0.48264 5:0.644628 6:-0.106494 7:-0.909857 8:-0.378498 9:0.500782 10:0.678947 11:0.816146 12:0.838755 13:-0.747856 14:-0.783524 15:-0.589063 
8 1:0.21073 2:0.106592 3:0.817719 4:0.670323 5:0.358708 6:-0.444866 7:0.505888 8:-0.464499 9:0.242213 10:-0.904753 11:-0.373463 12:0.833963 13:-0.275297 14:-0.549923 15:-0.158079 
8 1:0.910052 2:-0.788968 3:-0.736609 4:0.640841 5:-0.531276 6:-0.0402151 7:0.837315 8:0.49563 9:0.504374 10:-0.770624 11:-0.625423 12:-0.112864 13:-0.588283 14:0.84746 15:0.955202 
6.561325436413627 1:-0.600251 2:-0.320246 3:-0.52611 4:-0.903956 5:0.883915 6:0.938467 7:-0.250808 8:0.836115 9:-0.743248 10:0.434998 11:0.559816 12:-0.69044 13:0.0580076 14:-0.916161 15:-0.453724 
8 1:-0.995816 2:-0.554939 3:-0.623483 4:-0.81641 5:0.144647 6:-0.433464 7:-0.567749 8:-0.140475 9:-0.256284 10:0.172028 11:0.0265954 12:-0.299385 13:-0.539567 14:0.240494 15:0.171219 
8 1:0.252059 2:-0.782764 3:0.359537 4:0.640459 5:0.313413 6:0.146699 7:-0.117862 8:-0.987341 9:0.366311 10:-0.953205 11:-0.971358 12:0.582715 13:0.918625 14:0.0268483 15:-0.491313 
8 1:0.123894 2:-0.916233 3:-0.543769 4:0.283747 5:-0.647725 6:-0.615717 7:-0.33232 8:0.807072 9:-0.205289 10:-0.387141 11:0.272634 12:0.308854 13:0.939032 14:0.937854 15:0.90464 
5.861855081997478 1:0.918217 2:-0.0429596 3:-0.158045 4:0.359642 5:-0.228149 6:-0.40941 7:-0.365801 8:-0.742869 9:0.269053 10:-0.745539 11:-0.287981 12:-0.202774 13:-0.75749 14:0.877911 15:-0.501449 
8 1:0.146824 2:-0.189275 3:0.780851 4:0.979784 5:-0.545888 6:0.212555 7:0.334689 8:0.366539 9:0.676867 10:-0.46515 11:0.11713 12:0.515268 13:-0.486919 14:-0.44797 15:0.657831 
6.518273484142817 1:0.578923 2:-0.863387 3:-0.592691 4:-0.0995325 5:-0.716446 6:-0.473507 7:-0.830547 8:0.0314512 9:0.507252 10:0.568001 11:0.631352 12:0.906368 13:-0.342185 14:-0.632607 15:0.334298 
8 1:-0.0322263 2:0.559172 3:-0.70286 4:-0.338625 5:0.842361 6:-0.489702 7:-0.0115527 8:-0.511273 9:0.749258 10:0.0889973 11:0.978441 12:0.0549302 13:-0.662045 14:0.267784 15:-0.380491 
6.38172220939853 1:-0.293818 2:-0.618564 3:0.658027 4:0.330509 5:0.817211 6:0.670401 7:-0.515238 8:-0.786054 9:0.808505 10:-0.109642 11:-0.0552937 12:-0.388004 13:-0.737477 14:-0.0154534 15:0.794644 
8 1:-0.687593 2:0.313156 3:-0.386929 4:-0.999595 5:-0.880412 6:0.372089 7:-0.358681 8:-0.337254 9:0.423067 10:-0.343538 11:-0.249561 12:-0.347835 13:-0.441242 14:-0.691803 15:-0.0948724 
8 1:-0.494427 2:-0.564274 3:-0.952404 4:-0.0431876 5:-0.378149 6:0.300038 7:0.0873968 8:-0.0822172 9:0.705001 10:-0.220606 11:0.765524 12:-0.908605 13:-0.766486 14:0.958714 15:-0.258999 
5.888502676134024 1:0.184561 2:-0.773772 3:0.430555 4:0.536634 5:-0.610173 6:0.648599 7:-0.817747 8:-0.087145 9:0.328244 10:0.131535 11:0.60238 12:0.298472 13:-0.0889442 14:-0.832661 15:-0.930432 
7.257302824208914 1:-0.87523 2:-0.490953 3:0.881473 4:0.747493 5:0.951229 6:0.602334 7:-0.225753 8:0.812399 9:-0.295843 10:-0.862501 11:-0.794198 12:0.466276 13:0.108668 14:-0.778611 15:-0.352468 
3.759796685594084 1:-0.41213 2:-0.411992 3:-0.394977 4:-0.523417 5:0.95338 6:-0.928577 7:0.247878 8:-0.569165 9:-0.689214 10:0.255276 11:-0.120232 12:-0.498444 13:0.0231647 14:-0.927207 15:-0.893536 
8 1:-0.28041 2:-0.693223 3:-0.150426 4:0.210742 5:0.872724 6:0.0697174 7:0.938641 8:0.111065 9:0.33094 10:0.0519839 11:0.876696 12:-0.569014 13:-0.500025 14:0.601602 15:0.0597501 
8 1:0.00633237 2:-0.42169 3:-0.709509 4:-0.766331 5:-0.587687 6:-0.128822 7:0.486067 8:-0.481098 9:0.092637 10:-0.433777 11:-0.557034 12:-0.928262 13:0.270034 14:0.631095 15:0.717977 
8 1:0.295579 2:-0.0107307 3:-0.169414 4:-0.0476779 5:-0.378407 6:0.413274 7:0.204197 8:-0.34049 9:0.456383 10:-0.443017 11:-0.47057 12:0.186108 13:-0.761816 14:0.46007 15:0.149069 
8 1:-0.525347 2:-0.619969 3:-0.941278 4:-0.57652 5:0.336049 6:0.90814 7:-0.452246 8:-0.72249 9:0.993123 10:0.103929 11:0.782173 12:0.313885 13:-0.397776 14:0.0441457 15:0.988094 
8 1:-0.609708 2:-0.829487 3:-0.316062 4:0.706972 5:0.577943 6:0.118643 7:0.839681 8:0.166305 9:0.360305 10:-0.238105 11:-0.0939337 12:-0.761671 13:0.0728882 14:0.209634 15:0.460168 
8 1:-0.372998 2:-0.460443 3:-0.626999 4:-0.751084 5:0.384774 6:-0.999547 7:0.0928336 8:-0.782263 9:0.460589 10:0.218124 11:0.124045 12:0.225817 13:0.951085 14:0.581791 15:0.424698 
8 1:0.215561 2:-0.330728 3:-0.888572 4:-0.492828 5:-0.814799 6:-0.580939 7:0.997241 8:-0.058195 9:-0.824626 10:0.85915 11:-0.674218 12:-0.299777 13:0.274302 14:-0.434699 15:0.290821 
0.3471404511504005 1:0.826197 2:0.804508 3:0.0658752 4:-0.942289 5:0.596846 6:0.861386 7:0.924638 8:-0.506247 9:-0.136699 10:-0.408095 11:0.610768 12:0.630012 13:-0.114352 14:-0.357793 15:-0.204985 
7.02016486867579 1:-0.707215 2:-0.467961 3:0.46447 4:0.621088 5:-0.330946 6:0.667305 7:-0.845854 8:0.85182 9:-0.776314 10:0.917462 11:0.355021 12:0.0983271 13:-0.587295 14:-0.17077 15:0.530671 
8 1:0.614288 2:-0.289323 3:-0.977222 4:-0.364156 5:0.854751 6:0.760001 7:-0.769329 8:0.909112 9:-0.952842 10:0.923329 11:-0.405383 12:-0.352676 13:0.908495 14:-0.68667 15:0.491968 
3.065949694505085 1:0.993759 2:-0.302256 3:-0.774152 4:-0.485815 5:0.0602975 6:0.409946 7:0.430725 8:0.0258495 9:-0.396858 10:0.720889 11:0.522935 12:0.817811 13:0.822343 14:-0.38442 15:0.406761 
2.07511333079565 1:-0.370657 2:-0.657841 3:0.77487 4:-0.894655 5:-0.995753 6:0.438042 7:-0.748524 8:-0.031462 9:-0.461508 10:-0.684648 11:0.468458 12:0.88035 13:-0.0447283 14:-0.819973 15:-0.49005 
4.925714567291483 1:0.280504 2:-0.761164 3:-0.969331 4:0.835906 5:-0.524198 6:0.625535 7:-0.596297 8:-0.974675 9:-0.954201 10:0.464655 11:0.0873475 12:0.0656529 13:0.600319 14:0.97878 15:0.245645 
8 1:0.444679 2:-0.7807 3:0.0723754 4:0.0505632 5:-0.632907 6:-0.152655 7:-0.0357312 8:-0.464747 9:-0.898187 10:0.180078 11:-0.150982 12:-0.852976 13:-0.651622 14:-0.877815 15:-0.314402 
8 1:-0.460845 2:-0.691036 3:-0.352448 4:0.503349 5:0.199841 6:-0.692093 7:-0.767524 8:0.953134 9:-0.258072 10:0.0690329 11:0.324277 12:-0.248769 13:0.525089 14:0.3621 15:-0.598455 
8 1:-0.692896 2:-0.0427165 3:-0.958283 4:-0.0799641 5:-0.253726 6:-0.326962 7:0.33256 8:0.313141 9:0.782129 10:-0.62335 11:-0.463108 12:-0.228604 13:0.317536 14:0.0496249 15:0.163863 
7.932508861068674 1:-0.67259 2:0.593089 3:-0.58659 4:-0.829026 5:-0.306483 6:-0.671202 7:0.295755 8:-0.861039 9:0.928387 10:-0.21486 11:0.843781 12:-0.717784 13:-0.637018 14:0.299152 15:-0.906886 
8 1:-0.471291 2:0.0689734 3:0.159192 4:-0.692952 5:0.206349 6:-0.281019 7:0.150107 8:-0.344726 9:0.970389 10:-0.613283 11:-0.754798 12:-0.608468 13:0.52518 14:-0.406766 15:0.7404 
