svm_type c_svc
kernel_type rbf
gamma 0.03125
nr_class 2
total_sv 1847
rho -0.320446
label 0 1
nr_sv 927 920
SV
512 1:0.0636127 2:0.380107 3:0.658815 4:-0.0872988 5:0.647891 6:0.582826 7:0.215905 8:-0.512793 9:-0.881548 10:-0.662003 11:-0.342531 12:-0.330281 13:-0.133104 14:-0.528575 15:-0.955644 
229.3734234622484 1:0.176729 2:0.590695 3:0.151191 4:0.847908 5:-0.575375 6:0.726364 7:0.235757 8:0.622182 9:-0.961381 10:0.531342 11:-0.390647 12:-0.647167 13:-0.00199188 14:0.762596 15:-0.0306144 
512 1:-0.183738 2:0.968607 3:-0.524408 4:-0.852761 5:-0.248285 6:-0.485796 7:0.447009 8:-0.445886 9:-0.663103 10:0.608694 11:0.0399899 12:-0.363044 13:-0.0353499 14:0.77369 15:-0.55248 
512 1:-0.950534 2:0.526728 3:0.0743164 4:-0.0950077 5:0.231345 6:-0.997047 7:-0.128529 8:-0.697633 9:-0.414855 10:-0.47536 11:0.557029 12:-0.0383646 13:-0.438134 14:-0.492666 15:-0.410414 
512 1:-0.949541 2:0.256388 3:0.514188 4:-0.0486756 5:0.247248 6:0.335233 7:-0.445192 8:-0.999801 9:-0.198823 10:-0.0572019 11:-0.818308 12:-0.645881 13:-0.389021 14:-0.238784 15:-0.428301 
132.0105697481195 1:0.787477 2:0.792821 3:-0.415209 4:-0.53723 5:-0.350815 6:0.966222 7:-0.66731 8:-0.36583 9:-0.546995 10:-0.119271 11:0.953807 12:0.137124 13:0.761109 14:-0.202302 15:-0.142309 
512 1:0.846457 2:-0.785628 3:-0.611719 4:-0.397554 5:-0.217446 6:0.525229 7:-0.29695 8:0.548668 9:0.690555 10:0.048978 11:-0.386963 12:-0.405001 13:-0.415253 14:-0.57971 15:0.251847 
512 1:-0.0969452 2:-0.115866 3:-0.1323 4:0.597725 5:-0.0311729 6:-0.747983 7:0.593925 8:-0.833363 9:0.435388 10:0.441082 11:-0.845933 12:-0.369798 13:0.110741 14:0.35101 15:-0.12771 
512 1:-0.705619 2:0.490853 3:-0.115303 4:0.45753 5:0.437654 6:-0.242366 7:-0.891648 8:0.839641 9:-0.176997 10:-0.672148 11:0.0823513 12:0.469864 13:-0.564182 14:-0.730581 15:0.21818 
359.430404696578 1:0.899839 2:0.572835 3:-0.938376 4:0.949106 5:-0.492631 6:0.783025 7:0.321657 8:0.295533 9:-0.143904 10:0.834985 11:0.458063 12:0.768493 13:-0.372581 14:-0.109395 15:-0.14106 
217.0743471744575 1:0.157974 2:0.081411 3:0.0163445 4:-0.175507 5:-0.716611 6:-0.398122 7:-0.513922 8:-0.058049 9:0.56188 10:-0.0551451 11:-0.531129 12:-0.89768 13:0.918337 14:0.362259 15:0.148783 
466.1956349727042 1:0.497202 2:-0.60629 3:0.789807 4:-0.890075 5:0.811156 6:0.9223 7:0.403673 8:0.0698136 9:0.842928 10:0.814911 11:0.479011 12:0.923883 13:0.475372 14:-0.564366 15:-0.612895 
512 1:0.318227 2:0.643428 3:-0.486118 4:-0.0706168 5:0.695618 6:0.465034 7:0.48816 8:0.882312 9:0.0174587 10:0.670303 11:-0.8064 12:0.602436 13:0.729684 14:0.961277 15:-0.706242 
512 1:0.273714 2:0.277675 3:-0.584077 4:0.871737 5:0.764548 6:-0.634504 7:-0.388405 8:0.982389 9:-0.776547 10:-0.703463 11:-0.516119 12:-0.522021 13:-0.418597 14:0.36983 15:0.273654 
80.11164106920299 1:-0.530735 2:0.775927 3:-0.706101 4:0.616794 5:0.904525 6:-0.587496 7:-0.956596 8:-0.588344 9:-0.877683 10:0.30982 11:0.658526 12:-0.191557 13:0.0799803 14:0.976124 15:0.130588 
9.971669666055352 1:0.0192293 2:-0.950704 3:-0.190995 4:0.792827 5:-0.341167 6:0.794622 7:-0.46892 8:0.438626 9:0.0795578 10:0.19404 11:-0.746588 12:0.676233 13:-0.453453 14:0.240132 15:-0.620536 
406.7023887349117 1:-0.815875 2:-0.512198 3:0.0305831 4:0.496349 5:-0.861044 6:0.134225 7:0.217808 8:-0.331944 9:0.468779 10:0.344745 11:0.108892 12:-0.842117 13:-0.73087 14:-0.742507 15:0.031358 
451.3888227268515 1:0.163375 2:0.866586 3:-0.595995 4:0.205112 5:0.5154 6:0.753748 7:-0.334519 8:0.522728 9:0.580649 10:-0.7054 11:-0.924525 12:0.509955 13:-0.691389 14:0.351886 15:0.291788 
512 1:-0.14766 2:-0.727035 3:0.998783 4:-0.512395 5:-0.43579 6:-0.763176 7:0.020443 8:-0.113528 9:0.878889 10:0.653043 11:0.820248 12:0.335729 13:0.107959 14:0.5682 15:0.0499109 
512 1:-0.0461158 2:0.726716 3:-0.291966 4:-0.579972 5:-0.469968 6:-0.870153 7:0.165456 8:-0.0189795 9:-0.176628 10:0.771187 11:0.414948 12:0.104225 13:0.137689 14:-0.396015 15:0.739554 
512 1:0.131647 2:-0.0912738 3:0.481514 4:-0.878113 5:-0.413606 6:0.86155 7:0.778927 8:-0.54119 9:-0.358073 10:-0.833225 11:-0.436291 12:-0.688739 13:-0.928236 14:-0.449621 15:-0.0640321 
512 1:0.27129 2:0.882349 3:-0.226425 4:-0.096227 5:-0.469295 6:-0.119848 7:0.762773 8:-0.376532 9:-0.0278215 10:-0.233879 11:0.810365 12:-0.346066 13:0.206002 14:0.578532 15:-0.521223 
512 1:0.196883 2:0.630328 3:-0.502667 4:0.742567 5:-0.12624 6:0.299262 7:0.833773 8:-0.814728 9:-0.344075 10:-0.32292 11:-0.539229 12:-0.641777 13:-0.335737 14:-0.972183 15:-0.377843 
512 1:0.969427 2:-0.603625 3:0.434773 4:-0.787207 5:-0.406064 6:0.59643 7:-0.930251 8:0.250964 9:0.0762075 10:0.0520374 11:0.389142 12:0.448011 13:-0.685637 14:-0.324155 15:-0.222987 
512 1:-0.469867 2:-0.692759 3:-0.199447 4:-0.372084 5:0.459877 6:0.297498 7:0.151894 8:-0.113841 9:0.96418 10:-0.508541 11:-0.925729 12:0.890146 13:-0.785996 14:0.291392 15:0.29023 
113.9948916182287 1:0.615978 2:-0.919002 3:-0.153394 4:-0.212647 5:0.843217 6:0.15825 7:0.571904 8:-0.115238 9:0.967478 10:-0.391615 11:0.0457052 12:0.0707268 13:-0.706378 14:-0.0945641 15:-0.631943 
339.826377607225 1:-0.514492 2:0.263639 3:0.134235 4:-0.678625 5:0.81979 6:0.00602797 7:0.671627 8:-0.564238 9:-0.508559 10:-0.916977 11:0.354629 12:-0.318045 13:0.26609 14:0.414298 15:-0.054618 
512 1:0.393211 2:0.664935 3:0.892658 4:-0.171254 5:-0.590278 6:0.0986223 7:-0.726962 8:-0.492737 9:-0.357489 10:0.249745 11:-0.138268 12:-0.477681 13:-0.526536 14:-0.902311 15:0.564844 
67.94955117037129 1:0.705171 2:0.434245 3:0.753131 4:-0.745123 5:0.677605 6:0.00737762 7:0.72634 8:-0.772603 9:-0.466878 10:-0.490278 11:0.565292 12:0.885831 13:-0.655839 14:-0.937897 15:-0.670191 
512 1:0.328449 2:0.267879 3:-0.499133 4:0.650042 5:-0.256499 6:-0.409805 7:-0.391381 8:-0.346431 9:-0.140532 10:0.511838 11:-0.81678 12:-0.888153 13:-0.786556 14:0.0861644 15:0.682753 
512 1:0.571225 2:0.266754 3:0.836429 4:-0.260861 5:-0.490217 6:0.470295 7:-0.063147 8:0.802895 9:-0.957715 10:0.849717 11:-0.162811 12:-0.114003 13:-0.640481 14:0.131295 15:0.0521397 
512 1:0.695074 2:-0.39701 3:0.592116 4:-0.571218 5:-0.896096 6:-0.834807 7:0.681421 8:0.528287 9:0.685207 10:0.300449 11:0.817239 12:-0.160861 13:-0.406176 14:-0.54498 15:0.48428 
244.5998373138838 1:0.727304 2:0.0902365 3:-0.437935 4:-0.278858 5:-0.598814 6:0.540016 7:-0.64761 8:-0.368023 9:-0.558196 10:0.340951 11:-0.623206 12:-0.360259 13:-0.687147 14:-0.904344 15:0.784683 
38.35461157791136 1:0.952499 2:-0.939705 3:-0.848818 4:0.936826 5:0.899159 6:0.946157 7:0.905104 8:-0.786821 9:-0.101345 10:0.465637 11:-0.988946 12:0.857009 13:-0.829445 14:0.46219 15:0.661105 
512 1:-0.658861 2:0.633064 3:0.0271927 4:0.138588 5:0.723647 6:0.202296 7:0.764545 8:0.0905503 9:0.836358 10:-0.564854 11:0.774965 12:0.147278 13:-0.770479 14:-0.223045 15:0.0593174 
230.0120092941614 1:0.0960894 2:0.455636 3:-0.795691 4:-0.574527 5:-0.775652 6:-1 7:0.474155 8:0.874117 9:0.825075 10:-0.580235 11:-0.62873 12:0.308296 13:-0.362229 14:0.369749 15:0.915073 
497.7867194143162 1:-0.776789 2:0.634842 3:-0.0892517 4:0.0245982 5:0.866331 6:0.32902 7:-0.68842 8:-0.084323 9:0.00408947 10:0.292355 11:0.080229 12:-0.361292 13:0.760938 14:-0.0251798 15:0.282967 
512 1:-0.956088 2:0.441233 3:-0.134473 4:-0.737465 5:-0.598374 6:-0.311382 7:-0.288767 8:0.322948 9:-0.0544505 10:-0.82359 11:0.824321 12:0.955829 13:0.925896 14:-0.923559 15:-0.304789 
436.0263825541578 1:-0.764681 2:-0.626332 3:0.547063 4:-0.295647 5:-0.535091 6:0.617926 7:0.0862159 8:-0.939828 9:0.740344 10:0.73762 11:-0.64228 12:-0.212321 13:0.551976 14:-0.574863 15:-0.177101 
512 1:0.661493 2:0.602288 3:0.376662 4:0.460633 5:-0.194211 6:-0.311166 7:-0.366368 8:-0.958092 9:0.373844 10:0.35563 11:0.1131 12:0.638054 13:0.483563 14:0.96448 15:0.313494 
317.3735919078377 1:0.925411 2:0.691224 3:0.762137 4:-0.934171 5:-0.161583 6:-0.383693 7:0.945364 8:0.340327 9:-0.578669 10:0.902228 11:-0.496022 12:-0.771792 13:0.0657791 14:0.429767 15:-0.801798 
512 1:-0.141601 2:-0.285963 3:0.170809 4:0.692967 5:0.496457 6:-0.873498 7:-0.637293 8:-0.564945 9:0.461601 10:0.745284 11:-0.653064 12:-0.0287264 13:-0.231732 14:0.308796 15:0.265814 
344.5447050957052 1:0.267637 2:-0.49364 3:0.996487 4:-0.558267 5:0.364872 6:-0.787905 7:-0.268678 8:-0.96032 9:0.815334 10:0.812825 11:0.0468913 12:0.101356 13:-0.136602 14:-0.520628 15:0.809348 
470.4388021035409 1:0.824049 2:0.368884 3:-0.205688 4:-0.834832 5:-0.202262 6:-0.701 7:0.302886 8:0.0312636 9:0.0204741 10:0.0521646 11:-0.614503 12:0.47681 13:0.610898 14:-0.734664 15:-0.0588882 
434.2569015128486 1:-0.795435 2:-0.209079 3:-0.320736 4:-0.531403 5:0.873636 6:-0.0599524 7:0.0403639 8:-0.688066 9:0.938916 10:0.577013 11:0.480047 12:0.261626 13:0.874778 14:0.333049 15:-0.00979065 
512 1:-0.119365 2:0.458062 3:-0.820927 4:-0.754394 5:0.0322482 6:-0.819898 7:0.981425 8:-0.847668 9:0.87708 10:0.961114 11:-0.8639 12:-0.814323 13:-0.109453 14:-0.364457 15:0.70909 
512 1:-0.848174 2:0.133802 3:-0.737815 4:-0.971086 5:-0.00663927 6:-0.86966 7:-0.999865 8:-0.59597 9:0.459335 10:-0.633039 11:-0.471371 12:-0.252425 13:-0.861282 14:-0.0777424 15:-0.396117 
512 1:-0.557196 2:-0.0655216 3:0.757938 4:-0.530993 5:-0.107471 6:0.791439 7:0.623496 8:0.504464 9:-0.25995 10:0.39727 11:0.272935 12:0.672638 13:-0.594777 14:0.975411 15:-0.529646 
26.1491707056113 1:-0.609264 2:-0.332959 3:-0.0334735 4:0.988579 5:-0.896825 6:-0.832009 7:0.15246 8:0.696059 9:-0.120371 10:0.227028 11:-0.94672 12:-0.957871 13:-0.525198 14:-0.900722 15:0.0750461 
99.06199053324205 1:0.298163 2:0.540099 3:0.249167 4:0.88896 5:0.7657 6:0.766244 7:-0.184814 8:-0.467829 9:0.26958 10:-0.248184 11:-0.890957 12:0.152903 13:0.798241 14:-0.290108 15:0.459959 
512 1:-0.178352 2:0.523937 3:-0.213155 4:0.118713 5:-0.25892 6:-0.747085 7:0.845065 8:0.986848 9:0.110116 10:0.453999 11:-0.751372 12:0.681978 13:0.56408 14:-0.580502 15:-0.883447 
508.2756788223867 1:-0.932937 2:0.759594 3:-0.341274 4:0.719078 5:0.67195 6:-0.696364 7:0.235881 8:-0.232277 9:0.744623 10:0.65047 11:-0.851017 12:-0.522832 13:0.998204 14:0.996403 15:0.398838 
512 1:0.894767 2:0.785806 3:0.879755 4:-0.0459 5:0.364427 6:-0.817648 7:0.841373 8:-0.351198 9:0.270494 10:0.758284 11:-0.245605 12:0.0147722 13:-0.325545 14:-0.574133 15:-0.415789 
70.06660240486725 1:-0.634077 2:-0.936189 3:0.960757 4:0.0710034 5:0.0629678 6:-0.282162 7:-0.383378 8:-0.861309 9:0.975729 10:-0.812796 11:-0.912393 12:-0.790748 13:-0.833146 14:-0.192721 15:-0.189814 
512 1:-0.610658 2:0.65162 3:0.427258 4:-0.381945 5:-0.600436 6:-0.895078 7:0.902419 8:0.176737 9:-0.349621 10:0.246182 11:-0.961401 12:-0.193618 13:0.45787 14:-0.687841 15:-0.450646 
512 1:-0.648998 2:0.074435 3:-0.127389 4:0.0892923 5:-0.229025 6:-0.332704 7:-0.399407 8:-0.580446 9:0.954005 10:-0.470135 11:0.0128981 12:-0.657799 13:-0.712194 14:-0.595607 15:-0.0470131 
68.83765708947904 1:0.728144 2:0.72103 3:0.0594666 4:0.979395 5:-0.172876 6:0.87335 7:-0.847696 8:0.966303 9:0.32841 10:0.953748 11:-0.788557 12:0.615968 13:0.425965 14:0.773297 15:0.876929 
512 1:0.456076 2:0.279342 3:0.457586 4:0.392892 5:-0.961002 6:-0.220299 7:-0.15525 8:0.711224 9:-0.770318 10:-0.443285 11:-0.659655 12:0.261893 13:-0.863378 14:0.307517 15:0.887611 
512 1:-0.177879 2:0.954883 3:0.955837 4:0.389177 5:0.86745 6:0.329242 7:-0.643149 8:-0.9406 9:0.965924 10:-0.311762 11:-0.0697829 12:-0.900235 13:-0.587413 14:0.244065 15:0.758421 
512 1:0.421133 2:0.354341 3:-0.46858 4:-0.526414 5:0.949059 6:0.374045 7:0.705135 8:0.316707 9:0.550165 10:0.683939 11:-0.384624 12:-0.904823 13:-0.987732 14:-0.284891 15:-0.696771 
471.7056928906957 1:0.980976 2:0.242697 3:0.976751 4:0.277519 5:-0.809201 6:0.866125 7:0.337269 8:-0.726233 9:0.196635 10:0.880607 11:-0.0977998 12:0.16901 13:-0.545824 14:-0.598607 15:-0.920903 
217.612737819271 1:-0.561182 2:0.362956 3:-0.901601 4:-0.412927 5:0.687787 6:-0.476858 7:0.90622 8:0.186066 9:-0.745474 10:-0.428811 11:-0.598888 12:-0.948803 13:0.745628 14:-0.924903 15:0.867437 
512 1:-0.832906 2:0.939015 3:0.106905 4:-0.793439 5:-0.0776461 6:-0.134228 7:0.566404 8:0.691856 9:-0.104356 10:0.140992 11:-0.497167 12:-0.374137 13:-0.188777 14:0.938793 15:0.207213 
512 1:-0.0741258 2:-0.2132 3:-0.587703 4:-0.509462 5:-0.205409 6:0.496418 7:0.828904 8:-0.849376 9:0.511619 10:0.414093 11:0.402726 12:0.782588 13:-0.603357 14:0.109303 15:-0.53575 
512 1:-0.550464 2:-0.584807 3:0.416503 4:-0.715462 5:-0.269773 6:0.580523 7:-0.796657 8:-0.423606 9:-0.340868 10:-0.273577 11:-0.355855 12:-0.787102 13:-0.887157 14:0.0680646 15:0.153604 
512 1:0.122317 2:0.0863829 3:0.962357 4:-0.836225 5:0.698982 6:-0.208693 7:-0.792194 8:0.0707917 9:-0.160658 10:-0.430585 11:-0.0824713 12:-0.826979 13:0.132346 14:0.126813 15:-0.791791 
512 1:-0.986137 2:-0.127785 3:0.396676 4:0.722514 5:-0.396297 6:0.407739 7:-0.257739 8:0.344803 9:0.813971 10:0.19141 11:0.675291 12:-0.809875 13:-0.754859 14:0.13014 15:0.0333049 
469.7563142751409 1:-0.872587 2:0.822628 3:-0.037662 4:-0.58014 5:-0.149883 6:0.284664 7:0.410901 8:-0.396909 9:-0.461218 10:0.800272 11:0.497216 12:-0.499018 13:-0.529357 14:0.177098 15:0.884032 
512 1:0.235061 2:0.605118 3:0.896003 4:0.170414 5:0.309532 6:-0.666948 7:-0.108989 8:0.568777 9:-0.217487 10:0.0010754 11:0.0195644 12:-0.595494 13:-0.122659 14:-0.662634 15:0.724667 
64.63834382254176 1:0.16068 2:0.410896 3:0.0599677 4:-0.398914 5:-0.917006 6:0.752052 7:-0.335479 8:-0.550273 9:-0.444497 10:0.752375 11:-0.933338 12:0.653135 13:0.283655 14:0.557622 15:-0.386568 
340.0188490152572 1:0.0174596 2:0.192528 3:-0.900082 4:-0.876011 5:-0.371411 6:0.0407781 7:-0.498209 8:0.723867 9:0.449359 10:0.179482 11:-0.415002 12:-0.87304 13:0.564188 14:0.0435982 15:0.825512 
186.4836883326362 1:-0.793995 2:0.383787 3:-0.801268 4:0.382713 5:0.54699 6:0.406519 7:0.415078 8:0.519915 9:0.127712 10:-0.59214 11:-0.593377 12:0.134689 13:0.888048 14:-0.760496 15:0.335433 
512 1:-0.177727 2:0.223808 3:0.378192 4:-0.163927 5:0.785098 6:0.140482 7:0.485384 8:-0.322389 9:0.486135 10:-0.0539013 11:0.447411 12:-0.471621 13:0.2827 14:-0.424896 15:0.627158 
85.39429405777153 1:0.575661 2:0.553637 3:-0.0980609 4:-0.0162612 5:0.599376 6:-0.945494 7:0.507688 8:-0.750434 9:0.876253 10:0.0827797 11:0.347501 12:0.984893 13:-0.125538 14:-0.510023 15:-0.642628 
512 1:-0.652351 2:-0.0721108 3:-0.581633 4:-0.288 5:-0.595589 6:0.2503 7:0.999222 8:0.979031 9:-0.865792 10:-0.714405 11:-0.750186 12:-0.499009 13:0.534885 14:0.54035 15:-0.977464 
251.0973609936148 1:-0.379636 2:0.33285 3:0.123106 4:0.887743 5:-0.201957 6:0.804794 7:0.465336 8:-0.97952 9:-0.537842 10:0.494866 11:0.398165 12:0.0556077 13:-0.834165 14:0.122077 15:-0.244987 
512 1:-0.376474 2:0.719642 3:-0.821947 4:0.785895 5:0.939198 6:-0.62944 7:0.029807 8:0.954971 9:-0.688244 10:-0.0335651 11:0.526681 12:0.50177 13:0.52595 14:0.836314 15:-0.177037 
512 1:-0.838824 2:0.478993 3:0.251061 4:-0.0131259 5:0.862096 6:-0.591241 7:0.582612 8:0.953652 9:0.378882 10:0.783156 11:0.484778 12:0.483538 13:-0.0520366 14:-0.304033 15:0.328882 
512 1:-0.21728 2:0.552893 3:0.0861939 4:-0.684677 5:0.70749 6:0.215066 7:-0.580573 8:-0.0848698 9:-0.0910093 10:-0.694406 11:0.27481 12:-0.0343909 13:0.839366 14:0.103289 15:-0.630366 
178.321280443189 1:0.810349 2:-0.548506 3:-0.95738 4:-0.310509 5:0.533125 6:-0.276479 7:-0.736213 8:0.576388 9:0.962843 10:0.640656 11:-0.199899 12:0.145738 13:0.139172 14:-0.41009 15:-0.229161 
512 1:-0.830495 2:0.819928 3:0.0135725 4:-0.98815 5:0.59469 6:-0.0289163 7:0.416848 8:-0.803441 9:-0.864215 10:0.539998 11:-0.120054 12:0.354617 13:0.0658957 14:0.131549 15:0.334371 
512 1:-0.962971 2:0.087944 3:0.892957 4:0.479146 5:0.548538 6:0.0521503 7:-0.256148 8:-0.720264 9:0.00366925 10:0.2102 11:0.0681425 12:0.448974 13:-0.839611 14:0.0458842 15:0.781466 
354.5491457461564 1:-0.709429 2:-0.0339818 3:0.0955464 4:0.539791 5:-0.618053 6:-0.317907 7:0.924253 8:0.975221 9:0.676726 10:-0.17258 11:-0.437066 12:-0.397486 13:-0.0100721 14:-0.829067 15:0.497094 
512 1:0.208996 2:-0.122694 3:-0.409589 4:-0.941515 5:-0.106578 6:-0.172206 7:-0.411735 8:0.623447 9:0.99944 10:-0.124752 11:-0.201194 12:-0.0157912 13:0.510072 14:-0.684068 15:-0.0792494 
136.3001499052019 1:-0.0697109 2:0.125862 3:0.0652763 4:0.938055 5:0.0941147 6:0.863476 7:-0.11768 8:0.228671 9:0.450329 10:-0.0830537 11:-0.569511 12:0.656221 13:-0.329832 14:0.410332 15:-0.657862 
10.75088219508758 1:0.776163 2:-0.837589 3:-0.486895 4:-0.788983 5:0.756068 6:-0.878783 7:0.0117448 8:-0.561135 9:0.177573 10:0.475639 11:0.402713 12:0.276037 13:0.513041 14:0.981523 15:0.306995 
512 1:-0.821285 2:-0.742358 3:0.420045 4:0.173697 5:-0.12034 6:0.650671 7:-0.126948 8:0.147781 9:0.592441 10:0.972217 11:0.940334 12:-0.405112 13:-0.573921 14:-0.979574 15:-0.26453 
498.7901188305587 1:-0.686919 2:-0.110303 3:0.292035 4:-0.429283 5:-0.60152 6:0.32299 7:-0.0489581 8:0.223248 9:0.693764 10:0.553508 11:-0.128188 12:0.613155 13:0.880854 14:0.769265 15:-0.802514 
512 1:0.858321 2:0.589278 3:0.6492 4:-0.656437 5:-0.383176 6:0.190346 7:0.791511 8:0.976696 9:-0.0875572 10:-0.442293 11:0.706503 12:-0.692982 13:0.524314 14:-0.369121 15:-0.273339 
512 1:-0.535029 2:0.639947 3:-0.961207 4:0.666884 5:-0.264646 6:0.0854822 7:-0.339216 8:0.0133584 9:-0.516364 10:-0.329651 11:0.595288 12:0.249988 13:-0.740559 14:-0.798073 15:-0.355069 
282.8695381804698 1:-0.990152 2:0.303167 3:-0.307216 4:0.103025 5:-0.992845 6:0.827474 7:-0.0824063 8:0.23129 9:0.628223 10:-0.895034 11:-0.723566 12:-0.86484 13:-0.483258 14:-0.49327 15:0.185319 
512 1:-0.962568 2:0.768378 3:0.269617 4:0.94008 5:-0.890145 6:0.296782 7:-0.25329 8:-0.498339 9:-0.404096 10:0.156237 11:0.197285 12:0.346201 13:0.736515 14:0.169617 15:-0.0110494 
194.5557913749874 1:0.18643 2:-0.78894 3:0.918802 4:-0.730778 5:-0.456316 6:-0.774942 7:-0.0998587 8:0.839568 9:-0.279392 10:0.147779 11:-0.0696721 12:-0.269766 13:-0.321615 14:-0.102504 15:0.861998 
4.073606701597097 1:0.416374 2:-0.471299 3:0.353084 4:-0.72866 5:-0.279536 6:-0.223718 7:0.241657 8:-0.799185 9:0.910991 10:-0.303309 11:0.499889 12:-0.0574508 13:0.974011 14:0.934573 15:-0.28571 
300.2693199650901 1:-0.149385 2:-0.274802 3:0.902565 4:-0.922248 5:-0.207061 6:-0.909757 7:-0.895387 8:0.419433 9:-0.269902 10:0.563217 11:0.821565 12:0.706514 13:0.0522252 14:0.0886144 15:-0.990347 
512 1:-0.218839 2:0.503992 3:0.798388 4:-0.752995 5:0.803831 6:-0.592449 7:-0.940827 8:-0.22479 9:0.88728 10:-0.282351 11:0.487493 12:0.692834 13:0.618655 14:-0.399481 15:-0.518001 
399.9890134186028 1:0.675987 2:0.33925 3:-0.0861282 4:-0.965293 5:-0.975462 6:-0.465588 7:0.799145 8:0.608725 9:-0.147358 10:-0.899545 11:-0.0857434 12:-0.602629 13:-0.540256 14:-0.105183 15:0.813155 
512 1:-0.097399 2:-0.812203 3:0.544756 4:-0.969777 5:-0.906496 6:-0.764812 7:0.732264 8:0.93143 9:0.62369 10:0.128777 11:-0.361618 12:-0.0959919 13:-0.0836468 14:0.547912 15:0.862887 
512 1:0.474851 2:0.840608 3:0.382588 4:0.0898149 5:-0.297827 6:0.435828 7:-0.825638 8:0.0661149 9:-0.260205 10:-0.27374 11:0.846928 12:-0.70839 13:-0.851453 14:0.435708 15:-0.362254 
512 1:0.793649 2:0.785721 3:0.740284 4:-0.939424 5:-0.254709 6:-0.157521 7:0.634757 8:-0.874537 9:-0.612388 10:-0.780536 11:0.53218 12:-0.404408 13:0.246646 14:-0.211954 15:-0.678554 
251.4499332316091 1:0.555907 2:-0.220077 3:0.779626 4:0.0442413 5:0.241652 6:0.0872907 7:-0.589819 8:-0.581126 9:0.75616 10:0.961309 11:0.216761 12:0.125467 13:0.225503 14:0.814495 15:0.912504 
253.1774263423085 1:-0.405937 2:0.478664 3:0.763572 4:0.836602 5:-0.507553 6:0.712759 7:0.585607 8:0.33461 9:0.378729 10:-0.348699 11:0.145944 12:-0.202342 13:0.721754 14:-0.117654 15:0.822826 
115.5054425162765 1:-0.471298 2:0.75819 3:0.900205 4:0.752521 5:-0.347211 6:0.0510453 7:-0.440617 8:-0.989412 9:0.886198 10:-0.48366 11:0.418259 12:0.122059 13:-0.0313898 14:0.634684 15:0.752456 
512 1:-0.290813 2:0.214019 3:0.765257 4:-0.465726 5:-0.148271 6:0.156308 7:-0.517745 8:0.149412 9:0.294846 10:-0.553234 11:0.0149153 12:0.0481362 13:-0.434713 14:0.940424 15:0.34207 
512 1:0.586748 2:0.538093 3:0.681421 4:0.645129 5:-0.93386 6:-0.635788 7:0.209628 8:0.52729 9:-0.49674 10:0.521816 11:-0.96622 12:0.856218 13:-0.928185 14:0.291613 15:0.474861 
9.780941738206591 1:0.907031 2:-0.092195 3:-0.783565 4:-0.695043 5:-0.360912 6:-0.436222 7:0.861233 8:-0.670008 9:0.695394 10:0.368315 11:0.520153 12:-0.15713 13:-0.601682 14:-0.546589 15:0.335569 
512 1:-0.447653 2:0.773644 3:-0.30481 4:0.150924 5:0.467669 6:0.0956284 7:0.201776 8:-0.202554 9:-0.919353 10:-0.055431 11:-0.484967 12:0.651794 13:0.460276 14:0.281273 15:-0.293961 
512 1:0.160384 2:0.457498 3:0.337112 4:0.397694 5:-0.160715 6:-0.12486 7:-0.244231 8:0.684734 9:-0.841338 10:-0.776151 11:-0.929063 12:-0.617186 13:0.101927 14:-0.281288 15:0.914118 
512 1:-0.30375 2:0.0688584 3:0.519041 4:0.640897 5:0.421694 6:0.773949 7:-0.963682 8:-0.206303 9:0.0561326 10:0.330673 11:0.599949 12:-0.482168 13:-0.891679 14:0.918243 15:-0.13181 
313.9777541719134 1:-0.169774 2:0.136305 3:0.834494 4:0.206107 5:-0.105718 6:0.307491 7:0.96043 8:0.998502 9:-0.278226 10:-0.340342 11:0.492072 12:0.24626 13:0.0603462 14:-0.64862 15:-0.423004 
411.4344724822371 1:-0.909065 2:0.391086 3:0.387905 4:-0.0175198 5:0.848207 6:-0.787736 7:-0.699854 8:0.63473 9:-0.192871 10:0.515704 11:-0.198001 12:-0.345414 13:-0.428783 14:-0.866368 15:0.756148 
512 1:-0.243406 2:0.877265 3:-0.602677 4:0.00660707 5:-0.0132852 6:-0.523635 7:-0.288595 8:0.715962 9:-0.578092 10:0.399049 11:-0.566666 12:-0.6173 13:0.357797 14:-0.758025 15:0.166765 
398.0372121072748 1:0.568077 2:0.79138 3:-0.361181 4:0.758023 5:0.868266 6:-0.715037 7:-0.0420429 8:0.309698 9:-0.915697 10:-0.870587 11:-0.280167 12:0.646333 13:0.0227228 14:0.603916 15:0.798281 
314.7499094561043 1:-0.94445 2:0.315565 3:-0.212984 4:0.0975631 5:0.406289 6:0.0255603 7:-0.248192 8:-0.63238 9:0.349439 10:0.0727939 11:-0.314453 12:-0.364339 13:0.0859858 14:-0.398822 15:0.148611 
512 1:0.829388 2:-0.0823358 3:0.672952 4:-0.515002 5:0.22097 6:0.866531 7:0.0633285 8:-0.748921 9:-0.160847 10:0.493076 11:-0.389648 12:-0.600074 13:-0.586814 14:-0.996556 15:-0.733729 
512 1:-0.906862 2:0.381711 3:-0.87391 4:0.946892 5:-0.231895 6:-0.6503 7:-0.428726 8:0.805906 9:-0.888797 10:-0.0263289 11:-0.828702 12:0.709532 13:-0.770956 14:-0.824208 15:-0.823168 
167.647339320091 1:-0.343588 2:-0.743406 3:0.780804 4:-0.685109 5:0.896433 6:0.082472 7:0.262279 8:-0.688199 9:0.502311 10:0.416555 11:0.840288 12:0.921841 13:0.134901 14:-0.479395 15:-0.735354 
411.2366810901417 1:-0.237671 2:-0.272784 3:0.851399 4:0.954511 5:0.762146 6:0.251756 7:0.837566 8:0.373135 9:0.0585724 10:-0.166476 11:-0.945894 12:0.201056 13:-0.464378 14:-0.0311612 15:-0.043559 
512 1:0.875908 2:-0.236638 3:0.491136 4:0.582216 5:-0.838373 6:-0.592396 7:0.342951 8:0.146394 9:0.0956585 10:0.011062 11:-0.926463 12:-0.477391 13:-0.38655 14:0.722627 15:-0.554196 
83.05693789321897 1:-0.723014 2:0.490724 3:-0.528632 4:-0.309924 5:-0.505377 6:-0.938567 7:0.915301 8:0.992649 9:0.173292 10:-0.167943 11:0.976298 12:0.0938408 13:-0.717098 14:-0.0630593 15:-0.445961 
296.1068679477437 1:-0.161828 2:0.380459 3:0.974173 4:0.11874 5:0.437507 6:0.477504 7:1 8:0.66093 9:-0.976813 10:-0.671317 11:0.313656 12:-0.826602 13:-0.280178 14:0.898333 15:0.841133 
512 1:-0.212131 2:0.6725 3:-0.596554 4:0.618411 5:0.735954 6:-0.521149 7:-0.789009 8:0.956904 9:-0.0315156 10:0.753681 11:-0.969967 12:-0.974377 13:-0.518771 14:-0.537085 15:-0.888522 
512 1:-0.249238 2:0.794327 3:-0.0966011 4:0.614565 5:-0.844697 6:0.261131 7:0.450285 8:0.222613 9:0.307278 10:0.932333 11:-0.0492927 12:-0.514005 13:0.464143 14:0.781433 15:0.781305 
512 1:-0.574252 2:0.0166366 3:0.0492399 4:0.164363 5:0.188744 6:0.469835 7:0.157844 8:-0.596135 9:-0.68964 10:0.4019 11:-0.956334 12:0.335412 13:-0.708206 14:-0.150412 15:-0.716564 
481.4684222376002 1:0.133067 2:0.664409 3:0.138821 4:0.686563 5:-0.524249 6:-0.465605 7:-0.0821987 8:0.342142 9:-0.198659 10:-0.735597 11:0.774117 12:0.184577 13:-0.91105 14:-0.860694 15:0.599145 
512 1:-0.80812 2:-0.503556 3:-0.794959 4:0.955884 5:-0.152992 6:-0.265647 7:0.133805 8:0.807476 9:0.260974 10:0.697438 11:-0.157753 12:-0.213684 13:-0.814119 14:0.48265 15:-0.728339 
87.53207435087792 1:0.421177 2:-0.210633 3:0.460062 4:-0.51153 5:-0.139645 6:0.630834 7:-0.193229 8:-0.886913 9:0.810521 10:0.196153 11:0.312003 12:-0.7574 13:0.118979 14:-0.729147 15:-0.804139 
512 1:-0.264241 2:-0.462642 3:0.972657 4:0.622342 5:0.0995661 6:0.266844 7:-0.732345 8:0.169198 9:0.380561 10:0.295429 11:-0.456398 12:-0.963965 13:-0.538103 14:0.829006 15:-0.627766 
254.1774125945628 1:-0.0858872 2:0.426524 3:0.486448 4:0.934372 5:-0.818124 6:0.287958 7:-0.586119 8:-0.320467 9:0.76515 10:-0.294357 11:-0.0406983 12:0.460505 13:-0.601325 14:0.410897 15:-0.502676 
512 1:0.863691 2:0.835063 3:0.10909 4:-0.116438 5:-0.352882 6:0.379817 7:0.0180464 8:0.500307 9:-0.413778 10:-0.347415 11:0.152831 12:-0.695185 13:-0.705626 14:0.823614 15:-0.691514 
376.193960435927 1:0.980246 2:0.856032 3:0.355382 4:0.0491633 5:0.869801 6:0.208153 7:0.811127 8:0.585333 9:-0.285166 10:0.796179 11:0.339507 12:-0.403526 13:0.391173 14:-0.441427 15:-0.73911 
212.5707479515239 1:0.625235 2:0.255713 3:-0.625332 4:-0.46249 5:-0.811041 6:0.579385 7:-0.877292 8:-0.294944 9:0.944671 10:0.787569 11:-0.109071 12:0.943781 13:0.826326 14:0.922545 15:0.857336 
512 1:0.577287 2:0.634254 3:0.811017 4:0.193774 5:0.409202 6:-0.72854 7:-0.00611397 8:-0.149756 9:-0.662429 10:-0.597838 11:-0.838934 12:0.631097 13:0.408403 14:-0.304059 15:-0.528282 
512 1:-0.791668 2:-0.00616907 3:-0.152526 4:-0.784426 5:0.961552 6:0.358846 7:-0.0395549 8:0.0798595 9:-0.252753 10:-0.0586402 11:-0.263908 12:-0.551318 13:-0.494138 14:-0.881053 15:-0.542777 
512 1:0.425631 2:0.326796 3:-0.334473 4:0.459505 5:0.215752 6:-0.793061 7:0.512732 8:-0.0150721 9:0.804459 10:-0.286465 11:-0.963977 12:-0.6669 13:-0.268491 14:0.00610377 15:-0.396322 
147.6894028989564 1:-0.371944 2:-0.0265768 3:-0.00925508 4:-0.550934 5:-0.832414 6:0.847215 7:0.687486 8:0.810208 9:-0.166904 10:0.0518083 11:-0.201897 12:0.829405 13:0.467432 14:-0.511345 15:-0.926216 
512 1:-0.00948179 2:-0.137975 3:0.834129 4:-0.247 5:0.580919 6:0.0729327 7:-0.97726 8:0.716256 9:-0.581775 10:0.932293 11:0.488498 12:-0.215438 13:-0.97703 14:-0.257013 15:-0.0545329 
186.9630834867848 1:0.917309 2:0.136734 3:-0.654721 4:-0.205933 5:-0.571509 6:0.0574073 7:-0.678967 8:0.754393 9:0.887306 10:0.984409 11:0.281752 12:0.724359 13:-0.0889924 14:-0.546503 15:0.453515 
512 1:-0.718212 2:-0.141702 3:0.28782 4:-0.724755 5:-0.496738 6:0.860029 7:-0.888578 8:-0.47656 9:-0.166846 10:-0.183574 11:-0.673893 12:-0.00864246 13:-0.1947 14:-0.701073 15:-0.405501 
512 1:0.272061 2:0.262457 3:0.0338354 4:-0.112381 5:-0.591331 6:0.575647 7:-0.974393 8:-0.0268473 9:0.9925 10:0.0497173 11:-0.815869 12:0.427877 13:0.923117 14:0.624868 15:-0.651698 
7.621615779977023 1:0.818043 2:0.0018618 3:-0.73451 4:-0.600047 5:-0.788501 6:0.694201 7:0.921272 8:0.475127 9:-0.910204 10:-0.715575 11:-0.105176 12:-0.846851 13:-0.464505 14:0.0279236 15:-0.0536651 
234.7089693355174 1:-0.0819796 2:-0.032505 3:-0.417105 4:0.536559 5:-0.83501 6:-0.718686 7:0.0845775 8:-0.581711 9:-0.175557 10:0.98849 11:-0.380467 12:-0.075396 13:-0.752955 14:-0.376481 15:0.961389 
512 1:-0.360262 2:0.408431 3:0.419767 4:0.874536 5:0.200671 6:-0.866929 7:-0.750717 8:0.6636 9:-0.32209 10:-0.548728 11:-0.666199 12:0.029639 13:-0.187738 14:0.0492436 15:-0.658474 
512 1:0.132334 2:0.108246 3:0.676817 4:-0.761563 5:-0.489374 6:-0.411628 7:0.97133 8:-0.000513617 9:-0.386464 10:-0.854302 11:0.335793 12:-0.211028 13:-0.794952 14:0.759384 15:-0.0399062 
512 1:0.4859 2:0.638344 3:0.944182 4:-0.468395 5:-0.387583 6:-0.282767 7:-0.871903 8:-0.780145 9:-0.459748 10:-0.654419 11:-0.418595 12:0.0209314 13:-0.853523 14:-0.623243 15:0.324892 
418.3990308870101 1:-0.71233 2:-0.865613 3:-0.797414 4:0.152342 5:0.994547 6:0.46641 7:0.693369 8:-0.0524365 9:-0.369624 10:-0.225632 11:-0.754549 12:-0.0702108 13:-0.496317 14:0.00201511 15:-0.441071 
512 1:0.133129 2:0.541413 3:-0.0442742 4:-0.697768 5:0.921573 6:0.0112817 7:0.491754 8:0.181318 9:0.319607 10:0.856417 11:-0.728313 12:0.0701264 13:-0.236836 14:-0.9781 15:-0.439646 
451.430258699717 1:-0.465879 2:-0.133503 3:-0.868283 4:-0.258811 5:0.523002 6:0.81408 7:0.269171 8:0.707766 9:0.875527 10:0.923448 11:-0.784317 12:0.0737094 13:-0.32824 14:0.600795 15:0.79305 
202.5614270822847 1:-0.7967 2:0.285811 3:0.496457 4:0.716635 5:-0.553678 6:-0.273129 7:-0.0582878 8:-0.730948 9:-0.265222 10:-0.414684 11:-0.389845 12:0.870154 13:-0.945932 14:-0.986235 15:-0.134978 
512 1:-0.489777 2:-0.704039 3:-0.0636899 4:0.979025 5:-0.131438 6:0.376221 7:0.633538 8:0.70283 9:-0.591632 10:-0.501191 11:-0.909095 12:0.199514 13:-0.817782 14:0.4621 15:-0.918876 
399.1494334847047 1:-0.754434 2:0.472934 3:0.57162 4:0.394646 5:-0.47751 6:-0.463146 7:-0.731202 8:-0.85865 9:-0.0460436 10:0.603971 11:0.905066 12:0.0309291 13:-0.202342 14:0.432873 15:0.562014 
512 1:0.19249 2:-0.872941 3:-0.560434 4:-0.0288078 5:-0.0929647 6:0.339411 7:0.0188403 8:0.758588 9:0.0485305 10:-0.704076 11:-0.84206 12:0.0998641 13:-0.957914 14:0.00313765 15:0.553015 
344.8030888179259 1:0.72337 2:0.791615 3:-0.331372 4:-0.328022 5:-0.592019 6:0.838639 7:0.640871 8:-0.103621 9:-0.542094 10:-0.929398 11:-0.819556 12:0.316816 13:0.762581 14:-0.338295 15:0.977674 
512 1:-0.641923 2:0.362492 3:0.0386431 4:0.482371 5:0.298773 6:0.348944 7:-0.529867 8:-0.57854 9:0.782239 10:-0.268527 11:0.551506 12:-0.196997 13:0.479645 14:-0.187908 15:0.876205 
512 1:-0.928589 2:0.817809 3:0.348111 4:0.691993 5:0.594825 6:0.709603 7:-0.0708982 8:-0.480595 9:-0.533435 10:-0.041272 11:0.602027 12:0.0506535 13:-0.467352 14:0.426474 15:-0.392982 
35.46255721745293 1:-0.284438 2:-0.905655 3:0.0706608 4:-0.837237 5:0.839659 6:-0.681502 7:-0.781984 8:0.500368 9:-0.699217 10:-0.994085 11:-0.300237 12:-0.491628 13:0.525741 14:0.65312 15:-0.277683 
434.3916056411741 1:0.604798 2:0.866994 3:-0.399046 4:-0.513918 5:0.677098 6:-0.215325 7:0.50688 8:0.700048 9:0.300026 10:0.406434 11:0.997008 12:0.871092 13:-0.138073 14:-0.0225332 15:-0.090792 
157.8960856026611 1:0.765996 2:0.544845 3:-0.129374 4:-0.845895 5:0.270397 6:-0.51848 7:-0.859894 8:-0.772867 9:0.691039 10:-0.647369 11:-0.602824 12:-0.0525466 13:-0.768956 14:0.215691 15:-0.0736679 
345.3390255725089 1:0.927139 2:0.790998 3:0.213751 4:0.928352 5:0.329434 6:0.425223 7:0.284975 8:-0.696838 9:0.875565 10:0.306794 11:-0.271508 12:0.133657 13:0.374932 14:0.641116 15:0.720662 
512 1:-0.442274 2:-0.307172 3:0.156688 4:-0.229857 5:-0.398252 6:-0.83824 7:-0.552771 8:0.589781 9:0.775643 10:0.138377 11:0.00717356 12:-0.453901 13:0.308196 14:0.341128 15:-0.787748 
2.399510901941153 1:0.166967 2:-0.986786 3:-0.0851122 4:0.216777 5:-0.488306 6:-0.653821 7:0.860421 8:0.402572 9:0.0931002 10:0.647982 11:-0.692218 12:-0.526428 13:-0.458454 14:0.53699 15:0.724984 
512 1:0.746477 2:0.220896 3:0.0497617 4:0.149462 5:-0.218818 6:-0.131701 7:0.695114 8:0.259826 9:-0.470326 10:0.42021 11:-0.98455 12:0.803694 13:-0.706008 14:0.720759 15:0.789858 
107.5226349407984 1:-0.117918 2:-0.0787141 3:0.510362 4:-0.958893 5:0.0251323 6:-0.694167 7:0.217893 8:0.659409 9:0.0797781 10:0.851075 11:-0.343297 12:-0.186375 13:0.141403 14:-0.188333 15:-0.745485 
512 1:0.97413 2:-0.345589 3:-0.110557 4:-0.448432 5:0.770456 6:0.373977 7:0.867244 8:0.309545 9:0.958666 10:0.655457 11:0.343516 12:-0.590702 13:-0.895909 14:0.631005 15:0.558516 
512 1:0.279457 2:-0.0945509 3:0.892141 4:-0.187537 5:-0.0353942 6:-0.822723 7:-0.010888 8:-0.751122 9:-0.480533 10:-0.224261 11:-0.730728 12:0.0672643 13:-0.922325 14:0.658339 15:0.295854 
258.4862055270895 1:0.599271 2:-0.241828 3:0.697056 4:0.117603 5:-0.573978 6:-0.856684 7:-0.624746 8:-0.946622 9:-0.713657 10:0.457936 11:-0.66879 12:-0.165065 13:-0.795506 14:0.0845011 15:-0.395278 
163.1701355182692 1:-0.754312 2:0.121312 3:-0.475318 4:0.619047 5:0.686267 6:-0.293629 7:-0.235557 8:-0.559913 9:0.931365 10:0.974137 11:-0.315544 12:-0.667834 13:-0.457224 14:0.805834 15:-0.080318 
204.2534024773464 1:-0.614367 2:0.466455 3:-0.533914 4:-0.522902 5:-0.747045 6:0.865584 7:0.903028 8:0.0851056 9:0.386262 10:-0.347924 11:0.949396 12:0.316217 13:0.584929 14:0.383145 15:0.221148 
512 1:0.497214 2:0.576628 3:0.925846 4:-0.87128 5:-0.341437 6:-0.706738 7:0.530399 8:-0.599967 9:0.303145 10:-0.731493 11:-0.602757 12:0.66938 13:-0.518242 14:-0.591065 15:-0.320048 
512 1:-0.15774 2:0.933088 3:-0.500329 4:0.88909 5:0.739657 6:-0.206991 7:-0.519015 8:-0.250315 9:-0.941153 10:0.584379 11:-0.434764 12:-0.277846 13:-0.20483 14:-0.648844 15:-0.511981 
512 1:0.454932 2:0.643559 3:0.0354055 4:-0.633799 5:-0.332932 6:-0.827454 7:-0.412881 8:-0.359555 9:0.697992 10:-0.224699 11:0.919429 12:0.134626 13:-0.677809 14:0.344684 15:-0.908268 
512 1:0.156757 2:-0.97365 3:-0.928508 4:-0.0412083 5:0.249704 6:-0.54033 7:0.337018 8:0.205354 9:0.465907 10:-0.159062 11:-0.416606 12:-0.253019 13:-0.610651 14:-0.568866 15:0.351991 
312.550149337411 1:0.0411027 2:0.231698 3:-0.0614342 4:-0.73878 5:-0.867526 6:-0.480745 7:0.320089 8:-0.734467 9:0.444847 10:0.998149 11:0.145496 12:0.88462 13:0.421188 14:-0.844673 15:0.735913 
286.7944335355136 1:-0.899121 2:0.163668 3:0.982898 4:-0.811964 5:-0.558011 6:0.630612 7:0.7727 8:0.563302 9:-0.773929 10:0.893596 11:-0.436376 12:0.123027 13:-0.4121 14:-0.397727 15:-0.180476 
512 1:0.922027 2:0.911316 3:0.640113 4:0.0256096 5:0.279153 6:0.657222 7:0.71709 8:-0.873528 9:-0.486029 10:0.44429 11:0.0324823 12:0.879916 13:-0.610918 14:-0.229692 15:-0.73113 
424.5961267196669 1:-0.568066 2:0.890955 3:0.776391 4:0.908394 5:0.0910942 6:0.551741 7:-0.674827 8:-0.163777 9:-0.399346 10:0.842076 11:-0.550662 12:-0.365041 13:0.417026 14:0.859519 15:0.125594 
20.04707040689955 1:-0.729798 2:0.156375 3:0.397847 4:-0.82387 5:0.495389 6:-0.361406 7:0.499066 8:-0.733041 9:-0.889943 10:0.330733 11:-0.640382 12:0.0646504 13:-0.261304 14:0.576148 15:0.965525 
337.6662469203159 1:-0.346513 2:0.216642 3:0.0148331 4:-0.772351 5:-0.575367 6:-0.51308 7:-0.473587 8:-0.283301 9:-0.782739 10:-0.443223 11:0.435119 12:-0.938801 13:-0.389295 14:-0.111558 15:-0.426175 
512 1:0.277707 2:0.439177 3:-0.186232 4:-0.0867875 5:0.298787 6:0.252258 7:0.603718 8:-0.171641 9:-0.554488 10:0.106854 11:-0.192004 12:-0.0889169 13:0.514716 14:-0.493497 15:-0.369178 
356.9014720680014 1:0.946257 2:-0.0947618 3:0.163853 4:-0.839164 5:0.650668 6:-0.798765 7:0.43595 8:0.616271 9:-0.962364 10:-0.671845 11:0.0565711 12:0.108575 13:-0.243833 14:-0.663744 15:-0.601359 
248.7156666226138 1:0.0981936 2:0.451918 3:-0.724831 4:0.424992 5:0.455505 6:0.403079 7:0.642805 8:-0.567337 9:-0.762042 10:-0.480319 11:-0.478047 12:0.0379771 13:-0.46962 14:-0.621736 15:0.797731 
512 1:0.7871 2:0.0433171 3:-0.128659 4:-0.69383 5:-0.578153 6:-0.383844 7:-0.642381 8:-0.526296 9:0.841031 10:-0.256853 11:-0.126502 12:-0.387971 13:-0.616441 14:0.570543 15:-0.0639671 
301.4804217933536 1:0.487541 2:0.408742 3:0.156829 4:0.423786 5:-0.791227 6:0.761858 7:-0.200416 8:-0.459687 9:-0.456458 10:-0.0658827 11:-0.912969 12:-0.168118 13:0.0711509 14:0.490983 15:0.240016 
237.1363107080998 1:-0.458578 2:-0.312559 3:0.682532 4:0.650026 5:0.839252 6:-0.480518 7:0.141739 8:-0.0192385 9:0.552419 10:0.572784 11:0.340936 12:0.938611 13:-0.245162 14:0.950027 15:0.458834 
432.331981840885 1:-0.744389 2:-0.252348 3:0.659659 4:-0.732228 5:-0.0437984 6:0.388996 7:-0.940266 8:-0.774036 9:0.0795795 10:0.980368 11:-0.346559 12:0.583654 13:-0.492533 14:-0.672405 15:0.0398393 
512 1:-0.027811 2:0.236593 3:0.583648 4:-0.961439 5:-0.262351 6:-0.483681 7:0.142613 8:0.917327 9:0.135174 10:-0.36516 11:0.0855031 12:-0.126275 13:0.968708 14:-0.583358 15:0.0422717 
57.6208734030267 1:-0.166353 2:0.60412 3:-0.605926 4:-0.806935 5:-0.402011 6:-0.806152 7:-0.763632 8:0.964584 9:-0.740672 10:0.212539 11:-0.378978 12:0.846557 13:0.478599 14:-0.837223 15:0.864057 
379.936876678683 1:-0.382613 2:0.18762 3:0.739802 4:0.0853873 5:-0.472774 6:0.806159 7:0.18769 8:-0.0411954 9:0.23039 10:0.73934 11:-0.243492 12:-0.046987 13:0.435637 14:0.161481 15:-0.290143 
512 1:0.316147 2:-0.212975 3:-0.325943 4:-0.722401 5:-0.332623 6:0.901626 7:-0.341934 8:-0.585952 9:0.740866 10:0.721943 11:0.721439 12:0.487741 13:0.0704082 14:-0.857803 15:-0.138718 
512 1:-0.563755 2:0.821047 3:-0.427177 4:0.194951 5:0.378753 6:-0.957869 7:0.148625 8:0.0432873 9:-0.513397 10:0.303763 11:0.328494 12:0.905705 13:0.276535 14:0.0380264 15:-0.559907 
512 1:0.367929 2:0.703622 3:0.056566 4:0.360813 5:0.183034 6:0.879527 7:-0.0487278 8:0.128828 9:0.368019 10:-0.0989442 11:-0.567271 12:-0.941504 13:0.0779444 14:0.201179 15:0.302065 
512 1:-0.0822622 2:0.814098 3:-0.377816 4:-0.115241 5:0.662227 6:0.97071 7:0.07202 8:0.896289 9:0.296327 10:-0.695134 11:-0.134666 12:0.482248 13:-0.773313 14:-0.474858 15:-0.772571 
62.19824751601955 1:0.0666975 2:-0.0710771 3:0.550305 4:-0.503091 5:-0.667799 6:0.46106 7:-0.363547 8:-0.983562 9:0.00980951 10:0.866999 11:-0.89263 12:-0.635043 13:-0.885672 14:0.892015 15:0.139005 
406.8660224514094 1:-0.513724 2:0.310417 3:0.351865 4:-0.197802 5:0.963258 6:0.471595 7:-0.113537 8:-0.0808346 9:-0.561695 10:-0.245563 11:0.478706 12:0.0462325 13:0.603879 14:-0.996077 15:-0.548336 
221.4874052253934 1:-0.748853 2:-0.60674 3:0.899593 4:-0.668248 5:-0.883327 6:0.63233 7:-0.0474885 8:-0.36032 9:0.195818 10:-0.0623082 11:0.537549 12:0.13011 13:-0.605472 14:0.0474246 15:-0.850655 
512 1:0.343739 2:0.878822 3:-0.265859 4:-0.37908 5:-0.0486523 6:-0.56633 7:0.925464 8:0.277018 9:-0.473876 10:-0.714096 11:0.51297 12:-0.284746 13:-0.998191 14:-0.54966 15:-0.131316 
401.0890839046543 1:-0.506091 2:0.393633 3:0.129098 4:0.421192 5:-0.70637 6:0.550018 7:0.191079 8:0.068579 9:0.0817748 10:0.40181 11:-0.295281 12:0.541058 13:0.763549 14:-0.526607 15:-0.472108 
512 1:-0.124907 2:0.439366 3:0.584756 4:-0.258912 5:0.631745 6:-0.619915 7:0.567357 8:-0.7189 9:0.115917 10:-0.859238 11:-0.652043 12:-0.994553 13:-0.8911 14:-0.16539 15:0.491134 
512 1:0.0301224 2:0.190151 3:-0.0647396 4:-0.64048 5:-0.73606 6:-0.582192 7:0.672342 8:0.422314 9:-0.519428 10:0.313558 11:-0.247151 12:-0.803403 13:-0.869735 14:-0.702635 15:-0.412943 
480.6772844823527 1:0.328048 2:-0.491995 3:-0.696873 4:-0.920855 5:0.842971 6:-0.848932 7:-0.0332209 8:0.91936 9:0.0331672 10:-0.56868 11:-0.833305 12:-0.973558 13:-0.120431 14:-0.190889 15:-0.83889 
512 1:-0.814696 2:-0.158713 3:-0.175662 4:-0.758614 5:0.0743886 6:0.107756 7:-0.197072 8:-0.438821 9:0.370942 10:0.113637 11:-0.766562 12:0.508694 13:-0.360975 14:-0.152829 15:-0.0752334 
512 1:0.0718033 2:0.565122 3:0.935619 4:-0.164579 5:-0.829568 6:-0.423555 7:-0.109275 8:-0.913044 9:0.600005 10:0.221463 11:0.0336112 12:0.772461 13:-0.636086 14:0.75972 15:-0.718227 
512 1:-0.0676421 2:0.546604 3:0.800783 4:-0.871443 5:-0.361138 6:0.685098 7:0.422948 8:-0.480862 9:0.152525 10:-0.727813 11:0.377729 12:0.826898 13:-0.224806 14:0.0942762 15:-0.86847 
28.28205889772743 1:-0.630527 2:0.310249 3:0.39772 4:0.799738 5:0.481847 6:-0.818506 7:-0.763551 8:0.833455 9:0.604805 10:0.733396 11:0.925213 12:-0.882837 13:-0.510069 14:-0.798412 15:0.219759 
306.9939483390241 1:-0.100897 2:0.483047 3:-0.134855 4:0.940629 5:-0.0827105 6:-0.890617 7:0.153148 8:0.326367 9:0.32895 10:-0.38373 11:0.905797 12:0.986178 13:-0.884054 14:-0.61325 15:0.285152 
148.5077711070527 1:0.500272 2:0.452801 3:0.990543 4:0.477514 5:-0.820087 6:-0.419417 7:0.321318 8:0.15535 9:-0.514831 10:0.650946 11:-0.964191 12:0.968531 13:0.537847 14:-0.0494741 15:0.281301 
512 1:0.359819 2:0.98094 3:0.633027 4:0.72907 5:-0.141574 6:0.579604 7:0.901669 8:-0.515525 9:0.553959 10:-0.439703 11:-0.74861 12:0.471528 13:-0.375326 14:-0.105601 15:-0.823436 
512 1:0.832372 2:0.692427 3:0.312001 4:0.0836905 5:0.0401463 6:0.931931 7:-0.274542 8:-0.0252421 9:-0.186106 10:0.106075 11:-0.0107568 12:-0.0530684 13:0.675461 14:0.754107 15:0.423751 
481.3982545019431 1:-0.554952 2:0.85101 3:-0.383411 4:-0.215518 5:0.425731 6:-0.983807 7:-0.949151 8:-0.734352 9:-0.35044 10:0.430644 11:-0.154029 12:0.944476 13:0.868037 14:-0.513106 15:-0.369357 
512 1:0.897617 2:0.104048 3:0.726228 4:-0.563992 5:0.174893 6:-0.521569 7:-0.700483 8:0.811683 9:-0.406095 10:-0.757803 11:-0.971138 12:-0.764887 13:0.748207 14:-0.749611 15:0.559336 
512 1:0.686861 2:0.878424 3:-0.890791 4:0.910098 5:0.0817236 6:0.0955054 7:-0.109417 8:0.304395 9:0.145406 10:0.084152 11:0.242242 12:0.485342 13:-0.247781 14:0.399598 15:-0.618671 
283.5119304083253 1:0.263592 2:0.776946 3:-0.147896 4:0.797291 5:-0.27416 6:-0.842018 7:0.086435 8:-0.553692 9:-0.264881 10:-0.375294 11:-0.388911 12:-0.876161 13:0.763254 14:-0.690985 15:0.181295 
512 1:-0.00274839 2:0.963666 3:-0.276318 4:-0.823662 5:-0.411984 6:-0.220138 7:0.553286 8:0.689865 9:0.662693 10:-0.910385 11:-0.0134037 12:0.869753 13:0.91041 14:-0.801666 15:0.123741 
512 1:-0.434446 2:0.616527 3:0.724666 4:-0.27801 5:0.138839 6:0.676528 7:0.608057 8:-0.618819 9:0.552419 10:-0.452855 11:-0.242538 12:-0.824685 13:-0.496138 14:0.834135 15:-0.758359 
212.6166763206963 1:0.498585 2:0.683819 3:-0.898615 4:-0.941385 5:-0.426115 6:-0.804915 7:0.852131 8:-0.0996555 9:-0.752504 10:0.629989 11:-0.0363558 12:0.98909 13:-0.891851 14:0.557188 15:0.86002 
512 1:0.0278871 2:-0.418831 3:-0.0771288 4:-0.697858 5:-0.252368 6:-0.875614 7:-0.0272615 8:0.000235558 9:0.810113 10:-0.279455 11:-0.676288 12:-0.972853 13:0.252091 14:-0.540906 15:0.0552468 
346.7191400482002 1:-0.797746 2:0.919579 3:-0.413458 4:-0.846238 5:0.439981 6:-0.789364 7:0.722554 8:0.283005 9:-0.671477 10:-0.0878314 11:0.974162 12:0.985334 13:0.130892 14:-0.937413 15:-0.169348 
512 1:0.0860325 2:0.145967 3:0.837248 4:-0.975126 5:0.453126 6:-0.167848 7:0.458718 8:0.752306 9:-0.519387 10:-0.533526 11:0.851538 12:0.671263 13:0.677866 14:0.811922 15:-0.347143 
512 1:0.455159 2:0.204835 3:0.0218249 4:-0.328399 5:-0.530315 6:0.365234 7:-0.585565 8:-0.96946 9:0.32465 10:0.153302 11:-0.566346 12:0.155073 13:-0.199782 14:-0.799149 15:-0.51077 
302.5697425944854 1:0.321006 2:-0.905352 3:0.455314 4:-0.772351 5:-0.276787 6:-0.199278 7:0.884933 8:-0.68465 9:0.509098 10:0.618135 11:-0.233553 12:0.728561 13:-0.317334 14:-0.0310711 15:0.87685 
205.3049722296491 1:0.722907 2:0.553971 3:-0.149945 4:-0.855531 5:0.689848 6:0.321656 7:0.415944 8:0.427496 9:-0.855218 10:0.720401 11:0.122306 12:-0.156431 13:-0.718627 14:0.683895 15:-0.635441 
512 1:-0.353573 2:0.501595 3:-0.164495 4:0.668924 5:-0.162152 6:-0.373299 7:0.657354 8:-0.0195406 9:0.905375 10:-0.227763 11:-0.126335 12:-0.0154791 13:0.0844965 14:-0.00296666 15:0.489378 
512 1:0.139957 2:0.771025 3:-0.349794 4:-0.963102 5:-0.833549 6:-0.2676 7:-0.145528 8:-0.146601 9:-0.366929 10:-0.756284 11:0.37342 12:-0.813397 13:0.00478255 14:0.923512 15:-0.0781637 
313.6317807606692 1:-0.503122 2:-0.39663 3:-0.997025 4:-0.539595 5:0.059155 6:-0.953794 7:0.976191 8:-0.206595 9:0.146137 10:0.630201 11:-0.557994 12:-0.647339 13:-0.859416 14:-0.0894102 15:0.989923 
204.7350231691905 1:0.289631 2:0.304222 3:-0.863866 4:-0.636412 5:-0.041434 6:-0.103085 7:-0.570531 8:-0.478329 9:0.563943 10:0.606465 11:-0.0302537 12:0.110563 13:0.992407 14:-0.92194 15:-0.749977 
271.5097713874402 1:0.656987 2:0.421856 3:0.501676 4:0.856351 5:0.599941 6:-0.643064 7:0.857162 8:0.0829731 9:-0.214675 10:0.909296 11:0.605738 12:-0.381887 13:-0.714901 14:0.560817 15:-0.926216 
512 1:0.127623 2:0.0412496 3:0.0688961 4:-0.892772 5:0.0453936 6:0.0761706 7:0.364308 8:0.50987 9:-0.0330271 10:0.793514 11:-0.243459 12:-0.0326436 13:-0.429502 14:0.276455 15:0.764727 
174.9568583117371 1:0.410067 2:-0.177665 3:-0.796373 4:-0.24682 5:-0.972775 6:-0.989714 7:-0.251646 8:0.0891737 9:0.927837 10:0.801665 11:0.842685 12:-0.941906 13:0.570689 14:0.335212 15:-0.858741 
512 1:-0.945929 2:0.745741 3:0.424114 4:0.359824 5:-0.603083 6:-0.433253 7:0.856594 8:-0.843958 9:0.262753 10:0.363783 11:-0.758883 12:0.547643 13:0.442774 14:0.450497 15:0.881008 
166.8779294945698 1:-0.137938 2:-0.872772 3:0.539006 4:-0.857784 5:0.850644 6:-0.31841 7:-0.84896 8:0.606409 9:-0.933202 10:-0.320443 11:0.623083 12:0.86965 13:0.762601 14:0.0886635 15:0.423292 
12.16129390434446 1:0.569035 2:0.95411 3:-0.828509 4:-0.994477 5:0.410195 6:-0.455381 7:-0.280063 8:0.756379 9:0.819014 10:-0.321003 11:-0.30938 12:0.965755 13:0.468448 14:-0.0396089 15:0.873117 
512 1:0.285124 2:0.950347 3:0.373817 4:0.865315 5:0.163056 6:-0.98424 7:0.968064 8:-0.980834 9:0.447788 10:-0.255574 11:-0.552877 12:0.276802 13:0.477511 14:-0.257443 15:0.449595 
324.6619732302895 1:-0.957482 2:-0.00676682 3:-0.63303 4:-0.0242285 5:0.0192098 6:0.324011 7:0.436207 8:0.440735 9:0.943589 10:0.159728 11:0.517167 12:0.397288 13:0.256489 14:-0.464648 15:0.148735 
512 1:-0.664438 2:-0.517845 3:0.916034 4:-0.394582 5:0.906765 6:-0.261152 7:-0.568398 8:0.67535 9:0.603468 10:0.315631 11:-0.811164 12:0.0408671 13:0.344918 14:0.262378 15:0.00696738 
512 1:0.0979761 2:-0.0424346 3:-0.284644 4:0.388891 5:-0.613641 6:-0.547546 7:0.168271 8:0.604885 9:0.82845 10:0.33791 11:-0.140181 12:-0.172567 13:0.1433 14:0.688336 15:0.113896 
512 1:-0.325333 2:0.48016 3:-0.308492 4:0.399531 5:0.240723 6:-0.296767 7:-0.833671 8:0.632216 9:0.855089 10:0.776673 11:-0.20199 12:-0.336954 13:0.666659 14:0.212593 15:-0.279021 
512 1:0.531679 2:-0.440912 3:-0.324442 4:-0.393098 5:0.0599041 6:0.0098179 7:0.0115301 8:0.591084 9:0.958641 10:0.820752 11:-0.439825 12:0.259127 13:0.054205 14:-0.11273 15:-0.412552 
312.173661604428 1:0.152063 2:-0.955155 3:0.00997187 4:0.177941 5:0.197228 6:-0.464019 7:0.250339 8:0.708588 9:-0.117778 10:-0.643207 11:-0.853041 12:-0.942758 13:-0.266588 14:-0.0831912 15:0.77428 
512 1:0.454817 2:0.920869 3:0.122344 4:-0.934199 5:0.486655 6:0.148196 7:0.864729 8:0.606279 9:-0.733072 10:0.475252 11:0.599354 12:0.098596 13:-0.29402 14:0.672358 15:0.662882 
512 1:0.117773 2:0.73282 3:-0.434615 4:-0.581371 5:-0.222307 6:-0.657012 7:0.408572 8:0.919776 9:0.730412 10:0.0318174 11:0.916916 12:0.865517 13:-0.374453 14:0.215936 15:0.326827 
512 1:0.964794 2:0.40163 3:0.4264 4:-0.035775 5:0.751747 6:0.107836 7:0.492296 8:-0.773424 9:-0.631861 10:-0.742899 11:0.713123 12:0.353257 13:-0.884615 14:0.995854 15:-0.266938 
512 1:0.157241 2:-0.59788 3:-0.720829 4:-0.666871 5:-0.0151157 6:0.147029 7:-0.146021 8:-0.335078 9:-0.80427 10:0.0768545 11:-0.777293 12:0.141226 13:-0.767988 14:0.0724973 15:-0.317262 
512 1:0.895725 2:-0.63257 3:0.574582 4:-0.941251 5:-0.101617 6:-0.190449 7:-0.14827 8:-0.231458 9:0.711515 10:-0.192673 11:-0.517597 12:-0.256773 13:-0.440936 14:-0.651614 15:-0.386369 
347.6514017821266 1:-0.949863 2:-0.0373291 3:-0.106098 4:-0.42839 5:-0.0187392 6:0.112973 7:-0.837073 8:-0.48356 9:0.172652 10:0.419822 11:-0.328846 12:0.938055 13:-0.572291 14:0.966611 15:-0.681766 
296.2365544375071 1:0.158883 2:0.542401 3:-0.577402 4:0.991578 5:0.743369 6:0.94886 7:-0.316335 8:-0.52899 9:-0.605497 10:-0.715982 11:-0.42322 12:0.0747366 13:0.385929 14:-0.0341109 15:-0.4596 
506.058024478118 1:-0.214711 2:-0.629441 3:-0.766245 4:-0.644188 5:-0.423388 6:-0.197923 7:-0.192928 8:0.867831 9:0.122644 10:-0.0967499 11:0.491444 12:0.450533 13:-0.873162 14:-0.153124 15:-0.443107 
512 1:0.546054 2:0.622161 3:-0.330594 4:0.406214 5:0.606012 6:0.458586 7:-0.492406 8:0.152415 9:0.682342 10:0.0495933 11:0.750349 12:0.152677 13:-0.660432 14:-0.622657 15:-0.0368899 
512 1:-0.578222 2:-0.227173 3:0.389308 4:-0.595109 5:-0.503837 6:0.273073 7:-0.0356513 8:0.906258 9:-0.26291 10:-0.52031 11:0.872627 12:-0.329962 13:-0.715391 14:-0.773325 15:-0.747377 
512 1:-0.995401 2:0.475218 3:-0.597803 4:-0.192583 5:-0.614247 6:0.0129498 7:0.616278 8:0.744924 9:0.503915 10:-0.0738044 11:-0.644304 12:-0.487765 13:0.195716 14:-0.427786 15:-0.86178 
512 1:0.551613 2:0.373518 3:0.8169 4:-0.338023 5:-0.0217222 6:-0.711191 7:0.82315 8:-0.368833 9:-0.735552 10:-0.424956 11:-0.290176 12:0.595692 13:0.638952 14:0.858372 15:0.633361 
512 1:0.217262 2:-0.0656763 3:0.967787 4:-0.92703 5:-0.929471 6:-0.0274146 7:-0.382974 8:0.0447882 9:-0.639057 10:0.468958 11:0.0900072 12:-0.503655 13:-0.416329 14:0.37632 15:-0.470117 
509.5326185919197 1:-0.676099 2:-0.169163 3:0.995741 4:-0.925771 5:-0.739863 6:0.075017 7:-0.83188 8:0.564899 9:-0.618274 10:-0.0806394 11:-0.275774 12:0.409841 13:0.839074 14:-0.137073 15:0.876807 
190.7685483743479 1:-0.0270478 2:0.240847 3:-0.331098 4:-0.886052 5:-0.694205 6:-0.595337 7:0.886407 8:-0.866223 9:-0.758238 10:-0.245189 11:0.49438 12:-0.425234 13:0.389301 14:0.158203 15:-0.584805 
512 1:0.315706 2:0.952712 3:0.434615 4:0.325937 5:0.912163 6:-0.848067 7:0.637915 8:0.758939 9:-0.601814 10:0.999897 11:-0.43744 12:-0.627548 13:0.481928 14:0.0672042 15:0.813876 
512 1:-0.72326 2:-0.643358 3:0.781838 4:-0.849249 5:0.986399 6:0.980509 7:-0.276459 8:-0.29025 9:0.77563 10:-0.0017583 11:0.128456 12:-0.366668 13:0.147365 14:0.284173 15:-0.534395 
512 1:0.272066 2:0.736948 3:0.612489 4:0.406456 5:-0.766143 6:0.927754 7:-0.387569 8:-0.180525 9:0.201675 10:0.0146098 11:-0.281442 12:0.582674 13:0.832887 14:-0.583964 15:0.178053 
512 1:-0.97938 2:0.859849 3:0.384589 4:0.780967 5:0.0153318 6:0.204758 7:-0.712864 8:-0.208585 9:-0.894407 10:-0.442651 11:0.894407 12:0.610012 13:-0.427833 14:0.18217 15:0.492225 
512 1:-0.275095 2:0.841081 3:-0.165616 4:-0.29463 5:0.880992 6:-0.28594 7:0.851273 8:-0.820746 9:0.252365 10:-0.3654 11:0.237945 12:0.854457 13:-0.566329 14:-0.991923 15:0.816536 
512 1:0.373257 2:0.478398 3:0.563898 4:0.505494 5:-0.523908 6:0.752633 7:-0.21179 8:-0.129092 9:-0.325201 10:-0.445318 11:-0.615423 12:0.187236 13:-0.917229 14:-0.891789 15:-0.268135 
512 1:-0.211569 2:0.630628 3:0.254136 4:-0.0298473 5:0.548395 6:0.101633 7:0.479368 8:-0.459748 9:0.5732 10:0.821635 11:-0.794985 12:-0.662001 13:-0.0918608 14:-0.128912 15:0.711309 
315.4231305249165 1:0.720159 2:0.0142949 3:-0.665514 4:0.80825 5:-0.150773 6:-0.529108 7:-0.75664 8:-0.19541 9:0.852797 10:0.860556 11:-0.888459 12:-0.950622 13:0.541247 14:-0.139826 15:0.669714 
512 1:0.433652 2:-0.18744 3:-0.338638 4:0.703165 5:0.866881 6:-0.559577 7:-0.448475 8:-0.0119986 9:0.862309 10:0.726196 11:-0.380966 12:-0.224863 13:-0.355726 14:-0.878719 15:-0.299059 
265.1719593350892 1:0.270694 2:-0.98481 3:0.807809 4:0.835551 5:0.316578 6:0.101462 7:0.827538 8:0.0887515 9:0.366651 10:-0.00373798 11:-0.901222 12:0.787813 13:-0.554436 14:0.0230975 15:-0.143031 
512 1:-0.671325 2:0.594298 3:0.892475 4:0.264994 5:0.0758001 6:-0.816769 7:0.200304 8:-0.660521 9:-0.00474781 10:-0.222165 11:0.562591 12:0.413432 13:0.439708 14:0.606047 15:-0.383187 
209.2742949364758 1:-0.835673 2:-0.291603 3:0.499559 4:0.593301 5:0.196723 6:-0.855771 7:0.87899 8:-0.28922 9:0.364018 10:-0.287376 11:0.320658 12:-0.550654 13:-0.906375 14:0.609562 15:0.214139 
62.16542586784406 1:-0.461202 2:0.415341 3:-0.0570945 4:0.981757 5:-0.366021 6:-0.100581 7:-0.865168 8:-0.357605 9:0.200914 10:0.296589 11:-0.930097 12:-0.374183 13:0.607249 14:-0.834981 15:-0.753236 
512 1:-0.052426 2:0.239659 3:0.953097 4:-0.293001 5:-0.937445 6:0.430117 7:0.459923 8:0.374793 9:0.252301 10:0.358253 11:0.0927767 12:-0.500502 13:-0.116618 14:-0.420868 15:0.273026 
170.8708099911227 1:0.438523 2:0.256318 3:-0.526258 4:-0.911842 5:0.968525 6:-0.213888 7:-0.46913 8:0.125318 9:-0.0705868 10:-0.47312 11:-0.643449 12:0.281217 13:0.76886 14:0.266278 15:-0.877301 
512 1:0.0532441 2:0.986381 3:-0.873639 4:-0.116836 5:-0.988888 6:0.37524 7:0.335687 8:0.374541 9:-0.638224 10:0.642559 11:-0.949009 12:-0.666392 13:0.985942 14:0.502011 15:-0.746555 
414.0270095796086 1:-0.928742 2:0.832759 3:-0.653726 4:0.800463 5:-0.853387 6:0.947664 7:-0.579056 8:0.813101 9:0.95086 10:-0.889417 11:0.0122194 12:0.897779 13:0.232512 14:0.223188 15:0.714035 
9.304294087257658 1:-0.423129 2:0.433456 3:-0.438627 4:0.998346 5:0.699702 6:0.997945 7:0.275352 8:-0.871988 9:-0.800485 10:-0.915504 11:-0.174865 12:-0.70291 13:0.633458 14:-0.263181 15:-0.187849 
512 1:-0.194362 2:0.93043 3:0.810619 4:0.0608784 5:0.650229 6:-0.952381 7:-0.422892 8:-0.0962217 9:-0.713856 10:0.996882 11:0.434234 12:-0.764101 13:-0.771166 14:0.271162 15:-0.419763 
49.95115874471226 1:-0.654491 2:0.699851 3:0.752065 4:0.556517 5:-0.382414 6:0.452758 7:-0.801972 8:-0.300315 9:-0.459288 10:0.922141 11:-0.702286 12:-0.159957 13:0.191806 14:0.891474 15:-0.842684 
292.2043869276052 1:0.559936 2:0.194434 3:-0.936494 4:0.645468 5:-0.186247 6:0.54666 7:0.727794 8:0.957642 9:-0.708206 10:-0.113565 11:0.227522 12:-0.0456305 13:-0.981954 14:0.0576586 15:-0.807178 
277.7623148088597 1:0.958435 2:0.757777 3:0.0469033 4:-0.0357469 5:0.141292 6:0.994188 7:-0.365087 8:-0.741807 9:-0.223845 10:0.0050145 11:-0.926105 12:0.943113 13:-0.332616 14:0.794027 15:-0.385498 
512 1:-0.157657 2:0.330537 3:0.546033 4:0.441156 5:0.826383 6:-0.240578 7:-0.82244 8:-0.155086 9:0.481496 10:-0.378708 11:-0.836162 12:0.0142291 13:-0.0785489 14:-0.895474 15:-0.0759091 
512 1:0.977592 2:0.440937 3:-0.142438 4:-0.842816 5:0.0416259 6:-0.597624 7:-0.0221552 8:-0.220347 9:-0.805733 10:-0.236324 11:-0.175194 12:0.69684 13:0.358257 14:-0.449032 15:0.495801 
416.4127394857811 1:-0.563326 2:-0.316581 3:0.08155 4:-0.2445 5:0.768869 6:0.655498 7:-0.197552 8:-0.575059 9:-0.716572 10:-0.610552 11:-0.638695 12:-0.945887 13:-0.756745 14:-0.573299 15:0.899261 
135.9903038757041 1:-0.78442 2:0.323856 3:0.820892 4:0.0286718 5:-0.0981854 6:0.271791 7:-0.703641 8:-0.342265 9:0.190621 10:0.498741 11:0.721968 12:-0.847654 13:0.352428 14:-0.912419 15:-0.576397 
512 1:0.599663 2:0.851708 3:-0.0382423 4:-0.253636 5:0.178179 6:-0.870052 7:-0.595501 8:-0.135032 9:0.40255 10:-0.20685 11:0.679302 12:0.232562 13:0.371101 14:0.0456548 15:0.669335 
357.3742983647102 1:0.509595 2:0.0626208 3:-0.971694 4:0.3872 5:0.885155 6:-0.937635 7:0.280093 8:-0.0687089 9:0.0373095 10:0.174379 11:-0.332384 12:0.76499 13:-0.904629 14:-0.90244 15:-0.280116 
250.4958733495179 1:-0.642975 2:0.597888 3:-0.371767 4:0.716099 5:-0.415719 6:-0.754323 7:-0.82743 8:0.239178 9:-0.266716 10:-0.378166 11:-0.0128749 12:0.752512 13:0.517753 14:-0.930079 15:-0.142221 
214.2358207110306 1:0.740015 2:0.773114 3:-0.634999 4:-0.65556 5:-0.366347 6:0.19555 7:-0.937223 8:0.449905 9:0.157592 10:0.533535 11:-0.306233 12:0.638183 13:-0.0620935 14:-0.766472 15:-0.546684 
346.2746540012182 1:-0.300254 2:0.0139503 3:-0.222264 4:0.539948 5:-0.30942 6:0.602236 7:0.999932 8:-0.734375 9:0.845844 10:0.92687 11:-0.488485 12:0.676684 13:-0.176748 14:0.670875 15:0.687925 
512 1:-0.21265 2:-0.428085 3:-0.0990114 4:-0.714119 5:-0.945636 6:-0.207694 7:0.573199 8:0.1006 9:-0.832843 10:-0.333573 11:0.352411 12:0.0896533 13:-0.975998 14:0.561678 15:0.136384 
473.8570510934483 1:-0.660581 2:-0.367397 3:0.322156 4:-0.310969 5:0.182237 6:-0.471685 7:0.639964 8:0.0856493 9:0.858285 10:0.660432 11:-0.907602 12:0.860887 13:0.59188 14:-0.224879 15:-0.599078 
512 1:-0.520225 2:0.103035 3:0.81025 4:0.976728 5:-0.906266 6:-0.850196 7:0.533667 8:-0.394762 9:-0.0541283 10:-0.358989 11:-0.817175 12:-0.96553 13:-0.317028 14:-0.613581 15:0.792415 
309.1203241003454 1:0.766443 2:0.379179 3:0.308241 4:0.623119 5:-0.182507 6:-0.801955 7:0.928392 8:-0.642238 9:0.211378 10:0.407151 11:0.000809875 12:0.210489 13:-0.196788 14:-0.293482 15:-0.0961996 
512 1:0.221929 2:0.585601 3:-0.251779 4:0.0508995 5:0.0261035 6:-0.464566 7:0.196188 8:-0.447433 9:-0.457354 10:0.133873 11:-0.97487 12:0.58598 13:-0.204279 14:-0.201262 15:0.673143 
512 1:-0.784806 2:0.292984 3:0.538113 4:-0.241999 5:-0.662267 6:-0.454224 7:0.32599 8:0.0220497 9:0.847767 10:0.986736 11:-0.213249 12:-0.340194 13:0.00952624 14:0.990667 15:-0.797946 
512 1:-0.664916 2:-0.305548 3:-0.53442 4:0.0730205 5:-0.535238 6:0.582961 7:-0.0725968 8:0.0114934 9:0.275256 10:-0.471433 11:-0.735946 12:-0.708406 13:-0.641003 14:0.466614 15:0.191579 
512 1:0.280258 2:0.635078 3:0.7753 4:-0.740184 5:-0.577706 6:0.733345 7:0.657489 8:-0.028111 9:-0.635951 10:0.814974 11:-0.951334 12:0.505153 13:0.410561 14:0.0922769 15:0.794988 
168.3493509065293 1:-0.173676 2:0.958243 3:-0.461405 4:-0.895862 5:-0.367363 6:0.552132 7:0.762435 8:0.498923 9:-0.738497 10:0.221173 11:0.690118 12:-0.829477 13:0.769871 14:-0.709488 15:-0.942741 
512 1:-0.874272 2:0.644013 3:0.873189 4:0.618912 5:0.366001 6:-0.862854 7:0.387876 8:-0.548362 9:-0.337922 10:-0.303853 11:0.865661 12:0.266638 13:-0.981674 14:-0.291071 15:-0.325387 
512 1:0.148859 2:-0.169339 3:0.951789 4:-0.0943335 5:-0.608267 6:0.886589 7:-0.297314 8:-0.254933 9:0.706383 10:0.670595 11:-0.143859 12:-0.67383 13:-0.927988 14:-0.550296 15:-0.847014 
512 1:-0.702566 2:0.603975 3:-0.912433 4:-0.898694 5:0.743896 6:0.0122803 7:0.404903 8:0.165093 9:-0.792045 10:-0.430189 11:0.328842 12:0.0137654 13:-0.758981 14:-0.74271 15:-0.599687 
311.2510527071644 1:0.196837 2:0.535619 3:0.0684347 4:-0.352896 5:-0.779004 6:-0.275805 7:-0.95878 8:-0.487392 9:0.43236 10:0.343643 11:0.471446 12:0.823399 13:0.32216 14:-0.629292 15:0.933813 
512 1:0.0702731 2:0.549747 3:-0.289088 4:-0.967428 5:-0.337585 6:0.806895 7:-0.128019 8:-0.454353 9:0.690721 10:-0.249569 11:-0.793507 12:-0.682832 13:0.39658 14:0.928543 15:-0.089086 
245.828712553926 1:-0.937821 2:-0.686065 3:0.733229 4:0.129233 5:-0.629003 6:0.657016 7:0.474435 8:0.810078 9:0.90009 10:-0.501477 11:-0.923658 12:0.96263 13:-0.494361 14:0.665681 15:-0.981143 
512 1:0.0502339 2:0.509775 3:-0.236583 4:-0.616881 5:0.788976 6:0.309502 7:0.522852 8:0.49929 9:0.0447562 10:-0.283735 11:0.250193 12:0.18864 13:0.820841 14:0.811225 15:-0.0506994 
512 1:0.498998 2:0.681404 3:0.34005 4:0.374899 5:-0.810792 6:-0.910737 7:-0.341788 8:0.554017 9:0.0776681 10:-0.412218 11:-0.177307 12:-0.367831 13:0.040051 14:0.34865 15:-0.607075 
475.2433002345983 1:-0.00750008 2:0.0889496 3:0.127168 4:-0.216091 5:0.4057 6:-0.561816 7:-0.64577 8:-0.789831 9:-0.139771 10:0.678333 11:0.796241 12:0.921121 13:-0.204416 14:-0.444411 15:-0.41356 
509.094105726532 1:0.058766 2:0.776198 3:0.758849 4:0.469566 5:0.956115 6:-0.275366 7:-0.0234465 8:0.525521 9:0.806853 10:-0.588162 11:-0.599687 12:0.829256 13:-0.00218043 14:0.833643 15:0.895296 
512 1:0.713344 2:0.0179095 3:-0.550003 4:0.899922 5:-0.320689 6:-0.742063 7:-0.119024 8:0.15949 9:0.375467 10:0.483311 11:0.714102 12:-0.391855 13:-0.958857 14:0.796698 15:-0.101348 
512 1:0.560916 2:0.753866 3:-0.119698 4:-0.769986 5:-0.578418 6:-0.073324 7:0.141947 8:-0.10465 9:-0.178779 10:0.789581 11:-0.908486 12:-0.918273 13:-0.829012 14:0.0524719 15:-0.198311 
512 1:-0.368104 2:0.166783 3:0.293123 4:0.105702 5:0.866948 6:0.0225141 7:-0.972094 8:0.934739 9:-0.0591646 10:-0.881747 11:-0.474 12:-0.434551 13:-0.998751 14:0.729657 15:0.467392 
30.76975014345389 1:-0.863595 2:0.152634 3:-0.22248 4:-0.459326 5:-0.989628 6:0.130129 7:0.557538 8:-0.107394 9:0.745591 10:-0.357304 11:0.48745 12:-0.254616 13:0.56818 14:0.296341 15:0.347328 
112.9998957403288 1:-0.0191092 2:-0.0865059 3:0.367803 4:-0.678614 5:0.866837 6:-0.549107 7:0.927878 8:-0.776118 9:0.595688 10:-0.295896 11:-0.780665 12:0.700382 13:0.0148585 14:-0.719249 15:-0.536773 
512 1:-0.166672 2:0.191509 3:-0.180104 4:0.0765378 5:-0.806664 6:0.386792 7:0.664215 8:-0.134546 9:-0.786181 10:-0.0971512 11:-0.292165 12:-0.445451 13:-0.353815 14:0.968086 15:0.197585 
388.8839963523962 1:0.903459 2:-0.868517 3:0.171677 4:0.657154 5:0.0918061 6:-0.802334 7:-0.335947 8:0.643923 9:0.835237 10:0.896891 11:-0.0605004 12:-0.906527 13:-0.836204 14:0.00114658 15:0.293398 
379.6650395462767 1:-0.683153 2:0.521452 3:0.305926 4:0.453397 5:0.178509 6:-0.00237218 7:0.235969 8:-0.32939 9:0.412239 10:-0.553605 11:-0.843061 12:-0.293776 13:0.505449 14:-0.421467 15:-0.808182 
34.01292607145559 1:-0.869823 2:0.197268 3:0.235003 4:0.680402 5:-0.621852 6:0.43815 7:0.981804 8:-0.960381 9:-0.203704 10:-0.0206521 11:-0.582767 12:-0.907428 13:-0.0779597 14:-0.0529646 15:-0.451654 
512 1:-0.448973 2:0.353483 3:-0.705317 4:0.634574 5:-0.376169 6:0.239135 7:-0.620994 8:-0.0206908 9:-0.198161 10:0.21127 11:-0.662107 12:-0.363425 13:0.0334995 14:-0.690577 15:0.640433 
512 1:-0.0397365 2:0.66808 3:-0.132849 4:0.894904 5:-0.979803 6:0.502837 7:0.369663 8:0.670623 9:-0.919019 10:0.587142 11:-0.0298001 12:-0.323647 13:-0.845026 14:0.75981 15:-0.889631 
512 1:0.127534 2:0.378736 3:-0.152458 4:0.798185 5:-0.327867 6:0.800516 7:-0.60233 8:-0.109076 9:0.479219 10:0.473708 11:0.648536 12:0.132865 13:0.26175 14:-0.811999 15:-0.905324 
512 1:0.9575 2:-0.862083 3:0.311675 4:0.730044 5:-0.709187 6:0.386066 7:-0.577559 8:-0.682334 9:0.375668 10:0.931571 11:-0.494575 12:0.235166 13:-0.456899 14:0.640174 15:0.65693 
337.1545316309214 1:0.0826328 2:0.409611 3:-0.944871 4:-0.836186 5:0.217945 6:-0.445158 7:0.294036 8:0.14002 9:-0.141237 10:-0.46891 11:0.0152095 12:0.0967439 13:-0.84537 14:-0.728169 15:0.941879 
512 1:0.667248 2:-0.126878 3:0.267845 4:-0.651936 5:0.0356935 6:0.778308 7:-0.932652 8:-0.100104 9:-0.485193 10:-0.136571 11:-0.795026 12:-0.35778 13:0.645215 14:-0.953576 15:-0.79764 
512 1:0.793374 2:0.66349 3:-0.0853355 4:-0.749152 5:-0.38054 6:0.0221361 7:0.48754 8:0.120236 9:-0.86662 10:-0.0297215 11:0.0984509 12:0.759733 13:0.468199 14:0.134802 15:-0.679883 
378.1248356330952 1:-0.925151 2:0.0463621 3:0.895067 4:-0.954056 5:0.766887 6:-0.735805 7:-0.669744 8:-0.601033 9:0.668818 10:0.797543 11:-0.201367 12:0.30533 13:0.524986 14:0.858872 15:0.171354 
187.8758924438108 1:0.628132 2:-0.695572 3:0.697876 4:-0.940161 5:-0.591936 6:0.254195 7:0.845207 8:-0.0674194 9:-0.854012 10:-0.447614 11:0.645788 12:0.0329451 13:0.584113 14:-0.951012 15:-0.880436 
278.9911524975504 1:-0.0895978 2:-0.678842 3:-0.478444 4:-0.940734 5:0.347205 6:0.935566 7:0.551998 8:-0.904562 9:0.846379 10:-0.000404514 11:-0.812472 12:-0.289815 13:0.303873 14:-0.230074 15:0.703837 
512 1:-0.587154 2:0.160897 3:-0.744374 4:-0.350334 5:-0.173125 6:-0.168427 7:0.398201 8:-0.444487 9:0.414027 10:0.787839 11:-0.290464 12:0.213291 13:-0.309735 14:0.143651 15:0.600772 
0.3967008423321726 1:-0.163344 2:0.00923867 3:-0.444877 4:-0.755383 5:0.833407 6:-0.0594994 7:0.749621 8:0.60148 9:-0.697542 10:-0.871475 11:-0.275247 12:-0.499207 13:0.00378247 14:0.521979 15:0.646787 
512 1:0.979461 2:0.432426 3:-0.0704427 4:-0.305373 5:-0.692274 6:0.0260345 7:-0.474082 8:0.221485 9:0.757089 10:0.874233 11:0.067242 12:-0.745342 13:-0.46611 14:-0.640311 15:-0.00840769 
512 1:-0.33483 2:0.131959 3:-0.698772 4:-0.512536 5:0.755569 6:-0.146963 7:-0.504185 8:0.634432 9:0.869898 10:0.076581 11:0.332731 12:0.39054 13:-0.00886249 14:0.184858 15:0.670946 
512 1:0.649802 2:-0.154037 3:0.0922677 4:0.0972316 5:0.984927 6:-0.690491 7:0.178559 8:0.852609 9:-0.718343 10:-0.437639 11:-0.792599 12:-0.956577 13:-0.300233 14:-0.815796 15:-0.840209 
512 1:-0.366291 2:0.840748 3:0.94108 4:0.180355 5:0.818714 6:-0.743915 7:0.251797 8:0.289869 9:0.535686 10:-0.711631 11:0.487018 12:0.563928 13:-0.483736 14:-0.911923 15:0.0536001 
512 1:-0.373072 2:0.794609 3:-0.154866 4:-0.851323 5:0.712879 6:0.30699 7:-0.49972 8:-0.547728 9:0.177208 10:-0.515156 11:-0.344675 12:-0.849792 13:-0.112053 14:0.569265 15:0.331136 
512 1:0.403269 2:0.762945 3:0.714158 4:0.567765 5:-0.775403 6:0.648137 7:0.0684951 8:-0.346008 9:-0.0829858 10:0.479021 11:0.597134 12:0.270386 13:-0.526179 14:0.313253 15:-0.353029 
512 1:0.524658 2:0.54465 3:0.70806 4:0.422258 5:0.720722 6:0.1151 7:-0.635135 8:0.942736 9:0.289327 10:0.0533319 11:0.266215 12:0.196882 13:0.56895 14:-0.849849 15:0.403901 
512 1:-0.863221 2:0.238991 3:0.340677 4:-0.848272 5:0.252607 6:-0.286192 7:0.985002 8:-0.27064 9:-0.386577 10:0.467607 11:0.219831 12:-0.532246 13:-0.94469 14:-0.837717 15:-0.780207 
238.238769155719 1:0.328097 2:-0.0489887 3:-0.189047 4:-0.716305 5:0.0421867 6:0.295679 7:0.163017 8:0.244228 9:0.161678 10:-0.12455 11:-0.635685 12:-0.0364265 13:0.993235 14:-0.112164 15:-0.497604 
512 1:0.452583 2:0.385493 3:-0.0763023 4:-0.805064 5:-0.936483 6:0.296775 7:-0.644811 8:-0.123866 9:0.427446 10:0.891543 11:0.473221 12:-0.57622 13:-0.104663 14:-0.679057 15:0.213268 
512 1:0.415757 2:0.0157365 3:0.996251 4:-0.459197 5:0.278701 6:0.0598311 7:0.591579 8:-0.0368874 9:-0.298283 10:0.712519 11:-0.842088 12:-0.554209 13:-0.588318 14:-0.749761 15:0.998354 
277.0533358624011 1:0.582484 2:0.145004 3:0.534417 4:-0.248135 5:0.571944 6:-0.750748 7:-0.267401 8:-0.396275 9:-0.944987 10:-0.00879162 11:0.149801 12:0.89758 13:-0.581279 14:0.731574 15:0.216539 
512 1:0.228424 2:0.396177 3:-0.422352 4:-0.498281 5:0.81389 6:-0.0761632 7:-0.991013 8:-0.726255 9:0.360471 10:0.449575 11:0.400659 12:0.178984 13:0.0686456 14:0.313015 15:-0.14127 
161.7481590930482 1:0.934087 2:-0.16505 3:0.271528 4:-0.75009 5:-0.356899 6:-0.340097 7:0.469659 8:0.102346 9:-0.380709 10:0.295679 11:0.642744 12:-0.637943 13:-0.832706 14:-0.48775 15:-0.118124 
512 1:-0.455494 2:0.145173 3:-0.281508 4:-0.978885 5:0.384202 6:-0.0462432 7:0.805441 8:-0.347111 9:-0.605666 10:0.160274 11:-0.225044 12:0.26666 13:-0.842115 14:-0.151256 15:-0.196418 
512 1:-0.217796 2:0.538088 3:0.949774 4:-0.832466 5:-0.0821644 6:-0.114333 7:0.336104 8:0.469629 9:-0.542649 10:0.00475358 11:0.0908994 12:-0.844386 13:0.315896 14:-0.695557 15:0.140117 
468.0398539232919 1:0.960287 2:-0.0014926 3:-0.841978 4:-0.974367 5:-0.959 6:0.168498 7:0.559912 8:0.422448 9:-0.608505 10:-0.0576165 11:-0.456242 12:0.197029 13:-0.568978 14:-0.41881 15:-0.725147 
512 1:0.00913946 2:-0.28893 3:0.26916 4:-0.541624 5:-0.114129 6:0.636098 7:-0.189007 8:0.683817 9:0.541416 10:0.0256955 11:-0.980586 12:0.25872 13:0.763519 14:-0.337471 15:0.636807 
102.7259894627239 1:-0.671954 2:0.685326 3:0.20044 4:0.756336 5:0.684874 6:0.575557 7:0.909668 8:0.277419 9:-0.646935 10:-0.46862 11:0.829573 12:-0.21232 13:-0.54569 14:0.185341 15:0.4267 
512 1:-0.608173 2:0.791673 3:0.356472 4:0.813766 5:-0.364204 6:-0.399075 7:0.320068 8:0.00641135 9:-0.26055 10:0.466757 11:0.783663 12:0.313636 13:0.581449 14:-0.562762 15:-0.392307 
512 1:0.11948 2:0.311332 3:0.853819 4:-0.301535 5:-0.631124 6:0.328288 7:-0.363193 8:0.164501 9:-0.724165 10:0.364962 11:0.897429 12:0.963666 13:0.471667 14:-0.48732 15:-0.604068 
512 1:0.939897 2:0.116277 3:0.716416 4:-0.899509 5:0.335997 6:-0.82048 7:0.937 8:-0.500395 9:0.700819 10:0.727211 11:-0.610413 12:0.17498 13:-0.17217 14:-0.224629 15:-0.424165 
512 1:0.767912 2:0.820515 3:0.903711 4:-0.709169 5:0.118409 6:-0.296236 7:0.309289 8:-0.76401 9:0.23327 10:-0.318611 11:0.747505 12:0.231085 13:-0.342776 14:-0.333408 15:0.311829 
512 1:0.843411 2:0.20475 3:0.441578 4:0.285894 5:-0.0159511 6:0.504901 7:-0.0340195 8:0.807259 9:0.00408692 10:-0.178145 11:-0.433365 12:-0.876939 13:-0.576157 14:0.10061 15:0.695243 
512 1:0.520072 2:0.849049 3:-0.993786 4:-0.00739481 5:0.996205 6:-0.520835 7:0.460975 8:-0.10056 9:0.281625 10:0.0389498 11:-0.246842 12:0.154544 13:-0.189507 14:0.154475 15:0.884403 
512 1:0.77921 2:0.116101 3:0.263921 4:-0.964265 5:-0.883287 6:0.975988 7:-0.197831 8:0.240319 9:0.0599859 10:-0.361699 11:-0.662634 12:0.960267 13:-0.778454 14:-0.396474 15:-0.89181 
512 1:-0.252256 2:0.260137 3:-0.899449 4:0.388406 5:-0.453736 6:0.798786 7:0.212161 8:-0.922902 9:-0.34624 10:0.227084 11:-0.753862 12:-0.986902 13:-0.459065 14:-0.264339 15:-0.5484 
0.9124550832901998 1:0.325204 2:-0.995211 3:-0.580919 4:-0.189582 5:-0.155094 6:0.403378 7:-0.899417 8:0.103081 9:0.399732 10:-0.557806 11:-0.499107 12:-0.487273 13:-0.690676 14:0.250841 15:-0.524169 
512 1:-0.564577 2:0.771487 3:-0.326924 4:0.0101637 5:-0.909444 6:-0.684151 7:0.45473 8:-0.0524449 9:-0.424647 10:-0.189928 11:0.994772 12:-0.101537 13:-0.72422 14:0.0306685 15:-0.394444 
512 1:-0.149391 2:0.347464 3:-0.329119 4:-0.560053 5:0.974136 6:-0.575331 7:0.227033 8:-0.395782 9:0.790592 10:-0.314014 11:0.0446816 12:-0.533476 13:-0.968341 14:0.479372 15:-0.853026 
512 1:0.282804 2:0.634014 3:-0.00119077 4:0.744635 5:0.615351 6:-0.747004 7:0.520747 8:0.197306 9:0.120747 10:-0.23113 11:-0.829284 12:-0.655424 13:0.170458 14:-0.128896 15:-0.153925 
113.9896532148873 1:0.305928 2:-0.770663 3:-0.806691 4:-0.947735 5:0.33088 6:0.212558 7:0.425439 8:-0.163621 9:0.619602 10:0.381663 11:0.388277 12:-0.572149 13:-0.0915226 14:0.901708 15:-0.642504 
512 1:-0.457997 2:0.957319 3:-0.327865 4:-0.370415 5:-0.850648 6:0.705589 7:0.558605 8:0.804752 9:0.9925 10:-0.886717 11:-0.519005 12:-0.339388 13:0.585105 14:-0.37244 15:0.341817 
129.5863324811905 1:-0.427177 2:-0.32765 3:0.422 4:-0.2411 5:-0.608711 6:-0.870498 7:-0.73298 8:0.0740884 9:0.30943 10:-0.0787122 11:-0.216735 12:0.0525588 13:-0.211357 14:0.798812 15:0.765101 
512 1:0.411506 2:0.464254 3:0.177657 4:0.312734 5:-0.684835 6:-0.665226 7:-0.317066 8:0.303224 9:-0.913446 10:0.889738 11:-0.0421712 12:0.303243 13:-0.946588 14:-0.279206 15:0.00249163 
512 1:-0.391493 2:-0.326208 3:0.87167 4:-0.161629 5:0.149094 6:0.171138 7:-0.30217 8:-0.847764 9:0.966535 10:-0.0587818 11:-0.732541 12:0.268386 13:0.898777 14:-0.77341 15:0.0989817 
436.7573907954971 1:0.413642 2:-0.3781 3:0.780372 4:-0.388238 5:0.924822 6:-0.656101 7:0.713371 8:0.527897 9:0.56626 10:0.550337 11:-0.901073 12:0.276276 13:0.0900498 14:-0.150322 15:0.280149 
512 1:0.194919 2:0.153619 3:-0.40168 4:-0.99187 5:0.689694 6:-0.200752 7:0.309294 8:-0.685712 9:-0.145976 10:0.279074 11:-0.132873 12:0.347053 13:-0.867595 14:0.898677 15:-0.103743 
417.4545548153289 1:-0.446293 2:0.41202 3:0.991623 4:0.986954 5:-0.239754 6:-0.178049 7:0.187418 8:-0.422563 9:-0.615717 10:-0.279278 11:-0.375094 12:-0.135958 13:-0.617804 14:-0.723441 15:0.970061 
277.542042229997 1:0.0148223 2:0.829658 3:0.42475 4:0.746926 5:0.737817 6:-0.119981 7:0.305297 8:0.473706 9:-0.957763 10:0.360799 11:0.604653 12:0.973989 13:-0.475016 14:0.560523 15:0.576888 
78.01764896546838 1:0.123306 2:-0.550651 3:0.068684 4:-0.932654 5:0.781524 6:-0.63813 7:-0.666207 8:0.744389 9:0.220628 10:-0.939034 11:-0.451391 12:-0.169772 13:0.827008 14:-0.724052 15:0.403943 
512 1:0.895058 2:0.358497 3:-0.414158 4:0.349702 5:-0.565565 6:-0.941845 7:-0.151446 8:-0.384415 9:0.0971152 10:0.638725 11:-0.255555 12:-0.730859 13:-0.783053 14:0.390569 15:-0.249036 
369.7853916747969 1:-0.386347 2:0.306564 3:-0.197974 4:-0.846333 5:0.863038 6:0.696877 7:-0.166003 8:-0.0766828 9:-0.942944 10:0.0882263 11:-0.590114 12:-0.265103 13:0.729221 14:0.166274 15:0.167543 
488.0061371533462 1:-0.305411 2:-0.251061 3:-0.149553 4:-0.893508 5:-0.0577107 6:-0.682563 7:0.0902555 8:0.874346 9:-0.627143 10:0.266432 11:0.122753 12:0.54479 13:-0.458154 14:-0.511937 15:0.272749 
127.5825734106873 1:0.599993 2:0.351809 3:0.617053 4:0.0157207 5:0.0055552 6:0.253305 7:-0.538599 8:-0.658033 9:-0.763623 10:-0.402375 11:-0.939889 12:-0.937351 13:0.5781 14:0.361497 15:0.739542 
512 1:-0.148953 2:0.137261 3:0.353012 4:-0.97026 5:-0.202229 6:-0.653443 7:-0.859617 8:-0.340454 9:0.0660981 10:-0.17001 11:0.717868 12:-0.703836 13:0.446936 14:-0.68304 15:-0.833767 
354.8584636212241 1:-0.0345224 2:0.293878 3:-0.374686 4:-0.856784 5:0.101548 6:0.68063 7:-0.234896 8:0.389248 9:0.886147 10:-0.269644 11:-0.892354 12:0.594098 13:0.726183 14:0.761694 15:0.58621 
512 1:0.380532 2:-0.0389888 3:0.138123 4:-0.884962 5:-0.63681 6:-0.796758 7:0.624757 8:0.0814279 9:0.615196 10:0.990221 11:-0.0160446 12:0.43088 13:-0.154619 14:-0.621481 15:-0.457382 
512 1:0.0779903 2:0.651416 3:0.948427 4:0.445281 5:0.0443033 6:0.333292 7:0.0306658 8:0.738601 9:-0.271924 10:-0.0376964 11:0.618241 12:0.37809 13:0.927789 14:-0.419195 15:-0.824697 
394.8203247155997 1:-0.0683259 2:0.528995 3:-0.724195 4:0.230612 5:-0.194798 6:0.960126 7:-0.964378 8:0.283161 9:-0.837024 10:0.501659 11:-0.479432 12:-0.512559 13:-0.700709 14:0.646991 15:0.405956 
512 1:-0.396277 2:-0.749179 3:0.753669 4:-0.440588 5:0.578881 6:-0.111168 7:0.0206625 8:-0.110911 9:0.438233 10:-0.0137445 11:-0.275692 12:0.389118 13:-0.330329 14:-0.309657 15:0.139372 
512 1:-0.546968 2:0.00402071 3:0.315904 4:-0.637996 5:-0.61814 6:0.57458 7:-0.728592 8:0.247588 9:0.161725 10:0.890145 11:0.075101 12:0.472071 13:-0.112647 14:-0.828785 15:-0.0672128 
75.31288434138634 1:0.915927 2:-0.292475 3:-0.699666 4:0.605484 5:-0.02068 6:0.813985 7:0.914658 8:-0.0986678 9:0.930906 10:0.495994 11:0.975333 12:0.591477 13:-0.202537 14:-0.713212 15:0.277128 
512 1:-0.573998 2:-0.996765 3:-0.147241 4:-0.893755 5:-0.370265 6:-0.100932 7:0.841319 8:0.808592 9:0.428993 10:0.96817 11:0.751008 12:0.991473 13:-0.326042 14:0.533647 15:-0.199908 
368.8864658698301 1:-0.455013 2:-0.170394 3:0.785868 4:-0.942711 5:0.158606 6:-0.611962 7:-0.653962 8:-0.715622 9:-0.126808 10:0.0684146 11:-0.266924 12:0.279111 13:0.00931921 14:0.505748 15:0.121727 
512 1:-0.912742 2:0.0340064 3:0.626862 4:0.43927 5:0.0304545 6:-0.119764 7:0.877326 8:0.886378 9:-0.104593 10:0.290053 11:-0.457915 12:0.869306 13:-0.652724 14:-0.383127 15:0.604009 
512 1:-0.27981 2:0.715062 3:0.163397 4:-0.873854 5:0.453585 6:0.263072 7:-0.206698 8:-0.0562711 9:0.359055 10:0.763724 11:-0.924972 12:-0.803281 13:-0.335049 14:-0.217768 15:-0.65229 
328.0643616758188 1:-0.851101 2:0.555903 3:0.973104 4:-0.146779 5:0.955684 6:-0.733953 7:0.818822 8:-0.846281 9:-0.994424 10:0.51496 11:-0.941464 12:-0.849366 13:-0.231174 14:0.932754 15:-0.718724 
209.794777771205 1:0.135757 2:0.279637 3:0.735955 4:0.74459 5:-0.573009 6:-0.880013 7:-0.592723 8:-0.392676 9:-0.996358 10:-0.988834 11:0.91775 12:-0.269239 13:-0.890017 14:-0.286633 15:-0.616482 
512 1:-0.233449 2:0.314102 3:0.00116222 4:-0.644216 5:0.746951 6:-0.563345 7:0.305775 8:0.439696 9:-0.964042 10:-0.57863 11:-0.336317 12:0.186095 13:0.441175 14:-0.116269 15:0.127171 
198.7587494996594 1:-0.0926842 2:-0.00166138 3:0.579069 4:0.500469 5:0.201998 6:-0.727296 7:0.3458 8:0.245893 9:-0.114102 10:-0.898795 11:-0.97835 12:-0.0194512 13:-0.816259 14:0.522791 15:0.404938 
365.0059828881609 1:-0.48919 2:0.731855 3:-0.80009 4:0.787226 5:0.336934 6:0.574615 7:0.742258 8:0.520863 9:-0.606064 10:0.20344 11:0.613317 12:-0.675395 13:-0.344655 14:0.701995 15:0.637115 
512 1:-0.62462 2:-0.631171 3:-0.427912 4:-0.347154 5:-0.791809 6:0.920989 7:0.813798 8:0.806403 9:0.587959 10:0.226576 11:0.195355 12:0.883012 13:-0.441236 14:-0.251065 15:-0.624622 
512 1:0.888777 2:0.487867 3:-0.0443604 4:-0.914224 5:0.921284 6:0.538794 7:-0.56323 8:0.606486 9:-0.664966 10:0.0323421 11:-0.297038 12:0.233551 13:0.141676 14:-0.339453 15:0.775118 
253.2950933908131 1:-0.559676 2:0.733056 3:-0.743885 4:0.7051 5:0.790305 6:0.0836838 7:0.414313 8:0.873161 9:0.163036 10:-0.794981 11:0.521456 12:0.527833 13:0.421346 14:0.478192 15:0.421257 
512 1:0.0725429 2:0.298125 3:0.0778416 4:-0.411106 5:0.277359 6:0.542063 7:0.242554 8:0.812207 9:0.320483 10:-0.574594 11:-0.0860887 12:0.599516 13:-0.947079 14:-0.671436 15:-0.18698 
486.6825666456794 1:0.701559 2:0.959628 3:-0.548885 4:-0.427889 5:-0.913777 6:-0.0372188 7:0.168981 8:-0.558461 9:-0.184347 10:-0.289686 11:-0.858 12:0.801524 13:0.71405 14:-0.602899 15:-0.546238 
512 1:0.867711 2:0.499768 3:0.897114 4:0.152304 5:0.871336 6:-0.410029 7:-0.570313 8:0.0772869 9:-0.29138 10:-0.00905278 11:-0.627498 12:0.390886 13:0.261865 14:0.375337 15:-0.666598 
512 1:-0.409784 2:-0.666177 3:-0.868698 4:-0.340057 5:0.585767 6:-0.316913 7:0.84662 8:-0.0613327 9:0.142982 10:0.830313 11:-0.883636 12:-0.491787 13:-0.912171 14:-0.541812 15:-0.564567 
152.7448614791538 1:0.266814 2:0.427722 3:-0.868614 4:0.873699 5:0.732254 6:-0.896017 7:0.987261 8:-0.0253152 9:-0.863662 10:0.640421 11:-0.870226 12:-0.886932 13:-0.219884 14:0.179638 15:-0.0778435 
512 1:-0.524812 2:0.900556 3:-0.128609 4:0.226512 5:-0.602537 6:-0.694877 7:-0.252918 8:0.141496 9:0.330491 10:0.803837 11:0.462291 12:-0.772636 13:0.444838 14:-0.460516 15:-0.135884 
512 1:-0.434472 2:0.624565 3:-0.497646 4:0.650006 5:0.381312 6:-0.78583 7:0.738092 8:0.53769 9:0.373734 10:-0.517471 11:0.485612 12:-0.0760685 13:-0.269299 14:0.653005 15:-0.811814 
512 1:-0.907827 2:0.454853 3:0.385102 4:-0.419984 5:0.0959247 6:0.0214084 7:-0.281861 8:0.599929 9:0.759331 10:0.745393 11:-0.420527 12:-0.727747 13:0.945721 14:-0.351168 15:0.0703037 
512 1:0.507987 2:0.735559 3:0.437653 4:0.95044 5:0.29037 6:-0.0826917 7:0.0625369 8:0.903171 9:0.0212891 10:-0.0695461 11:0.149454 12:-0.580258 13:0.0303617 14:0.140653 15:-0.694458 
512 1:-0.167712 2:0.597186 3:-0.909725 4:0.248544 5:0.762566 6:-0.762615 7:-0.339865 8:0.235775 9:-0.766659 10:0.0375036 11:0.227641 12:0.442066 13:-0.777708 14:0.523667 15:-0.84645 
512 1:-0.157233 2:0.303695 3:-0.00730733 4:-0.932547 5:-0.372306 6:-0.0257247 7:0.119547 8:0.802865 9:-0.785271 10:-0.0521299 11:0.652506 12:0.638964 13:0.0285921 14:-0.51357 15:-0.71968 
512 1:0.772984 2:0.893485 3:0.965887 4:0.0858705 5:0.567916 6:-0.517215 7:0.789523 8:0.891227 9:0.566413 10:0.375354 11:0.387196 12:-0.307825 13:-0.0911359 14:-0.633761 15:0.872038 
512 1:0.508698 2:0.845724 3:-0.0623721 4:-0.736397 5:0.23344 6:-0.0614805 7:0.265078 8:-0.442516 9:-0.708071 10:0.627392 11:0.808999 12:0.939671 13:0.380534 14:-0.338854 15:-0.116087 
512 1:0.352047 2:-0.987876 3:0.266193 4:-0.839681 5:0.00827861 6:0.628041 7:-0.280758 8:0.449596 9:0.376804 10:-0.353352 11:-0.0582859 12:0.425119 13:-0.868811 14:0.468589 15:-0.790548 
382.6073113803575 1:0.47435 2:0.0312075 3:-0.682022 4:-0.431143 5:-0.0555144 6:0.172431 7:0.588816 8:0.969696 9:-0.652798 10:0.433847 11:-0.768054 12:-0.494964 13:-0.157003 14:-0.499673 15:-0.171184 
250.1049551269805 1:-0.265011 2:0.598767 3:-0.992766 4:0.950481 5:0.200645 6:-0.305518 7:0.188746 8:-0.719244 9:-0.564192 10:0.811518 11:-0.615289 12:0.473179 13:-0.287162 14:-0.706104 15:0.331291 
512 1:-0.422056 2:0.233555 3:0.112647 4:-0.490859 5:0.353496 6:0.846323 7:-0.471017 8:0.552557 9:-0.460052 10:-0.532093 11:-0.127262 12:0.0937794 13:-0.815087 14:-0.836947 15:-0.459077 
15.70659712313763 1:0.130018 2:0.215081 3:-0.202176 4:0.983988 5:0.486972 6:0.928876 7:0.00822068 8:-0.593498 9:0.67097 10:0.637876 11:0.793482 12:0.870042 13:0.387334 14:-0.310043 15:0.967969 
60.41196143261907 1:0.503163 2:0.373181 3:-0.967481 4:-0.62972 5:0.0402081 6:0.472659 7:0.778001 8:0.119452 9:-0.372973 10:-0.642749 11:-0.435153 12:-0.855846 13:-0.882793 14:-0.37068 15:-0.643612 
512 1:0.834413 2:0.690913 3:0.670494 4:-0.00997943 5:-0.654463 6:0.255619 7:0.526626 8:-0.391094 9:0.0567222 10:-0.104893 11:-0.221994 12:0.389452 13:-0.138326 14:-0.671022 15:-0.0812766 
512 1:-0.551919 2:0.532821 3:0.947934 4:-0.979778 5:-0.0591788 6:-0.433641 7:0.313931 8:0.226353 9:0.244739 10:-0.214041 11:-0.13724 12:-0.5227 13:0.593459 14:0.185587 15:-0.973879 
410.0240779931939 1:-0.365664 2:0.0124243 3:0.381645 4:-0.573684 5:-0.70705 6:0.863976 7:-0.723588 8:0.0782035 9:-0.975342 10:0.569818 11:0.41537 12:0.333929 13:-0.896762 14:0.664165 15:0.375182 
512 1:0.809344 2:0.676786 3:0.372045 4:-0.445942 5:-0.161099 6:0.955341 7:0.210212 8:-0.914259 9:0.602233 10:0.166536 11:-0.464141 12:-0.458416 13:0.76448 14:-0.496515 15:0.657146 
512 1:-0.520656 2:0.177268 3:0.891308 4:0.912382 5:0.715246 6:0.807483 7:0.260853 8:0.841467 9:-0.0830774 10:0.377234 11:-0.928001 12:0.812646 13:-0.583846 14:-0.246972 15:-0.446015 
512 1:-0.599731 2:0.200397 3:0.992316 4:-0.452089 5:-0.0572916 6:-0.584408 7:0.245244 8:-0.992664 9:0.0131598 10:0.34118 11:-0.217391 12:0.513488 13:-0.24367 14:-0.157369 15:0.698744 
327.2743535432399 1:-0.893608 2:0.733874 3:-0.507805 4:-0.282651 5:0.291342 6:0.796048 7:0.702227 8:0.0279809 9:-0.271454 10:-0.345694 11:0.631196 12:-0.226797 13:0.124058 14:0.229497 15:-0.39966 
512 1:-0.0486683 2:-0.637858 3:0.253591 4:-0.184379 5:0.637277 6:-0.493809 7:-0.265511 8:-0.840275 9:0.667571 10:0.247702 11:0.354781 12:0.730013 13:-0.268142 14:-0.20943 15:0.299257 
40.90780723751293 1:0.678978 2:0.428961 3:0.560289 4:-0.256456 5:-0.166286 6:0.826015 7:-0.295064 8:0.352609 9:0.810113 10:-0.272344 11:-0.586933 12:-0.449274 13:0.364049 14:0.983449 15:0.933148 
512 1:-0.745042 2:0.682131 3:-0.331637 4:-0.272627 5:-0.668476 6:-0.221614 7:-0.093842 8:-0.587244 9:0.640397 10:0.803367 11:-0.47436 12:0.385864 13:0.603863 14:0.0474984 15:-0.51548 
512 1:0.764269 2:0.640672 3:0.631001 4:0.757326 5:0.267801 6:-0.849047 7:-0.102584 8:0.461471 9:0.307031 10:0.439499 11:-0.682308 12:-0.69548 13:0.291227 14:-0.916817 15:-0.03328 
512 1:0.518903 2:0.117698 3:-0.519471 4:0.139912 5:-0.314576 6:-0.411918 7:-0.512489 8:0.977911 9:-0.234912 10:0.167581 11:-0.746537 12:-0.323781 13:-0.194476 14:-0.532018 15:0.559488 
512 1:0.0987455 2:0.832458 3:0.105864 4:-0.691959 5:-0.37696 6:-0.448436 7:0.692504 8:-0.951933 9:0.295157 10:-0.699169 11:-0.0740107 12:0.128244 13:0.604958 14:0.998656 15:-0.299384 
291.9806714571368 1:0.470678 2:0.781672 3:-0.706105 4:0.0820947 5:0.987294 6:0.429701 7:0.274139 8:-0.716249 9:-0.397385 10:-0.918381 11:-0.974901 12:-0.232613 13:-0.257168 14:-0.440485 15:0.244485 
176.5090715392271 1:-0.970501 2:0.627167 3:0.942012 4:0.155927 5:0.322913 6:0.959153 7:-0.248348 8:0.903033 9:-0.533453 10:0.201411 11:0.959592 12:-0.555422 13:0.857887 14:-0.913297 15:-0.216581 
512 1:-0.366754 2:-0.401545 3:-0.106221 4:-0.590125 5:-0.683802 6:-0.678934 7:0.887225 8:-0.406481 9:0.470484 10:-0.0653519 11:0.761473 12:0.290248 13:-0.816368 14:-0.348569 15:-0.37427 
512 1:-0.401362 2:0.902514 3:-0.99067 4:0.46753 5:-0.883829 6:-0.0951898 7:0.175726 8:-0.190435 9:0.720429 10:-0.448358 11:0.728545 12:-0.702689 13:0.677904 14:0.200262 15:-0.533236 
205.0744809476658 1:0.532983 2:-0.436503 3:-0.200542 4:-0.918871 5:-0.265616 6:-0.512896 7:-0.610039 8:0.847966 9:-0.657453 10:-0.662673 11:-0.930772 12:-0.290875 13:0.211204 14:-0.451429 15:-0.826312 
435.9818894068925 1:0.0109798 2:0.347323 3:0.343859 4:-0.48093 5:-0.48829 6:0.969108 7:-0.760454 8:-0.981767 9:0.58233 10:-0.502006 11:0.358458 12:-0.652098 13:-0.968526 14:-0.543259 15:-0.371577 
72.11632908364007 1:-0.009682 2:-0.0524415 3:-0.410922 4:-0.978003 5:0.42044 6:0.153746 7:-0.445098 8:0.717028 9:0.691052 10:0.300457 11:0.11879 12:0.583976 13:0.913807 14:-0.376192 15:0.247888 
512 1:-0.949416 2:0.134892 3:0.306914 4:-0.498067 5:-0.678361 6:-0.88392 7:0.381324 8:-0.918665 9:0.645312 10:-0.171173 11:0.919232 12:-0.805419 13:0.939916 14:-0.925181 15:-0.418807 
512 1:-0.653039 2:0.448186 3:-0.192456 4:-0.834422 5:0.45406 6:0.367023 7:-0.539621 8:-0.195219 9:-0.418681 10:-0.215637 11:-0.735118 12:0.536489 13:0.24824 14:0.74271 15:-0.00947908 
512 1:0.234034 2:0.556785 3:0.560121 4:0.628949 5:-0.494736 6:0.259003 7:-0.0297285 8:0.0432744 9:0.106682 10:-0.0135033 11:0.287176 12:0.532995 13:-0.521936 14:0.49367 15:-0.970276 
512 1:0.451116 2:0.602293 3:0.213579 4:0.718861 5:-0.786716 6:-0.822818 7:0.263001 8:0.4518 9:0.649094 10:0.471305 11:0.927976 12:0.257333 13:0.961728 14:0.360555 15:-0.834322 
512 1:-0.335917 2:-0.0620195 3:-0.0486582 4:0.90608 5:0.0773355 6:-0.933762 7:0.67971 8:0.410783 9:0.437245 10:0.638513 11:-0.401796 12:0.216323 13:-0.410565 14:0.850588 15:0.219992 
512 1:0.0486903 2:0.248801 3:0.6161 4:0.208329 5:0.11187 6:-0.421114 7:0.60155 8:-0.859112 9:0.387756 10:0.758284 11:0.4009 12:0.633064 13:-0.072781 14:0.726003 15:0.725949 
512 1:-0.82023 2:-0.29386 3:0.148048 4:-0.955415 5:0.980222 6:-0.174674 7:-0.262977 8:0.194071 9:0.0438101 10:0.231218 11:-0.772691 12:0.914207 13:-0.591687 14:0.33994 15:-0.456709 
512 1:0.18459 2:0.678996 3:0.0385608 4:0.490162 5:0.662813 6:-0.269875 7:-0.00298468 8:0.49712 9:-0.704274 10:-0.076369 11:0.796744 12:0.992247 13:-0.548518 14:0.0861644 15:-0.0844171 
512 1:0.168517 2:0.313322 3:-0.814125 4:0.96493 5:-0.988675 6:0.0684466 7:-0.814211 8:-0.642612 9:-0.235341 10:-0.043442 11:-0.549573 12:0.00525691 13:-0.810112 14:0.910082 15:-0.705344 
153.1691348537589 1:0.673333 2:0.194307 3:0.778831 4:0.66112 5:-0.648963 6:0.767569 7:0.973919 8:-0.0561496 9:-0.40669 10:0.068246 11:-0.827194 12:-0.282201 13:-0.372268 14:-0.627171 15:0.653988 
494.5454030501738 1:0.249207 2:0.220896 3:0.873773 4:-0.858717 5:0.380743 6:0.966141 7:0.0658532 8:-0.666875 9:-0.766129 10:-0.811283 11:-0.207611 12:0.73236 13:-0.671624 14:0.599869 15:-0.64452 
191.3478076837776 1:0.654317 2:0.0437391 3:-0.09979 4:-0.686053 5:0.899618 6:0.0233793 7:-0.472341 8:0.734363 9:-0.179047 10:0.578406 11:0.293164 12:-0.997411 13:-0.929115 14:-0.0231559 15:-0.175039 
512 1:0.348955 2:-0.383346 3:0.247385 4:0.733704 5:-0.984888 6:0.488314 7:0.367286 8:0.722236 9:0.780201 10:-0.37643 11:-0.609792 12:0.0904946 13:-0.531262 14:0.845557 15:0.208142 
343.1819300824712 1:-0.353203 2:-0.485933 3:0.821996 4:-0.788606 5:0.37385 6:-0.41168 7:0.353579 8:0.473549 9:0.637111 10:-0.657016 11:-0.551838 12:0.61355 13:0.912914 14:0.8435 15:-0.350244 
512 1:-0.9052 2:0.539384 3:0.478324 4:-0.813261 5:-0.413962 6:-0.934951 7:-0.527536 8:0.627084 9:-0.334261 10:0.784308 11:-0.141613 12:0.255176 13:-0.703728 14:-0.471188 15:0.877716 
512 1:-0.659881 2:-0.175282 3:0.372453 4:-0.987431 5:-0.474515 6:-0.628438 7:0.600316 8:0.961287 9:0.480704 10:-0.238638 11:-0.444248 12:-0.556708 13:0.995344 14:-0.792653 15:0.185247 
183.0579191103903 1:-0.994914 2:0.264841 3:-0.611736 4:0.903088 5:0.580349 6:0.383516 7:-0.839913 8:-0.463817 9:-0.792581 10:-0.421495 11:-0.529113 12:0.515001 13:-0.922236 14:-0.228345 15:0.560456 
512 1:0.087328 2:0.268582 3:0.309804 4:-0.114359 5:0.820491 6:0.757182 7:0.328287 8:-0.836878 9:0.684125 10:0.168823 11:0.155925 12:0.907655 13:-0.49059 14:-0.285901 15:-0.693158 
456.6726205837314 1:-0.353105 2:-0.0687635 3:-0.326031 4:0.837106 5:0.447064 6:-0.79394 7:-0.660705 8:-0.0924975 9:0.892501 10:0.592398 11:0.690338 12:-0.57468 13:0.793499 14:-0.930775 15:0.709517 
512 1:-0.679844 2:0.537878 3:0.70352 4:0.604677 5:0.709009 6:-0.320681 7:-0.988146 8:-0.937555 9:-0.901629 10:-0.847567 11:-0.361017 12:-0.53245 13:0.426061 14:-0.368054 15:-0.637811 
301.1745821274953 1:-0.511239 2:-0.924326 3:0.101905 4:-0.39702 5:-0.959277 6:-0.678691 7:0.318954 8:-0.649108 9:0.0698279 10:-0.548815 11:-0.653313 12:-0.152681 13:-0.786907 14:-0.540528 15:0.624518 
110.1284579452719 1:-0.0385211 2:0.586486 3:0.474502 4:0.347154 5:0.965806 6:0.295776 7:0.905875 8:-0.403458 9:-0.856137 10:0.409046 11:-0.201277 12:-0.865872 13:-0.22241 14:0.54103 15:0.0970607 
512 1:-0.326192 2:0.742228 3:-0.628645 4:0.192583 5:0.15343 6:-0.187326 7:-0.431018 8:-0.584588 9:-0.560238 10:0.561708 11:0.369772 12:0.840786 13:-0.626034 14:-0.342688 15:-0.681775 
512 1:0.506824 2:0.254089 3:0.865491 4:-0.643182 5:-0.957468 6:0.875222 7:0.652217 8:-0.242484 9:0.115196 10:-0.0179109 11:0.23582 12:-0.747611 13:0.797103 14:-0.506017 15:0.379721 
305.3263058455825 1:0.125566 2:0.310171 3:0.941326 4:0.504216 5:-0.697541 6:-0.83897 7:0.0821879 8:-0.645153 9:0.943182 10:-0.393785 11:-0.370294 12:0.637768 13:-0.919809 14:-0.294852 15:0.72926 
512 1:0.40039 2:0.763945 3:0.95673 4:-0.797495 5:0.223862 6:-0.872498 7:-0.268051 8:0.262973 9:0.181169 10:-0.629588 11:0.952786 12:0.456772 13:-0.106819 14:-0.270543 15:-0.245614 
499.6414784422999 1:0.76737 2:-0.642246 3:-0.0967284 4:-0.874826 5:0.134469 6:0.681887 7:0.790605 8:0.855612 9:-0.140935 10:0.39118 11:-0.615727 12:0.328424 13:0.227988 14:0.89544 15:-0.46837 
492.0076334417703 1:-0.215422 2:0.493156 3:0.927618 4:0.583764 5:-0.316602 6:0.0130563 7:0.209293 8:0.702394 9:0.0301493 10:-0.970199 11:-0.762139 12:-0.296769 13:0.964742 14:0.813716 15:0.262443 
353.8044304230747 1:0.168941 2:0.06703 3:-0.625163 4:-0.208012 5:0.10092 6:0.484074 7:0.356282 8:-0.924503 9:0.269654 10:0.795245 11:0.0952031 12:0.910119 13:-0.534906 14:0.740694 15:-0.603992 
512 1:-0.952066 2:0.247035 3:-0.136435 4:0.104485 5:-0.633562 6:-0.966594 7:0.650003 8:0.961581 9:-0.634982 10:-0.483382 11:-0.747513 12:0.996419 13:-0.175318 14:0.30206 15:0.185585 
512 1:-0.132592 2:0.726078 3:0.276353 4:-0.684666 5:-0.517913 6:-0.869984 7:-0.328648 8:-0.723982 9:0.733099 10:-0.741421 11:-0.45915 12:0.12189 13:0.909883 14:0.57369 15:-0.0749715 
512 1:0.29054 2:-0.60269 3:0.560641 4:0.432971 5:-0.263862 6:0.41493 7:-0.0270459 8:0.383765 9:0.720174 10:0.0136538 11:0.868018 12:0.303394 13:-0.653546 14:-0.605577 15:-0.231503 
512 1:-0.704316 2:0.250094 3:0.225441 4:-0.312329 5:-0.698764 6:-0.377524 7:-0.466492 8:0.855429 9:0.512613 10:-0.260664 11:-0.598951 12:0.462518 13:0.678619 14:0.635495 15:-0.043689 
155.7521887274686 1:-0.309148 2:0.730376 3:0.848512 4:0.0446066 5:-0.0182501 6:0.00301186 7:0.434016 8:0.853835 9:0.493176 10:0.985011 11:-0.547561 12:-0.923901 13:-0.282789 14:0.540219 15:-0.752061 
512 1:-0.679916 2:0.192662 3:0.203413 4:-0.875927 5:0.00241021 6:0.283451 7:-0.771496 8:-0.295472 9:-0.185622 10:-0.937159 11:0.0699431 12:0.764145 13:0.883642 14:0.525896 15:0.0423386 
31.15668871683321 1:0.402424 2:-0.0532573 3:-0.533696 4:-0.750562 5:-0.762154 6:0.473272 7:0.927918 8:0.878022 9:-0.00375712 10:0.39079 11:-0.174937 12:-0.583019 13:-0.216327 14:0.058396 15:0.595937 
512 1:0.117055 2:0.604416 3:-0.744022 4:0.903298 5:0.462457 6:-0.515456 7:0.124727 8:0.870938 9:-0.962149 10:-0.888563 11:0.55549 12:0.111797 13:-0.224734 14:0.582383 15:0.476168 
512 1:0.924406 2:0.950893 3:-0.726386 4:-0.227587 5:0.520299 6:-0.0339324 7:-0.762699 8:0.0314996 9:0.328618 10:0.218086 11:-0.863434 12:0.411615 13:-0.112275 14:0.96734 15:-0.897353 
512 1:-0.32358 2:0.944742 3:-0.634806 4:-0.372669 5:0.113663 6:0.783485 7:-0.999074 8:0.0941015 9:-0.597676 10:0.657858 11:-0.256798 12:0.593479 13:-0.353719 14:0.523487 15:-0.775505 
512 1:0.472254 2:-0.140676 3:0.110444 4:-0.185374 5:0.914197 6:-0.550348 7:0.206251 8:-0.498052 9:0.866524 10:0.866271 11:-0.40762 12:-0.739108 13:-0.468212 14:0.732353 15:-0.749872 
404.7163549905671 1:0.144204 2:-0.404175 3:-0.307324 4:-0.849547 5:0.306793 6:-0.261538 7:0.900884 8:-0.612118 9:0.0764304 10:-0.189575 11:-0.488262 12:-0.719563 13:-0.592458 14:-0.846942 15:0.124418 
512 1:-0.172318 2:-0.799256 3:0.541978 4:-0.0717686 5:-0.18719 6:0.00727773 7:-0.594382 8:0.962865 9:0.622747 10:-0.750792 11:-0.656921 12:-0.65218 13:-0.718029 14:-0.964406 15:-0.802753 
512 1:-0.0388948 2:0.44672 3:-0.873893 4:-0.898559 5:0.125186 6:0.133121 7:-0.653678 8:-0.0818414 9:-0.448415 10:-0.577437 11:-0.62633 12:-0.579808 13:-0.451963 14:0.609144 15:0.38617 
255.0782989625039 1:0.236962 2:-0.876527 3:0.792047 4:-0.707697 5:-0.859556 6:-0.121484 7:0.0046275 8:-0.0931241 9:0.467629 10:0.249753 11:-0.936122 12:0.611156 13:0.95339 14:-0.505199 15:0.751871 
393.7106916290931 1:-0.993175 2:0.310417 3:-0.216202 4:-0.672754 5:0.45924 6:0.714408 7:0.122172 8:-0.945881 9:0.125885 10:-0.857971 11:-0.513298 12:-0.521359 13:-0.658075 14:-0.629937 15:0.279744 
121.7807565984598 1:0.776485 2:-0.649349 3:-0.324045 4:0.482825 5:-0.658195 6:-0.816992 7:0.0255136 8:0.955456 9:0.958742 10:0.438917 11:0.146477 12:-0.905879 13:-0.642991 14:-0.948158 15:0.991044 
224.603400901499 1:-0.425937 2:0.607129 3:0.924798 4:0.182727 5:0.0871853 6:0.194649 7:0.783471 8:0.961042 9:-0.416625 10:0.753303 11:-0.310309 12:0.874751 13:-0.436165 14:0.971494 15:0.933593 
285.3251894730536 1:-0.495796 2:0.3701 3:-0.581745 4:-0.997415 5:0.94953 6:0.655837 7:-0.0610728 8:0.599447 9:-0.511922 10:-0.725233 11:0.244934 12:-0.530506 13:-0.56143 14:-0.327959 15:-0.243162 
512 1:-0.860852 2:0.450879 3:0.780674 4:0.0550068 5:0.998057 6:0.00935854 7:-0.72611 8:-0.243112 9:-0.224815 10:-0.633921 11:0.0648113 12:0.881757 13:-0.748165 14:-0.498859 15:0.651536 
9.720798534973722 1:0.910666 2:-0.19301 3:-0.804117 4:0.993149 5:-0.930777 6:-0.196242 7:0.974514 8:0.998239 9:0.515809 10:0.569241 11:-0.728186 12:-0.483062 13:0.500035 14:0.618345 15:0.572809 
512 1:-0.684378 2:0.707107 3:-0.657289 4:0.238205 5:0.585822 6:0.597545 7:-0.424916 8:0.241653 9:-0.266953 10:-0.328491 11:0.810857 12:0.134611 13:-0.843879 14:0.37287 15:0.0243562 
512 1:0.640326 2:-0.292411 3:-0.500754 4:0.0505343 5:-0.365655 6:0.156418 7:-0.0685147 8:-0.3207 9:-0.0155563 10:0.52097 11:0.374281 12:0.550013 13:-0.664865 14:0.940579 15:0.670613 
512 1:-0.356037 2:0.662964 3:0.208226 4:-0.968951 5:-0.0958293 6:0.821622 7:-0.341156 8:-0.704813 9:-0.197176 10:0.153635 11:0.332437 12:-0.860146 13:0.970338 14:0.267884 15:0.799586 
512 1:-0.334026 2:0.512634 3:-0.0923451 4:-0.498955 5:0.68081 6:0.988518 7:-0.393411 8:0.971878 9:-0.0479804 10:0.428131 11:-0.224894 12:-0.131369 13:-0.19484 14:0.99043 15:0.222476 
324.5686581194404 1:-0.201721 2:0.478234 3:-0.480487 4:-0.610144 5:-0.0480943 6:-0.411222 7:-0.233034 8:-0.515575 9:-0.811997 10:-0.39203 11:0.226881 12:0.699597 13:0.086491 14:-0.858048 15:0.969244 
512 1:0.626099 2:0.95859 3:-0.0371419 4:-0.659887 5:0.572237 6:0.149026 7:-0.770313 8:-0.175141 9:-0.723494 10:0.65458 11:0.48445 12:0.04402 13:0.195494 14:0.806661 15:0.000129026 
86.43301944457437 1:0.839909 2:-0.51743 3:-0.413883 4:-0.795192 5:0.689017 6:0.701095 7:0.540355 8:-0.773233 9:-0.164808 10:0.563016 11:-0.655671 12:0.903986 13:-0.797799 14:0.256159 15:0.166032 
512 1:-0.428698 2:0.682461 3:0.759211 4:0.541433 5:-0.770175 6:0.304617 7:-0.272992 8:-0.977846 9:0.15332 10:-0.350431 11:0.282125 12:0.337611 13:0.0500218 14:0.51957 15:-0.446493 
512 1:0.502509 2:-0.200992 3:0.0156543 4:-0.0695155 5:-0.930678 6:0.574864 7:0.910939 8:0.385897 9:-0.162538 10:0.276476 11:-0.221163 12:-0.823694 13:-0.6146 14:0.182801 15:-0.208322 
512 1:0.363335 2:0.548419 3:0.489307 4:0.434585 5:-0.964959 6:-0.313839 7:0.346783 8:0.982806 9:0.553603 10:-0.464428 11:-0.7982 12:0.746802 13:-0.888622 14:-0.506645 15:-0.192723 
512 1:-0.112478 2:0.0624801 3:-0.455916 4:-0.736425 5:0.347218 6:0.42933 7:0.330534 8:0.308622 9:0.523844 10:0.346942 11:-0.92968 12:0.187848 13:0.809533 14:-0.858555 15:0.183954 
512 1:0.63048 2:0.592299 3:-0.322071 4:-0.666478 5:0.153648 6:-0.160773 7:0.206581 8:-0.307786 9:0.601813 10:-0.307974 11:-0.706385 12:-0.341728 13:0.692425 14:0.233831 15:0.844581 
512 1:-0.763812 2:0.708403 3:-0.244407 4:0.794888 5:0.948545 6:0.574502 7:0.208742 8:0.215425 9:-0.451074 10:0.294414 11:-0.547635 12:-0.788823 13:-0.71076 14:-0.925955 15:-0.147623 
512 1:-0.239449 2:0.289124 3:0.322417 4:-0.822544 5:0.317546 6:-0.991748 7:-0.2674 8:-0.949304 9:-0.262459 10:-0.226161 11:-0.0430746 12:-0.901022 13:-0.7547 14:-0.772995 15:0.170709 
512 1:-0.3061 2:-0.213411 3:0.0891568 4:-0.824937 5:0.418062 6:-0.0105846 7:0.540374 8:0.0970627 9:0.645044 10:0.619568 11:-0.645141 12:-0.468224 13:0.266632 14:0.0110364 15:0.0663956 
512 1:0.474362 2:0.51473 3:0.207976 4:0.0239465 5:0.0141688 6:0.423689 7:-0.85508 8:-0.27693 9:0.212526 10:0.758622 11:0.820476 12:0.730676 13:-0.199335 14:-0.414713 15:-0.543459 
512 1:-0.315029 2:0.131523 3:-0.0752747 4:0.876558 5:0.220587 6:-0.8348 7:-0.408133 8:-0.664452 9:0.996766 10:0.112413 11:0.215064 12:0.592498 13:0.981648 14:-0.704896 15:-0.0138 
512 1:0.828289 2:-0.655509 3:-0.282157 4:0.795117 5:0.669069 6:0.353386 7:0.554569 8:0.632097 9:0.270595 10:0.983543 11:-0.2337 12:0.836569 13:-0.529498 14:-0.747495 15:-0.681421 
512 1:0.50081 2:0.795955 3:0.756619 4:0.804039 5:-0.774413 6:-0.326858 7:-0.757289 8:0.569587 9:-0.665844 10:0.405389 11:0.0787515 12:0.110787 13:0.462579 14:-0.519737 15:-0.826628 
512 1:-0.083034 2:0.188028 3:0.859063 4:-0.438363 5:-0.0830552 6:0.104285 7:0.888105 8:-0.169113 9:0.0432142 10:0.216375 11:0.262183 12:0.851382 13:0.696352 14:0.0872378 15:-0.85985 
429.5357091391706 1:0.84703 2:0.295164 3:-0.423016 4:-0.0389833 5:-0.60613 6:0.425189 7:0.434925 8:0.65955 9:-0.579624 10:0.742217 11:0.243896 12:0.570411 13:-0.922007 14:-0.346792 15:0.172322 
248.9838041855768 1:-0.851572 2:-0.140528 3:0.496995 4:-0.317672 5:0.201653 6:-0.334063 7:0.647121 8:-0.468719 9:0.60096 10:0.834699 11:0.339427 12:-0.0316049 13:0.523252 14:-0.360139 15:0.978678 
512 1:-0.371815 2:0.674478 3:0.934117 4:0.515471 5:-0.774172 6:0.311938 7:-0.940137 8:0.533973 9:0.116103 10:-0.963143 11:-0.849643 12:-0.836112 13:-0.158806 14:0.200499 15:0.21319 
52.65643770180525 1:0.716084 2:0.532145 3:0.569433 4:0.482831 5:0.0593814 6:-0.928572 7:-0.183911 8:-0.483693 9:0.34453 10:0.262515 11:-0.508452 12:-0.899113 13:0.145508 14:0.0804207 15:0.952515 
512 1:-0.432333 2:0.1321 3:0.955949 4:0.489834 5:-0.162723 6:-0.483968 7:-0.513717 8:-0.660265 9:0.27452 10:0.963183 11:-0.68592 12:0.57258 13:-0.341107 14:0.0272189 15:-0.792594 
512 1:-0.924027 2:-0.488176 3:-0.385159 4:0.783453 5:-0.0901338 6:0.690092 7:-0.266682 8:0.36065 9:0.724453 10:0.0367013 11:-0.563437 12:0.619054 13:-0.172341 14:-0.123676 15:-0.434861 
512 1:0.0718073 2:-0.148496 3:-0.0233361 4:-0.714759 5:-0.758086 6:0.0528642 7:-0.547288 8:-0.341494 9:0.878379 10:-0.605633 11:-0.746894 12:0.689357 13:-0.797844 14:-0.507736 15:0.580439 
512 1:0.576651 2:0.268941 3:0.962789 4:-0.399813 5:0.136038 6:0.301038 7:-0.0233488 8:0.988736 9:0.794731 10:0.909221 11:-0.055591 12:0.130832 13:0.127464 14:0.369773 15:-0.585117 
512 1:-0.464385 2:0.494793 3:0.0867221 4:-0.31997 5:-0.802937 6:-0.126642 7:0.613591 8:-0.281607 9:-0.292029 10:-0.753962 11:-0.444967 12:-0.182555 13:0.583032 14:-0.0429028 15:-0.679395 
512 1:0.206861 2:-0.809087 3:0.0901682 4:0.494152 5:0.501242 6:-0.0900136 7:0.362123 8:-0.958188 9:0.853663 10:0.463431 11:0.279206 12:-0.763257 13:-0.688179 14:0.544807 15:-0.0841056 
512 1:0.657591 2:0.0569738 3:0.21094 4:-0.462591 5:-0.530078 6:-0.0517933 7:0.333782 8:0.351008 9:0.0949734 10:-0.536685 11:-0.478859 12:-0.03569 13:-0.657304 14:0.917432 15:0.261746 
408.1254106752159 1:-0.386302 2:0.427685 3:-0.0357847 4:-0.804878 5:0.158952 6:0.278855 7:-0.771888 8:-0.578089 9:0.61093 10:-0.414349 11:-0.967724 12:0.777703 13:-0.11184 14:0.836216 15:-0.941642 
512 1:-0.711656 2:0.86741 3:0.461905 4:0.372672 5:-0.601964 6:-0.988018 7:-0.717726 8:0.441644 9:0.385675 10:0.943029 11:-0.677885 12:0.650145 13:0.675518 14:-0.791903 15:0.804044 
512 1:0.160436 2:-0.749095 3:-0.226292 4:0.452593 5:-0.439339 6:0.676792 7:0.392074 8:0.426777 9:0.758516 10:0.999066 11:-0.703293 12:0.430124 13:-0.173934 14:-0.696528 15:-0.809969 
512 1:0.471965 2:0.523246 3:0.266877 4:-0.15551 5:-0.0694065 6:-0.986112 7:-0.700956 8:0.00251635 9:-0.609783 10:-0.665958 11:-0.603944 12:-0.157559 13:-0.390448 14:-0.330502 15:0.651364 
427.0973458686496 1:0.894783 2:0.482713 3:-0.767701 4:-0.732773 5:0.989098 6:-0.237811 7:0.470603 8:0.355348 9:0.569431 10:0.713465 11:-0.223193 12:-0.62405 13:-0.192467 14:0.0842471 15:-0.881344 
512 1:0.111919 2:-0.970872 3:0.170822 4:0.344404 5:-0.315711 6:-0.0521475 7:0.876954 8:-0.506852 9:0.994104 10:0.595986 11:0.679177 12:0.992186 13:-0.05577 14:-0.94974 15:0.0453845 
407.6671788650702 1:0.7776 2:0.62261 3:-0.67821 4:0.771504 5:0.368869 6:0.995181 7:-0.56432 8:-0.134315 9:0.429405 10:0.178628 11:-0.905467 12:-0.631341 13:0.99679 14:0.853308 15:-0.318618 
512 1:-0.109041 2:0.304693 3:0.012082 4:-0.352964 5:-0.806629 6:0.181027 7:-0.811594 8:0.156611 9:0.0812692 10:0.668979 11:0.374481 12:-0.324352 13:-0.395531 14:0.179253 15:-0.0021791 
512 1:0.108563 2:-0.832836 3:0.329947 4:-0.0873999 5:-0.522792 6:-0.842741 7:0.262959 8:0.782144 9:-0.975243 10:-0.346677 11:-0.265081 12:-0.0127423 13:-0.829139 14:0.529427 15:-0.706796 
512 1:0.288291 2:0.42578 3:-0.441086 4:0.536734 5:0.502551 6:0.237655 7:-0.457661 8:-0.692567 9:0.507175 10:0.809552 11:0.887521 12:0.37608 13:0.971252 14:-0.560089 15:0.65869 
512 1:-0.694396 2:0.450187 3:0.12365 4:0.654459 5:0.568525 6:0.332335 7:0.166268 8:0.363147 9:-0.675887 10:0.0624446 11:-0.431375 12:-0.733153 13:-0.196298 14:0.69553 15:-0.244773 
198.0930764952747 1:-0.212563 2:-0.225112 3:-0.541113 4:0.626685 5:0.648646 6:-0.57412 7:0.0867217 8:0.870724 9:0.660771 10:0.690887 11:0.914278 12:-0.511375 13:-0.26968 14:-0.613579 15:0.541127 
512 1:-0.0450032 2:0.616882 3:-0.205767 4:0.357402 5:0.541636 6:0.228829 7:0.132839 8:0.09205 9:-0.579882 10:0.0244115 11:0.472307 12:0.588959 13:-0.616944 14:-0.880994 15:0.312246 
86.1096076567509 1:0.555939 2:0.0725433 3:0.315919 4:-0.483908 5:0.896049 6:-0.688625 7:-0.811364 8:0.867079 9:0.0871548 10:0.865617 11:-0.0771847 12:0.943716 13:0.70963 14:-0.763684 15:-0.484182 
512 1:0.370637 2:-0.230844 3:-0.340634 4:-0.517975 5:-0.165381 6:0.871775 7:0.316704 8:0.343874 9:0.691077 10:0.515162 11:0.93335 12:-0.186981 13:-0.337202 14:0.112171 15:-0.384462 
512 1:0.745668 2:0.632991 3:-0.192879 4:0.339644 5:0.448291 6:-0.445196 7:-0.959145 8:0.630752 9:-0.701557 10:0.134368 11:-0.260482 12:0.350995 13:0.198881 14:-0.206791 15:-0.470745 
512 1:0.58966 2:-0.267637 3:-0.00504704 4:-0.642531 5:0.964567 6:-0.642823 7:-0.35374 8:-0.835308 9:-0.0212305 10:-0.0146783 11:-0.083297 12:0.0386103 13:-0.38318 14:0.587545 15:-0.0652841 
216.5237488767591 1:-0.634595 2:-0.428873 3:-0.651521 4:-0.581213 5:-0.413369 6:0.900302 7:0.159367 8:0.265247 9:0.558556 10:0.892839 11:-0.600412 12:-0.557396 13:-0.739336 14:0.751133 15:-0.508132 
