svm_type c_svc
kernel_type rbf
gamma 0.125
nr_class 2
total_sv 748
rho -13.0084
label 1 0
nr_sv 393 355
SV
128 1:-0.889607 2:0.475511 3:-0.840047 4:-0.191966 5:-0.729434 6:-0.960046 7:-0.370847 8:-0.702123 9:0.193886 10:-0.721354 
112.7718412856315 1:0.489785 2:-0.10805 3:-0.535102 4:-0.382353 5:-0.616214 6:0.970436 7:0.854939 8:-0.968908 9:0.0164293 10:-0.3032 
76.89271863195036 1:0.20525 2:-0.407651 3:-0.593831 4:-0.497235 5:-0.942458 6:0.448269 7:-0.631048 8:-0.710062 9:-0.386768 10:-0.856983 
14.813994734832 1:0.550199 2:-0.130795 3:0.691153 4:-0.585698 5:-0.0857042 6:-0.60761 7:-0.73759 8:0.675677 9:-0.663553 10:-0.738943 
49.09035136153665 1:-0.102957 2:-0.0200997 3:-0.824452 4:-0.899974 5:0.710532 6:0.941326 7:-0.243036 8:0.86171 9:-0.987052 10:0.565563 
18.06852797578422 1:-0.539118 2:0.566335 3:0.871383 4:-0.379252 5:0.732195 6:0.345916 7:0.728853 8:-0.700935 9:-0.33127 10:-0.589874 
7.326884572955072 1:0.980091 2:-0.497092 3:-0.545817 4:0.048311 5:-0.0412545 6:0.346199 7:-0.610242 8:0.0962711 9:0.754484 10:-0.457205 
81.40986157907729 1:0.000261814 2:0.565994 3:0.775433 4:0.940943 5:0.101733 6:-0.930915 7:0.894281 8:0.302392 9:0.568517 10:0.668942 
89.19796386532904 1:-0.0385424 2:-0.602858 3:-0.254915 4:0.0304938 5:-0.827513 6:-0.578681 7:-0.680706 8:0.173541 9:-0.148364 10:-0.809953 
117.183271817139 1:0.482097 2:0.0339893 3:0.158125 4:-0.497848 5:0.135779 6:-0.855461 7:0.111359 8:-0.374561 9:0.016903 10:0.995255 
3.195576778814085 1:-0.158048 2:0.912159 3:-0.0898196 4:0.0247514 5:-0.712624 6:0.452286 7:0.0295426 8:0.670714 9:-0.942446 10:0.895319 
128 1:0.187152 2:0.612009 3:0.1801 4:-0.0577045 5:0.742633 6:-0.80974 7:-0.141202 8:0.938217 9:-0.521497 10:-0.0931764 
119.938358156042 1:0.484404 2:-0.572182 3:-0.134535 4:-0.0683859 5:0.625204 6:-0.142753 7:0.289678 8:0.558125 9:-0.883445 10:0.728673 
128 1:-0.0242788 2:0.0755209 3:-0.42369 4:-0.645499 5:-0.741759 6:0.824221 7:0.33598 8:0.327936 9:-0.434099 10:-0.4689 
0.4707760530227771 1:0.674409 2:0.441519 3:0.346079 4:0.890287 5:-0.742522 6:-0.923073 7:0.813922 8:0.437122 9:0.343651 10:-0.994292 
66.03449530360757 1:0.444449 2:-0.588796 3:0.899159 4:-0.340948 5:-0.727642 6:0.747212 7:-0.434375 8:0.0933969 9:-0.852376 10:-0.412501 
128 1:-0.432836 2:-0.0688873 3:-0.347858 4:-0.758459 5:-0.0531394 6:0.463429 7:-0.0461659 8:-0.613967 9:0.819394 10:0.0194584 
109.1863773746508 1:0.658857 2:-0.618403 3:0.464093 4:-0.123046 5:-0.606436 6:-0.490216 7:-0.424404 8:0.274926 9:0.877198 10:-0.819977 
106.5595007454448 1:-0.970792 2:-0.532176 3:0.853131 4:-0.236956 5:0.858278 6:-0.826073 7:0.965422 8:0.765599 9:0.398641 10:0.831852 
10.14025240531644 1:-0.358275 2:-0.142213 3:0.952179 4:-0.973912 5:-0.779832 6:0.140027 7:-0.851148 8:-0.0834182 9:-0.849646 10:0.07156 
77.71612512597596 1:-0.1143 2:0.767877 3:-0.346972 4:-0.0137767 5:0.0486498 6:0.651972 7:0.229123 8:-0.023077 9:-0.895565 10:-0.90559 
128 1:0.636562 2:0.140248 3:0.516751 4:0.0191944 5:0.42963 6:-0.928136 7:-0.732698 8:0.0574847 9:0.849856 10:-0.159603 
94.3513552329751 1:0.0434693 2:0.441621 3:0.702367 4:-0.221302 5:0.319841 6:0.816352 7:-0.996121 8:0.776155 9:0.761743 10:0.136651 
14.44657841463155 1:0.724778 2:0.406279 3:0.825651 4:0.759496 5:0.751944 6:-0.882625 7:-0.477218 8:0.843623 9:0.284213 10:-0.431464 
128 1:-0.287393 2:0.108475 3:-0.417285 4:-0.271916 5:0.488165 6:-0.894185 7:-0.58371 8:-0.469907 9:-0.86467 10:0.605687 
94.03329572239575 1:-0.360007 2:0.728763 3:-0.664499 4:0.562586 5:-0.101688 6:0.884017 7:-0.514438 8:0.425749 9:-0.968117 10:-0.678353 
46.16574424896953 1:0.344148 2:0.281499 3:-0.521849 4:-0.551417 5:-0.594855 6:0.362508 7:0.640259 8:0.963758 9:0.418541 10:-0.963521 
128 1:0.893846 2:-0.112465 3:0.481164 4:-0.592064 5:-0.604763 6:0.618934 7:-0.381292 8:0.592216 9:-0.847932 10:0.412723 
128 1:-0.0311064 2:0.441959 3:0.660389 4:-0.342319 5:-0.24148 6:0.187844 7:0.798116 8:0.114182 9:-0.840729 10:0.299052 
128 1:-0.164684 2:0.590446 3:0.539574 4:0.493029 5:-0.668479 6:0.493821 7:-0.853804 8:-0.656593 9:0.547708 10:0.628096 
35.0530170801123 1:-0.196187 2:-0.611527 3:0.841231 4:0.647639 5:-0.212754 6:-0.0904971 7:-0.373788 8:-0.488659 9:0.695573 10:-0.629471 
6.237676231819388 1:-0.400051 2:-0.349836 3:-0.621673 4:-0.405733 5:0.676437 6:0.680527 7:-0.984208 8:-0.687284 9:-0.915778 10:-0.494271 
41.70681825214874 1:0.0845611 2:-0.636255 3:0.871296 4:-0.0671891 5:-0.499758 6:-0.338415 7:-0.135741 8:0.903484 9:0.741113 10:-0.656929 
80.2327816783576 1:0.441863 2:0.583187 3:-0.662685 4:-0.258374 5:0.312036 6:-0.163432 7:-0.108946 8:-0.191706 9:-0.892323 10:0.825943 
128 1:0.182428 2:-0.280399 3:-0.514818 4:-0.665266 5:-0.825132 6:-0.365555 7:-0.727913 8:0.46985 9:-0.436133 10:0.511568 
75.29287895372184 1:-0.218826 2:0.777788 3:-0.333385 4:-0.059452 5:0.965257 6:-0.820638 7:0.56021 8:-0.545559 9:-0.975026 10:-0.906891 
128 1:-0.450759 2:-0.110679 3:-0.330933 4:-0.309747 5:-0.491369 6:-0.719744 7:0.655336 8:0.586458 9:-0.806783 10:-0.171808 
128 1:0.150482 2:0.0470316 3:0.814247 4:-0.865733 5:0.835286 6:-0.104503 7:0.987898 8:0.823519 9:-0.324411 10:-0.356869 
128 1:0.0390495 2:-0.119348 3:0.0314443 4:-0.51662 5:-0.222399 6:-0.447452 7:-0.133917 8:-0.196636 9:-0.992889 10:-0.307181 
118.0026164826484 1:-0.790222 2:0.29085 3:0.681137 4:-0.334077 5:0.809924 6:0.325018 7:0.157762 8:-0.513408 9:-0.107219 10:0.320416 
118.5314120967192 1:0.369888 2:-0.588079 3:-0.0926263 4:-0.159113 5:-0.664872 6:0.371154 7:-0.291392 8:-0.875418 9:-0.450439 10:0.104134 
29.01199668712689 1:0.744027 2:-0.569046 3:0.996365 4:0.356565 5:0.941086 6:-0.728175 7:-0.173493 8:-0.671703 9:0.394748 10:-0.593874 
128 1:-0.158196 2:0.449655 3:-0.639152 4:0.922031 5:0.218414 6:0.867413 7:0.514062 8:-0.988557 9:0.507033 10:0.433603 
128 1:-0.0791184 2:0.408648 3:0.199468 4:-0.333509 5:-0.103361 6:-0.611809 7:0.159806 8:-0.171664 9:0.78464 10:-0.133752 
59.75608337564812 1:-0.404929 2:0.838602 3:-0.563218 4:-0.073617 5:-0.969829 6:-0.472223 7:0.992033 8:0.62327 9:-0.0314246 10:0.687947 
47.16509838990922 1:0.338531 2:-0.589155 3:-0.463031 4:0.534136 5:-0.939531 6:0.0802651 7:0.131129 8:-0.644749 9:-0.61836 10:-0.725228 
35.3655651476257 1:0.376002 2:0.452258 3:-0.905793 4:-0.411886 5:-0.869768 6:-0.397737 7:0.718352 8:-0.401618 9:0.641488 10:-0.203506 
4.895588386790465 1:0.338837 2:-0.600538 3:0.625917 4:0.279107 5:0.132858 6:0.931286 7:-0.852371 8:0.148463 9:-0.375724 10:0.838139 
128 1:-0.0967835 2:0.470568 3:0.648841 4:-0.22406 5:-0.852163 6:-0.0176739 7:-0.481538 8:-0.0546716 9:-0.935011 10:-0.752985 
5.243901439233005 1:0.268262 2:0.702826 3:0.634157 4:0.756718 5:-0.932574 6:0.469848 7:-0.552863 8:0.78665 9:-0.422816 10:-0.210484 
1.961456563288936 1:0.294735 2:-0.632311 3:-0.157284 4:0.0970092 5:0.861355 6:-0.247175 7:0.911113 8:-0.679448 9:0.8272 10:-0.204537 
0.8100446086132626 1:0.732243 2:-0.449823 3:-0.46242 4:-0.849433 5:-0.997026 6:-0.648974 7:-0.804299 8:0.984802 9:0.0788353 10:-0.112879 
36.45649363548338 1:0.597827 2:-0.586314 3:-0.579927 4:0.270976 5:0.778756 6:0.709387 7:0.576988 8:0.830216 9:0.426802 10:0.58545 
128 1:0.0399845 2:0.249044 3:0.482008 4:-0.2888 5:-0.72727 6:0.356095 7:0.420847 8:-0.0392047 9:0.385093 10:-0.577008 
128 1:-0.266228 2:0.588904 3:-0.449543 4:0.158518 5:-0.502946 6:-0.290117 7:-0.548594 8:-0.242629 9:0.776885 10:0.460896 
128 1:-0.184332 2:0.274517 3:0.463379 4:-0.395265 5:0.891273 6:-0.417813 7:-0.544524 8:-0.23749 9:-0.479584 10:-0.96892 
11.61758483599522 1:-0.174088 2:-0.626355 3:0.894796 4:0.446298 5:-0.433257 6:0.996059 7:0.0212709 8:0.0717023 9:0.691447 10:0.643002 
13.88851245741249 1:0.661291 2:0.439309 3:0.787304 4:0.927864 5:-0.714954 6:0.704243 7:0.343028 8:0.801654 9:-0.164145 10:-0.73978 
60.66561161496532 1:-0.187522 2:-0.293392 3:0.387955 4:-0.672946 5:-0.358386 6:-0.148929 7:-0.00404425 8:-0.141216 9:0.69174 10:0.0507806 
2.60622283124564 1:-0.586126 2:0.124203 3:-0.531302 4:-0.964821 5:0.619263 6:0.382209 7:0.595008 8:-0.192296 9:-0.0957586 10:0.728999 
23.39900255978781 1:0.372139 2:0.642176 3:-0.988132 4:0.0523228 5:0.438047 6:0.201865 7:-0.0205755 8:0.980102 9:0.352098 10:0.289837 
32.65259665284 1:-0.292925 2:0.279249 3:-0.329807 4:-0.710244 5:0.399875 6:0.0146629 7:-0.574131 8:-0.168074 9:0.0521073 10:-0.821175 
128 1:-0.248909 2:0.28531 3:0.318297 4:-0.679296 5:0.780137 6:0.360577 7:0.840911 8:0.776021 9:0.968468 10:0.864073 
39.56290215090353 1:0.915804 2:0.292348 3:-0.444632 4:-0.596733 5:0.68943 6:-0.932537 7:0.403084 8:-0.750125 9:-0.583669 10:-0.69789 
32.82605676492165 1:-0.903876 2:0.322236 3:-0.0176727 4:-0.657399 5:0.806072 6:-0.968861 7:0.760045 8:0.803147 9:-0.632012 10:-0.827691 
128 1:0.43705 2:0.575252 3:-0.448709 4:0.500109 5:-0.150641 6:0.669351 7:-0.520101 8:-0.850389 9:0.280414 10:0.268277 
44.80198771528435 1:-0.122791 2:0.752198 3:-0.559155 4:0.687399 5:-0.381268 6:0.0230945 7:0.92158 8:0.597798 9:-0.518727 10:-0.873902 
80.57359359281959 1:0.107209 2:-0.42428 3:-0.193966 4:-0.288884 5:-0.365742 6:-0.800005 7:0.958084 8:0.82243 9:-0.54442 10:0.492137 
128 1:0.624888 2:-0.192793 3:0.936131 4:-0.503669 5:0.204996 6:0.175328 7:-0.976383 8:0.586741 9:-0.418732 10:0.0781939 
9.114028119113026 1:0.104461 2:0.854231 3:-0.969387 4:-0.975221 5:-0.923647 6:-0.458793 7:-0.834133 8:0.693779 9:-0.502228 10:-0.56591 
64.04198100857903 1:-0.373456 2:0.969258 3:-0.628782 4:-0.479075 5:0.73263 6:-0.865257 7:0.718399 8:0.596678 9:-0.23965 10:0.810285 
9.403365283303341 1:0.955582 2:0.171015 3:-0.421475 4:0.183238 5:-0.305212 6:0.371388 7:0.32521 8:0.384307 9:-0.536769 10:-0.182419 
128 1:-0.109905 2:0.476554 3:0.577748 4:-0.463966 5:-0.732776 6:0.458737 7:-0.416782 8:-0.64227 9:-0.769691 10:0.177751 
44.75993348244447 1:0.259122 2:0.0388406 3:-0.541039 4:-0.54658 5:0.995258 6:0.304451 7:-0.187336 8:0.896802 9:0.738273 10:-0.242166 
35.71790874727348 1:-0.951172 2:0.313117 3:0.323235 4:0.650586 5:-0.394617 6:0.288835 7:-0.962645 8:0.196088 9:-0.202381 10:-0.3216 
125.4390378616295 1:0.870255 2:0.234448 3:0.290492 4:0.373488 5:-0.848026 6:-0.837268 7:0.528818 8:0.551912 9:0.239739 10:0.297861 
128 1:-0.16131 2:0.419362 3:0.928808 4:-0.417982 5:-0.738535 6:0.0570814 7:0.22522 8:0.0133214 9:0.540844 10:-0.610449 
128 1:-0.171003 2:0.660889 3:-0.179193 4:0.519575 5:0.584872 6:0.608907 7:0.804873 8:-0.444393 9:0.27186 10:0.72011 
74.96113136648432 1:0.489894 2:-0.592642 3:-0.373001 4:-0.0662058 5:-0.00414701 6:0.302286 7:-0.651893 8:-0.847864 9:0.0733542 10:-0.235991 
29.87450954151481 1:0.611597 2:0.146899 3:-0.588751 4:-0.850888 5:-0.0788342 6:0.581092 7:-0.908451 8:0.862306 9:0.997695 10:0.13267 
98.76540074412951 1:0.576984 2:0.115773 3:0.0250346 4:-0.810607 5:-0.269815 6:0.0617728 7:0.418884 8:-0.878482 9:-0.757587 10:-0.846019 
128 1:0.00205643 2:0.406652 3:-0.429557 4:-0.397361 5:0.281216 6:-0.892806 7:-0.789115 8:-0.972006 9:0.71996 10:-0.629362 
128 1:-0.315662 2:-0.341849 3:-0.470407 4:-0.348702 5:0.0868128 6:-0.481256 7:0.482174 8:-0.443465 9:-0.522566 10:-0.114185 
128 1:-0.0880962 2:0.545145 3:0.323111 4:-0.617719 5:0.26054 6:0.266403 7:0.75124 8:-0.627824 9:0.925526 10:-0.76733 
6.669586400202149 1:0.666692 2:-0.128601 3:0.671748 4:-0.787458 5:-0.572737 6:-0.448475 7:-0.80811 8:0.296471 9:-0.606176 10:0.255087 
128 1:-0.378837 2:0.0686166 3:-0.132505 4:-0.814153 5:-0.183508 6:0.908348 7:0.301824 8:0.302239 9:-0.830859 10:-0.0309655 
32.68309462519407 1:0.515704 2:0.187327 3:-0.50773 4:-0.763831 5:0.684961 6:-0.322208 7:-0.656208 8:-0.918988 9:-0.182804 10:0.426708 
128 1:-0.141965 2:0.217707 3:-0.290228 4:-0.752582 5:0.0358165 6:-0.33921 7:0.712574 8:0.254733 9:-0.149676 10:0.340543 
128 1:0.18771 2:0.191299 3:0.5177 4:-0.421353 5:0.105467 6:-0.949844 7:-0.688896 8:0.127892 9:0.0260186 10:0.670552 
119.0010597148617 1:-0.092454 2:0.525881 3:0.468192 4:0.216365 5:0.968638 6:-0.240451 7:0.379151 8:0.408586 9:0.98347 10:0.564504 
128 1:-0.357244 2:0.691944 3:-0.252832 4:0.528992 5:0.771368 6:-0.319303 7:0.492932 8:-0.600495 9:0.206352 10:0.829324 
13.00029698961941 1:0.699727 2:0.466121 3:-0.247782 4:0.496139 5:-0.849667 6:-0.98341 7:0.82445 8:-0.590447 9:0.0650116 10:0.743471 
128 1:0.244556 2:0.556697 3:0.569494 4:0.162972 5:-0.0576342 6:-0.585569 7:0.200806 8:-0.254852 9:-0.522628 10:-0.500587 
91.78596876050594 1:-0.682014 2:0.224408 3:0.393056 4:-0.61936 5:0.790551 6:0.537804 7:0.473002 8:-0.551393 9:-0.466657 10:0.0959818 
10.13341833221613 1:0.820012 2:0.018247 3:-0.673287 4:-0.549923 5:0.999241 6:0.0714299 7:-0.151504 8:0.844616 9:-0.549108 10:-0.0375346 
59.05231875739533 1:0.0633012 2:0.806649 3:-0.512867 4:0.487759 5:-0.852938 6:-0.57939 7:0.0299007 8:0.0326235 9:0.46697 10:-0.840615 
50.08670999197275 1:0.998438 2:0.161671 3:-0.543975 4:-0.537747 5:-0.845095 6:0.884511 7:-0.675208 8:0.976377 9:-0.821316 10:-0.92687 
46.78749824539854 1:0.0914829 2:-0.6505 3:0.0171894 4:-0.00791071 5:0.861695 6:-0.874505 7:0.717831 8:-0.327289 9:-0.128644 10:0.246286 
90.72153404124465 1:0.119915 2:-0.582201 3:0.218983 4:0.72454 5:0.864029 6:-0.384416 7:-0.0231581 8:-0.61538 9:0.292222 10:0.738674 
128 1:-0.118381 2:0.267704 3:0.290072 4:-0.491307 5:0.540288 6:0.154727 7:-0.233716 8:0.318187 9:0.352686 10:-0.365549 
27.97691261808828 1:-0.434731 2:-0.0316796 3:-0.846114 4:-0.91946 5:-0.473938 6:0.824079 7:-0.27127 8:-0.772403 9:-0.769604 10:0.150026 
85.20731607449122 1:-0.368238 2:-0.171011 3:0.514111 4:-0.345275 5:0.220277 6:-0.980422 7:-0.362099 8:0.0318954 9:-0.845345 10:0.980686 
3.388968182983013 1:0.618176 2:0.488019 3:0.707166 4:0.354095 5:-0.951785 6:-0.13689 7:-0.818348 8:0.971846 9:0.181203 10:0.870131 
114.0136441485721 1:0.568482 2:-0.251227 3:-0.907494 4:-0.293621 5:0.0327544 6:-0.347479 7:0.392238 8:-0.700996 9:-0.1994 10:0.448759 
15.80504138055852 1:0.675422 2:0.400298 3:-0.868118 4:0.979525 5:-0.963655 6:0.0663778 7:0.142553 8:-0.22904 9:-0.828367 10:-0.849676 
128 1:0.020615 2:0.282575 3:0.56145 4:-0.664777 5:0.688663 6:-0.332482 7:0.40613 8:-0.655592 9:-0.900311 10:0.0558654 
9.778486148804769 1:0.586209 2:0.157621 3:-0.00485748 4:-0.804134 5:0.927551 6:0.746874 7:0.254288 8:0.536049 9:0.791797 10:0.978261 
128 1:-0.124286 2:0.445217 3:-0.189488 4:-0.410644 5:-0.927725 6:0.845313 7:-0.0688444 8:0.872327 9:-0.0221561 10:0.783549 
56.71227041237199 1:0.535441 2:0.540525 3:-0.500918 4:-0.68769 5:0.396046 6:0.830947 7:0.436817 8:-0.168022 9:0.670689 10:-0.301505 
104.60635162023 1:0.745299 2:0.372479 3:0.18949 4:-0.0770838 5:-0.514036 6:0.612182 7:-0.478659 8:-0.923179 9:0.849639 10:-0.568091 
128 1:-0.0283116 2:0.207674 3:-0.299815 4:-0.491791 5:-0.608343 6:-0.0162835 7:0.515635 8:-0.311252 9:-0.692977 10:0.652883 
9.869976038137828 1:-0.985695 2:-0.503652 3:0.837294 4:0.11167 5:-0.951757 6:-0.747881 7:-0.643929 8:-0.466281 9:-0.375918 10:0.323776 
67.92644039674074 1:0.703071 2:0.374441 3:0.5146 4:-0.424741 5:-0.0791613 6:0.910119 7:0.591053 8:0.623732 9:0.391168 10:-0.215501 
16.58818515226669 1:0.213446 2:0.84309 3:-0.194855 4:-0.298178 5:-0.93113 6:-0.841487 7:-0.524539 8:0.502726 9:0.350498 10:0.462348 
128 1:-0.140625 2:0.100101 3:0.556666 4:-0.167074 5:0.766111 6:0.604771 7:-0.68672 8:-0.392559 9:0.638355 10:0.313741 
31.02104886505333 1:0.618294 2:-0.598119 3:0.916933 4:-0.024003 5:-0.443612 6:0.665018 7:0.606288 8:-0.683635 9:0.652529 10:0.663354 
29.52296388638086 1:-0.952215 2:0.442012 3:0.628715 4:0.873463 5:-0.748744 6:0.29419 7:0.763815 8:-0.818204 9:-0.404618 10:0.0641094 
128 1:-0.0439356 2:0.0688134 3:-0.77159 4:-0.731905 5:0.164024 6:-0.428116 7:0.939792 8:-0.432175 9:0.557641 10:-0.153712 
116.8505543022516 1:0.105876 2:0.514124 3:0.735476 4:-0.198416 5:-0.969042 6:-0.600496 7:0.558178 8:-0.829468 9:-0.303571 10:0.849321 
38.87490963645391 1:-0.446899 2:0.185063 3:0.036084 4:-0.747783 5:-0.34094 6:-0.576324 7:-0.432544 8:-0.670653 9:0.360116 10:-0.444842 
128 1:-0.195439 2:0.435199 3:0.68955 4:-0.108549 5:-0.215291 6:-0.596408 7:-0.936758 8:-0.664616 9:-0.361249 10:-0.683299 
73.08302632540834 1:0.18388 2:-0.429279 3:-0.521269 4:-0.648005 5:0.970082 6:-0.631474 7:0.487222 8:0.430047 9:0.0587371 10:-0.70537 
128 1:-0.0416598 2:0.0877899 3:-0.977466 4:-0.699726 5:-0.303596 6:-0.770732 7:-0.504253 8:0.63255 9:0.86948 10:0.278632 
12.04716577490242 1:0.717893 2:0.0406054 3:0.209717 4:-0.684218 5:0.558498 6:0.10913 7:-0.280378 8:-0.570756 9:0.680686 10:0.445865 
128 1:-0.415955 2:0.104777 3:-0.0712372 4:-0.548748 5:-0.107969 6:-0.997248 7:-0.295126 8:-0.22042 9:-0.0280524 10:0.205726 
110.8518227078733 1:0.350954 2:-0.567296 3:0.700462 4:0.566429 5:-0.0602855 6:0.213666 7:0.113362 8:0.573701 9:-0.143844 10:0.273132 
16.58606521022766 1:0.470497 2:0.612355 3:0.194633 4:0.127979 5:-0.799451 6:-0.537286 7:-0.895578 8:-0.373349 9:-0.457257 10:0.272394 
69.63352050214561 1:0.444708 2:0.0692212 3:0.656927 4:-0.359704 5:0.874186 6:0.902365 7:-0.221801 8:-0.89002 9:-0.338282 10:0.065917 
74.08491052195721 1:0.11621 2:0.210255 3:-0.0665054 4:-0.536084 5:0.547095 6:0.632303 7:-0.969321 8:-0.291692 9:0.830868 10:-0.851739 
128 1:0.762735 2:0.317385 3:0.273792 4:0.26981 5:-0.553055 6:0.639453 7:0.545553 8:-0.914915 9:0.29733 10:0.440976 
128 1:-0.527394 2:0.4159 3:-0.251023 4:-0.410481 5:0.228414 6:-0.348428 7:-0.917425 8:-0.189842 9:-0.417527 10:0.500476 
128 1:-0.758459 2:0.338759 3:-0.194778 4:-0.290194 5:-0.81278 6:0.453306 7:0.542457 8:0.628099 9:-0.788306 10:0.505372 
128 1:0.068481 2:0.559825 3:0.326199 4:-0.416358 5:-0.522137 6:0.380316 7:-0.757788 8:-0.185371 9:0.297834 10:-0.456727 
116.9382118564576 1:-0.680437 2:0.602829 3:-0.898716 4:-0.0133722 5:-0.433752 6:-0.189287 7:-0.806097 8:0.325776 9:0.954791 10:0.22053 
128 1:-0.876786 2:0.508871 3:-0.525223 4:-0.393827 5:0.677683 6:0.380051 7:0.17371 8:0.556627 9:-0.76166 10:0.552687 
28.22310818614353 1:-0.271646 2:0.671653 3:-0.766658 4:-0.772719 5:-0.27336 6:-0.606779 7:-0.69833 8:-0.464027 9:-0.0939146 10:-0.171126 
128 1:0.711063 2:-0.0500725 3:0.513443 4:-0.596632 5:-0.820651 6:0.450543 7:-0.648836 8:-0.392781 9:0.959096 10:-0.631368 
128 1:0.130026 2:0.239693 3:0.692211 4:-0.463522 5:0.0901392 6:-0.45734 7:0.567566 8:-0.680009 9:0.245112 10:-0.803012 
2.848038466531595 1:-0.601132 2:0.843638 3:0.442972 4:0.798302 5:0.180286 6:-0.343696 7:-0.80659 8:-0.898238 9:-0.790903 10:0.549713 
112.4320351316234 1:0.759139 2:0.328051 3:-0.386043 4:-0.291115 5:-0.923659 6:-0.476598 7:-0.923432 8:-0.29578 9:0.462377 10:-0.82298 
15.70932290084614 1:0.868873 2:-0.255221 3:0.71729 4:-0.436311 5:-0.670615 6:0.9995 7:0.285544 8:-0.333374 9:0.203484 10:0.499281 
16.86906152401403 1:0.779409 2:-0.29065 3:-0.23503 4:-0.901171 5:-0.504951 6:-0.365499 7:-0.408015 8:-0.704664 9:0.8875 10:0.839635 
128 1:0.0882257 2:-0.35132 3:-0.0339161 4:-0.089934 5:0.185504 6:-0.944354 7:-0.599904 8:0.71744 9:-0.310266 10:-0.55413 
17.05490463088804 1:-0.348703 2:0.517695 3:-0.184705 4:0.955965 5:0.772408 6:0.18389 7:-0.209482 8:-0.905245 9:0.981776 10:0.883782 
85.97520708907314 1:0.621591 2:-0.0161061 3:-0.907347 4:-0.664676 5:-0.772044 6:-0.352299 7:-0.276063 8:-0.838106 9:0.0897962 10:0.546923 
22.27577732341559 1:-0.129727 2:0.725847 3:-0.411379 4:0.624239 5:0.22799 6:0.851776 7:0.698857 8:-0.310658 9:-0.222127 10:0.71509 
128 1:-0.495269 2:0.107624 3:-0.218467 4:-0.61128 5:0.918964 6:-0.463244 7:-0.527269 8:-0.299142 9:0.542716 10:-0.840741 
39.33619624875755 1:0.163013 2:0.756589 3:-0.93412 4:-0.310264 5:-0.803797 6:-0.0741888 7:0.459259 8:-0.0230523 9:-0.72418 10:0.163323 
12.32831294486419 1:-0.895851 2:0.559335 3:0.0728129 4:0.0156545 5:-0.429195 6:-0.887235 7:0.451825 8:0.760693 9:-0.641362 10:0.630491 
7.878479268075044 1:0.272843 2:0.73007 3:-0.752498 4:-0.420218 5:-0.180353 6:0.126475 7:0.964361 8:-0.805535 9:-0.404744 10:-0.72689 
128 1:-0.249714 2:0.267402 3:-0.655394 4:-0.839224 5:0.450969 6:0.602507 7:-0.24391 8:-0.499161 9:-0.229723 10:-0.261439 
128 1:-0.289661 2:-0.162356 3:-0.972776 4:-0.185645 5:0.370037 6:-0.982463 7:-0.541503 8:0.545857 9:-0.134513 10:0.877369 
96.88648386200873 1:0.0911767 2:0.421375 3:-0.444793 4:-0.660844 5:0.318764 6:-0.0854362 7:-0.332571 8:0.774963 9:0.880496 10:-0.73002 
125.4319841766054 1:-0.278081 2:-0.563112 3:-0.47999 4:0.619987 5:-0.614252 6:0.2863 7:-0.442156 8:-0.497794 9:-0.97681 10:0.717262 
109.5075013678898 1:-0.626723 2:0.0348189 3:-0.561767 4:-0.711812 5:-0.980943 6:0.358032 7:-0.450137 8:-0.783043 9:0.441528 10:-0.720483 
128 1:0.384123 2:-0.301105 3:0.870744 4:-0.266465 5:-0.27539 6:-0.652722 7:0.741915 8:0.212616 9:-0.900697 10:-0.182959 
128 1:0.425271 2:0.0768849 3:-0.310639 4:-0.56411 5:-0.602983 6:0.194577 7:0.595828 8:-0.349745 9:0.274188 10:-0.693615 
128 1:0.109132 2:0.179944 3:-0.535221 4:-0.741226 5:0.549155 6:0.434456 7:-0.0826058 8:0.613726 9:-0.0751536 10:0.0118737 
38.71602179676473 1:-0.832411 2:0.558319 3:-0.754336 4:0.221817 5:0.443312 6:-0.250126 7:0.846094 8:-0.42171 9:-0.681725 10:-0.895933 
128 1:0.123586 2:-0.189172 3:0.845404 4:-0.497365 5:0.110768 6:-0.946153 7:0.458471 8:-0.155286 9:0.0667129 10:-0.359489 
128 1:-0.475449 2:0.0646371 3:-0.376446 4:-0.716357 5:0.440784 6:0.137747 7:0.471059 8:-0.0843737 9:0.49129 10:0.384494 
128 1:-0.19046 2:0.694447 3:-0.480078 4:0.210829 5:0.847401 6:0.104123 7:0.849425 8:0.712431 9:-0.744488 10:-0.803471 
120.6640190682895 1:0.102035 2:0.485298 3:-0.722799 4:-0.00591604 5:-0.641551 6:0.771469 7:-0.19491 8:0.469365 9:0.951658 10:0.81369 
46.56252864870835 1:0.747269 2:0.33544 3:-0.348301 4:0.949665 5:0.935287 6:-0.0607303 7:-0.364547 8:0.472834 9:-0.679628 10:-0.229391 
13.66761352172639 1:0.27942 2:0.682612 3:-0.647987 4:0.616432 5:0.580648 6:0.608578 7:-0.961915 8:-0.551301 9:0.357337 10:-0.311189 
31.46348272041402 1:-0.523107 2:0.8728 3:-0.547227 4:-0.271579 5:0.261862 6:0.884896 7:0.886381 8:-0.484051 9:0.108783 10:-0.673344 
128 1:0.0310805 2:0.169742 3:0.080601 4:-0.636733 5:-0.681832 6:0.751228 7:-0.0508201 8:0.414791 9:-0.291402 10:0.0648854 
128 1:0.055187 2:-0.109428 3:-0.169672 4:-0.859738 5:-0.526041 6:-0.248654 7:-0.926425 8:0.288863 9:-0.195203 10:0.336397 
128 1:0.384248 2:0.0457239 3:0.376991 4:-0.709963 5:-0.76858 6:-0.252413 7:0.146502 8:-0.247758 9:0.471652 10:0.291333 
128 1:-0.136514 2:-0.571599 3:0.963545 4:0.0381241 5:0.91845 6:-0.291698 7:0.28856 8:-0.131913 9:-0.426822 10:-0.886052 
101.5258023106899 1:-0.0427329 2:0.288783 3:-0.90368 4:-0.801538 5:-0.111321 6:-0.0920676 7:0.673421 8:0.790245 9:0.371098 10:0.89266 
33.80206557448971 1:-0.210901 2:-0.232258 3:0.44202 4:-0.897811 5:-0.566606 6:0.542495 7:-0.841289 8:0.676426 9:-0.675159 10:-0.695414 
29.78863463886842 1:0.92586 2:0.259865 3:-0.883997 4:-0.244771 5:-0.320745 6:0.776492 7:-0.260308 8:-0.944364 9:-0.71228 10:0.113418 
100.0794831295419 1:0.290094 2:-0.571662 3:-0.558297 4:0.860805 5:-0.697752 6:0.73839 7:0.507878 8:0.606769 9:-0.0982598 10:0.641157 
128 1:0.0194492 2:0.0643418 3:-0.799854 4:-0.402255 5:-0.464243 6:-0.595452 7:0.781959 8:0.900439 9:0.492055 10:-0.534003 
9.956546016038414 1:-0.984803 2:0.51506 3:0.510944 4:0.387344 5:0.437766 6:0.0958325 7:0.0274575 8:0.671917 9:-0.553657 10:0.663589 
4.772289338029284 1:-0.984835 2:0.429415 3:0.898059 4:0.956664 5:-0.60023 6:-0.89478 7:-0.0829653 8:0.890418 9:0.699597 10:0.120846 
21.73981663544033 1:-0.637624 2:0.531119 3:0.958785 4:0.82211 5:-0.289869 6:0.100288 7:-0.958503 8:-0.345948 9:0.970914 10:0.232377 
78.76176505763507 1:0.649539 2:0.11128 3:-0.996762 4:-0.965276 5:0.770533 6:-0.874431 7:0.613545 8:-0.713004 9:-0.437844 10:0.164692 
128 1:-0.249163 2:0.0358103 3:0.654831 4:-0.504888 5:0.648358 6:0.393269 7:-0.202412 8:-0.217995 9:0.0682207 10:0.836454 
92.89119126446285 1:0.834182 2:0.32488 3:-0.194929 4:-0.132946 5:0.266883 6:0.663014 7:0.95259 8:0.532087 9:0.200667 10:-0.600207 
38.96670863379711 1:-0.034044 2:-0.0015802 3:-0.924938 4:-0.886652 5:-0.955966 6:-0.301774 7:-0.306106 8:-0.941828 9:0.431207 10:0.970914 
21.20160423354406 1:-0.310508 2:0.690271 3:0.34915 4:0.0895081 5:-0.736565 6:0.754453 7:-0.574018 8:-0.237672 9:-0.701684 10:-0.962558 
128 1:-0.367617 2:0.442973 3:0.34638 4:-0.034999 5:0.257173 6:-0.260735 7:0.543708 8:0.0765465 9:0.835733 10:0.403433 
128 1:-0.65318 2:-0.0932213 3:-0.540544 4:-0.532881 5:0.13731 6:-0.0565222 7:0.0686801 8:-0.0594753 9:-0.457374 10:-0.681407 
7.960087166057662 1:0.496285 2:-0.649944 3:0.532673 4:-0.507978 5:0.846894 6:-0.0486091 7:0.855074 8:-0.933823 9:0.96489 10:-0.897325 
21.46280816500561 1:-0.38265 2:-0.558619 3:-0.376572 4:0.766315 5:-0.173631 6:0.963128 7:0.155577 8:0.892549 9:0.423323 10:-0.742542 
128 1:0.463969 2:-0.220558 3:-0.922502 4:-0.464348 5:0.550022 6:-0.233418 7:0.0355511 8:-0.284874 9:0.367457 10:-0.22705 
5.451883348775953 1:-0.123478 2:-0.623592 3:0.786323 4:0.598073 5:0.952256 6:-0.971951 7:0.707391 8:-0.114725 9:-0.0651313 10:0.594493 
31.42580387422405 1:0.930445 2:0.238097 3:-0.295137 4:-0.397861 5:0.415636 6:0.635917 7:0.418791 8:-0.710761 9:0.0477087 10:-0.714689 
6.782301365084535 1:-0.0270665 2:-0.113112 3:-0.851535 4:-0.6392 5:0.289494 6:0.023167 7:0.0628945 8:0.780174 9:-0.0160574 10:-0.918989 
2.436061074303774 1:-0.354666 2:0.957753 3:-0.653165 4:-0.314652 5:-0.894896 6:0.38906 7:-0.634512 8:-0.387332 9:-0.744985 10:0.430609 
1.744895644133742 1:0.711141 2:-0.337314 3:0.96906 4:-0.66926 5:0.840902 6:-0.471573 7:0.0158242 8:-0.357781 9:0.788881 10:0.0569326 
128 1:-0.555885 2:0.277759 3:-0.498471 4:-0.42405 5:-0.380712 6:-0.499919 7:0.757072 8:-0.338165 9:0.548154 10:-0.110734 
5.278493411289264 1:-0.536126 2:0.875013 3:-0.603175 4:0.973091 5:-0.984333 6:0.202679 7:0.231018 8:0.65534 9:-0.567083 10:0.396671 
128 1:-0.470774 2:0.630892 3:0.348022 4:0.416881 5:-0.517209 6:0.830217 7:0.947873 8:0.97164 9:-0.0821158 10:-0.340137 
2.156028343386701 1:0.288605 2:0.226827 3:-0.433389 4:-0.926922 5:-0.942858 6:-0.400849 7:-0.136866 8:0.0829754 9:0.0920413 10:-0.918531 
128 1:-0.275829 2:-0.0118805 3:0.22098 4:-0.513912 5:-0.729216 6:0.952345 7:-0.0958996 8:-0.557349 9:0.447704 10:0.907768 
128 1:0.37764 2:-0.0353216 3:0.0293112 4:-0.725398 5:0.0415801 6:0.117466 7:-0.95632 8:-0.861782 9:-0.596592 10:-0.295046 
128 1:-0.934702 2:0.497139 3:0.920568 4:0.324109 5:-0.329901 6:0.167049 7:0.0633549 8:0.185731 9:-0.801297 10:0.632062 
128 1:0.188452 2:0.138905 3:0.603558 4:-0.719745 5:0.533841 6:0.134068 7:0.365052 8:-0.926538 9:-0.099788 10:0.566784 
46.16574791554539 1:-0.845013 2:0.214424 3:-0.970797 4:-0.543293 5:0.442279 6:-0.630493 7:-0.67302 8:-0.888905 9:-0.90195 10:-0.540919 
13.06138439213734 1:-0.0958438 2:-0.597332 3:-0.393548 4:0.0165311 5:0.960344 6:-0.352697 7:-0.567054 8:-0.644963 9:-0.628392 10:-0.715669 
128 1:-0.320901 2:0.285071 3:0.104676 4:-0.521458 5:-0.164439 6:-0.745718 7:0.954239 8:-0.506803 9:-0.795128 10:0.709284 
31.68231266230142 1:-0.518478 2:0.609314 3:0.144217 4:-0.333723 5:0.6125 6:-0.858267 7:0.376378 8:0.558266 9:0.200736 10:0.586676 
128 1:-0.646468 2:0.373836 3:0.266921 4:-0.0292453 5:0.106545 6:-0.510857 7:-0.360497 8:0.967712 9:0.589364 10:0.349509 
80.97689128731996 1:0.381937 2:0.647047 3:-0.127259 4:-0.0828992 5:0.559218 6:0.974966 7:0.0358974 8:0.826442 9:-0.888078 10:0.170325 
58.33886178159799 1:-0.975339 2:0.549607 3:-0.775186 4:0.172867 5:-0.294752 6:0.111496 7:-0.597698 8:-0.993574 9:-0.752703 10:-0.0939421 
77.53491056793249 1:0.104605 2:-0.459272 3:-0.48365 4:-0.515912 5:0.262862 6:-0.0614993 7:0.859095 8:-0.693267 9:-0.738525 10:-0.233952 
19.96871135478634 1:0.396115 2:0.79421 3:-0.767945 4:0.225361 5:0.54005 6:0.835889 7:0.926398 8:0.925498 9:-0.519121 10:0.730094 
69.00462721922567 1:0.556196 2:0.480053 3:-0.148107 4:-0.470591 5:-0.51073 6:0.940346 7:0.305459 8:0.240597 9:-0.778061 10:0.96316 
4.761482105902604 1:0.691021 2:-0.248113 3:0.275873 4:-0.593839 5:0.677616 6:-0.976582 7:-0.811124 8:-0.928734 9:-0.876609 10:0.228893 
79.75625817900043 1:-0.755783 2:0.809356 3:-0.469155 4:-0.495274 5:0.96884 6:-0.155512 7:0.733995 8:-0.787399 9:-0.261972 10:-0.633236 
53.20830793296358 1:0.780493 2:0.0184931 3:0.725102 4:-0.607802 5:0.807515 6:-0.153422 7:0.555419 8:0.246591 9:0.717413 10:-0.412145 
13.3715441274805 1:-0.0329371 2:0.163485 3:0.123478 4:-0.723555 5:0.0323124 6:-0.220207 7:-0.703844 8:0.213664 9:0.71917 10:0.246775 
128 1:-0.144216 2:0.181407 3:0.0400124 4:-0.232949 5:-0.297653 6:-0.849282 7:0.888834 8:0.497561 9:0.892097 10:-0.311419 
126.2798483703301 1:-0.601207 2:0.377886 3:0.886795 4:0.026319 5:0.886736 6:0.987764 7:0.181394 8:0.726953 9:-0.372766 10:-0.136211 
128 1:0.228947 2:0.109705 3:-0.389847 4:-0.543736 5:0.557335 6:0.76268 7:-0.695579 8:0.579012 9:0.566084 10:0.415941 
128 1:-0.031345 2:0.434013 3:-0.286949 4:0.403724 5:0.191961 6:0.866622 7:0.315295 8:0.41732 9:0.86105 10:0.729687 
48.25015409976447 1:0.914186 2:0.324219 3:-0.734182 4:0.182937 5:-0.924529 6:-0.574359 7:0.362992 8:-0.276593 9:-0.941641 10:0.29492 
46.95839610466561 1:-0.375128 2:0.614494 3:0.242131 4:0.834783 5:0.367936 6:0.279964 7:0.993526 8:-0.536007 9:-0.807042 10:-0.829187 
79.2891569456185 1:0.103475 2:0.535312 3:0.780136 4:0.62457 5:0.334097 6:0.203084 7:0.519478 8:0.904095 9:0.768505 10:0.95207 
23.80279763598062 1:-0.509341 2:0.837297 3:-0.972028 4:0.0473053 5:0.872264 6:-0.211896 7:-0.955239 8:-0.624145 9:0.52178 10:0.167877 
16.4145633121764 1:0.439122 2:-0.631896 3:0.846962 4:0.21824 5:0.154706 6:0.285661 7:-0.444722 8:0.968373 9:-0.751959 10:0.891399 
128 1:-0.373543 2:-0.0423877 3:-0.339777 4:-0.617646 5:0.457491 6:0.349442 7:-0.6354 8:-0.930358 9:-0.627455 10:0.971963 
20.89465939360517 1:0.00647469 2:-0.169141 3:0.609897 4:-0.987998 5:0.799474 6:0.0337658 7:0.897159 8:0.342325 9:-0.969426 10:0.447564 
128 1:-0.30656 2:0.566269 3:0.497367 4:-0.205962 5:-0.758668 6:0.113377 7:-0.957766 8:-0.181696 9:-0.127876 10:0.407299 
128 1:-0.496475 2:0.394593 3:0.42343 4:-0.504321 5:0.303397 6:-0.865845 7:0.688876 8:0.453818 9:0.386128 10:-0.896884 
128 1:0.448597 2:0.163021 3:0.747527 4:-0.30623 5:0.0306293 6:-0.415744 7:-0.162027 8:-0.262556 9:0.347134 10:0.918943 
128 1:0.220025 2:-0.0791665 3:-0.316747 4:-0.686375 5:-0.164523 6:-0.0270777 7:0.658842 8:-0.440637 9:0.0868824 10:0.805683 
50.90242030931225 1:0.700418 2:0.176724 3:0.606416 4:-0.116983 5:0.169735 6:-0.407489 7:-0.97889 8:-0.146998 9:0.297688 10:0.273267 
72.49565375164289 1:0.0195921 2:-0.610248 3:0.788246 4:-0.44747 5:0.522517 6:0.678695 7:0.9881 8:0.937346 9:0.0417959 10:-0.501024 
12.7408668319541 1:-0.942662 2:0.43662 3:0.721488 4:0.166991 5:0.28115 6:0.196781 7:0.24658 8:0.663283 9:0.797057 10:-0.731309 
40.99497967675261 1:-0.446545 2:-0.551891 3:0.949532 4:-0.395732 5:0.981382 6:-0.0543873 7:0.695512 8:-0.923431 9:-0.793999 10:-0.469394 
128 1:0.533534 2:0.0809066 3:-0.676599 4:-0.693983 5:0.429587 6:0.416877 7:0.110743 8:-0.420747 9:0.895485 10:0.937627 
2.293969873262096 1:0.0510207 2:0.822883 3:-0.479551 4:0.272999 5:0.188897 6:0.920916 7:-0.0554094 8:0.726082 9:-0.185224 10:-0.264166 
128 1:-0.338276 2:0.438664 3:-0.75427 4:0.0198462 5:0.396437 6:0.376899 7:0.798028 8:-0.250116 9:0.933677 10:0.711043 
3.137611122643234 1:-0.221983 2:0.627689 3:0.654518 4:0.470879 5:0.357454 6:-0.403455 7:-0.836485 8:-0.770783 9:0.518189 10:0.801201 
0.2959095889173498 1:0.543154 2:0.220456 3:0.869021 4:-0.139441 5:0.444202 6:-0.675367 7:-0.987114 8:-0.668234 9:-0.0129335 10:0.885909 
128 1:0.390156 2:-0.0370583 3:0.796448 4:-0.407969 5:-0.375274 6:-0.708988 7:-0.041239 8:0.65022 9:0.924839 10:0.708442 
70.69474794315219 1:-0.262188 2:-0.521693 3:-0.34597 4:-0.252053 5:-0.547538 6:-0.192223 7:-0.0379067 8:-0.750542 9:0.561092 10:-0.592212 
1.198241493562337 1:-0.690166 2:-0.603505 3:-0.999996 4:0.85617 5:0.153398 6:0.789154 7:0.162188 8:-0.735733 9:0.182293 10:0.943295 
10.0569113594864 1:0.58467 2:0.302915 3:0.759852 4:-0.427427 5:-0.00402396 6:0.214528 7:-0.343766 8:-0.456012 9:0.896058 10:-0.86076 
65.88723597950099 1:0.527752 2:0.491157 3:0.102793 4:0.875409 5:-0.979638 6:0.231402 7:-0.741915 8:-0.0494256 9:-0.0104426 10:0.917069 
128 1:-0.981413 2:0.223656 3:0.0363327 4:0.200897 5:-0.325649 6:-0.23739 7:-0.759916 8:0.257704 9:-0.154603 10:-0.321146 
41.59253087161506 1:0.682252 2:-0.0702864 3:-0.38084 4:-0.536207 5:0.869487 6:0.547062 7:0.00206174 8:-0.0476009 9:0.127886 10:-0.377331 
40.23250684779759 1:0.703903 2:0.356238 3:-0.398692 4:0.263841 5:0.202785 6:-0.63287 7:-0.293028 8:-0.319897 9:-0.878266 10:-0.593336 
128 1:0.767916 2:0.13823 3:0.476179 4:-0.362024 5:0.183592 6:-0.221254 7:0.652976 8:-0.177972 9:0.0323275 10:0.0372311 
2.253005341648656 1:-0.124881 2:-0.605579 3:-0.528792 4:-0.295003 5:-0.682394 6:0.0968669 7:-0.941346 8:-0.0882494 9:0.77444 10:0.990715 
128 1:-0.583477 2:0.165193 3:0.696669 4:-0.0883551 5:0.402517 6:-0.32435 7:-0.520091 8:-0.792404 9:0.835402 10:0.578561 
20.39362882084246 1:-0.690051 2:0.0419061 3:0.144221 4:-0.726286 5:-0.334698 6:0.659143 7:-0.376813 8:-0.712985 9:0.987558 10:-0.68527 
30.47884014836938 1:-0.540514 2:0.420819 3:0.194999 4:-0.668901 5:0.485851 6:-0.367422 7:0.559383 8:0.830946 9:-0.307061 10:0.134309 
19.28751565570264 1:-0.0890123 2:0.310143 3:0.391763 4:-0.899772 5:0.329329 6:0.62392 7:0.422599 8:0.923332 9:-0.568635 10:0.350709 
128 1:-0.936787 2:0.399285 3:-0.917788 4:0.26614 5:0.156912 6:0.611503 7:-0.269522 8:0.888511 9:0.657776 10:-0.426407 
10.2823455701119 1:-0.908565 2:0.510807 3:-0.533471 4:0.208512 5:-0.724597 6:0.203569 7:-0.334049 8:0.514746 9:0.709785 10:-0.401077 
86.81858636431954 1:0.627424 2:-0.538167 3:-0.198642 4:-0.582989 5:-0.915649 6:-0.771584 7:-0.769012 8:-0.224816 9:-0.855986 10:-0.774843 
50.79577015354796 1:0.247588 2:0.679293 3:0.443236 4:0.988948 5:-0.317778 6:0.794407 7:0.0323753 8:-0.409102 9:-0.865891 10:0.857029 
128 1:0.813716 2:0.291497 3:-0.236365 4:0.202943 5:0.442948 6:-0.225574 7:0.0544572 8:0.253346 9:0.527052 10:0.0701329 
128 1:0.402935 2:0.00638584 3:0.636709 4:-0.288356 5:-0.0219074 6:-0.609755 7:-0.416721 8:0.202021 9:-0.988208 10:-0.685969 
74.53098184130121 1:-0.303492 2:0.633068 3:0.852467 4:0.134409 5:-0.569699 6:-0.980624 7:-0.495386 8:-0.0506417 9:0.43217 10:0.197338 
128 1:0.227517 2:0.438346 3:-0.717206 4:-0.761414 5:-0.768362 6:-0.785524 7:0.432443 8:0.731202 9:-0.470432 10:0.17584 
2.312471140159007 1:-0.964362 2:0.337191 3:0.993419 4:0.529825 5:0.470868 6:0.986276 7:-0.620129 8:0.910472 9:-0.289867 10:0.269323 
64.97419950433405 1:0.769133 2:0.302585 3:0.78387 4:0.218864 5:0.108713 6:0.677343 7:-0.157153 8:-0.533184 9:0.724022 10:0.120986 
110.4302929563166 1:0.75782 2:0.0521923 3:0.856376 4:-0.546523 5:-0.349851 6:-0.0705321 7:-0.604452 8:-0.179714 9:0.0393368 10:0.0369199 
24.15799020732197 1:-0.644908 2:-0.542287 3:0.578469 4:-0.113505 5:-0.077404 6:0.635748 7:0.752173 8:0.374925 9:-0.280169 10:-0.655388 
102.4250938275724 1:0.390817 2:-0.580169 3:0.45103 4:0.401518 5:0.160752 6:0.651211 7:0.596409 8:-0.709661 9:0.263366 10:0.104353 
44.78540287177336 1:-0.255379 2:0.252616 3:0.465039 4:-0.857513 5:0.748202 6:0.716831 7:0.586195 8:0.041384 9:-0.826414 10:0.902323 
128 1:0.452326 2:0.190371 3:0.483857 4:-0.588327 5:0.414936 6:0.000355024 7:-0.135333 8:0.987992 9:0.0197403 10:-0.0137224 
40.98945355448469 1:0.813669 2:0.245395 3:-0.927501 4:-0.635958 5:-0.0237719 6:0.674111 7:-0.850763 8:0.0106782 9:0.913466 10:0.251124 
45.62274178415989 1:-0.0331012 2:-0.609847 3:-0.402228 4:0.196524 5:0.430682 6:0.579047 7:0.701161 8:0.404166 9:0.693344 10:-0.924285 
55.60724185745403 1:0.391094 2:0.581883 3:0.374737 4:0.133081 5:-0.685143 6:-0.644143 7:0.310247 8:-0.570721 9:-0.583777 10:-0.259567 
128 1:-0.648103 2:0.516399 3:0.141314 4:0.688792 5:-0.623689 6:-0.783617 7:0.00638245 8:-0.00876621 9:0.622271 10:0.472073 
128 1:-0.66954 2:0.249614 3:-0.992948 4:-0.417061 5:-0.394125 6:-0.803669 7:0.700465 8:0.548371 9:0.16549 10:0.162613 
41.27098747676067 1:-0.457295 2:0.49692 3:0.702174 4:-0.305488 5:-0.604015 6:-0.94593 7:-0.664894 8:0.572272 9:-0.184987 10:-0.886791 
36.86129163703526 1:0.648856 2:-0.588269 3:-0.372494 4:0.693554 5:0.0461231 6:0.310037 7:-0.864933 8:0.879865 9:0.559641 10:0.511333 
128 1:0.0987414 2:-0.250784 3:-0.525487 4:-0.271056 5:0.0321036 6:-0.55536 7:-0.884124 8:0.106216 9:-0.155545 10:-0.344102 
13.28925434627033 1:0.777502 2:-0.577533 3:0.339602 4:-0.167591 5:0.472312 6:0.906334 7:-0.167036 8:-0.41076 9:0.890595 10:-0.203807 
32.93722323946995 1:-0.108019 2:-0.524477 3:-0.317411 4:-0.327379 5:0.0308615 6:0.0382567 7:-0.784385 8:0.911706 9:0.749467 10:-0.3759 
128 1:-0.0227966 2:-0.151233 3:-0.397025 4:-0.712379 5:0.688948 6:-0.0607616 7:0.0201251 8:0.954287 9:0.115997 10:0.239497 
15.55929568375733 1:0.877996 2:0.321842 3:0.954819 4:0.899453 5:0.417128 6:0.332422 7:0.474673 8:0.724714 9:0.93765 10:-0.836758 
119.3954192070985 1:-0.572837 2:0.0358876 3:0.528352 4:-0.338105 5:0.515765 6:-0.651186 7:-0.99279 8:0.869488 9:-0.766969 10:-0.12767 
128 1:0.566088 2:0.0701915 3:0.337299 4:-0.532308 5:0.128135 6:-0.409587 7:0.626714 8:0.827336 9:0.779852 10:-0.174497 
128 1:0.772297 2:0.300525 3:-0.350931 4:0.850456 5:0.204637 6:-0.0887482 7:-0.0453561 8:-0.409843 9:0.647715 10:-0.509849 
20.31840913692254 1:0.861117 2:0.311317 3:0.612755 4:0.345513 5:-0.817712 6:-0.796003 7:-0.537745 8:-0.910296 9:-0.258298 10:0.501181 
99.89003639822633 1:-0.948831 2:0.370714 3:-0.775795 4:-0.0347236 5:-0.839364 6:0.102665 7:0.290871 8:0.293575 9:-0.0750938 10:-0.348214 
20.05602627356679 1:-0.687578 2:0.651225 3:-0.63511 4:-0.619573 5:0.84036 6:-0.604871 7:0.870292 8:-0.47665 9:0.993352 10:0.0969424 
128 1:0.164737 2:0.332269 3:0.15285 4:-0.397693 5:-0.486476 6:0.780947 7:0.241646 8:0.746908 9:0.432889 10:0.644693 
6.625362706156767 1:-0.366758 2:-0.611998 3:0.947873 4:0.0233523 5:-0.899998 6:-0.42798 7:-0.943751 8:0.58744 9:-0.596592 10:-0.851252 
33.84317203991569 1:0.325103 2:-0.612069 3:0.989984 4:0.276853 5:0.857641 6:-0.296354 7:0.10957 8:0.138025 9:0.0289527 10:-0.439556 
19.91790315992234 1:-0.807955 2:0.731051 3:-0.667121 4:0.293503 5:0.464666 6:0.715107 7:0.0795298 8:-0.93186 9:0.881476 10:-0.577139 
128 1:-0.310194 2:0.308941 3:-0.982736 4:-0.8845 5:0.464279 6:0.840601 7:0.174925 8:-0.997054 9:-0.32748 10:0.00135182 
102.7898582033985 1:0.524622 2:-0.193096 3:0.146172 4:-0.6328 5:0.471754 6:-0.00975443 7:-0.760349 8:-0.15267 9:0.436769 10:0.664724 
46.08462733087593 1:0.747246 2:-0.243444 3:-0.821098 4:-0.162495 5:0.339081 6:-0.430115 7:-0.93965 8:-0.0543541 9:-0.57237 10:-0.0689884 
128 1:0.0980726 2:0.17607 3:-0.892975 4:-0.476541 5:-0.40029 6:-0.993551 7:-0.162618 8:-0.0851631 9:-0.0122599 10:0.835554 
53.77225524206118 1:0.677392 2:0.466145 3:0.614319 4:0.581477 5:0.947917 6:0.260417 7:-0.252456 8:0.581835 9:-0.650474 10:0.720334 
22.22785165005584 1:0.135646 2:0.644703 3:0.889632 4:0.697275 5:-0.813887 6:-0.344087 7:-0.817773 8:-0.601087 9:-0.842833 10:-0.573511 
128 1:-0.0514148 2:-0.257815 3:0.467957 4:-0.408986 5:-0.15653 6:-0.981037 7:0.290961 8:0.600713 9:0.619367 10:0.57256 
128 1:-0.666547 2:0.197501 3:-0.34591 4:-0.33443 5:-0.864128 6:0.613447 7:0.207814 8:-0.415704 9:0.565422 10:0.0263861 
71.70349549656206 1:0.542927 2:-0.0713129 3:-0.410588 4:-0.844 5:-0.641318 6:-0.890568 7:-0.238733 8:-0.652662 9:-0.70339 10:-0.418919 
128 1:-0.0727116 2:-0.297835 3:-0.79482 4:-0.374189 5:-0.739334 6:0.917164 7:0.171665 8:-0.123681 9:0.276102 10:-0.0805511 
68.17506891299982 1:-0.419073 2:0.744377 3:-0.363129 4:0.718946 5:0.806891 6:-0.694169 7:-0.384817 8:-0.205822 9:0.422075 10:0.224672 
128 1:0.144124 2:0.325358 3:0.229996 4:-0.570842 5:-0.305748 6:-0.0728496 7:0.242407 8:0.00556799 9:0.0629065 10:0.985408 
9.637383770924353 1:0.706235 2:-0.648679 3:0.831887 4:-0.315343 5:0.358666 6:0.566529 7:0.558698 8:0.452137 9:0.952346 10:-0.588871 
128 1:-0.144048 2:0.102021 3:-0.139505 4:-0.799808 5:0.740074 6:0.855414 7:0.616456 8:0.652069 9:0.347986 10:-0.557629 
121.21154455038 1:-0.426384 2:0.145591 3:0.469925 4:-0.969614 5:-0.690957 6:-0.865183 7:-0.490278 8:0.78772 9:0.759285 10:-0.784094 
128 1:-0.224408 2:0.278905 3:-0.933087 4:-0.560301 5:0.227013 6:-0.15601 7:-0.748395 8:0.537165 9:0.253823 10:-0.356047 
0.5902850479910217 1:-0.187129 2:-0.706824 3:0.502524 4:0.195569 5:-0.983601 6:-0.768116 7:-0.812746 8:0.997964 9:0.463789 10:0.682204 
49.8847396449784 1:-0.632835 2:0.0185704 3:0.766183 4:-0.484969 5:-0.738511 6:-0.733678 7:0.548218 8:0.676762 9:0.962636 10:0.672765 
128 1:-0.119083 2:0.521718 3:0.494031 4:-0.265398 5:-0.843873 6:0.809598 7:-0.928953 8:0.448726 9:-0.680297 10:-0.348041 
128 1:-0.545837 2:-0.0271728 3:-0.52136 4:-0.551693 5:0.394124 6:-0.057345 7:-0.0249821 8:-0.0670259 9:0.295819 10:-0.358683 
57.2805235112632 1:0.436349 2:0.0789802 3:-0.872776 4:-0.285676 5:0.639593 6:-0.87487 7:-0.985951 8:-0.918304 9:-0.183112 10:0.846449 
12.66640866642463 1:-0.658064 2:0.0446974 3:-0.157596 4:-0.412779 5:0.677117 6:-0.584447 7:-0.714115 8:0.987132 9:0.873683 10:-0.390941 
128 1:0.217924 2:0.241556 3:0.106514 4:-0.360187 5:0.0592397 6:-0.920747 7:0.403421 8:0.0964392 9:-0.283494 10:-0.369143 
26.05876945727094 1:-0.546884 2:0.0824464 3:-0.36591 4:-0.252666 5:-0.933717 6:0.770049 7:0.943082 8:0.21166 9:-0.354149 10:0.0627431 
128 1:-0.20543 2:-0.135878 3:-0.307443 4:-0.592794 5:-0.596283 6:0.528917 7:0.272948 8:-0.0972488 9:-0.474778 10:-0.675756 
128 1:0.0987462 2:0.0594131 3:0.497152 4:-0.516822 5:0.716476 6:0.803791 7:-0.316937 8:-0.492567 9:-0.39223 10:-0.899589 
12.96508731916462 1:-0.480164 2:0.200545 3:-0.233495 4:-0.84414 5:0.978428 6:0.330109 7:0.744057 8:0.892932 9:-0.6105 10:-0.260155 
128 1:0.360605 2:0.140993 3:-0.436996 4:-0.722746 5:-0.308156 6:-0.303926 7:-0.540156 8:0.121009 9:-0.248657 10:0.144103 
128 1:-0.379303 2:-0.110672 3:-0.278447 4:-0.581422 5:-0.360739 6:0.483597 7:0.791757 8:-0.617237 9:-0.188193 10:0.554288 
72.23283765681975 1:-0.982391 2:0.445531 3:-0.487112 4:0.0662687 5:-0.44165 6:0.677295 7:0.851506 8:0.0190957 9:-0.78562 10:0.887886 
19.36644107567762 1:-0.108996 2:0.898298 3:-0.79796 4:0.203885 5:-0.466909 6:0.475903 7:-0.890104 8:0.395596 9:-0.30554 10:0.990412 
112.3771901758642 1:-0.544998 2:0.186525 3:0.315136 4:-0.731168 5:-0.298048 6:0.60476 7:-0.274985 8:0.845025 9:-0.14732 10:0.373288 
10.64791850865519 1:0.560383 2:0.460513 3:-0.443816 4:-0.315534 5:0.249493 6:-0.616857 7:0.945157 8:-0.290167 9:-0.710615 10:0.821215 
117.3289132184626 1:0.490737 2:0.540539 3:-0.00225984 4:0.31421 5:0.890806 6:0.0799116 7:-0.342953 8:-0.235664 9:0.845615 10:-0.321208 
24.82389001222042 1:0.359828 2:0.319129 3:-0.664713 4:-0.574443 5:-0.494177 6:-0.821659 7:0.50809 8:0.89982 9:0.352137 10:-0.793619 
128 1:0.11833 2:0.266755 3:0.385969 4:-0.43372 5:-0.216873 6:-0.907719 7:0.103753 8:-0.954669 9:0.708919 10:0.206723 
128 1:-0.0711179 2:0.127979 3:0.847735 4:-0.641863 5:0.759427 6:0.82299 7:-0.121286 8:-0.0776846 9:-0.78699 10:0.737453 
128 1:0.4931 2:0.509115 3:0.393169 4:0.244005 5:-0.408663 6:-0.491865 7:-0.950374 8:0.828054 9:-0.490676 10:0.147731 
41.26417562386448 1:-0.172397 2:-0.213056 3:-0.180208 4:-0.71434 5:-0.263565 6:-0.629176 7:-0.57963 8:0.480337 9:0.224361 10:0.0456783 
60.20483938101596 1:-0.783401 2:0.613717 3:-0.74855 4:-0.704974 5:-0.63637 6:0.202982 7:-0.847114 8:-0.930916 9:0.128084 10:0.619791 
44.73325737205618 1:0.146731 2:-0.610838 3:0.197335 4:-0.0828374 5:-0.147924 6:0.618458 7:0.0653876 8:-0.701825 9:0.0786799 10:0.955778 
15.33074191067315 1:-0.289335 2:-0.629365 3:0.458008 4:-0.254267 5:-0.213412 6:-0.119214 7:-0.28754 8:-0.555118 9:-0.958998 10:-0.954397 
82.72369381568151 1:0.643509 2:0.415954 3:-0.683004 4:0.574055 5:-0.7321 6:0.936925 7:0.240038 8:0.502447 9:0.935727 10:0.148889 
128 1:-0.214066 2:0.0683213 3:0.389748 4:-0.564414 5:-0.261228 6:-0.315485 7:0.201675 8:-0.748093 9:-0.0526091 10:-0.43225 
128 1:0.0633405 2:0.405717 3:0.442448 4:0.122997 5:0.951797 6:0.998945 7:-0.417646 8:0.300305 9:0.280001 10:-0.00224514 
128 1:-0.173732 2:0.320394 3:-0.399778 4:-0.60179 5:0.213944 6:-0.126264 7:0.0361692 8:0.00537058 9:0.185757 10:-0.314278 
128 1:-0.410353 2:0.0170166 3:-0.357554 4:-0.0691107 5:0.206564 6:-0.965569 7:-0.276368 8:-0.504904 9:0.583136 10:0.77674 
49.15228949843944 1:0.665389 2:0.0861728 3:-0.562101 4:-0.772096 5:-0.0160826 6:0.207007 7:-0.552362 8:-0.037084 9:0.827035 10:-0.820802 
120.6077178332378 1:0.900181 2:0.279024 3:-0.081225 4:0.0210317 5:0.744606 6:0.356985 7:0.856784 8:0.283191 9:0.158329 10:0.611865 
128 1:-0.0752096 2:0.114901 3:-0.825925 4:-0.917179 5:-0.344869 6:-0.675797 7:-0.425083 8:0.413924 9:-0.46426 10:-0.575638 
128 1:-0.850524 2:0.527804 3:-0.702895 4:0.448757 5:-0.0570342 6:0.88733 7:-0.437467 8:-0.245957 9:-0.0860712 10:-0.771943 
20.91030077416369 1:0.766707 2:0.37738 3:0.0464824 4:0.635532 5:0.821921 6:0.57384 7:-0.761809 8:-0.628982 9:-0.784045 10:0.380886 
128 1:0.494481 2:0.158472 3:-0.50392 4:-0.724201 5:-0.245279 6:-0.327495 7:-0.545958 8:0.491222 9:0.967157 10:-0.221603 
56.556590159471 1:-0.635883 2:-0.329123 3:-0.093186 4:-0.0955415 5:0.911275 6:0.963683 7:-0.289664 8:0.611376 9:-0.830603 10:0.727234 
7.528689767012394 1:-0.456099 2:0.593585 3:0.473933 4:0.0610207 5:0.752189 6:-0.213205 7:-0.673363 8:0.353627 9:-0.778228 10:-0.643885 
93.68960853641859 1:0.0763464 2:-0.42719 3:-0.559967 4:-0.470804 5:0.244658 6:0.507227 7:-0.133773 8:0.666691 9:-0.950778 10:-0.276458 
128 1:0.300893 2:-0.226296 3:-0.529554 4:-0.790121 5:-0.106919 6:0.816656 7:-0.894233 8:-0.543049 9:-0.254107 10:-0.785131 
128 1:0.57514 2:-0.377587 3:-0.349261 4:-0.69023 5:0.0213489 6:0.699956 7:-0.848425 8:0.602558 9:0.332589 10:0.618473 
12.41260294344496 1:-0.246752 2:0.837593 3:-0.77351 4:0.982862 5:-0.657008 6:0.19052 7:0.895436 8:0.622544 9:-0.63396 10:-0.225434 
19.79735938051999 1:0.401957 2:0.591516 3:-0.591799 4:0.905255 5:-0.133436 6:-0.394046 7:0.204336 8:0.00536596 9:0.615572 10:-0.821685 
5.765238592930951 1:-0.68525 2:0.753519 3:0.899778 4:0.388193 5:0.559981 6:-0.607061 7:-0.808191 8:-0.542747 9:-0.993431 10:-0.0714282 
99.47030290929719 1:0.689066 2:-0.178865 3:0.556462 4:-0.20531 5:-0.124836 6:-0.762214 7:0.893125 8:0.733559 9:0.682367 10:-0.353005 
128 1:0.0581521 2:0.130763 3:0.66633 4:-0.448279 5:-0.615102 6:0.148711 7:0.381272 8:0.272991 9:-0.830669 10:-0.362187 
128 1:0.118301 2:0.461844 3:0.329393 4:-0.399513 5:-0.572935 6:-0.100132 7:0.0418847 8:0.270822 9:-0.394776 10:-0.710333 
128 1:-0.46447 2:0.114838 3:-0.185615 4:-0.329705 5:0.0632939 6:-0.713193 7:0.228719 8:-0.388169 9:0.348931 10:0.538777 
11.78871561073421 1:-0.661423 2:0.799782 3:-0.833325 4:0.339211 5:0.606278 6:-0.26286 7:-0.791082 8:0.525378 9:-0.371367 10:0.344035 
128 1:-0.687062 2:0.132865 3:-0.186813 4:-0.140576 5:-0.644011 6:0.197502 7:0.937433 8:-0.763268 9:0.538259 10:-0.837199 
128 1:-0.116794 2:0.183488 3:0.59066 4:-0.572999 5:0.51851 6:0.010033 7:0.338859 8:0.712389 9:-0.39697 10:0.018078 
81.98069303241958 1:-0.922239 2:0.4673 3:0.83322 4:0.686796 5:-0.0714695 6:0.314606 7:0.74401 8:-0.108793 9:0.923094 10:-0.962231 
36.95402811013077 1:-0.409757 2:-0.625167 3:0.936187 4:-0.587692 5:-0.941343 6:-0.851384 7:-0.550287 8:-0.357373 9:-0.704703 10:-0.27595 
57.4650699345508 1:-0.861851 2:0.553788 3:-0.814345 4:-0.177863 5:-0.709452 6:-0.63765 7:-0.0189497 8:-0.479187 9:0.796102 10:-0.922325 
91.62160430472363 1:-0.184826 2:0.697646 3:-0.332016 4:0.671249 5:0.574541 6:-0.8794 7:0.423848 8:0.971093 9:0.221466 10:0.76678 
37.86956314229163 1:-0.305854 2:-0.597676 3:0.932784 4:-0.642914 5:0.24488 6:0.541379 7:0.0735252 8:-0.00141292 9:0.345482 10:-0.402474 
59.48813646355612 1:0.533241 2:-0.178879 3:0.834306 4:-0.412504 5:-0.839953 6:0.256554 7:0.281308 8:0.47811 9:-0.360398 10:0.381817 
32.0128327916251 1:-0.189456 2:-0.56776 3:0.69181 4:-0.590603 5:0.54306 6:0.729621 7:0.459843 8:-0.463095 9:0.322667 10:0.390096 
12.68671981210479 1:-0.994779 2:0.340868 3:-0.515303 4:0.0905138 5:0.190917 6:-0.588374 7:-0.765802 8:0.717749 9:0.0542608 10:-0.589135 
42.46742110143734 1:0.192789 2:-0.566522 3:0.758783 4:0.825098 5:0.913031 6:0.0688927 7:-0.248632 8:-0.889634 9:-0.827678 10:0.370973 
40.2345532160893 1:0.220714 2:0.365919 3:-0.894782 4:-0.483346 5:-0.775082 6:0.304324 7:0.826484 8:0.670557 9:0.382697 10:-0.460272 
64.41597190563363 1:0.177625 2:0.780242 3:-0.199256 4:0.269259 5:-0.793613 6:-0.254223 7:0.710506 8:-0.649548 9:-0.59822 10:-0.272295 
115.4978539287627 1:-0.576898 2:-0.368679 3:-0.0980756 4:-0.563194 5:0.689944 6:0.0233123 7:0.757146 8:0.74457 9:0.325404 10:0.422856 
7.958479879732264 1:-0.943341 2:0.428997 3:0.943798 4:0.239778 5:0.494284 6:-0.742912 7:-0.0794785 8:-0.333791 9:0.0355813 10:-0.203804 
36.94885515767903 1:-0.273006 2:-0.21833 3:-0.826677 4:-0.280468 5:0.558522 6:-0.831779 7:-0.823571 8:-0.718575 9:-0.245762 10:0.871884 
128 1:0.194406 2:-0.250025 3:-0.569919 4:-0.130889 5:-0.0823691 6:-0.550134 7:0.0432938 8:0.35175 9:-0.944615 10:-0.8017 
94.17312808958361 1:0.225872 2:0.0130582 3:0.259193 4:-0.80782 5:0.770047 6:-0.700186 7:0.17955 8:0.981008 9:-0.552188 10:-0.889382 
105.5388089205029 1:0.264215 2:-0.279738 3:0.988364 4:-0.459707 5:-0.885095 6:0.803202 7:0.169023 8:-0.684503 9:-0.255749 10:-0.93079 
64.41895946628235 1:0.387359 2:0.219472 3:-0.471416 4:-0.604285 5:-0.766748 6:0.322764 7:0.419492 8:-0.114089 9:-0.93878 10:-0.0434724 
57.20455315904123 1:-0.390302 2:0.276205 3:-0.156964 4:-0.972614 5:-0.6358 6:0.423466 7:-0.956895 8:0.336278 9:-0.766994 10:0.889107 
128 1:-0.266185 2:0.551712 3:0.637711 4:-0.295138 5:0.0857362 6:0.839026 7:0.90414 8:-0.365254 9:-0.553227 10:-0.86766 
79.11530160758369 1:-0.0925875 2:0.0155893 3:-0.897837 4:-0.48679 5:0.772309 6:0.264627 7:-0.990702 8:0.0766523 9:-0.231905 10:-0.93769 
128 1:0.545851 2:0.471847 3:-0.524724 4:0.535631 5:-0.796484 6:0.974276 7:-0.299965 8:-0.00362244 9:-0.42562 10:-0.0409682 
118.3364074740132 1:0.366491 2:-0.619831 3:-0.481069 4:-0.0725831 5:-0.993466 6:-0.22262 7:-0.224363 8:0.0528584 9:0.996332 10:0.332895 
3.243874926519243 1:-0.277593 2:0.93446 3:0.721579 4:0.358812 5:-0.767476 6:-0.821037 7:0.329113 8:0.926362 9:-0.739314 10:0.303222 
87.25306102788463 1:0.418741 2:0.578447 3:-0.874533 4:-0.369452 5:-0.762836 6:-0.127219 7:-0.410014 8:0.954798 9:0.600252 10:-0.272981 
128 1:0.0689018 2:-0.343122 3:-0.159065 4:-0.240439 5:-0.0721233 6:-0.579358 7:0.182073 8:0.173029 9:-0.873127 10:0.867494 
128 1:0.073879 2:0.16494 3:-0.35059 4:-0.810219 5:0.712861 6:-0.115357 7:0.151336 8:0.577977 9:0.492751 10:0.421325 
46.81097966748748 1:0.859217 2:0.221349 3:0.147299 4:0.51732 5:0.016914 6:0.946329 7:0.499167 8:-0.498187 9:-0.981683 10:0.578773 
128 1:-0.777656 2:0.670398 3:-0.773401 4:0.0324772 5:0.486183 6:-0.456793 7:-0.313507 8:-0.276244 9:-0.686235 10:0.734507 
6.940777797592375 1:0.261351 2:-0.227111 3:0.962634 4:-0.889658 5:0.558292 6:0.726255 7:0.207883 8:-0.476945 9:0.318517 10:-0.00861087 
38.57924803168302 1:-0.496168 2:0.699561 3:-0.649744 4:0.824948 5:0.940449 6:-0.712274 7:-0.670355 8:0.446475 9:0.6171 10:0.435012 
128 1:0.0153646 2:0.391056 3:-0.787751 4:-0.911369 5:-0.437474 6:-0.261163 7:-0.97097 8:-0.419941 9:-0.275285 10:-0.296572 
4.521559215576177 1:0.819431 2:0.295329 3:-0.203212 4:0.440858 5:-0.550433 6:0.168988 7:-0.912269 8:-0.346428 9:0.233944 10:0.552175 
128 1:0.379708 2:-0.565341 3:-0.426397 4:0.32475 5:0.982264 6:-0.0671252 7:0.718203 8:0.266999 9:0.568517 10:0.0813357 
55.09331688613079 1:-0.350205 2:0.81472 3:0.953631 4:0.92649 5:0.337333 6:0.514761 7:-0.192397 8:0.191226 9:-0.144233 10:-0.769943 
-91.7150358408076 1:-0.410555 2:0.530364 3:-0.721875 4:0.547039 5:0.712007 6:0.66163 7:0.616319 8:0.841544 9:-0.572153 10:-0.68076 
-128 1:0.150124 2:-0.278036 3:0.226944 4:-0.720285 5:-0.666679 6:0.611164 7:-0.804921 8:0.372427 9:-0.987288 10:-0.684456 
-128 1:0.719322 2:0.062577 3:-0.274281 4:-0.781254 5:0.243307 6:0.82128 7:-0.598028 8:-0.438532 9:-0.385869 10:0.300081 
-114.2596609709515 1:-0.0432903 2:0.643827 3:0.15926 4:0.0123844 5:0.0203206 6:0.0167984 7:0.559543 8:-0.680625 9:0.295663 10:-0.918938 
-3.819075886312607 1:0.400005 2:0.297586 3:0.933329 4:0.930722 5:-0.86427 6:0.151249 7:-0.832876 8:0.488876 9:0.912741 10:0.703627 
-128 1:-0.312108 2:0.566469 3:0.0953645 4:-0.0841017 5:0.178484 6:-0.434059 7:-0.037492 8:-0.245979 9:-0.344971 10:-0.435162 
-40.13343653390186 1:-0.504229 2:0.335736 3:-0.794138 4:0.851915 5:0.731064 6:0.331935 7:0.751835 8:0.322783 9:-0.95355 10:-0.820584 
-123.3228343762437 1:-0.697975 2:0.14744 3:-0.4195 4:-0.60433 5:-0.75033 6:-0.71028 7:-0.54282 8:-0.650251 9:0.973461 10:-0.967183 
-60.93251601880971 1:-0.492435 2:0.52504 3:-0.372709 4:-0.309146 5:0.00541275 6:0.180226 7:0.2243 8:0.221181 9:0.673885 10:-0.496822 
-58.70796856416218 1:-0.386677 2:0.636112 3:0.757708 4:0.581765 5:0.630947 6:0.413172 7:0.186994 8:-0.329514 9:0.986896 10:-0.686749 
-128 1:0.447279 2:0.265925 3:-0.160633 4:-0.666401 5:-0.133395 6:0.460024 7:-0.347916 8:0.988821 9:0.617342 10:-0.633282 
-128 1:-0.593328 2:-0.0219699 3:0.813002 4:-0.746317 5:-0.150676 6:0.715005 7:0.200593 8:0.627721 9:-0.59297 10:0.417052 
-128 1:-0.717137 2:-0.112985 3:-0.903395 4:-0.101599 5:-0.699745 6:0.382273 7:0.958712 8:-0.630005 9:0.468882 10:0.174128 
-128 1:0.349506 2:0.157305 3:0.217921 4:-0.643459 5:-0.0394529 6:-0.0614955 7:-0.932663 8:-0.144079 9:0.230607 10:0.0666306 
-128 1:0.231187 2:0.416456 3:-0.236677 4:-0.39136 5:0.454003 6:0.605437 7:0.414838 8:-0.0400009 9:0.712383 10:0.641335 
-86.19240103490962 1:-0.463289 2:0.657779 3:-0.378443 4:-0.507108 5:0.706501 6:-0.296774 7:0.797636 8:-0.931076 9:-0.373899 10:-0.621029 
-44.97245515148813 1:-0.550322 2:-0.126949 3:0.774065 4:-0.322322 5:0.743428 6:-0.522989 7:0.278341 8:0.272962 9:-0.732492 10:0.835818 
-29.78101775687126 1:-0.357857 2:0.673612 3:0.9076 4:0.593453 5:0.627779 6:-0.656192 7:0.72644 8:-0.0717371 9:-0.74061 10:0.454959 
-128 1:-0.633567 2:0.365244 3:-0.0223803 4:0.349369 5:0.640847 6:-1 7:0.171261 8:-0.0307953 9:0.427276 10:0.688239 
-128 1:-0.430855 2:-0.0292117 3:-0.781476 4:-0.814366 5:-0.790175 6:-0.773375 7:0.0774215 8:0.230373 9:0.380504 10:-0.0776351 
-128 1:-0.539463 2:0.398185 3:0.513106 4:-0.0366734 5:0.834934 6:-0.276512 7:-0.755734 8:0.672021 9:-0.985974 10:0.070639 
-82.45516343141027 1:0.781231 2:-0.114989 3:0.484588 4:-0.0106471 5:-0.133464 6:-0.831123 7:-0.154001 8:-0.373941 9:0.986361 10:-0.580996 
-128 1:-0.421933 2:0.122333 3:-0.869548 4:-0.550973 5:0.428804 6:-0.0497004 7:-0.29978 8:-0.0707506 9:0.626511 10:0.969132 
-26.42973031783556 1:-0.539412 2:0.455391 3:-0.581689 4:0.231972 5:-0.01544 6:-0.950899 7:-0.401379 8:0.541142 9:0.70194 10:-0.0077023 
-128 1:0.504091 2:-0.279914 3:-0.0495648 4:-0.262353 5:-0.216625 6:-0.743203 7:0.907478 8:-0.391271 9:-0.714083 10:0.687316 
-128 1:0.232688 2:-0.353113 3:0.373412 4:-0.844556 5:0.671975 6:-0.665578 7:0.367514 8:0.399562 9:-0.697631 10:-0.734272 
-96.58426764012589 1:-0.685389 2:-0.0255346 3:0.900917 4:-0.344792 5:0.444526 6:0.0703063 7:0.624271 8:-0.892889 9:0.543251 10:0.55409 
-126.2952296327031 1:-0.519265 2:0.542617 3:-0.054832 4:0.209166 5:-0.169082 6:-0.0662097 7:0.253952 8:-0.168719 9:-0.731579 10:-0.825169 
-38.33806626040783 1:-0.473426 2:-0.0648234 3:-0.779767 4:-0.438541 5:-0.608141 6:-0.394667 7:-0.145791 8:0.706032 9:0.558431 10:-0.119083 
-55.28136661040748 1:0.387808 2:0.166361 3:-0.0804432 4:-0.416167 5:0.000970559 6:-0.436159 7:0.995486 8:0.110783 9:-0.805607 10:0.394219 
-33.57120898227178 1:0.672988 2:-0.219321 3:0.250141 4:-0.712531 5:-0.680155 6:-0.980726 7:-0.290291 8:-0.631335 9:0.549262 10:-0.622485 
-51.57794182160798 1:0.622164 2:-0.0637758 3:-0.880608 4:0.170061 5:0.988138 6:-0.315518 7:-0.854648 8:0.782199 9:0.776083 10:-0.830201 
-121.3396670638434 1:0.730194 2:-0.0921667 3:0.198907 4:-0.561891 5:-0.699263 6:-0.0161244 7:-0.635984 8:0.316623 9:-0.827513 10:0.940963 
-128 1:0.143572 2:0.570942 3:0.0858679 4:-0.695242 5:0.931656 6:0.145523 7:0.585888 8:0.581572 9:0.024302 10:0.244248 
-121.4176932813846 1:-0.581331 2:-0.0304422 3:-0.0818377 4:-0.203203 5:-0.850478 6:0.298712 7:0.19437 8:-0.949553 9:0.449008 10:0.0768373 
-42.62006933408843 1:-0.315785 2:0.655738 3:0.275236 4:0.992783 5:-0.932262 6:-0.0683613 7:-0.769417 8:-0.0175741 9:-0.915714 10:0.313234 
-128 1:-0.708658 2:0.319037 3:0.269014 4:0.462949 5:-0.223646 6:-0.171484 7:0.324396 8:0.903152 9:0.655916 10:0.879891 
-47.91516354461271 1:-0.125973 2:0.644182 3:-0.478317 4:-0.288137 5:0.0702524 6:0.506989 7:-0.784716 8:0.218092 9:0.501022 10:-0.214564 
-128 1:0.441735 2:-0.249948 3:-0.520474 4:-0.284193 5:0.413153 6:-0.509707 7:-0.226073 8:0.447278 9:-0.108953 10:-0.67829 
-85.51173700765908 1:-0.756433 2:0.0470246 3:0.627172 4:-0.428405 5:-0.382444 6:0.120295 7:-0.654002 8:-0.154461 9:-0.251001 10:0.912943 
-86.1112209448618 1:0.0863926 2:-0.296964 3:-0.946287 4:-0.160804 5:-0.136253 6:-0.687443 7:-0.924642 8:-0.56381 9:-0.683072 10:-0.162251 
-128 1:0.0242191 2:0.517827 3:-0.785325 4:-0.725567 5:0.246618 6:-0.658916 7:0.827936 8:-0.437738 9:-0.334306 10:-0.563276 
-128 1:0.191911 2:0.541058 3:0.919777 4:0.342918 5:-0.128143 6:-0.676525 7:-0.0422464 8:0.184714 9:0.0301677 10:0.289315 
-128 1:-0.456919 2:0.3021 3:-0.466501 4:-0.824907 5:0.922706 6:-0.755156 7:-0.0252001 8:-0.273631 9:0.280481 10:-0.419925 
-93.1760305439811 1:-0.420063 2:0.661635 3:-0.478964 4:0.801646 5:0.597837 6:0.589711 7:-0.399905 8:0.312947 9:-0.234751 10:0.9324 
-33.5874987669912 1:-0.294199 2:-0.0686201 3:-0.905589 4:-0.417297 5:0.387843 6:-0.917651 7:0.961199 8:0.817929 9:-0.632955 10:-0.810085 
-128 1:-0.134042 2:-0.340035 3:0.909649 4:-0.649027 5:-0.35852 6:-0.624486 7:-0.81157 8:0.49782 9:0.634242 10:0.0282889 
-33.59473842032668 1:0.23826 2:0.171753 3:0.403515 4:-0.122079 5:0.855106 6:-0.19222 7:-0.711256 8:0.583505 9:0.897191 10:-0.028406 
-68.5912636891254 1:-0.53778 2:0.0636176 3:-0.161418 4:-0.60969 5:0.111959 6:0.958558 7:0.742212 8:-0.888278 9:0.933664 10:-0.153714 
-93.18022532161278 1:-0.679205 2:-0.0507123 3:-0.450411 4:-0.0418932 5:-0.404961 6:0.0322948 7:0.87017 8:-0.828528 9:0.299131 10:-0.882905 
-3.427788065764989 1:0.36825 2:-0.206159 3:0.138877 4:0.809002 5:-0.275923 6:-0.549219 7:-0.891787 8:-0.91082 9:0.0539602 10:-0.817312 
-128 1:0.560459 2:0.19684 3:0.387825 4:-0.184875 5:-0.270235 6:-0.546024 7:-0.29903 8:0.972178 9:-0.726853 10:0.00864508 
-128 1:-0.540203 2:0.514642 3:0.306695 4:-0.334425 5:0.476552 6:0.593955 7:0.69762 8:0.20753 9:-0.572556 10:0.772236 
-3.23969187300009 1:-0.282927 2:-0.244042 3:-0.985653 4:-0.572685 5:0.873767 6:-0.948918 7:0.752943 8:0.323978 9:0.664118 10:0.370991 
-128 1:0.0264534 2:-0.305176 3:0.714921 4:-0.564032 5:0.609062 6:-0.615291 7:0.726913 8:-0.410397 9:-0.999325 10:-0.0901836 
-119.2562234534806 1:-0.384955 2:-0.242671 3:-0.298949 4:-0.42296 5:0.55073 6:0.946126 7:0.483005 8:-0.640898 9:-0.193996 10:-0.292398 
-55.6804928074869 1:0.237383 2:-0.267209 3:0.139166 4:-0.724426 5:0.341798 6:0.954968 7:0.932588 8:-0.796736 9:-0.131881 10:0.507102 
-104.6672920744465 1:0.68244 2:0.066894 3:0.596735 4:-0.445587 5:0.0695745 6:0.556987 7:0.291869 8:-0.482362 9:0.875835 10:0.362708 
-128 1:-0.28473 2:0.687776 3:-0.578349 4:-0.841763 5:0.526021 6:0.91594 7:0.271323 8:-0.311261 9:-0.585936 10:0.0245739 
-103.6034212430459 1:-0.31026 2:0.68714 3:-0.730558 4:-0.642234 5:0.096766 6:0.27353 7:-0.330995 8:-0.679459 9:0.684557 10:-0.867775 
-77.85250158119882 1:0.197124 2:0.404258 3:0.0339531 4:0.60904 5:0.027528 6:0.0318423 7:-0.264268 8:-0.39293 9:0.77551 10:0.687517 
-128 1:0.0333783 2:0.449508 3:0.79508 4:-0.462612 5:0.314253 6:0.472599 7:0.793089 8:0.314224 9:0.287194 10:-0.412969 
-109.4947311230857 1:0.581216 2:-0.0166264 3:-0.0579724 4:-0.83361 5:0.179993 6:0.918895 7:-0.577493 8:0.497259 9:-0.767053 10:0.811838 
-95.96017640538402 1:0.061914 2:0.494123 3:-0.683996 4:-0.100879 5:-0.55934 6:0.290342 7:0.931129 8:0.722598 9:0.652236 10:-0.580607 
-22.60906402097084 1:-0.714034 2:0.190132 3:-0.805673 4:-0.882073 5:0.679142 6:-0.873626 7:0.690336 8:0.0548864 9:-0.3335 10:0.331323 
-42.9079541321253 1:0.307534 2:-0.259953 3:0.812162 4:-0.612629 5:0.557216 6:-0.561744 7:0.507137 8:-0.245819 9:0.353434 10:-0.858124 
-1.301995149558629 1:-0.564455 2:-0.0388863 3:-0.72892 4:-0.309494 5:-0.382537 6:-0.768954 7:-0.787149 8:0.988894 9:0.887131 10:0.881862 
-87.81708096179285 1:0.677541 2:-0.18288 3:-0.167537 4:0.726571 5:0.955206 6:0.681331 7:0.720642 8:0.288613 9:0.980465 10:0.667727 
-3.851343411913698 1:-0.349758 2:0.616817 3:-0.170683 4:-0.250104 5:-0.674712 6:-0.680926 7:-0.767985 8:0.119466 9:0.199927 10:-0.990595 
-128 1:0.721873 2:0.010731 3:-0.519964 4:-0.130738 5:-0.916077 6:0.413616 7:0.50131 8:-0.801845 9:-0.853031 10:-0.282554 
-128 1:0.104142 2:0.539989 3:0.225603 4:-0.145993 5:-0.293232 6:-0.681128 7:-0.144617 8:-0.309718 9:-0.378214 10:-0.394809 
-112.9445537481605 1:-0.489341 2:0.566001 3:-0.0649122 4:0.787108 5:-0.558609 6:-0.873559 7:-0.309967 8:0.197993 9:0.839171 10:-0.365628 
-87.52702675466278 1:-0.415247 2:0.634849 3:-0.572967 4:-0.714346 5:0.360698 6:0.799045 7:-0.534802 8:-0.291998 9:-0.917717 10:0.786088 
-3.096562938444326 1:0.519745 2:-0.147732 3:0.364057 4:-0.677346 5:-0.287178 6:0.761849 7:-0.368411 8:0.718242 9:0.515476 10:0.491261 
-128 1:-0.570464 2:-0.2296 3:-0.363853 4:-0.491836 5:-0.288009 6:0.625595 7:-0.268838 8:-0.721283 9:0.342261 10:-0.320835 
-75.37627897400456 1:0.0903799 2:0.308224 3:0.858953 4:-0.115382 5:-0.538773 6:0.669797 7:0.885482 8:0.0450823 9:-0.939015 10:-0.783629 
-59.78966571504179 1:-0.147451 2:0.0558273 3:0.824972 4:-0.616067 5:-0.132945 6:0.374755 7:-0.108226 8:0.486878 9:-0.0848882 10:-0.333285 
-128 1:0.541014 2:0.183179 3:-0.836187 4:-0.785255 5:-0.691633 6:0.974736 7:-0.962402 8:0.539824 9:-0.310052 10:-0.567978 
-13.31785943518185 1:-0.0917011 2:0.659591 3:0.756164 4:0.965024 5:-0.724972 6:0.702363 7:0.497448 8:0.0372437 9:0.514381 10:0.178357 
-128 1:-0.753413 2:0.106218 3:-0.731219 4:-0.233607 5:-0.729054 6:0.611385 7:0.26311 8:0.899155 9:-0.0809658 10:-0.300278 
-44.98178716117954 1:-0.432188 2:0.637026 3:0.0666341 4:0.477255 5:0.193897 6:0.991827 7:0.92033 8:0.83341 9:-0.038807 10:0.777537 
-44.32133109995244 1:-0.513181 2:0.464235 3:-0.973747 4:0.893331 5:0.146271 6:0.804149 7:-0.214934 8:-0.866145 9:-0.757337 10:0.0793493 
-40.49238395576869 1:-0.324457 2:-0.321733 3:0.73259 4:-0.13929 5:0.033661 6:-0.943442 7:-0.966321 8:0.85442 9:0.445144 10:-0.802382 
-22.27412013841703 1:-0.640715 2:0.226602 3:-0.892786 4:0.628621 5:-0.872402 6:0.388454 7:0.50043 8:0.602975 9:0.845526 10:-0.780242 
-61.93891601489533 1:0.37822 2:-0.345308 3:0.307878 4:0.4844 5:-0.96197 6:0.64329 7:-0.536966 8:-0.246892 9:-0.258356 10:0.624399 
-128 1:0.648298 2:0.0581124 3:0.830798 4:0.624909 5:-0.362993 6:-0.583214 7:0.324854 8:0.213761 9:0.743863 10:0.3114 
-128 1:0.486424 2:-0.27585 3:0.13094 4:-0.662226 5:0.745259 6:-0.0903714 7:-0.0414503 8:0.786593 9:-0.545809 10:0.980789 
-25.2681896722 1:-0.682358 2:0.238217 3:-0.809856 4:-0.771096 5:0.770597 6:0.745461 7:0.789419 8:-0.0456046 9:0.233183 10:0.789985 
-0.4470284847351197 1:-0.52843 2:0.278131 3:-0.837857 4:-0.485953 5:-0.170896 6:-0.24363 7:0.437186 8:0.477254 9:-0.959801 10:0.834213 
-68.8767920222077 1:-0.56455 2:-0.156015 3:-0.916325 4:-0.212615 5:-0.532049 6:-0.288629 7:0.35251 8:-0.148925 9:-0.975701 10:0.991724 
-128 1:-0.111832 2:-0.332667 3:0.668559 4:-0.57096 5:0.911749 6:0.905685 7:0.225819 8:0.731087 9:-0.546624 10:0.00376843 
-128 1:-0.00153752 2:0.168175 3:0.321408 4:-0.457926 5:-0.922793 6:-0.555574 7:0.987465 8:-0.363739 9:0.339665 10:-0.0631815 
-128 1:0.00263816 2:0.627049 3:0.99035 4:-0.229505 5:-0.499267 6:0.589335 7:-0.374246 8:-0.179787 9:-0.2528 10:0.601526 
-16.69611411452677 1:0.566873 2:0.168505 3:-0.743917 4:0.940728 5:0.40597 6:0.0284749 7:0.282394 8:-0.623556 9:-0.0104732 10:0.30005 
-54.80019065962311 1:0.0419212 2:0.320317 3:-0.220885 4:-0.198377 5:-0.974314 6:0.16678 7:0.81905 8:-0.0235553 9:0.308067 10:0.599692 
-128 1:0.0931511 2:0.568635 3:-0.581242 4:-0.0471131 5:0.909329 6:0.402992 7:-0.922202 8:0.636432 9:-0.567317 10:-0.441729 
-14.37402308472686 1:0.471101 2:0.242302 3:-0.491714 4:-0.210654 5:0.973488 6:0.191572 7:0.488292 8:0.982811 9:0.493117 10:-0.482466 
-128 1:0.474595 2:0.224605 3:0.115592 4:-0.57591 5:-0.407042 6:-0.264577 7:0.0405591 8:-0.417515 9:-0.257569 10:-0.825066 
-128 1:0.596571 2:-0.284104 3:-0.156641 4:-0.660973 5:0.937819 6:-0.37933 7:-0.788149 8:-0.756242 9:-0.301705 10:-0.0368646 
-47.16372545257633 1:0.0226632 2:-0.14061 3:0.997493 4:-0.375274 5:0.233108 6:0.484515 7:-0.859548 8:-0.857828 9:0.46525 10:-0.303823 
-31.53102337532547 1:-0.483919 2:0.217707 3:-0.134313 4:-0.0792189 5:-0.354624 6:-0.864763 7:-0.813009 8:-0.25718 9:0.935472 10:0.448949 
-54.16995816723765 1:-0.197001 2:0.180155 3:-0.507105 4:-0.754863 5:-0.0680608 6:0.709658 7:-0.900126 8:-0.499555 9:-0.661534 10:-0.459348 
-128 1:-0.0313372 2:-0.343846 3:-0.333252 4:-0.345207 5:0.00141214 6:0.418619 7:-0.59004 8:0.110045 9:0.147242 10:0.346435 
-46.07995096670403 1:0.683139 2:-0.12922 3:0.986089 4:0.505998 5:0.607907 6:0.251597 7:-0.848182 8:-0.173775 9:0.819228 10:-0.854759 
-28.46206220362432 1:-0.17404 2:0.0378 3:-0.444625 4:-0.486256 5:0.620952 6:-0.943733 7:0.0622816 8:0.551496 9:0.732287 10:0.51716 
-128 1:0.704633 2:0.00999271 3:0.159475 4:-0.545349 5:-0.905532 6:0.188709 7:-0.91112 8:-0.697351 9:-0.481283 10:-0.736295 
-22.41793823000929 1:-0.338433 2:0.608003 3:-0.956327 4:0.431021 5:-0.94033 6:-0.713809 7:0.780723 8:-0.568803 9:0.466929 10:-0.49911 
-128 1:-0.164675 2:0.586299 3:-0.553692 4:-0.820176 5:-0.701814 6:-0.891663 7:-0.428516 8:-0.114682 9:-0.281494 10:0.517476 
-85.87803899480876 1:0.455814 2:0.0314089 3:0.786404 4:-0.177587 5:0.931561 6:-0.300641 7:-0.997763 8:0.806135 9:-0.0594948 10:0.561706 
-128 1:0.108712 2:-0.305759 3:-0.615884 4:-0.164591 5:0.100317 6:-0.141454 7:0.382337 8:0.238639 9:-0.971931 10:0.0161303 
-27.36854592047889 1:0.117986 2:-0.214533 3:-0.909804 4:-0.442267 5:-0.505465 6:0.401445 7:0.0226765 8:0.535843 9:-0.551461 10:0.998751 
-128 1:0.326102 2:0.426407 3:-0.289476 4:-0.762431 5:0.537388 6:0.921261 7:0.360209 8:0.732367 9:0.635375 10:0.323638 
-17.9697072872605 1:0.60859 2:-0.155002 3:0.972344 4:0.846336 5:-0.715377 6:-0.709509 7:-0.462019 8:0.779563 9:-0.591499 10:-0.983196 
-14.72772538243675 1:-0.573248 2:0.55638 3:0.84539 4:-0.197646 5:-0.89912 6:-0.969341 7:-0.665631 8:-0.771116 9:-0.784226 10:0.645352 
-43.75499320941964 1:-0.667628 2:0.220147 3:0.165308 4:-0.212059 5:0.20316 6:0.468999 7:-0.735752 8:0.457788 9:-0.155914 10:-0.935868 
-119.9748833421117 1:0.287193 2:-0.0187989 3:0.690257 4:-0.174194 5:0.955574 6:-0.188637 7:-0.853905 8:-0.591119 9:0.320718 10:-0.831588 
-121.5422101457313 1:-0.533325 2:0.520207 3:-0.664288 4:-0.401525 5:-0.62111 6:0.607211 7:-0.0375706 8:0.080317 9:0.105482 10:-0.439485 
-117.2233884017858 1:-0.332942 2:0.431254 3:0.85355 4:-0.0288969 5:-0.878157 6:-0.698875 7:0.90991 8:0.308203 9:0.953645 10:-0.412431 
-33.57009984529429 1:0.6457 2:-0.140828 3:0.817481 4:0.883018 5:0.98495 6:0.400211 7:-0.196657 8:-0.949522 9:-0.601945 10:0.621636 
-128 1:0.329258 2:0.381416 3:0.632322 4:-0.239338 5:0.871243 6:-0.803892 7:0.429339 8:0.884805 9:0.807334 10:-0.335558 
-128 1:-0.357015 2:-0.0802844 3:0.69071 4:-0.140031 5:0.569248 6:-0.99785 7:-0.485032 8:-0.00620164 9:0.54185 10:0.479227 
-35.8670331112399 1:0.522737 2:0.126137 3:0.38412 4:0.691342 5:0.671734 6:0.902014 7:0.360204 8:0.754973 9:-0.81331 10:-0.927913 
-58.5319450387541 1:0.696445 2:0.0732148 3:0.351948 4:0.0870358 5:0.406116 6:0.0302387 7:-0.0545719 8:0.0281753 9:0.454947 10:0.729315 
-128 1:0.146796 2:0.455906 3:-0.282161 4:-0.795021 5:-0.469816 6:-0.922113 7:-0.875921 8:0.723507 9:-0.0702074 10:-0.759484 
-128 1:0.724786 2:0.00389689 3:-0.552904 4:-0.761999 5:0.719035 6:-0.660673 7:-7.08993e-05 8:-0.859708 9:0.604913 10:0.365631 
-24.95689407905677 1:-0.642287 2:0.436965 3:0.993925 4:0.51242 5:0.552842 6:0.810558 7:0.654306 8:0.819267 9:0.0453005 10:0.348562 
-128 1:-0.467515 2:-0.0793352 3:0.833132 4:-0.681116 5:0.65878 6:-0.818873 7:0.929392 8:0.802078 9:0.695012 10:0.916513 
-55.95096984593458 1:0.436118 2:0.249825 3:-0.248875 4:-0.351455 5:-0.593858 6:-0.0738549 7:0.484454 8:-0.735038 9:0.66669 10:0.0879874 
-128 1:0.607491 2:0.0454356 3:-0.505171 4:-0.633727 5:-0.535217 6:0.789289 7:-0.116614 8:-0.464921 9:0.666499 10:-0.648315 
-128 1:0.35653 2:0.420808 3:0.172866 4:0.0450015 5:0.99809 6:0.335801 7:-0.876515 8:-0.206819 9:0.241469 10:-0.191205 
-128 1:0.620091 2:0.0327378 3:0.0418684 4:-0.652966 5:-0.323724 6:0.860484 7:0.11875 8:-0.741407 9:0.375175 10:-0.347597 
-128 1:-0.683159 2:0.253544 3:-0.331834 4:-0.591418 5:0.754253 6:0.0501309 7:0.546902 8:-0.0692686 9:0.123862 10:-0.235034 
-128 1:0.704084 2:-0.114441 3:0.391745 4:-0.38959 5:-0.778219 6:0.369796 7:-0.40798 8:-0.540596 9:0.500067 10:-0.652052 
-67.19774157953053 1:-0.421767 2:-0.195064 3:-0.690246 4:-0.460544 5:-0.0129638 6:0.154111 7:-0.904457 8:-0.171227 9:-0.801977 10:-0.913287 
-10.87126609235859 1:-0.690287 2:-0.0261674 3:-0.203343 4:-0.0333976 5:-0.144715 6:-0.537708 7:-0.822091 8:-0.25906 9:-0.12632 10:-0.560398 
-65.48049293148121 1:-0.290942 2:-0.292548 3:0.839945 4:-0.230825 5:-0.218652 6:-0.531694 7:-0.433037 8:-0.788568 9:-0.711421 10:-0.841033 
-128 1:0.328062 2:-0.262399 3:0.451107 4:-0.661647 5:-0.684011 6:-0.686341 7:-0.102361 8:0.271953 9:0.991289 10:-0.466089 
-128 1:0.698353 2:-0.0913159 3:0.20489 4:-0.57977 5:-0.387333 6:-0.283882 7:-0.25554 8:-0.126028 9:-0.495312 10:-0.724718 
-128 1:0.398604 2:0.236881 3:0.417555 4:-0.151819 5:0.235157 6:0.659208 7:-0.882928 8:0.583868 9:0.983305 10:0.559376 
-41.07748394844756 1:0.753691 2:-0.056555 3:0.956447 4:0.479825 5:-0.204232 6:-0.751451 7:-0.490403 8:0.569174 9:0.464454 10:-0.525102 
-37.82047247162871 1:-0.64058 2:0.295955 3:-0.0486676 4:0.779787 5:-0.895406 6:0.932003 7:-0.63369 8:0.2385 9:0.453828 10:-0.0710224 
-128 1:-0.31523 2:0.495045 3:-0.113299 4:-0.426214 5:-0.381289 6:-0.73336 7:-0.496283 8:0.637746 9:0.813663 10:0.0344622 
-103.0869640348857 1:-0.596078 2:0.382822 3:-0.836071 4:-0.769303 5:0.954119 6:-0.731284 7:-0.271332 8:-0.852288 9:-0.526773 10:0.331709 
-30.63276383750022 1:0.586766 2:0.187031 3:0.423163 4:0.946112 5:-0.355003 6:-0.902649 7:-0.899017 8:0.625826 9:0.436852 10:0.00192258 
-15.17185060646321 1:0.634882 2:0.00636475 3:0.362858 4:0.445193 5:-0.097491 6:-0.646338 7:-0.849053 8:0.153239 9:-0.452637 10:-0.117595 
-94.06754680250255 1:-0.37624 2:-0.315504 3:0.993103 4:-0.249244 5:-0.486468 6:-0.351621 7:0.0611886 8:0.0162077 9:-0.779255 10:0.0278404 
-46.34150688873929 1:0.759006 2:-0.0668342 3:-0.209435 4:0.72689 5:0.298385 6:0.338321 7:0.487898 8:-0.166875 9:-0.267701 10:-0.803969 
-128 1:0.576859 2:-0.165795 3:-0.245762 4:-0.748199 5:0.650336 6:-0.622585 7:-0.0635457 8:0.168031 9:-0.776383 10:-0.185192 
-128 1:0.269417 2:-0.27573 3:0.333671 4:-0.705412 5:-0.295886 6:0.612484 7:-0.356914 8:0.399142 9:-0.845965 10:0.333873 
-128 1:-0.58921 2:-0.20881 3:-0.162168 4:-0.371661 5:0.451349 6:-0.86066 7:0.613651 8:0.969344 9:0.454035 10:0.492311 
-128 1:0.433675 2:-0.285362 3:-0.249454 4:-0.272809 5:-0.128905 6:0.0587593 7:0.310912 8:0.897581 9:0.362424 10:-0.136978 
-74.12019407791674 1:-0.343609 2:0.330041 3:0.891597 4:-0.0621097 5:-0.855181 6:-0.739323 7:0.852283 8:-0.642613 9:-0.891843 10:-0.362305 
-63.55995180229393 1:-0.123258 2:-0.20779 3:0.526658 4:-0.527667 5:-0.342623 6:0.822916 7:0.597584 8:-0.695005 9:-0.178455 10:-0.892276 
-103.9634254414026 1:0.618333 2:0.169539 3:-0.0929181 4:-0.00142661 5:0.764921 6:0.48165 7:0.609623 8:0.793199 9:-0.392461 10:-0.584326 
-63.42086756866707 1:-0.200987 2:0.0948349 3:0.920821 4:-0.833116 5:0.298024 6:0.834179 7:0.615812 8:0.0677721 9:-0.119043 10:0.541555 
-128 1:-0.604098 2:0.458451 3:-0.411344 4:0.0919579 5:0.267732 6:-0.888459 7:-0.722393 8:-0.297973 9:-0.828286 10:0.860004 
-22.51262743474417 1:0.217065 2:-0.355116 3:-0.899504 4:0.620616 5:0.116764 6:-0.650508 7:0.55935 8:0.588563 9:-0.382371 10:0.575741 
-128 1:-0.261178 2:0.517652 3:-0.742591 4:-0.474024 5:0.469583 6:0.605852 7:-0.734549 8:0.674531 9:0.542372 10:-0.42394 
-18.60657265383565 1:0.0812443 2:-0.368574 3:-0.249944 4:0.693012 5:-0.827114 6:0.730534 7:0.663384 8:-0.294728 9:-0.420871 10:-0.904042 
-128 1:0.458168 2:0.0750358 3:-0.865242 4:-0.358108 5:0.579813 6:-0.908855 7:-0.128578 8:0.431094 9:-0.299642 10:-0.0415136 
-128 1:-0.492896 2:0.544719 3:-0.199763 4:0.450068 5:0.511161 6:-0.240536 7:0.829342 8:0.233555 9:0.271789 10:0.855911 
-14.28603916823826 1:-0.402828 2:0.605546 3:0.329866 4:0.835122 5:0.000901946 6:-0.589848 7:0.928277 8:0.840448 9:-0.041829 10:0.254944 
-67.75302053796798 1:-0.577502 2:0.512274 3:-0.470959 4:0.755733 5:-0.438039 6:0.607108 7:-0.3816 8:0.670859 9:-0.64901 10:-0.828184 
-23.69933547713055 1:0.375802 2:-0.0127453 3:-0.0168684 4:-0.247794 5:0.320063 6:-0.719798 7:-0.921864 8:-0.884045 9:0.970048 10:0.539664 
-72.81355908399783 1:-0.68931 2:-0.134191 3:0.879877 4:-0.166732 5:0.483941 6:-0.192345 7:-0.665879 8:-0.0635534 9:-0.29035 10:-0.647169 
-99.4884182366127 1:-0.348919 2:0.652061 3:0.00695483 4:0.877318 5:-0.984329 6:0.651339 7:-0.192039 8:0.107627 9:0.393801 10:-0.370761 
-36.1898708483828 1:0.374961 2:-0.347748 3:0.535112 4:0.815466 5:0.532167 6:-0.553342 7:0.0272553 8:-0.551465 9:-0.610497 10:-0.93506 
-128 1:0.520021 2:-0.268439 3:-0.863161 4:-0.518345 5:-0.850525 6:-0.531402 7:-0.647206 8:-0.0534609 9:0.612796 10:0.0380241 
-57.32287671643873 1:-0.695164 2:0.048262 3:-0.922235 4:-0.525357 5:-0.151607 6:0.246642 7:0.522795 8:-0.29855 9:-0.946841 10:-0.981001 
-128 1:-0.189465 2:0.649556 3:0.0302915 4:-0.483919 5:-0.143945 6:0.547366 7:0.547794 8:0.905941 9:-0.507163 10:0.321169 
-69.36603630616831 1:-0.336436 2:-0.288709 3:-0.678599 4:0.0866874 5:0.318709 6:-0.797747 7:-0.455486 8:0.917108 9:-0.821722 10:0.199323 
-36.20217072640203 1:0.10858 2:0.0258474 3:0.914792 4:-0.582186 5:-0.50838 6:-0.571375 7:-0.5477 8:0.734537 9:0.000653299 10:0.304087 
-128 1:0.736852 2:-0.106714 3:0.475297 4:0.139589 5:0.393407 6:-0.86477 7:0.795893 8:0.318526 9:0.391832 10:0.0558 
-2.668894425003981 1:-0.702058 2:0.186117 3:0.0532391 4:0.761741 5:-0.36017 6:0.0862421 7:-0.683957 8:-0.876927 9:0.344713 10:0.839457 
-53.64429088887525 1:-0.325653 2:-0.324096 3:-0.446006 4:-0.166883 5:-0.326053 6:0.901067 7:0.752585 8:0.891273 9:-0.54241 10:-0.129405 
-128 1:0.75815 2:-0.0452493 3:-0.422895 4:0.675565 5:-0.935948 6:0.955117 7:0.224093 8:0.75427 9:0.238119 10:0.412479 
-128 1:-0.644328 2:-0.202194 3:0.208043 4:-0.461573 5:0.532069 6:-0.755514 7:0.82451 8:0.69794 9:0.293311 10:-0.606025 
-38.58283409483391 1:0.656863 2:-0.220017 3:0.894747 4:-0.277793 5:0.203967 6:0.510995 7:-0.280472 8:-0.487451 9:-0.505344 10:0.799574 
-62.33302238606667 1:0.664847 2:-0.033142 3:-0.941721 4:0.107403 5:-0.276037 6:0.924844 7:0.767525 8:0.0787449 9:0.33568 10:0.5753 
-116.6248127672467 1:-0.550075 2:0.452014 3:-0.468762 4:-0.346977 5:-0.281237 6:-0.4693 7:-0.543818 8:0.818025 9:0.533381 10:-0.0990085 
-128 1:0.0926542 2:0.559829 3:-0.385414 4:-0.458449 5:-0.221922 6:0.399557 7:0.908512 8:0.213036 9:0.362116 10:-0.932372 
-128 1:0.603676 2:-0.275062 3:0.00326009 4:-0.434653 5:-0.602987 6:0.642298 7:0.373093 8:-0.57748 9:0.797528 10:-0.307393 
-61.93413651613837 1:0.533527 2:0.0396562 3:0.922389 4:-0.0474109 5:0.34323 6:-0.0974625 7:0.703722 8:0.938832 9:0.135637 10:-0.916639 
-128 1:0.721371 2:-0.104443 3:0.380362 4:-0.514479 5:0.125536 6:0.01327 7:-0.423555 8:0.0711606 9:0.778872 10:-0.187409 
-128 1:0.182874 2:0.143376 3:-0.549174 4:-0.563065 5:-0.934943 6:-0.488265 7:0.748044 8:0.702998 9:0.196523 10:0.86519 
-128 1:0.0952912 2:0.232936 3:0.641676 4:0.205431 5:0.182529 6:-0.805116 7:-0.160312 8:-0.846611 9:0.702462 10:0.909435 
-0.3072439442558866 1:0.325582 2:0.40884 3:-0.0932528 4:-0.783603 5:-0.0974577 6:0.782441 7:0.501007 8:0.926022 9:-0.610532 10:0.934148 
-23.6933967711452 1:0.597608 2:-0.0360036 3:0.815565 4:0.896937 5:-0.931486 6:0.565367 7:0.549858 8:-0.910846 9:-0.351788 10:-0.894465 
-128 1:0.647497 2:-0.0246205 3:0.0221687 4:-0.254143 5:-0.231938 6:-0.634914 7:0.382627 8:-0.594787 9:-0.681754 10:0.322961 
-48.85485687001255 1:-0.57277 2:0.0217133 3:-0.732618 4:-0.653337 5:0.821066 6:-0.346751 7:0.335182 8:0.913987 9:-0.579918 10:0.898764 
-44.80156220588001 1:0.600709 2:-0.266632 3:0.277943 4:0.432287 5:0.906663 6:0.620613 7:0.131241 8:-0.133744 9:0.897943 10:0.657439 
-128 1:0.276203 2:-0.263841 3:0.2942 4:-0.396597 5:0.0765591 6:-0.0202023 7:0.923027 8:0.783945 9:0.590344 10:-0.396388 
-128 1:-0.209583 2:-0.332709 3:-0.986114 4:-0.59775 5:0.147921 6:0.511764 7:-0.264435 8:-0.912103 9:0.373795 10:0.924824 
-128 1:-0.613752 2:0.464939 3:-0.693512 4:-0.768826 5:0.47849 6:-0.235799 7:0.46907 8:-0.216084 9:-0.641979 10:0.666667 
-89.48377255501788 1:0.445451 2:0.34811 3:-0.272513 4:0.882835 5:-0.945053 6:0.917556 7:-0.113778 8:-0.933747 9:-0.107412 10:0.261453 
-125.0558770946046 1:-0.480151 2:-0.267919 3:0.918406 4:-0.894855 5:0.209391 6:0.766412 7:0.884313 8:0.00329218 9:-0.447786 10:-0.805935 
-24.32301139952125 1:-0.114179 2:0.504334 3:0.738784 4:0.73658 5:0.13138 6:-0.899492 7:-0.30404 8:0.885596 9:0.364836 10:0.85531 
-128 1:0.313951 2:0.315022 3:-0.206522 4:-0.699063 5:0.732448 6:0.148785 7:-0.0347877 8:0.964751 9:0.635222 10:0.62895 
-128 1:0.197958 2:0.461536 3:-0.393039 4:-0.647825 5:0.330994 6:-0.700443 7:0.351121 8:-0.49426 9:0.157496 10:0.184573 
-62.48555776282936 1:-0.701895 2:-0.0615399 3:0.505815 4:-0.258925 5:-0.0602075 6:0.169926 7:0.284931 8:0.599475 9:-0.402446 10:0.338581 
-128 1:-0.511618 2:0.373379 3:-0.193258 4:-0.207609 5:-0.700885 6:0.543225 7:0.412096 8:-0.767341 9:-0.220405 10:0.777961 
-24.52329080433397 1:-0.662281 2:0.265363 3:0.0960666 4:0.94857 5:0.340726 6:0.917265 7:0.339696 8:0.308056 9:0.307822 10:-0.92037 
-75.24362021358323 1:-0.711126 2:0.209903 3:0.89384 4:0.172627 5:0.988581 6:0.380379 7:0.0258749 8:-0.0469647 9:-0.617276 10:-0.869896 
-89.80626377621293 1:0.647058 2:0.15561 3:0.606845 4:0.626101 5:0.356439 6:-0.57211 7:0.428336 8:0.511227 9:0.0590007 10:0.360683 
-21.50942706939778 1:-0.586257 2:0.0848158 3:-0.362205 4:-0.514715 5:-0.509911 6:-0.911106 7:0.152036 8:0.922025 9:-0.716148 10:-0.878166 
-115.1428996791877 1:0.355525 2:-0.235162 3:-0.109643 4:-0.316568 5:-0.480907 6:-0.490409 7:0.429879 8:0.0863956 9:0.493465 10:-0.519794 
-50.00234706605395 1:0.528725 2:-0.315729 3:0.500861 4:0.214058 5:-0.785761 6:-0.23216 7:0.399044 8:0.0448974 9:-0.832901 10:-0.173459 
-128 1:-0.517004 2:0.152552 3:-0.779138 4:-0.54599 5:-0.277802 6:-0.637016 7:-0.642981 8:0.889134 9:0.815828 10:0.516753 
-128 1:0.095876 2:0.595365 3:-0.526215 4:0.84796 5:-0.619382 6:0.762004 7:0.367602 8:-0.65926 9:0.0598616 10:0.692234 
-128 1:0.218904 2:-0.34334 3:0.267745 4:-0.749587 5:0.442307 6:0.294031 7:0.1382 8:-0.011582 9:0.292328 10:-0.983597 
-128 1:-0.268518 2:-0.336787 3:-0.510719 4:-0.199152 5:-0.201352 6:0.211208 7:-0.490597 8:0.0128084 9:-0.349738 10:-0.0317631 
-39.25842737996416 1:-0.362024 2:0.217778 3:0.484845 4:-0.862339 5:0.886111 6:-0.790594 7:0.993107 8:-0.991759 9:-0.766217 10:-0.0455456 
-125.8000382706127 1:-0.478329 2:0.590126 3:0.891903 4:0.252855 5:0.982549 6:0.30568 7:-0.71848 8:-0.889974 9:-0.0013448 10:0.709318 
-12.16687289458097 1:0.671363 2:-0.20154 3:-0.0607369 4:0.954955 5:0.721488 6:-0.454942 7:0.643424 8:0.784079 9:0.430913 10:0.257777 
-128 1:0.24579 2:-0.327267 3:-0.0360939 4:-0.406598 5:0.173469 6:-0.855346 7:0.268461 8:-0.369234 9:0.28859 10:-0.220574 
-128 1:-0.430953 2:-0.305851 3:0.106314 4:-0.521638 5:-0.97524 6:-0.34688 7:-0.220347 8:0.0847692 9:-0.617704 10:-0.955142 
-20.94114804557871 1:-0.296319 2:0.650804 3:-0.42138 4:-0.137216 5:-0.482983 6:-0.0117907 7:-0.581644 8:-0.979033 9:0.227626 10:-0.626571 
-128 1:-0.461998 2:-0.293539 3:-0.28993 4:-0.451723 5:0.280223 6:0.681183 7:-0.205337 8:0.0475443 9:0.859343 10:-0.383635 
-3.379174699132208 1:-0.13525 2:-0.0640289 3:-0.785582 4:-0.594845 5:0.285867 6:-0.600191 7:0.978552 8:-0.0619323 9:0.0537768 10:-0.245906 
-23.42033130190478 1:-0.449089 2:-0.0502131 3:-0.046925 4:-0.736877 5:-0.965229 6:-0.873856 7:0.136115 8:0.999182 9:0.392769 10:-0.112832 
-128 1:-0.490134 2:0.525725 3:0.665156 4:-0.00406745 5:0.18771 6:-0.337955 7:0.31567 8:-0.116121 9:0.699215 10:-0.91445 
-16.38540217753625 1:-0.526518 2:0.156334 3:-0.358341 4:-0.428574 5:-0.976316 6:-0.281942 7:0.900788 8:0.888882 9:-0.960684 10:0.822034 
-128 1:0.324068 2:-0.222323 3:0.393591 4:-0.729522 5:-0.621355 6:-0.281599 7:-0.140237 8:-0.955838 9:-0.566064 10:0.832104 
-128 1:0.292942 2:0.441517 3:-0.0915671 4:-0.392703 5:-0.795859 6:-0.798362 7:0.950401 8:0.687979 9:-0.0642182 10:-0.392644 
-128 1:-0.233564 2:0.535569 3:-0.448337 4:-0.255823 5:-0.722378 6:-0.968341 7:0.684767 8:-0.469109 9:0.493344 10:0.307202 
-40.80264646513638 1:-0.273818 2:0.207281 3:0.715058 4:-0.205923 5:0.577286 6:-0.92385 7:0.149796 8:-0.26822 9:-0.984363 10:-0.71192 
-128 1:0.181165 2:0.486162 3:0.109189 4:-0.446964 5:-0.595432 6:-0.630762 7:0.213232 8:0.573789 9:0.0555699 10:0.8316 
-128 1:-0.292311 2:0.673335 3:-0.1966 4:-0.046377 5:-0.997037 6:0.844833 7:0.147432 8:0.947444 9:-0.891163 10:0.685362 
-52.47111736387306 1:-0.390754 2:0.270074 3:-0.466055 4:-0.59571 5:-0.192591 6:0.32287 7:-0.41369 8:0.581725 9:-0.421066 10:0.0526058 
-109.6608241981942 1:0.506304 2:-0.224425 3:0.503776 4:0.962925 5:0.656087 6:0.951669 7:0.191438 8:-0.0991793 9:-0.82714 10:0.904707 
-128 1:0.739584 2:0.00727174 3:-0.688886 4:-0.267752 5:0.156 6:0.278581 7:-0.608979 8:0.733112 9:0.831237 10:-0.221761 
-126.56495127233 1:-0.618638 2:0.2684 3:-0.44165 4:-0.411796 5:-0.404095 6:-0.587964 7:-0.514804 8:-0.589599 9:-0.0667129 10:-0.708075 
-128 1:0.209403 2:0.504857 3:0.903037 4:0.159889 5:-0.152996 6:-0.147664 7:-0.785959 8:0.48608 9:-0.96763 10:0.245669 
-0.9971423590146953 1:-0.101188 2:-0.359054 3:-0.702715 4:-0.129867 5:-0.526515 6:0.886316 7:0.124522 8:0.924264 9:0.267048 10:-0.857958 
-62.81250741064649 1:-0.335167 2:0.61506 3:0.610849 4:0.242251 5:-0.906406 6:0.435427 7:-0.380599 8:0.283611 9:-0.0579399 10:-0.442413 
-128 1:0.579818 2:0.180036 3:-0.334409 4:-0.289458 5:-0.222173 6:0.12054 7:0.117973 8:0.693615 9:0.824934 10:0.535792 
-9.101785731480176 1:-0.525657 2:0.492454 3:-0.49093 4:-0.266224 5:0.0368542 6:-0.252727 7:-0.255784 8:-0.885497 9:0.190427 10:-0.0289093 
-128 1:0.280194 2:0.289303 3:-0.148151 4:-0.70771 5:0.331397 6:0.506915 7:0.0093865 8:-0.159727 9:0.300753 10:0.540042 
-5.322941066271452 1:0.3989 2:0.39271 3:-0.486719 4:0.185476 5:0.719328 6:-0.353344 7:-0.863298 8:0.704584 9:0.472389 10:0.738433 
-128 1:0.253332 2:0.145795 3:-0.0243764 4:-0.675997 5:-0.261033 6:-0.158743 7:-0.791305 8:-0.0853797 9:0.492049 10:0.374212 
-57.93736291157407 1:-0.287371 2:0.529604 3:-0.88733 4:-0.7374 5:-0.446749 6:0.0261307 7:-0.960679 8:-0.321201 9:0.757732 10:0.0555572 
-76.54788861352249 1:0.576074 2:-0.253766 3:0.300728 4:-0.469372 5:-0.933286 6:0.72952 7:-0.548913 8:-0.289551 9:0.452989 10:0.394028 
-3.414788620026361 1:-0.254551 2:0.177097 3:-0.730509 4:-0.661956 5:-0.0882312 6:0.0526576 7:-0.989776 8:0.671436 9:-0.909666 10:-0.431968 
-32.90363000219602 1:-0.68067 2:0.355204 3:-0.0566112 4:-0.313248 5:-0.344164 6:0.807421 7:-0.0128444 8:-0.341411 9:0.460666 10:-0.91598 
-27.94918536603191 1:0.724605 2:-0.140771 3:-0.295788 4:0.133771 5:-0.328367 6:-0.999351 7:0.992472 8:-0.588048 9:-0.556484 10:0.891812 
-45.71617052993133 1:-0.434118 2:0.377738 3:-0.609292 4:0.0472547 5:0.841242 6:0.901081 7:-0.916925 8:0.390782 9:0.0645264 10:-0.655577 
-74.74316995356359 1:-0.563811 2:-0.0491163 3:-0.879887 4:-0.708188 5:-0.538239 6:0.147255 7:-0.704404 8:-0.452351 9:-0.346123 10:0.547594 
-45.25402440289896 1:-0.440475 2:-0.219208 3:-0.708572 4:-0.396136 5:-0.242417 6:-0.630043 7:-0.903025 8:-0.965359 9:-0.954488 10:0.421928 
-30.38945605202013 1:-0.298422 2:-0.318211 3:-0.792556 4:-0.158365 5:0.516501 6:0.141507 7:-0.844195 8:-0.131646 9:-0.220331 10:0.79845 
-128 1:0.579049 2:0.164589 3:-0.101695 4:-0.663439 5:-0.0457553 6:0.153268 7:0.31472 8:-0.833869 9:-0.818887 10:-0.913911 
-26.64020602138954 1:-0.0717248 2:-0.350933 3:-0.76825 4:-0.362008 5:0.521888 6:-0.704554 7:0.994695 8:-0.588858 9:-0.331335 10:-0.112863 
-26.73268324573766 1:0.0748289 2:0.538234 3:-0.662052 4:0.590012 5:-0.195817 6:-0.377425 7:-0.89051 8:-0.844452 9:0.590739 10:-0.955125 
-56.30006665347578 1:-0.68224 2:0.352434 3:0.989032 4:0.607132 5:-0.650569 6:0.102892 7:-0.226607 8:-0.932647 9:0.939115 10:0.398306 
-46.50675413112104 1:-0.451239 2:-0.28281 3:0.988343 4:-0.672621 5:0.169369 6:0.440374 7:0.978559 8:0.761453 9:0.936975 10:0.590533 
-89.80263596759178 1:0.492066 2:0.0672807 3:-0.649066 4:-0.607223 5:0.0353702 6:0.518749 7:0.934494 8:0.152213 9:-0.198016 10:0.933019 
-128 1:-0.67635 2:0.383695 3:-0.065435 4:-0.468327 5:-0.648683 6:0.114655 7:-0.986222 8:-0.24309 9:0.0613146 10:0.0793367 
-128 1:-0.233153 2:0.678059 3:-0.333957 4:-0.429237 5:-0.548285 6:-0.434288 7:-0.780817 8:-0.144983 9:0.284406 10:-0.43341 
-115.3872350279252 1:-0.237762 2:0.59302 3:-0.249951 4:-0.367295 5:0.12451 6:-0.867339 7:0.988587 8:0.793978 9:-0.549738 10:0.258519 
-128 1:-0.478236 2:0.559892 3:-0.38747 4:-0.424747 5:0.284843 6:-0.184328 7:-0.875617 8:-0.914659 9:0.793491 10:-0.423069 
-128 1:-0.575772 2:-0.247424 3:-0.407389 4:-0.1629 5:0.796389 6:-0.390515 7:-0.658091 8:-0.225295 9:-0.61947 10:-0.124194 
-97.38366537695079 1:0.731506 2:-0.0680365 3:-0.576911 4:0.0239928 5:0.671248 6:-0.558686 7:0.0459869 8:-0.714846 9:0.430562 10:0.931128 
-2.343104761870925 1:-0.343647 2:0.392654 3:0.732221 4:-0.368728 5:0.998612 6:-0.562719 7:0.377997 8:-0.49719 9:0.857471 10:-0.835869 
-36.60876253772899 1:-0.520841 2:0.566694 3:0.941359 4:0.274948 5:-0.687357 6:0.831887 7:-0.607922 8:0.0742621 9:-0.757571 10:-0.55506 
-3.529626136823735 1:0.132327 2:-0.174035 3:-0.0925543 4:-0.466551 5:0.161187 6:0.00995778 7:0.796792 8:0.584357 9:0.0455578 10:-0.543282 
-24.46521344961782 1:0.473949 2:0.249972 3:-0.224539 4:0.775897 5:-0.526385 6:0.747361 7:-0.423605 8:-0.299378 9:0.925004 10:0.580435 
-21.70258760485077 1:-0.24344 2:0.57564 3:0.232767 4:0.934377 5:0.3772 6:-0.142439 7:-0.0238509 8:-0.881829 9:0.422036 10:0.352615 
-35.23945301983645 1:-0.558035 2:0.457821 3:-0.591884 4:-0.768972 5:-0.788661 6:0.775525 7:-0.783466 8:-0.112737 9:-0.786749 10:0.997696 
-39.43403690593258 1:0.22622 2:0.506081 3:-0.922758 4:-0.400963 5:0.462701 6:0.0341182 7:0.653657 8:-0.91323 9:0.3651 10:0.403495 
-107.4708569731203 1:-0.0437143 2:0.525675 3:0.155032 4:-0.19668 5:-0.690486 6:0.552806 7:-0.725001 8:-0.0857606 9:0.741826 10:0.197114 
-128 1:-0.129965 2:-0.362759 3:0.132637 4:-0.363221 5:0.97645 6:0.190581 7:-0.109244 8:0.945511 9:-0.0780444 10:0.328203 
-3.594797380287409 1:0.292843 2:-0.216038 3:0.44691 4:0.580858 5:-0.907901 6:0.264573 7:-0.951191 8:-0.0316507 9:-0.242959 10:-0.978302 
-16.72058653986145 1:-0.116473 2:0.478967 3:-0.908271 4:-0.636868 5:0.593395 6:-0.631449 7:0.303894 8:-0.948907 9:0.458996 10:0.680616 
-128 1:0.0806877 2:0.163625 3:0.364342 4:-0.211227 5:0.00350223 6:-0.942969 7:-0.846452 8:-0.670729 9:-0.0942432 10:-0.252359 
-9.905123824645427 1:-0.43842 2:-0.17253 3:-0.293207 4:0.739095 5:0.721606 6:0.823511 7:-0.988472 8:0.266442 9:0.944387 10:0.587249 
-128 1:-0.300532 2:0.109368 3:0.476355 4:-0.495432 5:0.6139 6:0.499282 7:-0.31043 8:-0.256606 9:-0.293217 10:-0.0983792 
-101.8767198152416 1:-0.530254 2:0.40795 3:-0.941612 4:-0.939446 5:0.243899 6:0.824856 7:0.63927 8:0.998223 9:0.0304351 10:0.485634 
-97.40632168476786 1:0.590071 2:0.206247 3:-0.511228 4:0.86306 5:0.799447 6:0.889459 7:0.0555713 8:-0.792916 9:0.64038 10:-0.426318 
-128 1:-0.0927743 2:0.635982 3:0.200271 4:-0.295172 5:0.828344 6:-0.0550924 7:0.345811 8:-0.249763 9:-0.550707 10:-0.43794 
-84.90914610896324 1:0.37849 2:-0.353274 3:0.46203 4:-0.470512 5:0.867921 6:0.496796 7:0.676145 8:0.155824 9:0.634687 10:0.461542 
-128 1:0.00781241 2:0.612149 3:-0.540748 4:-0.130215 5:-0.998616 6:0.571235 7:0.89099 8:0.378403 9:-0.991348 10:0.11473 
-118.0776747853503 1:0.368229 2:0.195342 3:0.972692 4:-0.303859 5:-0.427332 6:0.531787 7:0.459654 8:-0.698402 9:0.531497 10:0.709593 
-128 1:0.475267 2:-0.0822671 3:-0.182283 4:-0.568723 5:-0.591532 6:0.703458 7:0.314186 8:0.599475 9:-0.988997 10:-0.24194 
-2.358802631618021 1:0.673632 2:-0.00848457 3:0.168136 4:0.429617 5:-0.929208 6:-0.0374871 7:0.920195 8:0.679257 9:0.629746 10:0.539527 
-1.801584145682736 1:-0.751293 2:0.0666479 3:0.0446017 4:0.725148 5:0.389453 6:0.861782 7:-0.785507 8:-0.0115535 9:-0.738878 10:-0.773542 
-128 1:-0.274926 2:0.581482 3:-0.948692 4:-0.624271 5:0.0677092 6:-0.0917465 7:0.571028 8:-0.223152 9:0.432089 10:-0.313908 
-51.64124186004756 1:0.409194 2:0.290583 3:-0.995212 4:0.98333 5:-0.232762 6:-0.34908 7:0.52356 8:0.343772 9:0.711771 10:-0.219395 
-92.60638250848334 1:0.622706 2:0.0202719 3:0.15185 4:-0.377965 5:0.57229 6:-0.313596 7:0.0227436 8:0.604534 9:-0.544165 10:0.104663 
-15.02115712349859 1:-0.106378 2:0.679766 3:-0.453912 4:0.255233 5:-0.778124 6:0.956801 7:-0.119118 8:-0.785706 9:-0.440264 10:0.11592 
-128 1:0.0989008 2:0.303351 3:-0.226306 4:-0.616438 5:-0.387182 6:-0.51033 7:-0.319919 8:-0.594317 9:0.390544 10:0.916943 
-102.2776349293025 1:-0.428785 2:0.296173 3:-0.217394 4:0.93768 5:0.922448 6:0.30024 7:0.962226 8:-0.360244 9:0.725551 10:0.863568 
-124.3574634484086 1:0.0215994 2:0.620135 3:-0.825598 4:0.535352 5:-0.615956 6:0.618098 7:-0.0561329 8:-0.610677 9:0.866271 10:0.15996 
-128 1:-0.247785 2:0.117847 3:-0.159678 4:-0.736602 5:0.73388 6:-0.818414 7:-0.130918 8:0.829937 9:-0.644131 10:-0.702315 
-128 1:-0.0998994 2:0.620532 3:0.606624 4:-0.165114 5:-0.0773826 6:0.823565 7:0.490485 8:-0.716401 9:-0.914467 10:0.0860204 
-128 1:-0.622577 2:-0.157442 3:-1 4:-0.291694 5:0.0620499 6:-0.709401 7:-0.479601 8:0.647313 9:0.390732 10:-0.662437 
-128 1:-0.0449947 2:0.136345 3:-0.000752941 4:-0.737051 5:-0.597252 6:-0.647198 7:-0.192609 8:0.0157141 9:0.328529 10:0.44001 
-128 1:0.0939841 2:-0.301161 3:-0.882535 4:-0.460646 5:-0.191058 6:0.160392 7:-0.324972 8:-0.911916 9:-0.163917 10:-0.894041 
-128 1:0.0734283 2:0.597595 3:0.982968 4:-0.133845 5:-0.513922 6:0.780068 7:-0.823713 8:-0.247424 9:-0.624759 10:-0.414722 
-43.92014500462609 1:-0.287583 2:-0.0928627 3:0.215161 4:-0.434726 5:-0.877619 6:0.13301 7:0.0946177 8:-0.598447 9:-0.377976 10:0.318864 
-45.39895170679772 1:0.408044 2:0.241191 3:-0.003488 4:-0.485335 5:-0.343608 6:0.925567 7:-0.897484 8:-0.619579 9:-0.723869 10:-0.947869 
-128 1:-0.379893 2:0.69267 3:0.180018 4:0.423606 5:-0.414438 6:-0.164854 7:0.615457 8:0.499047 9:-0.875239 10:-0.208374 
-128 1:-0.61792 2:0.356646 3:0.336451 4:-0.597789 5:0.0169352 6:0.787214 7:-0.341801 8:0.200269 9:-0.0233265 10:-0.00055093 
-8.48517703186198 1:-0.444137 2:0.0304386 3:0.446505 4:0.181495 5:0.490162 6:-0.86116 7:-0.576273 8:-0.720951 9:0.743838 10:0.463754 
-128 1:-0.531683 2:0.455612 3:-0.877177 4:-0.761055 5:-0.787272 6:0.243429 7:-0.0607364 8:-0.0313861 9:-0.85123 10:-0.682886 
-128 1:0.15088 2:0.45819 3:0.919081 4:-0.200152 5:-0.988114 6:-0.390953 7:-0.717311 8:-0.368641 9:0.102597 10:0.140751 
-19.88900070041154 1:-0.0251267 2:0.421648 3:-0.536916 4:-0.636413 5:0.640713 6:-0.185871 7:0.339167 8:-0.825234 9:-0.697864 10:0.823393 
-43.3138858354773 1:-0.55021 2:-0.260459 3:0.0589641 4:-0.324738 5:-0.777222 6:-0.136685 7:-0.305657 8:-0.771769 9:-0.911663 10:-0.645954 
-128 1:0.707985 2:-0.0339787 3:0.097349 4:-0.630912 5:-0.343304 6:-0.176963 7:-0.330039 8:0.0791403 9:0.965017 10:-0.0444505 
-47.05168205971785 1:-0.735053 2:-0.00548237 3:-0.0485699 4:0.759028 5:0.346694 6:-0.737491 7:0.469568 8:0.117127 9:0.689918 10:0.444179 
-128 1:0.393423 2:0.386388 3:-0.27053 4:-0.451914 5:-0.556243 6:-0.414592 7:-0.548984 8:-0.589924 9:-0.521887 10:0.404986 
-53.85888893932661 1:0.364392 2:0.389699 3:0.940318 4:0.232353 5:0.938135 6:-0.665702 7:0.667681 8:-0.225866 9:-0.715366 10:-0.871856 
-91.58755447264133 1:-0.25723 2:0.709552 3:-0.846772 4:0.934928 5:0.859852 6:-0.312728 7:-0.460302 8:-0.671318 9:0.976517 10:-0.16997 
-36.93601733835288 1:0.595182 2:0.100101 3:-0.0695649 4:-0.391293 5:-0.2484 6:-0.424236 7:-0.939163 8:-0.607147 9:0.973855 10:-0.654127 
-28.18133745321871 1:-0.411459 2:0.0276263 3:-0.117526 4:-0.275826 5:-0.868099 6:0.944469 7:-0.0294629 8:0.39301 9:-0.656108 10:0.0711382 
-33.88914982164309 1:-0.563513 2:-0.220537 3:0.128529 4:0.265029 5:-0.840273 6:0.692824 7:0.104079 8:0.099673 9:-0.0255156 10:-0.677969 
-76.59700180068961 1:0.0148935 2:-0.177051 3:-0.981769 4:-0.64783 5:-0.206707 6:0.438045 7:-0.519653 8:-0.891296 9:-0.845184 10:-0.143197 
-10.7761442003939 1:-0.0138714 2:0.632671 3:-0.472843 4:0.359161 5:0.915899 6:-0.276989 7:0.432033 8:0.884645 9:-0.122804 10:-0.742628 
-128 1:0.428936 2:0.106049 3:-0.662063 4:-0.712452 5:-0.909317 6:-0.956395 7:0.179416 8:0.683219 9:-0.0978586 10:-0.674048 
-69.66923039173892 1:0.761973 2:-0.0993804 3:-0.59895 4:0.989916 5:-0.790698 6:-0.787728 7:-0.680227 8:-0.33985 9:-0.952647 10:-0.664128 
-128 1:-0.173214 2:0.662457 3:-0.979449 4:0.432833 5:0.267795 6:-0.925932 7:-0.768383 8:0.179096 9:-0.147043 10:0.880859 
-108.0937519824788 1:0.305906 2:-0.00163645 3:0.977941 4:-0.38845 5:-0.723928 6:0.299681 7:-0.126848 8:-0.102598 9:-0.468093 10:-0.907395 
-48.60423835122133 1:-0.572459 2:0.437209 3:-0.557805 4:-0.500477 5:0.74073 6:0.10572 7:0.396037 8:0.172142 9:0.886812 10:-0.871351 
-128 1:-0.290359 2:0.637109 3:0.713634 4:0.173048 5:0.0127821 6:0.815385 7:-0.156305 8:0.927363 9:0.302104 10:-0.0369191 
-82.41781599157775 1:-0.296003 2:0.145936 3:0.0886535 4:-0.209199 5:0.104228 6:0.937871 7:-0.430989 8:0.882685 9:0.98426 10:0.979981 
-101.900456398318 1:-0.418232 2:0.157755 3:0.736204 4:-0.722015 5:-0.946509 6:-0.983329 7:0.351227 8:0.354491 9:-0.0560347 10:0.902317 
-128 1:-0.412563 2:0.559428 3:-0.221403 4:-0.135238 5:-0.189667 6:-0.92938 7:-0.270642 8:-0.104927 9:-0.922833 10:-0.501122 
-31.25328090097307 1:-0.564842 2:-0.253428 3:0.656912 4:-0.333307 5:-0.258559 6:-0.818873 7:-0.877448 8:-0.859238 9:-0.672327 10:0.946287 
-128 1:0.124951 2:-0.318471 3:0.224004 4:-0.583512 5:0.290381 6:-0.3465 7:0.185644 8:-0.973527 9:0.107461 10:0.265725 
-128 1:-0.0347176 2:0.65477 3:0.452411 4:0.120574 5:0.272203 6:0.637935 7:0.729414 8:-0.632451 9:0.494649 10:0.120964 
-64.08555244673637 1:-0.415472 2:-0.0259564 3:0.256774 4:-0.337178 5:-0.0911819 6:-0.311266 7:0.717662 8:-0.515682 9:-0.369764 10:0.985712 
-101.0490844760384 1:-0.351168 2:0.408516 3:-0.457582 4:-0.395198 5:-0.502677 6:-0.707927 7:0.377672 8:-0.1646 9:-0.329771 10:0.814125 
-63.26159566589958 1:0.562971 2:0.0984488 3:0.36399 4:-0.49501 5:-0.169509 6:0.575111 7:0.605765 8:-0.999786 9:-0.246783 10:-0.182596 
-50.67441033168151 1:0.332007 2:0.405229 3:-0.130546 4:0.0168401 5:0.914249 6:0.816588 7:0.747645 8:-0.787938 9:-0.680874 10:-0.357775 
-128 1:0.188075 2:0.201825 3:-0.576651 4:-0.505175 5:0.0881035 6:-0.357675 7:0.752706 8:0.519892 9:0.955835 10:0.403228 
-128 1:0.303182 2:-0.289778 3:-0.996217 4:-0.545012 5:-0.752762 6:-0.906293 7:-0.961375 8:0.143571 9:-0.546361 10:0.0929924 
-58.28919447717227 1:0.663701 2:0.142666 3:-0.299683 4:0.920023 5:-0.538508 6:0.0539752 7:-0.744753 8:-0.243745 9:-0.03287 10:0.985724 
-29.33536546713964 1:-0.373796 2:0.611019 3:-0.254979 4:0.981508 5:0.25729 6:-0.0552772 7:-0.408701 8:-0.0652727 9:0.01823 10:0.984549 
-37.46582670733598 1:0.717398 2:-0.217669 3:-0.937871 4:0.321434 5:0.581609 6:0.375589 7:-0.586545 8:-0.94075 9:-0.416807 10:-0.622777 
-0.01281712966266408 1:-0.700421 2:0.321617 3:-0.269268 4:0.444833 5:0.891589 6:0.574614 7:-0.84433 8:0.1227 9:0.771689 10:-0.945427 
-96.51933206500405 1:0.3523 2:0.323839 3:0.455522 4:-0.21484 5:0.448711 6:-0.0937239 7:0.432911 8:-0.864063 9:-0.396122 10:0.616845 
-128 1:0.149434 2:-0.270506 3:0.172594 4:-0.281468 5:-0.204092 6:-0.744521 7:0.10765 8:0.580517 9:-0.402723 10:0.6625 
-128 1:0.102003 2:-0.288997 3:0.603731 4:-0.456437 5:-0.0311824 6:0.0284574 7:0.381183 8:0.135793 9:-0.0295322 10:0.409417 
-46.30675835328984 1:0.248389 2:0.416788 3:-0.108049 4:0.643111 5:0.93312 6:0.772888 7:0.822348 8:0.945136 9:0.922534 10:-0.152119 
-128 1:-0.591743 2:-0.212283 3:0.0659946 4:-0.372987 5:0.460818 6:0.493001 7:-0.379983 8:-0.813383 9:-0.617226 10:0.868583 
-82.84093179073646 1:0.312785 2:0.190322 3:-0.397261 4:-0.344814 5:-0.798094 6:0.547214 7:-0.572793 8:0.367886 9:0.890378 10:0.970438 
-128 1:0.417762 2:-0.321424 3:-0.367 4:-0.184886 5:-0.203742 6:-0.195843 7:0.469884 8:-0.161043 9:-0.707033 10:0.279609 
-128 1:-0.279323 2:-0.138318 3:0.74798 4:-0.73454 5:0.914625 6:-0.18182 7:0.649727 8:0.385919 9:-0.19643 10:-0.353532 
-128 1:-0.594234 2:-0.23185 3:-0.456637 4:-0.0667508 5:-0.465711 6:0.137907 7:0.677071 8:-0.197267 9:-0.367129 10:0.537485 
-68.80848178096329 1:-0.63272 2:-0.118694 3:0.662397 4:0.116197 5:0.93416 6:-0.410139 7:0.271966 8:-0.0126036 9:0.876179 10:0.687333 
-128 1:-0.0988396 2:0.578757 3:-0.305521 4:-0.517266 5:0.650296 6:-0.00120681 7:0.407689 8:0.545077 9:0.253437 10:0.296602 
-128 1:0.304305 2:-0.235844 3:0.853901 4:-0.747884 5:-0.360525 6:-0.802824 7:-0.959753 8:0.806074 9:-0.780066 10:-0.62864 
-128 1:-0.165448 2:-0.246566 3:-0.962279 4:-0.565768 5:0.443573 6:-0.208713 7:0.847655 8:0.0722521 9:0.689256 10:-0.131611 
-128 1:0.662225 2:-0.237334 3:-0.929251 4:-0.222998 5:-0.380774 6:0.270254 7:-0.687545 8:0.227783 9:0.224065 10:0.386364 
-112.3012856507585 1:-0.260314 2:0.302247 3:0.95264 4:-0.522323 5:0.16323 6:-0.290571 7:0.755774 8:-0.0311441 9:0.675337 10:-0.960999 
-128 1:-0.0836913 2:0.29213 3:-0.293844 4:-0.249249 5:0.422538 6:-0.755446 7:-0.0725285 8:-0.178747 9:0.440747 10:0.801064 
-128 1:0.642096 2:0.0951935 3:0.696992 4:-0.195202 5:-0.608967 6:0.722239 7:0.0977944 8:0.674806 9:-0.228623 10:-0.119876 
